embedding,shuf_mean,scaf_mean,shuf1,shuf2,shuf3,shuf4,shuf5,scaf1,scaf2,scaf3,scaf4,scaf5,receptor,regressor
CATS,0.2,0.0,0.0,0.0,0.0,0.0,1.0,0.0,0.0,0.0,0.0,0.0,MTEDNYSLTTEFILIGFSDHPDLKILLFLVLSTIYLVTMVGNLGLVALIYMEPRLHTPMYIFLGNLALMDSCCSCAITPKMLENFFSVNRRISLYECMAQFYFLCLAETADCFLLAAMAYDRYVAICNPLQYHTMMSKKLCLQMTTGAYIAGNLHSMIHIGFLFRLIFCRSHVIKHFFCDVLPLYRLSCVDPYINELMILIFSGSVQTFSIIIVLISYFCILFTIFTMKSREGRSKALSTCASHFLSVSIFYGSLLYTYIRPSSINEGNEDIPVAIFYTLVIPLLNPFIYSLRNKEVINAIKRTMNKG,r
CATS,0.2,0.0,-0.25,0.5833333333333334,0.0890870806374748,0.6666666666666666,-0.0890870806374748,0.0,0.0,0.0,0.0,0.0,MRENNQSSTLEFILLGVTGQQEQEDFFYILFLFIYPITLIGNLLIVLAICSDVRLHNPMYFLLANLSLVDIFFSSVTIPKMLANHLLGSKSISFGGCLTQMYFMIALGNTDSYILAAMAYDRAVAISRPLHYTTIMSPRSCIWLIAGSWVIGNANALPHTLLTASLSFCGNQEVANFYCDITPLLKLSCSDIHFHVKMMYLGVGIFSVPLLCIIVSYIRVFSTVFQVPSTKGVLKAFSTCGSHLTVVSLYYGTVMGTYFRPLTNYSLKDAVITVMYTAVTPMLNPFIYSLRNRDMKAALRKLFNKRISS,r
CATS,0.07161324224647445,0.0,0.0,0.0,0.1794871794871795,0.30261376633440124,-0.12403473458920847,0.0,0.0,0.0,0.0,0.0,MDQSNYSSLHGFILLGFSNHPKMEMILSGVVAIFYLITLVGNTAIILASLLDSQLHTPMYFFLRNLSFLDLCFTTSIIPQMLVNLWGPDKTISYVGCIIQLYVYMWLGSVECLLLAVMSYDRFTAICKPLHYFVVMNPHLCLKMIIMIWSISLANSVVLCTLTLNLPTCGNNILDHFLCELPALVKIACVDTTTVEMSVFALGIIIVLTPLILILISYGYIAKAVLRTKSKASQRKAMNTCGSHLTVVSMFYGTIIYMYLQPGNRASKDQGKFLTLFYTVITPSLNPLIYTLRNKDMKDALKKLMRFHHKSTKIKRNCKS,r
CATS,0.07745966692414834,0.0,0.0,0.0,0.6454972243679028,0.0,-0.2581988897471611,0.0,0.0,0.0,0.0,0.0,MGTGNDTTVVEFTLLGLSEDTTVCAILFLVFLGIYVVTLMGNISIIVLIRRSHHLHTPMYIFLCHLAFVDIGYSSSVTPVMLMSFLRKETSLPVAGCVAQLCSVVTFGTAECFLLAAMAYDRYVAICSPLLYSTCMSPGVCIILVGMSYLGGCVNAWTFIGCLLRLSFCGPNKVNHFFCDYSPLLKLACSHDFTFEIIPAISSGSIIVATVCVIAISYIYILITILKMHSTKGRHKAFSTCTSHLTAVTLFYGTITFIYVMPKSSYSTDQNKVVSVFYTVVIPMLNPLIYSLRNKEIKGALKRELRIKIFS,r
CATS,0.05449492609130661,0.0,0.0,0.0,0.27247463045653303,0.0,0.0,0.0,0.0,0.0,0.0,0.0,MSSCNFTHATFVLIGIPGLEKAHFWVGFPLLSMYVVAMFGNCIVVFIVRTERSLHAPMYLFLCMLAAIDLALSTSTMPKILALFWFDSREISFEACLTQMFFIHALSAIESTILLAMAFDRYVAICHPLRHAAVLNNTVTAQIGIVAVVRGSLFFFPLPLLIKRLAFCHSNVLSHSYCVHQDVMKLAYADTLPNVVYGLTAILLVMGVDVMFISLSYFLIIRTVLQLPSKSERAKAFGTCVSHIGVVLAFYVPLIGLSVVHRFGNSLHPIVRVVMGDIYLLLPPVINPIIYGAKTKQIRTRVLAMFKISCDKDLQAVGGK,r
CATS,0.0,0.0,0.0,0.0,0.0,0.0,0.0,0.0,0.0,0.0,0.0,0.0,MAWENQTFNSDFLLLGIFNHSPTHTFLFFLVLAIFSVAFMGNSIMVLLIYLDTQLHTPMYFLLSQLSLMDLMLICTTVPKMAFNYLSGSKSISMAGCATQIFFYISLLGSECFLLAVMSYDRYTAICHPLRYTNLMRPKICGLMTAFSWILGSTDGIIDAVATFSFSYCGSREIAHFCCDFPSLLILSCNDTSIFEEVIFICCIVMLVFPVAIIITSYARVILAVIHMGSGEGRRKAFTTCSSHLMVVGMYYGAGLFMCIQPTSHHSPMQDKMVSVFYTIVTPMLNPLIYSLRNKEVTRALMKILGKGKSGD,r
CATS,0.0,0.0,0.0,0.0,0.0,0.0,0.0,0.0,0.0,0.0,0.0,0.0,MMIKKNASSEDFFILLGFSNWPQLEVVLFVVILIFYLMTLTGNLFIIILSYVDSHLHTPMYFFLSNLSFLDLCHTTSSIPQLLVNLRGPEKTISYAGCMVQLYFVLALGIAECVLLVVMSYDRYVAVCRPLHYTVLMHPRFCHLLAAASWVIGFTISALHSSFTFWVPLCGHRLVDHFFCEVPALLRLSCVDTHANELTLMVMSSIFVLIPLILILTAYGAIARAVLSMQSTTGLQKVFRTCGAHLMVVSLFFIPVMCMYLQPPSENSPDQGKFIALFYTVVTPSLNPLIYTLRNKHVKGAAKRLLGWEWGK,r
CATS,0.0,0.0,0.0,0.0,0.0,0.0,0.0,0.0,0.0,0.0,0.0,0.0,MGDWNNSDAVEPIFILRGFPGLEYVHSWLSILFCLAYLVAFMGNVTILSVIWIESSLHQPMYYFISILAVNDLGMSLSTLPTMLAVLWLDAPEIQASACYAQLFFIHTFTFLESSVLLAMAFDRFVAICHPLHYPTILTNSVIGKIGLACLLRSLGVVLPTPLLLRHYHYCHGNALSHAFCLHQDVLRLSCTDARTNSIYGLCVVIATLGVDSIFILLSYVLILNTVLDIASREEQLKALNTCVSHICVVLIFFVPVIGVSMVHRFGKHLSPIVHILMADIYLLLPPVLNPIVYSVRTKQIRLGILHKFVLRRRF,r
CATS,0.0,0.0,0.0,0.0,0.0,0.0,0.0,0.0,0.0,0.0,0.0,0.0,MDQSNYSSLHGFILLGFSNHPKMEMILSGVVAIFYLITLVGNTAIILASLLDSQLHTPMYFFLRNLSFLDLCFTTSIIPQVLVNLWGPDKTISYVGCIIQLYVYMWLGSVECLLLAVMSYDRFTAICKPLHYFVVMNPHLCLKMIIMIWSISLANSVVLCTLTLNLPTCGNNILDHFLCELPALVKIACVDTTTVEMSVFALGIIIVLTPLILILISYGYIAKAVLRTKSKASQRKAMNTCGSHLTVVSMFYGTIIYMYLQPGNRASKDQGKFLTLFYTVITPSLNPLIYTLRNKDMKDALKKLMRFHHKSTKIKRNCKS,r
CATS,0.0,0.0,0.0,0.0,0.0,0.0,0.0,0.0,0.0,0.0,0.0,0.0,MDGVNDSSLQGFVLMGISDHPQLEMIFFIAILFSYLLTLLGNSTIILLSRLEARLHTPMYFFLSNLSSLDLAFATSSVPQMLINLWGPGKTISYGGCITQLYVFLWLGATECILLVVMAFDRYVAVCRPLRYTAIMNPQLCWLLAVIACLGGLGNSVIQSTFTLQLPLCGHRRVEGFLCEVPAMIKLACGDTSLNQAVLNGVCTFFTAVPLSIIVISYCLIAQAVLKIRSAEGRRKAFNTCLSHLLVVFLFYGSASYGYLLPAKNSKQDQGKFISLFYSLVTPMVNPLIYTLRNMEVKGALRRLLGKGREVG,r
CATS,0.35819138302400855,0.0,-0.3535533905932738,0.47140452079103173,0.47140452079103173,0.47140452079103173,0.7302967433402214,0.0,0.0,0.0,0.0,0.0,MKHSNDSKVTEFILLGFAGQNESWHILFVVFLVIYIATLVGNIGMILLIKLHSSLHTPMYFFLQHLAFVDLCYSSAITPRTLQNFVSTKPSISFTGCLAQLLVYGIFVTSDCFILAAMAVDRYVAICNPLRYPIIMSQRLCILLLLGSYTMGFLNATVNTGFTFLSNFCKSNVINHFFCDVPPILALSCSSIDLNIMVLTIFVGFNLTFTVSVVILSYTFILAAILRMSSASGRRKAFSTCASHMTAVTIFYGTLSYMYVLHGTNRSQEQEKVASVFYGIMIPMLNPLIYSLRNQDVIEALRHIGNKCF,r
CATS,0.0,0.0,0.0,0.0,0.0,0.0,0.0,0.0,0.0,0.0,0.0,0.0,MWSNISAAPFLLTGFPGLEAAHHWISIPFFAIYISVLLGNGTLLYLIKDDHNLHEPMYYFLAMLAGTDLTVTLTTMPTVMAVLWVNHREIRHGACFLQAYIIHSLSIVESGVLLAMSYDRFVAICTPLHYNSILTNSRVIAIGLGVVLRGFLSLVPPILPLFWFSYCRSHVLSHAFCLHQDVMKLACADITFNRIYPVVLVALTFFLDALIIVFSYVLILKTVMGIASGEERAKALNTCVSHISCVLVFYITVIGLTFIHRFGKNAPHVVHITMSYVYFLFPPFMNPIIYSIKTKQIQRSVLHLLSV,r
CATS,0.0,0.0,0.0,0.0,0.0,0.0,0.0,0.0,0.0,0.0,0.0,0.0,MGTGNWSQVIEFIILGFPHFQGVQIYLFFLLLSIYFTTILGNLLIFLVVYLDSRLHTPMYRFVSILSFLELGYTAATIPKMLANLLSEKKTISFSGCLLQIYFFHSLGATECYLLTAMAYDRYLAICRPLHYPTLMTQSLCIKIAIGCWLGGLAGPVVEISLVSRLPFCGPNHIQHIFCDFPPVLSLACTDTSVNVLVDFIINSCKILATFLLILSSYLQIIRTVLKIPSAAGKKKAFSTCASHLTVVLIFYGSILFMYVRLKKSYSLDYDRALAVVYSVITPFLNPFIYSLRNKEIKEALKRQLMRTGILR,r
CATS,0.0,0.0,0.0,0.0,0.0,0.0,0.0,0.0,0.0,0.0,0.0,0.0,MSLFPQRNLDAMNRSAAHVTEFVLLGFPGSWKIQIFLFVLFLVFYVLTLLGNGAIICAVRCDSRLHTPMYFLLGNFSFLEIWYVSSTIPNILANILSKTKAISFSGCFLQFYFFFSLGTTECLFLAVMAYDRYLAICRPLHYPTIMTRRLCCILVSSCWLIGFLGYPIPIFSISQLPFCGSNIIDHFLCDMDPLMALSCAPAPITEFIFYAQSSFVLFFTIAYILRSYILLLRAVFQVPSAAGRRKAFSTCGSHLVVVSLFYGTVMVMYVSPTYGIPILMQKILTLVYSVMTPLFNPLIYSLRNKDMKLALRNVLLGMRIVKNM,r
CATS,0.0,0.0,0.0,0.0,0.0,0.0,0.0,0.0,0.0,0.0,0.0,0.0,MEPQNLSKVTEFQLLGFQNLLEWQSLLFAIFLCFYLLTITGNMVIIGVVSEDPRLRAPMYTFLQHLSFLEIWYTSTTVPLLLSNLASWGHMLSFSACMAQLYFFVFFGATECFLLAAMAYDRYLAICHPLHYSLLMSPDNCAALVTVSWVTGVGTGFLPSLLISKLDFCGPNRINHFFCDLPPLIQLSCSSVYVTEMAIFVLSIAVLCICFLLTLVSYVFIVSSILRIPSTSGRMKTFSTCGSHLAVVTIYYGTMISMYVRPNAHLSPELNKVISVFYTVVTPLLNPVIYSLRNKDFKEAVRKIVRTKCGVYRARVKGSALTT,r
CATS,0.0,0.0,0.0,0.0,0.0,0.0,0.0,0.0,0.0,0.0,0.0,0.0,MLPFNDEDEFSLFRYSRTMHQGNQTAISGFILLGLTVGSEQQLLLFTLFLCMYLVTMVGNSLIILAIISDTHLYSPMYFFLANLSFTDICFTTTTVPKILADIQSQNPTISFVGCFTQMYFFMFLVDLDNFLLAAMAYDRYIAICHPLHYAALLNPKRCALLVVVPWVISNLVSVLHLSLLSRLPFCDQRVIPHFFCDLEPVLRLACSDTQINNLLILIVGGTVIFVPFVFILVSYALIGTAVLNVPSVKGKWKTFSTCGSHLSAVSLFYGSIVGVYFLPASSYSAERDKVAAIMYTVVTPMMNPFIYSLRNKDMKRALRRLLSQKSLICSW,r
CATS,0.0,0.0,0.0,0.0,0.0,0.0,0.0,0.0,0.0,0.0,0.0,0.0,MDGDNETMVAEFLLLGLSGKSEQEEVVFGMFLGMYLVTISGNLLIILAISCDPHLHTPMYFFLANLSSVDICFSSVTVPKALVNHVLGSKSISYTECMIQIYFFITFINMDGFLLSVMAYDRYVAICHPLHYTMMMRSRLCVLLVAISWVITNLHALLHTLLMVRLTFCSHNAVHHFFCDPYPILKLSCSDTFINDLMVFTVGGVIFLTPFSCIVVSYVYIFSKVLKIPSARGIRKALSTCGSHLTVVSLFYGAILGVYMRPSSSYSLQDTVATVIFTVVTPLVNPFIYSLRNQDMKGALRKIMLRS,r
CATS,0.16666666666666669,0.0,0.0,1.0,-0.16666666666666666,0.0,0.0,0.0,0.0,0.0,0.0,0.0,MRRDNESTVSEFILLGLPIRAEDQGLYSALFLAMYLTTVLGNLLIILLIRLDSHLHTPMYFFLSHLAFTDISFSSVASPKMVINMLTHSQSISYAGCVSQVYFFSFFADLESFLLTSMAYDRYVAICHPLHYSQIMSENLCVLLIVVSWTLSTANSLVHTLLLVQLSYFRNNTIPHYFCDLSTLLKLSSSDTTINELVILVLGNMVITLPFICILVSYGHIGVTIMKIPSIKGICKALSTCGSHLCVVSLYYGAIIGLYFVPSSNNTSDKDAIVAMMYTMVIPMLNPFIYSLRNRDMKGALRNILSGRLWSQ,r
CATS,0.3643167672515498,0.0,0.3,0.09128709291752768,0.4,0.3,0.7302967433402214,0.0,0.0,0.0,0.0,0.0,MEPRNNTHILEFFLLGFSQDPNLQPVICGLFLSMYLITVVGNLLIILTIISDANLHTPMYFFLSNLSFVDICFVSTTVPKMLVNIQTKRKSISYADCITQMYFFLIFVELDNFLLAVMAYDRYVAICHPLHYTGIMNRRLCGFLVLVCWIVSVLHALLQSMMVLRLSFCTDLEIPHFFCELNQVAQLTCSDTFLNDVVMYFALVLLAIVPLFGILYSYSKIVSSIRAMSTVQGKYKAFSTCASHLSVVSLFYFTGLGVYLSSAVSHSSQASATASVMYTVVTPMLNPFIYSLRNKDVKGALKRLLGVKL,r
CATS,0.0,0.0,0.0,0.0,0.0,0.0,0.0,0.0,0.0,0.0,0.0,0.0,MTAKNSSVTEFILAGLTDQPGLRMPLFFLFLGFYMVTVVGNLGLISLIGLNSHLHTPMYFFLFNLSLIDFCYSSTISPKMLMSFISKKNIISHPGCMAQLFFFCFFVISESFILSAMAYDRYVAICNPLMYMVTMSPQVCLLLLFGVYLMGFVGAMAHTISMARLTFCADNIVNHYMCDILPLLEHSCTSTYVNELVVFIFVSFDIGVPIVTIFISYALILSSILHMHSTEGRSKAFSTCSSHMIVVCLFFGSGAFMYLQPPSVLSLDQGKVSSLFYTIVVPMLNPLIYSLRNKDVKVTVRKTLDRRIFS,r
CATS,0.0,0.0,0.0,0.0,0.0,0.0,0.0,0.0,0.0,0.0,0.0,0.0,MVSENNSSVKEFILLGLTQLPELQLPLFFLFLGIYVFSMVGNLGLIVLIVLNPPLHTPMYYFLFNLSFTDLCYSSVITPKMLVGFVKQNIISHAECMTQLFFFAFFVIDECCILTAMAYDRYAAICKPLLYKVIMSHQVCFVLMVGGYTVGFVGATAHTVCMLRLTFCDGNIINHYMCDIPPLLKLSCTSTSINELVVFIVVGVSIIVPSLTVFISYTLILSNILRIHSAKGRSKALSTCSSHMIAVSLFFGSSSFIYFKSSPVGSVDKDKISTVFYTVVVPMMNPFIYSLRNKDVQIALRKTLKKNCSLK,r
CATS,0.0,0.0,0.0,0.0,0.0,0.0,0.0,0.0,0.0,0.0,0.0,0.0,MSLNAQKTMENDSSVSEFILMGLTDQPELQLPLFVLFLVNYTVTVMGNLSLMNLICLNSNLHTPMYFFIFNLSFIDFCYSMVFTPKMLMGFVVEKNIISFRGCMTQLFFFLFFVNSESYVLTAMAYDRYVAICQPLLYKAVMSPGICFLLIFCTYLMGLVSALFHTGFMIRLNFCDSNVINHYMCDIFPLFRLSCSSTYLTELVSSAVVGTAIILCCLIILISYGMILYNIIHMSSGKGWSKALGTCGSHIITVSLFYVTGMLAYVKPSSAETVGQGKIFSVFYTFLVPMLNPLIYSLRNKDVKLAVKKTWKRLTC,r
CATS,0.0,0.0,0.0,0.0,0.0,0.0,0.0,0.0,0.0,0.0,0.0,0.0,MATGNLTHVTEFILMGVTDRPELQVPLFFLFLVIYLLTAAGNLGIITLTSVDSRLQTPMYFFLRHLAVINFGNSTVIAPKMLVNFLVSKKTTLYYECATQLGGFLVFMVSEIFMLAVMAYDRYVAICNPLLYMVVVSRRVCLLLVFLTYLFSFVTAIVVTPCVFSVSYCSSNVINHFYCDNVPLLALSCSDTHLPETVVFFFSATNLFFSMIIVLISYFNIVLAILRIRSSEGRKKAFSTCASHMMAVTVFYGTLLFMYLQPRTNHSLDTDKIASVFYTLIIPMLNPVIYSLRNKDVKCALKEFLKNPCKKFNLI,r
CATS,0.6581988897471611,0.0,1.0,0.6454972243679028,0.0,1.0,0.6454972243679028,0.0,0.0,0.0,0.0,0.0,MQMESQNLTVVTEFILRGITDRPELQVPLFGLFFMIYLISLFGNLGMIILTIVESRLQTPMYFFLRHLAITDLGYSTAIGPKMLANFVVSKNTISFHLCATQLAFFLLFIACELFILSVMSYDRYVAICNPLLYNVIMSQTVCWVLVAIPYLYSVFISLIVTINIFSSSFCGYNVIPHFYCDGLPLISLLCTNTDKIGLIILILSAINLISSLLIILGSYLLIFRAILRMNSAEGRRKAFSTCGSHLTVVSVFYGTLIFMYVQPKTSHSFDTDKVASIFYTLVIPMLNPLIYSLRNKDVKYALRKTGKIIQNNFS,r
CATS,0.0,0.0,0.0,0.0,0.0,0.0,0.0,0.0,0.0,0.0,0.0,0.0,MKVSIPPRANFSYAIFLLTGFPGLEWAHHWISLPIFMGYFVAIMGNATILHLVRTDPSLHQPMYYFLAILAVTDLGLCMSTLPSVLGVLWFDARMVGLVPCVLQQHFLHSFSFMESAVLFAMALDRLIAIRFPLRYASVLTGPRVALIGTVLGMRSAAITAAPSLHLLTFDYCHPGALSHAYCLHQDMIRLACSDTRFNRLYGLCIIMLAMGSDVLFILLSYAVILRTVLAIASAGERLKALNTCVSHILAVLCFYVPVLGLSIVHRFGQHTSPLVHILMGTVSVLFPPVMNPVIYSIKTQQIRRAIVKVISLGKIQ,r
CATS,0.0,0.0,0.0,0.0,0.0,0.0,0.0,0.0,0.0,0.0,0.0,0.0,MEPGNYTVVTEVILLGFTEDAIIRAILFIVFLIIYSVTLMGNASIIMLIRRSPQLHTPMYLLLSHLAFVDIGYSSSVTPIMLKGFLRKETFILVSGCVAQLCSVVTFGSTECFLLAAMAYDRYVAICSPLLYATQMSSTVCILLVGASYLGGCVNAWTFTGCLLNLSFCRPNKVNHFFCDYSPLLKISCSHDFSSEVIPAISSGSIIVVTVFIIALSYVYILVSILKMRSTEGRQKAFSTCTSHLTAVTLFYGTITFIYVMPKSSYSTDQNKVVSVFYTVVIPMLNPIIYSLRNKDVKEAMKKLMANTHH,r
CATS,0.0,0.0,0.0,0.0,0.0,0.0,0.0,0.0,0.0,0.0,0.0,0.0,MTENNFTKVTVFMFSGFSDHPELQVSLFLIFLFIYLFTVWGNIGLILLIRIDSQLHTPMYFFLSNLAFIDIFYSSTVTPKAVVDFQSTQKSISFVGCFVQMYFFVGLVCSECFLLGSMAYDRYVAICNPLLYSVIMSQKVCNWLAVIPYMIGFTNSLISICVISSLPLCDPYINHFFCDTTALLALSCVDAFSTELVIFVLAGFTLLSSLLIITFTYVTIISAILRIQSAAGRWKAFSTCASHLTGVTVFYGSLIFTYLQPDNTSSLTQAQVASVFYTIVIPMLNPLIYSLRNKDVKNALLRVIHRKHLL,r
CATS,0.0,0.0,0.0,0.0,0.0,0.0,0.0,0.0,0.0,0.0,0.0,0.0,MSNHTRVTHFILRGFSDVPQLRLVLIPFFLLFYTFGILGNFSIITAVIRDSRLHSPMYFFLKNLSFLDICYTSATIPKAVVISLTGSGVISYQECVAQLYMFITLCGTECFLLTAMAYDRCLAILRPLIYGTIMSHKYCSALVVTAWVGGAIYSAFHTFNTFSLPYCGPNVVDHFFCDMPPVMRLSCTDYHLNEEVGFAVIGCIIMSSFALTVVSYIGIVATVLRIPSVEGRWKAFSTCSSHLTTVILFYGTGSFVYLRPASQYSPTLDPLASIFYSVVTPSLNPVIYCLRNKDMKFALQKLYCGRKY,r
CATS,0.0,0.0,0.0,0.0,0.0,0.0,0.0,0.0,0.0,0.0,0.0,0.0,MSNVTLVTTFFLSGIPHPPALDTMLFVAFLVIYILTVLGNFLILMVIRVDSHLHTPMYYFLTNLSFIDMWFSTVTVPKMLMTLVSPRGGAISFHSCVAQLYCFHFLGSTECFLYTVMSYDRYLAISYPLRYSSMMSGRVCALLAAGTWITGSLHSAVQTTLTFRLPYCGPNQIQHYFCDAPPILKLACADTSANEMVIFVNIGVVASGCFLLISLSYVSIVCSILRIRTSEGRHRAFQTCASHCIVVLCFFVPCVFIYLRPGSRDAVDGVVAVFYTVLTPLLNPVVYTLRNKEVKKALVKLKDKVAYSQSQ,r
CATS,0.0,0.0,0.0,0.0,0.0,0.0,0.0,0.0,0.0,0.0,0.0,0.0,MGYTNLSYLNPGTVILIGIPGLEHVQFWIGFPFFVVCLVALLGNLFLLIIIPTERSLHQPMYIFLAVLAATDLGLCLAIAPKMLAIFWFGSCSMAFDACLTQLFFIHALQGMESGVLLAMAFDRYVAICDPLRHTAVLTPLFLLRVVLVVAIRATVLVGVLPILLKRLQWFHSVVIVHSYCEHMAVVKLAAEDVRINKSYGLFVAFAILGFDMIFVFISYILIFRAVFRLPQKEARSKAFNTCTAHIVVFLEFYILAFFSFFSHRFGHVSPYVHILLSTIYLLLPPALNPIVYGVKTKEIRKWVVQIFVLKSNTQ,r
CATS,0.0,0.0,0.0,0.0,0.0,0.0,0.0,0.0,0.0,0.0,0.0,0.0,MEIPHNITEFFMLGLSQRPEIQRLLFVVFLVIYAVTVCGNMLIVVTVTFSSSLASPMYFFLSNLSFIDTCYSSSLAPKLIADSLYEGTTLSYEGCMAQLFGAHFLGGVEIILLTVMAYDRYVAICKPLHYTTTMTRHLCVVLVAVAWLGGFLHSLVQILLIFQLPFCGPNVINHFVCDLYPLLELACTNTYVIGLLVVANSGVICLLNFLMLAASYIVILHSLRSHSAEGRRKALSTCGAHFTVVTMFFVPCIFSYMRPSTTLPIDKNMAVFYGILTPMLNPLIYTLRNEEVKDAMRKLFTRSEVVGA,r
CATS,0.0,0.0,0.0,0.0,0.0,0.0,0.0,0.0,0.0,0.0,0.0,0.0,MSTFHNVCSVPSSLWLTGIPGLETLHIWLSIPFGSMYLVAVVGNITILAVVRVERSLHQPMYFFLCMLAVIDLVLSTSTMPKLLAIFWFGAGHIGLDACLCQMFLIHCFATVESGIFLAMAFDRYVAICNPLRHSMVLTHTVVGRLGLAAVLRGVLYIGPLPLMIRLRLPLYKTRVISHSYCEHMAVVALTCGDSRVNNVYGLSIGFLVLILDSAAIAASYVMIFRAVMGLATPEARLKTLGTCGSHICAILIFYVPIAVSSLIHRFGHQVPPPIHTLLANFYLLIPPILNPIVYAVRTKQIRDRLLQILKTGTKIR,r
CATS,0.0,0.0,0.0,0.0,0.0,0.0,0.0,0.0,0.0,0.0,0.0,0.0,MENSTSVDEFLLLGLTSVQKLQPIIFVMFLTIYLLNLVGNGVILMIVTLERRLHSPMYFFLGNLSCLDICYSSVTLPKVLINLLSRRRAISFLGCITQLYFFHFLGSTEAILLAVMAFDRFVAICSPLRYTAIMNPQLCILLAATAWFTSFFYALLHSVMTAHLNFCHSHKLSHFFCDVKPLLEVACGNTVLNQWLLSVVTGSISMGAFLLILLSYFYIIAFLLFKNRSCRMLKKALSTCTSHFMVVCLFYGPVGFTYIRPATASASSMSEDRVVAIIYSAVTPVLNPLIYTLRNKEVMLALKKNFGKKLFKGN,r
CATS,0.0,0.0,0.0,0.0,0.0,0.0,0.0,0.0,0.0,0.0,0.0,0.0,MAINNSTTVVEFVLQGLSEDPGLQALFLAFFLLLYILALAGNTLIIIAISLNPRLHTPMYFFLANLALLDIICTSTVVPKLLEGLVGKSSHISYKGCMTQVFFLIWVLGAELLLLTAMAYDRYVAICRPLHYNTLMSWPICVLLAGFVWVIGIANTSVHIGLLVRLNFCGSNQIRHFLCEVPTLLLLSCSPTTLNNIMLVIADVYFGVLNFLLTMISYSFIISSILRIRSAEGKKRAFSTCSAHLVVVTLYYSTIIYTYLQPGSGSSFQNSKVVTLLYTAVSPTLNPIIYSLRNKDVKVALKRLFPCFH,r
CATS,0.0,0.0,0.0,0.0,0.0,0.0,0.0,0.0,0.0,0.0,0.0,0.0,MEVDSNSSSGSFILMGVSDHPHLEIIFFAVILASYLLTLVGNLTIILLSRLDARLHTPMYFFLSNLSSLDLAFTTSSVPQMLKNLWGPDKTISYGGCVTQLYVFLWLGATECILLVVMAFDRYVAVCRPLHYMTVMNPRLCWGLAAISWLGGLGNSVIQSTFTLQLPFCGHRKVDNFLCEVPAMIKLACGDTSLNEAVLNGVCTFFTVVPVSVILVSYCFIAQAVMKIRSVEGRRKAFNTCVSHLVVVFLFYGSAIYGYLLPAKSSNQSQGKFISLFYSVVTPMVNPLIYTLRNKEVKGALGRLLGKGRGAS,r
CATS,0.0,0.0,0.0,0.0,0.0,0.0,0.0,0.0,0.0,0.0,0.0,0.0,MQGPNQTFVTEFILLGFSLSPRTTPLLFSAFLIIYLLIILGNGLIFILICLDSHLHTPMYFFIGVLSMLDLGYTTTTVPQMLAHLASQKKTISYSNCVAQMYIFLVLGVTESWLFAIMSIDRYVAICHPLRYKVIMSPCLCGVMAIFCGLCGVTAALVYTIFAMRLPYCGPNKINHFFCEVPAVLKLACADTSVNDHVDFILGFSVILIPLSLILVIYINIFTSILKIRSAQGRLKAFSTCASHITVVTMFCVPAMVMYMKPGSKASPEEDKKLALFYNVISAFLNPVIYSLRNKDVKRAFLKVTGCGRPPE,r
CATS,0.0,0.0,0.0,0.0,0.0,0.0,0.0,0.0,0.0,0.0,0.0,0.0,MIPGQNQSWVSEFILIGFSSDPTTNSILFIVFLLIYLSSVLGNGLIIMLVCLDTQLHTPMYFFLSTLSLLDMSFVTTTMPQMLVHLLAHSQTISFASCCLQMFVFGALGITECTFFVVMAYDRYVAICYPLRYTVILNWGLCIRLAAGSWICGFFSSLLHTFFTMSLPYCGPNRVNHYFCEGPSVRSLACMDTHLIEMVDFVLSVFVVVIPISLIVASYIRIAMAILKIKSTQGRCKAFSTCASHLTVVTFFYAPATYIYLRPNSSYSPERDKQVSLFYNAFTALLNPVVYSLRNKDIKRAFLKVMGHSRLDQ,r
CATS,0.0,0.0,0.0,0.0,0.0,0.0,0.0,0.0,0.0,0.0,0.0,0.0,MMQANQTQVTEFILLGLSDDPHTQKLLFILFLGIYMVTVLGNLLLMFLVRADSRLHTPMYFFLCNLSLADLCFSTNIVPQALIHLLSRKKTISFRRCAAQLLLFLIFGCTQCALLAVMSYDRYVAICNPLHYSSIMTWRVCIQLATVSWTSGILVSVVDTTFTLRLPYRGSNSIAHFFCEAPALLALASTDTQTSEMAIFLMGVVILLIPVSLILVSYGHIIVTVVKMKSAAGRFKAFSTCGSHLMVVILFYGSAIITYMTPKSSKEQEKLVSVFYAMVTPMLNPLIYSLRNKDVKGALWKVAMKNFSSRLRITH,r
CATS,0.5290994448735805,0.0,0.0,0.0,1.0,1.0,0.6454972243679028,0.0,0.0,0.0,0.0,0.0,MGGNQTLITQFILLGFPLSPRMQMLLFALFSLFYAFTLLGNGTILGLICLDSRLHTPMYFFLSHLAIVDIAYACNTVPQMLVNLMDPAKPISFAGCMTQTFLFLTFAHTECLLLVVMSYDRYVAICHPLRYTAIMSWRVCVILVLTSWILGVLLALVHLVLLLPLPFCGSQKVNHFFCEIIAVLKLACSDTRINELMVLAGAVSVLVGPFSSIVVSYAHILCAILKIKSQQGRQKAFSTCSSHLCVVGLFYGTAIVMYIGPQHGKSNEQKKYLLLFHSLFNPMLNPLIYSLRNKEVKSALKRTLLKEDTS,r
CATS,0.0,0.0,0.0,0.0,0.0,0.0,0.0,0.0,0.0,0.0,0.0,0.0,MGQNDSSVVEFILLGFSHFPELQVHMFGAFLVIYLVTLTGNATIVTVIFLDHSLHIPMYLFLQNLSVVEASFSTTVMPEMLVVLTSEKATISFGGCFAQTYFILLFGGTECFLLGAMAYDRFAAICYPLTYPMIMSKRIFVKLVVCSWVLGIMTATVSVTWVFSFPFCGPSKINHISCEVPAVLELACADTFLFEVYSFTGTILLVLVPFLLILLSYTQILFTVLRMPSTTGRQKAFSTCASHLTSVTLFYSTACMTYLQPKSKYSPDTKKLMSLAYSLLTPLLNPLIYSLRNKEMKRAVVKLCQIKVVF,r
CATS,0.44298120495439897,0.0,0.5477225575051661,0.16666666666666666,0.4166666666666667,0.7302967433402214,0.3535533905932738,0.0,0.0,0.0,0.0,0.0,MEKWNQSSSDFILLGLLPQNQTGLLLMMLIILVFFLALFGNSAMIHLIRVDPRLHTPMYFLLSQLSLMDLMYISTTVPKMAFNFLSGQKNISFLGCGVQSFFFLTMAGSEGLLLASMAYDRFVAICHPLHYPIRMSKIMCLKMIIGSWILGSINSLAHSIYALHIPYCHSRSINHFFCDVPAMLPLACMDTWVYEYMVFVSTSLFLLLPFLGITASYGRVLFAVFHMRSKEGKKKAFTTCSTHLTVVTFYYAPFVYTYLRPRSLRSPTEDKILTVFYTILTPMLNPIIYSLRNKEVLGAMTRVLGTFSSMKP,r
CATS,0.46216297196680645,0.0,0.6454972243679028,0.5477225575051661,0.7302967433402214,0.6454972243679028,-0.2581988897471611,0.0,0.0,0.0,0.0,0.0,MDSYNQTFTGFILLGLFPPSKIGLFLFILIVLIFLTAWIGNLSMILLILLDSHLHTPMYFLLSQLSLIDLNYISTIVPKMVSDFMLGNKYISFIGCGFQIFLFLTFGGAETLLLASMAYDRYVAICFPLHYATHMNKRVCVMMITGAWILGSINSCAHTGYALQIPYCRSRAINHFFCDVPAMLTLACTDTWVYEYTVFVSTILFLVFPFIGIVCSYGRVFLAIYRMHSRAGKKKAYSTCSTHLTVVTFYYAPFAYTYLRPRSLRSPEEDKILAVFYTVLTPMLNPIIYSLRNKEVIGALRRMTHRICFAKI,r
CATS,0.0,0.0,0.0,0.0,0.0,0.0,0.0,0.0,0.0,0.0,0.0,0.0,MMERENYTFNSDFILLGLFSSSKISLTFFSVIFFIFIMTITENALMILLIHRDSRLHTPMYFLLSHLSFMDILHISNIVPKMIADFLSGSRTISFAGCAFQIFLSLTLLGGECLLLAVMSYDRYVAICHPLRYPVLMRDNFSRLLAAGSWLVGILNSIVHTAFVLHFPFCHSRAIDHFFCEVPAMLKLSCIDTTHYERGVYVSGIIFLLIPFSMISISYVQILLTVFQMHSSGARQKSFSTCLFHMVVVIMYYGPFIFTYMRPRSYHTPGQDKFLAIFYTILTPTLNPIIYSFRNKDVLMALKNIVQSNILNKE,r
CATS,0.0,0.0,0.0,0.0,0.0,0.0,0.0,0.0,0.0,0.0,0.0,0.0,MAWAGNQTLISHFVLLGLFTHSPLHLFLFSIIMVMFLVALSGNGLMILLILMDSRLHTPMYFFLSWLSLMDLMLISTIVPRMAADFLLGRGSISFAGCGLQILFFLTLLGDECFLLAFMAYDRYVAISNPLRYSVIMSRRVCWLMVAGSWLFGLVDGLIQAVFTLRFPYCGSQEIDHFFCEVPAVLKLACADTSLYETMIYVCCVLMLLLPFSVISASYLRILVAVLRMRSAEGRRKAFATCSSHMIVVSLFYGAAMITYMRPQAYHSSKQDKVVSAFYTMITPMLNPLIYSLRNKEVTGALRKLLGKCPCGGGTLG,r
CATS,0.0,0.0,0.0,0.0,0.0,0.0,0.0,0.0,0.0,0.0,0.0,0.0,MVASSNSSSHPLFFMLLGIPGLENYQFWIAFPFCVMYIVALTGNITILYIIRIDHTLHEPMYLFLALLAITDLVLSSSTQPKMLAILWFHSHEIEYNACLIQVFFIHAFSSVESGVLMTMALDRYVAICFPLRHSSILTTSVVIKLGAAVMVRGLLWVSPFCFMVSRMPFCPNKVIPQSYCEHMAVLKLVCADTRVNRGYGLFVAFSVVGFDIIVISVSYVMILRAVLRLPSGEARLKAFGTCASHVCVILAFYIPALFTFLTHRFGHHVPRVVHIMFANFYLLVPPMLNPIIYGVRTKQIRDRVIRGFRRKDP,r
CATS,1.0,0.0,1.0,1.0,1.0,1.0,1.0,0.0,0.0,0.0,0.0,0.0,MMLSAAIPNGTAFHPPTFVLLGIPGMQDQHVWIAIPFCSMYILALVGNGTILYIIITDRALHEPMYLFLCLLSITDLVLCSTTLPKMLAIFWLRSHVISYHGCLTQMFFVHAVFATESAVLLAMAFDRYVAICRPLHYTSILNAVVIGKIGLACVTRGLLFVFPFVILIERLPFCGHHIIPHTYCEHMGIAKLACASIKPNTIYGLTVALSVTGMDVVLIATSYILILQAVLRLPSKDAQFRAFSTCGAHICVILVFYIPAFFSFFTHRFGHHVPPQVHIILANLYLLVPPVLNPLVYGINTKQIRLRILDFFVKRR,r
CATS,0.0,0.0,0.0,0.0,0.0,0.0,0.0,0.0,0.0,0.0,0.0,0.0,MTLVSLHSSFSVLLFMALSNSSWRQPQPPFFLVGVPGLEESQHWIALPLGILYLFALVGNVTIIFIIWTDSSLHQPMYLFLAMLAAIDLVLASSTAPKALTVLLAHAHEIGYIVCLTQMFFIHAFSSMESGILVAMALDRYVAICHPLRHSTILHPGIIGRIGLVVLVRGLVLLFPFPILLQNVVFCRATVISHAYCEHMAVVKLACSETTVNRAYGLSVALLVVGLDVLAIGISYALILQAVLKVPGGEARLKAFSTCGSHVCVILIFYVPGMFSFLTHRFGHHVPHHVHVLLATLYLLVPPALNPLVYGVKTRQIRQRVLRVFYTKASI,r
CATS,0.0,0.0,0.0,0.0,0.0,0.0,0.0,0.0,0.0,0.0,0.0,0.0,MIRRQHMEAQSNTSSILAPDFLLICFPNYQTWQHWLSLPLSLLFLLAMGANATLLITIRMEASLHEPMYYLLSLLSLLDIVLCLTVIPKVLAIFWFDNKSIGFSSCFLQMFVMNSFLTMESCTFMVMAYDRYVAICKPLQYPSIITDQFVVRAAIFVAARNGILTMPIPILSSQLRYCARIIRNCICTNMSVSKLSCDDITFNKLYQFVIGWTLLGSDLILIVLSYSFILKAVLRIKAEGAVAKALSTCGSHFILILFFSTVLLVLVITNLARERIPPDVPILLNILHHLIPPALNPIVYGVRTREIKQGIRNLLRRRL,r
CATS,0.10700417842518155,0.0,-0.2581988897471611,0.0,0.5477225575051661,0.6454972243679028,-0.4,0.0,0.0,0.0,0.0,0.0,MLGPSYNHTMESPGTFFLLGIPGFQSSYLWLAISLSTMYSIALLGNMLIIIVICMDSTLQEPMYFFLCVLAAVDIVMASSVVPKMVSIFSSGDSSISFNACFTQMYFVHAATAVETGLLLAMAFDRYVAICKPLHYMRILTRHVMLGISVTITVRAVIFMTPLSWMLSHLPFCASNVVPHSYCEHMAVAKLACADPMPSSLYSLIFSSIIVGSDVAFISASYSLILKAVFGLSSRNAQWKALSTCGSHVGVMALYYLPGMASIYVAWLGQDRVPLHTQVLLADLYLIIPPTLNPIIYGIRTRQIRERIWSLLTHCFFSQCTQGS,r
CATS,0.0,0.0,0.0,0.0,0.0,0.0,0.0,0.0,0.0,0.0,0.0,0.0,MLRPSSMSEVTNTTHGPFYFILTGIPGFEDIHLWISIPFFCLYTISIMGNTTILTVIRTEPSLHEPMYLFLSMLALTDLGLTLTTLPTVMQVLWFNIREISFEACFAQVFFLHGFSFMESSVLLAMSFDRYVAICRPLHYASILTSEVIARIGLAIICRCVLAVLPSLFLLKRLPFCHSHLLSHSYCLHQDMIHLVCADIRVNRWYGFALVLLIIVLDPLLIVLSYALILKSVLNTATWTERLRALNNCLSHMLAVLVLYVPMVGVSMTHRFAKHASPLVHVLMANIYLLAPPVMNPIIYSVKTKQIRQGITRLLLQRKVH,r
CATS,0.0,0.0,0.0,0.0,0.0,0.0,0.0,0.0,0.0,0.0,0.0,0.0,MVDPNGNESSATYFILIGLPGLEEAQFWLAFPLCSLYLIAVLGNLTIIYIVRTEHSLHEPMYIFLCMLSGIDILISTSSMPKMLAIFWFNSTTIQFDACLLQMFAIHSLSGMESTVLLAMAFDRYVAICHPLRHATVLTLPRVTKIGVAAVVRGAALMAPLPVFIKQLPFCRSNILSHSYCLHQDVMKLACDDIRVNVVYGLIVIISAIGLDSLLISFSYLLILKTVLGLTREAQAKAFGTCVSHVCAVFIFYVPFIGLSMVHRFSKRRDSPLPVILANIYLLVPPVLNPIVYGVKTKEIRQRILRLFHVATHASEP,r
MordredDescriptors,0.175,0.0,1.0,0.0,-0.125,0.0,0.0,0.0,0.0,0.0,0.0,0.0,MTEDNYSLTTEFILIGFSDHPDLKILLFLVLSTIYLVTMVGNLGLVALIYMEPRLHTPMYIFLGNLALMDSCCSCAITPKMLENFFSVNRRISLYECMAQFYFLCLAETADCFLLAAMAYDRYVAICNPLQYHTMMSKKLCLQMTTGAYIAGNLHSMIHIGFLFRLIFCRSHVIKHFFCDVLPLYRLSCVDPYINELMILIFSGSVQTFSIIIVLISYFCILFTIFTMKSREGRSKALSTCASHFLSVSIFYGSLLYTYIRPSSINEGNEDIPVAIFYTLVIPLLNPFIYSLRNKEVINAIKRTMNKG,r
MordredDescriptors,0.4312016302144036,0.0,0.6123724356957946,0.16666666666666666,0.3563483225498992,0.6123724356957946,0.408248290463863,0.0,0.0,0.0,0.0,0.0,MRENNQSSTLEFILLGVTGQQEQEDFFYILFLFIYPITLIGNLLIVLAICSDVRLHNPMYFLLANLSLVDIFFSSVTIPKMLANHLLGSKSISFGGCLTQMYFMIALGNTDSYILAAMAYDRAVAISRPLHYTTIMSPRSCIWLIAGSWVIGNANALPHTLLTASLSFCGNQEVANFYCDITPLLKLSCSDIHFHVKMMYLGVGIFSVPLLCIIVSYIRVFSTVFQVPSTKGVLKAFSTCGSHLTVVSLYYGTVMGTYFRPLTNYSLKDAVITVMYTAVTPMLNPFIYSLRNRDMKAALRKLFNKRISS,r
MordredDescriptors,0.29768336301410037,0.0,0.53748384988657,0.53748384988657,0.0,-0.12403473458920847,0.53748384988657,0.0,0.0,0.0,0.0,0.0,MDQSNYSSLHGFILLGFSNHPKMEMILSGVVAIFYLITLVGNTAIILASLLDSQLHTPMYFFLRNLSFLDLCFTTSIIPQMLVNLWGPDKTISYVGCIIQLYVYMWLGSVECLLLAVMSYDRFTAICKPLHYFVVMNPHLCLKMIIMIWSISLANSVVLCTLTLNLPTCGNNILDHFLCELPALVKIACVDTTTVEMSVFALGIIIVLTPLILILISYGYIAKAVLRTKSKASQRKAMNTCGSHLTVVSMFYGTIIYMYLQPGNRASKDQGKFLTLFYTVITPSLNPLIYTLRNKDMKDALKKLMRFHHKSTKIKRNCKS,r
MordredDescriptors,0.0,0.0,0.0,0.0,0.0,0.0,0.0,0.0,0.0,0.0,0.0,0.0,MGTGNDTTVVEFTLLGLSEDTTVCAILFLVFLGIYVVTLMGNISIIVLIRRSHHLHTPMYIFLCHLAFVDIGYSSSVTPVMLMSFLRKETSLPVAGCVAQLCSVVTFGTAECFLLAAMAYDRYVAICSPLLYSTCMSPGVCIILVGMSYLGGCVNAWTFIGCLLRLSFCGPNKVNHFFCDYSPLLKLACSHDFTFEIIPAISSGSIIVATVCVIAISYIYILITILKMHSTKGRHKAFSTCTSHLTAVTLFYGTITFIYVMPKSSYSTDQNKVVSVFYTVVIPMLNPLIYSLRNKEIKGALKRELRIKIFS,r
MordredDescriptors,0.10045314540392884,0.0,0.0,0.0,0.5270462766947299,0.13333333333333333,-0.15811388300841897,0.0,0.0,0.0,0.0,0.0,MSSCNFTHATFVLIGIPGLEKAHFWVGFPLLSMYVVAMFGNCIVVFIVRTERSLHAPMYLFLCMLAAIDLALSTSTMPKILALFWFDSREISFEACLTQMFFIHALSAIESTILLAMAFDRYVAICHPLRHAAVLNNTVTAQIGIVAVVRGSLFFFPLPLLIKRLAFCHSNVLSHSYCVHQDVMKLAYADTLPNVVYGLTAILLVMGVDVMFISLSYFLIIRTVLQLPSKSERAKAFGTCVSHIGVVLAFYVPLIGLSVVHRFGNSLHPIVRVVMGDIYLLLPPVINPIIYGAKTKQIRTRVLAMFKISCDKDLQAVGGK,r
MordredDescriptors,0.0,0.0,0.0,0.0,0.0,0.0,0.0,0.0,0.0,0.0,0.0,0.0,MAWENQTFNSDFLLLGIFNHSPTHTFLFFLVLAIFSVAFMGNSIMVLLIYLDTQLHTPMYFLLSQLSLMDLMLICTTVPKMAFNYLSGSKSISMAGCATQIFFYISLLGSECFLLAVMSYDRYTAICHPLRYTNLMRPKICGLMTAFSWILGSTDGIIDAVATFSFSYCGSREIAHFCCDFPSLLILSCNDTSIFEEVIFICCIVMLVFPVAIIITSYARVILAVIHMGSGEGRRKAFTTCSSHLMVVGMYYGAGLFMCIQPTSHHSPMQDKMVSVFYTIVTPMLNPLIYSLRNKEVTRALMKILGKGKSGD,r
MordredDescriptors,0.0,0.0,0.0,0.0,0.0,0.0,0.0,0.0,0.0,0.0,0.0,0.0,MMIKKNASSEDFFILLGFSNWPQLEVVLFVVILIFYLMTLTGNLFIIILSYVDSHLHTPMYFFLSNLSFLDLCHTTSSIPQLLVNLRGPEKTISYAGCMVQLYFVLALGIAECVLLVVMSYDRYVAVCRPLHYTVLMHPRFCHLLAAASWVIGFTISALHSSFTFWVPLCGHRLVDHFFCEVPALLRLSCVDTHANELTLMVMSSIFVLIPLILILTAYGAIARAVLSMQSTTGLQKVFRTCGAHLMVVSLFFIPVMCMYLQPPSENSPDQGKFIALFYTVVTPSLNPLIYTLRNKHVKGAAKRLLGWEWGK,r
MordredDescriptors,0.0,0.0,0.0,0.0,0.0,0.0,0.0,0.0,0.0,0.0,0.0,0.0,MGDWNNSDAVEPIFILRGFPGLEYVHSWLSILFCLAYLVAFMGNVTILSVIWIESSLHQPMYYFISILAVNDLGMSLSTLPTMLAVLWLDAPEIQASACYAQLFFIHTFTFLESSVLLAMAFDRFVAICHPLHYPTILTNSVIGKIGLACLLRSLGVVLPTPLLLRHYHYCHGNALSHAFCLHQDVLRLSCTDARTNSIYGLCVVIATLGVDSIFILLSYVLILNTVLDIASREEQLKALNTCVSHICVVLIFFVPVIGVSMVHRFGKHLSPIVHILMADIYLLLPPVLNPIVYSVRTKQIRLGILHKFVLRRRF,r
MordredDescriptors,-0.04364357804719847,0.0,0.0,0.2182178902359924,-0.21821789023599236,0.0,-0.21821789023599236,0.0,0.0,0.0,0.0,0.0,MDQSNYSSLHGFILLGFSNHPKMEMILSGVVAIFYLITLVGNTAIILASLLDSQLHTPMYFFLRNLSFLDLCFTTSIIPQVLVNLWGPDKTISYVGCIIQLYVYMWLGSVECLLLAVMSYDRFTAICKPLHYFVVMNPHLCLKMIIMIWSISLANSVVLCTLTLNLPTCGNNILDHFLCELPALVKIACVDTTTVEMSVFALGIIIVLTPLILILISYGYIAKAVLRTKSKASQRKAMNTCGSHLTVVSMFYGTIIYMYLQPGNRASKDQGKFLTLFYTVITPSLNPLIYTLRNKDMKDALKKLMRFHHKSTKIKRNCKS,r
MordredDescriptors,0.0,0.0,0.0,0.0,0.0,0.0,0.0,0.0,0.0,0.0,0.0,0.0,MDGVNDSSLQGFVLMGISDHPQLEMIFFIAILFSYLLTLLGNSTIILLSRLEARLHTPMYFFLSNLSSLDLAFATSSVPQMLINLWGPGKTISYGGCITQLYVFLWLGATECILLVVMAFDRYVAVCRPLRYTAIMNPQLCWLLAVIACLGGLGNSVIQSTFTLQLPLCGHRRVEGFLCEVPAMIKLACGDTSLNQAVLNGVCTFFTAVPLSIIVISYCLIAQAVLKIRSAEGRRKAFNTCLSHLLVVFLFYGSASYGYLLPAKNSKQDQGKFISLFYSLVTPMVNPLIYTLRNMEVKGALRRLLGKGREVG,r
MordredDescriptors,0.6064354645876384,0.0,0.75,0.7302967433402214,0.7302967433402214,0.09128709291752768,0.7302967433402214,0.0,0.0,0.0,0.0,0.0,MKHSNDSKVTEFILLGFAGQNESWHILFVVFLVIYIATLVGNIGMILLIKLHSSLHTPMYFFLQHLAFVDLCYSSAITPRTLQNFVSTKPSISFTGCLAQLLVYGIFVTSDCFILAAMAVDRYVAICNPLRYPIIMSQRLCILLLLGSYTMGFLNATVNTGFTFLSNFCKSNVINHFFCDVPPILALSCSSIDLNIMVLTIFVGFNLTFTVSVVILSYTFILAAILRMSSASGRRKAFSTCASHMTAVTIFYGTLSYMYVLHGTNRSQEQEKVASVFYGIMIPMLNPLIYSLRNQDVIEALRHIGNKCF,r
MordredDescriptors,0.0,0.0,0.0,0.0,0.0,0.0,0.0,0.0,0.0,0.0,0.0,0.0,MWSNISAAPFLLTGFPGLEAAHHWISIPFFAIYISVLLGNGTLLYLIKDDHNLHEPMYYFLAMLAGTDLTVTLTTMPTVMAVLWVNHREIRHGACFLQAYIIHSLSIVESGVLLAMSYDRFVAICTPLHYNSILTNSRVIAIGLGVVLRGFLSLVPPILPLFWFSYCRSHVLSHAFCLHQDVMKLACADITFNRIYPVVLVALTFFLDALIIVFSYVLILKTVMGIASGEERAKALNTCVSHISCVLVFYITVIGLTFIHRFGKNAPHVVHITMSYVYFLFPPFMNPIIYSIKTKQIQRSVLHLLSV,r
MordredDescriptors,0.0,0.0,0.0,0.0,0.0,0.0,0.0,0.0,0.0,0.0,0.0,0.0,MGTGNWSQVIEFIILGFPHFQGVQIYLFFLLLSIYFTTILGNLLIFLVVYLDSRLHTPMYRFVSILSFLELGYTAATIPKMLANLLSEKKTISFSGCLLQIYFFHSLGATECYLLTAMAYDRYLAICRPLHYPTLMTQSLCIKIAIGCWLGGLAGPVVEISLVSRLPFCGPNHIQHIFCDFPPVLSLACTDTSVNVLVDFIINSCKILATFLLILSSYLQIIRTVLKIPSAAGKKKAFSTCASHLTVVLIFYGSILFMYVRLKKSYSLDYDRALAVVYSVITPFLNPFIYSLRNKEIKEALKRQLMRTGILR,r
MordredDescriptors,0.0,0.0,0.0,0.0,0.0,0.0,0.0,0.0,0.0,0.0,0.0,0.0,MSLFPQRNLDAMNRSAAHVTEFVLLGFPGSWKIQIFLFVLFLVFYVLTLLGNGAIICAVRCDSRLHTPMYFLLGNFSFLEIWYVSSTIPNILANILSKTKAISFSGCFLQFYFFFSLGTTECLFLAVMAYDRYLAICRPLHYPTIMTRRLCCILVSSCWLIGFLGYPIPIFSISQLPFCGSNIIDHFLCDMDPLMALSCAPAPITEFIFYAQSSFVLFFTIAYILRSYILLLRAVFQVPSAAGRRKAFSTCGSHLVVVSLFYGTVMVMYVSPTYGIPILMQKILTLVYSVMTPLFNPLIYSLRNKDMKLALRNVLLGMRIVKNM,r
MordredDescriptors,0.0,0.0,0.0,0.0,0.0,0.0,0.0,0.0,0.0,0.0,0.0,0.0,MEPQNLSKVTEFQLLGFQNLLEWQSLLFAIFLCFYLLTITGNMVIIGVVSEDPRLRAPMYTFLQHLSFLEIWYTSTTVPLLLSNLASWGHMLSFSACMAQLYFFVFFGATECFLLAAMAYDRYLAICHPLHYSLLMSPDNCAALVTVSWVTGVGTGFLPSLLISKLDFCGPNRINHFFCDLPPLIQLSCSSVYVTEMAIFVLSIAVLCICFLLTLVSYVFIVSSILRIPSTSGRMKTFSTCGSHLAVVTIYYGTMISMYVRPNAHLSPELNKVISVFYTVVTPLLNPVIYSLRNKDFKEAVRKIVRTKCGVYRARVKGSALTT,r
MordredDescriptors,0.0,0.0,0.0,0.0,0.0,0.0,0.0,0.0,0.0,0.0,0.0,0.0,MLPFNDEDEFSLFRYSRTMHQGNQTAISGFILLGLTVGSEQQLLLFTLFLCMYLVTMVGNSLIILAIISDTHLYSPMYFFLANLSFTDICFTTTTVPKILADIQSQNPTISFVGCFTQMYFFMFLVDLDNFLLAAMAYDRYIAICHPLHYAALLNPKRCALLVVVPWVISNLVSVLHLSLLSRLPFCDQRVIPHFFCDLEPVLRLACSDTQINNLLILIVGGTVIFVPFVFILVSYALIGTAVLNVPSVKGKWKTFSTCGSHLSAVSLFYGSIVGVYFLPASSYSAERDKVAAIMYTVVTPMMNPFIYSLRNKDMKRALRRLLSQKSLICSW,r
MordredDescriptors,0.0,0.0,0.0,0.0,0.0,0.0,0.0,0.0,0.0,0.0,0.0,0.0,MDGDNETMVAEFLLLGLSGKSEQEEVVFGMFLGMYLVTISGNLLIILAISCDPHLHTPMYFFLANLSSVDICFSSVTVPKALVNHVLGSKSISYTECMIQIYFFITFINMDGFLLSVMAYDRYVAICHPLHYTMMMRSRLCVLLVAISWVITNLHALLHTLLMVRLTFCSHNAVHHFFCDPYPILKLSCSDTFINDLMVFTVGGVIFLTPFSCIVVSYVYIFSKVLKIPSARGIRKALSTCGSHLTVVSLFYGAILGVYMRPSSSYSLQDTVATVIFTVVTPLVNPFIYSLRNQDMKGALRKIMLRS,r
MordredDescriptors,0.4,0.0,1.0,0.0,0.0,0.0,1.0,0.0,0.0,0.0,0.0,0.0,MRRDNESTVSEFILLGLPIRAEDQGLYSALFLAMYLTTVLGNLLIILLIRLDSHLHTPMYFFLSHLAFTDISFSSVASPKMVINMLTHSQSISYAGCVSQVYFFSFFADLESFLLTSMAYDRYVAICHPLHYSQIMSENLCVLLIVVSWTLSTANSLVHTLLLVQLSYFRNNTIPHYFCDLSTLLKLSSSDTTINELVILVLGNMVITLPFICILVSYGHIGVTIMKIPSIKGICKALSTCGSHLCVVSLYYGAIIGLYFVPSSNNTSDKDAIVAMMYTMVIPMLNPFIYSLRNRDMKGALRNILSGRLWSQ,r
MordredDescriptors,0.2673568634570861,0.0,0.3,0.3,0.09128709291752768,0.0,0.6454972243679028,0.0,0.0,0.0,0.0,0.0,MEPRNNTHILEFFLLGFSQDPNLQPVICGLFLSMYLITVVGNLLIILTIISDANLHTPMYFFLSNLSFVDICFVSTTVPKMLVNIQTKRKSISYADCITQMYFFLIFVELDNFLLAVMAYDRYVAICHPLHYTGIMNRRLCGFLVLVCWIVSVLHALLQSMMVLRLSFCTDLEIPHFFCELNQVAQLTCSDTFLNDVVMYFALVLLAIVPLFGILYSYSKIVSSIRAMSTVQGKYKAFSTCASHLSVVSLFYFTGLGVYLSSAVSHSSQASATASVMYTVVTPMLNPFIYSLRNKDVKGALKRLLGVKL,r
MordredDescriptors,0.0,0.0,0.0,0.0,0.0,0.0,0.0,0.0,0.0,0.0,0.0,0.0,MTAKNSSVTEFILAGLTDQPGLRMPLFFLFLGFYMVTVVGNLGLISLIGLNSHLHTPMYFFLFNLSLIDFCYSSTISPKMLMSFISKKNIISHPGCMAQLFFFCFFVISESFILSAMAYDRYVAICNPLMYMVTMSPQVCLLLLFGVYLMGFVGAMAHTISMARLTFCADNIVNHYMCDILPLLEHSCTSTYVNELVVFIFVSFDIGVPIVTIFISYALILSSILHMHSTEGRSKAFSTCSSHMIVVCLFFGSGAFMYLQPPSVLSLDQGKVSSLFYTIVVPMLNPLIYSLRNKDVKVTVRKTLDRRIFS,r
MordredDescriptors,0.0,0.0,0.0,0.0,0.0,0.0,0.0,0.0,0.0,0.0,0.0,0.0,MVSENNSSVKEFILLGLTQLPELQLPLFFLFLGIYVFSMVGNLGLIVLIVLNPPLHTPMYYFLFNLSFTDLCYSSVITPKMLVGFVKQNIISHAECMTQLFFFAFFVIDECCILTAMAYDRYAAICKPLLYKVIMSHQVCFVLMVGGYTVGFVGATAHTVCMLRLTFCDGNIINHYMCDIPPLLKLSCTSTSINELVVFIVVGVSIIVPSLTVFISYTLILSNILRIHSAKGRSKALSTCSSHMIAVSLFFGSSSFIYFKSSPVGSVDKDKISTVFYTVVVPMMNPFIYSLRNKDVQIALRKTLKKNCSLK,r
MordredDescriptors,0.0,0.0,0.0,0.0,0.0,0.0,0.0,0.0,0.0,0.0,0.0,0.0,MSLNAQKTMENDSSVSEFILMGLTDQPELQLPLFVLFLVNYTVTVMGNLSLMNLICLNSNLHTPMYFFIFNLSFIDFCYSMVFTPKMLMGFVVEKNIISFRGCMTQLFFFLFFVNSESYVLTAMAYDRYVAICQPLLYKAVMSPGICFLLIFCTYLMGLVSALFHTGFMIRLNFCDSNVINHYMCDIFPLFRLSCSSTYLTELVSSAVVGTAIILCCLIILISYGMILYNIIHMSSGKGWSKALGTCGSHIITVSLFYVTGMLAYVKPSSAETVGQGKIFSVFYTFLVPMLNPLIYSLRNKDVKLAVKKTWKRLTC,r
MordredDescriptors,-0.03333333333333333,0.0,0.0,0.0,0.0,0.0,-0.16666666666666666,0.0,0.0,0.0,0.0,0.0,MATGNLTHVTEFILMGVTDRPELQVPLFFLFLVIYLLTAAGNLGIITLTSVDSRLQTPMYFFLRHLAVINFGNSTVIAPKMLVNFLVSKKTTLYYECATQLGGFLVFMVSEIFMLAVMAYDRYVAICNPLLYMVVVSRRVCLLLVFLTYLFSFVTAIVVTPCVFSVSYCSSNVINHFYCDNVPLLALSCSDTHLPETVVFFFSATNLFFSMIIVLISYFNIVLAILRIRSSEGRKKAFSTCASHMMAVTVFYGTLLFMYLQPRTNHSLDTDKIASVFYTLIIPMLNPVIYSLRNKDVKCALKEFLKNPCKKFNLI,r
MordredDescriptors,0.7290994448735806,0.0,1.0,0.0,1.0,1.0,0.6454972243679028,0.0,0.0,0.0,0.0,0.0,MQMESQNLTVVTEFILRGITDRPELQVPLFGLFFMIYLISLFGNLGMIILTIVESRLQTPMYFFLRHLAITDLGYSTAIGPKMLANFVVSKNTISFHLCATQLAFFLLFIACELFILSVMSYDRYVAICNPLLYNVIMSQTVCWVLVAIPYLYSVFISLIVTINIFSSSFCGYNVIPHFYCDGLPLISLLCTNTDKIGLIILILSAINLISSLLIILGSYLLIFRAILRMNSAEGRRKAFSTCGSHLTVVSVFYGTLIFMYVQPKTSHSFDTDKVASIFYTLVIPMLNPLIYSLRNKDVKYALRKTGKIIQNNFS,r
MordredDescriptors,0.0,0.0,0.0,0.0,0.0,0.0,0.0,0.0,0.0,0.0,0.0,0.0,MKVSIPPRANFSYAIFLLTGFPGLEWAHHWISLPIFMGYFVAIMGNATILHLVRTDPSLHQPMYYFLAILAVTDLGLCMSTLPSVLGVLWFDARMVGLVPCVLQQHFLHSFSFMESAVLFAMALDRLIAIRFPLRYASVLTGPRVALIGTVLGMRSAAITAAPSLHLLTFDYCHPGALSHAYCLHQDMIRLACSDTRFNRLYGLCIIMLAMGSDVLFILLSYAVILRTVLAIASAGERLKALNTCVSHILAVLCFYVPVLGLSIVHRFGQHTSPLVHILMGTVSVLFPPVMNPVIYSIKTQQIRRAIVKVISLGKIQ,r
MordredDescriptors,0.0,0.0,0.0,0.0,0.0,0.0,0.0,0.0,0.0,0.0,0.0,0.0,MEPGNYTVVTEVILLGFTEDAIIRAILFIVFLIIYSVTLMGNASIIMLIRRSPQLHTPMYLLLSHLAFVDIGYSSSVTPIMLKGFLRKETFILVSGCVAQLCSVVTFGSTECFLLAAMAYDRYVAICSPLLYATQMSSTVCILLVGASYLGGCVNAWTFTGCLLNLSFCRPNKVNHFFCDYSPLLKISCSHDFSSEVIPAISSGSIIVVTVFIIALSYVYILVSILKMRSTEGRQKAFSTCTSHLTAVTLFYGTITFIYVMPKSSYSTDQNKVVSVFYTVVIPMLNPIIYSLRNKDVKEAMKKLMANTHH,r
MordredDescriptors,0.0,0.0,0.0,0.0,0.0,0.0,0.0,0.0,0.0,0.0,0.0,0.0,MTENNFTKVTVFMFSGFSDHPELQVSLFLIFLFIYLFTVWGNIGLILLIRIDSQLHTPMYFFLSNLAFIDIFYSSTVTPKAVVDFQSTQKSISFVGCFVQMYFFVGLVCSECFLLGSMAYDRYVAICNPLLYSVIMSQKVCNWLAVIPYMIGFTNSLISICVISSLPLCDPYINHFFCDTTALLALSCVDAFSTELVIFVLAGFTLLSSLLIITFTYVTIISAILRIQSAAGRWKAFSTCASHLTGVTVFYGSLIFTYLQPDNTSSLTQAQVASVFYTIVIPMLNPLIYSLRNKDVKNALLRVIHRKHLL,r
MordredDescriptors,0.0,0.0,0.0,0.0,0.0,0.0,0.0,0.0,0.0,0.0,0.0,0.0,MSNHTRVTHFILRGFSDVPQLRLVLIPFFLLFYTFGILGNFSIITAVIRDSRLHSPMYFFLKNLSFLDICYTSATIPKAVVISLTGSGVISYQECVAQLYMFITLCGTECFLLTAMAYDRCLAILRPLIYGTIMSHKYCSALVVTAWVGGAIYSAFHTFNTFSLPYCGPNVVDHFFCDMPPVMRLSCTDYHLNEEVGFAVIGCIIMSSFALTVVSYIGIVATVLRIPSVEGRWKAFSTCSSHLTTVILFYGTGSFVYLRPASQYSPTLDPLASIFYSVVTPSLNPVIYCLRNKDMKFALQKLYCGRKY,r
MordredDescriptors,0.0,0.0,0.0,0.0,0.0,0.0,0.0,0.0,0.0,0.0,0.0,0.0,MSNVTLVTTFFLSGIPHPPALDTMLFVAFLVIYILTVLGNFLILMVIRVDSHLHTPMYYFLTNLSFIDMWFSTVTVPKMLMTLVSPRGGAISFHSCVAQLYCFHFLGSTECFLYTVMSYDRYLAISYPLRYSSMMSGRVCALLAAGTWITGSLHSAVQTTLTFRLPYCGPNQIQHYFCDAPPILKLACADTSANEMVIFVNIGVVASGCFLLISLSYVSIVCSILRIRTSEGRHRAFQTCASHCIVVLCFFVPCVFIYLRPGSRDAVDGVVAVFYTVLTPLLNPVVYTLRNKEVKKALVKLKDKVAYSQSQ,r
MordredDescriptors,0.0,0.0,0.0,0.0,0.0,0.0,0.0,0.0,0.0,0.0,0.0,0.0,MGYTNLSYLNPGTVILIGIPGLEHVQFWIGFPFFVVCLVALLGNLFLLIIIPTERSLHQPMYIFLAVLAATDLGLCLAIAPKMLAIFWFGSCSMAFDACLTQLFFIHALQGMESGVLLAMAFDRYVAICDPLRHTAVLTPLFLLRVVLVVAIRATVLVGVLPILLKRLQWFHSVVIVHSYCEHMAVVKLAAEDVRINKSYGLFVAFAILGFDMIFVFISYILIFRAVFRLPQKEARSKAFNTCTAHIVVFLEFYILAFFSFFSHRFGHVSPYVHILLSTIYLLLPPALNPIVYGVKTKEIRKWVVQIFVLKSNTQ,r
MordredDescriptors,0.0,0.0,0.0,0.0,0.0,0.0,0.0,0.0,0.0,0.0,0.0,0.0,MEIPHNITEFFMLGLSQRPEIQRLLFVVFLVIYAVTVCGNMLIVVTVTFSSSLASPMYFFLSNLSFIDTCYSSSLAPKLIADSLYEGTTLSYEGCMAQLFGAHFLGGVEIILLTVMAYDRYVAICKPLHYTTTMTRHLCVVLVAVAWLGGFLHSLVQILLIFQLPFCGPNVINHFVCDLYPLLELACTNTYVIGLLVVANSGVICLLNFLMLAASYIVILHSLRSHSAEGRRKALSTCGAHFTVVTMFFVPCIFSYMRPSTTLPIDKNMAVFYGILTPMLNPLIYTLRNEEVKDAMRKLFTRSEVVGA,r
MordredDescriptors,0.0,0.0,0.0,0.0,0.0,0.0,0.0,0.0,0.0,0.0,0.0,0.0,MSTFHNVCSVPSSLWLTGIPGLETLHIWLSIPFGSMYLVAVVGNITILAVVRVERSLHQPMYFFLCMLAVIDLVLSTSTMPKLLAIFWFGAGHIGLDACLCQMFLIHCFATVESGIFLAMAFDRYVAICNPLRHSMVLTHTVVGRLGLAAVLRGVLYIGPLPLMIRLRLPLYKTRVISHSYCEHMAVVALTCGDSRVNNVYGLSIGFLVLILDSAAIAASYVMIFRAVMGLATPEARLKTLGTCGSHICAILIFYVPIAVSSLIHRFGHQVPPPIHTLLANFYLLIPPILNPIVYAVRTKQIRDRLLQILKTGTKIR,r
MordredDescriptors,0.0,0.0,0.0,0.0,0.0,0.0,0.0,0.0,0.0,0.0,0.0,0.0,MENSTSVDEFLLLGLTSVQKLQPIIFVMFLTIYLLNLVGNGVILMIVTLERRLHSPMYFFLGNLSCLDICYSSVTLPKVLINLLSRRRAISFLGCITQLYFFHFLGSTEAILLAVMAFDRFVAICSPLRYTAIMNPQLCILLAATAWFTSFFYALLHSVMTAHLNFCHSHKLSHFFCDVKPLLEVACGNTVLNQWLLSVVTGSISMGAFLLILLSYFYIIAFLLFKNRSCRMLKKALSTCTSHFMVVCLFYGPVGFTYIRPATASASSMSEDRVVAIIYSAVTPVLNPLIYTLRNKEVMLALKKNFGKKLFKGN,r
MordredDescriptors,0.0,0.0,0.0,0.0,0.0,0.0,0.0,0.0,0.0,0.0,0.0,0.0,MAINNSTTVVEFVLQGLSEDPGLQALFLAFFLLLYILALAGNTLIIIAISLNPRLHTPMYFFLANLALLDIICTSTVVPKLLEGLVGKSSHISYKGCMTQVFFLIWVLGAELLLLTAMAYDRYVAICRPLHYNTLMSWPICVLLAGFVWVIGIANTSVHIGLLVRLNFCGSNQIRHFLCEVPTLLLLSCSPTTLNNIMLVIADVYFGVLNFLLTMISYSFIISSILRIRSAEGKKRAFSTCSAHLVVVTLYYSTIIYTYLQPGSGSSFQNSKVVTLLYTAVSPTLNPIIYSLRNKDVKVALKRLFPCFH,r
MordredDescriptors,0.0,0.0,0.0,0.0,0.0,0.0,0.0,0.0,0.0,0.0,0.0,0.0,MEVDSNSSSGSFILMGVSDHPHLEIIFFAVILASYLLTLVGNLTIILLSRLDARLHTPMYFFLSNLSSLDLAFTTSSVPQMLKNLWGPDKTISYGGCVTQLYVFLWLGATECILLVVMAFDRYVAVCRPLHYMTVMNPRLCWGLAAISWLGGLGNSVIQSTFTLQLPFCGHRKVDNFLCEVPAMIKLACGDTSLNEAVLNGVCTFFTVVPVSVILVSYCFIAQAVMKIRSVEGRRKAFNTCVSHLVVVFLFYGSAIYGYLLPAKSSNQSQGKFISLFYSVVTPMVNPLIYTLRNKEVKGALGRLLGKGRGAS,r
MordredDescriptors,0.0,0.0,0.0,0.0,0.0,0.0,0.0,0.0,0.0,0.0,0.0,0.0,MQGPNQTFVTEFILLGFSLSPRTTPLLFSAFLIIYLLIILGNGLIFILICLDSHLHTPMYFFIGVLSMLDLGYTTTTVPQMLAHLASQKKTISYSNCVAQMYIFLVLGVTESWLFAIMSIDRYVAICHPLRYKVIMSPCLCGVMAIFCGLCGVTAALVYTIFAMRLPYCGPNKINHFFCEVPAVLKLACADTSVNDHVDFILGFSVILIPLSLILVIYINIFTSILKIRSAQGRLKAFSTCASHITVVTMFCVPAMVMYMKPGSKASPEEDKKLALFYNVISAFLNPVIYSLRNKDVKRAFLKVTGCGRPPE,r
MordredDescriptors,0.0,0.0,0.0,0.0,0.0,0.0,0.0,0.0,0.0,0.0,0.0,0.0,MIPGQNQSWVSEFILIGFSSDPTTNSILFIVFLLIYLSSVLGNGLIIMLVCLDTQLHTPMYFFLSTLSLLDMSFVTTTMPQMLVHLLAHSQTISFASCCLQMFVFGALGITECTFFVVMAYDRYVAICYPLRYTVILNWGLCIRLAAGSWICGFFSSLLHTFFTMSLPYCGPNRVNHYFCEGPSVRSLACMDTHLIEMVDFVLSVFVVVIPISLIVASYIRIAMAILKIKSTQGRCKAFSTCASHLTVVTFFYAPATYIYLRPNSSYSPERDKQVSLFYNAFTALLNPVVYSLRNKDIKRAFLKVMGHSRLDQ,r
MordredDescriptors,0.0,0.0,0.0,0.0,0.0,0.0,0.0,0.0,0.0,0.0,0.0,0.0,MMQANQTQVTEFILLGLSDDPHTQKLLFILFLGIYMVTVLGNLLLMFLVRADSRLHTPMYFFLCNLSLADLCFSTNIVPQALIHLLSRKKTISFRRCAAQLLLFLIFGCTQCALLAVMSYDRYVAICNPLHYSSIMTWRVCIQLATVSWTSGILVSVVDTTFTLRLPYRGSNSIAHFFCEAPALLALASTDTQTSEMAIFLMGVVILLIPVSLILVSYGHIIVTVVKMKSAAGRFKAFSTCGSHLMVVILFYGSAIITYMTPKSSKEQEKLVSVFYAMVTPMLNPLIYSLRNKDVKGALWKVAMKNFSSRLRITH,r
MordredDescriptors,0.0,0.0,0.0,0.0,0.0,0.0,0.0,0.0,0.0,0.0,0.0,0.0,MGGNQTLITQFILLGFPLSPRMQMLLFALFSLFYAFTLLGNGTILGLICLDSRLHTPMYFFLSHLAIVDIAYACNTVPQMLVNLMDPAKPISFAGCMTQTFLFLTFAHTECLLLVVMSYDRYVAICHPLRYTAIMSWRVCVILVLTSWILGVLLALVHLVLLLPLPFCGSQKVNHFFCEIIAVLKLACSDTRINELMVLAGAVSVLVGPFSSIVVSYAHILCAILKIKSQQGRQKAFSTCSSHLCVVGLFYGTAIVMYIGPQHGKSNEQKKYLLLFHSLFNPMLNPLIYSLRNKEVKSALKRTLLKEDTS,r
MordredDescriptors,0.0,0.0,0.0,0.0,0.0,0.0,0.0,0.0,0.0,0.0,0.0,0.0,MGQNDSSVVEFILLGFSHFPELQVHMFGAFLVIYLVTLTGNATIVTVIFLDHSLHIPMYLFLQNLSVVEASFSTTVMPEMLVVLTSEKATISFGGCFAQTYFILLFGGTECFLLGAMAYDRFAAICYPLTYPMIMSKRIFVKLVVCSWVLGIMTATVSVTWVFSFPFCGPSKINHISCEVPAVLELACADTFLFEVYSFTGTILLVLVPFLLILLSYTQILFTVLRMPSTTGRQKAFSTCASHLTSVTLFYSTACMTYLQPKSKYSPDTKKLMSLAYSLLTPLLNPLIYSLRNKEMKRAVVKLCQIKVVF,r
MordredDescriptors,-0.07866443770284912,0.0,0.4166666666666667,0.09128709291752768,0.0,-0.3535533905932738,-0.5477225575051661,0.0,0.0,0.0,0.0,0.0,MEKWNQSSSDFILLGLLPQNQTGLLLMMLIILVFFLALFGNSAMIHLIRVDPRLHTPMYFLLSQLSLMDLMYISTTVPKMAFNFLSGQKNISFLGCGVQSFFFLTMAGSEGLLLASMAYDRFVAICHPLHYPIRMSKIMCLKMIIGSWILGSINSLAHSIYALHIPYCHSRSINHFFCDVPAMLPLACMDTWVYEYMVFVSTSLFLLLPFLGITASYGRVLFAVFHMRSKEGKKKAFTTCSTHLTVVTFYYAPFVYTYLRPRSLRSPTEDKILTVFYTILTPMLNPIIYSLRNKEVLGAMTRVLGTFSSMKP,r
MordredDescriptors,0.13745966692414832,0.0,0.3,0.0,0.0,0.6454972243679028,-0.2581988897471611,0.0,0.0,0.0,0.0,0.0,MDSYNQTFTGFILLGLFPPSKIGLFLFILIVLIFLTAWIGNLSMILLILLDSHLHTPMYFLLSQLSLIDLNYISTIVPKMVSDFMLGNKYISFIGCGFQIFLFLTFGGAETLLLASMAYDRYVAICFPLHYATHMNKRVCVMMITGAWILGSINSCAHTGYALQIPYCRSRAINHFFCDVPAMLTLACTDTWVYEYTVFVSTILFLVFPFIGIVCSYGRVFLAIYRMHSRAGKKKAYSTCSTHLTVVTFYYAPFAYTYLRPRSLRSPEEDKILAVFYTVLTPMLNPIIYSLRNKEVIGALRRMTHRICFAKI,r
MordredDescriptors,0.7290994448735806,0.0,1.0,0.0,1.0,0.6454972243679028,1.0,0.0,0.0,0.0,0.0,0.0,MMERENYTFNSDFILLGLFSSSKISLTFFSVIFFIFIMTITENALMILLIHRDSRLHTPMYFLLSHLSFMDILHISNIVPKMIADFLSGSRTISFAGCAFQIFLSLTLLGGECLLLAVMSYDRYVAICHPLRYPVLMRDNFSRLLAAGSWLVGILNSIVHTAFVLHFPFCHSRAIDHFFCEVPAMLKLSCIDTTHYERGVYVSGIIFLLIPFSMISISYVQILLTVFQMHSSGARQKSFSTCLFHMVVVIMYYGPFIFTYMRPRSYHTPGQDKFLAIFYTILTPTLNPIIYSFRNKDVLMALKNIVQSNILNKE,r
MordredDescriptors,0.0,0.0,0.0,0.0,0.0,0.0,0.0,0.0,0.0,0.0,0.0,0.0,MAWAGNQTLISHFVLLGLFTHSPLHLFLFSIIMVMFLVALSGNGLMILLILMDSRLHTPMYFFLSWLSLMDLMLISTIVPRMAADFLLGRGSISFAGCGLQILFFLTLLGDECFLLAFMAYDRYVAISNPLRYSVIMSRRVCWLMVAGSWLFGLVDGLIQAVFTLRFPYCGSQEIDHFFCEVPAVLKLACADTSLYETMIYVCCVLMLLLPFSVISASYLRILVAVLRMRSAEGRRKAFATCSSHMIVVSLFYGAAMITYMRPQAYHSSKQDKVVSAFYTMITPMLNPLIYSLRNKEVTGALRKLLGKCPCGGGTLG,r
MordredDescriptors,0.0,0.0,0.0,0.0,0.0,0.0,0.0,0.0,0.0,0.0,0.0,0.0,MVASSNSSSHPLFFMLLGIPGLENYQFWIAFPFCVMYIVALTGNITILYIIRIDHTLHEPMYLFLALLAITDLVLSSSTQPKMLAILWFHSHEIEYNACLIQVFFIHAFSSVESGVLMTMALDRYVAICFPLRHSSILTTSVVIKLGAAVMVRGLLWVSPFCFMVSRMPFCPNKVIPQSYCEHMAVLKLVCADTRVNRGYGLFVAFSVVGFDIIVISVSYVMILRAVLRLPSGEARLKAFGTCASHVCVILAFYIPALFTFLTHRFGHHVPRVVHIMFANFYLLVPPMLNPIIYGVRTKQIRDRVIRGFRRKDP,r
MordredDescriptors,0.0,0.0,0.0,0.0,0.0,0.0,0.0,0.0,0.0,0.0,0.0,0.0,MMLSAAIPNGTAFHPPTFVLLGIPGMQDQHVWIAIPFCSMYILALVGNGTILYIIITDRALHEPMYLFLCLLSITDLVLCSTTLPKMLAIFWLRSHVISYHGCLTQMFFVHAVFATESAVLLAMAFDRYVAICRPLHYTSILNAVVIGKIGLACVTRGLLFVFPFVILIERLPFCGHHIIPHTYCEHMGIAKLACASIKPNTIYGLTVALSVTGMDVVLIATSYILILQAVLRLPSKDAQFRAFSTCGAHICVILVFYIPAFFSFFTHRFGHHVPPQVHIILANLYLLVPPVLNPLVYGINTKQIRLRILDFFVKRR,r
MordredDescriptors,0.0,0.0,0.0,0.0,0.0,0.0,0.0,0.0,0.0,0.0,0.0,0.0,MTLVSLHSSFSVLLFMALSNSSWRQPQPPFFLVGVPGLEESQHWIALPLGILYLFALVGNVTIIFIIWTDSSLHQPMYLFLAMLAAIDLVLASSTAPKALTVLLAHAHEIGYIVCLTQMFFIHAFSSMESGILVAMALDRYVAICHPLRHSTILHPGIIGRIGLVVLVRGLVLLFPFPILLQNVVFCRATVISHAYCEHMAVVKLACSETTVNRAYGLSVALLVVGLDVLAIGISYALILQAVLKVPGGEARLKAFSTCGSHVCVILIFYVPGMFSFLTHRFGHHVPHHVHVLLATLYLLVPPALNPLVYGVKTRQIRQRVLRVFYTKASI,r
MordredDescriptors,0.0,0.0,0.0,0.0,0.0,0.0,0.0,0.0,0.0,0.0,0.0,0.0,MIRRQHMEAQSNTSSILAPDFLLICFPNYQTWQHWLSLPLSLLFLLAMGANATLLITIRMEASLHEPMYYLLSLLSLLDIVLCLTVIPKVLAIFWFDNKSIGFSSCFLQMFVMNSFLTMESCTFMVMAYDRYVAICKPLQYPSIITDQFVVRAAIFVAARNGILTMPIPILSSQLRYCARIIRNCICTNMSVSKLSCDDITFNKLYQFVIGWTLLGSDLILIVLSYSFILKAVLRIKAEGAVAKALSTCGSHFILILFFSTVLLVLVITNLARERIPPDVPILLNILHHLIPPALNPIVYGVRTREIKQGIRNLLRRRL,r
MordredDescriptors,0.17187923764276042,0.0,0.0,-0.2581988897471611,0.7302967433402214,0.6454972243679028,-0.2581988897471611,0.0,0.0,0.0,0.0,0.0,MLGPSYNHTMESPGTFFLLGIPGFQSSYLWLAISLSTMYSIALLGNMLIIIVICMDSTLQEPMYFFLCVLAAVDIVMASSVVPKMVSIFSSGDSSISFNACFTQMYFVHAATAVETGLLLAMAFDRYVAICKPLHYMRILTRHVMLGISVTITVRAVIFMTPLSWMLSHLPFCASNVVPHSYCEHMAVAKLACADPMPSSLYSLIFSSIIVGSDVAFISASYSLILKAVFGLSSRNAQWKALSTCGSHVGVMALYYLPGMASIYVAWLGQDRVPLHTQVLLADLYLIIPPTLNPIIYGIRTRQIRERIWSLLTHCFFSQCTQGS,r
MordredDescriptors,0.0,0.0,0.0,0.0,0.0,0.0,0.0,0.0,0.0,0.0,0.0,0.0,MLRPSSMSEVTNTTHGPFYFILTGIPGFEDIHLWISIPFFCLYTISIMGNTTILTVIRTEPSLHEPMYLFLSMLALTDLGLTLTTLPTVMQVLWFNIREISFEACFAQVFFLHGFSFMESSVLLAMSFDRYVAICRPLHYASILTSEVIARIGLAIICRCVLAVLPSLFLLKRLPFCHSHLLSHSYCLHQDMIHLVCADIRVNRWYGFALVLLIIVLDPLLIVLSYALILKSVLNTATWTERLRALNNCLSHMLAVLVLYVPMVGVSMTHRFAKHASPLVHVLMANIYLLAPPVMNPIIYSVKTKQIRQGITRLLLQRKVH,r
MordredDescriptors,0.0,0.0,0.0,0.0,0.0,0.0,0.0,0.0,0.0,0.0,0.0,0.0,MVDPNGNESSATYFILIGLPGLEEAQFWLAFPLCSLYLIAVLGNLTIIYIVRTEHSLHEPMYIFLCMLSGIDILISTSSMPKMLAIFWFNSTTIQFDACLLQMFAIHSLSGMESTVLLAMAFDRYVAICHPLRHATVLTLPRVTKIGVAAVVRGAALMAPLPVFIKQLPFCRSNILSHSYCLHQDVMKLACDDIRVNVVYGLIVIISAIGLDSLLISFSYLLILKTVLGLTREAQAKAFGTCVSHVCAVFIFYVPFIGLSMVHRFSKRRDSPLPVILANIYLLVPPVLNPIVYGVKTKEIRQRILRLFHVATHASEP,r
Pharmacophore2D,0.4,0.0,0.0,0.0,1.0,0.0,1.0,0.0,0.0,0.0,0.0,0.0,MTEDNYSLTTEFILIGFSDHPDLKILLFLVLSTIYLVTMVGNLGLVALIYMEPRLHTPMYIFLGNLALMDSCCSCAITPKMLENFFSVNRRISLYECMAQFYFLCLAETADCFLLAAMAYDRYVAICNPLQYHTMMSKKLCLQMTTGAYIAGNLHSMIHIGFLFRLIFCRSHVIKHFFCDVLPLYRLSCVDPYINELMILIFSGSVQTFSIIIVLISYFCILFTIFTMKSREGRSKALSTCASHFLSVSIFYGSLLYTYIRPSSINEGNEDIPVAIFYTLVIPLLNPFIYSLRNKEVINAIKRTMNKG,r
Pharmacophore2D,0.6736560613329999,0.0,0.8017837257372732,0.5833333333333334,0.816496580927726,0.5833333333333334,0.5833333333333334,0.0,0.0,0.0,0.0,0.0,MRENNQSSTLEFILLGVTGQQEQEDFFYILFLFIYPITLIGNLLIVLAICSDVRLHNPMYFLLANLSLVDIFFSSVTIPKMLANHLLGSKSISFGGCLTQMYFMIALGNTDSYILAAMAYDRAVAISRPLHYTTIMSPRSCIWLIAGSWVIGNANALPHTLLTASLSFCGNQEVANFYCDITPLLKLSCSDIHFHVKMMYLGVGIFSVPLLCIIVSYIRVFSTVFQVPSTKGVLKAFSTCGSHLTVVSLYYGTVMGTYFRPLTNYSLKDAVITVMYTAVTPMLNPFIYSLRNRDMKAALRKLFNKRISS,r
Pharmacophore2D,0.14459481592206605,0.0,0.3670584895244009,0.0,0.53748384988657,-0.18156825980064073,0.0,0.0,0.0,0.0,0.0,0.0,MDQSNYSSLHGFILLGFSNHPKMEMILSGVVAIFYLITLVGNTAIILASLLDSQLHTPMYFFLRNLSFLDLCFTTSIIPQMLVNLWGPDKTISYVGCIIQLYVYMWLGSVECLLLAVMSYDRFTAICKPLHYFVVMNPHLCLKMIIMIWSISLANSVVLCTLTLNLPTCGNNILDHFLCELPALVKIACVDTTTVEMSVFALGIIIVLTPLILILISYGYIAKAVLRTKSKASQRKAMNTCGSHLTVVSMFYGTIIYMYLQPGNRASKDQGKFLTLFYTVITPSLNPLIYTLRNKDMKDALKKLMRFHHKSTKIKRNCKS,r
Pharmacophore2D,-0.03333333333333333,0.0,0.0,0.0,0.0,0.0,-0.16666666666666666,0.0,0.0,0.0,0.0,0.0,MGTGNDTTVVEFTLLGLSEDTTVCAILFLVFLGIYVVTLMGNISIIVLIRRSHHLHTPMYIFLCHLAFVDIGYSSSVTPVMLMSFLRKETSLPVAGCVAQLCSVVTFGTAECFLLAAMAYDRYVAICSPLLYSTCMSPGVCIILVGMSYLGGCVNAWTFIGCLLRLSFCGPNKVNHFFCDYSPLLKLACSHDFTFEIIPAISSGSIIVATVCVIAISYIYILITILKMHSTKGRHKAFSTCTSHLTAVTLFYGTITFIYVMPKSSYSTDQNKVVSVFYTVVIPMLNPLIYSLRNKEIKGALKRELRIKIFS,r
Pharmacophore2D,0.0,0.0,0.0,0.0,0.0,0.0,0.0,0.0,0.0,0.0,0.0,0.0,MSSCNFTHATFVLIGIPGLEKAHFWVGFPLLSMYVVAMFGNCIVVFIVRTERSLHAPMYLFLCMLAAIDLALSTSTMPKILALFWFDSREISFEACLTQMFFIHALSAIESTILLAMAFDRYVAICHPLRHAAVLNNTVTAQIGIVAVVRGSLFFFPLPLLIKRLAFCHSNVLSHSYCVHQDVMKLAYADTLPNVVYGLTAILLVMGVDVMFISLSYFLIIRTVLQLPSKSERAKAFGTCVSHIGVVLAFYVPLIGLSVVHRFGNSLHPIVRVVMGDIYLLLPPVINPIIYGAKTKQIRTRVLAMFKISCDKDLQAVGGK,r
Pharmacophore2D,0.0,0.0,0.0,0.0,0.0,0.0,0.0,0.0,0.0,0.0,0.0,0.0,MAWENQTFNSDFLLLGIFNHSPTHTFLFFLVLAIFSVAFMGNSIMVLLIYLDTQLHTPMYFLLSQLSLMDLMLICTTVPKMAFNYLSGSKSISMAGCATQIFFYISLLGSECFLLAVMSYDRYTAICHPLRYTNLMRPKICGLMTAFSWILGSTDGIIDAVATFSFSYCGSREIAHFCCDFPSLLILSCNDTSIFEEVIFICCIVMLVFPVAIIITSYARVILAVIHMGSGEGRRKAFTTCSSHLMVVGMYYGAGLFMCIQPTSHHSPMQDKMVSVFYTIVTPMLNPLIYSLRNKEVTRALMKILGKGKSGD,r
Pharmacophore2D,-0.03333333333333333,0.0,0.0,0.0,-0.16666666666666666,0.0,0.0,0.0,0.0,0.0,0.0,0.0,MMIKKNASSEDFFILLGFSNWPQLEVVLFVVILIFYLMTLTGNLFIIILSYVDSHLHTPMYFFLSNLSFLDLCHTTSSIPQLLVNLRGPEKTISYAGCMVQLYFVLALGIAECVLLVVMSYDRYVAVCRPLHYTVLMHPRFCHLLAAASWVIGFTISALHSSFTFWVPLCGHRLVDHFFCEVPALLRLSCVDTHANELTLMVMSSIFVLIPLILILTAYGAIARAVLSMQSTTGLQKVFRTCGAHLMVVSLFFIPVMCMYLQPPSENSPDQGKFIALFYTVVTPSLNPLIYTLRNKHVKGAAKRLLGWEWGK,r
Pharmacophore2D,0.0,0.0,0.0,0.0,0.0,0.0,0.0,0.0,0.0,0.0,0.0,0.0,MGDWNNSDAVEPIFILRGFPGLEYVHSWLSILFCLAYLVAFMGNVTILSVIWIESSLHQPMYYFISILAVNDLGMSLSTLPTMLAVLWLDAPEIQASACYAQLFFIHTFTFLESSVLLAMAFDRFVAICHPLHYPTILTNSVIGKIGLACLLRSLGVVLPTPLLLRHYHYCHGNALSHAFCLHQDVLRLSCTDARTNSIYGLCVVIATLGVDSIFILLSYVLILNTVLDIASREEQLKALNTCVSHICVVLIFFVPVIGVSMVHRFGKHLSPIVHILMADIYLLLPPVLNPIVYSVRTKQIRLGILHKFVLRRRF,r
Pharmacophore2D,0.04364357804719848,0.0,0.0,0.0,0.0,0.0,0.2182178902359924,0.0,0.0,0.0,0.0,0.0,MDQSNYSSLHGFILLGFSNHPKMEMILSGVVAIFYLITLVGNTAIILASLLDSQLHTPMYFFLRNLSFLDLCFTTSIIPQVLVNLWGPDKTISYVGCIIQLYVYMWLGSVECLLLAVMSYDRFTAICKPLHYFVVMNPHLCLKMIIMIWSISLANSVVLCTLTLNLPTCGNNILDHFLCELPALVKIACVDTTTVEMSVFALGIIIVLTPLILILISYGYIAKAVLRTKSKASQRKAMNTCGSHLTVVSMFYGTIIYMYLQPGNRASKDQGKFLTLFYTVITPSLNPLIYTLRNKDMKDALKKLMRFHHKSTKIKRNCKS,r
Pharmacophore2D,0.0,0.0,0.0,0.0,0.0,0.0,0.0,0.0,0.0,0.0,0.0,0.0,MDGVNDSSLQGFVLMGISDHPQLEMIFFIAILFSYLLTLLGNSTIILLSRLEARLHTPMYFFLSNLSSLDLAFATSSVPQMLINLWGPGKTISYGGCITQLYVFLWLGATECILLVVMAFDRYVAVCRPLRYTAIMNPQLCWLLAVIACLGGLGNSVIQSTFTLQLPLCGHRRVEGFLCEVPAMIKLACGDTSLNQAVLNGVCTFFTAVPLSIIVISYCLIAQAVLKIRSAEGRRKAFNTCLSHLLVVFLFYGSASYGYLLPAKNSKQDQGKFISLFYSLVTPMVNPLIYTLRNMEVKGALRRLLGKGREVG,r
Pharmacophore2D,0.6675707280055104,0.0,0.7302967433402214,0.7302967433402214,0.7302967433402214,0.4166666666666667,0.7302967433402214,0.0,0.0,0.0,0.0,0.0,MKHSNDSKVTEFILLGFAGQNESWHILFVVFLVIYIATLVGNIGMILLIKLHSSLHTPMYFFLQHLAFVDLCYSSAITPRTLQNFVSTKPSISFTGCLAQLLVYGIFVTSDCFILAAMAVDRYVAICNPLRYPIIMSQRLCILLLLGSYTMGFLNATVNTGFTFLSNFCKSNVINHFFCDVPPILALSCSSIDLNIMVLTIFVGFNLTFTVSVVILSYTFILAAILRMSSASGRRKAFSTCASHMTAVTIFYGTLSYMYVLHGTNRSQEQEKVASVFYGIMIPMLNPLIYSLRNQDVIEALRHIGNKCF,r
Pharmacophore2D,0.0,0.0,0.0,0.0,0.0,0.0,0.0,0.0,0.0,0.0,0.0,0.0,MWSNISAAPFLLTGFPGLEAAHHWISIPFFAIYISVLLGNGTLLYLIKDDHNLHEPMYYFLAMLAGTDLTVTLTTMPTVMAVLWVNHREIRHGACFLQAYIIHSLSIVESGVLLAMSYDRFVAICTPLHYNSILTNSRVIAIGLGVVLRGFLSLVPPILPLFWFSYCRSHVLSHAFCLHQDVMKLACADITFNRIYPVVLVALTFFLDALIIVFSYVLILKTVMGIASGEERAKALNTCVSHISCVLVFYITVIGLTFIHRFGKNAPHVVHITMSYVYFLFPPFMNPIIYSIKTKQIQRSVLHLLSV,r
Pharmacophore2D,0.0,0.0,0.0,0.0,0.0,0.0,0.0,0.0,0.0,0.0,0.0,0.0,MGTGNWSQVIEFIILGFPHFQGVQIYLFFLLLSIYFTTILGNLLIFLVVYLDSRLHTPMYRFVSILSFLELGYTAATIPKMLANLLSEKKTISFSGCLLQIYFFHSLGATECYLLTAMAYDRYLAICRPLHYPTLMTQSLCIKIAIGCWLGGLAGPVVEISLVSRLPFCGPNHIQHIFCDFPPVLSLACTDTSVNVLVDFIINSCKILATFLLILSSYLQIIRTVLKIPSAAGKKKAFSTCASHLTVVLIFYGSILFMYVRLKKSYSLDYDRALAVVYSVITPFLNPFIYSLRNKEIKEALKRQLMRTGILR,r
Pharmacophore2D,0.0,0.0,0.0,0.0,0.0,0.0,0.0,0.0,0.0,0.0,0.0,0.0,MSLFPQRNLDAMNRSAAHVTEFVLLGFPGSWKIQIFLFVLFLVFYVLTLLGNGAIICAVRCDSRLHTPMYFLLGNFSFLEIWYVSSTIPNILANILSKTKAISFSGCFLQFYFFFSLGTTECLFLAVMAYDRYLAICRPLHYPTIMTRRLCCILVSSCWLIGFLGYPIPIFSISQLPFCGSNIIDHFLCDMDPLMALSCAPAPITEFIFYAQSSFVLFFTIAYILRSYILLLRAVFQVPSAAGRRKAFSTCGSHLVVVSLFYGTVMVMYVSPTYGIPILMQKILTLVYSVMTPLFNPLIYSLRNKDMKLALRNVLLGMRIVKNM,r
Pharmacophore2D,0.0,0.0,0.0,0.0,0.0,0.0,0.0,0.0,0.0,0.0,0.0,0.0,MEPQNLSKVTEFQLLGFQNLLEWQSLLFAIFLCFYLLTITGNMVIIGVVSEDPRLRAPMYTFLQHLSFLEIWYTSTTVPLLLSNLASWGHMLSFSACMAQLYFFVFFGATECFLLAAMAYDRYLAICHPLHYSLLMSPDNCAALVTVSWVTGVGTGFLPSLLISKLDFCGPNRINHFFCDLPPLIQLSCSSVYVTEMAIFVLSIAVLCICFLLTLVSYVFIVSSILRIPSTSGRMKTFSTCGSHLAVVTIYYGTMISMYVRPNAHLSPELNKVISVFYTVVTPLLNPVIYSLRNKDFKEAVRKIVRTKCGVYRARVKGSALTT,r
Pharmacophore2D,0.0,0.0,0.0,0.0,0.0,0.0,0.0,0.0,0.0,0.0,0.0,0.0,MLPFNDEDEFSLFRYSRTMHQGNQTAISGFILLGLTVGSEQQLLLFTLFLCMYLVTMVGNSLIILAIISDTHLYSPMYFFLANLSFTDICFTTTTVPKILADIQSQNPTISFVGCFTQMYFFMFLVDLDNFLLAAMAYDRYIAICHPLHYAALLNPKRCALLVVVPWVISNLVSVLHLSLLSRLPFCDQRVIPHFFCDLEPVLRLACSDTQINNLLILIVGGTVIFVPFVFILVSYALIGTAVLNVPSVKGKWKTFSTCGSHLSAVSLFYGSIVGVYFLPASSYSAERDKVAAIMYTVVTPMMNPFIYSLRNKDMKRALRRLLSQKSLICSW,r
Pharmacophore2D,0.0,0.0,0.0,0.0,0.0,0.0,0.0,0.0,0.0,0.0,0.0,0.0,MDGDNETMVAEFLLLGLSGKSEQEEVVFGMFLGMYLVTISGNLLIILAISCDPHLHTPMYFFLANLSSVDICFSSVTVPKALVNHVLGSKSISYTECMIQIYFFITFINMDGFLLSVMAYDRYVAICHPLHYTMMMRSRLCVLLVAISWVITNLHALLHTLLMVRLTFCSHNAVHHFFCDPYPILKLSCSDTFINDLMVFTVGGVIFLTPFSCIVVSYVYIFSKVLKIPSARGIRKALSTCGSHLTVVSLFYGAILGVYMRPSSSYSLQDTVATVIFTVVTPLVNPFIYSLRNQDMKGALRKIMLRS,r
Pharmacophore2D,0.32909944487358056,0.0,0.6454972243679028,0.0,0.0,0.0,1.0,0.0,0.0,0.0,0.0,0.0,MRRDNESTVSEFILLGLPIRAEDQGLYSALFLAMYLTTVLGNLLIILLIRLDSHLHTPMYFFLSHLAFTDISFSSVASPKMVINMLTHSQSISYAGCVSQVYFFSFFADLESFLLTSMAYDRYVAICHPLHYSQIMSENLCVLLIVVSWTLSTANSLVHTLLLVQLSYFRNNTIPHYFCDLSTLLKLSSSDTTINELVILVLGNMVITLPFICILVSYGHIGVTIMKIPSIKGICKALSTCGSHLCVVSLYYGAIIGLYFVPSSNNTSDKDAIVAMMYTMVIPMLNPFIYSLRNRDMKGALRNILSGRLWSQ,r
Pharmacophore2D,0.5181988897471611,0.0,0.6454972243679028,0.6454972243679028,0.3,0.0,1.0,0.0,0.0,0.0,0.0,0.0,MEPRNNTHILEFFLLGFSQDPNLQPVICGLFLSMYLITVVGNLLIILTIISDANLHTPMYFFLSNLSFVDICFVSTTVPKMLVNIQTKRKSISYADCITQMYFFLIFVELDNFLLAVMAYDRYVAICHPLHYTGIMNRRLCGFLVLVCWIVSVLHALLQSMMVLRLSFCTDLEIPHFFCELNQVAQLTCSDTFLNDVVMYFALVLLAIVPLFGILYSYSKIVSSIRAMSTVQGKYKAFSTCASHLSVVSLFYFTGLGVYLSSAVSHSSQASATASVMYTVVTPMLNPFIYSLRNKDVKGALKRLLGVKL,r
Pharmacophore2D,0.0,0.0,0.0,0.0,0.0,0.0,0.0,0.0,0.0,0.0,0.0,0.0,MTAKNSSVTEFILAGLTDQPGLRMPLFFLFLGFYMVTVVGNLGLISLIGLNSHLHTPMYFFLFNLSLIDFCYSSTISPKMLMSFISKKNIISHPGCMAQLFFFCFFVISESFILSAMAYDRYVAICNPLMYMVTMSPQVCLLLLFGVYLMGFVGAMAHTISMARLTFCADNIVNHYMCDILPLLEHSCTSTYVNELVVFIFVSFDIGVPIVTIFISYALILSSILHMHSTEGRSKAFSTCSSHMIVVCLFFGSGAFMYLQPPSVLSLDQGKVSSLFYTIVVPMLNPLIYSLRNKDVKVTVRKTLDRRIFS,r
Pharmacophore2D,0.0,0.0,0.0,0.0,0.0,0.0,0.0,0.0,0.0,0.0,0.0,0.0,MVSENNSSVKEFILLGLTQLPELQLPLFFLFLGIYVFSMVGNLGLIVLIVLNPPLHTPMYYFLFNLSFTDLCYSSVITPKMLVGFVKQNIISHAECMTQLFFFAFFVIDECCILTAMAYDRYAAICKPLLYKVIMSHQVCFVLMVGGYTVGFVGATAHTVCMLRLTFCDGNIINHYMCDIPPLLKLSCTSTSINELVVFIVVGVSIIVPSLTVFISYTLILSNILRIHSAKGRSKALSTCSSHMIAVSLFFGSSSFIYFKSSPVGSVDKDKISTVFYTVVVPMMNPFIYSLRNKDVQIALRKTLKKNCSLK,r
Pharmacophore2D,0.0,0.0,0.0,0.0,0.0,0.0,0.0,0.0,0.0,0.0,0.0,0.0,MSLNAQKTMENDSSVSEFILMGLTDQPELQLPLFVLFLVNYTVTVMGNLSLMNLICLNSNLHTPMYFFIFNLSFIDFCYSMVFTPKMLMGFVVEKNIISFRGCMTQLFFFLFFVNSESYVLTAMAYDRYVAICQPLLYKAVMSPGICFLLIFCTYLMGLVSALFHTGFMIRLNFCDSNVINHYMCDIFPLFRLSCSSTYLTELVSSAVVGTAIILCCLIILISYGMILYNIIHMSSGKGWSKALGTCGSHIITVSLFYVTGMLAYVKPSSAETVGQGKIFSVFYTFLVPMLNPLIYSLRNKDVKLAVKKTWKRLTC,r
Pharmacophore2D,0.0,0.0,0.0,0.0,0.0,0.0,0.0,0.0,0.0,0.0,0.0,0.0,MATGNLTHVTEFILMGVTDRPELQVPLFFLFLVIYLLTAAGNLGIITLTSVDSRLQTPMYFFLRHLAVINFGNSTVIAPKMLVNFLVSKKTTLYYECATQLGGFLVFMVSEIFMLAVMAYDRYVAICNPLLYMVVVSRRVCLLLVFLTYLFSFVTAIVVTPCVFSVSYCSSNVINHFYCDNVPLLALSCSDTHLPETVVFFFSATNLFFSMIIVLISYFNIVLAILRIRSSEGRKKAFSTCASHMMAVTVFYGTLLFMYLQPRTNHSLDTDKIASVFYTLIIPMLNPVIYSLRNKDVKCALKEFLKNPCKKFNLI,r
Pharmacophore2D,0.6,0.0,1.0,0.0,1.0,1.0,0.0,0.0,0.0,0.0,0.0,0.0,MQMESQNLTVVTEFILRGITDRPELQVPLFGLFFMIYLISLFGNLGMIILTIVESRLQTPMYFFLRHLAITDLGYSTAIGPKMLANFVVSKNTISFHLCATQLAFFLLFIACELFILSVMSYDRYVAICNPLLYNVIMSQTVCWVLVAIPYLYSVFISLIVTINIFSSSFCGYNVIPHFYCDGLPLISLLCTNTDKIGLIILILSAINLISSLLIILGSYLLIFRAILRMNSAEGRRKAFSTCGSHLTVVSVFYGTLIFMYVQPKTSHSFDTDKVASIFYTLVIPMLNPLIYSLRNKDVKYALRKTGKIIQNNFS,r
Pharmacophore2D,0.0,0.0,0.0,0.0,0.0,0.0,0.0,0.0,0.0,0.0,0.0,0.0,MKVSIPPRANFSYAIFLLTGFPGLEWAHHWISLPIFMGYFVAIMGNATILHLVRTDPSLHQPMYYFLAILAVTDLGLCMSTLPSVLGVLWFDARMVGLVPCVLQQHFLHSFSFMESAVLFAMALDRLIAIRFPLRYASVLTGPRVALIGTVLGMRSAAITAAPSLHLLTFDYCHPGALSHAYCLHQDMIRLACSDTRFNRLYGLCIIMLAMGSDVLFILLSYAVILRTVLAIASAGERLKALNTCVSHILAVLCFYVPVLGLSIVHRFGQHTSPLVHILMGTVSVLFPPVMNPVIYSIKTQQIRRAIVKVISLGKIQ,r
Pharmacophore2D,0.0,0.0,0.0,0.0,0.0,0.0,0.0,0.0,0.0,0.0,0.0,0.0,MEPGNYTVVTEVILLGFTEDAIIRAILFIVFLIIYSVTLMGNASIIMLIRRSPQLHTPMYLLLSHLAFVDIGYSSSVTPIMLKGFLRKETFILVSGCVAQLCSVVTFGSTECFLLAAMAYDRYVAICSPLLYATQMSSTVCILLVGASYLGGCVNAWTFTGCLLNLSFCRPNKVNHFFCDYSPLLKISCSHDFSSEVIPAISSGSIIVVTVFIIALSYVYILVSILKMRSTEGRQKAFSTCTSHLTAVTLFYGTITFIYVMPKSSYSTDQNKVVSVFYTVVIPMLNPIIYSLRNKDVKEAMKKLMANTHH,r
Pharmacophore2D,0.0,0.0,0.0,0.0,0.0,0.0,0.0,0.0,0.0,0.0,0.0,0.0,MTENNFTKVTVFMFSGFSDHPELQVSLFLIFLFIYLFTVWGNIGLILLIRIDSQLHTPMYFFLSNLAFIDIFYSSTVTPKAVVDFQSTQKSISFVGCFVQMYFFVGLVCSECFLLGSMAYDRYVAICNPLLYSVIMSQKVCNWLAVIPYMIGFTNSLISICVISSLPLCDPYINHFFCDTTALLALSCVDAFSTELVIFVLAGFTLLSSLLIITFTYVTIISAILRIQSAAGRWKAFSTCASHLTGVTVFYGSLIFTYLQPDNTSSLTQAQVASVFYTIVIPMLNPLIYSLRNKDVKNALLRVIHRKHLL,r
Pharmacophore2D,0.0,0.0,0.0,0.0,0.0,0.0,0.0,0.0,0.0,0.0,0.0,0.0,MSNHTRVTHFILRGFSDVPQLRLVLIPFFLLFYTFGILGNFSIITAVIRDSRLHSPMYFFLKNLSFLDICYTSATIPKAVVISLTGSGVISYQECVAQLYMFITLCGTECFLLTAMAYDRCLAILRPLIYGTIMSHKYCSALVVTAWVGGAIYSAFHTFNTFSLPYCGPNVVDHFFCDMPPVMRLSCTDYHLNEEVGFAVIGCIIMSSFALTVVSYIGIVATVLRIPSVEGRWKAFSTCSSHLTTVILFYGTGSFVYLRPASQYSPTLDPLASIFYSVVTPSLNPVIYCLRNKDMKFALQKLYCGRKY,r
Pharmacophore2D,0.0,0.0,0.0,0.0,0.0,0.0,0.0,0.0,0.0,0.0,0.0,0.0,MSNVTLVTTFFLSGIPHPPALDTMLFVAFLVIYILTVLGNFLILMVIRVDSHLHTPMYYFLTNLSFIDMWFSTVTVPKMLMTLVSPRGGAISFHSCVAQLYCFHFLGSTECFLYTVMSYDRYLAISYPLRYSSMMSGRVCALLAAGTWITGSLHSAVQTTLTFRLPYCGPNQIQHYFCDAPPILKLACADTSANEMVIFVNIGVVASGCFLLISLSYVSIVCSILRIRTSEGRHRAFQTCASHCIVVLCFFVPCVFIYLRPGSRDAVDGVVAVFYTVLTPLLNPVVYTLRNKEVKKALVKLKDKVAYSQSQ,r
Pharmacophore2D,0.0,0.0,0.0,0.0,0.0,0.0,0.0,0.0,0.0,0.0,0.0,0.0,MGYTNLSYLNPGTVILIGIPGLEHVQFWIGFPFFVVCLVALLGNLFLLIIIPTERSLHQPMYIFLAVLAATDLGLCLAIAPKMLAIFWFGSCSMAFDACLTQLFFIHALQGMESGVLLAMAFDRYVAICDPLRHTAVLTPLFLLRVVLVVAIRATVLVGVLPILLKRLQWFHSVVIVHSYCEHMAVVKLAAEDVRINKSYGLFVAFAILGFDMIFVFISYILIFRAVFRLPQKEARSKAFNTCTAHIVVFLEFYILAFFSFFSHRFGHVSPYVHILLSTIYLLLPPALNPIVYGVKTKEIRKWVVQIFVLKSNTQ,r
Pharmacophore2D,0.0,0.0,0.0,0.0,0.0,0.0,0.0,0.0,0.0,0.0,0.0,0.0,MEIPHNITEFFMLGLSQRPEIQRLLFVVFLVIYAVTVCGNMLIVVTVTFSSSLASPMYFFLSNLSFIDTCYSSSLAPKLIADSLYEGTTLSYEGCMAQLFGAHFLGGVEIILLTVMAYDRYVAICKPLHYTTTMTRHLCVVLVAVAWLGGFLHSLVQILLIFQLPFCGPNVINHFVCDLYPLLELACTNTYVIGLLVVANSGVICLLNFLMLAASYIVILHSLRSHSAEGRRKALSTCGAHFTVVTMFFVPCIFSYMRPSTTLPIDKNMAVFYGILTPMLNPLIYTLRNEEVKDAMRKLFTRSEVVGA,r
Pharmacophore2D,0.0,0.0,0.0,0.0,0.0,0.0,0.0,0.0,0.0,0.0,0.0,0.0,MSTFHNVCSVPSSLWLTGIPGLETLHIWLSIPFGSMYLVAVVGNITILAVVRVERSLHQPMYFFLCMLAVIDLVLSTSTMPKLLAIFWFGAGHIGLDACLCQMFLIHCFATVESGIFLAMAFDRYVAICNPLRHSMVLTHTVVGRLGLAAVLRGVLYIGPLPLMIRLRLPLYKTRVISHSYCEHMAVVALTCGDSRVNNVYGLSIGFLVLILDSAAIAASYVMIFRAVMGLATPEARLKTLGTCGSHICAILIFYVPIAVSSLIHRFGHQVPPPIHTLLANFYLLIPPILNPIVYAVRTKQIRDRLLQILKTGTKIR,r
Pharmacophore2D,0.0,0.0,0.0,0.0,0.0,0.0,0.0,0.0,0.0,0.0,0.0,0.0,MENSTSVDEFLLLGLTSVQKLQPIIFVMFLTIYLLNLVGNGVILMIVTLERRLHSPMYFFLGNLSCLDICYSSVTLPKVLINLLSRRRAISFLGCITQLYFFHFLGSTEAILLAVMAFDRFVAICSPLRYTAIMNPQLCILLAATAWFTSFFYALLHSVMTAHLNFCHSHKLSHFFCDVKPLLEVACGNTVLNQWLLSVVTGSISMGAFLLILLSYFYIIAFLLFKNRSCRMLKKALSTCTSHFMVVCLFYGPVGFTYIRPATASASSMSEDRVVAIIYSAVTPVLNPLIYTLRNKEVMLALKKNFGKKLFKGN,r
Pharmacophore2D,0.0,0.0,0.0,0.0,0.0,0.0,0.0,0.0,0.0,0.0,0.0,0.0,MAINNSTTVVEFVLQGLSEDPGLQALFLAFFLLLYILALAGNTLIIIAISLNPRLHTPMYFFLANLALLDIICTSTVVPKLLEGLVGKSSHISYKGCMTQVFFLIWVLGAELLLLTAMAYDRYVAICRPLHYNTLMSWPICVLLAGFVWVIGIANTSVHIGLLVRLNFCGSNQIRHFLCEVPTLLLLSCSPTTLNNIMLVIADVYFGVLNFLLTMISYSFIISSILRIRSAEGKKRAFSTCSAHLVVVTLYYSTIIYTYLQPGSGSSFQNSKVVTLLYTAVSPTLNPIIYSLRNKDVKVALKRLFPCFH,r
Pharmacophore2D,0.0,0.0,0.0,0.0,0.0,0.0,0.0,0.0,0.0,0.0,0.0,0.0,MEVDSNSSSGSFILMGVSDHPHLEIIFFAVILASYLLTLVGNLTIILLSRLDARLHTPMYFFLSNLSSLDLAFTTSSVPQMLKNLWGPDKTISYGGCVTQLYVFLWLGATECILLVVMAFDRYVAVCRPLHYMTVMNPRLCWGLAAISWLGGLGNSVIQSTFTLQLPFCGHRKVDNFLCEVPAMIKLACGDTSLNEAVLNGVCTFFTVVPVSVILVSYCFIAQAVMKIRSVEGRRKAFNTCVSHLVVVFLFYGSAIYGYLLPAKSSNQSQGKFISLFYSVVTPMVNPLIYTLRNKEVKGALGRLLGKGRGAS,r
Pharmacophore2D,0.0,0.0,0.0,0.0,0.0,0.0,0.0,0.0,0.0,0.0,0.0,0.0,MQGPNQTFVTEFILLGFSLSPRTTPLLFSAFLIIYLLIILGNGLIFILICLDSHLHTPMYFFIGVLSMLDLGYTTTTVPQMLAHLASQKKTISYSNCVAQMYIFLVLGVTESWLFAIMSIDRYVAICHPLRYKVIMSPCLCGVMAIFCGLCGVTAALVYTIFAMRLPYCGPNKINHFFCEVPAVLKLACADTSVNDHVDFILGFSVILIPLSLILVIYINIFTSILKIRSAQGRLKAFSTCASHITVVTMFCVPAMVMYMKPGSKASPEEDKKLALFYNVISAFLNPVIYSLRNKDVKRAFLKVTGCGRPPE,r
Pharmacophore2D,0.0,0.0,0.0,0.0,0.0,0.0,0.0,0.0,0.0,0.0,0.0,0.0,MIPGQNQSWVSEFILIGFSSDPTTNSILFIVFLLIYLSSVLGNGLIIMLVCLDTQLHTPMYFFLSTLSLLDMSFVTTTMPQMLVHLLAHSQTISFASCCLQMFVFGALGITECTFFVVMAYDRYVAICYPLRYTVILNWGLCIRLAAGSWICGFFSSLLHTFFTMSLPYCGPNRVNHYFCEGPSVRSLACMDTHLIEMVDFVLSVFVVVIPISLIVASYIRIAMAILKIKSTQGRCKAFSTCASHLTVVTFFYAPATYIYLRPNSSYSPERDKQVSLFYNAFTALLNPVVYSLRNKDIKRAFLKVMGHSRLDQ,r
Pharmacophore2D,0.0,0.0,0.0,0.0,0.0,0.0,0.0,0.0,0.0,0.0,0.0,0.0,MMQANQTQVTEFILLGLSDDPHTQKLLFILFLGIYMVTVLGNLLLMFLVRADSRLHTPMYFFLCNLSLADLCFSTNIVPQALIHLLSRKKTISFRRCAAQLLLFLIFGCTQCALLAVMSYDRYVAICNPLHYSSIMTWRVCIQLATVSWTSGILVSVVDTTFTLRLPYRGSNSIAHFFCEAPALLALASTDTQTSEMAIFLMGVVILLIPVSLILVSYGHIIVTVVKMKSAAGRFKAFSTCGSHLMVVILFYGSAIITYMTPKSSKEQEKLVSVFYAMVTPMLNPLIYSLRNKDVKGALWKVAMKNFSSRLRITH,r
Pharmacophore2D,0.32909944487358056,0.0,1.0,0.0,0.0,0.0,0.6454972243679028,0.0,0.0,0.0,0.0,0.0,MGGNQTLITQFILLGFPLSPRMQMLLFALFSLFYAFTLLGNGTILGLICLDSRLHTPMYFFLSHLAIVDIAYACNTVPQMLVNLMDPAKPISFAGCMTQTFLFLTFAHTECLLLVVMSYDRYVAICHPLRYTAIMSWRVCVILVLTSWILGVLLALVHLVLLLPLPFCGSQKVNHFFCEIIAVLKLACSDTRINELMVLAGAVSVLVGPFSSIVVSYAHILCAILKIKSQQGRQKAFSTCSSHLCVVGLFYGTAIVMYIGPQHGKSNEQKKYLLLFHSLFNPMLNPLIYSLRNKEVKSALKRTLLKEDTS,r
Pharmacophore2D,0.0,0.0,0.0,0.0,0.0,0.0,0.0,0.0,0.0,0.0,0.0,0.0,MGQNDSSVVEFILLGFSHFPELQVHMFGAFLVIYLVTLTGNATIVTVIFLDHSLHIPMYLFLQNLSVVEASFSTTVMPEMLVVLTSEKATISFGGCFAQTYFILLFGGTECFLLGAMAYDRFAAICYPLTYPMIMSKRIFVKLVVCSWVLGIMTATVSVTWVFSFPFCGPSKINHISCEVPAVLELACADTFLFEVYSFTGTILLVLVPFLLILLSYTQILFTVLRMPSTTGRQKAFSTCASHLTSVTLFYSTACMTYLQPKSKYSPDTKKLMSLAYSLLTPLLNPLIYSLRNKEMKRAVVKLCQIKVVF,r
Pharmacophore2D,0.26253832274171185,0.0,0.47140452079103173,0.16666666666666666,0.75,-0.16666666666666666,0.09128709291752768,0.0,0.0,0.0,0.0,0.0,MEKWNQSSSDFILLGLLPQNQTGLLLMMLIILVFFLALFGNSAMIHLIRVDPRLHTPMYFLLSQLSLMDLMYISTTVPKMAFNFLSGQKNISFLGCGVQSFFFLTMAGSEGLLLASMAYDRFVAICHPLHYPIRMSKIMCLKMIIGSWILGSINSLAHSIYALHIPYCHSRSINHFFCDVPAMLPLACMDTWVYEYMVFVSTSLFLLLPFLGITASYGRVLFAVFHMRSKEGKKKAFTTCSTHLTVVTFYYAPFVYTYLRPRSLRSPTEDKILTVFYTILTPMLNPIIYSLRNKEVLGAMTRVLGTFSSMKP,r
Pharmacophore2D,0.25010280346706226,0.0,1.0,0.3,0.3,-0.09128709291752768,-0.2581988897471611,0.0,0.0,0.0,0.0,0.0,MDSYNQTFTGFILLGLFPPSKIGLFLFILIVLIFLTAWIGNLSMILLILLDSHLHTPMYFLLSQLSLIDLNYISTIVPKMVSDFMLGNKYISFIGCGFQIFLFLTFGGAETLLLASMAYDRYVAICFPLHYATHMNKRVCVMMITGAWILGSINSCAHTGYALQIPYCRSRAINHFFCDVPAMLTLACTDTWVYEYTVFVSTILFLVFPFIGIVCSYGRVFLAIYRMHSRAGKKKAYSTCSTHLTVVTFYYAPFAYTYLRPRSLRSPEEDKILAVFYTVLTPMLNPIIYSLRNKEVIGALRRMTHRICFAKI,r
Pharmacophore2D,0.0,0.0,0.0,0.0,0.0,0.0,0.0,0.0,0.0,0.0,0.0,0.0,MMERENYTFNSDFILLGLFSSSKISLTFFSVIFFIFIMTITENALMILLIHRDSRLHTPMYFLLSHLSFMDILHISNIVPKMIADFLSGSRTISFAGCAFQIFLSLTLLGGECLLLAVMSYDRYVAICHPLRYPVLMRDNFSRLLAAGSWLVGILNSIVHTAFVLHFPFCHSRAIDHFFCEVPAMLKLSCIDTTHYERGVYVSGIIFLLIPFSMISISYVQILLTVFQMHSSGARQKSFSTCLFHMVVVIMYYGPFIFTYMRPRSYHTPGQDKFLAIFYTILTPTLNPIIYSFRNKDVLMALKNIVQSNILNKE,r
Pharmacophore2D,0.0,0.0,0.0,0.0,0.0,0.0,0.0,0.0,0.0,0.0,0.0,0.0,MAWAGNQTLISHFVLLGLFTHSPLHLFLFSIIMVMFLVALSGNGLMILLILMDSRLHTPMYFFLSWLSLMDLMLISTIVPRMAADFLLGRGSISFAGCGLQILFFLTLLGDECFLLAFMAYDRYVAISNPLRYSVIMSRRVCWLMVAGSWLFGLVDGLIQAVFTLRFPYCGSQEIDHFFCEVPAVLKLACADTSLYETMIYVCCVLMLLLPFSVISASYLRILVAVLRMRSAEGRRKAFATCSSHMIVVSLFYGAAMITYMRPQAYHSSKQDKVVSAFYTMITPMLNPLIYSLRNKEVTGALRKLLGKCPCGGGTLG,r
Pharmacophore2D,-0.06666666666666667,0.0,0.0,0.0,-0.16666666666666666,-0.16666666666666666,0.0,0.0,0.0,0.0,0.0,0.0,MVASSNSSSHPLFFMLLGIPGLENYQFWIAFPFCVMYIVALTGNITILYIIRIDHTLHEPMYLFLALLAITDLVLSSSTQPKMLAILWFHSHEIEYNACLIQVFFIHAFSSVESGVLMTMALDRYVAICFPLRHSSILTTSVVIKLGAAVMVRGLLWVSPFCFMVSRMPFCPNKVIPQSYCEHMAVLKLVCADTRVNRGYGLFVAFSVVGFDIIVISVSYVMILRAVLRLPSGEARLKAFGTCASHVCVILAFYIPALFTFLTHRFGHHVPRVVHIMFANFYLLVPPMLNPIIYGVRTKQIRDRVIRGFRRKDP,r
Pharmacophore2D,0.8581988897471611,0.0,1.0,1.0,0.6454972243679028,0.6454972243679028,1.0,0.0,0.0,0.0,0.0,0.0,MMLSAAIPNGTAFHPPTFVLLGIPGMQDQHVWIAIPFCSMYILALVGNGTILYIIITDRALHEPMYLFLCLLSITDLVLCSTTLPKMLAIFWLRSHVISYHGCLTQMFFVHAVFATESAVLLAMAFDRYVAICRPLHYTSILNAVVIGKIGLACVTRGLLFVFPFVILIERLPFCGHHIIPHTYCEHMGIAKLACASIKPNTIYGLTVALSVTGMDVVLIATSYILILQAVLRLPSKDAQFRAFSTCGAHICVILVFYIPAFFSFFTHRFGHHVPPQVHIILANLYLLVPPVLNPLVYGINTKQIRLRILDFFVKRR,r
Pharmacophore2D,0.0,0.0,0.0,0.0,0.0,0.0,0.0,0.0,0.0,0.0,0.0,0.0,MTLVSLHSSFSVLLFMALSNSSWRQPQPPFFLVGVPGLEESQHWIALPLGILYLFALVGNVTIIFIIWTDSSLHQPMYLFLAMLAAIDLVLASSTAPKALTVLLAHAHEIGYIVCLTQMFFIHAFSSMESGILVAMALDRYVAICHPLRHSTILHPGIIGRIGLVVLVRGLVLLFPFPILLQNVVFCRATVISHAYCEHMAVVKLACSETTVNRAYGLSVALLVVGLDVLAIGISYALILQAVLKVPGGEARLKAFSTCGSHVCVILIFYVPGMFSFLTHRFGHHVPHHVHVLLATLYLLVPPALNPLVYGVKTRQIRQRVLRVFYTKASI,r
Pharmacophore2D,0.0,0.0,0.0,0.0,0.0,0.0,0.0,0.0,0.0,0.0,0.0,0.0,MIRRQHMEAQSNTSSILAPDFLLICFPNYQTWQHWLSLPLSLLFLLAMGANATLLITIRMEASLHEPMYYLLSLLSLLDIVLCLTVIPKVLAIFWFDNKSIGFSSCFLQMFVMNSFLTMESCTFMVMAYDRYVAICKPLQYPSIITDQFVVRAAIFVAARNGILTMPIPILSSQLRYCARIIRNCICTNMSVSKLSCDDITFNKLYQFVIGWTLLGSDLILIVLSYSFILKAVLRIKAEGAVAKALSTCGSHFILILFFSTVLLVLVITNLARERIPPDVPILLNILHHLIPPALNPIVYGVRTREIKQGIRNLLRRRL,r
Pharmacophore2D,0.0,0.0,0.0,0.0,0.0,0.0,0.0,0.0,0.0,0.0,0.0,0.0,MLGPSYNHTMESPGTFFLLGIPGFQSSYLWLAISLSTMYSIALLGNMLIIIVICMDSTLQEPMYFFLCVLAAVDIVMASSVVPKMVSIFSSGDSSISFNACFTQMYFVHAATAVETGLLLAMAFDRYVAICKPLHYMRILTRHVMLGISVTITVRAVIFMTPLSWMLSHLPFCASNVVPHSYCEHMAVAKLACADPMPSSLYSLIFSSIIVGSDVAFISASYSLILKAVFGLSSRNAQWKALSTCGSHVGVMALYYLPGMASIYVAWLGQDRVPLHTQVLLADLYLIIPPTLNPIIYGIRTRQIRERIWSLLTHCFFSQCTQGS,r
Pharmacophore2D,0.0,0.0,0.0,0.0,0.0,0.0,0.0,0.0,0.0,0.0,0.0,0.0,MLRPSSMSEVTNTTHGPFYFILTGIPGFEDIHLWISIPFFCLYTISIMGNTTILTVIRTEPSLHEPMYLFLSMLALTDLGLTLTTLPTVMQVLWFNIREISFEACFAQVFFLHGFSFMESSVLLAMSFDRYVAICRPLHYASILTSEVIARIGLAIICRCVLAVLPSLFLLKRLPFCHSHLLSHSYCLHQDMIHLVCADIRVNRWYGFALVLLIIVLDPLLIVLSYALILKSVLNTATWTERLRALNNCLSHMLAVLVLYVPMVGVSMTHRFAKHASPLVHVLMANIYLLAPPVMNPIIYSVKTKQIRQGITRLLLQRKVH,r
Pharmacophore2D,0.0,0.0,0.0,0.0,0.0,0.0,0.0,0.0,0.0,0.0,0.0,0.0,MVDPNGNESSATYFILIGLPGLEEAQFWLAFPLCSLYLIAVLGNLTIIYIVRTEHSLHEPMYIFLCMLSGIDILISTSSMPKMLAIFWFNSTTIQFDACLLQMFAIHSLSGMESTVLLAMAFDRYVAICHPLRHATVLTLPRVTKIGVAAVVRGAALMAPLPVFIKQLPFCRSNILSHSYCLHQDVMKLACDDIRVNVVYGLIVIISAIGLDSLLISFSYLLILKTVLGLTREAQAKAFGTCVSHVCAVFIFYVPFIGLSMVHRFSKRRDSPLPVILANIYLLVPPVLNPIVYGVKTKEIRQRILRLFHVATHASEP,r
RDKitDescriptors2D,-0.05,0.0,0.0,0.0,0.0,-0.25,0.0,0.0,0.0,0.0,0.0,0.0,MTEDNYSLTTEFILIGFSDHPDLKILLFLVLSTIYLVTMVGNLGLVALIYMEPRLHTPMYIFLGNLALMDSCCSCAITPKMLENFFSVNRRISLYECMAQFYFLCLAETADCFLLAAMAYDRYVAICNPLQYHTMMSKKLCLQMTTGAYIAGNLHSMIHIGFLFRLIFCRSHVIKHFFCDVLPLYRLSCVDPYINELMILIFSGSVQTFSIIIVLISYFCILFTIFTMKSREGRSKALSTCASHFLSVSIFYGSLLYTYIRPSSINEGNEDIPVAIFYTLVIPLLNPFIYSLRNKEVINAIKRTMNKG,r
RDKitDescriptors2D,0.5771933042622528,0.0,-0.2721655269759087,1.0,0.8017837257372732,1.0,0.3563483225498992,0.0,0.0,0.0,0.0,0.0,MRENNQSSTLEFILLGVTGQQEQEDFFYILFLFIYPITLIGNLLIVLAICSDVRLHNPMYFLLANLSLVDIFFSSVTIPKMLANHLLGSKSISFGGCLTQMYFMIALGNTDSYILAAMAYDRAVAISRPLHYTTIMSPRSCIWLIAGSWVIGNANALPHTLLTASLSFCGNQEVANFYCDITPLLKLSCSDIHFHVKMMYLGVGIFSVPLLCIIVSYIRVFSTVFQVPSTKGVLKAFSTCGSHLTVVSLYYGTVMGTYFRPLTNYSLKDAVITVMYTAVTPMLNPFIYSLRNRDMKAALRKLFNKRISS,r
RDKitDescriptors2D,0.35820611628098054,0.0,0.53748384988657,0.30261376633440124,0.53748384988657,-0.12403473458920847,0.53748384988657,0.0,0.0,0.0,0.0,0.0,MDQSNYSSLHGFILLGFSNHPKMEMILSGVVAIFYLITLVGNTAIILASLLDSQLHTPMYFFLRNLSFLDLCFTTSIIPQMLVNLWGPDKTISYVGCIIQLYVYMWLGSVECLLLAVMSYDRFTAICKPLHYFVVMNPHLCLKMIIMIWSISLANSVVLCTLTLNLPTCGNNILDHFLCELPALVKIACVDTTTVEMSVFALGIIIVLTPLILILISYGYIAKAVLRTKSKASQRKAMNTCGSHLTVVSMFYGTIIYMYLQPGNRASKDQGKFLTLFYTVITPSLNPLIYTLRNKDMKDALKKLMRFHHKSTKIKRNCKS,r
RDKitDescriptors2D,-0.03333333333333333,0.0,0.0,0.0,0.0,0.0,-0.16666666666666666,0.0,0.0,0.0,0.0,0.0,MGTGNDTTVVEFTLLGLSEDTTVCAILFLVFLGIYVVTLMGNISIIVLIRRSHHLHTPMYIFLCHLAFVDIGYSSSVTPVMLMSFLRKETSLPVAGCVAQLCSVVTFGTAECFLLAAMAYDRYVAICSPLLYSTCMSPGVCIILVGMSYLGGCVNAWTFIGCLLRLSFCGPNKVNHFFCDYSPLLKLACSHDFTFEIIPAISSGSIIVATVCVIAISYIYILITILKMHSTKGRHKAFSTCTSHLTAVTLFYGTITFIYVMPKSSYSTDQNKVVSVFYTVVIPMLNPLIYSLRNKEIKGALKRELRIKIFS,r
RDKitDescriptors2D,0.11333333333333333,0.0,0.0,0.0,0.5666666666666667,0.0,0.0,0.0,0.0,0.0,0.0,0.0,MSSCNFTHATFVLIGIPGLEKAHFWVGFPLLSMYVVAMFGNCIVVFIVRTERSLHAPMYLFLCMLAAIDLALSTSTMPKILALFWFDSREISFEACLTQMFFIHALSAIESTILLAMAFDRYVAICHPLRHAAVLNNTVTAQIGIVAVVRGSLFFFPLPLLIKRLAFCHSNVLSHSYCVHQDVMKLAYADTLPNVVYGLTAILLVMGVDVMFISLSYFLIIRTVLQLPSKSERAKAFGTCVSHIGVVLAFYVPLIGLSVVHRFGNSLHPIVRVVMGDIYLLLPPVINPIIYGAKTKQIRTRVLAMFKISCDKDLQAVGGK,r
RDKitDescriptors2D,0.0,0.0,0.0,0.0,0.0,0.0,0.0,0.0,0.0,0.0,0.0,0.0,MAWENQTFNSDFLLLGIFNHSPTHTFLFFLVLAIFSVAFMGNSIMVLLIYLDTQLHTPMYFLLSQLSLMDLMLICTTVPKMAFNYLSGSKSISMAGCATQIFFYISLLGSECFLLAVMSYDRYTAICHPLRYTNLMRPKICGLMTAFSWILGSTDGIIDAVATFSFSYCGSREIAHFCCDFPSLLILSCNDTSIFEEVIFICCIVMLVFPVAIIITSYARVILAVIHMGSGEGRRKAFTTCSSHLMVVGMYYGAGLFMCIQPTSHHSPMQDKMVSVFYTIVTPMLNPLIYSLRNKEVTRALMKILGKGKSGD,r
RDKitDescriptors2D,0.0,0.0,0.0,0.0,0.0,0.0,0.0,0.0,0.0,0.0,0.0,0.0,MMIKKNASSEDFFILLGFSNWPQLEVVLFVVILIFYLMTLTGNLFIIILSYVDSHLHTPMYFFLSNLSFLDLCHTTSSIPQLLVNLRGPEKTISYAGCMVQLYFVLALGIAECVLLVVMSYDRYVAVCRPLHYTVLMHPRFCHLLAAASWVIGFTISALHSSFTFWVPLCGHRLVDHFFCEVPALLRLSCVDTHANELTLMVMSSIFVLIPLILILTAYGAIARAVLSMQSTTGLQKVFRTCGAHLMVVSLFFIPVMCMYLQPPSENSPDQGKFIALFYTVVTPSLNPLIYTLRNKHVKGAAKRLLGWEWGK,r
RDKitDescriptors2D,0.0,0.0,0.0,0.0,0.0,0.0,0.0,0.0,0.0,0.0,0.0,0.0,MGDWNNSDAVEPIFILRGFPGLEYVHSWLSILFCLAYLVAFMGNVTILSVIWIESSLHQPMYYFISILAVNDLGMSLSTLPTMLAVLWLDAPEIQASACYAQLFFIHTFTFLESSVLLAMAFDRFVAICHPLHYPTILTNSVIGKIGLACLLRSLGVVLPTPLLLRHYHYCHGNALSHAFCLHQDVLRLSCTDARTNSIYGLCVVIATLGVDSIFILLSYVLILNTVLDIASREEQLKALNTCVSHICVVLIFFVPVIGVSMVHRFGKHLSPIVHILMADIYLLLPPVLNPIVYSVRTKQIRLGILHKFVLRRRF,r
RDKitDescriptors2D,0.10476190476190476,0.0,0.0,0.0,0.5238095238095238,0.0,0.0,0.0,0.0,0.0,0.0,0.0,MDQSNYSSLHGFILLGFSNHPKMEMILSGVVAIFYLITLVGNTAIILASLLDSQLHTPMYFFLRNLSFLDLCFTTSIIPQVLVNLWGPDKTISYVGCIIQLYVYMWLGSVECLLLAVMSYDRFTAICKPLHYFVVMNPHLCLKMIIMIWSISLANSVVLCTLTLNLPTCGNNILDHFLCELPALVKIACVDTTTVEMSVFALGIIIVLTPLILILISYGYIAKAVLRTKSKASQRKAMNTCGSHLTVVSMFYGTIIYMYLQPGNRASKDQGKFLTLFYTVITPSLNPLIYTLRNKDMKDALKKLMRFHHKSTKIKRNCKS,r
RDKitDescriptors2D,0.0,0.0,0.0,0.0,0.0,0.0,0.0,0.0,0.0,0.0,0.0,0.0,MDGVNDSSLQGFVLMGISDHPQLEMIFFIAILFSYLLTLLGNSTIILLSRLEARLHTPMYFFLSNLSSLDLAFATSSVPQMLINLWGPGKTISYGGCITQLYVFLWLGATECILLVVMAFDRYVAVCRPLRYTAIMNPQLCWLLAVIACLGGLGNSVIQSTFTLQLPLCGHRRVEGFLCEVPAMIKLACGDTSLNQAVLNGVCTFFTAVPLSIIVISYCLIAQAVLKIRSAEGRRKAFNTCLSHLLVVFLFYGSASYGYLLPAKNSKQDQGKFISLFYSLVTPMVNPLIYTLRNMEVKGALRRLLGKGREVG,r
RDKitDescriptors2D,0.018257418583505537,0.0,0.0,0.0,0.0,0.09128709291752768,0.0,0.0,0.0,0.0,0.0,0.0,MKHSNDSKVTEFILLGFAGQNESWHILFVVFLVIYIATLVGNIGMILLIKLHSSLHTPMYFFLQHLAFVDLCYSSAITPRTLQNFVSTKPSISFTGCLAQLLVYGIFVTSDCFILAAMAVDRYVAICNPLRYPIIMSQRLCILLLLGSYTMGFLNATVNTGFTFLSNFCKSNVINHFFCDVPPILALSCSSIDLNIMVLTIFVGFNLTFTVSVVILSYTFILAAILRMSSASGRRKAFSTCASHMTAVTIFYGTLSYMYVLHGTNRSQEQEKVASVFYGIMIPMLNPLIYSLRNQDVIEALRHIGNKCF,r
RDKitDescriptors2D,0.0,0.0,0.0,0.0,0.0,0.0,0.0,0.0,0.0,0.0,0.0,0.0,MWSNISAAPFLLTGFPGLEAAHHWISIPFFAIYISVLLGNGTLLYLIKDDHNLHEPMYYFLAMLAGTDLTVTLTTMPTVMAVLWVNHREIRHGACFLQAYIIHSLSIVESGVLLAMSYDRFVAICTPLHYNSILTNSRVIAIGLGVVLRGFLSLVPPILPLFWFSYCRSHVLSHAFCLHQDVMKLACADITFNRIYPVVLVALTFFLDALIIVFSYVLILKTVMGIASGEERAKALNTCVSHISCVLVFYITVIGLTFIHRFGKNAPHVVHITMSYVYFLFPPFMNPIIYSIKTKQIQRSVLHLLSV,r
RDKitDescriptors2D,0.0,0.0,0.0,0.0,0.0,0.0,0.0,0.0,0.0,0.0,0.0,0.0,MGTGNWSQVIEFIILGFPHFQGVQIYLFFLLLSIYFTTILGNLLIFLVVYLDSRLHTPMYRFVSILSFLELGYTAATIPKMLANLLSEKKTISFSGCLLQIYFFHSLGATECYLLTAMAYDRYLAICRPLHYPTLMTQSLCIKIAIGCWLGGLAGPVVEISLVSRLPFCGPNHIQHIFCDFPPVLSLACTDTSVNVLVDFIINSCKILATFLLILSSYLQIIRTVLKIPSAAGKKKAFSTCASHLTVVLIFYGSILFMYVRLKKSYSLDYDRALAVVYSVITPFLNPFIYSLRNKEIKEALKRQLMRTGILR,r
RDKitDescriptors2D,0.0,0.0,0.0,0.0,0.0,0.0,0.0,0.0,0.0,0.0,0.0,0.0,MSLFPQRNLDAMNRSAAHVTEFVLLGFPGSWKIQIFLFVLFLVFYVLTLLGNGAIICAVRCDSRLHTPMYFLLGNFSFLEIWYVSSTIPNILANILSKTKAISFSGCFLQFYFFFSLGTTECLFLAVMAYDRYLAICRPLHYPTIMTRRLCCILVSSCWLIGFLGYPIPIFSISQLPFCGSNIIDHFLCDMDPLMALSCAPAPITEFIFYAQSSFVLFFTIAYILRSYILLLRAVFQVPSAAGRRKAFSTCGSHLVVVSLFYGTVMVMYVSPTYGIPILMQKILTLVYSVMTPLFNPLIYSLRNKDMKLALRNVLLGMRIVKNM,r
RDKitDescriptors2D,0.0,0.0,0.0,0.0,0.0,0.0,0.0,0.0,0.0,0.0,0.0,0.0,MEPQNLSKVTEFQLLGFQNLLEWQSLLFAIFLCFYLLTITGNMVIIGVVSEDPRLRAPMYTFLQHLSFLEIWYTSTTVPLLLSNLASWGHMLSFSACMAQLYFFVFFGATECFLLAAMAYDRYLAICHPLHYSLLMSPDNCAALVTVSWVTGVGTGFLPSLLISKLDFCGPNRINHFFCDLPPLIQLSCSSVYVTEMAIFVLSIAVLCICFLLTLVSYVFIVSSILRIPSTSGRMKTFSTCGSHLAVVTIYYGTMISMYVRPNAHLSPELNKVISVFYTVVTPLLNPVIYSLRNKDFKEAVRKIVRTKCGVYRARVKGSALTT,r
RDKitDescriptors2D,0.0,0.0,0.0,0.0,0.0,0.0,0.0,0.0,0.0,0.0,0.0,0.0,MLPFNDEDEFSLFRYSRTMHQGNQTAISGFILLGLTVGSEQQLLLFTLFLCMYLVTMVGNSLIILAIISDTHLYSPMYFFLANLSFTDICFTTTTVPKILADIQSQNPTISFVGCFTQMYFFMFLVDLDNFLLAAMAYDRYIAICHPLHYAALLNPKRCALLVVVPWVISNLVSVLHLSLLSRLPFCDQRVIPHFFCDLEPVLRLACSDTQINNLLILIVGGTVIFVPFVFILVSYALIGTAVLNVPSVKGKWKTFSTCGSHLSAVSLFYGSIVGVYFLPASSYSAERDKVAAIMYTVVTPMMNPFIYSLRNKDMKRALRRLLSQKSLICSW,r
RDKitDescriptors2D,0.0,0.0,0.0,0.0,0.0,0.0,0.0,0.0,0.0,0.0,0.0,0.0,MDGDNETMVAEFLLLGLSGKSEQEEVVFGMFLGMYLVTISGNLLIILAISCDPHLHTPMYFFLANLSSVDICFSSVTVPKALVNHVLGSKSISYTECMIQIYFFITFINMDGFLLSVMAYDRYVAICHPLHYTMMMRSRLCVLLVAISWVITNLHALLHTLLMVRLTFCSHNAVHHFFCDPYPILKLSCSDTFINDLMVFTVGGVIFLTPFSCIVVSYVYIFSKVLKIPSARGIRKALSTCGSHLTVVSLFYGAILGVYMRPSSSYSLQDTVATVIFTVVTPLVNPFIYSLRNQDMKGALRKIMLRS,r
RDKitDescriptors2D,0.3666666666666667,0.0,1.0,0.0,-0.16666666666666666,0.0,1.0,0.0,0.0,0.0,0.0,0.0,MRRDNESTVSEFILLGLPIRAEDQGLYSALFLAMYLTTVLGNLLIILLIRLDSHLHTPMYFFLSHLAFTDISFSSVASPKMVINMLTHSQSISYAGCVSQVYFFSFFADLESFLLTSMAYDRYVAICHPLHYSQIMSENLCVLLIVVSWTLSTANSLVHTLLLVQLSYFRNNTIPHYFCDLSTLLKLSSSDTTINELVILVLGNMVITLPFICILVSYGHIGVTIMKIPSIKGICKALSTCGSHLCVVSLYYGAIIGLYFVPSSNNTSDKDAIVAMMYTMVIPMLNPFIYSLRNRDMKGALRNILSGRLWSQ,r
RDKitDescriptors2D,0.4295445115010332,0.0,0.3,0.3,0.5477225575051661,0.0,1.0,0.0,0.0,0.0,0.0,0.0,MEPRNNTHILEFFLLGFSQDPNLQPVICGLFLSMYLITVVGNLLIILTIISDANLHTPMYFFLSNLSFVDICFVSTTVPKMLVNIQTKRKSISYADCITQMYFFLIFVELDNFLLAVMAYDRYVAICHPLHYTGIMNRRLCGFLVLVCWIVSVLHALLQSMMVLRLSFCTDLEIPHFFCELNQVAQLTCSDTFLNDVVMYFALVLLAIVPLFGILYSYSKIVSSIRAMSTVQGKYKAFSTCASHLSVVSLFYFTGLGVYLSSAVSHSSQASATASVMYTVVTPMLNPFIYSLRNKDVKGALKRLLGVKL,r
RDKitDescriptors2D,0.0,0.0,0.0,0.0,0.0,0.0,0.0,0.0,0.0,0.0,0.0,0.0,MTAKNSSVTEFILAGLTDQPGLRMPLFFLFLGFYMVTVVGNLGLISLIGLNSHLHTPMYFFLFNLSLIDFCYSSTISPKMLMSFISKKNIISHPGCMAQLFFFCFFVISESFILSAMAYDRYVAICNPLMYMVTMSPQVCLLLLFGVYLMGFVGAMAHTISMARLTFCADNIVNHYMCDILPLLEHSCTSTYVNELVVFIFVSFDIGVPIVTIFISYALILSSILHMHSTEGRSKAFSTCSSHMIVVCLFFGSGAFMYLQPPSVLSLDQGKVSSLFYTIVVPMLNPLIYSLRNKDVKVTVRKTLDRRIFS,r
RDKitDescriptors2D,0.0,0.0,0.0,0.0,0.0,0.0,0.0,0.0,0.0,0.0,0.0,0.0,MVSENNSSVKEFILLGLTQLPELQLPLFFLFLGIYVFSMVGNLGLIVLIVLNPPLHTPMYYFLFNLSFTDLCYSSVITPKMLVGFVKQNIISHAECMTQLFFFAFFVIDECCILTAMAYDRYAAICKPLLYKVIMSHQVCFVLMVGGYTVGFVGATAHTVCMLRLTFCDGNIINHYMCDIPPLLKLSCTSTSINELVVFIVVGVSIIVPSLTVFISYTLILSNILRIHSAKGRSKALSTCSSHMIAVSLFFGSSSFIYFKSSPVGSVDKDKISTVFYTVVVPMMNPFIYSLRNKDVQIALRKTLKKNCSLK,r
RDKitDescriptors2D,0.0,0.0,0.0,0.0,0.0,0.0,0.0,0.0,0.0,0.0,0.0,0.0,MSLNAQKTMENDSSVSEFILMGLTDQPELQLPLFVLFLVNYTVTVMGNLSLMNLICLNSNLHTPMYFFIFNLSFIDFCYSMVFTPKMLMGFVVEKNIISFRGCMTQLFFFLFFVNSESYVLTAMAYDRYVAICQPLLYKAVMSPGICFLLIFCTYLMGLVSALFHTGFMIRLNFCDSNVINHYMCDIFPLFRLSCSSTYLTELVSSAVVGTAIILCCLIILISYGMILYNIIHMSSGKGWSKALGTCGSHIITVSLFYVTGMLAYVKPSSAETVGQGKIFSVFYTFLVPMLNPLIYSLRNKDVKLAVKKTWKRLTC,r
RDKitDescriptors2D,-0.05163977794943222,0.0,0.0,0.0,0.0,-0.2581988897471611,0.0,0.0,0.0,0.0,0.0,0.0,MATGNLTHVTEFILMGVTDRPELQVPLFFLFLVIYLLTAAGNLGIITLTSVDSRLQTPMYFFLRHLAVINFGNSTVIAPKMLVNFLVSKKTTLYYECATQLGGFLVFMVSEIFMLAVMAYDRYVAICNPLLYMVVVSRRVCLLLVFLTYLFSFVTAIVVTPCVFSVSYCSSNVINHFYCDNVPLLALSCSDTHLPETVVFFFSATNLFFSMIIVLISYFNIVLAILRIRSSEGRKKAFSTCASHMMAVTVFYGTLLFMYLQPRTNHSLDTDKIASVFYTLIIPMLNPVIYSLRNKDVKCALKEFLKNPCKKFNLI,r
RDKitDescriptors2D,0.6248655564138278,0.0,0.6454972243679028,-0.16666666666666666,1.0,1.0,0.6454972243679028,0.0,0.0,0.0,0.0,0.0,MQMESQNLTVVTEFILRGITDRPELQVPLFGLFFMIYLISLFGNLGMIILTIVESRLQTPMYFFLRHLAITDLGYSTAIGPKMLANFVVSKNTISFHLCATQLAFFLLFIACELFILSVMSYDRYVAICNPLLYNVIMSQTVCWVLVAIPYLYSVFISLIVTINIFSSSFCGYNVIPHFYCDGLPLISLLCTNTDKIGLIILILSAINLISSLLIILGSYLLIFRAILRMNSAEGRRKAFSTCGSHLTVVSVFYGTLIFMYVQPKTSHSFDTDKVASIFYTLVIPMLNPLIYSLRNKDVKYALRKTGKIIQNNFS,r
RDKitDescriptors2D,0.0,0.0,0.0,0.0,0.0,0.0,0.0,0.0,0.0,0.0,0.0,0.0,MKVSIPPRANFSYAIFLLTGFPGLEWAHHWISLPIFMGYFVAIMGNATILHLVRTDPSLHQPMYYFLAILAVTDLGLCMSTLPSVLGVLWFDARMVGLVPCVLQQHFLHSFSFMESAVLFAMALDRLIAIRFPLRYASVLTGPRVALIGTVLGMRSAAITAAPSLHLLTFDYCHPGALSHAYCLHQDMIRLACSDTRFNRLYGLCIIMLAMGSDVLFILLSYAVILRTVLAIASAGERLKALNTCVSHILAVLCFYVPVLGLSIVHRFGQHTSPLVHILMGTVSVLFPPVMNPVIYSIKTQQIRRAIVKVISLGKIQ,r
RDKitDescriptors2D,0.0,0.0,0.0,0.0,0.0,0.0,0.0,0.0,0.0,0.0,0.0,0.0,MEPGNYTVVTEVILLGFTEDAIIRAILFIVFLIIYSVTLMGNASIIMLIRRSPQLHTPMYLLLSHLAFVDIGYSSSVTPIMLKGFLRKETFILVSGCVAQLCSVVTFGSTECFLLAAMAYDRYVAICSPLLYATQMSSTVCILLVGASYLGGCVNAWTFTGCLLNLSFCRPNKVNHFFCDYSPLLKISCSHDFSSEVIPAISSGSIIVVTVFIIALSYVYILVSILKMRSTEGRQKAFSTCTSHLTAVTLFYGTITFIYVMPKSSYSTDQNKVVSVFYTVVIPMLNPIIYSLRNKDVKEAMKKLMANTHH,r
RDKitDescriptors2D,0.0,0.0,0.0,0.0,0.0,0.0,0.0,0.0,0.0,0.0,0.0,0.0,MTENNFTKVTVFMFSGFSDHPELQVSLFLIFLFIYLFTVWGNIGLILLIRIDSQLHTPMYFFLSNLAFIDIFYSSTVTPKAVVDFQSTQKSISFVGCFVQMYFFVGLVCSECFLLGSMAYDRYVAICNPLLYSVIMSQKVCNWLAVIPYMIGFTNSLISICVISSLPLCDPYINHFFCDTTALLALSCVDAFSTELVIFVLAGFTLLSSLLIITFTYVTIISAILRIQSAAGRWKAFSTCASHLTGVTVFYGSLIFTYLQPDNTSSLTQAQVASVFYTIVIPMLNPLIYSLRNKDVKNALLRVIHRKHLL,r
RDKitDescriptors2D,0.0,0.0,0.0,0.0,0.0,0.0,0.0,0.0,0.0,0.0,0.0,0.0,MSNHTRVTHFILRGFSDVPQLRLVLIPFFLLFYTFGILGNFSIITAVIRDSRLHSPMYFFLKNLSFLDICYTSATIPKAVVISLTGSGVISYQECVAQLYMFITLCGTECFLLTAMAYDRCLAILRPLIYGTIMSHKYCSALVVTAWVGGAIYSAFHTFNTFSLPYCGPNVVDHFFCDMPPVMRLSCTDYHLNEEVGFAVIGCIIMSSFALTVVSYIGIVATVLRIPSVEGRWKAFSTCSSHLTTVILFYGTGSFVYLRPASQYSPTLDPLASIFYSVVTPSLNPVIYCLRNKDMKFALQKLYCGRKY,r
RDKitDescriptors2D,0.0,0.0,0.0,0.0,0.0,0.0,0.0,0.0,0.0,0.0,0.0,0.0,MSNVTLVTTFFLSGIPHPPALDTMLFVAFLVIYILTVLGNFLILMVIRVDSHLHTPMYYFLTNLSFIDMWFSTVTVPKMLMTLVSPRGGAISFHSCVAQLYCFHFLGSTECFLYTVMSYDRYLAISYPLRYSSMMSGRVCALLAAGTWITGSLHSAVQTTLTFRLPYCGPNQIQHYFCDAPPILKLACADTSANEMVIFVNIGVVASGCFLLISLSYVSIVCSILRIRTSEGRHRAFQTCASHCIVVLCFFVPCVFIYLRPGSRDAVDGVVAVFYTVLTPLLNPVVYTLRNKEVKKALVKLKDKVAYSQSQ,r
RDKitDescriptors2D,0.0,0.0,0.0,0.0,0.0,0.0,0.0,0.0,0.0,0.0,0.0,0.0,MGYTNLSYLNPGTVILIGIPGLEHVQFWIGFPFFVVCLVALLGNLFLLIIIPTERSLHQPMYIFLAVLAATDLGLCLAIAPKMLAIFWFGSCSMAFDACLTQLFFIHALQGMESGVLLAMAFDRYVAICDPLRHTAVLTPLFLLRVVLVVAIRATVLVGVLPILLKRLQWFHSVVIVHSYCEHMAVVKLAAEDVRINKSYGLFVAFAILGFDMIFVFISYILIFRAVFRLPQKEARSKAFNTCTAHIVVFLEFYILAFFSFFSHRFGHVSPYVHILLSTIYLLLPPALNPIVYGVKTKEIRKWVVQIFVLKSNTQ,r
RDKitDescriptors2D,0.0,0.0,0.0,0.0,0.0,0.0,0.0,0.0,0.0,0.0,0.0,0.0,MEIPHNITEFFMLGLSQRPEIQRLLFVVFLVIYAVTVCGNMLIVVTVTFSSSLASPMYFFLSNLSFIDTCYSSSLAPKLIADSLYEGTTLSYEGCMAQLFGAHFLGGVEIILLTVMAYDRYVAICKPLHYTTTMTRHLCVVLVAVAWLGGFLHSLVQILLIFQLPFCGPNVINHFVCDLYPLLELACTNTYVIGLLVVANSGVICLLNFLMLAASYIVILHSLRSHSAEGRRKALSTCGAHFTVVTMFFVPCIFSYMRPSTTLPIDKNMAVFYGILTPMLNPLIYTLRNEEVKDAMRKLFTRSEVVGA,r
RDKitDescriptors2D,0.0,0.0,0.0,0.0,0.0,0.0,0.0,0.0,0.0,0.0,0.0,0.0,MSTFHNVCSVPSSLWLTGIPGLETLHIWLSIPFGSMYLVAVVGNITILAVVRVERSLHQPMYFFLCMLAVIDLVLSTSTMPKLLAIFWFGAGHIGLDACLCQMFLIHCFATVESGIFLAMAFDRYVAICNPLRHSMVLTHTVVGRLGLAAVLRGVLYIGPLPLMIRLRLPLYKTRVISHSYCEHMAVVALTCGDSRVNNVYGLSIGFLVLILDSAAIAASYVMIFRAVMGLATPEARLKTLGTCGSHICAILIFYVPIAVSSLIHRFGHQVPPPIHTLLANFYLLIPPILNPIVYAVRTKQIRDRLLQILKTGTKIR,r
RDKitDescriptors2D,0.0,0.0,0.0,0.0,0.0,0.0,0.0,0.0,0.0,0.0,0.0,0.0,MENSTSVDEFLLLGLTSVQKLQPIIFVMFLTIYLLNLVGNGVILMIVTLERRLHSPMYFFLGNLSCLDICYSSVTLPKVLINLLSRRRAISFLGCITQLYFFHFLGSTEAILLAVMAFDRFVAICSPLRYTAIMNPQLCILLAATAWFTSFFYALLHSVMTAHLNFCHSHKLSHFFCDVKPLLEVACGNTVLNQWLLSVVTGSISMGAFLLILLSYFYIIAFLLFKNRSCRMLKKALSTCTSHFMVVCLFYGPVGFTYIRPATASASSMSEDRVVAIIYSAVTPVLNPLIYTLRNKEVMLALKKNFGKKLFKGN,r
RDKitDescriptors2D,0.0,0.0,0.0,0.0,0.0,0.0,0.0,0.0,0.0,0.0,0.0,0.0,MAINNSTTVVEFVLQGLSEDPGLQALFLAFFLLLYILALAGNTLIIIAISLNPRLHTPMYFFLANLALLDIICTSTVVPKLLEGLVGKSSHISYKGCMTQVFFLIWVLGAELLLLTAMAYDRYVAICRPLHYNTLMSWPICVLLAGFVWVIGIANTSVHIGLLVRLNFCGSNQIRHFLCEVPTLLLLSCSPTTLNNIMLVIADVYFGVLNFLLTMISYSFIISSILRIRSAEGKKRAFSTCSAHLVVVTLYYSTIIYTYLQPGSGSSFQNSKVVTLLYTAVSPTLNPIIYSLRNKDVKVALKRLFPCFH,r
RDKitDescriptors2D,0.0,0.0,0.0,0.0,0.0,0.0,0.0,0.0,0.0,0.0,0.0,0.0,MEVDSNSSSGSFILMGVSDHPHLEIIFFAVILASYLLTLVGNLTIILLSRLDARLHTPMYFFLSNLSSLDLAFTTSSVPQMLKNLWGPDKTISYGGCVTQLYVFLWLGATECILLVVMAFDRYVAVCRPLHYMTVMNPRLCWGLAAISWLGGLGNSVIQSTFTLQLPFCGHRKVDNFLCEVPAMIKLACGDTSLNEAVLNGVCTFFTVVPVSVILVSYCFIAQAVMKIRSVEGRRKAFNTCVSHLVVVFLFYGSAIYGYLLPAKSSNQSQGKFISLFYSVVTPMVNPLIYTLRNKEVKGALGRLLGKGRGAS,r
RDKitDescriptors2D,0.0,0.0,0.0,0.0,0.0,0.0,0.0,0.0,0.0,0.0,0.0,0.0,MQGPNQTFVTEFILLGFSLSPRTTPLLFSAFLIIYLLIILGNGLIFILICLDSHLHTPMYFFIGVLSMLDLGYTTTTVPQMLAHLASQKKTISYSNCVAQMYIFLVLGVTESWLFAIMSIDRYVAICHPLRYKVIMSPCLCGVMAIFCGLCGVTAALVYTIFAMRLPYCGPNKINHFFCEVPAVLKLACADTSVNDHVDFILGFSVILIPLSLILVIYINIFTSILKIRSAQGRLKAFSTCASHITVVTMFCVPAMVMYMKPGSKASPEEDKKLALFYNVISAFLNPVIYSLRNKDVKRAFLKVTGCGRPPE,r
RDKitDescriptors2D,0.0,0.0,0.0,0.0,0.0,0.0,0.0,0.0,0.0,0.0,0.0,0.0,MIPGQNQSWVSEFILIGFSSDPTTNSILFIVFLLIYLSSVLGNGLIIMLVCLDTQLHTPMYFFLSTLSLLDMSFVTTTMPQMLVHLLAHSQTISFASCCLQMFVFGALGITECTFFVVMAYDRYVAICYPLRYTVILNWGLCIRLAAGSWICGFFSSLLHTFFTMSLPYCGPNRVNHYFCEGPSVRSLACMDTHLIEMVDFVLSVFVVVIPISLIVASYIRIAMAILKIKSTQGRCKAFSTCASHLTVVTFFYAPATYIYLRPNSSYSPERDKQVSLFYNAFTALLNPVVYSLRNKDIKRAFLKVMGHSRLDQ,r
RDKitDescriptors2D,0.0,0.0,0.0,0.0,0.0,0.0,0.0,0.0,0.0,0.0,0.0,0.0,MMQANQTQVTEFILLGLSDDPHTQKLLFILFLGIYMVTVLGNLLLMFLVRADSRLHTPMYFFLCNLSLADLCFSTNIVPQALIHLLSRKKTISFRRCAAQLLLFLIFGCTQCALLAVMSYDRYVAICNPLHYSSIMTWRVCIQLATVSWTSGILVSVVDTTFTLRLPYRGSNSIAHFFCEAPALLALASTDTQTSEMAIFLMGVVILLIPVSLILVSYGHIIVTVVKMKSAAGRFKAFSTCGSHLMVVILFYGSAIITYMTPKSSKEQEKLVSVFYAMVTPMLNPLIYSLRNKDVKGALWKVAMKNFSSRLRITH,r
RDKitDescriptors2D,0.09576611154024724,0.0,0.0,0.0,-0.16666666666666666,0.0,0.6454972243679028,0.0,0.0,0.0,0.0,0.0,MGGNQTLITQFILLGFPLSPRMQMLLFALFSLFYAFTLLGNGTILGLICLDSRLHTPMYFFLSHLAIVDIAYACNTVPQMLVNLMDPAKPISFAGCMTQTFLFLTFAHTECLLLVVMSYDRYVAICHPLRYTAIMSWRVCVILVLTSWILGVLLALVHLVLLLPLPFCGSQKVNHFFCEIIAVLKLACSDTRINELMVLAGAVSVLVGPFSSIVVSYAHILCAILKIKSQQGRQKAFSTCSSHLCVVGLFYGTAIVMYIGPQHGKSNEQKKYLLLFHSLFNPMLNPLIYSLRNKEVKSALKRTLLKEDTS,r
RDKitDescriptors2D,0.0,0.0,0.0,0.0,0.0,0.0,0.0,0.0,0.0,0.0,0.0,0.0,MGQNDSSVVEFILLGFSHFPELQVHMFGAFLVIYLVTLTGNATIVTVIFLDHSLHIPMYLFLQNLSVVEASFSTTVMPEMLVVLTSEKATISFGGCFAQTYFILLFGGTECFLLGAMAYDRFAAICYPLTYPMIMSKRIFVKLVVCSWVLGIMTATVSVTWVFSFPFCGPSKINHISCEVPAVLELACADTFLFEVYSFTGTILLVLVPFLLILLSYTQILFTVLRMPSTTGRQKAFSTCASHLTSVTLFYSTACMTYLQPKSKYSPDTKKLMSLAYSLLTPLLNPLIYSLRNKEMKRAVVKLCQIKVVF,r
RDKitDescriptors2D,0.3040440114519881,0.0,0.16666666666666666,0.4166666666666667,0.3535533905932738,0.16666666666666666,0.4166666666666667,0.0,0.0,0.0,0.0,0.0,MEKWNQSSSDFILLGLLPQNQTGLLLMMLIILVFFLALFGNSAMIHLIRVDPRLHTPMYFLLSQLSLMDLMYISTTVPKMAFNFLSGQKNISFLGCGVQSFFFLTMAGSEGLLLASMAYDRFVAICHPLHYPIRMSKIMCLKMIIGSWILGSINSLAHSIYALHIPYCHSRSINHFFCDVPAMLPLACMDTWVYEYMVFVSTSLFLLLPFLGITASYGRVLFAVFHMRSKEGKKKAFTTCSTHLTVVTFYYAPFVYTYLRPRSLRSPTEDKILTVFYTILTPMLNPIIYSLRNKEVLGAMTRVLGTFSSMKP,r
RDKitDescriptors2D,-0.06989719653293776,0.0,-0.2581988897471611,0.0,0.0,-0.09128709291752768,0.0,0.0,0.0,0.0,0.0,0.0,MDSYNQTFTGFILLGLFPPSKIGLFLFILIVLIFLTAWIGNLSMILLILLDSHLHTPMYFLLSQLSLIDLNYISTIVPKMVSDFMLGNKYISFIGCGFQIFLFLTFGGAETLLLASMAYDRYVAICFPLHYATHMNKRVCVMMITGAWILGSINSCAHTGYALQIPYCRSRAINHFFCDVPAMLTLACTDTWVYEYTVFVSTILFLVFPFIGIVCSYGRVFLAIYRMHSRAGKKKAYSTCSTHLTVVTFYYAPFAYTYLRPRSLRSPEEDKILAVFYTVLTPMLNPIIYSLRNKEVIGALRRMTHRICFAKI,r
RDKitDescriptors2D,0.0,0.0,0.0,0.0,0.0,0.0,0.0,0.0,0.0,0.0,0.0,0.0,MMERENYTFNSDFILLGLFSSSKISLTFFSVIFFIFIMTITENALMILLIHRDSRLHTPMYFLLSHLSFMDILHISNIVPKMIADFLSGSRTISFAGCAFQIFLSLTLLGGECLLLAVMSYDRYVAICHPLRYPVLMRDNFSRLLAAGSWLVGILNSIVHTAFVLHFPFCHSRAIDHFFCEVPAMLKLSCIDTTHYERGVYVSGIIFLLIPFSMISISYVQILLTVFQMHSSGARQKSFSTCLFHMVVVIMYYGPFIFTYMRPRSYHTPGQDKFLAIFYTILTPTLNPIIYSFRNKDVLMALKNIVQSNILNKE,r
RDKitDescriptors2D,0.0,0.0,0.0,0.0,0.0,0.0,0.0,0.0,0.0,0.0,0.0,0.0,MAWAGNQTLISHFVLLGLFTHSPLHLFLFSIIMVMFLVALSGNGLMILLILMDSRLHTPMYFFLSWLSLMDLMLISTIVPRMAADFLLGRGSISFAGCGLQILFFLTLLGDECFLLAFMAYDRYVAISNPLRYSVIMSRRVCWLMVAGSWLFGLVDGLIQAVFTLRFPYCGSQEIDHFFCEVPAVLKLACADTSLYETMIYVCCVLMLLLPFSVISASYLRILVAVLRMRSAEGRRKAFATCSSHMIVVSLFYGAAMITYMRPQAYHSSKQDKVVSAFYTMITPMLNPLIYSLRNKEVTGALRKLLGKCPCGGGTLG,r
RDKitDescriptors2D,0.16666666666666669,0.0,-0.16666666666666666,0.0,1.0,0.0,0.0,0.0,0.0,0.0,0.0,0.0,MVASSNSSSHPLFFMLLGIPGLENYQFWIAFPFCVMYIVALTGNITILYIIRIDHTLHEPMYLFLALLAITDLVLSSSTQPKMLAILWFHSHEIEYNACLIQVFFIHAFSSVESGVLMTMALDRYVAICFPLRHSSILTTSVVIKLGAAVMVRGLLWVSPFCFMVSRMPFCPNKVIPQSYCEHMAVLKLVCADTRVNRGYGLFVAFSVVGFDIIVISVSYVMILRAVLRLPSGEARLKAFGTCASHVCVILAFYIPALFTFLTHRFGHHVPRVVHIMFANFYLLVPPMLNPIIYGVRTKQIRDRVIRGFRRKDP,r
RDKitDescriptors2D,0.4,0.0,0.0,0.0,1.0,0.0,1.0,0.0,0.0,0.0,0.0,0.0,MMLSAAIPNGTAFHPPTFVLLGIPGMQDQHVWIAIPFCSMYILALVGNGTILYIIITDRALHEPMYLFLCLLSITDLVLCSTTLPKMLAIFWLRSHVISYHGCLTQMFFVHAVFATESAVLLAMAFDRYVAICRPLHYTSILNAVVIGKIGLACVTRGLLFVFPFVILIERLPFCGHHIIPHTYCEHMGIAKLACASIKPNTIYGLTVALSVTGMDVVLIATSYILILQAVLRLPSKDAQFRAFSTCGAHICVILVFYIPAFFSFFTHRFGHHVPPQVHIILANLYLLVPPVLNPLVYGINTKQIRLRILDFFVKRR,r
RDKitDescriptors2D,0.0,0.0,0.0,0.0,0.0,0.0,0.0,0.0,0.0,0.0,0.0,0.0,MTLVSLHSSFSVLLFMALSNSSWRQPQPPFFLVGVPGLEESQHWIALPLGILYLFALVGNVTIIFIIWTDSSLHQPMYLFLAMLAAIDLVLASSTAPKALTVLLAHAHEIGYIVCLTQMFFIHAFSSMESGILVAMALDRYVAICHPLRHSTILHPGIIGRIGLVVLVRGLVLLFPFPILLQNVVFCRATVISHAYCEHMAVVKLACSETTVNRAYGLSVALLVVGLDVLAIGISYALILQAVLKVPGGEARLKAFSTCGSHVCVILIFYVPGMFSFLTHRFGHHVPHHVHVLLATLYLLVPPALNPLVYGVKTRQIRQRVLRVFYTKASI,r
RDKitDescriptors2D,0.0,0.0,0.0,0.0,0.0,0.0,0.0,0.0,0.0,0.0,0.0,0.0,MIRRQHMEAQSNTSSILAPDFLLICFPNYQTWQHWLSLPLSLLFLLAMGANATLLITIRMEASLHEPMYYLLSLLSLLDIVLCLTVIPKVLAIFWFDNKSIGFSSCFLQMFVMNSFLTMESCTFMVMAYDRYVAICKPLQYPSIITDQFVVRAAIFVAARNGILTMPIPILSSQLRYCARIIRNCICTNMSVSKLSCDDITFNKLYQFVIGWTLLGSDLILIVLSYSFILKAVLRIKAEGAVAKALSTCGSHFILILFFSTVLLVLVITNLARERIPPDVPILLNILHHLIPPALNPIVYGVRTREIKQGIRNLLRRRL,r
RDKitDescriptors2D,-0.07163977794943223,0.0,0.0,0.0,0.3,-0.2581988897471611,-0.4,0.0,0.0,0.0,0.0,0.0,MLGPSYNHTMESPGTFFLLGIPGFQSSYLWLAISLSTMYSIALLGNMLIIIVICMDSTLQEPMYFFLCVLAAVDIVMASSVVPKMVSIFSSGDSSISFNACFTQMYFVHAATAVETGLLLAMAFDRYVAICKPLHYMRILTRHVMLGISVTITVRAVIFMTPLSWMLSHLPFCASNVVPHSYCEHMAVAKLACADPMPSSLYSLIFSSIIVGSDVAFISASYSLILKAVFGLSSRNAQWKALSTCGSHVGVMALYYLPGMASIYVAWLGQDRVPLHTQVLLADLYLIIPPTLNPIIYGIRTRQIRERIWSLLTHCFFSQCTQGS,r
RDKitDescriptors2D,0.0,0.0,0.0,0.0,0.0,0.0,0.0,0.0,0.0,0.0,0.0,0.0,MLRPSSMSEVTNTTHGPFYFILTGIPGFEDIHLWISIPFFCLYTISIMGNTTILTVIRTEPSLHEPMYLFLSMLALTDLGLTLTTLPTVMQVLWFNIREISFEACFAQVFFLHGFSFMESSVLLAMSFDRYVAICRPLHYASILTSEVIARIGLAIICRCVLAVLPSLFLLKRLPFCHSHLLSHSYCLHQDMIHLVCADIRVNRWYGFALVLLIIVLDPLLIVLSYALILKSVLNTATWTERLRALNNCLSHMLAVLVLYVPMVGVSMTHRFAKHASPLVHVLMANIYLLAPPVMNPIIYSVKTKQIRQGITRLLLQRKVH,r
RDKitDescriptors2D,-0.05714285714285714,0.0,0.0,0.0,-0.14285714285714285,-0.14285714285714285,0.0,0.0,0.0,0.0,0.0,0.0,MVDPNGNESSATYFILIGLPGLEEAQFWLAFPLCSLYLIAVLGNLTIIYIVRTEHSLHEPMYIFLCMLSGIDILISTSSMPKMLAIFWFNSTTIQFDACLLQMFAIHSLSGMESTVLLAMAFDRYVAICHPLRHATVLTLPRVTKIGVAAVVRGAALMAPLPVFIKQLPFCRSNILSHSYCLHQDVMKLACDDIRVNVVYGLIVIISAIGLDSLLISFSYLLILKTVLGLTREAQAKAFGTCVSHVCAVFIFYVPFIGLSMVHRFSKRRDSPLPVILANIYLLVPPVLNPIVYGVKTKEIRQRILRLFHVATHASEP,r
ScaffoldKeyCalculator,0.264575131106459,0.0,0.0,0.0,0.0,0.6614378277661476,0.6614378277661476,0.0,0.0,0.0,0.0,0.0,MTEDNYSLTTEFILIGFSDHPDLKILLFLVLSTIYLVTMVGNLGLVALIYMEPRLHTPMYIFLGNLALMDSCCSCAITPKMLENFFSVNRRISLYECMAQFYFLCLAETADCFLLAAMAYDRYVAICNPLQYHTMMSKKLCLQMTTGAYIAGNLHSMIHIGFLFRLIFCRSHVIKHFFCDVLPLYRLSCVDPYINELMILIFSGSVQTFSIIIVLISYFCILFTIFTMKSREGRSKALSTCASHFLSVSIFYGSLLYTYIRPSSINEGNEDIPVAIFYTLVIPLLNPFIYSLRNKEVINAIKRTMNKG,r
ScaffoldKeyCalculator,0.4312557033827543,0.0,-0.0890870806374748,0.6123724356957946,0.4082482904638631,0.816496580927726,0.408248290463863,0.0,0.0,0.0,0.0,0.0,MRENNQSSTLEFILLGVTGQQEQEDFFYILFLFIYPITLIGNLLIVLAICSDVRLHNPMYFLLANLSLVDIFFSSVTIPKMLANHLLGSKSISFGGCLTQMYFMIALGNTDSYILAAMAYDRAVAISRPLHYTTIMSPRSCIWLIAGSWVIGNANALPHTLLTASLSFCGNQEVANFYCDITPLLKLSCSDIHFHVKMMYLGVGIFSVPLLCIIVSYIRVFSTVFQVPSTKGVLKAFSTCGSHLTVVSLYYGTVMGTYFRPLTNYSLKDAVITVMYTAVTPMLNPFIYSLRNRDMKAALRKLFNKRISS,r
ScaffoldKeyCalculator,0.08268982305947233,0.0,0.0,0.53748384988657,0.0,-0.12403473458920847,0.0,0.0,0.0,0.0,0.0,0.0,MDQSNYSSLHGFILLGFSNHPKMEMILSGVVAIFYLITLVGNTAIILASLLDSQLHTPMYFFLRNLSFLDLCFTTSIIPQMLVNLWGPDKTISYVGCIIQLYVYMWLGSVECLLLAVMSYDRFTAICKPLHYFVVMNPHLCLKMIIMIWSISLANSVVLCTLTLNLPTCGNNILDHFLCELPALVKIACVDTTTVEMSVFALGIIIVLTPLILILISYGYIAKAVLRTKSKASQRKAMNTCGSHLTVVSMFYGTIIYMYLQPGNRASKDQGKFLTLFYTVITPSLNPLIYTLRNKDMKDALKKLMRFHHKSTKIKRNCKS,r
ScaffoldKeyCalculator,0.06243277820691391,0.0,0.0,0.0,-0.16666666666666666,0.6454972243679028,-0.16666666666666666,0.0,0.0,0.0,0.0,0.0,MGTGNDTTVVEFTLLGLSEDTTVCAILFLVFLGIYVVTLMGNISIIVLIRRSHHLHTPMYIFLCHLAFVDIGYSSSVTPVMLMSFLRKETSLPVAGCVAQLCSVVTFGTAECFLLAAMAYDRYVAICSPLLYSTCMSPGVCIILVGMSYLGGCVNAWTFIGCLLRLSFCGPNKVNHFFCDYSPLLKLACSHDFTFEIIPAISSGSIIVATVCVIAISYIYILITILKMHSTKGRHKAFSTCTSHLTAVTLFYGTITFIYVMPKSSYSTDQNKVVSVFYTVVIPMLNPLIYSLRNKEIKGALKRELRIKIFS,r
ScaffoldKeyCalculator,0.0,0.0,0.0,0.0,0.0,0.0,0.0,0.0,0.0,0.0,0.0,0.0,MSSCNFTHATFVLIGIPGLEKAHFWVGFPLLSMYVVAMFGNCIVVFIVRTERSLHAPMYLFLCMLAAIDLALSTSTMPKILALFWFDSREISFEACLTQMFFIHALSAIESTILLAMAFDRYVAICHPLRHAAVLNNTVTAQIGIVAVVRGSLFFFPLPLLIKRLAFCHSNVLSHSYCVHQDVMKLAYADTLPNVVYGLTAILLVMGVDVMFISLSYFLIIRTVLQLPSKSERAKAFGTCVSHIGVVLAFYVPLIGLSVVHRFGNSLHPIVRVVMGDIYLLLPPVINPIIYGAKTKQIRTRVLAMFKISCDKDLQAVGGK,r
ScaffoldKeyCalculator,0.0,0.0,0.0,0.0,0.0,0.0,0.0,0.0,0.0,0.0,0.0,0.0,MAWENQTFNSDFLLLGIFNHSPTHTFLFFLVLAIFSVAFMGNSIMVLLIYLDTQLHTPMYFLLSQLSLMDLMLICTTVPKMAFNYLSGSKSISMAGCATQIFFYISLLGSECFLLAVMSYDRYTAICHPLRYTNLMRPKICGLMTAFSWILGSTDGIIDAVATFSFSYCGSREIAHFCCDFPSLLILSCNDTSIFEEVIFICCIVMLVFPVAIIITSYARVILAVIHMGSGEGRRKAFTTCSSHLMVVGMYYGAGLFMCIQPTSHHSPMQDKMVSVFYTIVTPMLNPLIYSLRNKEVTRALMKILGKGKSGD,r
ScaffoldKeyCalculator,0.0,0.0,0.0,0.0,0.0,0.0,0.0,0.0,0.0,0.0,0.0,0.0,MMIKKNASSEDFFILLGFSNWPQLEVVLFVVILIFYLMTLTGNLFIIILSYVDSHLHTPMYFFLSNLSFLDLCHTTSSIPQLLVNLRGPEKTISYAGCMVQLYFVLALGIAECVLLVVMSYDRYVAVCRPLHYTVLMHPRFCHLLAAASWVIGFTISALHSSFTFWVPLCGHRLVDHFFCEVPALLRLSCVDTHANELTLMVMSSIFVLIPLILILTAYGAIARAVLSMQSTTGLQKVFRTCGAHLMVVSLFFIPVMCMYLQPPSENSPDQGKFIALFYTVVTPSLNPLIYTLRNKHVKGAAKRLLGWEWGK,r
ScaffoldKeyCalculator,0.0,0.0,0.0,0.0,0.0,0.0,0.0,0.0,0.0,0.0,0.0,0.0,MGDWNNSDAVEPIFILRGFPGLEYVHSWLSILFCLAYLVAFMGNVTILSVIWIESSLHQPMYYFISILAVNDLGMSLSTLPTMLAVLWLDAPEIQASACYAQLFFIHTFTFLESSVLLAMAFDRFVAICHPLHYPTILTNSVIGKIGLACLLRSLGVVLPTPLLLRHYHYCHGNALSHAFCLHQDVLRLSCTDARTNSIYGLCVVIATLGVDSIFILLSYVLILNTVLDIASREEQLKALNTCVSHICVVLIFFVPVIGVSMVHRFGKHLSPIVHILMADIYLLLPPVLNPIVYSVRTKQIRLGILHKFVLRRRF,r
ScaffoldKeyCalculator,0.0,0.0,0.0,0.0,0.0,0.0,0.0,0.0,0.0,0.0,0.0,0.0,MDQSNYSSLHGFILLGFSNHPKMEMILSGVVAIFYLITLVGNTAIILASLLDSQLHTPMYFFLRNLSFLDLCFTTSIIPQVLVNLWGPDKTISYVGCIIQLYVYMWLGSVECLLLAVMSYDRFTAICKPLHYFVVMNPHLCLKMIIMIWSISLANSVVLCTLTLNLPTCGNNILDHFLCELPALVKIACVDTTTVEMSVFALGIIIVLTPLILILISYGYIAKAVLRTKSKASQRKAMNTCGSHLTVVSMFYGTIIYMYLQPGNRASKDQGKFLTLFYTVITPSLNPLIYTLRNKDMKDALKKLMRFHHKSTKIKRNCKS,r
ScaffoldKeyCalculator,0.0,0.0,0.0,0.0,0.0,0.0,0.0,0.0,0.0,0.0,0.0,0.0,MDGVNDSSLQGFVLMGISDHPQLEMIFFIAILFSYLLTLLGNSTIILLSRLEARLHTPMYFFLSNLSSLDLAFATSSVPQMLINLWGPGKTISYGGCITQLYVFLWLGATECILLVVMAFDRYVAVCRPLRYTAIMNPQLCWLLAVIACLGGLGNSVIQSTFTLQLPLCGHRRVEGFLCEVPAMIKLACGDTSLNQAVLNGVCTFFTAVPLSIIVISYCLIAQAVLKIRSAEGRRKAFNTCLSHLLVVFLFYGSASYGYLLPAKNSKQDQGKFISLFYSLVTPMVNPLIYTLRNMEVKGALRRLLGKGREVG,r
ScaffoldKeyCalculator,0.13060804873221835,0.0,0.16666666666666666,0.09128709291752768,-0.5477225575051661,0.47140452079103173,0.47140452079103173,0.0,0.0,0.0,0.0,0.0,MKHSNDSKVTEFILLGFAGQNESWHILFVVFLVIYIATLVGNIGMILLIKLHSSLHTPMYFFLQHLAFVDLCYSSAITPRTLQNFVSTKPSISFTGCLAQLLVYGIFVTSDCFILAAMAVDRYVAICNPLRYPIIMSQRLCILLLLGSYTMGFLNATVNTGFTFLSNFCKSNVINHFFCDVPPILALSCSSIDLNIMVLTIFVGFNLTFTVSVVILSYTFILAAILRMSSASGRRKAFSTCASHMTAVTIFYGTLSYMYVLHGTNRSQEQEKVASVFYGIMIPMLNPLIYSLRNQDVIEALRHIGNKCF,r
ScaffoldKeyCalculator,0.0,0.0,0.0,0.0,0.0,0.0,0.0,0.0,0.0,0.0,0.0,0.0,MWSNISAAPFLLTGFPGLEAAHHWISIPFFAIYISVLLGNGTLLYLIKDDHNLHEPMYYFLAMLAGTDLTVTLTTMPTVMAVLWVNHREIRHGACFLQAYIIHSLSIVESGVLLAMSYDRFVAICTPLHYNSILTNSRVIAIGLGVVLRGFLSLVPPILPLFWFSYCRSHVLSHAFCLHQDVMKLACADITFNRIYPVVLVALTFFLDALIIVFSYVLILKTVMGIASGEERAKALNTCVSHISCVLVFYITVIGLTFIHRFGKNAPHVVHITMSYVYFLFPPFMNPIIYSIKTKQIQRSVLHLLSV,r
ScaffoldKeyCalculator,0.0,0.0,0.0,0.0,0.0,0.0,0.0,0.0,0.0,0.0,0.0,0.0,MGTGNWSQVIEFIILGFPHFQGVQIYLFFLLLSIYFTTILGNLLIFLVVYLDSRLHTPMYRFVSILSFLELGYTAATIPKMLANLLSEKKTISFSGCLLQIYFFHSLGATECYLLTAMAYDRYLAICRPLHYPTLMTQSLCIKIAIGCWLGGLAGPVVEISLVSRLPFCGPNHIQHIFCDFPPVLSLACTDTSVNVLVDFIINSCKILATFLLILSSYLQIIRTVLKIPSAAGKKKAFSTCASHLTVVLIFYGSILFMYVRLKKSYSLDYDRALAVVYSVITPFLNPFIYSLRNKEIKEALKRQLMRTGILR,r
ScaffoldKeyCalculator,0.0,0.0,0.0,0.0,0.0,0.0,0.0,0.0,0.0,0.0,0.0,0.0,MSLFPQRNLDAMNRSAAHVTEFVLLGFPGSWKIQIFLFVLFLVFYVLTLLGNGAIICAVRCDSRLHTPMYFLLGNFSFLEIWYVSSTIPNILANILSKTKAISFSGCFLQFYFFFSLGTTECLFLAVMAYDRYLAICRPLHYPTIMTRRLCCILVSSCWLIGFLGYPIPIFSISQLPFCGSNIIDHFLCDMDPLMALSCAPAPITEFIFYAQSSFVLFFTIAYILRSYILLLRAVFQVPSAAGRRKAFSTCGSHLVVVSLFYGTVMVMYVSPTYGIPILMQKILTLVYSVMTPLFNPLIYSLRNKDMKLALRNVLLGMRIVKNM,r
ScaffoldKeyCalculator,0.0,0.0,0.0,0.0,0.0,0.0,0.0,0.0,0.0,0.0,0.0,0.0,MEPQNLSKVTEFQLLGFQNLLEWQSLLFAIFLCFYLLTITGNMVIIGVVSEDPRLRAPMYTFLQHLSFLEIWYTSTTVPLLLSNLASWGHMLSFSACMAQLYFFVFFGATECFLLAAMAYDRYLAICHPLHYSLLMSPDNCAALVTVSWVTGVGTGFLPSLLISKLDFCGPNRINHFFCDLPPLIQLSCSSVYVTEMAIFVLSIAVLCICFLLTLVSYVFIVSSILRIPSTSGRMKTFSTCGSHLAVVTIYYGTMISMYVRPNAHLSPELNKVISVFYTVVTPLLNPVIYSLRNKDFKEAVRKIVRTKCGVYRARVKGSALTT,r
ScaffoldKeyCalculator,0.0,0.0,0.0,0.0,0.0,0.0,0.0,0.0,0.0,0.0,0.0,0.0,MLPFNDEDEFSLFRYSRTMHQGNQTAISGFILLGLTVGSEQQLLLFTLFLCMYLVTMVGNSLIILAIISDTHLYSPMYFFLANLSFTDICFTTTTVPKILADIQSQNPTISFVGCFTQMYFFMFLVDLDNFLLAAMAYDRYIAICHPLHYAALLNPKRCALLVVVPWVISNLVSVLHLSLLSRLPFCDQRVIPHFFCDLEPVLRLACSDTQINNLLILIVGGTVIFVPFVFILVSYALIGTAVLNVPSVKGKWKTFSTCGSHLSAVSLFYGSIVGVYFLPASSYSAERDKVAAIMYTVVTPMMNPFIYSLRNKDMKRALRRLLSQKSLICSW,r
ScaffoldKeyCalculator,0.0,0.0,0.0,0.0,0.0,0.0,0.0,0.0,0.0,0.0,0.0,0.0,MDGDNETMVAEFLLLGLSGKSEQEEVVFGMFLGMYLVTISGNLLIILAISCDPHLHTPMYFFLANLSSVDICFSSVTVPKALVNHVLGSKSISYTECMIQIYFFITFINMDGFLLSVMAYDRYVAICHPLHYTMMMRSRLCVLLVAISWVITNLHALLHTLLMVRLTFCSHNAVHHFFCDPYPILKLSCSDTFINDLMVFTVGGVIFLTPFSCIVVSYVYIFSKVLKIPSARGIRKALSTCGSHLTVVSLFYGAILGVYMRPSSSYSLQDTVATVIFTVVTPLVNPFIYSLRNQDMKGALRKIMLRS,r
ScaffoldKeyCalculator,0.4,0.0,1.0,0.0,0.0,0.0,1.0,0.0,0.0,0.0,0.0,0.0,MRRDNESTVSEFILLGLPIRAEDQGLYSALFLAMYLTTVLGNLLIILLIRLDSHLHTPMYFFLSHLAFTDISFSSVASPKMVINMLTHSQSISYAGCVSQVYFFSFFADLESFLLTSMAYDRYVAICHPLHYSQIMSENLCVLLIVVSWTLSTANSLVHTLLLVQLSYFRNNTIPHYFCDLSTLLKLSSSDTTINELVILVLGNMVITLPFICILVSYGHIGVTIMKIPSIKGICKALSTCGSHLCVVSLYYGAIIGLYFVPSSNNTSDKDAIVAMMYTMVIPMLNPFIYSLRNRDMKGALRNILSGRLWSQ,r
ScaffoldKeyCalculator,0.39515879354162486,0.0,0.3,0.7302967433402214,0.3,0.0,0.6454972243679028,0.0,0.0,0.0,0.0,0.0,MEPRNNTHILEFFLLGFSQDPNLQPVICGLFLSMYLITVVGNLLIILTIISDANLHTPMYFFLSNLSFVDICFVSTTVPKMLVNIQTKRKSISYADCITQMYFFLIFVELDNFLLAVMAYDRYVAICHPLHYTGIMNRRLCGFLVLVCWIVSVLHALLQSMMVLRLSFCTDLEIPHFFCELNQVAQLTCSDTFLNDVVMYFALVLLAIVPLFGILYSYSKIVSSIRAMSTVQGKYKAFSTCASHLSVVSLFYFTGLGVYLSSAVSHSSQASATASVMYTVVTPMLNPFIYSLRNKDVKGALKRLLGVKL,r
ScaffoldKeyCalculator,0.0,0.0,0.0,0.0,0.0,0.0,0.0,0.0,0.0,0.0,0.0,0.0,MTAKNSSVTEFILAGLTDQPGLRMPLFFLFLGFYMVTVVGNLGLISLIGLNSHLHTPMYFFLFNLSLIDFCYSSTISPKMLMSFISKKNIISHPGCMAQLFFFCFFVISESFILSAMAYDRYVAICNPLMYMVTMSPQVCLLLLFGVYLMGFVGAMAHTISMARLTFCADNIVNHYMCDILPLLEHSCTSTYVNELVVFIFVSFDIGVPIVTIFISYALILSSILHMHSTEGRSKAFSTCSSHMIVVCLFFGSGAFMYLQPPSVLSLDQGKVSSLFYTIVVPMLNPLIYSLRNKDVKVTVRKTLDRRIFS,r
ScaffoldKeyCalculator,0.0,0.0,0.0,0.0,0.0,0.0,0.0,0.0,0.0,0.0,0.0,0.0,MVSENNSSVKEFILLGLTQLPELQLPLFFLFLGIYVFSMVGNLGLIVLIVLNPPLHTPMYYFLFNLSFTDLCYSSVITPKMLVGFVKQNIISHAECMTQLFFFAFFVIDECCILTAMAYDRYAAICKPLLYKVIMSHQVCFVLMVGGYTVGFVGATAHTVCMLRLTFCDGNIINHYMCDIPPLLKLSCTSTSINELVVFIVVGVSIIVPSLTVFISYTLILSNILRIHSAKGRSKALSTCSSHMIAVSLFFGSSSFIYFKSSPVGSVDKDKISTVFYTVVVPMMNPFIYSLRNKDVQIALRKTLKKNCSLK,r
ScaffoldKeyCalculator,0.0,0.0,0.0,0.0,0.0,0.0,0.0,0.0,0.0,0.0,0.0,0.0,MSLNAQKTMENDSSVSEFILMGLTDQPELQLPLFVLFLVNYTVTVMGNLSLMNLICLNSNLHTPMYFFIFNLSFIDFCYSMVFTPKMLMGFVVEKNIISFRGCMTQLFFFLFFVNSESYVLTAMAYDRYVAICQPLLYKAVMSPGICFLLIFCTYLMGLVSALFHTGFMIRLNFCDSNVINHYMCDIFPLFRLSCSSTYLTELVSSAVVGTAIILCCLIILISYGMILYNIIHMSSGKGWSKALGTCGSHIITVSLFYVTGMLAYVKPSSAETVGQGKIFSVFYTFLVPMLNPLIYSLRNKDVKLAVKKTWKRLTC,r
ScaffoldKeyCalculator,-0.03333333333333333,0.0,0.0,0.0,0.0,0.0,-0.16666666666666666,0.0,0.0,0.0,0.0,0.0,MATGNLTHVTEFILMGVTDRPELQVPLFFLFLVIYLLTAAGNLGIITLTSVDSRLQTPMYFFLRHLAVINFGNSTVIAPKMLVNFLVSKKTTLYYECATQLGGFLVFMVSEIFMLAVMAYDRYVAICNPLLYMVVVSRRVCLLLVFLTYLFSFVTAIVVTPCVFSVSYCSSNVINHFYCDNVPLLALSCSDTHLPETVVFFFSATNLFFSMIIVLISYFNIVLAILRIRSSEGRKKAFSTCASHMMAVTVFYGTLLFMYLQPRTNHSLDTDKIASVFYTLIIPMLNPVIYSLRNKDVKCALKEFLKNPCKKFNLI,r
ScaffoldKeyCalculator,0.5290994448735805,0.0,0.6454972243679028,0.0,1.0,0.0,1.0,0.0,0.0,0.0,0.0,0.0,MQMESQNLTVVTEFILRGITDRPELQVPLFGLFFMIYLISLFGNLGMIILTIVESRLQTPMYFFLRHLAITDLGYSTAIGPKMLANFVVSKNTISFHLCATQLAFFLLFIACELFILSVMSYDRYVAICNPLLYNVIMSQTVCWVLVAIPYLYSVFISLIVTINIFSSSFCGYNVIPHFYCDGLPLISLLCTNTDKIGLIILILSAINLISSLLIILGSYLLIFRAILRMNSAEGRRKAFSTCGSHLTVVSVFYGTLIFMYVQPKTSHSFDTDKVASIFYTLVIPMLNPLIYSLRNKDVKYALRKTGKIIQNNFS,r
ScaffoldKeyCalculator,0.0,0.0,0.0,0.0,0.0,0.0,0.0,0.0,0.0,0.0,0.0,0.0,MKVSIPPRANFSYAIFLLTGFPGLEWAHHWISLPIFMGYFVAIMGNATILHLVRTDPSLHQPMYYFLAILAVTDLGLCMSTLPSVLGVLWFDARMVGLVPCVLQQHFLHSFSFMESAVLFAMALDRLIAIRFPLRYASVLTGPRVALIGTVLGMRSAAITAAPSLHLLTFDYCHPGALSHAYCLHQDMIRLACSDTRFNRLYGLCIIMLAMGSDVLFILLSYAVILRTVLAIASAGERLKALNTCVSHILAVLCFYVPVLGLSIVHRFGQHTSPLVHILMGTVSVLFPPVMNPVIYSIKTQQIRRAIVKVISLGKIQ,r
ScaffoldKeyCalculator,0.0,0.0,0.0,0.0,0.0,0.0,0.0,0.0,0.0,0.0,0.0,0.0,MEPGNYTVVTEVILLGFTEDAIIRAILFIVFLIIYSVTLMGNASIIMLIRRSPQLHTPMYLLLSHLAFVDIGYSSSVTPIMLKGFLRKETFILVSGCVAQLCSVVTFGSTECFLLAAMAYDRYVAICSPLLYATQMSSTVCILLVGASYLGGCVNAWTFTGCLLNLSFCRPNKVNHFFCDYSPLLKISCSHDFSSEVIPAISSGSIIVVTVFIIALSYVYILVSILKMRSTEGRQKAFSTCTSHLTAVTLFYGTITFIYVMPKSSYSTDQNKVVSVFYTVVIPMLNPIIYSLRNKDVKEAMKKLMANTHH,r
ScaffoldKeyCalculator,0.0,0.0,0.0,0.0,0.0,0.0,0.0,0.0,0.0,0.0,0.0,0.0,MTENNFTKVTVFMFSGFSDHPELQVSLFLIFLFIYLFTVWGNIGLILLIRIDSQLHTPMYFFLSNLAFIDIFYSSTVTPKAVVDFQSTQKSISFVGCFVQMYFFVGLVCSECFLLGSMAYDRYVAICNPLLYSVIMSQKVCNWLAVIPYMIGFTNSLISICVISSLPLCDPYINHFFCDTTALLALSCVDAFSTELVIFVLAGFTLLSSLLIITFTYVTIISAILRIQSAAGRWKAFSTCASHLTGVTVFYGSLIFTYLQPDNTSSLTQAQVASVFYTIVIPMLNPLIYSLRNKDVKNALLRVIHRKHLL,r
ScaffoldKeyCalculator,0.0,0.0,0.0,0.0,0.0,0.0,0.0,0.0,0.0,0.0,0.0,0.0,MSNHTRVTHFILRGFSDVPQLRLVLIPFFLLFYTFGILGNFSIITAVIRDSRLHSPMYFFLKNLSFLDICYTSATIPKAVVISLTGSGVISYQECVAQLYMFITLCGTECFLLTAMAYDRCLAILRPLIYGTIMSHKYCSALVVTAWVGGAIYSAFHTFNTFSLPYCGPNVVDHFFCDMPPVMRLSCTDYHLNEEVGFAVIGCIIMSSFALTVVSYIGIVATVLRIPSVEGRWKAFSTCSSHLTTVILFYGTGSFVYLRPASQYSPTLDPLASIFYSVVTPSLNPVIYCLRNKDMKFALQKLYCGRKY,r
ScaffoldKeyCalculator,0.0,0.0,0.0,0.0,0.0,0.0,0.0,0.0,0.0,0.0,0.0,0.0,MSNVTLVTTFFLSGIPHPPALDTMLFVAFLVIYILTVLGNFLILMVIRVDSHLHTPMYYFLTNLSFIDMWFSTVTVPKMLMTLVSPRGGAISFHSCVAQLYCFHFLGSTECFLYTVMSYDRYLAISYPLRYSSMMSGRVCALLAAGTWITGSLHSAVQTTLTFRLPYCGPNQIQHYFCDAPPILKLACADTSANEMVIFVNIGVVASGCFLLISLSYVSIVCSILRIRTSEGRHRAFQTCASHCIVVLCFFVPCVFIYLRPGSRDAVDGVVAVFYTVLTPLLNPVVYTLRNKEVKKALVKLKDKVAYSQSQ,r
ScaffoldKeyCalculator,0.0,0.0,0.0,0.0,0.0,0.0,0.0,0.0,0.0,0.0,0.0,0.0,MGYTNLSYLNPGTVILIGIPGLEHVQFWIGFPFFVVCLVALLGNLFLLIIIPTERSLHQPMYIFLAVLAATDLGLCLAIAPKMLAIFWFGSCSMAFDACLTQLFFIHALQGMESGVLLAMAFDRYVAICDPLRHTAVLTPLFLLRVVLVVAIRATVLVGVLPILLKRLQWFHSVVIVHSYCEHMAVVKLAAEDVRINKSYGLFVAFAILGFDMIFVFISYILIFRAVFRLPQKEARSKAFNTCTAHIVVFLEFYILAFFSFFSHRFGHVSPYVHILLSTIYLLLPPALNPIVYGVKTKEIRKWVVQIFVLKSNTQ,r
ScaffoldKeyCalculator,0.0,0.0,0.0,0.0,0.0,0.0,0.0,0.0,0.0,0.0,0.0,0.0,MEIPHNITEFFMLGLSQRPEIQRLLFVVFLVIYAVTVCGNMLIVVTVTFSSSLASPMYFFLSNLSFIDTCYSSSLAPKLIADSLYEGTTLSYEGCMAQLFGAHFLGGVEIILLTVMAYDRYVAICKPLHYTTTMTRHLCVVLVAVAWLGGFLHSLVQILLIFQLPFCGPNVINHFVCDLYPLLELACTNTYVIGLLVVANSGVICLLNFLMLAASYIVILHSLRSHSAEGRRKALSTCGAHFTVVTMFFVPCIFSYMRPSTTLPIDKNMAVFYGILTPMLNPLIYTLRNEEVKDAMRKLFTRSEVVGA,r
ScaffoldKeyCalculator,0.0,0.0,0.0,0.0,0.0,0.0,0.0,0.0,0.0,0.0,0.0,0.0,MSTFHNVCSVPSSLWLTGIPGLETLHIWLSIPFGSMYLVAVVGNITILAVVRVERSLHQPMYFFLCMLAVIDLVLSTSTMPKLLAIFWFGAGHIGLDACLCQMFLIHCFATVESGIFLAMAFDRYVAICNPLRHSMVLTHTVVGRLGLAAVLRGVLYIGPLPLMIRLRLPLYKTRVISHSYCEHMAVVALTCGDSRVNNVYGLSIGFLVLILDSAAIAASYVMIFRAVMGLATPEARLKTLGTCGSHICAILIFYVPIAVSSLIHRFGHQVPPPIHTLLANFYLLIPPILNPIVYAVRTKQIRDRLLQILKTGTKIR,r
ScaffoldKeyCalculator,0.0,0.0,0.0,0.0,0.0,0.0,0.0,0.0,0.0,0.0,0.0,0.0,MENSTSVDEFLLLGLTSVQKLQPIIFVMFLTIYLLNLVGNGVILMIVTLERRLHSPMYFFLGNLSCLDICYSSVTLPKVLINLLSRRRAISFLGCITQLYFFHFLGSTEAILLAVMAFDRFVAICSPLRYTAIMNPQLCILLAATAWFTSFFYALLHSVMTAHLNFCHSHKLSHFFCDVKPLLEVACGNTVLNQWLLSVVTGSISMGAFLLILLSYFYIIAFLLFKNRSCRMLKKALSTCTSHFMVVCLFYGPVGFTYIRPATASASSMSEDRVVAIIYSAVTPVLNPLIYTLRNKEVMLALKKNFGKKLFKGN,r
ScaffoldKeyCalculator,0.0,0.0,0.0,0.0,0.0,0.0,0.0,0.0,0.0,0.0,0.0,0.0,MAINNSTTVVEFVLQGLSEDPGLQALFLAFFLLLYILALAGNTLIIIAISLNPRLHTPMYFFLANLALLDIICTSTVVPKLLEGLVGKSSHISYKGCMTQVFFLIWVLGAELLLLTAMAYDRYVAICRPLHYNTLMSWPICVLLAGFVWVIGIANTSVHIGLLVRLNFCGSNQIRHFLCEVPTLLLLSCSPTTLNNIMLVIADVYFGVLNFLLTMISYSFIISSILRIRSAEGKKRAFSTCSAHLVVVTLYYSTIIYTYLQPGSGSSFQNSKVVTLLYTAVSPTLNPIIYSLRNKDVKVALKRLFPCFH,r
ScaffoldKeyCalculator,0.0,0.0,0.0,0.0,0.0,0.0,0.0,0.0,0.0,0.0,0.0,0.0,MEVDSNSSSGSFILMGVSDHPHLEIIFFAVILASYLLTLVGNLTIILLSRLDARLHTPMYFFLSNLSSLDLAFTTSSVPQMLKNLWGPDKTISYGGCVTQLYVFLWLGATECILLVVMAFDRYVAVCRPLHYMTVMNPRLCWGLAAISWLGGLGNSVIQSTFTLQLPFCGHRKVDNFLCEVPAMIKLACGDTSLNEAVLNGVCTFFTVVPVSVILVSYCFIAQAVMKIRSVEGRRKAFNTCVSHLVVVFLFYGSAIYGYLLPAKSSNQSQGKFISLFYSVVTPMVNPLIYTLRNKEVKGALGRLLGKGRGAS,r
ScaffoldKeyCalculator,0.0,0.0,0.0,0.0,0.0,0.0,0.0,0.0,0.0,0.0,0.0,0.0,MQGPNQTFVTEFILLGFSLSPRTTPLLFSAFLIIYLLIILGNGLIFILICLDSHLHTPMYFFIGVLSMLDLGYTTTTVPQMLAHLASQKKTISYSNCVAQMYIFLVLGVTESWLFAIMSIDRYVAICHPLRYKVIMSPCLCGVMAIFCGLCGVTAALVYTIFAMRLPYCGPNKINHFFCEVPAVLKLACADTSVNDHVDFILGFSVILIPLSLILVIYINIFTSILKIRSAQGRLKAFSTCASHITVVTMFCVPAMVMYMKPGSKASPEEDKKLALFYNVISAFLNPVIYSLRNKDVKRAFLKVTGCGRPPE,r
ScaffoldKeyCalculator,0.0,0.0,0.0,0.0,0.0,0.0,0.0,0.0,0.0,0.0,0.0,0.0,MIPGQNQSWVSEFILIGFSSDPTTNSILFIVFLLIYLSSVLGNGLIIMLVCLDTQLHTPMYFFLSTLSLLDMSFVTTTMPQMLVHLLAHSQTISFASCCLQMFVFGALGITECTFFVVMAYDRYVAICYPLRYTVILNWGLCIRLAAGSWICGFFSSLLHTFFTMSLPYCGPNRVNHYFCEGPSVRSLACMDTHLIEMVDFVLSVFVVVIPISLIVASYIRIAMAILKIKSTQGRCKAFSTCASHLTVVTFFYAPATYIYLRPNSSYSPERDKQVSLFYNAFTALLNPVVYSLRNKDIKRAFLKVMGHSRLDQ,r
ScaffoldKeyCalculator,0.0,0.0,0.0,0.0,0.0,0.0,0.0,0.0,0.0,0.0,0.0,0.0,MMQANQTQVTEFILLGLSDDPHTQKLLFILFLGIYMVTVLGNLLLMFLVRADSRLHTPMYFFLCNLSLADLCFSTNIVPQALIHLLSRKKTISFRRCAAQLLLFLIFGCTQCALLAVMSYDRYVAICNPLHYSSIMTWRVCIQLATVSWTSGILVSVVDTTFTLRLPYRGSNSIAHFFCEAPALLALASTDTQTSEMAIFLMGVVILLIPVSLILVSYGHIIVTVVKMKSAAGRFKAFSTCGSHLMVVILFYGSAIITYMTPKSSKEQEKLVSVFYAMVTPMLNPLIYSLRNKDVKGALWKVAMKNFSSRLRITH,r
ScaffoldKeyCalculator,0.0,0.0,0.0,0.0,0.0,0.0,0.0,0.0,0.0,0.0,0.0,0.0,MGGNQTLITQFILLGFPLSPRMQMLLFALFSLFYAFTLLGNGTILGLICLDSRLHTPMYFFLSHLAIVDIAYACNTVPQMLVNLMDPAKPISFAGCMTQTFLFLTFAHTECLLLVVMSYDRYVAICHPLRYTAIMSWRVCVILVLTSWILGVLLALVHLVLLLPLPFCGSQKVNHFFCEIIAVLKLACSDTRINELMVLAGAVSVLVGPFSSIVVSYAHILCAILKIKSQQGRQKAFSTCSSHLCVVGLFYGTAIVMYIGPQHGKSNEQKKYLLLFHSLFNPMLNPLIYSLRNKEVKSALKRTLLKEDTS,r
ScaffoldKeyCalculator,0.0,0.0,0.0,0.0,0.0,0.0,0.0,0.0,0.0,0.0,0.0,0.0,MGQNDSSVVEFILLGFSHFPELQVHMFGAFLVIYLVTLTGNATIVTVIFLDHSLHIPMYLFLQNLSVVEASFSTTVMPEMLVVLTSEKATISFGGCFAQTYFILLFGGTECFLLGAMAYDRFAAICYPLTYPMIMSKRIFVKLVVCSWVLGIMTATVSVTWVFSFPFCGPSKINHISCEVPAVLELACADTFLFEVYSFTGTILLVLVPFLLILLSYTQILFTVLRMPSTTGRQKAFSTCASHLTSVTLFYSTACMTYLQPKSKYSPDTKKLMSLAYSLLTPLLNPLIYSLRNKEMKRAVVKLCQIKVVF,r
ScaffoldKeyCalculator,0.22208283424274508,0.0,-0.16666666666666666,0.5477225575051661,0.16666666666666666,0.47140452079103173,0.09128709291752768,0.0,0.0,0.0,0.0,0.0,MEKWNQSSSDFILLGLLPQNQTGLLLMMLIILVFFLALFGNSAMIHLIRVDPRLHTPMYFLLSQLSLMDLMYISTTVPKMAFNFLSGQKNISFLGCGVQSFFFLTMAGSEGLLLASMAYDRFVAICHPLHYPIRMSKIMCLKMIIGSWILGSINSLAHSIYALHIPYCHSRSINHFFCDVPAMLPLACMDTWVYEYMVFVSTSLFLLLPFLGITASYGRVLFAVFHMRSKEGKKKAFTTCSTHLTVVTFYYAPFVYTYLRPRSLRSPTEDKILTVFYTILTPMLNPIIYSLRNKEVLGAMTRVLGTFSSMKP,r
ScaffoldKeyCalculator,-0.05163977794943222,0.0,-0.2581988897471611,0.0,0.0,0.0,0.0,0.0,0.0,0.0,0.0,0.0,MDSYNQTFTGFILLGLFPPSKIGLFLFILIVLIFLTAWIGNLSMILLILLDSHLHTPMYFLLSQLSLIDLNYISTIVPKMVSDFMLGNKYISFIGCGFQIFLFLTFGGAETLLLASMAYDRYVAICFPLHYATHMNKRVCVMMITGAWILGSINSCAHTGYALQIPYCRSRAINHFFCDVPAMLTLACTDTWVYEYTVFVSTILFLVFPFIGIVCSYGRVFLAIYRMHSRAGKKKAYSTCSTHLTVVTFYYAPFAYTYLRPRSLRSPEEDKILAVFYTVLTPMLNPIIYSLRNKEVIGALRRMTHRICFAKI,r
ScaffoldKeyCalculator,0.0,0.0,0.0,0.0,0.0,0.0,0.0,0.0,0.0,0.0,0.0,0.0,MMERENYTFNSDFILLGLFSSSKISLTFFSVIFFIFIMTITENALMILLIHRDSRLHTPMYFLLSHLSFMDILHISNIVPKMIADFLSGSRTISFAGCAFQIFLSLTLLGGECLLLAVMSYDRYVAICHPLRYPVLMRDNFSRLLAAGSWLVGILNSIVHTAFVLHFPFCHSRAIDHFFCEVPAMLKLSCIDTTHYERGVYVSGIIFLLIPFSMISISYVQILLTVFQMHSSGARQKSFSTCLFHMVVVIMYYGPFIFTYMRPRSYHTPGQDKFLAIFYTILTPTLNPIIYSFRNKDVLMALKNIVQSNILNKE,r
ScaffoldKeyCalculator,0.0,0.0,0.0,0.0,0.0,0.0,0.0,0.0,0.0,0.0,0.0,0.0,MAWAGNQTLISHFVLLGLFTHSPLHLFLFSIIMVMFLVALSGNGLMILLILMDSRLHTPMYFFLSWLSLMDLMLISTIVPRMAADFLLGRGSISFAGCGLQILFFLTLLGDECFLLAFMAYDRYVAISNPLRYSVIMSRRVCWLMVAGSWLFGLVDGLIQAVFTLRFPYCGSQEIDHFFCEVPAVLKLACADTSLYETMIYVCCVLMLLLPFSVISASYLRILVAVLRMRSAEGRRKAFATCSSHMIVVSLFYGAAMITYMRPQAYHSSKQDKVVSAFYTMITPMLNPLIYSLRNKEVTGALRKLLGKCPCGGGTLG,r
ScaffoldKeyCalculator,0.0,0.0,0.0,0.0,0.0,0.0,0.0,0.0,0.0,0.0,0.0,0.0,MVASSNSSSHPLFFMLLGIPGLENYQFWIAFPFCVMYIVALTGNITILYIIRIDHTLHEPMYLFLALLAITDLVLSSSTQPKMLAILWFHSHEIEYNACLIQVFFIHAFSSVESGVLMTMALDRYVAICFPLRHSSILTTSVVIKLGAAVMVRGLLWVSPFCFMVSRMPFCPNKVIPQSYCEHMAVLKLVCADTRVNRGYGLFVAFSVVGFDIIVISVSYVMILRAVLRLPSGEARLKAFGTCASHVCVILAFYIPALFTFLTHRFGHHVPRVVHIMFANFYLLVPPMLNPIIYGVRTKQIRDRVIRGFRRKDP,r
ScaffoldKeyCalculator,0.0,0.0,0.0,0.0,0.0,0.0,0.0,0.0,0.0,0.0,0.0,0.0,MMLSAAIPNGTAFHPPTFVLLGIPGMQDQHVWIAIPFCSMYILALVGNGTILYIIITDRALHEPMYLFLCLLSITDLVLCSTTLPKMLAIFWLRSHVISYHGCLTQMFFVHAVFATESAVLLAMAFDRYVAICRPLHYTSILNAVVIGKIGLACVTRGLLFVFPFVILIERLPFCGHHIIPHTYCEHMGIAKLACASIKPNTIYGLTVALSVTGMDVVLIATSYILILQAVLRLPSKDAQFRAFSTCGAHICVILVFYIPAFFSFFTHRFGHHVPPQVHIILANLYLLVPPVLNPLVYGINTKQIRLRILDFFVKRR,r
ScaffoldKeyCalculator,0.0,0.0,0.0,0.0,0.0,0.0,0.0,0.0,0.0,0.0,0.0,0.0,MTLVSLHSSFSVLLFMALSNSSWRQPQPPFFLVGVPGLEESQHWIALPLGILYLFALVGNVTIIFIIWTDSSLHQPMYLFLAMLAAIDLVLASSTAPKALTVLLAHAHEIGYIVCLTQMFFIHAFSSMESGILVAMALDRYVAICHPLRHSTILHPGIIGRIGLVVLVRGLVLLFPFPILLQNVVFCRATVISHAYCEHMAVVKLACSETTVNRAYGLSVALLVVGLDVLAIGISYALILQAVLKVPGGEARLKAFSTCGSHVCVILIFYVPGMFSFLTHRFGHHVPHHVHVLLATLYLLVPPALNPLVYGVKTRQIRQRVLRVFYTKASI,r
ScaffoldKeyCalculator,0.0,0.0,0.0,0.0,0.0,0.0,0.0,0.0,0.0,0.0,0.0,0.0,MIRRQHMEAQSNTSSILAPDFLLICFPNYQTWQHWLSLPLSLLFLLAMGANATLLITIRMEASLHEPMYYLLSLLSLLDIVLCLTVIPKVLAIFWFDNKSIGFSSCFLQMFVMNSFLTMESCTFMVMAYDRYVAICKPLQYPSIITDQFVVRAAIFVAARNGILTMPIPILSSQLRYCARIIRNCICTNMSVSKLSCDDITFNKLYQFVIGWTLLGSDLILIVLSYSFILKAVLRIKAEGAVAKALSTCGSHFILILFFSTVLLVLVITNLARERIPPDVPILLNILHHLIPPALNPIVYGVRTREIKQGIRNLLRRRL,r
