embedding,shuf_mean,scaf_mean,shuf1,shuf2,shuf3,shuf4,shuf5,scaf1,scaf2,scaf3,scaf4,scaf5,receptor,regressor
CATS,0.13737577048538113,-3.674870766404999,0.23298677084164188,0.08647306397318055,0.1950469110929639,-0.14177520646808373,0.3141473129872031,-14.498220375999573,-0.3129285523813543,-1.2905016680143233,-0.0076571110886851645,-2.265046124541058,MEKQEDFKLNTHSAVYYHWRVWELTGLMRPPGVSSLLYVVYSITVNLVVTVLFPLSLLARLLFTTNMAGLCENLTITITDIVANLKFANVYMVRKQLHEIRSLLRLMDARARLVGDPEEISALRKEVNIAQGTFRTFASIFVFGTTLSCVRVVVRPDRELLYPAWFGVDWMHSTRNYVLINIYQLFGLIVQAIQNCASDSYPPAFLCLLTGHMRALELRVRRIGCRTEKSNKGQTYEAWREEVYQELIECIRDLARVHRLREIIQRVLSVPCMAQFVCSAAVQCTVAMHFLYVADDHDHTAMIISIVFFSAVTLEVFVICYFGDRMRTQSEALCDAFYDCNWIEQLPKFKRELLFTLARTQRPSLIYAGNYIALSLETFEQVMRFTYSVFTLLLRAK,r
CATS,0.010112217165239001,-0.5561790962031722,0.0393369419986459,0.10709888367998621,0.06993174788246903,-0.183931699672905,0.018125211937998875,-1.3765350870682376,-0.27257572325228097,-0.250732506024524,-0.6569633123576615,-0.22408885231315723,MAVSTRVATKQEVPESRRAFRNLFNCFYALGMQAPDGSRPTTSSTWQRIYACFSVVMYVWQLLLVPTFFVISYRYMGGMEITQVLTSAQVAIDAVILPAKIVALAWNLPLLRRAEHHLAALDARCREQEEFQLILDAVRFCNYLVWFYQICYAIYSSSTFVCAFLLGQPPYALYLPGLDWQRSQMQFCIQAWIEFLIMNWTCLHQASDDVYAVIYLYVVRIQVQLLARRVEKLGTDDSGQVEIYPDERRQEEHCAELQRCIVDHQTMLQLLDCISPVISRTIFVQFLITAAIMGTTMINIFIFANTNTKIASIIYLLAVTLQTAPCCYQATSLMLDNERLALAIFQCQWLGQSARFRKMLLYYLHRAQQPITLTAMKLFPINLATYFSIAKFSFSLYTLIKGMNLGERFNRTN,r
CATS,-0.047498122841866205,-0.6455342833878318,0.07781402343468413,-0.35723304874020356,0.04429068583802809,-0.15681010168506027,0.15444782694322057,-1.405674907697326,-0.037444357136471984,-1.0078870479611481,-0.017060678641791727,-0.7596044255024217,MSDKVKGKKQEEKDQSLRVQILVYRCMGIDLWSPTMANDRPWLTFVTMGPLFLFMVPMFLAAHEYITQVSLLSDTLGSTFASMLTLVKFLLFCYHRKEFVGLIYHIRAILAKEIEVWPDAREIIEVENQSDQMLSLTYTRCFGLAGIFAALKPFVGIILSSIRGDEIHLELPHNGVYPYDLQVVMFYVPTYLWNVMASYSAVTMALCVDSLLFFFTYNVCAIFKIAKHRMIHLPAVGGKEELEGLVQVLLLHQKGLQIADHIADKYRPLIFLQFFLSALQICFIGFQVADLFPNPQSLYFIAFVGSLLIALFIYSKCGENIKSASLDFGNGLYETNWTDFSPPTKRALLIAAMRAQRPCQMKGYFFEASMATFSTIVRSAVSYIMMLRSFNA,r
CATS,0.1583355430386062,-0.0006968998174140539,0.35439595567391236,0.4800736962733555,0.26405969916628436,0.16076606943355443,-0.46761770535407554,0.13403620705888442,-0.4637802709864385,0.019325993867674973,0.14368286063428526,0.16325071033852356,MSEWLRFLKRDQQLDVYFFAVPRLSLDIMGYWPGKTGDTWPWRSLIHFAILAIGVATELHAGMCFLDRQQITLALETLCPAGTSAVTLLKMFLMLRFRQDLSIMWNRLRGLLFDPNWERPEQRDIRLKHSAMAARINFWPLSAGFFTCTTYNLKPILIAMILYLQNRYEDFVWFTPFNMTMPKVLLNYPFFPLTYIFIAYTGYVTIFMFGGCDGFYFEFCAHLSALFEVLQAEIESMFRPYTDHLELSPVQLYILEQKMRSVIIRHNAIIDLTRFFRDRYTIITLAHFVSAAMVIGFSMVNLLTLGNNGLGAMLYVAYTVAALSQLLVYCYGGTLVAESSTGLCRAMFSCPWQLFKPKQRRLVQLLILRSQRPVSMAVPFFSPSLATFAAILQTSGSIIALVKSFQ,r
CATS,0.24294961813268143,-3.148558487746341,0.14042808113765493,0.3040895827209431,0.15040220650679226,0.11987322432836756,0.4999549959696492,-14.359726395185604,-0.08715101441879392,-0.8469720163036503,-0.43278527269765776,-0.016157740125999798,MDISKVDSTRALVNHWRIFRIMGIHPPGKRTFWGRHYTAYSMVWNVTFHICIWVSFSVNLLQSNSLETFCESLCVTMPHTLYMLKLINVRRMRGQMISSHWLLRLLDKRLGCDDERQIIMAGIERAEFIFRTIFRGLACTVVLGIIYISASSEPTLMYPTWIPWNWRDSTSAYLATAMLHTTALMANATLVLNLSSYPGTYLILVSVHTKALALRVSKLGYGAPLPAVRMQAILVGYIHDHQIILRLFKSLERSLSMTCFLQFFSTACAQCTICYFLLFGNVGIMRFMNMLFLLVILTTETLLLCYTAELPCKEGESLLTAVYSCNWLSQSVNFRRLLLLMLARCQIPMILVSGVIVPISMKTFTVMIKGAYTMLTLLNEIRKTSLE,r
CATS,0.23458596939565166,-2.2154526721069168,0.073190399762178,0.29526128152318076,0.3744121905625394,0.021371205036424423,0.40869477009393573,-6.701927877744221,-0.0003165230840327382,-0.7211603251499019,-0.26488677445915165,-3.3889718600972767,MLSKFFPHIKEKPLSERVKSRDAFIYLDRVMWSFGWTEPENKRWILPYKLWLAFVNIVMLILLPISISIEYLHRFKTFSAGEFLSSLEIGVNMYGSSFKCAFTLIGFKKRQEAKVLLDQLDKRCLSDKERSTVHRYVAMGNFFDILYHIFYSTFVVMNFPYFLLERRHAWRMYFPYIDSDEQFYISSIAECFLMTEAIYMDLCTDVCPLISMLMARCHISLLKQRLRNLRSKPGRTEDEYLEELTECIRDHRLLLDYVDALRPVFSGTIFVQFLLIGTVLGLSMINLMFFSTFWTGVATCLFMFDVSMETFPFCYLCNMIIDDCQEMSNCLFQSDWTSADRRYKSTLVYFLHNLQQPITLTAGGVFPISMQTNLAMVKLAFSVVTVIKQFNLAERFQ,r
CATS,0.16961695657228845,-3.8985049429667873,0.2284199432934848,0.10482936909154095,0.16058069809344988,0.2045304733904424,0.14972429899252426,-16.233801468365655,-0.06811781898699332,-1.0171803561362274,-0.14924844769728596,-2.0241766236477763,MKLSETLKIDYFRVQLNAWRICGALDLSEGRYWSWSMLLCILVYLPTPMLLRGVYSFEDPVENNFSLSLTVTSLSNLMKFCMYVAQLTKMVEVQSLIGQLDARVSGESQSERHRNMTEHLLRMSKLFQITYAVVFIIAAVPFVFETELSLPMPMWFPFDWKNSMVAYIGALVFQEIGYVFQIMQCFAADSFPPLVLYLISEQCQLLILRISEIGYGYKTLEENEQDLVNCIRDQNALYRLLDVTKSLVSYPMMVQFMVIGINIAITLFVLIFYVETLYDRIYYLCFLLGITVQTYPLCYYGTMVQESFAELHYAVFCSNWVDQSASYRGHMLILAERTKRMQLLLAGNLVPIHLSTYVACWKGAYSFFTLMADRDGLGS,r
CATS,-0.052903285615459275,-1.1605013482605575,0.01778011601408347,-0.03959813421718139,0.04408177737365637,-0.21036247208862457,-0.07641771515923024,-5.045787809520967,-0.10209313421000155,-0.5925600209572153,-0.00022914240286819876,-0.061836634211735575,MDLKPRVIRSEDIYRTYWLYWHLLGLESNFFLNRLLDLVITIFVTIWYPIHLILGLFMERSLGDVCKGLPITAACFFASFKFICFRFKLSEIKEIEILFKELDQRALSREECEFFNQNTRREANFIWKSFIVAYGLSNISAIASVLFGGGHKLLYPAWFPYDVQATELIFWLSVTYQIAGVSLAILQNLANDSYPPMTFCVVAGHVRLLAMRLSRIGQGPEETIYLTGKQLIESIEDHRKLMKIVELLRSTMNISQLGQFISSGVNISITLVNILFFADNNFAITYYGVYFLSMVLELFPCCYYGTLISVEMNQLTYAIYSSNWMSMNRSYSRILLIFMQLTLAEVQIKAGGMIGIGMNAFFATVRLAYSFFTLAMSLR,r
CATS,0.19717730550061352,-0.8011343588274629,-0.003776513585615371,0.3225654996387042,0.2639258525525259,0.31328641603853913,0.08988527285891379,-2.30302543537351,-0.02079549980320161,-1.1594985307822094,-0.15088391049784966,-0.37146841768054384,MVRYVPRFADGQKVKLAWPLAVFRLNHIFWPLDPSTGKWGRYLDKVLAVAMSLVFMQHNDAELRYLRFEASNRNLDAFLTGMPTYLILVEAQFRSLHILLHFEKLQKFLEIFYANIYIDPRKEPEMFRKVDGKMIINRLVSAMYGAVISLYLIAPVFSIINQSKDFLYSMIFPFDSDPLYIFVPLLLTNVWVGIVIDTMMFGETNLLCELIVHLNGSYMLLKRDLQLAIEKILVARDRPHMAKQLKVLITKTLRKNVALNQFGQQLEAQYTVRVFIMFAFAAGLLCALSFKAYTNPMANYIYAIWFGAKTVELLSLGQIGSDLAFTTDSLSTMYYLTHWEQILQYSTNPSENLRLLKLINLAIEMNSKPFYVTGLKYFRVSLQAGLKILQASFSYFTFLTSMQRRQMSN,r
CATS,0.12173764822544964,-1.2699046114664774,0.06358438137354361,0.1627574755714456,0.1348836161452055,0.12385005899668466,0.1236127090403688,-5.450242582710807,-0.09447394189655633,-0.6548702844126404,-0.09300840710449498,-0.056927841207889296,MTIEDIGLVGINVRMWRHLAVLYPTPGSSWRKFAFVLPVTAMNLMQFVYLLRMWGDLPAFILNMFFFSAIFNALMRTWLVIIKRRQFEEFLGQLATLFHSILDSTDEWGRGILRRAEREARNLAILNLSASFLDIVGALVSPLFREERAHPFGLALPGVSMTSSPVYEVIYLAQLPTPLLLSMMYMPFVSLFAGLAIFGKAMLQILVHRLGQIGGEEQSEEERFQRLASCIAYHTQVMRYVWQLNKLVANIVAVEAIIFGSIICSLLFCLNIITSPTQVISIVMYILTMLYVLFTYYNRANEICLENNRVAEAVYNVPWYEAGTRFRKTLLIFLMQTQHPMEIRVGNVYPMTLAMFQSLLNASYSYFTMLRGVTGK,r
CATS,-0.09215941027007783,-4.289143844192499,0.015678331153729186,-0.4631148510764904,-0.03538376200553306,-0.08660530504606756,0.10862853562397268,-8.787591398199824,-0.022839446571427002,-1.0878697178231795,-0.041841129499382346,-11.505577528868683,MFGHFKLVYPAPISEPIQSRDSNAYMMETLRNSGLNLKNDFGIGRKIWRVFSFTYNMVILPVSFPINYVIHLAEFPPELLLQSLQLCLNTWCFALKFFTLIVYTHRLELANKHFDELDKYCVKPAEKRKVRDMVATITRLYLTFVVVYVLYATSTLLDGLLHHRVPYNTYYPFINWRVDRTQMYIQSFLEYFTVGYAIYVATATDSYPVIYVAALRTHILLLKDRIIYLGDPSNEGSSDPSYMFKSLVDCIKAHRTMLNFCDAIQPIISGTIFAQFIICGSILGIIMINMVLFADQSTRFGIVIYVMAVLLQTFPLCFYCNAIVDDCKELAHALFHSAWWVQDKRYQRTVIQFLQKLQQPMTFTAMNIFNINLATNINVAKFAFTVYAIASGMNLDQKLSIKE,r
CATS,0.0766105098105941,-1.7240675761981383,0.01820631407295281,0.08056004146371831,0.2961195940601975,0.10287358102602562,-0.11470698156992376,-0.5495412748180639,-0.017041698248655646,-0.5437690449401595,-0.04039006025532221,-7.46959580272849,MDSFLQVQKSTIALLGFDLFSENREMWKRPYRAMNVFSIAAIFPFILAAVLHNWKNVLLLADAMVALLITILGLFKFSMILYLRRDFKRLIDKFRLLMSNEAEQGEEYAEILNAANKQDQRMCTLFRTCFLLAWALNSVLPLVRMGLSYWLAGHAEPELPFPCLFPWNIHIIRNYVLSFIWSAFASTGVVLPAVSLDTIFCSFTSNLCAFFKIAQYKVVRFKGGSLKESQATLNKVFALYQTSLDMCNDLNQCYQPIICAQFFISSLQLCMLGYLFSITFAQTEGVYYASFIATIIIQAYIYCYCGENLKTESASFEWAIYDSPWHESLGAGGASTSICRSLLISMMRAHRGFRITGYFFEANMEAFSSIVRTAMSYITMLRSFS,r
CATS,-0.0006223969988767619,-0.6213967579976294,-0.0241548638623148,0.043202114065419184,0.000741623898133259,-0.054304558969811234,0.03140369987418978,-0.043719412025987614,-0.025717678218928786,-1.9289155021315239,-0.0020277351641730945,-1.1066034624475338,MNDSGYQSNLSLLRVFLDEFRSVLRQESPGLIPRLAFYYVRAFLSLLCQYPNKKLASLPLYRWINLFIMCNVMTIFWTMFVALPESKNVIEMGDDLVWISGMALVFTKIFYMHLRCDEIDELISDFEYYNRELRPHNIDEEVLGWQRLCYVIESGLYINCFCLVNFFSAAIFLQPLLGEGKLPFHSVYPFQWHRLDLHPYTFWFLYIWQSLTSQHNLMSILMVDMVGISTFLQTALNLKLLCIEIRKLGDMEVSDKRFHEEFCRVVRFHQHIIKLVGKANRAFNGAFNAQLMASFSLISISTFETMAAAAVDPKMAAKFVLLMLVAFIQLSLWCVSGTLVYTQSVEVAQAAFDINDWHTKSPGIQRDISFVILRAQKPLMYVAEPFLPFTLGTYMLVLKNCYRLLALMQESM,r
CATS,0.031680046121127736,-1.5375397427949242,-0.005182774888815134,-0.2420087976666685,0.2189720410542917,0.19202676974313593,-0.0054070076363053055,-6.824931567738417,-0.613445905734568,-0.24037328432301508,-0.02290826255869538,0.013960306380074061,MFEDIQLIYMNIKILRFWALLYDKNLRRYVCIGLASFHIFTQIVYMMSTNEGLTGIIRNSYMLVLWINTVLRAYLLLADHDRYLALIQKLTEAYYDLLNLNDSYISEILDQVNKVGKLMARGNLFFGMLTSMGFGLYPLSSSERVLPFGSKIPGLNEYESPYYEMWYIFQMLITPMGCCMYIPYTSLIVGLIMFGIVRCKALQHRLRQVALKHPYGDRDPRELREEIIACIRYQQSIIEYMDHINELTTMMFLFELMAFSALLCALLFMLIIVSGTSQLIIVCMYINMILAQILALYWYANELREQNLAVATAAYETEWFTFDVPLRKNILFMMMRAQRPAAILLGNIRPITLELFQNLLNTTYTFFTVLKRVYG,r
CATS,-0.2842444447325587,-0.8309562690723847,-0.1895216587257904,-1.4583054335982997,0.11593053511832363,0.07565713533538676,0.0350171982075862,-0.2332083172868551,-0.03406381019738247,-0.24769516750532405,0.04569108204173378,-3.6855051324140957,MAVFKLIKPAPLTEKVQSRQGNIYLYRAMWLIGWIPPKEGVLRYVYLFWTCVPFAFGVFYLPVGFIISYVQEFKNFTPGEFLTSLQVCINVYGASVKSTITYLFLWRLRKTEILLDSLDKRLANDSDRERIHNMVARCNYAFLIYSFIYCGYAGSTFLSYALSGRPPWSVYNPFIDWRDGMGSLWIQAIFEYITMSFAVLQDQLSDTYPLMFTIMFRAHMEVLKDHVRSLRMDPERSEADNYQDLVNCVLDHKTILKCCDMIRPMISRTIFVQFALIGSVLGLTLVNVFFFSNFWKGVASLLFVITILLQTFPFCYTCNMLIDDAQDLSNEIFQSNWVDAEPRYKATLVLFMHHVQQPIIFIAGGIFPISMNSNITVAKFAFSIITIVRQMNLAEQFQ,r
CATS,0.04299680888141337,-0.3292342340746028,0.08372087287221097,0.08981242108660448,0.0011393676804462016,0.12242425093177167,-0.08211286816396646,-1.1705986854838555,-0.014753905745130025,-0.10657729777105596,-0.016627884949114158,-0.33761339642385835,MTELRSERKNGNWDRLFGPFFESWAVFKAPQAKSRHIIAYWTRDQLKALGFYMNSEQRRLPRIVAWQYFVSIQLATALASLFYGISESIGDIVNLGRDLVFIITIIFICFRLVFFAQYAGELDVIIDALEDIYHWSIKGPATKEVQETKRLHFLLFMALIITWFSFLILFMLIKISTPFWIESQTLPFHVSWPFQLHDPSKHPIAYIIIFVSQSTTMLYFLIWLGVVENMGVSLFFELTSALRVLCIELRNLQELCLGDEDMLYRELCRMTKFHQQIILLTDRCNHIFNGAFIMQMLINFLLVSLSLFEVLAAKKNPQVAVEYMIIMLMTLGHLSFWSKFGDMFSKESEQVALAVYEAYDPNVGSKSIHRQFCFFIQRAQKPLIMKASPFPPFNLENYMFILKQCYSILTILANTLE,r
CATS,0.1931601074728424,-0.36498097438350036,0.1950489800900448,0.22499395041534254,0.24105763162324967,0.1866982382795026,0.11800173695607241,-2.0123482559225336,0.1377997355016225,-0.37652647797446304,0.25100262902299564,0.1751674974548768,MDNVAEMPEEKYVEVDDFLRLAVKFYNTLGIDPYETGRKRTIWFQIYFALNMFNMVFSFYAEVATLVDRLRDNENFLESCILLSYVSFVVMGLSKIGAVMKKKPKMTALVRQLETCFPSPSAKVQEEYAVKSWLKRCHIYTKGFGGLFMIMYFAHALIPLFIYFIQRVLLHYPDAKQIMPFYQLEPWEFRDSWLFYPSYFHQSSAGYTATCGSIAGDLMIFAVVLQVIMHYERLAKVLREFKIQAHNAPNGAKEDIRKLQSLVANHIDILRLTDLMNEVFGIPLLLNFIASALLVCLVGVQLTIALSPEYFCKQMLFLISVLLEVYLLCSFSQRLIDASENVGHAAYDMDWLGSDKRFKKILIFISMRSQKPVCLKATVVLDLSMPTMSIFLGMSYKFFCAVRTMYQ,r
CATS,0.03237824670373746,-1.8452006853370897,0.029308175702663197,-0.13863750329474955,0.030137654535775327,-0.016996760505988417,0.25807966708098673,-5.866066596295531,-0.003367646264042623,-0.7319054540109866,-0.010030710560726908,-2.6146330195541605,METAKDNTARTFMELMRVPVQFYRTIGEDIYAHRSTNPLKSLLFKIYLYAGFINFNLLVIGELVFFYNSIQDFETIRLAIAVAPCIGFSLVADFKQAAMIRGKKTLIMLLDDLENMHPKTLAKQMEYKLPDFEKTMKRVINIFTFLCLAYTTTFSFYPAIKASVKFNFLGYDTFDRNFGFLIWFPFDATRNNLIYWIMYWDIAHGAYLAGIAFLCADLLLVVVITQICMHFNYISMRLEDHPCNSNEDKENIEFLIGIIRYHDKCLKLCEHVNDLYSFSLLLNFLMASMQICFIAFQVTESTVEVIIIYCIFLMTSMVQVFMVCYYGDTLIAASLKVGDAAYNQKWFQCSKSYCTMLKLLIMRSQKPASIRPPTFPPISLVTYMKVISMSYQFFALLRTTYSNN,r
CATS,-0.13380759993006405,-0.8516663686551696,0.035502694749628305,-0.008277497273387002,-0.10408620987148809,-0.6052150212152125,0.013038033960139028,-0.44367598836637034,-0.001274496938062697,-1.8479379495885428,-0.0249946944561672,-1.9404487139267053,MGRLFQLQEYCLRAMGHKDDMDSTDSTALSLKHISSLIFVISAQYPLISYVAYNRNDMEKVTACLSVVFTNMLTVIKISTFLANRKDFWEMIHRFRKMHEQSASHIPRYREGLDYVAEANKLASFLGRAYCVSCGLTGLYFMLGPIVKIGVCRWHGTTCDKELPMPMKFPFNDLESPGYEVCFLYTVLVTVVVVAYASAVDGLFISFAINLRAHFQTLQRQIENWEFPSSEPDTQIRLKSIVEYHVLLLSLSRKLRSIYTPTVMGQFVITSLQVGVIIYQLVTNMDSVMDLLLYASFFGSIMLQLFIYCYGGEIIKAESLQVDTAVRLSNWHLASPKTRTSLSLIILQSQKEVLIRAGFFVASLANFVGICRTALSLITLIKSIE,r
CATS,-4.0859352408503575,-1.753144903677257,-0.029508714637640265,-19.79203339450088,-0.35953746619986693,-0.25405850600943425,0.005461877096035184,-4.539560754818902,-5.762590985058935e-05,-0.18993387745058588,-0.05679598935589669,-3.9793762708510494,MIFKYIQEPVLGSLFRSRDSLIYLNRSIDQMGWRLPPRTKPYWWLYYIWTLVVIVLVFIFIPYGLIMTGIKEFKNFTTTDLFTYVQVPVNTNASIMKGIIVLFMRRRFSRAQKMMDAMDIRCTKMEEKVQVHRAAALCNRVVVIYHCIYFGYLSMALTGALVIGKTPFCLYNPLVNPDDHFYLATAIESVTMAGIILANLILDVYPIIYVVVLRIHMELLSERIKTLRTDVEKGDDQHYAELVECVKDHKLIVEYGNTLRPMISATMFIQLLSVGLLLGLAAVSMQFYNTVMERVVSGVYTIAILSQTFPFCYVCEQLSSDCESLTNTLFHSKWIGAERRYRTTMLYFIHNVQQSILFTAGGIFPICLNTNIKMAKFAFSVVTIVNEMDLAEKLRRE,r
CATS,0.13702310741250442,-2.063905503871701,0.10998251187591246,-0.022385590310309844,0.17624353814410698,0.3140363219839739,0.10723875536883865,-8.722282894802245,-0.062143814817888554,-0.4951001163261477,-0.011435562587063686,-1.0285651308251587,MEKLMKYASFFYTAVGIRPYTNGEESKMNKLIFHIVFWSNVINLSFVGLFESIYVYSAFMDNKFLEAVTALSYIGFVTVGMSKMFFIRWKKTAITELINELKEIYPNGLIREERYNLPMYLGTCSRISLIYSLLYSVLIWTFNLFCVMEYWVYDKWLNIRVVGKQLPYLMYIPWKWQDNWSYYPLLFSQNFAGYTSAAGQISTDVLLCAVATQLVMHFDFLSNSMERHELSGDWKKDSRFLVDIVRYHERILRLSDAVNDIFGIPLLLNFMVSSFVICFVGFQMTVGVPPDIVVKLFLFLVSSMSQVYLICHYGQLVADASYGFSVATYNQKWYKADVRYKRALVIIIARSQKVTFLKATIFLDITRSTMTDLLQISYKFFALLRTMYTQ,r
CATS,0.02362996912887161,-0.4709308016977666,0.0345348914686564,-0.1928979532091175,0.17642118013804275,-0.11879579921652828,0.21888752646330467,-1.7049896778981668,-0.03221225864603694,-0.5883044298164244,-0.005527609952684642,-0.023620032175520222,MEPVQYSYEDFARLPTTVFWIMGYDMLGVPKTRSRRILYWIYRFLCLASHGVCVGVMVFRMVEAKTIDNVSLIMRYATLVTYIINSDTKFATVLQRSAIQSLNSKLAELYPKTTLDRIYHRVNDHYWTKSFVYLVIIYIGSSIMVVIGPIITSIIAYFTHNVFTYMHCYPYFLYDPEKDPVWIYISIYALEWLHSTQMVISNIGADIWLLYFQVQINLHFRGIIRSLADHKPSVKHDQEDRKFIAKIVDKQVHLVSLQNDLNGIFGKSLLLSLLTTAAVICTVAVYTLIQGPTLEGFTYVIFIGTSVMQVYLVCYYGQQVLDLSGEVAHAVYNHDFHDASIAYKRYLLIIIIRAQQPVELNAMGYLSISLDTFKQLMSVSYRVITMLMQMIQ,r
CATS,-0.13056863143083086,-0.08073339981993825,-0.00965950665516968,-0.3563104357940172,-0.03167354526332833,-0.281749980397878,0.026550310956238943,0.01437928643859876,-0.009456535133949062,-0.04358228048274948,-0.23366097814261422,-0.13134649177897728,MKPTEIKKPYRMEEFLRPQMFQEVAQMVHFQWRRNPVDNSMVNASMVPFCLSAFLNVLFFGCNGWDIIGHFWLGHPANQNPPVLSITIYFSIRGLMLYLKRKEIVEFVNDLDRECPRDLVSQLDMQMDETYRNFWQRYRFIRIYSHLGGPMFCVVPLALFLLTHEGKDTPVAQHEQLLGGWLPCGVRKDPNFYLLVWSFDLMCTTCGVSFFVTFDNLFNVMQGHLVMHLGHLARQFSAIDPRQSLTDEKRFFVDLRLLVQRQQLLNGLCRKYNDIFKVAFLVSNFVGAGSLCFYLFMLSETSDVLIIAQYILPTLVLVGFTFEICLRGTQLEKASEGLESSLRSQEWYLGSRRYRKFYLLWTQYCQRTQQLGAFGLIQVNMVHFTEIMQLAYRLFTFLKSH,r
CATS,-0.06968865181504702,-3.805068649166313,-0.013929773707608728,-0.8677848184672858,0.27961698104906485,0.0717168278522815,0.1819375241983131,-15.897539131704598,-0.017114368749561182,-0.8623681873650113,-0.05807248102562146,-2.1902490769867713,MLFNYLRKPNPTNLLTSPDSFRYFEYGMFCMGWHTPATHKIIYYITSCLIFAWCAVYLPIGIIISFKTDINTFTPNELLTVMQLFFNSVGMPFKVLFFNLYISGFYKAKKLLSEMDKRCTTLKERVEVHQGVVRCNKAYLIYQFIYTAYTISTFLSAALSGKLPWRIYNPFVDFRESRSSFWKAALNETALMLFAVTQTLMSDIYPLLYGLILRVHLKLLRLRVESLCTDSGKSDAENEQDLIKCIKDHNLIIDYAAAIRPAVTRTIFVQFLLIGICLGLSMINLLFFADIWTGLATVAYINGLMVQTFPFCFVCDLLKKDCELLVSAIFHSNWINSSRSYKSSLRYFLKNAQKSIAFTAGSIFPISTGSNIKVAKLAFSVVTFVNQLNIADRLTKN,r
MordredDescriptors,0.4233386806122647,-3.737358130238685,0.3589208516484863,0.40924553768424343,0.4916022349731256,0.4147305366687867,0.44219424208668134,-14.810659425664015,-0.31292810972464835,-1.2905012966904779,-0.007656933278710865,-2.265044885835575,MEKQEDFKLNTHSAVYYHWRVWELTGLMRPPGVSSLLYVVYSITVNLVVTVLFPLSLLARLLFTTNMAGLCENLTITITDIVANLKFANVYMVRKQLHEIRSLLRLMDARARLVGDPEEISALRKEVNIAQGTFRTFASIFVFGTTLSCVRVVVRPDRELLYPAWFGVDWMHSTRNYVLINIYQLFGLIVQAIQNCASDSYPPAFLCLLTGHMRALELRVRRIGCRTEKSNKGQTYEAWREEVYQELIECIRDLARVHRLREIIQRVLSVPCMAQFVCSAAVQCTVAMHFLYVADDHDHTAMIISIVFFSAVTLEVFVICYFGDRMRTQSEALCDAFYDCNWIEQLPKFKRELLFTLARTQRPSLIYAGNYIALSLETFEQVMRFTYSVFTLLLRAK,r
MordredDescriptors,0.24221480632762776,-0.5736674231132567,0.24237676799078745,0.29999855171258927,0.2053195158779847,0.3206906885054335,0.14268850755134388,-2.447609581091559,-0.2725753526446004,0.1333172734262068,-0.5095459481567506,0.22807649290041931,MAVSTRVATKQEVPESRRAFRNLFNCFYALGMQAPDGSRPTTSSTWQRIYACFSVVMYVWQLLLVPTFFVISYRYMGGMEITQVLTSAQVAIDAVILPAKIVALAWNLPLLRRAEHHLAALDARCREQEEFQLILDAVRFCNYLVWFYQICYAIYSSSTFVCAFLLGQPPYALYLPGLDWQRSQMQFCIQAWIEFLIMNWTCLHQASDDVYAVIYLYVVRIQVQLLARRVEKLGTDDSGQVEIYPDERRQEEHCAELQRCIVDHQTMLQLLDCISPVISRTIFVQFLITAAIMGTTMINIFIFANTNTKIASIIYLLAVTLQTAPCCYQATSLMLDNERLALAIFQCQWLGQSARFRKMLLYYLHRAQQPITLTAMKLFPINLATYFSIAKFSFSLYTLIKGMNLGERFNRTN,r
MordredDescriptors,0.28379191446493474,-0.7565751357946231,0.12329131785762149,0.24387052208854965,0.35030210874310674,0.28547603315672143,0.41601959047867454,-2.7622989072687285,0.015116923927892878,-0.953212513454756,0.030317323645612015,-0.11279850582313555,MSDKVKGKKQEEKDQSLRVQILVYRCMGIDLWSPTMANDRPWLTFVTMGPLFLFMVPMFLAAHEYITQVSLLSDTLGSTFASMLTLVKFLLFCYHRKEFVGLIYHIRAILAKEIEVWPDAREIIEVENQSDQMLSLTYTRCFGLAGIFAALKPFVGIILSSIRGDEIHLELPHNGVYPYDLQVVMFYVPTYLWNVMASYSAVTMALCVDSLLFFFTYNVCAIFKIAKHRMIHLPAVGGKEELEGLVQVLLLHQKGLQIADHIADKYRPLIFLQFFLSALQICFIGFQVADLFPNPQSLYFIAFVGSLLIALFIYSKCGENIKSASLDFGNGLYETNWTDFSPPTKRALLIAAMRAQRPCQMKGYFFEASMATFSTIVRSAVSYIMMLRSFNA,r
MordredDescriptors,-0.1754019137838961,-0.2998288557981851,0.22080458144263815,0.4598794143241013,0.2494498521128493,0.30412984020323486,-2.111273257002304,0.06905747502959159,-1.2449045275133068,0.04078144673791706,-0.020101380422090642,-0.34397729282303646,MSEWLRFLKRDQQLDVYFFAVPRLSLDIMGYWPGKTGDTWPWRSLIHFAILAIGVATELHAGMCFLDRQQITLALETLCPAGTSAVTLLKMFLMLRFRQDLSIMWNRLRGLLFDPNWERPEQRDIRLKHSAMAARINFWPLSAGFFTCTTYNLKPILIAMILYLQNRYEDFVWFTPFNMTMPKVLLNYPFFPLTYIFIAYTGYVTIFMFGGCDGFYFEFCAHLSALFEVLQAEIESMFRPYTDHLELSPVQLYILEQKMRSVIIRHNAIIDLTRFFRDRYTIITLAHFVSAAMVIGFSMVNLLTLGNNGLGAMLYVAYTVAALSQLLVYCYGGTLVAESSTGLCRAMFSCPWQLFKPKQRRLVQLLILRSQRPVSMAVPFFSPSLATFAAILQTSGSIIALVKSFQ,r
MordredDescriptors,0.20948810979714177,-0.9276689256010382,0.1984469342080767,0.27343054948281365,0.2736792815438319,0.23881090663038995,0.06307287712059662,-3.3832092750668616,0.004390465671394894,-0.8272668624207911,-0.4161013875358326,-0.016157568653101695,MDISKVDSTRALVNHWRIFRIMGIHPPGKRTFWGRHYTAYSMVWNVTFHICIWVSFSVNLLQSNSLETFCESLCVTMPHTLYMLKLINVRRMRGQMISSHWLLRLLDKRLGCDDERQIIMAGIERAEFIFRTIFRGLACTVVLGIIYISASSEPTLMYPTWIPWNWRDSTSAYLATAMLHTTALMANATLVLNLSSYPGTYLILVSVHTKALALRVSKLGYGAPLPAVRMQAILVGYIHDHQIILRLFKSLERSLSMTCFLQFFSTACAQCTICYFLLFGNVGIMRFMNMLFLLVILTTETLLLCYTAELPCKEGESLLTAVYSCNWLSQSVNFRRLLLLMLARCQIPMILVSGVIVPISMKTFTVMIKGAYTMLTLLNEIRKTSLE,r
MordredDescriptors,0.4021387688954192,-1.595274805787041,0.4987444717218541,0.37120385803544753,0.5176084180960592,0.24012321536003944,0.38301388126369584,-6.450262231523313,0.057381917608606337,0.01819140244686812,-0.24684256839645902,-1.3548425490709075,MLSKFFPHIKEKPLSERVKSRDAFIYLDRVMWSFGWTEPENKRWILPYKLWLAFVNIVMLILLPISISIEYLHRFKTFSAGEFLSSLEIGVNMYGSSFKCAFTLIGFKKRQEAKVLLDQLDKRCLSDKERSTVHRYVAMGNFFDILYHIFYSTFVVMNFPYFLLERRHAWRMYFPYIDSDEQFYISSIAECFLMTEAIYMDLCTDVCPLISMLMARCHISLLKQRLRNLRSKPGRTEDEYLEELTECIRDHRLLLDYVDALRPVFSGTIFVQFLLIGTVLGLSMINLMFFSTFWTGVATCLFMFDVSMETFPFCYLCNMIIDDCQEMSNCLFQSDWTSADRRYKSTLVYFLHNLQQPITLTAGGVFPISMQTNLAMVKLAFSVVTVIKQFNLAERFQ,r
MordredDescriptors,0.2230516729567741,-4.762752175127753,0.3178334978705992,0.17154288891848346,0.2800064729318179,0.10323870975213356,0.24263679531083637,-20.55503881155917,-0.06811767346082531,-1.0171801303550039,-0.1492483387190735,-2.024175921544689,MKLSETLKIDYFRVQLNAWRICGALDLSEGRYWSWSMLLCILVYLPTPMLLRGVYSFEDPVENNFSLSLTVTSLSNLMKFCMYVAQLTKMVEVQSLIGQLDARVSGESQSERHRNMTEHLLRMSKLFQITYAVVFIIAAVPFVFETELSLPMPMWFPFDWKNSMVAYIGALVFQEIGYVFQIMQCFAADSFPPLVLYLISEQCQLLILRISEIGYGYKTLEENEQDLVNCIRDQNALYRLLDVTKSLVSYPMMVQFMVIGINIAITLFVLIFYVETLYDRIYYLCFLLGITVQTYPLCYYGTMVQESFAELHYAVFCSNWVDQSASYRGHMLILAERTKRMQLLLAGNLVPIHLSTYVACWKGAYSFFTLMADRDGLGS,r
MordredDescriptors,0.03307296879407791,-1.1386190579870372,-0.07796307116349266,0.17119839049274987,0.3043522805865978,-0.2108809494590278,-0.021341806486437687,-4.993358430364266,-0.10209296130203915,-0.592559864653472,-0.00022906800813315975,-0.00485496560727583,MDLKPRVIRSEDIYRTYWLYWHLLGLESNFFLNRLLDLVITIFVTIWYPIHLILGLFMERSLGDVCKGLPITAACFFASFKFICFRFKLSEIKEIEILFKELDQRALSREECEFFNQNTRREANFIWKSFIVAYGLSNISAIASVLFGGGHKLLYPAWFPYDVQATELIFWLSVTYQIAGVSLAILQNLANDSYPPMTFCVVAGHVRLLAMRLSRIGQGPEETIYLTGKQLIESIEDHRKLMKIVELLRSTMNISQLGQFISSGVNISITLVNILFFADNNFAITYYGVYFLSMVLELFPCCYYGTLISVEMNQLTYAIYSSNWMSMNRSYSRILLIFMQLTLAEVQIKAGGMIGIGMNAFFATVRLAYSFFTLAMSLR,r
MordredDescriptors,0.26937452676152124,-0.7521077345052799,0.07262298927001942,0.4391668627344224,0.2585873189859309,0.48551311614205206,0.09098234667518124,-2.170753596714001,-0.020795229688862493,-1.15949823113035,-0.1508837360760833,-0.25860787891710246,MVRYVPRFADGQKVKLAWPLAVFRLNHIFWPLDPSTGKWGRYLDKVLAVAMSLVFMQHNDAELRYLRFEASNRNLDAFLTGMPTYLILVEAQFRSLHILLHFEKLQKFLEIFYANIYIDPRKEPEMFRKVDGKMIINRLVSAMYGAVISLYLIAPVFSIINQSKDFLYSMIFPFDSDPLYIFVPLLLTNVWVGIVIDTMMFGETNLLCELIVHLNGSYMLLKRDLQLAIEKILVARDRPHMAKQLKVLITKTLRKNVALNQFGQQLEAQYTVRVFIMFAFAAGLLCALSFKAYTNPMANYIYAIWFGAKTVELLSLGQIGSDLAFTTDSLSTMYYLTHWEQILQYSTNPSENLRLLKLINLAIEMNSKPFYVTGLKYFRVSLQAGLKILQASFSYFTFLTSMQRRQMSN,r
MordredDescriptors,0.20121620410457206,-1.4809529657678038,0.18688537512619408,-0.1394651013458481,0.3792170734343483,0.1042875813980505,0.47515609191011554,-6.561433655780056,-0.058458924617879715,-0.63493666633841,-0.0930080177868069,-0.05692756431586621,MTIEDIGLVGINVRMWRHLAVLYPTPGSSWRKFAFVLPVTAMNLMQFVYLLRMWGDLPAFILNMFFFSAIFNALMRTWLVIIKRRQFEEFLGQLATLFHSILDSTDEWGRGILRRAEREARNLAILNLSASFLDIVGALVSPLFREERAHPFGLALPGVSMTSSPVYEVIYLAQLPTPLLLSMMYMPFVSLFAGLAIFGKAMLQILVHRLGQIGGEEQSEEERFQRLASCIAYHTQVMRYVWQLNKLVANIVAVEAIIFGSIICSLLFCLNIITSPTQVISIVMYILTMLYVLFTYYNRANEICLENNRVAEAVYNVPWYEAGTRFRKTLLIFLMQTQHPMEIRVGNVYPMTLAMFQSLLNASYSYFTMLRGVTGK,r
MordredDescriptors,0.1394752256921864,-5.5301725510013595,0.07524318237935879,-0.16240792964837136,0.08865744257167985,0.2608490140270121,0.4350344191312526,-14.992742899826785,-0.022839375523910244,-1.0878693659516423,-0.041840965113755235,-11.505570148590703,MFGHFKLVYPAPISEPIQSRDSNAYMMETLRNSGLNLKNDFGIGRKIWRVFSFTYNMVILPVSFPINYVIHLAEFPPELLLQSLQLCLNTWCFALKFFTLIVYTHRLELANKHFDELDKYCVKPAEKRKVRDMVATITRLYLTFVVVYVLYATSTLLDGLLHHRVPYNTYYPFINWRVDRTQMYIQSFLEYFTVGYAIYVATATDSYPVIYVAALRTHILLLKDRIIYLGDPSNEGSSDPSYMFKSLVDCIKAHRTMLNFCDAIQPIISGTIFAQFIICGSILGIIMINMVLFADQSTRFGIVIYVMAVLLQTFPLCFYCNAIVDDCKELAHALFHSAWWVQDKRYQRTVIQFLQKLQQPMTFTAMNIFNINLATNINVAKFAFTVYAIASGMNLDQKLSIKE,r
MordredDescriptors,0.25176718914621665,-1.728338460677899,0.2761951173906131,0.28493452580876977,0.27635901165565613,0.26052074196025554,0.16082654891578874,-0.5708940241668901,-0.01704169146588108,-0.5437689326229009,-0.04038992108049677,-7.469597734053327,MDSFLQVQKSTIALLGFDLFSENREMWKRPYRAMNVFSIAAIFPFILAAVLHNWKNVLLLADAMVALLITILGLFKFSMILYLRRDFKRLIDKFRLLMSNEAEQGEEYAEILNAANKQDQRMCTLFRTCFLLAWALNSVLPLVRMGLSYWLAGHAEPELPFPCLFPWNIHIIRNYVLSFIWSAFASTGVVLPAVSLDTIFCSFTSNLCAFFKIAQYKVVRFKGGSLKESQATLNKVFALYQTSLDMCNDLNQCYQPIICAQFFISSLQLCMLGYLFSITFAQTEGVYYASFIATIIIQAYIYCYCGENLKTESASFEWAIYDSPWHESLGAGGASTSICRSLLISMMRAHRGFRITGYFFEANMEAFSSIVRTAMSYITMLRSFS,r
MordredDescriptors,0.2256401831336535,-0.4369538249287254,0.2677957802289723,0.38400638709329904,0.234799619602866,0.11716405759109094,0.12443507115203911,-0.15234234089663046,-0.021409655734677235,-1.2288424151778816,0.18340805931135828,-0.9655827721457959,MNDSGYQSNLSLLRVFLDEFRSVLRQESPGLIPRLAFYYVRAFLSLLCQYPNKKLASLPLYRWINLFIMCNVMTIFWTMFVALPESKNVIEMGDDLVWISGMALVFTKIFYMHLRCDEIDELISDFEYYNRELRPHNIDEEVLGWQRLCYVIESGLYINCFCLVNFFSAAIFLQPLLGEGKLPFHSVYPFQWHRLDLHPYTFWFLYIWQSLTSQHNLMSILMVDMVGISTFLQTALNLKLLCIEIRKLGDMEVSDKRFHEEFCRVVRFHQHIIKLVGKANRAFNGAFNAQLMASFSLISISTFETMAAAAVDPKMAAKFVLLMLVAFIQLSLWCVSGTLVYTQSVEVAQAAFDINDWHTKSPGIQRDISFVILRAQKPLMYVAEPFLPFTLGTYMLVLKNCYRLLALMQESM,r
MordredDescriptors,-0.04406197402692451,-1.6294609862905698,0.1410384843434872,-0.9035326901171976,0.34112626998700646,0.2064650359325465,-0.0054069702804651065,-7.314299956447915,-0.6291899779134089,-0.12844528071512706,-0.026677528296811248,-0.04869218807958675,MFEDIQLIYMNIKILRFWALLYDKNLRRYVCIGLASFHIFTQIVYMMSTNEGLTGIIRNSYMLVLWINTVLRAYLLLADHDRYLALIQKLTEAYYDLLNLNDSYISEILDQVNKVGKLMARGNLFFGMLTSMGFGLYPLSSSERVLPFGSKIPGLNEYESPYYEMWYIFQMLITPMGCCMYIPYTSLIVGLIMFGIVRCKALQHRLRQVALKHPYGDRDPRELREEIIACIRYQQSIIEYMDHINELTTMMFLFELMAFSALLCALLFMLIIVSGTSQLIIVCMYINMILAQILALYWYANELREQNLAVATAAYETEWFTFDVPLRKNILFMMMRAQRPAAILLGNIRPITLELFQNLLNTTYTFFTVLKRVYG,r
MordredDescriptors,-0.11180908934543317,-0.9554173054918115,-0.249388693696442,-0.9396422447408883,0.24497083710283463,0.12125469902075336,0.2637599555865765,-1.425758905308085,0.019321931767190215,-0.21596147387480458,0.02806193533886947,-3.1827500153822275,MAVFKLIKPAPLTEKVQSRQGNIYLYRAMWLIGWIPPKEGVLRYVYLFWTCVPFAFGVFYLPVGFIISYVQEFKNFTPGEFLTSLQVCINVYGASVKSTITYLFLWRLRKTEILLDSLDKRLANDSDRERIHNMVARCNYAFLIYSFIYCGYAGSTFLSYALSGRPPWSVYNPFIDWRDGMGSLWIQAIFEYITMSFAVLQDQLSDTYPLMFTIMFRAHMEVLKDHVRSLRMDPERSEADNYQDLVNCVLDHKTILKCCDMIRPMISRTIFVQFALIGSVLGLTLVNVFFFSNFWKGVASLLFVITILLQTFPFCYTCNMLIDDAQDLSNEIFQSNWVDAEPRYKATLVLFMHHVQQPIIFIAGGIFPISMNSNITVAKFAFSIITIVRQMNLAEQFQ,r
MordredDescriptors,0.0723223801377906,-0.2785874078703878,0.14471210703001347,0.1501764971890065,0.06206600475824953,0.11553321197742539,-0.11087592026574189,-0.9955455885846203,-0.002593970388840683,-0.03895882972688769,-0.016627837310982496,-0.339210813340608,MTELRSERKNGNWDRLFGPFFESWAVFKAPQAKSRHIIAYWTRDQLKALGFYMNSEQRRLPRIVAWQYFVSIQLATALASLFYGISESIGDIVNLGRDLVFIITIIFICFRLVFFAQYAGELDVIIDALEDIYHWSIKGPATKEVQETKRLHFLLFMALIITWFSFLILFMLIKISTPFWIESQTLPFHVSWPFQLHDPSKHPIAYIIIFVSQSTTMLYFLIWLGVVENMGVSLFFELTSALRVLCIELRNLQELCLGDEDMLYRELCRMTKFHQQIILLTDRCNHIFNGAFIMQMLINFLLVSLSLFEVLAAKKNPQVAVEYMIIMLMTLGHLSFWSKFGDMFSKESEQVALAVYEAYDPNVGSKSIHRQFCFFIQRAQKPLIMKASPFPPFNLENYMFILKQCYSILTILANTLE,r
MordredDescriptors,0.2164499808587304,-0.4265336028265999,0.26290601892364407,0.009414166735020157,0.2757648398348739,0.32327889373928187,0.21088598506083212,-1.5322438774425629,-0.13367935747917992,-0.25795863413461073,-0.15399561516420301,-0.05479052991244293,MDNVAEMPEEKYVEVDDFLRLAVKFYNTLGIDPYETGRKRTIWFQIYFALNMFNMVFSFYAEVATLVDRLRDNENFLESCILLSYVSFVVMGLSKIGAVMKKKPKMTALVRQLETCFPSPSAKVQEEYAVKSWLKRCHIYTKGFGGLFMIMYFAHALIPLFIYFIQRVLLHYPDAKQIMPFYQLEPWEFRDSWLFYPSYFHQSSAGYTATCGSIAGDLMIFAVVLQVIMHYERLAKVLREFKIQAHNAPNGAKEDIRKLQSLVANHIDILRLTDLMNEVFGIPLLLNFIASALLVCLVGVQLTIALSPEYFCKQMLFLISVLLEVYLLCSFSQRLIDASENVGHAAYDMDWLGSDKRFKKILIFISMRSQKPVCLKATVVLDLSMPTMSIFLGMSYKFFCAVRTMYQ,r
MordredDescriptors,0.3344325396996176,-2.3373873668792378,0.19357154101095264,0.3059155765242825,0.36536862445424745,0.2892591387988339,0.5180478177097718,-8.243053844431481,-0.0033672702441631674,-0.7319051237241798,-0.010030609983701755,-2.6985799860126627,METAKDNTARTFMELMRVPVQFYRTIGEDIYAHRSTNPLKSLLFKIYLYAGFINFNLLVIGELVFFYNSIQDFETIRLAIAVAPCIGFSLVADFKQAAMIRGKKTLIMLLDDLENMHPKTLAKQMEYKLPDFEKTMKRVINIFTFLCLAYTTTFSFYPAIKASVKFNFLGYDTFDRNFGFLIWFPFDATRNNLIYWIMYWDIAHGAYLAGIAFLCADLLLVVVITQICMHFNYISMRLEDHPCNSNEDKENIEFLIGIIRYHDKCLKLCEHVNDLYSFSLLLNFLMASMQICFIAFQVTESTVEVIIIYCIFLMTSMVQVFMVCYYGDTLIAASLKVGDAAYNQKWFQCSKSYCTMLKLLIMRSQKPASIRPPTFPPISLVTYMKVISMSYQFFALLRTTYSNN,r
MordredDescriptors,-0.05372902498495722,-0.784669277597396,-0.0005622271519891697,-0.004652027344408616,-0.0926487490194281,-0.16028478603266572,-0.010497335376294492,-0.05643438136328327,-0.0012744548295753333,-1.8479380454559045,-0.024994982027277013,-1.9927045243109398,MGRLFQLQEYCLRAMGHKDDMDSTDSTALSLKHISSLIFVISAQYPLISYVAYNRNDMEKVTACLSVVFTNMLTVIKISTFLANRKDFWEMIHRFRKMHEQSASHIPRYREGLDYVAEANKLASFLGRAYCVSCGLTGLYFMLGPIVKIGVCRWHGTTCDKELPMPMKFPFNDLESPGYEVCFLYTVLVTVVVVAYASAVDGLFISFAINLRAHFQTLQRQIENWEFPSSEPDTQIRLKSIVEYHVLLLSLSRKLRSIYTPTVMGQFVITSLQVGVIIYQLVTNMDSVMDLLLYASFFGSIMLQLFIYCYGGEIIKAESLQVDTAVRLSNWHLASPKTRTSLSLIILQSQKEVLIRAGFFVASLANFVGICRTALSLITLIKSIE,r
MordredDescriptors,-0.07996155909965179,-2.2719478783383193,0.02103768579334475,-0.495226180042885,-0.09620040819431197,0.0910931787408974,0.07948792820469586,-7.133578433820167,-5.732573801497942e-05,-0.18993383119177332,-0.05679599170481975,-3.9793738092368214,MIFKYIQEPVLGSLFRSRDSLIYLNRSIDQMGWRLPPRTKPYWWLYYIWTLVVIVLVFIFIPYGLIMTGIKEFKNFTTTDLFTYVQVPVNTNASIMKGIIVLFMRRRFSRAQKMMDAMDIRCTKMEEKVQVHRAAALCNRVVVIYHCIYFGYLSMALTGALVIGKTPFCLYNPLVNPDDHFYLATAIESVTMAGIILANLILDVYPIIYVVVLRIHMELLSERIKTLRTDVEKGDDQHYAELVECVKDHKLIVEYGNTLRPMISATMFIQLLSVGLLLGLAAVSMQFYNTVMERVVSGVYTIAILSQTFPFCYVCEQLSSDCESLTNTLFHSKWIGAERRYRTTMLYFIHNVQQSILFTAGGIFPICLNTNIKMAKFAFSVVTIVNEMDLAEKLRRE,r
MordredDescriptors,0.1946874512743115,-1.2112640070841367,0.1565929567205494,-0.07582103209402735,0.29884702853066647,0.4479368929867348,0.14588141022763423,-4.573469982211781,-0.06214375446517062,-0.5001895940488534,-0.011435520358880291,-0.9090811843359987,MEKLMKYASFFYTAVGIRPYTNGEESKMNKLIFHIVFWSNVINLSFVGLFESIYVYSAFMDNKFLEAVTALSYIGFVTVGMSKMFFIRWKKTAITELINELKEIYPNGLIREERYNLPMYLGTCSRISLIYSLLYSVLIWTFNLFCVMEYWVYDKWLNIRVVGKQLPYLMYIPWKWQDNWSYYPLLFSQNFAGYTSAAGQISTDVLLCAVATQLVMHFDFLSNSMERHELSGDWKKDSRFLVDIVRYHERILRLSDAVNDIFGIPLLLNFMVSSFVICFVGFQMTVGVPPDIVVKLFLFLVSSMSQVYLICHYGQLVADASYGFSVATYNQKWYKADVRYKRALVIIIARSQKVTFLKATIFLDITRSTMTDLLQISYKFFALLRTMYTQ,r
MordredDescriptors,0.25945326882849795,-0.5489562719797766,0.1401283287978694,0.1758715809004664,0.35195837613240066,0.18248211857267627,0.4468259397390768,-2.114792815527463,-0.00040861931826130515,-0.611422416976503,-0.009495442421123101,-0.008662065655532958,MEPVQYSYEDFARLPTTVFWIMGYDMLGVPKTRSRRILYWIYRFLCLASHGVCVGVMVFRMVEAKTIDNVSLIMRYATLVTYIINSDTKFATVLQRSAIQSLNSKLAELYPKTTLDRIYHRVNDHYWTKSFVYLVIIYIGSSIMVVIGPIITSIIAYFTHNVFTYMHCYPYFLYDPEKDPVWIYISIYALEWLHSTQMVISNIGADIWLLYFQVQINLHFRGIIRSLADHKPSVKHDQEDRKFIAKIVDKQVHLVSLQNDLNGIFGKSLLLSLLTTAAVICTVAVYTLIQGPTLEGFTYVIFIGTSVMQVYLVCYYGQQVLDLSGEVAHAVYNHDFHDASIAYKRYLLIIIIRAQQPVELNAMGYLSISLDTFKQLMSVSYRVITMLMQMIQ,r
MordredDescriptors,-0.11313536846124292,-0.06597101080215222,-0.008218669362548114,-0.3297851473983848,-0.01981444624377038,-0.2074653283986132,-0.0003932509028981013,0.10316157147696858,-0.033321903088141314,-0.06476949916040065,-0.2372377754829016,-0.09768744775628613,MKPTEIKKPYRMEEFLRPQMFQEVAQMVHFQWRRNPVDNSMVNASMVPFCLSAFLNVLFFGCNGWDIIGHFWLGHPANQNPPVLSITIYFSIRGLMLYLKRKEIVEFVNDLDRECPRDLVSQLDMQMDETYRNFWQRYRFIRIYSHLGGPMFCVVPLALFLLTHEGKDTPVAQHEQLLGGWLPCGVRKDPNFYLLVWSFDLMCTTCGVSFFVTFDNLFNVMQGHLVMHLGHLARQFSAIDPRQSLTDEKRFFVDLRLLVQRQQLLNGLCRKYNDIFKVAFLVSNFVGAGSLCFYLFMLSETSDVLIIAQYILPTLVLVGFTFEICLRGTQLEKASEGLESSLRSQEWYLGSRRYRKFYLLWTQYCQRTQQLGAFGLIQVNMVHFTEIMQLAYRLFTFLKSH,r
MordredDescriptors,-0.10687576501709187,-2.568483917387584,0.10090545348060664,-1.3279458789415641,0.237120709539395,0.24479128575675102,0.21074960507935214,-8.081881465515664,-0.01711458840483293,-0.8623681453526229,-0.05807246778490782,-3.822982919879893,MLFNYLRKPNPTNLLTSPDSFRYFEYGMFCMGWHTPATHKIIYYITSCLIFAWCAVYLPIGIIISFKTDINTFTPNELLTVMQLFFNSVGMPFKVLFFNLYISGFYKAKKLLSEMDKRCTTLKERVEVHQGVVRCNKAYLIYQFIYTAYTISTFLSAALSGKLPWRIYNPFVDFRESRSSFWKAALNETALMLFAVTQTLMSDIYPLLYGLILRVHLKLLRLRVESLCTDSGKSDAENEQDLIKCIKDHNLIIDYAAAIRPAVTRTIFVQFLLIGICLGLSMINLLFFADIWTGLATVAYINGLMVQTFPFCFVCDLLKKDCELLVSAIFHSNWINSSRSYKSSLRYFLKNAQKSIAFTAGSIFPISTGSNIKVAKLAFSVVTFVNQLNIADRLTKN,r
Pharmacophore2D,0.4263804399105863,-1.6379149502130317,0.4860829132363257,0.34543611810911723,0.34842421421279024,0.4093280968422317,0.5426308571524664,-6.671416443042754,0.09610475151259756,-0.4200234541395298,0.3077065519569292,-1.5019461573524007,MEKQEDFKLNTHSAVYYHWRVWELTGLMRPPGVSSLLYVVYSITVNLVVTVLFPLSLLARLLFTTNMAGLCENLTITITDIVANLKFANVYMVRKQLHEIRSLLRLMDARARLVGDPEEISALRKEVNIAQGTFRTFASIFVFGTTLSCVRVVVRPDRELLYPAWFGVDWMHSTRNYVLINIYQLFGLIVQAIQNCASDSYPPAFLCLLTGHMRALELRVRRIGCRTEKSNKGQTYEAWREEVYQELIECIRDLARVHRLREIIQRVLSVPCMAQFVCSAAVQCTVAMHFLYVADDHDHTAMIISIVFFSAVTLEVFVICYFGDRMRTQSEALCDAFYDCNWIEQLPKFKRELLFTLARTQRPSLIYAGNYIALSLETFEQVMRFTYSVFTLLLRAK,r
Pharmacophore2D,0.11182642723048461,-0.605909820764148,0.09276153826026157,0.14810337906951188,0.20553111207126373,0.20628805658169003,-0.09355194983030413,-1.053606499441699,-0.2725757499650012,-0.2507325334348922,-1.0187319008760718,-0.43390242010307567,MAVSTRVATKQEVPESRRAFRNLFNCFYALGMQAPDGSRPTTSSTWQRIYACFSVVMYVWQLLLVPTFFVISYRYMGGMEITQVLTSAQVAIDAVILPAKIVALAWNLPLLRRAEHHLAALDARCREQEEFQLILDAVRFCNYLVWFYQICYAIYSSSTFVCAFLLGQPPYALYLPGLDWQRSQMQFCIQAWIEFLIMNWTCLHQASDDVYAVIYLYVVRIQVQLLARRVEKLGTDDSGQVEIYPDERRQEEHCAELQRCIVDHQTMLQLLDCISPVISRTIFVQFLITAAIMGTTMINIFIFANTNTKIASIIYLLAVTLQTAPCCYQATSLMLDNERLALAIFQCQWLGQSARFRKMLLYYLHRAQQPITLTAMKLFPINLATYFSIAKFSFSLYTLIKGMNLGERFNRTN,r
Pharmacophore2D,0.2957600958345695,-0.3875622648274565,0.3369289537542052,0.19846908704988486,0.17767974637234363,0.2729906332404586,0.4927320587559556,-0.8533384887315676,0.10114911563855422,-0.7142884308570749,-0.09045629985501069,-0.3808772203321835,MSDKVKGKKQEEKDQSLRVQILVYRCMGIDLWSPTMANDRPWLTFVTMGPLFLFMVPMFLAAHEYITQVSLLSDTLGSTFASMLTLVKFLLFCYHRKEFVGLIYHIRAILAKEIEVWPDAREIIEVENQSDQMLSLTYTRCFGLAGIFAALKPFVGIILSSIRGDEIHLELPHNGVYPYDLQVVMFYVPTYLWNVMASYSAVTMALCVDSLLFFFTYNVCAIFKIAKHRMIHLPAVGGKEELEGLVQVLLLHQKGLQIADHIADKYRPLIFLQFFLSALQICFIGFQVADLFPNPQSLYFIAFVGSLLIALFIYSKCGENIKSASLDFGNGLYETNWTDFSPPTKRALLIAAMRAQRPCQMKGYFFEASMATFSTIVRSAVSYIMMLRSFNA,r
Pharmacophore2D,0.254826012615557,-0.93868778119818,0.06117930327404275,0.6278855265528156,0.3289344780385387,0.36076023210265407,-0.10462947689026625,0.05252336487286191,-4.730970060811284,-0.004006933957593883,-0.10036734134460645,0.08938206524972314,MSEWLRFLKRDQQLDVYFFAVPRLSLDIMGYWPGKTGDTWPWRSLIHFAILAIGVATELHAGMCFLDRQQITLALETLCPAGTSAVTLLKMFLMLRFRQDLSIMWNRLRGLLFDPNWERPEQRDIRLKHSAMAARINFWPLSAGFFTCTTYNLKPILIAMILYLQNRYEDFVWFTPFNMTMPKVLLNYPFFPLTYIFIAYTGYVTIFMFGGCDGFYFEFCAHLSALFEVLQAEIESMFRPYTDHLELSPVQLYILEQKMRSVIIRHNAIIDLTRFFRDRYTIITLAHFVSAAMVIGFSMVNLLTLGNNGLGAMLYVAYTVAALSQLLVYCYGGTLVAESSTGLCRAMFSCPWQLFKPKQRRLVQLLILRSQRPVSMAVPFFSPSLATFAAILQTSGSIIALVKSFQ,r
Pharmacophore2D,0.1617019061548553,-0.6901620109670018,0.28560769445244705,0.23390623239521302,0.1313619922926358,0.16412387552670615,-0.006490263892725556,-1.813624413737506,0.2758846109587568,-0.7757539790643626,-1.0398390596788185,-0.09747721331307901,MDISKVDSTRALVNHWRIFRIMGIHPPGKRTFWGRHYTAYSMVWNVTFHICIWVSFSVNLLQSNSLETFCESLCVTMPHTLYMLKLINVRRMRGQMISSHWLLRLLDKRLGCDDERQIIMAGIERAEFIFRTIFRGLACTVVLGIIYISASSEPTLMYPTWIPWNWRDSTSAYLATAMLHTTALMANATLVLNLSSYPGTYLILVSVHTKALALRVSKLGYGAPLPAVRMQAILVGYIHDHQIILRLFKSLERSLSMTCFLQFFSTACAQCTICYFLLFGNVGIMRFMNMLFLLVILTTETLLLCYTAELPCKEGESLLTAVYSCNWLSQSVNFRRLLLLMLARCQIPMILVSGVIVPISMKTFTVMIKGAYTMLTLLNEIRKTSLE,r
Pharmacophore2D,0.2564942462356471,-0.9552219812800816,0.21873590777447405,0.3203945459465356,0.0883821030610471,0.2139568460359358,0.4410018283602427,-1.7688765205502466,0.26234962185481625,-0.4037474372492704,-0.06869759624928551,-2.797137974206422,MLSKFFPHIKEKPLSERVKSRDAFIYLDRVMWSFGWTEPENKRWILPYKLWLAFVNIVMLILLPISISIEYLHRFKTFSAGEFLSSLEIGVNMYGSSFKCAFTLIGFKKRQEAKVLLDQLDKRCLSDKERSTVHRYVAMGNFFDILYHIFYSTFVVMNFPYFLLERRHAWRMYFPYIDSDEQFYISSIAECFLMTEAIYMDLCTDVCPLISMLMARCHISLLKQRLRNLRSKPGRTEDEYLEELTECIRDHRLLLDYVDALRPVFSGTIFVQFLLIGTVLGLSMINLMFFSTFWTGVATCLFMFDVSMETFPFCYLCNMIIDDCQEMSNCLFQSDWTSADRRYKSTLVYFLHNLQQPITLTAGGVFPISMQTNLAMVKLAFSVVTVIKQFNLAERFQ,r
Pharmacophore2D,0.30941442587656065,-2.5040076322389693,0.3454983980070919,0.07801340372387688,0.22199675798018015,0.6168710077571227,0.2846925619145316,-8.56306160245037,0.02988364255549858,-0.9877413304651017,-0.034252149890493966,-2.9648667209443795,MKLSETLKIDYFRVQLNAWRICGALDLSEGRYWSWSMLLCILVYLPTPMLLRGVYSFEDPVENNFSLSLTVTSLSNLMKFCMYVAQLTKMVEVQSLIGQLDARVSGESQSERHRNMTEHLLRMSKLFQITYAVVFIIAAVPFVFETELSLPMPMWFPFDWKNSMVAYIGALVFQEIGYVFQIMQCFAADSFPPLVLYLISEQCQLLILRISEIGYGYKTLEENEQDLVNCIRDQNALYRLLDVTKSLVSYPMMVQFMVIGINIAITLFVLIFYVETLYDRIYYLCFLLGITVQTYPLCYYGTMVQESFAELHYAVFCSNWVDQSASYRGHMLILAERTKRMQLLLAGNLVPIHLSTYVACWKGAYSFFTLMADRDGLGS,r
Pharmacophore2D,0.04716446217829864,-1.1144885527798618,-0.2781806805320084,0.09929663393196375,0.10999943686873925,0.20900528086463221,0.09570163975816637,-4.872705419810425,-0.10209319306838105,-0.5925601104241174,-0.0002291813708585888,-0.00485485922552642,MDLKPRVIRSEDIYRTYWLYWHLLGLESNFFLNRLLDLVITIFVTIWYPIHLILGLFMERSLGDVCKGLPITAACFFASFKFICFRFKLSEIKEIEILFKELDQRALSREECEFFNQNTRREANFIWKSFIVAYGLSNISAIASVLFGGGHKLLYPAWFPYDVQATELIFWLSVTYQIAGVSLAILQNLANDSYPPMTFCVVAGHVRLLAMRLSRIGQGPEETIYLTGKQLIESIEDHRKLMKIVELLRSTMNISQLGQFISSGVNISITLVNILFFADNNFAITYYGVYFLSMVLELFPCCYYGTLISVEMNQLTYAIYSSNWMSMNRSYSRILLIFMQLTLAEVQIKAGGMIGIGMNAFFATVRLAYSFFTLAMSLR,r
Pharmacophore2D,0.2929539052363209,-0.742299352944947,0.13737577994581252,0.22786407413649545,0.4351399212849886,0.5186033444368332,0.14578640637747486,-1.1869314302277392,0.31366242962059254,-1.1594985845455357,-0.6287967814098439,-1.0499323981622086,MVRYVPRFADGQKVKLAWPLAVFRLNHIFWPLDPSTGKWGRYLDKVLAVAMSLVFMQHNDAELRYLRFEASNRNLDAFLTGMPTYLILVEAQFRSLHILLHFEKLQKFLEIFYANIYIDPRKEPEMFRKVDGKMIINRLVSAMYGAVISLYLIAPVFSIINQSKDFLYSMIFPFDSDPLYIFVPLLLTNVWVGIVIDTMMFGETNLLCELIVHLNGSYMLLKRDLQLAIEKILVARDRPHMAKQLKVLITKTLRKNVALNQFGQQLEAQYTVRVFIMFAFAAGLLCALSFKAYTNPMANYIYAIWFGAKTVELLSLGQIGSDLAFTTDSLSTMYYLTHWEQILQYSTNPSENLRLLKLINLAIEMNSKPFYVTGLKYFRVSLQAGLKILQASFSYFTFLTSMQRRQMSN,r
Pharmacophore2D,0.22055700758626112,-0.9753506569217816,0.54160714340865,0.014112790582848533,0.10303154153554028,0.2580044345650103,0.1860291278392563,-4.167484594343003,-0.18997543845773057,-0.5039881797214025,0.035096496932614185,-0.05040156901938575,MTIEDIGLVGINVRMWRHLAVLYPTPGSSWRKFAFVLPVTAMNLMQFVYLLRMWGDLPAFILNMFFFSAIFNALMRTWLVIIKRRQFEEFLGQLATLFHSILDSTDEWGRGILRRAEREARNLAILNLSASFLDIVGALVSPLFREERAHPFGLALPGVSMTSSPVYEVIYLAQLPTPLLLSMMYMPFVSLFAGLAIFGKAMLQILVHRLGQIGGEEQSEEERFQRLASCIAYHTQVMRYVWQLNKLVANIVAVEAIIFGSIICSLLFCLNIITSPTQVISIVMYILTMLYVLFTYYNRANEICLENNRVAEAVYNVPWYEAGTRFRKTLLIFLMQTQHPMEIRVGNVYPMTLAMFQSLLNASYSYFTMLRGVTGK,r
Pharmacophore2D,0.4049333079365276,-3.633621051012799,0.46247040641648185,0.3875948862066483,0.24682712002345397,0.281778606557358,0.6459955204786962,-4.731739757300629,0.2869382297978319,-0.9010439208669432,0.012502025039224152,-12.83476183173348,MFGHFKLVYPAPISEPIQSRDSNAYMMETLRNSGLNLKNDFGIGRKIWRVFSFTYNMVILPVSFPINYVIHLAEFPPELLLQSLQLCLNTWCFALKFFTLIVYTHRLELANKHFDELDKYCVKPAEKRKVRDMVATITRLYLTFVVVYVLYATSTLLDGLLHHRVPYNTYYPFINWRVDRTQMYIQSFLEYFTVGYAIYVATATDSYPVIYVAALRTHILLLKDRIIYLGDPSNEGSSDPSYMFKSLVDCIKAHRTMLNFCDAIQPIISGTIFAQFIICGSILGIIMINMVLFADQSTRFGIVIYVMAVLLQTFPLCFYCNAIVDDCKELAHALFHSAWWVQDKRYQRTVIQFLQKLQQPMTFTAMNIFNINLATNINVAKFAFTVYAIASGMNLDQKLSIKE,r
Pharmacophore2D,0.33618171637595695,-2.0195350647267314,0.4961433948259,0.39463412831954525,0.3997203788092515,0.157089784351236,0.23332089557385216,-0.3303727758352948,0.20593281891235804,-0.5169078524797714,0.05387845436466998,-9.510205968595619,MDSFLQVQKSTIALLGFDLFSENREMWKRPYRAMNVFSIAAIFPFILAAVLHNWKNVLLLADAMVALLITILGLFKFSMILYLRRDFKRLIDKFRLLMSNEAEQGEEYAEILNAANKQDQRMCTLFRTCFLLAWALNSVLPLVRMGLSYWLAGHAEPELPFPCLFPWNIHIIRNYVLSFIWSAFASTGVVLPAVSLDTIFCSFTSNLCAFFKIAQYKVVRFKGGSLKESQATLNKVFALYQTSLDMCNDLNQCYQPIICAQFFISSLQLCMLGYLFSITFAQTEGVYYASFIATIIIQAYIYCYCGENLKTESASFEWAIYDSPWHESLGAGGASTSICRSLLISMMRAHRGFRITGYFFEANMEAFSSIVRTAMSYITMLRSFS,r
Pharmacophore2D,0.19757338179824574,-0.6694129616991408,0.3801056268415296,0.2917520562725723,-0.11207293736714652,0.2690468404231713,0.1590353228211021,0.29519289316661446,-0.04805818866788991,-2.3582064996519407,-0.12938945875818475,-1.1066035545843027,MNDSGYQSNLSLLRVFLDEFRSVLRQESPGLIPRLAFYYVRAFLSLLCQYPNKKLASLPLYRWINLFIMCNVMTIFWTMFVALPESKNVIEMGDDLVWISGMALVFTKIFYMHLRCDEIDELISDFEYYNRELRPHNIDEEVLGWQRLCYVIESGLYINCFCLVNFFSAAIFLQPLLGEGKLPFHSVYPFQWHRLDLHPYTFWFLYIWQSLTSQHNLMSILMVDMVGISTFLQTALNLKLLCIEIRKLGDMEVSDKRFHEEFCRVVRFHQHIIKLVGKANRAFNGAFNAQLMASFSLISISTFETMAAAAVDPKMAAKFVLLMLVAFIQLSLWCVSGTLVYTQSVEVAQAAFDINDWHTKSPGIQRDISFVILRAQKPLMYVAEPFLPFTLGTYMLVLKNCYRLLALMQESM,r
Pharmacophore2D,-0.07749247663995444,-1.6294611214119137,0.04556735963849068,-0.5880960139559368,0.048132490494175895,0.008190587931530602,0.09874319269196741,-7.31430054362024,-0.6291894263341367,-0.1284454418911236,-0.026677920319760684,-0.04869227489430705,MFEDIQLIYMNIKILRFWALLYDKNLRRYVCIGLASFHIFTQIVYMMSTNEGLTGIIRNSYMLVLWINTVLRAYLLLADHDRYLALIQKLTEAYYDLLNLNDSYISEILDQVNKVGKLMARGNLFFGMLTSMGFGLYPLSSSERVLPFGSKIPGLNEYESPYYEMWYIFQMLITPMGCCMYIPYTSLIVGLIMFGIVRCKALQHRLRQVALKHPYGDRDPRELREEIIACIRYQQSIIEYMDHINELTTMMFLFELMAFSALLCALLFMLIIVSGTSQLIIVCMYINMILAQILALYWYANELREQNLAVATAAYETEWFTFDVPLRKNILFMMMRAQRPAAILLGNIRPITLELFQNLLNTTYTFFTVLKRVYG,r
Pharmacophore2D,-0.0371228979157799,-0.9357698042109955,-0.12863718198203977,-0.1811109103593973,-0.11647033469123014,0.0457345878203691,0.19486934963339864,-0.1871580368978667,0.04617851434301867,-0.19100151614933591,-0.5397398180521649,-3.8071281642986285,MAVFKLIKPAPLTEKVQSRQGNIYLYRAMWLIGWIPPKEGVLRYVYLFWTCVPFAFGVFYLPVGFIISYVQEFKNFTPGEFLTSLQVCINVYGASVKSTITYLFLWRLRKTEILLDSLDKRLANDSDRERIHNMVARCNYAFLIYSFIYCGYAGSTFLSYALSGRPPWSVYNPFIDWRDGMGSLWIQAIFEYITMSFAVLQDQLSDTYPLMFTIMFRAHMEVLKDHVRSLRMDPERSEADNYQDLVNCVLDHKTILKCCDMIRPMISRTIFVQFALIGSVLGLTLVNVFFFSNFWKGVASLLFVITILLQTFPFCYTCNMLIDDAQDLSNEIFQSNWVDAEPRYKATLVLFMHHVQQPIIFIAGGIFPISMNSNITVAKFAFSIITIVRQMNLAEQFQ,r
Pharmacophore2D,0.13990338522078036,-0.2508689077400213,0.19786131196751244,0.19157499105522569,-0.18334902314166768,0.5371160807892446,-0.04368643456641319,-0.9694350966741523,0.09551434055026431,-0.11172716039444852,0.005365681223129748,-0.2740623034048997,MTELRSERKNGNWDRLFGPFFESWAVFKAPQAKSRHIIAYWTRDQLKALGFYMNSEQRRLPRIVAWQYFVSIQLATALASLFYGISESIGDIVNLGRDLVFIITIIFICFRLVFFAQYAGELDVIIDALEDIYHWSIKGPATKEVQETKRLHFLLFMALIITWFSFLILFMLIKISTPFWIESQTLPFHVSWPFQLHDPSKHPIAYIIIFVSQSTTMLYFLIWLGVVENMGVSLFFELTSALRVLCIELRNLQELCLGDEDMLYRELCRMTKFHQQIILLTDRCNHIFNGAFIMQMLINFLLVSLSLFEVLAAKKNPQVAVEYMIIMLMTLGHLSFWSKFGDMFSKESEQVALAVYEAYDPNVGSKSIHRQFCFFIQRAQKPLIMKASPFPPFNLENYMFILKQCYSILTILANTLE,r
Pharmacophore2D,0.2108429250713149,-0.2020237894329692,0.16262484068287486,0.1300600851602911,0.17951653355653752,0.26154719226914014,0.3204659736877309,-0.9119575675468732,0.04266523101238595,-0.10352241614034297,0.0389262208595057,-0.07623041534952146,MDNVAEMPEEKYVEVDDFLRLAVKFYNTLGIDPYETGRKRTIWFQIYFALNMFNMVFSFYAEVATLVDRLRDNENFLESCILLSYVSFVVMGLSKIGAVMKKKPKMTALVRQLETCFPSPSAKVQEEYAVKSWLKRCHIYTKGFGGLFMIMYFAHALIPLFIYFIQRVLLHYPDAKQIMPFYQLEPWEFRDSWLFYPSYFHQSSAGYTATCGSIAGDLMIFAVVLQVIMHYERLAKVLREFKIQAHNAPNGAKEDIRKLQSLVANHIDILRLTDLMNEVFGIPLLLNFIASALLVCLVGVQLTIALSPEYFCKQMLFLISVLLEVYLLCSFSQRLIDASENVGHAAYDMDWLGSDKRFKKILIFISMRSQKPVCLKATVVLDLSMPTMSIFLGMSYKFFCAVRTMYQ,r
Pharmacophore2D,0.4052806476407448,-2.266835560844969,0.31797337952577276,0.13086226959983716,0.39843727141328167,0.5527983374747679,0.6263319801900646,-4.357604790580436,0.21265972746872797,-0.5956902213223805,0.20597303165940561,-6.799515551450163,METAKDNTARTFMELMRVPVQFYRTIGEDIYAHRSTNPLKSLLFKIYLYAGFINFNLLVIGELVFFYNSIQDFETIRLAIAVAPCIGFSLVADFKQAAMIRGKKTLIMLLDDLENMHPKTLAKQMEYKLPDFEKTMKRVINIFTFLCLAYTTTFSFYPAIKASVKFNFLGYDTFDRNFGFLIWFPFDATRNNLIYWIMYWDIAHGAYLAGIAFLCADLLLVVVITQICMHFNYISMRLEDHPCNSNEDKENIEFLIGIIRYHDKCLKLCEHVNDLYSFSLLLNFLMASMQICFIAFQVTESTVEVIIIYCIFLMTSMVQVFMVCYYGDTLIAASLKVGDAAYNQKWFQCSKSYCTMLKLLIMRSQKPASIRPPTFPPISLVTYMKVISMSYQFFALLRTTYSNN,r
Pharmacophore2D,-0.0018225041816453346,-0.8280320327976792,0.017621294298085233,0.058558939205282545,-0.06591622009652931,-0.013888443938417705,-0.0054880903766474365,-0.034744443353348586,0.008981909676005095,-1.8479380789332094,-0.26814593729139435,-1.9983136140864488,MGRLFQLQEYCLRAMGHKDDMDSTDSTALSLKHISSLIFVISAQYPLISYVAYNRNDMEKVTACLSVVFTNMLTVIKISTFLANRKDFWEMIHRFRKMHEQSASHIPRYREGLDYVAEANKLASFLGRAYCVSCGLTGLYFMLGPIVKIGVCRWHGTTCDKELPMPMKFPFNDLESPGYEVCFLYTVLVTVVVVAYASAVDGLFISFAINLRAHFQTLQRQIENWEFPSSEPDTQIRLKSIVEYHVLLLSLSRKLRSIYTPTVMGQFVITSLQVGVIIYQLVTNMDSVMDLLLYASFFGSIMLQLFIYCYGGEIIKAESLQVDTAVRLSNWHLASPKTRTSLSLIILQSQKEVLIRAGFFVASLANFVGICRTALSLITLIKSIE,r
Pharmacophore2D,-0.13080309415712127,-2.6690445766420203,0.13755846902471713,-0.7838314634762389,-0.4292517099527642,0.12804702936671697,0.2934622042519627,-4.2919166873272125,-0.12746807484792733,-0.16104213984867055,-0.05579887711310616,-8.708997104073186,MIFKYIQEPVLGSLFRSRDSLIYLNRSIDQMGWRLPPRTKPYWWLYYIWTLVVIVLVFIFIPYGLIMTGIKEFKNFTTTDLFTYVQVPVNTNASIMKGIIVLFMRRRFSRAQKMMDAMDIRCTKMEEKVQVHRAAALCNRVVVIYHCIYFGYLSMALTGALVIGKTPFCLYNPLVNPDDHFYLATAIESVTMAGIILANLILDVYPIIYVVVLRIHMELLSERIKTLRTDVEKGDDQHYAELVECVKDHKLIVEYGNTLRPMISATMFIQLLSVGLLLGLAAVSMQFYNTVMERVVSGVYTIAILSQTFPFCYVCEQLSSDCESLTNTLFHSKWIGAERRYRTTMLYFIHNVQQSILFTAGGIFPICLNTNIKMAKFAFSVVTIVNEMDLAEKLRRE,r
Pharmacophore2D,0.39807220731432424,-1.0052630559155837,0.46236052375287084,0.22796772825044664,0.4009883887777309,0.5399078947792854,0.3591365010112876,-2.504148608243821,0.10443099916339738,-0.28586032216744495,0.2568041319618639,-2.5975414802919135,MEKLMKYASFFYTAVGIRPYTNGEESKMNKLIFHIVFWSNVINLSFVGLFESIYVYSAFMDNKFLEAVTALSYIGFVTVGMSKMFFIRWKKTAITELINELKEIYPNGLIREERYNLPMYLGTCSRISLIYSLLYSVLIWTFNLFCVMEYWVYDKWLNIRVVGKQLPYLMYIPWKWQDNWSYYPLLFSQNFAGYTSAAGQISTDVLLCAVATQLVMHFDFLSNSMERHELSGDWKKDSRFLVDIVRYHERILRLSDAVNDIFGIPLLLNFMVSSFVICFVGFQMTVGVPPDIVVKLFLFLVSSMSQVYLICHYGQLVADASYGFSVATYNQKWYKADVRYKRALVIIIARSQKVTFLKATIFLDITRSTMTDLLQISYKFFALLRTMYTQ,r
Pharmacophore2D,0.21029330917415595,0.04895838475836054,0.3338257268021282,-0.3626218825785428,0.4340541688125531,0.44469579225002565,0.20151274058461544,-0.21578663047453017,0.3396405195619896,0.3319868435058989,-0.4268959633847671,0.21584715458321146,MEPVQYSYEDFARLPTTVFWIMGYDMLGVPKTRSRRILYWIYRFLCLASHGVCVGVMVFRMVEAKTIDNVSLIMRYATLVTYIINSDTKFATVLQRSAIQSLNSKLAELYPKTTLDRIYHRVNDHYWTKSFVYLVIIYIGSSIMVVIGPIITSIIAYFTHNVFTYMHCYPYFLYDPEKDPVWIYISIYALEWLHSTQMVISNIGADIWLLYFQVQINLHFRGIIRSLADHKPSVKHDQEDRKFIAKIVDKQVHLVSLQNDLNGIFGKSLLLSLLTTAAVICTVAVYTLIQGPTLEGFTYVIFIGTSVMQVYLVCYYGQQVLDLSGEVAHAVYNHDFHDASIAYKRYLLIIIIRAQQPVELNAMGYLSISLDTFKQLMSVSYRVITMLMQMIQ,r
Pharmacophore2D,-0.13668454095764854,-0.09423925213783972,-0.009659525607375263,-0.3750448450913759,-0.004256973638145034,-0.2869115639159787,-0.007549796535367692,-0.057974480988671084,-0.005134662912767096,-0.07044458269467246,-0.23723769815426876,-0.10040483593881921,MKPTEIKKPYRMEEFLRPQMFQEVAQMVHFQWRRNPVDNSMVNASMVPFCLSAFLNVLFFGCNGWDIIGHFWLGHPANQNPPVLSITIYFSIRGLMLYLKRKEIVEFVNDLDRECPRDLVSQLDMQMDETYRNFWQRYRFIRIYSHLGGPMFCVVPLALFLLTHEGKDTPVAQHEQLLGGWLPCGVRKDPNFYLLVWSFDLMCTTCGVSFFVTFDNLFNVMQGHLVMHLGHLARQFSAIDPRQSLTDEKRFFVDLRLLVQRQQLLNGLCRKYNDIFKVAFLVSNFVGAGSLCFYLFMLSETSDVLIIAQYILPTLVLVGFTFEICLRGTQLEKASEGLESSLRSQEWYLGSRRYRKFYLLWTQYCQRTQQLGAFGLIQVNMVHFTEIMQLAYRLFTFLKSH,r
Pharmacophore2D,0.31591733079586853,-2.8320144607162794,0.4462557897000903,0.2155691947954287,0.19100604923749565,0.3478564494190096,0.3788991708273184,-5.7459625201950235,0.19760975304272965,-0.5361100126339793,-0.6460918465509966,-7.429517677244126,MLFNYLRKPNPTNLLTSPDSFRYFEYGMFCMGWHTPATHKIIYYITSCLIFAWCAVYLPIGIIISFKTDINTFTPNELLTVMQLFFNSVGMPFKVLFFNLYISGFYKAKKLLSEMDKRCTTLKERVEVHQGVVRCNKAYLIYQFIYTAYTISTFLSAALSGKLPWRIYNPFVDFRESRSSFWKAALNETALMLFAVTQTLMSDIYPLLYGLILRVHLKLLRLRVESLCTDSGKSDAENEQDLIKCIKDHNLIIDYAAAIRPAVTRTIFVQFLLIGICLGLSMINLLFFADIWTGLATVAYINGLMVQTFPFCFVCDLLKKDCELLVSAIFHSNWINSSRSYKSSLRYFLKNAQKSIAFTAGSIFPISTGSNIKVAKLAFSVVTFVNQLNIADRLTKN,r
RDKitDescriptors2D,0.11030996441669305,-4.747496587058164,0.2615437129532957,-0.12421141361646137,0.2270929667294238,0.030930615938771444,0.15619394007843568,-19.861592841119258,-0.3128929726082128,-1.2904696105479547,-0.007632293956296499,-2.264895217059098,MEKQEDFKLNTHSAVYYHWRVWELTGLMRPPGVSSLLYVVYSITVNLVVTVLFPLSLLARLLFTTNMAGLCENLTITITDIVANLKFANVYMVRKQLHEIRSLLRLMDARARLVGDPEEISALRKEVNIAQGTFRTFASIFVFGTTLSCVRVVVRPDRELLYPAWFGVDWMHSTRNYVLINIYQLFGLIVQAIQNCASDSYPPAFLCLLTGHMRALELRVRRIGCRTEKSNKGQTYEAWREEVYQELIECIRDLARVHRLREIIQRVLSVPCMAQFVCSAAVQCTVAMHFLYVADDHDHTAMIISIVFFSAVTLEVFVICYFGDRMRTQSEALCDAFYDCNWIEQLPKFKRELLFTLARTQRPSLIYAGNYIALSLETFEQVMRFTYSVFTLLLRAK,r
RDKitDescriptors2D,0.06603590212573499,-0.9853945475239572,0.0905579375475074,0.12044610883821627,0.1851160333887738,-0.04891758581963246,-0.017022983326190122,-3.2666257130158405,-0.27255939546697094,-0.250718980880954,-1.0186431079424438,-0.11842554031357633,MAVSTRVATKQEVPESRRAFRNLFNCFYALGMQAPDGSRPTTSSTWQRIYACFSVVMYVWQLLLVPTFFVISYRYMGGMEITQVLTSAQVAIDAVILPAKIVALAWNLPLLRRAEHHLAALDARCREQEEFQLILDAVRFCNYLVWFYQICYAIYSSSTFVCAFLLGQPPYALYLPGLDWQRSQMQFCIQAWIEFLIMNWTCLHQASDDVYAVIYLYVVRIQVQLLARRVEKLGTDDSGQVEIYPDERRQEEHCAELQRCIVDHQTMLQLLDCISPVISRTIFVQFLITAAIMGTTMINIFIFANTNTKIASIIYLLAVTLQTAPCCYQATSLMLDNERLALAIFQCQWLGQSARFRKMLLYYLHRAQQPITLTAMKLFPINLATYFSIAKFSFSLYTLIKGMNLGERFNRTN,r
RDKitDescriptors2D,0.09634923279824681,-0.5476706988266005,0.009307628704984472,0.15041206179263955,0.20764507033778523,-0.11176870787973714,0.22615011103556193,-2.155467103702204,-0.008375154812353847,-0.9723660309551867,0.12889417037930506,0.2689606249574371,MSDKVKGKKQEEKDQSLRVQILVYRCMGIDLWSPTMANDRPWLTFVTMGPLFLFMVPMFLAAHEYITQVSLLSDTLGSTFASMLTLVKFLLFCYHRKEFVGLIYHIRAILAKEIEVWPDAREIIEVENQSDQMLSLTYTRCFGLAGIFAALKPFVGIILSSIRGDEIHLELPHNGVYPYDLQVVMFYVPTYLWNVMASYSAVTMALCVDSLLFFFTYNVCAIFKIAKHRMIHLPAVGGKEELEGLVQVLLLHQKGLQIADHIADKYRPLIFLQFFLSALQICFIGFQVADLFPNPQSLYFIAFVGSLLIALFIYSKCGENIKSASLDFGNGLYETNWTDFSPPTKRALLIAAMRAQRPCQMKGYFFEASMATFSTIVRSAVSYIMMLRSFNA,r
RDKitDescriptors2D,-0.005915444679049142,-0.4542400831945931,0.29025836764851043,0.09717605817009967,-0.029855258953704,0.08624745411999246,-0.47340384438014427,-0.07559222197335869,-2.0801079710304835,-0.0024223407572077083,0.07096905263208764,-0.18404693484400303,MSEWLRFLKRDQQLDVYFFAVPRLSLDIMGYWPGKTGDTWPWRSLIHFAILAIGVATELHAGMCFLDRQQITLALETLCPAGTSAVTLLKMFLMLRFRQDLSIMWNRLRGLLFDPNWERPEQRDIRLKHSAMAARINFWPLSAGFFTCTTYNLKPILIAMILYLQNRYEDFVWFTPFNMTMPKVLLNYPFFPLTYIFIAYTGYVTIFMFGGCDGFYFEFCAHLSALFEVLQAEIESMFRPYTDHLELSPVQLYILEQKMRSVIIRHNAIIDLTRFFRDRYTIITLAHFVSAAMVIGFSMVNLLTLGNNGLGAMLYVAYTVAALSQLLVYCYGGTLVAESSTGLCRAMFSCPWQLFKPKQRRLVQLLILRSQRPVSMAVPFFSPSLATFAAILQTSGSIIALVKSFQ,r
RDKitDescriptors2D,-0.08724414965787393,-1.081638534299578,-0.06245994551968037,0.05119789751478998,0.10411596533095269,0.1022602581199934,-0.6313349237354253,-3.790067498125346,-0.09842265756507906,-1.0707557263459493,-0.4327914176473897,-0.016155371814126962,MDISKVDSTRALVNHWRIFRIMGIHPPGKRTFWGRHYTAYSMVWNVTFHICIWVSFSVNLLQSNSLETFCESLCVTMPHTLYMLKLINVRRMRGQMISSHWLLRLLDKRLGCDDERQIIMAGIERAEFIFRTIFRGLACTVVLGIIYISASSEPTLMYPTWIPWNWRDSTSAYLATAMLHTTALMANATLVLNLSSYPGTYLILVSVHTKALALRVSKLGYGAPLPAVRMQAILVGYIHDHQIILRLFKSLERSLSMTCFLQFFSTACAQCTICYFLLFGNVGIMRFMNMLFLLVILTTETLLLCYTAELPCKEGESLLTAVYSCNWLSQSVNFRRLLLLMLARCQIPMILVSGVIVPISMKTFTVMIKGAYTMLTLLNEIRKTSLE,r
RDKitDescriptors2D,0.28852966283075554,-1.4449621991805484,0.14981029284726533,0.4077912706130358,0.27744368328978897,0.1724690510810789,0.4351340163226086,-3.162439213804829,0.10799638437492587,-0.6406323477063749,-0.14083300019738187,-3.3889028185690817,MLSKFFPHIKEKPLSERVKSRDAFIYLDRVMWSFGWTEPENKRWILPYKLWLAFVNIVMLILLPISISIEYLHRFKTFSAGEFLSSLEIGVNMYGSSFKCAFTLIGFKKRQEAKVLLDQLDKRCLSDKERSTVHRYVAMGNFFDILYHIFYSTFVVMNFPYFLLERRHAWRMYFPYIDSDEQFYISSIAECFLMTEAIYMDLCTDVCPLISMLMARCHISLLKQRLRNLRSKPGRTEDEYLEELTECIRDHRLLLDYVDALRPVFSGTIFVQFLLIGTVLGLSMINLMFFSTFWTGVATCLFMFDVSMETFPFCYLCNMIIDDCQEMSNCLFQSDWTSADRRYKSTLVYFLHNLQQPITLTAGGVFPISMQTNLAMVKLAFSVVTVIKQFNLAERFQ,r
RDKitDescriptors2D,0.10184757572265905,-4.926938626283957,0.16841243253582483,0.1275229123951812,0.11938225893587218,0.017106283073448303,0.07681399167296876,-21.376169418645627,-0.06810823215557327,-1.0171620431798871,-0.1492195099076774,-2.0240339275310184,MKLSETLKIDYFRVQLNAWRICGALDLSEGRYWSWSMLLCILVYLPTPMLLRGVYSFEDPVENNFSLSLTVTSLSNLMKFCMYVAQLTKMVEVQSLIGQLDARVSGESQSERHRNMTEHLLRMSKLFQITYAVVFIIAAVPFVFETELSLPMPMWFPFDWKNSMVAYIGALVFQEIGYVFQIMQCFAADSFPPLVLYLISEQCQLLILRISEIGYGYKTLEENEQDLVNCIRDQNALYRLLDVTKSLVSYPMMVQFMVIGINIAITLFVLIFYVETLYDRIYYLCFLLGITVQTYPLCYYGTMVQESFAELHYAVFCSNWVDQSASYRGHMLILAERTKRMQLLLAGNLVPIHLSTYVACWKGAYSFFTLMADRDGLGS,r
RDKitDescriptors2D,-0.033462203057605874,-1.2620236942956433,0.030574696656258005,0.10720640359786926,-0.003907607513529587,-0.2548436220011867,-0.04634088602744035,-5.610426930826716,-0.10207867543015237,-0.5925441126602473,-0.00022134217370028964,-0.004847410387401441,MDLKPRVIRSEDIYRTYWLYWHLLGLESNFFLNRLLDLVITIFVTIWYPIHLILGLFMERSLGDVCKGLPITAACFFASFKFICFRFKLSEIKEIEILFKELDQRALSREECEFFNQNTRREANFIWKSFIVAYGLSNISAIASVLFGGGHKLLYPAWFPYDVQATELIFWLSVTYQIAGVSLAILQNLANDSYPPMTFCVVAGHVRLLAMRLSRIGQGPEETIYLTGKQLIESIEDHRKLMKIVELLRSTMNISQLGQFISSGVNISITLVNILFFADNNFAITYYGVYFLSMVLELFPCCYYGTLISVEMNQLTYAIYSSNWMSMNRSYSRILLIFMQLTLAEVQIKAGGMIGIGMNAFFATVRLAYSFFTLAMSLR,r
RDKitDescriptors2D,0.11470200886688187,-0.8486365162490088,-0.04156994560938143,0.13572116219684915,0.21903647637301715,0.2819793521602193,-0.021657000786294844,-2.5406260813408332,-0.020782907782452842,-1.1594804272768444,-0.15086542845594364,-0.37142773638896975,MVRYVPRFADGQKVKLAWPLAVFRLNHIFWPLDPSTGKWGRYLDKVLAVAMSLVFMQHNDAELRYLRFEASNRNLDAFLTGMPTYLILVEAQFRSLHILLHFEKLQKFLEIFYANIYIDPRKEPEMFRKVDGKMIINRLVSAMYGAVISLYLIAPVFSIINQSKDFLYSMIFPFDSDPLYIFVPLLLTNVWVGIVIDTMMFGETNLLCELIVHLNGSYMLLKRDLQLAIEKILVARDRPHMAKQLKVLITKTLRKNVALNQFGQQLEAQYTVRVFIMFAFAAGLLCALSFKAYTNPMANYIYAIWFGAKTVELLSLGQIGSDLAFTTDSLSTMYYLTHWEQILQYSTNPSENLRLLKLINLAIEMNSKPFYVTGLKYFRVSLQAGLKILQASFSYFTFLTSMQRRQMSN,r
RDKitDescriptors2D,0.023257984024154753,-2.03866431383783,0.1146149678670656,-0.2531754446176746,0.048639392878314314,-0.02615848232113982,0.23236948631420828,-9.343226964787714,-0.05847340133086543,-0.6417234841318842,-0.0929897273322946,-0.05690799160639237,MTIEDIGLVGINVRMWRHLAVLYPTPGSSWRKFAFVLPVTAMNLMQFVYLLRMWGDLPAFILNMFFFSAIFNALMRTWLVIIKRRQFEEFLGQLATLFHSILDSTDEWGRGILRRAEREARNLAILNLSASFLDIVGALVSPLFREERAHPFGLALPGVSMTSSPVYEVIYLAQLPTPLLLSMMYMPFVSLFAGLAIFGKAMLQILVHRLGQIGGEEQSEEERFQRLASCIAYHTQVMRYVWQLNKLVANIVAVEAIIFGSIICSLLFCLNIITSPTQVISIVMYILTMLYVLFTYYNRANEICLENNRVAEAVYNVPWYEAGTRFRKTLLIFLMQTQHPMEIRVGNVYPMTLAMFQSLLNASYSYFTMLRGVTGK,r
RDKitDescriptors2D,0.06913929726263272,-6.330137597549593,0.08957856446028956,0.10309762499312247,0.005453595371301967,0.013600388690848675,0.13396631279760096,-18.993321116237365,-0.022841539630532592,-1.0878449722262165,-0.04183088296557025,-11.50484947668828,MFGHFKLVYPAPISEPIQSRDSNAYMMETLRNSGLNLKNDFGIGRKIWRVFSFTYNMVILPVSFPINYVIHLAEFPPELLLQSLQLCLNTWCFALKFFTLIVYTHRLELANKHFDELDKYCVKPAEKRKVRDMVATITRLYLTFVVVYVLYATSTLLDGLLHHRVPYNTYYPFINWRVDRTQMYIQSFLEYFTVGYAIYVATATDSYPVIYVAALRTHILLLKDRIIYLGDPSNEGSSDPSYMFKSLVDCIKAHRTMLNFCDAIQPIISGTIFAQFIICGSILGIIMINMVLFADQSTRFGIVIYVMAVLLQTFPLCFYCNAIVDDCKELAHALFHSAWWVQDKRYQRTVIQFLQKLQQPMTFTAMNIFNINLATNINVAKFAFTVYAIASGMNLDQKLSIKE,r
RDKitDescriptors2D,0.09066580165766565,-1.7359802068668362,0.1408850204752201,0.1274177874480369,0.12023408862956975,0.15563030811042777,-0.0908381963749263,-0.6092022436092286,-0.017044936050364834,-0.5437634421560313,-0.04038354454759907,-7.469506867970956,MDSFLQVQKSTIALLGFDLFSENREMWKRPYRAMNVFSIAAIFPFILAAVLHNWKNVLLLADAMVALLITILGLFKFSMILYLRRDFKRLIDKFRLLMSNEAEQGEEYAEILNAANKQDQRMCTLFRTCFLLAWALNSVLPLVRMGLSYWLAGHAEPELPFPCLFPWNIHIIRNYVLSFIWSAFASTGVVLPAVSLDTIFCSFTSNLCAFFKIAQYKVVRFKGGSLKESQATLNKVFALYQTSLDMCNDLNQCYQPIICAQFFISSLQLCMLGYLFSITFAQTEGVYYASFIATIIIQAYIYCYCGENLKTESASFEWAIYDSPWHESLGAGGASTSICRSLLISMMRAHRGFRITGYFFEANMEAFSSIVRTAMSYITMLRSFS,r
RDKitDescriptors2D,0.20694469149798828,-0.39407099920005534,0.1759348408633591,0.4533950592673899,0.20358167279387174,0.0797289345511435,0.12208295001417713,-0.29723610953537416,0.040394560514878775,-1.4252124121073302,0.2519637866303407,-0.5402648215027919,MNDSGYQSNLSLLRVFLDEFRSVLRQESPGLIPRLAFYYVRAFLSLLCQYPNKKLASLPLYRWINLFIMCNVMTIFWTMFVALPESKNVIEMGDDLVWISGMALVFTKIFYMHLRCDEIDELISDFEYYNRELRPHNIDEEVLGWQRLCYVIESGLYINCFCLVNFFSAAIFLQPLLGEGKLPFHSVYPFQWHRLDLHPYTFWFLYIWQSLTSQHNLMSILMVDMVGISTFLQTALNLKLLCIEIRKLGDMEVSDKRFHEEFCRVVRFHQHIIKLVGKANRAFNGAFNAQLMASFSLISISTFETMAAAAVDPKMAAKFVLLMLVAFIQLSLWCVSGTLVYTQSVEVAQAAFDINDWHTKSPGIQRDISFVILRAQKPLMYVAEPFLPFTLGTYMLVLKNCYRLLALMQESM,r
RDKitDescriptors2D,-0.02939230886642763,-1.6294532916658853,0.020480904708250147,-0.5331661139062669,0.18646110858108467,0.18466586804329166,-0.005403311758497731,-7.314247000695287,-0.6292083294013229,-0.12844895664800893,-0.026671428508262096,-0.048690743076545084,MFEDIQLIYMNIKILRFWALLYDKNLRRYVCIGLASFHIFTQIVYMMSTNEGLTGIIRNSYMLVLWINTVLRAYLLLADHDRYLALIQKLTEAYYDLLNLNDSYISEILDQVNKVGKLMARGNLFFGMLTSMGFGLYPLSSSERVLPFGSKIPGLNEYESPYYEMWYIFQMLITPMGCCMYIPYTSLIVGLIMFGIVRCKALQHRLRQVALKHPYGDRDPRELREEIIACIRYQQSIIEYMDHINELTTMMFLFELMAFSALLCALLFMLIIVSGTSQLIIVCMYINMILAQILALYWYANELREQNLAVATAAYETEWFTFDVPLRKNILFMMMRAQRPAAILLGNIRPITLELFQNLLNTTYTFFTVLKRVYG,r
RDKitDescriptors2D,0.03963869291248654,-1.1537724336272295,-0.210284857965801,-0.37000072738249146,0.336964136422233,0.17033472743148603,0.2711801860570061,-2.296038853930637,-0.006489301917619983,-0.16873141238266798,0.10905947462695087,-3.4066620745321723,MAVFKLIKPAPLTEKVQSRQGNIYLYRAMWLIGWIPPKEGVLRYVYLFWTCVPFAFGVFYLPVGFIISYVQEFKNFTPGEFLTSLQVCINVYGASVKSTITYLFLWRLRKTEILLDSLDKRLANDSDRERIHNMVARCNYAFLIYSFIYCGYAGSTFLSYALSGRPPWSVYNPFIDWRDGMGSLWIQAIFEYITMSFAVLQDQLSDTYPLMFTIMFRAHMEVLKDHVRSLRMDPERSEADNYQDLVNCVLDHKTILKCCDMIRPMISRTIFVQFALIGSVLGLTLVNVFFFSNFWKGVASLLFVITILLQTFPFCYTCNMLIDDAQDLSNEIFQSNWVDAEPRYKATLVLFMHHVQQPIIFIAGGIFPISMNSNITVAKFAFSIITIVRQMNLAEQFQ,r
RDKitDescriptors2D,-0.003446166242274029,-0.17877803892550426,0.02152709349469817,0.052615219505271704,-0.09497554364451721,0.11893556256575077,-0.11533316313257358,-0.4129906276024238,-0.014921966562675859,-0.11172671008990176,-0.01662500793420163,-0.33762588243831826,MTELRSERKNGNWDRLFGPFFESWAVFKAPQAKSRHIIAYWTRDQLKALGFYMNSEQRRLPRIVAWQYFVSIQLATALASLFYGISESIGDIVNLGRDLVFIITIIFICFRLVFFAQYAGELDVIIDALEDIYHWSIKGPATKEVQETKRLHFLLFMALIITWFSFLILFMLIKISTPFWIESQTLPFHVSWPFQLHDPSKHPIAYIIIFVSQSTTMLYFLIWLGVVENMGVSLFFELTSALRVLCIELRNLQELCLGDEDMLYRELCRMTKFHQQIILLTDRCNHIFNGAFIMQMLINFLLVSLSLFEVLAAKKNPQVAVEYMIIMLMTLGHLSFWSKFGDMFSKESEQVALAVYEAYDPNVGSKSIHRQFCFFIQRAQKPLIMKASPFPPFNLENYMFILKQCYSILTILANTLE,r
RDKitDescriptors2D,0.27454846647568454,-0.1905691860357725,0.3098762957800263,0.31000042677466677,0.2605762279000974,0.3575610566654319,0.13472832525820022,-0.5060019429063793,0.019062344598778647,-0.25796185278809536,-0.15399845769190512,-0.053946021391261256,MDNVAEMPEEKYVEVDDFLRLAVKFYNTLGIDPYETGRKRTIWFQIYFALNMFNMVFSFYAEVATLVDRLRDNENFLESCILLSYVSFVVMGLSKIGAVMKKKPKMTALVRQLETCFPSPSAKVQEEYAVKSWLKRCHIYTKGFGGLFMIMYFAHALIPLFIYFIQRVLLHYPDAKQIMPFYQLEPWEFRDSWLFYPSYFHQSSAGYTATCGSIAGDLMIFAVVLQVIMHYERLAKVLREFKIQAHNAPNGAKEDIRKLQSLVANHIDILRLTDLMNEVFGIPLLLNFIASALLVCLVGVQLTIALSPEYFCKQMLFLISVLLEVYLLCSFSQRLIDASENVGHAAYDMDWLGSDKRFKKILIFISMRSQKPVCLKATVVLDLSMPTMSIFLGMSYKFFCAVRTMYQ,r
RDKitDescriptors2D,0.0678348369253154,-2.1767816586924438,0.056461649235336364,-0.1251912229850225,0.13581239700552394,-0.04209935181470503,0.3141907131854442,-7.448166356230297,-0.0033464060410659524,-0.7318769811886798,-0.0022927704599433607,-2.6982257795422324,METAKDNTARTFMELMRVPVQFYRTIGEDIYAHRSTNPLKSLLFKIYLYAGFINFNLLVIGELVFFYNSIQDFETIRLAIAVAPCIGFSLVADFKQAAMIRGKKTLIMLLDDLENMHPKTLAKQMEYKLPDFEKTMKRVINIFTFLCLAYTTTFSFYPAIKASVKFNFLGYDTFDRNFGFLIWFPFDATRNNLIYWIMYWDIAHGAYLAGIAFLCADLLLVVVITQICMHFNYISMRLEDHPCNSNEDKENIEFLIGIIRYHDKCLKLCEHVNDLYSFSLLLNFLMASMQICFIAFQVTESTVEVIIIYCIFLMTSMVQVFMVCYYGDTLIAASLKVGDAAYNQKWFQCSKSYCTMLKLLIMRSQKPASIRPPTFPPISLVTYMKVISMSYQFFALLRTTYSNN,r
RDKitDescriptors2D,-0.06420882651019451,-0.7969307596425759,-0.0005600668285528076,-0.004652511776574109,-0.09782129392163053,-0.2074981361908843,-0.010512123833330778,-0.11763448456817094,-0.001275844572224294,-1.8479488585239285,-0.024995653587186695,-1.9927989569613689,MGRLFQLQEYCLRAMGHKDDMDSTDSTALSLKHISSLIFVISAQYPLISYVAYNRNDMEKVTACLSVVFTNMLTVIKISTFLANRKDFWEMIHRFRKMHEQSASHIPRYREGLDYVAEANKLASFLGRAYCVSCGLTGLYFMLGPIVKIGVCRWHGTTCDKELPMPMKFPFNDLESPGYEVCFLYTVLVTVVVVAYASAVDGLFISFAINLRAHFQTLQRQIENWEFPSSEPDTQIRLKSIVEYHVLLLSLSRKLRSIYTPTVMGQFVITSLQVGVIIYQLVTNMDSVMDLLLYASFFGSIMLQLFIYCYGGEIIKAESLQVDTAVRLSNWHLASPKTRTSLSLIILQSQKEVLIRAGFFVASLANFVGICRTALSLITLIKSIE,r
RDKitDescriptors2D,-0.2744035544727149,-2.689536695255805,-0.013104046281850135,-0.6947171523145759,-0.33306275979682565,-0.3331281187840289,0.0019943048137058828,-9.221790639832633,-3.426478129298083e-05,-0.1899271349512286,-0.05679339525842275,-3.979138041455447,MIFKYIQEPVLGSLFRSRDSLIYLNRSIDQMGWRLPPRTKPYWWLYYIWTLVVIVLVFIFIPYGLIMTGIKEFKNFTTTDLFTYVQVPVNTNASIMKGIIVLFMRRRFSRAQKMMDAMDIRCTKMEEKVQVHRAAALCNRVVVIYHCIYFGYLSMALTGALVIGKTPFCLYNPLVNPDDHFYLATAIESVTMAGIILANLILDVYPIIYVVVLRIHMELLSERIKTLRTDVEKGDDQHYAELVECVKDHKLIVEYGNTLRPMISATMFIQLLSVGLLLGLAAVSMQFYNTVMERVVSGVYTIAILSQTFPFCYVCEQLSSDCESLTNTLFHSKWIGAERRYRTTMLYFIHNVQQSILFTAGGIFPICLNTNIKMAKFAFSVVTIVNEMDLAEKLRRE,r
RDKitDescriptors2D,0.11004530372330805,-1.4994917366128964,0.1478350071177742,-0.00976643572998337,0.14095725726250063,0.268446736404765,0.0027539535614837796,-5.8951783609841,-0.06214141964892472,-0.5001828530744863,-0.011425244188797423,-1.0285308051681739,MEKLMKYASFFYTAVGIRPYTNGEESKMNKLIFHIVFWSNVINLSFVGLFESIYVYSAFMDNKFLEAVTALSYIGFVTVGMSKMFFIRWKKTAITELINELKEIYPNGLIREERYNLPMYLGTCSRISLIYSLLYSVLIWTFNLFCVMEYWVYDKWLNIRVVGKQLPYLMYIPWKWQDNWSYYPLLFSQNFAGYTSAAGQISTDVLLCAVATQLVMHFDFLSNSMERHELSGDWKKDSRFLVDIVRYHERILRLSDAVNDIFGIPLLLNFMVSSFVICFVGFQMTVGVPPDIVVKLFLFLVSSMSQVYLICHYGQLVADASYGFSVATYNQKWYKADVRYKRALVIIIARSQKVTFLKATIFLDITRSTMTDLLQISYKFFALLRTMYTQ,r
RDKitDescriptors2D,0.0642768435692455,-0.513744430543472,-0.10389635322178736,0.016180406044962625,0.054693648834929554,0.10638126258797564,0.24802525360014704,-1.9531828651702812,-0.0003989375675708118,-0.6113980757666064,-0.009477245644574195,0.005734971431673008,MEPVQYSYEDFARLPTTVFWIMGYDMLGVPKTRSRRILYWIYRFLCLASHGVCVGVMVFRMVEAKTIDNVSLIMRYATLVTYIINSDTKFATVLQRSAIQSLNSKLAELYPKTTLDRIYHRVNDHYWTKSFVYLVIIYIGSSIMVVIGPIITSIIAYFTHNVFTYMHCYPYFLYDPEKDPVWIYISIYALEWLHSTQMVISNIGADIWLLYFQVQINLHFRGIIRSLADHKPSVKHDQEDRKFIAKIVDKQVHLVSLQNDLNGIFGKSLLLSLLTTAAVICTVAVYTLIQGPTLEGFTYVIFIGTSVMQVYLVCYYGQQVLDLSGEVAHAVYNHDFHDASIAYKRYLLIIIIRAQQPVELNAMGYLSISLDTFKQLMSVSYRVITMLMQMIQ,r
RDKitDescriptors2D,-0.14202246201758972,-0.07068810739155147,-0.009657237402129093,-0.3558740896099204,-0.11921550433231576,-0.27476903457149415,0.04940355582791078,0.0005240465273955719,0.032052868193402584,-0.051085531338943335,-0.23724198335904956,-0.09768993698056261,MKPTEIKKPYRMEEFLRPQMFQEVAQMVHFQWRRNPVDNSMVNASMVPFCLSAFLNVLFFGCNGWDIIGHFWLGHPANQNPPVLSITIYFSIRGLMLYLKRKEIVEFVNDLDRECPRDLVSQLDMQMDETYRNFWQRYRFIRIYSHLGGPMFCVVPLALFLLTHEGKDTPVAQHEQLLGGWLPCGVRKDPNFYLLVWSFDLMCTTCGVSFFVTFDNLFNVMQGHLVMHLGHLARQFSAIDPRQSLTDEKRFFVDLRLLVQRQQLLNGLCRKYNDIFKVAFLVSNFVGAGSLCFYLFMLSETSDVLIIAQYILPTLVLVGFTFEICLRGTQLEKASEGLESSLRSQEWYLGSRRYRKFYLLWTQYCQRTQQLGAFGLIQVNMVHFTEIMQLAYRLFTFLKSH,r
RDKitDescriptors2D,-0.03817162050201524,-2.51181779794779,-0.01392897074738797,-0.34417488873581337,0.0683196393524017,0.12656766336147918,-0.027641545740755724,-8.493794990568734,-0.01712783591788325,-1.0147348494429083,-0.058073421903683586,-2.9753578919057415,MLFNYLRKPNPTNLLTSPDSFRYFEYGMFCMGWHTPATHKIIYYITSCLIFAWCAVYLPIGIIISFKTDINTFTPNELLTVMQLFFNSVGMPFKVLFFNLYISGFYKAKKLLSEMDKRCTTLKERVEVHQGVVRCNKAYLIYQFIYTAYTISTFLSAALSGKLPWRIYNPFVDFRESRSSFWKAALNETALMLFAVTQTLMSDIYPLLYGLILRVHLKLLRLRVESLCTDSGKSDAENEQDLIKCIKDHNLIIDYAAAIRPAVTRTIFVQFLLIGICLGLSMINLLFFADIWTGLATVAYINGLMVQTFPFCFVCDLLKKDCELLVSAIFHSNWINSSRSYKSSLRYFLKNAQKSIAFTAGSIFPISTGSNIKVAKLAFSVVTFVNQLNIADRLTKN,r
ScaffoldKeyCalculator,0.10705621239956198,-5.397116997447392,0.09719692082903364,0.16231834738621786,0.15739839982590365,-0.037340913630078854,0.1557083075867336,-23.109451530540746,-0.31292855352089366,-1.2905016771398428,-0.007657168632417166,-2.265046057403059,MEKQEDFKLNTHSAVYYHWRVWELTGLMRPPGVSSLLYVVYSITVNLVVTVLFPLSLLARLLFTTNMAGLCENLTITITDIVANLKFANVYMVRKQLHEIRSLLRLMDARARLVGDPEEISALRKEVNIAQGTFRTFASIFVFGTTLSCVRVVVRPDRELLYPAWFGVDWMHSTRNYVLINIYQLFGLIVQAIQNCASDSYPPAFLCLLTGHMRALELRVRRIGCRTEKSNKGQTYEAWREEVYQELIECIRDLARVHRLREIIQRVLSVPCMAQFVCSAAVQCTVAMHFLYVADDHDHTAMIISIVFFSAVTLEVFVICYFGDRMRTQSEALCDAFYDCNWIEQLPKFKRELLFTLARTQRPSLIYAGNYIALSLETFEQVMRFTYSVFTLLLRAK,r
ScaffoldKeyCalculator,0.0005292369927288431,-0.998961540882578,0.03839937847099817,-0.0075294431927293015,0.10101120001233055,-0.11622810141305795,-0.013006848913897251,-3.33431241317216,-0.2725757142703673,-0.25073250202206765,-1.0187317986020217,-0.1184552763462734,MAVSTRVATKQEVPESRRAFRNLFNCFYALGMQAPDGSRPTTSSTWQRIYACFSVVMYVWQLLLVPTFFVISYRYMGGMEITQVLTSAQVAIDAVILPAKIVALAWNLPLLRRAEHHLAALDARCREQEEFQLILDAVRFCNYLVWFYQICYAIYSSSTFVCAFLLGQPPYALYLPGLDWQRSQMQFCIQAWIEFLIMNWTCLHQASDDVYAVIYLYVVRIQVQLLARRVEKLGTDDSGQVEIYPDERRQEEHCAELQRCIVDHQTMLQLLDCISPVISRTIFVQFLITAAIMGTTMINIFIFANTNTKIASIIYLLAVTLQTAPCCYQATSLMLDNERLALAIFQCQWLGQSARFRKMLLYYLHRAQQPITLTAMKLFPINLATYFSIAKFSFSLYTLIKGMNLGERFNRTN,r
ScaffoldKeyCalculator,0.04808189223484775,-0.7174130920107938,-0.05989828170666933,0.1508148520817456,0.14883036705436925,-0.15262474085110633,0.15328726459589959,-2.59583942529824,-0.00411779704759474,-0.9523600296675929,-0.017060714764027596,-0.017687493276513644,MSDKVKGKKQEEKDQSLRVQILVYRCMGIDLWSPTMANDRPWLTFVTMGPLFLFMVPMFLAAHEYITQVSLLSDTLGSTFASMLTLVKFLLFCYHRKEFVGLIYHIRAILAKEIEVWPDAREIIEVENQSDQMLSLTYTRCFGLAGIFAALKPFVGIILSSIRGDEIHLELPHNGVYPYDLQVVMFYVPTYLWNVMASYSAVTMALCVDSLLFFFTYNVCAIFKIAKHRMIHLPAVGGKEELEGLVQVLLLHQKGLQIADHIADKYRPLIFLQFFLSALQICFIGFQVADLFPNPQSLYFIAFVGSLLIALFIYSKCGENIKSASLDFGNGLYETNWTDFSPPTKRALLIAAMRAQRPCQMKGYFFEASMATFSTIVRSAVSYIMMLRSFNA,r
ScaffoldKeyCalculator,-0.09955389324200763,-0.37160696218467915,0.15216603611449575,0.04286980281070829,0.05307934153492766,0.034335668703022515,-0.7802203153731924,-0.7601442747675737,0.08423216002153322,-0.003811436305759086,-0.14661609345954707,-1.031695166412049,MSEWLRFLKRDQQLDVYFFAVPRLSLDIMGYWPGKTGDTWPWRSLIHFAILAIGVATELHAGMCFLDRQQITLALETLCPAGTSAVTLLKMFLMLRFRQDLSIMWNRLRGLLFDPNWERPEQRDIRLKHSAMAARINFWPLSAGFFTCTTYNLKPILIAMILYLQNRYEDFVWFTPFNMTMPKVLLNYPFFPLTYIFIAYTGYVTIFMFGGCDGFYFEFCAHLSALFEVLQAEIESMFRPYTDHLELSPVQLYILEQKMRSVIIRHNAIIDLTRFFRDRYTIITLAHFVSAAMVIGFSMVNLLTLGNNGLGAMLYVAYTVAALSQLLVYCYGGTLVAESSTGLCRAMFSCPWQLFKPKQRRLVQLLILRSQRPVSMAVPFFSPSLATFAAILQTSGSIIALVKSFQ,r
ScaffoldKeyCalculator,-0.11672151604299622,-1.2400837271723046,0.009270970051679539,-1.56599306235794e-05,0.005946350993044192,0.1263364548648217,-0.7251456961939029,-4.5460628805494165,-0.12483061713713628,-1.08058173488981,-0.4327855852605056,-0.016157818024655102,MDISKVDSTRALVNHWRIFRIMGIHPPGKRTFWGRHYTAYSMVWNVTFHICIWVSFSVNLLQSNSLETFCESLCVTMPHTLYMLKLINVRRMRGQMISSHWLLRLLDKRLGCDDERQIIMAGIERAEFIFRTIFRGLACTVVLGIIYISASSEPTLMYPTWIPWNWRDSTSAYLATAMLHTTALMANATLVLNLSSYPGTYLILVSVHTKALALRVSKLGYGAPLPAVRMQAILVGYIHDHQIILRLFKSLERSLSMTCFLQFFSTACAQCTICYFLLFGNVGIMRFMNMLFLLVILTTETLLLCYTAELPCKEGESLLTAVYSCNWLSQSVNFRRLLLLMLARCQIPMILVSGVIVPISMKTFTVMIKGAYTMLTLLNEIRKTSLE,r
ScaffoldKeyCalculator,0.043032828876080356,-2.2423117109268276,0.11739468629001659,0.08368449156815583,0.24049408625820756,-0.35511912884395835,0.12871000910798014,-6.971762465841808,-0.00031655001405206384,-0.7211603196351009,-0.12934713791929675,-3.38897208122388,MLSKFFPHIKEKPLSERVKSRDAFIYLDRVMWSFGWTEPENKRWILPYKLWLAFVNIVMLILLPISISIEYLHRFKTFSAGEFLSSLEIGVNMYGSSFKCAFTLIGFKKRQEAKVLLDQLDKRCLSDKERSTVHRYVAMGNFFDILYHIFYSTFVVMNFPYFLLERRHAWRMYFPYIDSDEQFYISSIAECFLMTEAIYMDLCTDVCPLISMLMARCHISLLKQRLRNLRSKPGRTEDEYLEELTECIRDHRLLLDYVDALRPVFSGTIFVQFLLIGTVLGLSMINLMFFSTFWTGVATCLFMFDVSMETFPFCYLCNMIIDDCQEMSNCLFQSDWTSADRRYKSTLVYFLHNLQQPITLTAGGVFPISMQTNLAMVKLAFSVVTVIKQFNLAERFQ,r
ScaffoldKeyCalculator,0.08621899742733077,-4.529434638885097,0.051354052548571505,0.0701075323684407,0.10913684733902096,0.10170381155036312,0.09879274333025756,-19.388449896278345,-0.06811782303443747,-1.017180356673299,-0.14924851410426299,-2.02417660433514,MKLSETLKIDYFRVQLNAWRICGALDLSEGRYWSWSMLLCILVYLPTPMLLRGVYSFEDPVENNFSLSLTVTSLSNLMKFCMYVAQLTKMVEVQSLIGQLDARVSGESQSERHRNMTEHLLRMSKLFQITYAVVFIIAAVPFVFETELSLPMPMWFPFDWKNSMVAYIGALVFQEIGYVFQIMQCFAADSFPPLVLYLISEQCQLLILRISEIGYGYKTLEENEQDLVNCIRDQNALYRLLDVTKSLVSYPMMVQFMVIGINIAITLFVLIFYVETLYDRIYYLCFLLGITVQTYPLCYYGTMVQESFAELHYAVFCSNWVDQSASYRGHMLILAERTKRMQLLLAGNLVPIHLSTYVACWKGAYSFFTLMADRDGLGS,r
ScaffoldKeyCalculator,-0.13035389121674062,-1.1513217391231543,-0.02817985774414211,0.01785275067726788,0.0056602692168203905,-0.535165890906063,-0.1119367273275862,-5.056871370799248,-0.10209317605136237,-0.5925601140263139,-0.0002291693798079919,-0.004854865359039007,MDLKPRVIRSEDIYRTYWLYWHLLGLESNFFLNRLLDLVITIFVTIWYPIHLILGLFMERSLGDVCKGLPITAACFFASFKFICFRFKLSEIKEIEILFKELDQRALSREECEFFNQNTRREANFIWKSFIVAYGLSNISAIASVLFGGGHKLLYPAWFPYDVQATELIFWLSVTYQIAGVSLAILQNLANDSYPPMTFCVVAGHVRLLAMRLSRIGQGPEETIYLTGKQLIESIEDHRKLMKIVELLRSTMNISQLGQFISSGVNISITLVNILFFADNNFAITYYGVYFLSMVLELFPCCYYGTLISVEMNQLTYAIYSSNWMSMNRSYSRILLIFMQLTLAEVQIKAGGMIGIGMNAFFATVRLAYSFFTLAMSLR,r
ScaffoldKeyCalculator,-0.02336567746097955,-0.8337807357711602,-0.14508804607989867,0.07550825255455851,-0.03752182629006118,0.07636161836711397,-0.08608838585661038,-2.5376244405394632,-0.02079552185758593,-1.1594985483313818,-0.1508839664540209,-0.30010120167334975,MVRYVPRFADGQKVKLAWPLAVFRLNHIFWPLDPSTGKWGRYLDKVLAVAMSLVFMQHNDAELRYLRFEASNRNLDAFLTGMPTYLILVEAQFRSLHILLHFEKLQKFLEIFYANIYIDPRKEPEMFRKVDGKMIINRLVSAMYGAVISLYLIAPVFSIINQSKDFLYSMIFPFDSDPLYIFVPLLLTNVWVGIVIDTMMFGETNLLCELIVHLNGSYMLLKRDLQLAIEKILVARDRPHMAKQLKVLITKTLRKNVALNQFGQQLEAQYTVRVFIMFAFAAGLLCALSFKAYTNPMANYIYAIWFGAKTVELLSLGQIGSDLAFTTDSLSTMYYLTHWEQILQYSTNPSENLRLLKLINLAIEMNSKPFYVTGLKYFRVSLQAGLKILQASFSYFTFLTSMQRRQMSN,r
ScaffoldKeyCalculator,-0.0206969262840333,-1.2572219834509972,-0.01151086630620668,-0.06483726224711384,-0.00041381889297342767,-0.02360039884134335,-0.0031222851325292122,-5.4502433533222545,-0.05845872082714343,-0.641727811953942,-0.09300845801428936,-0.042671573137356145,MTIEDIGLVGINVRMWRHLAVLYPTPGSSWRKFAFVLPVTAMNLMQFVYLLRMWGDLPAFILNMFFFSAIFNALMRTWLVIIKRRQFEEFLGQLATLFHSILDSTDEWGRGILRRAEREARNLAILNLSASFLDIVGALVSPLFREERAHPFGLALPGVSMTSSPVYEVIYLAQLPTPLLLSMMYMPFVSLFAGLAIFGKAMLQILVHRLGQIGGEEQSEEERFQRLASCIAYHTQVMRYVWQLNKLVANIVAVEAIIFGSIICSLLFCLNIITSPTQVISIVMYILTMLYVLFTYYNRANEICLENNRVAEAVYNVPWYEAGTRFRKTLLIFLMQTQHPMEIRVGNVYPMTLAMFQSLLNASYSYFTMLRGVTGK,r
ScaffoldKeyCalculator,0.06550223900834773,-7.161718761849377,0.013195846192723182,0.11360179095846679,0.05365918486605281,0.02423060932803378,0.12282376369646208,-23.150467022055654,-0.022839406578158084,-1.0878697092878609,-0.041841127254738764,-11.505576544070477,MFGHFKLVYPAPISEPIQSRDSNAYMMETLRNSGLNLKNDFGIGRKIWRVFSFTYNMVILPVSFPINYVIHLAEFPPELLLQSLQLCLNTWCFALKFFTLIVYTHRLELANKHFDELDKYCVKPAEKRKVRDMVATITRLYLTFVVVYVLYATSTLLDGLLHHRVPYNTYYPFINWRVDRTQMYIQSFLEYFTVGYAIYVATATDSYPVIYVAALRTHILLLKDRIIYLGDPSNEGSSDPSYMFKSLVDCIKAHRTMLNFCDAIQPIISGTIFAQFIICGSILGIIMINMVLFADQSTRFGIVIYVMAVLLQTFPLCFYCNAIVDDCKELAHALFHSAWWVQDKRYQRTVIQFLQKLQQPMTFTAMNIFNINLATNINVAKFAFTVYAIASGMNLDQKLSIKE,r
ScaffoldKeyCalculator,-0.011469741121899846,-1.839113665818838,0.031811364493582794,-0.047387424555273006,0.01780070242479681,0.0336340394944209,-0.09320738746702673,-1.124771495283615,-0.01704171590477066,-0.5437690430111826,-0.04039007404280892,-7.469596000851812,MDSFLQVQKSTIALLGFDLFSENREMWKRPYRAMNVFSIAAIFPFILAAVLHNWKNVLLLADAMVALLITILGLFKFSMILYLRRDFKRLIDKFRLLMSNEAEQGEEYAEILNAANKQDQRMCTLFRTCFLLAWALNSVLPLVRMGLSYWLAGHAEPELPFPCLFPWNIHIIRNYVLSFIWSAFASTGVVLPAVSLDTIFCSFTSNLCAFFKIAQYKVVRFKGGSLKESQATLNKVFALYQTSLDMCNDLNQCYQPIICAQFFISSLQLCMLGYLFSITFAQTEGVYYASFIATIIIQAYIYCYCGENLKTESASFEWAIYDSPWHESLGAGGASTSICRSLLISMMRAHRGFRITGYFFEANMEAFSSIVRTAMSYITMLRSFS,r
ScaffoldKeyCalculator,0.15784812195529413,-0.5609923345651657,0.16456869569145094,0.39447652832539903,0.23839549026502815,-0.10411333388231347,0.09591322937690594,-0.4497200187299919,-0.08659756772043115,-1.5724783925733563,0.243975767962609,-0.940141461764658,MNDSGYQSNLSLLRVFLDEFRSVLRQESPGLIPRLAFYYVRAFLSLLCQYPNKKLASLPLYRWINLFIMCNVMTIFWTMFVALPESKNVIEMGDDLVWISGMALVFTKIFYMHLRCDEIDELISDFEYYNRELRPHNIDEEVLGWQRLCYVIESGLYINCFCLVNFFSAAIFLQPLLGEGKLPFHSVYPFQWHRLDLHPYTFWFLYIWQSLTSQHNLMSILMVDMVGISTFLQTALNLKLLCIEIRKLGDMEVSDKRFHEEFCRVVRFHQHIIKLVGKANRAFNGAFNAQLMASFSLISISTFETMAAAAVDPKMAAKFVLLMLVAFIQLSLWCVSGTLVYTQSVEVAQAAFDINDWHTKSPGIQRDISFVILRAQKPLMYVAEPFLPFTLGTYMLVLKNCYRLLALMQESM,r
ScaffoldKeyCalculator,0.02816387078016085,-1.6132387961885943,0.01131792970259382,-0.31673310651076725,0.21951223212653925,0.2321295856570993,-0.0054072870746608714,-7.314299219508065,-0.6291893521800163,-0.12844549286046636,-0.02667783904649279,0.032417922652067444,MFEDIQLIYMNIKILRFWALLYDKNLRRYVCIGLASFHIFTQIVYMMSTNEGLTGIIRNSYMLVLWINTVLRAYLLLADHDRYLALIQKLTEAYYDLLNLNDSYISEILDQVNKVGKLMARGNLFFGMLTSMGFGLYPLSSSERVLPFGSKIPGLNEYESPYYEMWYIFQMLITPMGCCMYIPYTSLIVGLIMFGIVRCKALQHRLRQVALKHPYGDRDPRELREEIIACIRYQQSIIEYMDHINELTTMMFLFELMAFSALLCALLFMLIIVSGTSQLIIVCMYINMILAQILALYWYANELREQNLAVATAAYETEWFTFDVPLRKNILFMMMRAQRPAAILLGNIRPITLELFQNLLNTTYTFFTVLKRVYG,r
ScaffoldKeyCalculator,-0.19218824563042322,-1.0302013344919279,-0.27397375481566666,-1.2265485608323288,0.2077553186438964,0.08188916493873444,0.24993660391324846,-1.2398699957906918,0.005954846632619359,-0.21274028903021458,0.030600511274484488,-3.7349517455458363,MAVFKLIKPAPLTEKVQSRQGNIYLYRAMWLIGWIPPKEGVLRYVYLFWTCVPFAFGVFYLPVGFIISYVQEFKNFTPGEFLTSLQVCINVYGASVKSTITYLFLWRLRKTEILLDSLDKRLANDSDRERIHNMVARCNYAFLIYSFIYCGYAGSTFLSYALSGRPPWSVYNPFIDWRDGMGSLWIQAIFEYITMSFAVLQDQLSDTYPLMFTIMFRAHMEVLKDHVRSLRMDPERSEADNYQDLVNCVLDHKTILKCCDMIRPMISRTIFVQFALIGSVLGLTLVNVFFFSNFWKGVASLLFVITILLQTFPFCYTCNMLIDDAQDLSNEIFQSNWVDAEPRYKATLVLFMHHVQQPIIFIAGGIFPISMNSNITVAKFAFSIITIVRQMNLAEQFQ,r
ScaffoldKeyCalculator,0.03099117955905022,-0.37376817175916177,0.030415782695305538,0.042835385126336334,0.03399932771439962,0.1375044953236375,-0.0897990930644279,-1.3912240507417302,-0.014920999545525948,-0.10845433397087767,-0.016627929997368396,-0.33761354454030656,MTELRSERKNGNWDRLFGPFFESWAVFKAPQAKSRHIIAYWTRDQLKALGFYMNSEQRRLPRIVAWQYFVSIQLATALASLFYGISESIGDIVNLGRDLVFIITIIFICFRLVFFAQYAGELDVIIDALEDIYHWSIKGPATKEVQETKRLHFLLFMALIITWFSFLILFMLIKISTPFWIESQTLPFHVSWPFQLHDPSKHPIAYIIIFVSQSTTMLYFLIWLGVVENMGVSLFFELTSALRVLCIELRNLQELCLGDEDMLYRELCRMTKFHQQIILLTDRCNHIFNGAFIMQMLINFLLVSLSLFEVLAAKKNPQVAVEYMIIMLMTLGHLSFWSKFGDMFSKESEQVALAVYEAYDPNVGSKSIHRQFCFFIQRAQKPLIMKASPFPPFNLENYMFILKQCYSILTILANTLE,r
ScaffoldKeyCalculator,0.06267529847734776,-0.3920666687772023,0.13264658809547059,0.12932339103369406,0.06553656798344487,0.21177527608373303,-0.22590533080960373,-0.8890272491245637,-0.11087534935640675,-0.38303535650050513,-0.1539957388075075,-0.4233996500970285,MDNVAEMPEEKYVEVDDFLRLAVKFYNTLGIDPYETGRKRTIWFQIYFALNMFNMVFSFYAEVATLVDRLRDNENFLESCILLSYVSFVVMGLSKIGAVMKKKPKMTALVRQLETCFPSPSAKVQEEYAVKSWLKRCHIYTKGFGGLFMIMYFAHALIPLFIYFIQRVLLHYPDAKQIMPFYQLEPWEFRDSWLFYPSYFHQSSAGYTATCGSIAGDLMIFAVVLQVIMHYERLAKVLREFKIQAHNAPNGAKEDIRKLQSLVANHIDILRLTDLMNEVFGIPLLLNFIASALLVCLVGVQLTIALSPEYFCKQMLFLISVLLEVYLLCSFSQRLIDASENVGHAAYDMDWLGSDKRFKKILIFISMRSQKPVCLKATVVLDLSMPTMSIFLGMSYKFFCAVRTMYQ,r
ScaffoldKeyCalculator,0.07204285721453356,-2.635932099986287,0.03945908028266165,0.07867458790268644,0.08008798065599576,-0.018572440075709018,0.18056507730703297,-9.735772571475142,-0.0033676090987089236,-0.7319054712720416,-0.010030722868135111,-2.6985841252174105,METAKDNTARTFMELMRVPVQFYRTIGEDIYAHRSTNPLKSLLFKIYLYAGFINFNLLVIGELVFFYNSIQDFETIRLAIAVAPCIGFSLVADFKQAAMIRGKKTLIMLLDDLENMHPKTLAKQMEYKLPDFEKTMKRVINIFTFLCLAYTTTFSFYPAIKASVKFNFLGYDTFDRNFGFLIWFPFDATRNNLIYWIMYWDIAHGAYLAGIAFLCADLLLVVVITQICMHFNYISMRLEDHPCNSNEDKENIEFLIGIIRYHDKCLKLCEHVNDLYSFSLLLNFLMASMQICFIAFQVTESTVEVIIIYCIFLMTSMVQVFMVCYYGDTLIAASLKVGDAAYNQKWFQCSKSYCTMLKLLIMRSQKPASIRPPTFPPISLVTYMKVISMSYQFFALLRTTYSNN,r
ScaffoldKeyCalculator,-0.0739337996661007,-0.7767182166476602,0.04117934591008998,0.10577437495486719,-0.19724896906100486,-0.06495630407339315,-0.25441744606106265,-0.016681393995665816,-0.0012744776348336817,-1.8479378920126326,-0.024994795385828494,-1.99270252420934,MGRLFQLQEYCLRAMGHKDDMDSTDSTALSLKHISSLIFVISAQYPLISYVAYNRNDMEKVTACLSVVFTNMLTVIKISTFLANRKDFWEMIHRFRKMHEQSASHIPRYREGLDYVAEANKLASFLGRAYCVSCGLTGLYFMLGPIVKIGVCRWHGTTCDKELPMPMKFPFNDLESPGYEVCFLYTVLVTVVVVAYASAVDGLFISFAINLRAHFQTLQRQIENWEFPSSEPDTQIRLKSIVEYHVLLLSLSRKLRSIYTPTVMGQFVITSLQVGVIIYQLVTNMDSVMDLLLYASFFGSIMLQLFIYCYGGEIIKAESLQVDTAVRLSNWHLASPKTRTSLSLIILQSQKEVLIRAGFFVASLANFVGICRTALSLITLIKSIE,r
ScaffoldKeyCalculator,-0.2968624848143036,-2.5149079164587596,-0.01363065417437248,-0.8179543133982496,-0.40609781460234284,-0.2540584939041015,0.007428852007548614,-8.34837603059938,-5.76047281846126e-05,-0.1899338730888518,-0.056795980851393146,-3.9793760930259854,MIFKYIQEPVLGSLFRSRDSLIYLNRSIDQMGWRLPPRTKPYWWLYYIWTLVVIVLVFIFIPYGLIMTGIKEFKNFTTTDLFTYVQVPVNTNASIMKGIIVLFMRRRFSRAQKMMDAMDIRCTKMEEKVQVHRAAALCNRVVVIYHCIYFGYLSMALTGALVIGKTPFCLYNPLVNPDDHFYLATAIESVTMAGIILANLILDVYPIIYVVVLRIHMELLSERIKTLRTDVEKGDDQHYAELVECVKDHKLIVEYGNTLRPMISATMFIQLLSVGLLLGLAAVSMQFYNTVMERVVSGVYTIAILSQTFPFCYVCEQLSSDCESLTNTLFHSKWIGAERRYRTTMLYFIHNVQQSILFTAGGIFPICLNTNIKMAKFAFSVVTIVNEMDLAEKLRRE,r
ScaffoldKeyCalculator,0.07403517950970769,-1.9377284264710972,0.07553978863684929,0.009912883653215743,0.08184288378931137,0.13872095110240834,0.06415939036675367,-8.086307716752678,-0.06214382995899226,-0.500189709049599,-0.011435604489651086,-1.0285652721045655,MEKLMKYASFFYTAVGIRPYTNGEESKMNKLIFHIVFWSNVINLSFVGLFESIYVYSAFMDNKFLEAVTALSYIGFVTVGMSKMFFIRWKKTAITELINELKEIYPNGLIREERYNLPMYLGTCSRISLIYSLLYSVLIWTFNLFCVMEYWVYDKWLNIRVVGKQLPYLMYIPWKWQDNWSYYPLLFSQNFAGYTSAAGQISTDVLLCAVATQLVMHFDFLSNSMERHELSGDWKKDSRFLVDIVRYHERILRLSDAVNDIFGIPLLLNFMVSSFVICFVGFQMTVGVPPDIVVKLFLFLVSSMSQVYLICHYGQLVADASYGFSVATYNQKWYKADVRYKRALVIIIARSQKVTFLKATIFLDITRSTMTDLLQISYKFFALLRTMYTQ,r
ScaffoldKeyCalculator,-0.02617082199000047,-0.5913420763139552,-0.08332568395366624,0.045888037266102355,-0.08691200352020445,-0.16342103083591786,0.15691657109368384,-2.3253709571145964,-0.00040884537955698796,-0.6114227239759,-0.009495782522110252,-0.010012072577612052,MEPVQYSYEDFARLPTTVFWIMGYDMLGVPKTRSRRILYWIYRFLCLASHGVCVGVMVFRMVEAKTIDNVSLIMRYATLVTYIINSDTKFATVLQRSAIQSLNSKLAELYPKTTLDRIYHRVNDHYWTKSFVYLVIIYIGSSIMVVIGPIITSIIAYFTHNVFTYMHCYPYFLYDPEKDPVWIYISIYALEWLHSTQMVISNIGADIWLLYFQVQINLHFRGIIRSLADHKPSVKHDQEDRKFIAKIVDKQVHLVSLQNDLNGIFGKSLLLSLLTTAAVICTVAVYTLIQGPTLEGFTYVIFIGTSVMQVYLVCYYGQQVLDLSGEVAHAVYNHDFHDASIAYKRYLLIIIIRAQQPVELNAMGYLSISLDTFKQLMSVSYRVITMLMQMIQ,r
ScaffoldKeyCalculator,-0.12510417126232154,-0.10194197728138632,0.002614355082306341,-0.3558757129888148,-0.024114084559447857,-0.24188158297748963,-0.006263830868161735,-0.021708854186690107,-0.08714721691561378,-0.06592865203852227,-0.23723769469886968,-0.09768746856723576,MKPTEIKKPYRMEEFLRPQMFQEVAQMVHFQWRRNPVDNSMVNASMVPFCLSAFLNVLFFGCNGWDIIGHFWLGHPANQNPPVLSITIYFSIRGLMLYLKRKEIVEFVNDLDRECPRDLVSQLDMQMDETYRNFWQRYRFIRIYSHLGGPMFCVVPLALFLLTHEGKDTPVAQHEQLLGGWLPCGVRKDPNFYLLVWSFDLMCTTCGVSFFVTFDNLFNVMQGHLVMHLGHLARQFSAIDPRQSLTDEKRFFVDLRLLVQRQQLLNGLCRKYNDIFKVAFLVSNFVGAGSLCFYLFMLSETSDVLIIAQYILPTLVLVGFTFEICLRGTQLEKASEGLESSLRSQEWYLGSRRYRKFYLLWTQYCQRTQQLGAFGLIQVNMVHFTEIMQLAYRLFTFLKSH,r
ScaffoldKeyCalculator,4.479492616435987e-05,-3.6274239719636356,0.012297951338555602,-0.04949846531192614,-0.02979082743952377,0.055882210655562425,0.011333105388153686,-15.218406620209915,-0.017114358041967703,-0.8623681512661194,-0.05807246850298586,-1.9811582617971912,MLFNYLRKPNPTNLLTSPDSFRYFEYGMFCMGWHTPATHKIIYYITSCLIFAWCAVYLPIGIIISFKTDINTFTPNELLTVMQLFFNSVGMPFKVLFFNLYISGFYKAKKLLSEMDKRCTTLKERVEVHQGVVRCNKAYLIYQFIYTAYTISTFLSAALSGKLPWRIYNPFVDFRESRSSFWKAALNETALMLFAVTQTLMSDIYPLLYGLILRVHLKLLRLRVESLCTDSGKSDAENEQDLIKCIKDHNLIIDYAAAIRPAVTRTIFVQFLLIGICLGLSMINLLFFADIWTGLATVAYINGLMVQTFPFCFVCDLLKKDCELLVSAIFHSNWINSSRSYKSSLRYFLKNAQKSIAFTAGSIFPISTGSNIKVAKLAFSVVTFVNQLNIADRLTKN,r
ecfp,0.4238531066940435,-3.877067107245749,0.29856225714340145,0.48814960894696624,0.45044444723898025,0.5870312908142987,0.29507792932657106,-15.509201387776834,-0.3129286461880654,-1.290501796873969,-0.0076572532218879275,-2.265046452167987,MEKQEDFKLNTHSAVYYHWRVWELTGLMRPPGVSSLLYVVYSITVNLVVTVLFPLSLLARLLFTTNMAGLCENLTITITDIVANLKFANVYMVRKQLHEIRSLLRLMDARARLVGDPEEISALRKEVNIAQGTFRTFASIFVFGTTLSCVRVVVRPDRELLYPAWFGVDWMHSTRNYVLINIYQLFGLIVQAIQNCASDSYPPAFLCLLTGHMRALELRVRRIGCRTEKSNKGQTYEAWREEVYQELIECIRDLARVHRLREIIQRVLSVPCMAQFVCSAAVQCTVAMHFLYVADDHDHTAMIISIVFFSAVTLEVFVICYFGDRMRTQSEALCDAFYDCNWIEQLPKFKRELLFTLARTQRPSLIYAGNYIALSLETFEQVMRFTYSVFTLLLRAK,r
ecfp,0.382539082538455,-0.05507562178133132,0.41359933776255775,0.2946368182418082,0.20200816444365643,0.5808905525182912,0.4215605397259612,-0.5506307884845378,0.12532142898434828,0.27367656055009537,-0.04339161797438251,-0.0803536919821799,MAVSTRVATKQEVPESRRAFRNLFNCFYALGMQAPDGSRPTTSSTWQRIYACFSVVMYVWQLLLVPTFFVISYRYMGGMEITQVLTSAQVAIDAVILPAKIVALAWNLPLLRRAEHHLAALDARCREQEEFQLILDAVRFCNYLVWFYQICYAIYSSSTFVCAFLLGQPPYALYLPGLDWQRSQMQFCIQAWIEFLIMNWTCLHQASDDVYAVIYLYVVRIQVQLLARRVEKLGTDDSGQVEIYPDERRQEEHCAELQRCIVDHQTMLQLLDCISPVISRTIFVQFLITAAIMGTTMINIFIFANTNTKIASIIYLLAVTLQTAPCCYQATSLMLDNERLALAIFQCQWLGQSARFRKMLLYYLHRAQQPITLTAMKLFPINLATYFSIAKFSFSLYTLIKGMNLGERFNRTN,r
ecfp,0.18723140742716549,-0.8526020825217406,-0.23976357651575597,0.30751143069293463,0.4393417879219871,0.13448636692792526,0.29458102810873643,-2.3619856422464247,-0.0026528520924531396,-1.1208856514556045,-0.017060779267244586,-0.7604254875469765,MSDKVKGKKQEEKDQSLRVQILVYRCMGIDLWSPTMANDRPWLTFVTMGPLFLFMVPMFLAAHEYITQVSLLSDTLGSTFASMLTLVKFLLFCYHRKEFVGLIYHIRAILAKEIEVWPDAREIIEVENQSDQMLSLTYTRCFGLAGIFAALKPFVGIILSSIRGDEIHLELPHNGVYPYDLQVVMFYVPTYLWNVMASYSAVTMALCVDSLLFFFTYNVCAIFKIAKHRMIHLPAVGGKEELEGLVQVLLLHQKGLQIADHIADKYRPLIFLQFFLSALQICFIGFQVADLFPNPQSLYFIAFVGSLLIALFIYSKCGENIKSASLDFGNGLYETNWTDFSPPTKRALLIAAMRAQRPCQMKGYFFEASMATFSTIVRSAVSYIMMLRSFNA,r
ecfp,0.17764939735316992,-0.2741630996990576,0.4054109064671807,0.21863431171513037,0.2808001266360174,0.22506446628264465,-0.24166282433512354,-0.11734926124092371,-1.527028415319172,-0.03564461199727842,0.02597484543011863,0.28323194463196755,MSEWLRFLKRDQQLDVYFFAVPRLSLDIMGYWPGKTGDTWPWRSLIHFAILAIGVATELHAGMCFLDRQQITLALETLCPAGTSAVTLLKMFLMLRFRQDLSIMWNRLRGLLFDPNWERPEQRDIRLKHSAMAARINFWPLSAGFFTCTTYNLKPILIAMILYLQNRYEDFVWFTPFNMTMPKVLLNYPFFPLTYIFIAYTGYVTIFMFGGCDGFYFEFCAHLSALFEVLQAEIESMFRPYTDHLELSPVQLYILEQKMRSVIIRHNAIIDLTRFFRDRYTIITLAHFVSAAMVIGFSMVNLLTLGNNGLGAMLYVAYTVAALSQLLVYCYGGTLVAESSTGLCRAMFSCPWQLFKPKQRRLVQLLILRSQRPVSMAVPFFSPSLATFAAILQTSGSIIALVKSFQ,r
ecfp,0.3336568639714675,-0.8553479384491347,0.431457658240168,0.39237616642744955,0.5468622578499123,0.37825945927237126,-0.0806712219325636,-2.9447710915460457,-0.012786495608835713,-0.886428568072483,-0.4327855910749405,3.2054056632424555e-05,MDISKVDSTRALVNHWRIFRIMGIHPPGKRTFWGRHYTAYSMVWNVTFHICIWVSFSVNLLQSNSLETFCESLCVTMPHTLYMLKLINVRRMRGQMISSHWLLRLLDKRLGCDDERQIIMAGIERAEFIFRTIFRGLACTVVLGIIYISASSEPTLMYPTWIPWNWRDSTSAYLATAMLHTTALMANATLVLNLSSYPGTYLILVSVHTKALALRVSKLGYGAPLPAVRMQAILVGYIHDHQIILRLFKSLERSLSMTCFLQFFSTACAQCTICYFLLFGNVGIMRFMNMLFLLVILTTETLLLCYTAELPCKEGESLLTAVYSCNWLSQSVNFRRLLLLMLARCQIPMILVSGVIVPISMKTFTVMIKGAYTMLTLLNEIRKTSLE,r
ecfp,0.4487594672694625,-0.9520329153684534,0.4462253075630326,0.47290983777912854,0.3347419125246829,0.44521931799066927,0.5447009604897997,-3.159810134331729,0.20520264832489843,-0.7518639418232755,-0.22259513914726448,-0.8310980098648966,MLSKFFPHIKEKPLSERVKSRDAFIYLDRVMWSFGWTEPENKRWILPYKLWLAFVNIVMLILLPISISIEYLHRFKTFSAGEFLSSLEIGVNMYGSSFKCAFTLIGFKKRQEAKVLLDQLDKRCLSDKERSTVHRYVAMGNFFDILYHIFYSTFVVMNFPYFLLERRHAWRMYFPYIDSDEQFYISSIAECFLMTEAIYMDLCTDVCPLISMLMARCHISLLKQRLRNLRSKPGRTEDEYLEELTECIRDHRLLLDYVDALRPVFSGTIFVQFLLIGTVLGLSMINLMFFSTFWTGVATCLFMFDVSMETFPFCYLCNMIIDDCQEMSNCLFQSDWTSADRRYKSTLVYFLHNLQQPITLTAGGVFPISMQTNLAMVKLAFSVVTVIKQFNLAERFQ,r
ecfp,0.24650727195293745,-3.445582428458553,0.3020681080520037,0.25176121843155386,0.40768048885704233,0.2580806647203189,0.012945879703768481,-14.285014377699639,-0.06811784729215997,-1.0171804240324396,-0.14924860632623882,-1.7083508869422892,MKLSETLKIDYFRVQLNAWRICGALDLSEGRYWSWSMLLCILVYLPTPMLLRGVYSFEDPVENNFSLSLTVTSLSNLMKFCMYVAQLTKMVEVQSLIGQLDARVSGESQSERHRNMTEHLLRMSKLFQITYAVVFIIAAVPFVFETELSLPMPMWFPFDWKNSMVAYIGALVFQEIGYVFQIMQCFAADSFPPLVLYLISEQCQLLILRISEIGYGYKTLEENEQDLVNCIRDQNALYRLLDVTKSLVSYPMMVQFMVIGINIAITLFVLIFYVETLYDRIYYLCFLLGITVQTYPLCYYGTMVQESFAELHYAVFCSNWVDQSASYRGHMLILAERTKRMQLLLAGNLVPIHLSTYVACWKGAYSFFTLMADRDGLGS,r
ecfp,0.08780301120121956,-1.1948671193760303,0.03306465388544766,0.11822668923733137,0.16225288395741033,0.11175441465591895,0.013716414269989485,-5.265113938934879,-0.10209319124385763,-0.5925601090359047,-0.00022918027112606154,-0.014339177394385061,MDLKPRVIRSEDIYRTYWLYWHLLGLESNFFLNRLLDLVITIFVTIWYPIHLILGLFMERSLGDVCKGLPITAACFFASFKFICFRFKLSEIKEIEILFKELDQRALSREECEFFNQNTRREANFIWKSFIVAYGLSNISAIASVLFGGGHKLLYPAWFPYDVQATELIFWLSVTYQIAGVSLAILQNLANDSYPPMTFCVVAGHVRLLAMRLSRIGQGPEETIYLTGKQLIESIEDHRKLMKIVELLRSTMNISQLGQFISSGVNISITLVNILFFADNNFAITYYGVYFLSMVLELFPCCYYGTLISVEMNQLTYAIYSSNWMSMNRSYSRILLIFMQLTLAEVQIKAGGMIGIGMNAFFATVRLAYSFFTLAMSLR,r
ecfp,0.4329287454225709,-0.6114855856820091,0.3560145356911132,0.41301923204107693,0.3764909849310435,0.7358057515932027,0.28331322285641847,-1.321202162618477,-0.07716051460481355,-1.1594985808961793,-0.15088399058079238,-0.3486826797097835,MVRYVPRFADGQKVKLAWPLAVFRLNHIFWPLDPSTGKWGRYLDKVLAVAMSLVFMQHNDAELRYLRFEASNRNLDAFLTGMPTYLILVEAQFRSLHILLHFEKLQKFLEIFYANIYIDPRKEPEMFRKVDGKMIINRLVSAMYGAVISLYLIAPVFSIINQSKDFLYSMIFPFDSDPLYIFVPLLLTNVWVGIVIDTMMFGETNLLCELIVHLNGSYMLLKRDLQLAIEKILVARDRPHMAKQLKVLITKTLRKNVALNQFGQQLEAQYTVRVFIMFAFAAGLLCALSFKAYTNPMANYIYAIWFGAKTVELLSLGQIGSDLAFTTDSLSTMYYLTHWEQILQYSTNPSENLRLLKLINLAIEMNSKPFYVTGLKYFRVSLQAGLKILQASFSYFTFLTSMQRRQMSN,r
ecfp,0.14523101021667048,-1.260073130784469,0.11104134917712272,0.2515330405958992,0.20790779063873732,0.024817766784266615,0.13085510388732657,-5.450242826307926,-0.0584586895085748,-0.6417278028261795,-0.09300846601761092,-0.05692786926205451,MTIEDIGLVGINVRMWRHLAVLYPTPGSSWRKFAFVLPVTAMNLMQFVYLLRMWGDLPAFILNMFFFSAIFNALMRTWLVIIKRRQFEEFLGQLATLFHSILDSTDEWGRGILRRAEREARNLAILNLSASFLDIVGALVSPLFREERAHPFGLALPGVSMTSSPVYEVIYLAQLPTPLLLSMMYMPFVSLFAGLAIFGKAMLQILVHRLGQIGGEEQSEEERFQRLASCIAYHTQVMRYVWQLNKLVANIVAVEAIIFGSIICSLLFCLNIITSPTQVISIVMYILTMLYVLFTYYNRANEICLENNRVAEAVYNVPWYEAGTRFRKTLLIFLMQTQHPMEIRVGNVYPMTLAMFQSLLNASYSYFTMLRGVTGK,r
ecfp,0.18970500874400326,-3.2642072925753576,0.04869822240034105,0.20053658839156385,0.15088050477502757,0.3067656128909477,0.24164411526213614,-11.35459443230142,-0.01852820700864055,-0.8625022829014402,0.06415864904717405,-4.149570189712459,MFGHFKLVYPAPISEPIQSRDSNAYMMETLRNSGLNLKNDFGIGRKIWRVFSFTYNMVILPVSFPINYVIHLAEFPPELLLQSLQLCLNTWCFALKFFTLIVYTHRLELANKHFDELDKYCVKPAEKRKVRDMVATITRLYLTFVVVYVLYATSTLLDGLLHHRVPYNTYYPFINWRVDRTQMYIQSFLEYFTVGYAIYVATATDSYPVIYVAALRTHILLLKDRIIYLGDPSNEGSSDPSYMFKSLVDCIKAHRTMLNFCDAIQPIISGTIFAQFIICGSILGIIMINMVLFADQSTRFGIVIYVMAVLLQTFPLCFYCNAIVDDCKELAHALFHSAWWVQDKRYQRTVIQFLQKLQQPMTFTAMNIFNINLATNINVAKFAFTVYAIASGMNLDQKLSIKE,r
ecfp,0.5060458323757773,-1.7547155215287227,0.6278615382730166,0.5460562901327423,0.5292745307937552,0.49521975299214194,0.3318170496872298,-1.0054799470030606,0.1812163884661906,-0.5437690792221688,-0.04039011508277035,-7.365154854801805,MDSFLQVQKSTIALLGFDLFSENREMWKRPYRAMNVFSIAAIFPFILAAVLHNWKNVLLLADAMVALLITILGLFKFSMILYLRRDFKRLIDKFRLLMSNEAEQGEEYAEILNAANKQDQRMCTLFRTCFLLAWALNSVLPLVRMGLSYWLAGHAEPELPFPCLFPWNIHIIRNYVLSFIWSAFASTGVVLPAVSLDTIFCSFTSNLCAFFKIAQYKVVRFKGGSLKESQATLNKVFALYQTSLDMCNDLNQCYQPIICAQFFISSLQLCMLGYLFSITFAQTEGVYYASFIATIIIQAYIYCYCGENLKTESASFEWAIYDSPWHESLGAGGASTSICRSLLISMMRAHRGFRITGYFFEANMEAFSSIVRTAMSYITMLRSFS,r
ecfp,0.23038509422201336,-0.5208510785243133,0.09888896499993072,0.38231151333580005,0.13249961149975698,0.3661254540379181,0.1720999272366609,0.288735159139634,-0.023217232611886462,-1.7613431994296986,-0.001826567091014475,-1.1066035526286009,MNDSGYQSNLSLLRVFLDEFRSVLRQESPGLIPRLAFYYVRAFLSLLCQYPNKKLASLPLYRWINLFIMCNVMTIFWTMFVALPESKNVIEMGDDLVWISGMALVFTKIFYMHLRCDEIDELISDFEYYNRELRPHNIDEEVLGWQRLCYVIESGLYINCFCLVNFFSAAIFLQPLLGEGKLPFHSVYPFQWHRLDLHPYTFWFLYIWQSLTSQHNLMSILMVDMVGISTFLQTALNLKLLCIEIRKLGDMEVSDKRFHEEFCRVVRFHQHIIKLVGKANRAFNGAFNAQLMASFSLISISTFETMAAAAVDPKMAAKFVLLMLVAFIQLSLWCVSGTLVYTQSVEVAQAAFDINDWHTKSPGIQRDISFVILRAQKPLMYVAEPFLPFTLGTYMLVLKNCYRLLALMQESM,r
ecfp,0.027513652384863342,-1.6294611114385535,0.00280439768063534,-0.18622456882911176,0.2816522329374732,0.04474355426517862,-0.00540735412985871,-7.314300498199975,-0.6291894242433591,-0.12844544522471035,-0.0266779155111998,-0.048692274013523384,MFEDIQLIYMNIKILRFWALLYDKNLRRYVCIGLASFHIFTQIVYMMSTNEGLTGIIRNSYMLVLWINTVLRAYLLLADHDRYLALIQKLTEAYYDLLNLNDSYISEILDQVNKVGKLMARGNLFFGMLTSMGFGLYPLSSSERVLPFGSKIPGLNEYESPYYEMWYIFQMLITPMGCCMYIPYTSLIVGLIMFGIVRCKALQHRLRQVALKHPYGDRDPRELREEIIACIRYQQSIIEYMDHINELTTMMFLFELMAFSALLCALLFMLIIVSGTSQLIIVCMYINMILAQILALYWYANELREQNLAVATAAYETEWFTFDVPLRKNILFMMMRAQRPAAILLGNIRPITLELFQNLLNTTYTFFTVLKRVYG,r
ecfp,0.05406143825206011,-0.8334551867604374,-0.09563968423836444,-0.5398210510740644,0.28375268687289923,0.32879029833613616,0.29322494136369404,-0.323786968978407,0.0919776800174602,-0.2251959602464375,-0.01449018099214916,-3.695780503602653,MAVFKLIKPAPLTEKVQSRQGNIYLYRAMWLIGWIPPKEGVLRYVYLFWTCVPFAFGVFYLPVGFIISYVQEFKNFTPGEFLTSLQVCINVYGASVKSTITYLFLWRLRKTEILLDSLDKRLANDSDRERIHNMVARCNYAFLIYSFIYCGYAGSTFLSYALSGRPPWSVYNPFIDWRDGMGSLWIQAIFEYITMSFAVLQDQLSDTYPLMFTIMFRAHMEVLKDHVRSLRMDPERSEADNYQDLVNCVLDHKTILKCCDMIRPMISRTIFVQFALIGSVLGLTLVNVFFFSNFWKGVASLLFVITILLQTFPFCYTCNMLIDDAQDLSNEIFQSNWVDAEPRYKATLVLFMHHVQQPIIFIAGGIFPISMNSNITVAKFAFSIITIVRQMNLAEQFQ,r
ecfp,0.17063392844386116,-0.6819476607295997,0.16332198971883116,0.22857644163244906,0.19276691891936304,0.2995428069669631,-0.031038515018300572,-3.0928002539316966,0.019766296908367176,-0.07722171052178917,-0.01273993562740583,-0.24674270047547342,MTELRSERKNGNWDRLFGPFFESWAVFKAPQAKSRHIIAYWTRDQLKALGFYMNSEQRRLPRIVAWQYFVSIQLATALASLFYGISESIGDIVNLGRDLVFIITIIFICFRLVFFAQYAGELDVIIDALEDIYHWSIKGPATKEVQETKRLHFLLFMALIITWFSFLILFMLIKISTPFWIESQTLPFHVSWPFQLHDPSKHPIAYIIIFVSQSTTMLYFLIWLGVVENMGVSLFFELTSALRVLCIELRNLQELCLGDEDMLYRELCRMTKFHQQIILLTDRCNHIFNGAFIMQMLINFLLVSLSLFEVLAAKKNPQVAVEYMIIMLMTLGHLSFWSKFGDMFSKESEQVALAVYEAYDPNVGSKSIHRQFCFFIQRAQKPLIMKASPFPPFNLENYMFILKQCYSILTILANTLE,r
ecfp,0.2918703294126933,-0.39077417634151923,0.2760282220654705,0.4212517347826942,0.28714973762398244,0.5099303125573554,-0.03500835996603602,-0.9119575678912646,-0.589648922768254,-0.2579585842296239,-0.15399574021224294,-0.04031006660621084,MDNVAEMPEEKYVEVDDFLRLAVKFYNTLGIDPYETGRKRTIWFQIYFALNMFNMVFSFYAEVATLVDRLRDNENFLESCILLSYVSFVVMGLSKIGAVMKKKPKMTALVRQLETCFPSPSAKVQEEYAVKSWLKRCHIYTKGFGGLFMIMYFAHALIPLFIYFIQRVLLHYPDAKQIMPFYQLEPWEFRDSWLFYPSYFHQSSAGYTATCGSIAGDLMIFAVVLQVIMHYERLAKVLREFKIQAHNAPNGAKEDIRKLQSLVANHIDILRLTDLMNEVFGIPLLLNFIASALLVCLVGVQLTIALSPEYFCKQMLFLISVLLEVYLLCSFSQRLIDASENVGHAAYDMDWLGSDKRFKKILIFISMRSQKPVCLKATVVLDLSMPTMSIFLGMSYKFFCAVRTMYQ,r
ecfp,0.19609230396092536,-2.3166938665875327,0.0048005827748890395,0.26314767092585223,0.20926397477284098,0.2173723558119508,0.28587693551909377,-9.156800813722018,-0.003367631994214859,-0.7319055272394568,0.1615928438979941,-1.8529882038799697,METAKDNTARTFMELMRVPVQFYRTIGEDIYAHRSTNPLKSLLFKIYLYAGFINFNLLVIGELVFFYNSIQDFETIRLAIAVAPCIGFSLVADFKQAAMIRGKKTLIMLLDDLENMHPKTLAKQMEYKLPDFEKTMKRVINIFTFLCLAYTTTFSFYPAIKASVKFNFLGYDTFDRNFGFLIWFPFDATRNNLIYWIMYWDIAHGAYLAGIAFLCADLLLVVVITQICMHFNYISMRLEDHPCNSNEDKENIEFLIGIIRYHDKCLKLCEHVNDLYSFSLLLNFLMASMQICFIAFQVTESTVEVIIIYCIFLMTSMVQVFMVCYYGDTLIAASLKVGDAAYNQKWFQCSKSYCTMLKLLIMRSQKPASIRPPTFPPISLVTYMKVISMSYQFFALLRTTYSNN,r
ecfp,0.09105102891916586,-0.590211416023242,0.08772282481896987,0.12976242167980356,0.06794525878378976,0.06371143212803532,0.10611320718523076,0.010307160717838326,-0.08206456265165851,-1.60674037512316,-0.055684358719685356,-1.2168749443395446,MGRLFQLQEYCLRAMGHKDDMDSTDSTALSLKHISSLIFVISAQYPLISYVAYNRNDMEKVTACLSVVFTNMLTVIKISTFLANRKDFWEMIHRFRKMHEQSASHIPRYREGLDYVAEANKLASFLGRAYCVSCGLTGLYFMLGPIVKIGVCRWHGTTCDKELPMPMKFPFNDLESPGYEVCFLYTVLVTVVVVAYASAVDGLFISFAINLRAHFQTLQRQIENWEFPSSEPDTQIRLKSIVEYHVLLLSLSRKLRSIYTPTVMGQFVITSLQVGVIIYQLVTNMDSVMDLLLYASFFGSIMLQLFIYCYGGEIIKAESLQVDTAVRLSNWHLASPKTRTSLSLIILQSQKEVLIRAGFFVASLANFVGICRTALSLITLIKSIE,r
ecfp,-0.36981233113726386,-1.9915560207975727,0.11338539950861282,-1.5143201253032608,-0.24665107792393726,-0.2540585304221361,0.0525826784544019,-5.514258873548825,-1.3868635295522624,-0.18993389379129422,-0.05679599272290581,-2.8099278143725757,MIFKYIQEPVLGSLFRSRDSLIYLNRSIDQMGWRLPPRTKPYWWLYYIWTLVVIVLVFIFIPYGLIMTGIKEFKNFTTTDLFTYVQVPVNTNASIMKGIIVLFMRRRFSRAQKMMDAMDIRCTKMEEKVQVHRAAALCNRVVVIYHCIYFGYLSMALTGALVIGKTPFCLYNPLVNPDDHFYLATAIESVTMAGIILANLILDVYPIIYVVVLRIHMELLSERIKTLRTDVEKGDDQHYAELVECVKDHKLIVEYGNTLRPMISATMFIQLLSVGLLLGLAAVSMQFYNTVMERVVSGVYTIAILSQTFPFCYVCEQLSSDCESLTNTLFHSKWIGAERRYRTTMLYFIHNVQQSILFTAGGIFPICLNTNIKMAKFAFSVVTIVNEMDLAEKLRRE,r
ecfp,0.03003489734280331,-1.0779618315945239,0.20216226606692445,0.12341873430091488,0.33219479580997324,0.26656896198848445,-0.7741702714522805,-4.783609329640792,-0.06660957704467974,-0.4783358343159789,0.08976787427287447,-0.1510222912440431,MEKLMKYASFFYTAVGIRPYTNGEESKMNKLIFHIVFWSNVINLSFVGLFESIYVYSAFMDNKFLEAVTALSYIGFVTVGMSKMFFIRWKKTAITELINELKEIYPNGLIREERYNLPMYLGTCSRISLIYSLLYSVLIWTFNLFCVMEYWVYDKWLNIRVVGKQLPYLMYIPWKWQDNWSYYPLLFSQNFAGYTSAAGQISTDVLLCAVATQLVMHFDFLSNSMERHELSGDWKKDSRFLVDIVRYHERILRLSDAVNDIFGIPLLLNFMVSSFVICFVGFQMTVGVPPDIVVKLFLFLVSSMSQVYLICHYGQLVADASYGFSVATYNQKWYKADVRYKRALVIIIARSQKVTFLKATIFLDITRSTMTDLLQISYKFFALLRTMYTQ,r
ecfp,-0.03093061045476788,-0.5848419719494183,-0.10158238890268279,-0.013605454156390806,-0.1297460201794456,0.06925076455265489,0.021030046412024883,-1.7049899261867543,-0.00040885764914455613,-0.6114227547027502,-0.5947512914170969,-0.012637029791344956,MEPVQYSYEDFARLPTTVFWIMGYDMLGVPKTRSRRILYWIYRFLCLASHGVCVGVMVFRMVEAKTIDNVSLIMRYATLVTYIINSDTKFATVLQRSAIQSLNSKLAELYPKTTLDRIYHRVNDHYWTKSFVYLVIIYIGSSIMVVIGPIITSIIAYFTHNVFTYMHCYPYFLYDPEKDPVWIYISIYALEWLHSTQMVISNIGADIWLLYFQVQINLHFRGIIRSLADHKPSVKHDQEDRKFIAKIVDKQVHLVSLQNDLNGIFGKSLLLSLLTTAAVICTVAVYTLIQGPTLEGFTYVIFIGTSVMQVYLVCYYGQQVLDLSGEVAHAVYNHDFHDASIAYKRYLLIIIIRAQQPVELNAMGYLSISLDTFKQLMSVSYRVITMLMQMIQ,r
ecfp,-0.10833223112435086,-0.08440331537943505,-0.007135857809347446,-0.36532036731473205,0.0063756660291410805,-0.20396271656888376,0.02838212004206786,0.014769822260235821,0.002050510305608544,-0.11379703597850588,-0.2372376989651206,-0.0878021745193931,MKPTEIKKPYRMEEFLRPQMFQEVAQMVHFQWRRNPVDNSMVNASMVPFCLSAFLNVLFFGCNGWDIIGHFWLGHPANQNPPVLSITIYFSIRGLMLYLKRKEIVEFVNDLDRECPRDLVSQLDMQMDETYRNFWQRYRFIRIYSHLGGPMFCVVPLALFLLTHEGKDTPVAQHEQLLGGWLPCGVRKDPNFYLLVWSFDLMCTTCGVSFFVTFDNLFNVMQGHLVMHLGHLARQFSAIDPRQSLTDEKRFFVDLRLLVQRQQLLNGLCRKYNDIFKVAFLVSNFVGAGSLCFYLFMLSETSDVLIIAQYILPTLVLVGFTFEICLRGTQLEKASEGLESSLRSQEWYLGSRRYRKFYLLWTQYCQRTQQLGAFGLIQVNMVHFTEIMQLAYRLFTFLKSH,r
ecfp,0.22433139100981547,-1.9815616725993106,0.34699690387781257,0.10545293681125889,0.2747371300330028,0.18618514420005927,0.20828484012694382,-7.770160220106606,-0.09067194351706576,-0.8623681732615591,-0.05807246617336004,-1.1265355599379614,MLFNYLRKPNPTNLLTSPDSFRYFEYGMFCMGWHTPATHKIIYYITSCLIFAWCAVYLPIGIIISFKTDINTFTPNELLTVMQLFFNSVGMPFKVLFFNLYISGFYKAKKLLSEMDKRCTTLKERVEVHQGVVRCNKAYLIYQFIYTAYTISTFLSAALSGKLPWRIYNPFVDFRESRSSFWKAALNETALMLFAVTQTLMSDIYPLLYGLILRVHLKLLRLRVESLCTDSGKSDAENEQDLIKCIKDHNLIIDYAAAIRPAVTRTIFVQFLLIGICLGLSMINLLFFADIWTGLATVAYINGLMVQTFPFCFVCDLLKKDCELLVSAIFHSNWINSSRSYKSSLRYFLKNAQKSIAFTAGSIFPISTGSNIKVAKLAFSVVTFVNQLNIADRLTKN,r
Roberta-Zinc480M-102M,0.43187530626181675,-4.276260990294317,0.43423603827948387,0.5910265849880922,0.3582177617296304,0.48604449228908364,0.28985165402279345,-19.76109573002508,-0.10456874599376564,-1.2869010119279243,0.09889223612151854,-0.3276316996463342,MEKQEDFKLNTHSAVYYHWRVWELTGLMRPPGVSSLLYVVYSITVNLVVTVLFPLSLLARLLFTTNMAGLCENLTITITDIVANLKFANVYMVRKQLHEIRSLLRLMDARARLVGDPEEISALRKEVNIAQGTFRTFASIFVFGTTLSCVRVVVRPDRELLYPAWFGVDWMHSTRNYVLINIYQLFGLIVQAIQNCASDSYPPAFLCLLTGHMRALELRVRRIGCRTEKSNKGQTYEAWREEVYQELIECIRDLARVHRLREIIQRVLSVPCMAQFVCSAAVQCTVAMHFLYVADDHDHTAMIISIVFFSAVTLEVFVICYFGDRMRTQSEALCDAFYDCNWIEQLPKFKRELLFTLARTQRPSLIYAGNYIALSLETFEQVMRFTYSVFTLLLRAK,r
Roberta-Zinc480M-102M,0.34161291587067544,-0.352947785403534,0.4215403579382875,0.33553976027623345,0.2531272280657906,0.4044386544376136,0.29341857863545207,-1.3462540765747755,-0.06127094429266999,-0.0641057848266593,-0.3712353418810517,0.07812722055748655,MAVSTRVATKQEVPESRRAFRNLFNCFYALGMQAPDGSRPTTSSTWQRIYACFSVVMYVWQLLLVPTFFVISYRYMGGMEITQVLTSAQVAIDAVILPAKIVALAWNLPLLRRAEHHLAALDARCREQEEFQLILDAVRFCNYLVWFYQICYAIYSSSTFVCAFLLGQPPYALYLPGLDWQRSQMQFCIQAWIEFLIMNWTCLHQASDDVYAVIYLYVVRIQVQLLARRVEKLGTDDSGQVEIYPDERRQEEHCAELQRCIVDHQTMLQLLDCISPVISRTIFVQFLITAAIMGTTMINIFIFANTNTKIASIIYLLAVTLQTAPCCYQATSLMLDNERLALAIFQCQWLGQSARFRKMLLYYLHRAQQPITLTAMKLFPINLATYFSIAKFSFSLYTLIKGMNLGERFNRTN,r
Roberta-Zinc480M-102M,0.18672256566469464,-0.5647338654044659,0.07888973285908685,0.26531208793969074,0.17271418688508144,0.13005632037656134,0.28664050026305277,-1.2551557794426071,-0.35282489621650615,-1.0485648028839312,0.0069557918683700315,-0.17407964034765477,MSDKVKGKKQEEKDQSLRVQILVYRCMGIDLWSPTMANDRPWLTFVTMGPLFLFMVPMFLAAHEYITQVSLLSDTLGSTFASMLTLVKFLLFCYHRKEFVGLIYHIRAILAKEIEVWPDAREIIEVENQSDQMLSLTYTRCFGLAGIFAALKPFVGIILSSIRGDEIHLELPHNGVYPYDLQVVMFYVPTYLWNVMASYSAVTMALCVDSLLFFFTYNVCAIFKIAKHRMIHLPAVGGKEELEGLVQVLLLHQKGLQIADHIADKYRPLIFLQFFLSALQICFIGFQVADLFPNPQSLYFIAFVGSLLIALFIYSKCGENIKSASLDFGNGLYETNWTDFSPPTKRALLIAAMRAQRPCQMKGYFFEASMATFSTIVRSAVSYIMMLRSFNA,r
Roberta-Zinc480M-102M,0.10966818219065959,-0.8815932366803654,0.40637042463228956,0.18633129128208925,0.12698730391174518,0.1336163620281815,-0.30496447090100753,-2.9674881004342093,-1.5530472321985735,0.04084692519856281,-0.03884779671859473,0.11057002075098654,MSEWLRFLKRDQQLDVYFFAVPRLSLDIMGYWPGKTGDTWPWRSLIHFAILAIGVATELHAGMCFLDRQQITLALETLCPAGTSAVTLLKMFLMLRFRQDLSIMWNRLRGLLFDPNWERPEQRDIRLKHSAMAARINFWPLSAGFFTCTTYNLKPILIAMILYLQNRYEDFVWFTPFNMTMPKVLLNYPFFPLTYIFIAYTGYVTIFMFGGCDGFYFEFCAHLSALFEVLQAEIESMFRPYTDHLELSPVQLYILEQKMRSVIIRHNAIIDLTRFFRDRYTIITLAHFVSAAMVIGFSMVNLLTLGNNGLGAMLYVAYTVAALSQLLVYCYGGTLVAESSTGLCRAMFSCPWQLFKPKQRRLVQLLILRSQRPVSMAVPFFSPSLATFAAILQTSGSIIALVKSFQ,r
Roberta-Zinc480M-102M,0.16832146523724673,-0.8258443553526493,0.26064274599185455,0.3021097268905455,0.29679680943707354,0.07992480936005875,-0.09786676549329876,-3.299700953915698,-0.09125806458116537,-0.6968373518391637,-0.20594558060377532,0.16452017417655496,MDISKVDSTRALVNHWRIFRIMGIHPPGKRTFWGRHYTAYSMVWNVTFHICIWVSFSVNLLQSNSLETFCESLCVTMPHTLYMLKLINVRRMRGQMISSHWLLRLLDKRLGCDDERQIIMAGIERAEFIFRTIFRGLACTVVLGIIYISASSEPTLMYPTWIPWNWRDSTSAYLATAMLHTTALMANATLVLNLSSYPGTYLILVSVHTKALALRVSKLGYGAPLPAVRMQAILVGYIHDHQIILRLFKSLERSLSMTCFLQFFSTACAQCTICYFLLFGNVGIMRFMNMLFLLVILTTETLLLCYTAELPCKEGESLLTAVYSCNWLSQSVNFRRLLLLMLARCQIPMILVSGVIVPISMKTFTVMIKGAYTMLTLLNEIRKTSLE,r
Roberta-Zinc480M-102M,0.43498630420594486,-1.9802348505450922,0.43226646558726844,0.5067656642035897,0.38644966974238903,0.4144923639929977,0.4349573575034793,-5.881116594499119,0.1353091991728591,-0.6280572663407655,-0.13833724088875332,-3.3889723501696825,MLSKFFPHIKEKPLSERVKSRDAFIYLDRVMWSFGWTEPENKRWILPYKLWLAFVNIVMLILLPISISIEYLHRFKTFSAGEFLSSLEIGVNMYGSSFKCAFTLIGFKKRQEAKVLLDQLDKRCLSDKERSTVHRYVAMGNFFDILYHIFYSTFVVMNFPYFLLERRHAWRMYFPYIDSDEQFYISSIAECFLMTEAIYMDLCTDVCPLISMLMARCHISLLKQRLRNLRSKPGRTEDEYLEELTECIRDHRLLLDYVDALRPVFSGTIFVQFLLIGTVLGLSMINLMFFSTFWTGVATCLFMFDVSMETFPFCYLCNMIIDDCQEMSNCLFQSDWTSADRRYKSTLVYFLHNLQQPITLTAGGVFPISMQTNLAMVKLAFSVVTVIKQFNLAERFQ,r
Roberta-Zinc480M-102M,0.32677404343331534,-2.7726639634550296,0.4697744809579938,0.3208402253361411,0.35445243832363205,0.2855144867709348,0.20328858577787468,-12.381252226289503,0.06811620023154663,-1.0171803706230604,0.0047040388184501625,-0.5377074594125817,MKLSETLKIDYFRVQLNAWRICGALDLSEGRYWSWSMLLCILVYLPTPMLLRGVYSFEDPVENNFSLSLTVTSLSNLMKFCMYVAQLTKMVEVQSLIGQLDARVSGESQSERHRNMTEHLLRMSKLFQITYAVVFIIAAVPFVFETELSLPMPMWFPFDWKNSMVAYIGALVFQEIGYVFQIMQCFAADSFPPLVLYLISEQCQLLILRISEIGYGYKTLEENEQDLVNCIRDQNALYRLLDVTKSLVSYPMMVQFMVIGINIAITLFVLIFYVETLYDRIYYLCFLLGITVQTYPLCYYGTMVQESFAELHYAVFCSNWVDQSASYRGHMLILAERTKRMQLLLAGNLVPIHLSTYVACWKGAYSFFTLMADRDGLGS,r
Roberta-Zinc480M-102M,0.10075270688456792,-1.1421085937180764,0.0735567149221309,0.07207634298830201,0.33968026746931457,0.03282848585609066,-0.014378276812998525,-4.801605839982787,-0.10209318431760805,-0.5925600953091534,-0.00022916827487984293,-0.21405468070595357,MDLKPRVIRSEDIYRTYWLYWHLLGLESNFFLNRLLDLVITIFVTIWYPIHLILGLFMERSLGDVCKGLPITAACFFASFKFICFRFKLSEIKEIEILFKELDQRALSREECEFFNQNTRREANFIWKSFIVAYGLSNISAIASVLFGGGHKLLYPAWFPYDVQATELIFWLSVTYQIAGVSLAILQNLANDSYPPMTFCVVAGHVRLLAMRLSRIGQGPEETIYLTGKQLIESIEDHRKLMKIVELLRSTMNISQLGQFISSGVNISITLVNILFFADNNFAITYYGVYFLSMVLELFPCCYYGTLISVEMNQLTYAIYSSNWMSMNRSYSRILLIFMQLTLAEVQIKAGGMIGIGMNAFFATVRLAYSFFTLAMSLR,r
