embedding,shuf_mean,scaf_mean,shuf1,shuf2,shuf3,shuf4,shuf5,scaf1,scaf2,scaf3,scaf4,scaf5,receptor
CATS,0.13737577048538152,-3.6748707664050015,0.2329867708416421,0.086473063973181,0.19504691109296446,-0.14177520646808306,0.3141473129872031,-14.498220375999585,-0.3129285523813543,-1.2905016680143242,-0.0076571110886851645,-2.26504612454106,MEKQEDFKLNTHSAVYYHWRVWELTGLMRPPGVSSLLYVVYSITVNLVVTVLFPLSLLARLLFTTNMAGLCENLTITITDIVANLKFANVYMVRKQLHEIRSLLRLMDARARLVGDPEEISALRKEVNIAQGTFRTFASIFVFGTTLSCVRVVVRPDRELLYPAWFGVDWMHSTRNYVLINIYQLFGLIVQAIQNCASDSYPPAFLCLLTGHMRALELRVRRIGCRTEKSNKGQTYEAWREEVYQELIECIRDLARVHRLREIIQRVLSVPCMAQFVCSAAVQCTVAMHFLYVADDHDHTAMIISIVFFSAVTLEVFVICYFGDRMRTQSEALCDAFYDCNWIEQLPKFKRELLFTLARTQRPSLIYAGNYIALSLETFEQVMRFTYSVFTLLLRAK
CATS,0.010112217165239024,-0.5561790962031724,0.0393369419986459,0.10709888367998621,0.06993174788246925,-0.18393169967290457,0.01812521193799832,-1.3765350870682371,-0.27257572325228097,-0.25073250602452357,-0.6569633123576628,-0.22408885231315723,MAVSTRVATKQEVPESRRAFRNLFNCFYALGMQAPDGSRPTTSSTWQRIYACFSVVMYVWQLLLVPTFFVISYRYMGGMEITQVLTSAQVAIDAVILPAKIVALAWNLPLLRRAEHHLAALDARCREQEEFQLILDAVRFCNYLVWFYQICYAIYSSSTFVCAFLLGQPPYALYLPGLDWQRSQMQFCIQAWIEFLIMNWTCLHQASDDVYAVIYLYVVRIQVQLLARRVEKLGTDDSGQVEIYPDERRQEEHCAELQRCIVDHQTMLQLLDCISPVISRTIFVQFLITAAIMGTTMINIFIFANTNTKIASIIYLLAVTLQTAPCCYQATSLMLDNERLALAIFQCQWLGQSARFRKMLLYYLHRAQQPITLTAMKLFPINLATYFSIAKFSFSLYTLIKGMNLGERFNRTN
CATS,-0.047498122841866365,-0.6455342833878321,0.07781402343468402,-0.35723304874020423,0.04429068583802809,-0.15681010168506027,0.15444782694322057,-1.4056749076973265,-0.03744435713647154,-1.0078870479611486,-0.017060678641791505,-0.7596044255024219,MSDKVKGKKQEEKDQSLRVQILVYRCMGIDLWSPTMANDRPWLTFVTMGPLFLFMVPMFLAAHEYITQVSLLSDTLGSTFASMLTLVKFLLFCYHRKEFVGLIYHIRAILAKEIEVWPDAREIIEVENQSDQMLSLTYTRCFGLAGIFAALKPFVGIILSSIRGDEIHLELPHNGVYPYDLQVVMFYVPTYLWNVMASYSAVTMALCVDSLLFFFTYNVCAIFKIAKHRMIHLPAVGGKEELEGLVQVLLLHQKGLQIADHIADKYRPLIFLQFFLSALQICFIGFQVADLFPNPQSLYFIAFVGSLLIALFIYSKCGENIKSASLDFGNGLYETNWTDFSPPTKRALLIAAMRAQRPCQMKGYFFEASMATFSTIVRSAVSYIMMLRSFNA
CATS,0.15833554303860628,-0.000696899817414387,0.3543959556739127,0.4800736962733556,0.26405969916628513,0.1607660694335542,-0.4676177053540762,0.1340362070588842,-0.4637802709864396,0.019325993867674862,0.14368286063428504,0.16325071033852356,MSEWLRFLKRDQQLDVYFFAVPRLSLDIMGYWPGKTGDTWPWRSLIHFAILAIGVATELHAGMCFLDRQQITLALETLCPAGTSAVTLLKMFLMLRFRQDLSIMWNRLRGLLFDPNWERPEQRDIRLKHSAMAARINFWPLSAGFFTCTTYNLKPILIAMILYLQNRYEDFVWFTPFNMTMPKVLLNYPFFPLTYIFIAYTGYVTIFMFGGCDGFYFEFCAHLSALFEVLQAEIESMFRPYTDHLELSPVQLYILEQKMRSVIIRHNAIIDLTRFFRDRYTIITLAHFVSAAMVIGFSMVNLLTLGNNGLGAMLYVAYTVAALSQLLVYCYGGTLVAESSTGLCRAMFSCPWQLFKPKQRRLVQLLILRSQRPVSMAVPFFSPSLATFAAILQTSGSIIALVKSFQ
CATS,0.2429496181326814,-3.1485584877463366,0.14042808113765515,0.3040895827209432,0.15040220650679192,0.11987322432836722,0.49995499596964943,-14.359726395185582,-0.08715101441879369,-0.8469720163036505,-0.4327852726976573,-0.016157740125999798,MDISKVDSTRALVNHWRIFRIMGIHPPGKRTFWGRHYTAYSMVWNVTFHICIWVSFSVNLLQSNSLETFCESLCVTMPHTLYMLKLINVRRMRGQMISSHWLLRLLDKRLGCDDERQIIMAGIERAEFIFRTIFRGLACTVVLGIIYISASSEPTLMYPTWIPWNWRDSTSAYLATAMLHTTALMANATLVLNLSSYPGTYLILVSVHTKALALRVSKLGYGAPLPAVRMQAILVGYIHDHQIILRLFKSLERSLSMTCFLQFFSTACAQCTICYFLLFGNVGIMRFMNMLFLLVILTTETLLLCYTAELPCKEGESLLTAVYSCNWLSQSVNFRRLLLLMLARCQIPMILVSGVIVPISMKTFTVMIKGAYTMLTLLNEIRKTSLE
CATS,0.2345859693956518,-2.2154526721069168,0.07319039976217834,0.2952612815231809,0.3744121905625397,0.021371205036424312,0.40869477009393584,-6.701927877744223,-0.0003165230840327382,-0.7211603251499024,-0.26488677445915143,-3.388971860097275,MLSKFFPHIKEKPLSERVKSRDAFIYLDRVMWSFGWTEPENKRWILPYKLWLAFVNIVMLILLPISISIEYLHRFKTFSAGEFLSSLEIGVNMYGSSFKCAFTLIGFKKRQEAKVLLDQLDKRCLSDKERSTVHRYVAMGNFFDILYHIFYSTFVVMNFPYFLLERRHAWRMYFPYIDSDEQFYISSIAECFLMTEAIYMDLCTDVCPLISMLMARCHISLLKQRLRNLRSKPGRTEDEYLEELTECIRDHRLLLDYVDALRPVFSGTIFVQFLLIGTVLGLSMINLMFFSTFWTGVATCLFMFDVSMETFPFCYLCNMIIDDCQEMSNCLFQSDWTSADRRYKSTLVYFLHNLQQPITLTAGGVFPISMQTNLAMVKLAFSVVTVIKQFNLAERFQ
CATS,0.16961695657228862,-3.8985049429667904,0.22841994329348503,0.10482936909154084,0.16058069809345,0.2045304733904426,0.1497242989925246,-16.233801468365666,-0.0681178189869931,-1.0171803561362274,-0.1492484476972855,-2.024176623647779,MKLSETLKIDYFRVQLNAWRICGALDLSEGRYWSWSMLLCILVYLPTPMLLRGVYSFEDPVENNFSLSLTVTSLSNLMKFCMYVAQLTKMVEVQSLIGQLDARVSGESQSERHRNMTEHLLRMSKLFQITYAVVFIIAAVPFVFETELSLPMPMWFPFDWKNSMVAYIGALVFQEIGYVFQIMQCFAADSFPPLVLYLISEQCQLLILRISEIGYGYKTLEENEQDLVNCIRDQNALYRLLDVTKSLVSYPMMVQFMVIGINIAITLFVLIFYVETLYDRIYYLCFLLGITVQTYPLCYYGTMVQESFAELHYAVFCSNWVDQSASYRGHMLILAERTKRMQLLLAGNLVPIHLSTYVACWKGAYSFFTLMADRDGLGS
CATS,-0.0529032856154595,-1.1605013482605564,0.017780116014083358,-0.03959813421718139,0.04408177737365582,-0.21036247208862502,-0.07641771515923024,-5.045787809520963,-0.10209313421000155,-0.5925600209572157,-0.00022914240286775467,-0.06183663421173535,MDLKPRVIRSEDIYRTYWLYWHLLGLESNFFLNRLLDLVITIFVTIWYPIHLILGLFMERSLGDVCKGLPITAACFFASFKFICFRFKLSEIKEIEILFKELDQRALSREECEFFNQNTRREANFIWKSFIVAYGLSNISAIASVLFGGGHKLLYPAWFPYDVQATELIFWLSVTYQIAGVSLAILQNLANDSYPPMTFCVVAGHVRLLAMRLSRIGQGPEETIYLTGKQLIESIEDHRKLMKIVELLRSTMNISQLGQFISSGVNISITLVNILFFADNNFAITYYGVYFLSMVLELFPCCYYGTLISVEMNQLTYAIYSSNWMSMNRSYSRILLIFMQLTLAEVQIKAGGMIGIGMNAFFATVRLAYSFFTLAMSLR
CATS,0.19717730550061338,-0.8011343588274628,-0.003776513585615815,0.3225654996387044,0.26392585255252565,0.3132864160385396,0.08988527285891312,-2.303025435373511,-0.020795499803201833,-1.1594985307822094,-0.15088391049784944,-0.37146841768054273,MVRYVPRFADGQKVKLAWPLAVFRLNHIFWPLDPSTGKWGRYLDKVLAVAMSLVFMQHNDAELRYLRFEASNRNLDAFLTGMPTYLILVEAQFRSLHILLHFEKLQKFLEIFYANIYIDPRKEPEMFRKVDGKMIINRLVSAMYGAVISLYLIAPVFSIINQSKDFLYSMIFPFDSDPLYIFVPLLLTNVWVGIVIDTMMFGETNLLCELIVHLNGSYMLLKRDLQLAIEKILVARDRPHMAKQLKVLITKTLRKNVALNQFGQQLEAQYTVRVFIMFAFAAGLLCALSFKAYTNPMANYIYAIWFGAKTVELLSLGQIGSDLAFTTDSLSTMYYLTHWEQILQYSTNPSENLRLLKLINLAIEMNSKPFYVTGLKYFRVSLQAGLKILQASFSYFTFLTSMQRRQMSN
CATS,0.12173764822544966,-1.2699046114664778,0.06358438137354316,0.1627574755714456,0.13488361614520583,0.12385005899668455,0.12361270904036914,-5.450242582710808,-0.09447394189655633,-0.6548702844126408,-0.0930084071044952,-0.056927841207889296,MTIEDIGLVGINVRMWRHLAVLYPTPGSSWRKFAFVLPVTAMNLMQFVYLLRMWGDLPAFILNMFFFSAIFNALMRTWLVIIKRRQFEEFLGQLATLFHSILDSTDEWGRGILRRAEREARNLAILNLSASFLDIVGALVSPLFREERAHPFGLALPGVSMTSSPVYEVIYLAQLPTPLLLSMMYMPFVSLFAGLAIFGKAMLQILVHRLGQIGGEEQSEEERFQRLASCIAYHTQVMRYVWQLNKLVANIVAVEAIIFGSIICSLLFCLNIITSPTQVISIVMYILTMLYVLFTYYNRANEICLENNRVAEAVYNVPWYEAGTRFRKTLLIFLMQTQHPMEIRVGNVYPMTLAMFQSLLNASYSYFTMLRGVTGK
CATS,-0.09215941027007764,-4.289143844192497,0.01567833115372974,-0.46311485107649,-0.03538376200553306,-0.08660530504606734,0.10862853562397246,-8.78759139819982,-0.022839446571427002,-1.0878697178231804,-0.041841129499382346,-11.505577528868681,MFGHFKLVYPAPISEPIQSRDSNAYMMETLRNSGLNLKNDFGIGRKIWRVFSFTYNMVILPVSFPINYVIHLAEFPPELLLQSLQLCLNTWCFALKFFTLIVYTHRLELANKHFDELDKYCVKPAEKRKVRDMVATITRLYLTFVVVYVLYATSTLLDGLLHHRVPYNTYYPFINWRVDRTQMYIQSFLEYFTVGYAIYVATATDSYPVIYVAALRTHILLLKDRIIYLGDPSNEGSSDPSYMFKSLVDCIKAHRTMLNFCDAIQPIISGTIFAQFIICGSILGIIMINMVLFADQSTRFGIVIYVMAVLLQTFPLCFYCNAIVDDCKELAHALFHSAWWVQDKRYQRTVIQFLQKLQQPMTFTAMNIFNINLATNINVAKFAFTVYAIASGMNLDQKLSIKE
CATS,0.07661050981059406,-1.7240675761981372,0.01820631407295248,0.08056004146371865,0.2961195940601975,0.10287358102602517,-0.11470698156992354,-0.5495412748180637,-0.017041698248655868,-0.5437690449401591,-0.04039006025532177,-7.469595802728486,MDSFLQVQKSTIALLGFDLFSENREMWKRPYRAMNVFSIAAIFPFILAAVLHNWKNVLLLADAMVALLITILGLFKFSMILYLRRDFKRLIDKFRLLMSNEAEQGEEYAEILNAANKQDQRMCTLFRTCFLLAWALNSVLPLVRMGLSYWLAGHAEPELPFPCLFPWNIHIIRNYVLSFIWSAFASTGVVLPAVSLDTIFCSFTSNLCAFFKIAQYKVVRFKGGSLKESQATLNKVFALYQTSLDMCNDLNQCYQPIICAQFFISSLQLCMLGYLFSITFAQTEGVYYASFIATIIIQAYIYCYCGENLKTESASFEWAIYDSPWHESLGAGGASTSICRSLLISMMRAHRGFRITGYFFEANMEAFSSIVRTAMSYITMLRSFS
CATS,-0.0006223969988769174,-0.6213967579976296,-0.024154863862315246,0.04320211406541952,0.0007416238981334811,-0.05430455896981212,0.03140369987418978,-0.0437194120259885,-0.025717678218928786,-1.9289155021315247,-0.0020277351641730945,-1.106603462447533,MNDSGYQSNLSLLRVFLDEFRSVLRQESPGLIPRLAFYYVRAFLSLLCQYPNKKLASLPLYRWINLFIMCNVMTIFWTMFVALPESKNVIEMGDDLVWISGMALVFTKIFYMHLRCDEIDELISDFEYYNRELRPHNIDEEVLGWQRLCYVIESGLYINCFCLVNFFSAAIFLQPLLGEGKLPFHSVYPFQWHRLDLHPYTFWFLYIWQSLTSQHNLMSILMVDMVGISTFLQTALNLKLLCIEIRKLGDMEVSDKRFHEEFCRVVRFHQHIIKLVGKANRAFNGAFNAQLMASFSLISISTFETMAAAAVDPKMAAKFVLLMLVAFIQLSLWCVSGTLVYTQSVEVAQAAFDINDWHTKSPGIQRDISFVILRAQKPLMYVAEPFLPFTLGTYMLVLKNCYRLLALMQESM
CATS,0.03168004612112787,-1.5375397427949244,-0.005182774888815134,-0.24200879766666827,0.21897204105429158,0.19202676974313626,-0.005407007636305083,-6.8249315677384175,-0.6134459057345685,-0.2403732843230153,-0.02290826255869538,0.013960306380073728,MFEDIQLIYMNIKILRFWALLYDKNLRRYVCIGLASFHIFTQIVYMMSTNEGLTGIIRNSYMLVLWINTVLRAYLLLADHDRYLALIQKLTEAYYDLLNLNDSYISEILDQVNKVGKLMARGNLFFGMLTSMGFGLYPLSSSERVLPFGSKIPGLNEYESPYYEMWYIFQMLITPMGCCMYIPYTSLIVGLIMFGIVRCKALQHRLRQVALKHPYGDRDPRELREEIIACIRYQQSIIEYMDHINELTTMMFLFELMAFSALLCALLFMLIIVSGTSQLIIVCMYINMILAQILALYWYANELREQNLAVATAAYETEWFTFDVPLRKNILFMMMRAQRPAAILLGNIRPITLELFQNLLNTTYTFFTVLKRVYG
CATS,-0.28424444473255855,-0.8309562690723846,-0.18952165872578997,-1.4583054335982988,0.11593053511832363,0.07565713533538643,0.035017198207585976,-0.23320831728685554,-0.03406381019738247,-0.24769516750532405,0.04569108204173378,-3.685505132414095,MAVFKLIKPAPLTEKVQSRQGNIYLYRAMWLIGWIPPKEGVLRYVYLFWTCVPFAFGVFYLPVGFIISYVQEFKNFTPGEFLTSLQVCINVYGASVKSTITYLFLWRLRKTEILLDSLDKRLANDSDRERIHNMVARCNYAFLIYSFIYCGYAGSTFLSYALSGRPPWSVYNPFIDWRDGMGSLWIQAIFEYITMSFAVLQDQLSDTYPLMFTIMFRAHMEVLKDHVRSLRMDPERSEADNYQDLVNCVLDHKTILKCCDMIRPMISRTIFVQFALIGSVLGLTLVNVFFFSNFWKGVASLLFVITILLQTFPFCYTCNMLIDDAQDLSNEIFQSNWVDAEPRYKATLVLFMHHVQQPIIFIAGGIFPISMNSNITVAKFAFSIITIVRQMNLAEQFQ
CATS,0.04299680888141311,-0.32923423407460284,0.08372087287221086,0.0898124210866047,0.0011393676804462016,0.12242425093177134,-0.08211286816396757,-1.1705986854838555,-0.014753905745129803,-0.10657729777105573,-0.01662788494911438,-0.3376133964238588,MTELRSERKNGNWDRLFGPFFESWAVFKAPQAKSRHIIAYWTRDQLKALGFYMNSEQRRLPRIVAWQYFVSIQLATALASLFYGISESIGDIVNLGRDLVFIITIIFICFRLVFFAQYAGELDVIIDALEDIYHWSIKGPATKEVQETKRLHFLLFMALIITWFSFLILFMLIKISTPFWIESQTLPFHVSWPFQLHDPSKHPIAYIIIFVSQSTTMLYFLIWLGVVENMGVSLFFELTSALRVLCIELRNLQELCLGDEDMLYRELCRMTKFHQQIILLTDRCNHIFNGAFIMQMLINFLLVSLSLFEVLAAKKNPQVAVEYMIIMLMTLGHLSFWSKFGDMFSKESEQVALAVYEAYDPNVGSKSIHRQFCFFIQRAQKPLIMKASPFPPFNLENYMFILKQCYSILTILANTLE
CATS,0.1931601074728424,-0.3649809743835012,0.195048980090045,0.22499395041534243,0.24105763162324922,0.18669823827950283,0.11800173695607252,-2.012348255922537,0.13779973550162228,-0.37652647797446304,0.2510026290229955,0.1751674974548766,MDNVAEMPEEKYVEVDDFLRLAVKFYNTLGIDPYETGRKRTIWFQIYFALNMFNMVFSFYAEVATLVDRLRDNENFLESCILLSYVSFVVMGLSKIGAVMKKKPKMTALVRQLETCFPSPSAKVQEEYAVKSWLKRCHIYTKGFGGLFMIMYFAHALIPLFIYFIQRVLLHYPDAKQIMPFYQLEPWEFRDSWLFYPSYFHQSSAGYTATCGSIAGDLMIFAVVLQVIMHYERLAKVLREFKIQAHNAPNGAKEDIRKLQSLVANHIDILRLTDLMNEVFGIPLLLNFIASALLVCLVGVQLTIALSPEYFCKQMLFLISVLLEVYLLCSFSQRLIDASENVGHAAYDMDWLGSDKRFKKILIFISMRSQKPVCLKATVVLDLSMPTMSIFLGMSYKFFCAVRTMYQ
CATS,0.03237824670373748,-1.8452006853370893,0.029308175702663086,-0.13863750329474933,0.030137654535775105,-0.016996760505988195,0.25807966708098673,-5.86606659629553,-0.003367646264042845,-0.7319054540109855,-0.010030710560726463,-2.6146330195541614,METAKDNTARTFMELMRVPVQFYRTIGEDIYAHRSTNPLKSLLFKIYLYAGFINFNLLVIGELVFFYNSIQDFETIRLAIAVAPCIGFSLVADFKQAAMIRGKKTLIMLLDDLENMHPKTLAKQMEYKLPDFEKTMKRVINIFTFLCLAYTTTFSFYPAIKASVKFNFLGYDTFDRNFGFLIWFPFDATRNNLIYWIMYWDIAHGAYLAGIAFLCADLLLVVVITQICMHFNYISMRLEDHPCNSNEDKENIEFLIGIIRYHDKCLKLCEHVNDLYSFSLLLNFLMASMQICFIAFQVTESTVEVIIIYCIFLMTSMVQVFMVCYYGDTLIAASLKVGDAAYNQKWFQCSKSYCTMLKLLIMRSQKPASIRPPTFPPISLVTYMKVISMSYQFFALLRTTYSNN
CATS,-0.13380759993006414,-0.8516663686551696,0.03550269474962808,-0.008277497273387002,-0.10408620987148809,-0.6052150212152123,0.013038033960138584,-0.4436759883663701,-0.001274496938062697,-1.8479379495885428,-0.02499469445616742,-1.9404487139267053,MGRLFQLQEYCLRAMGHKDDMDSTDSTALSLKHISSLIFVISAQYPLISYVAYNRNDMEKVTACLSVVFTNMLTVIKISTFLANRKDFWEMIHRFRKMHEQSASHIPRYREGLDYVAEANKLASFLGRAYCVSCGLTGLYFMLGPIVKIGVCRWHGTTCDKELPMPMKFPFNDLESPGYEVCFLYTVLVTVVVVAYASAVDGLFISFAINLRAHFQTLQRQIENWEFPSSEPDTQIRLKSIVEYHVLLLSLSRKLRSIYTPTVMGQFVITSLQVGVIIYQLVTNMDSVMDLLLYASFFGSIMLQLFIYCYGGEIIKAESLQVDTAVRLSNWHLASPKTRTSLSLIILQSQKEVLIRAGFFVASLANFVGICRTALSLITLIKSIE
CATS,-4.085935240850358,-1.753144903677257,-0.02950871463764093,-19.792033394500884,-0.35953746619986693,-0.2540585060094347,0.005461877096035184,-4.539560754818905,-5.762590985036731e-05,-0.18993387745058588,-0.05679598935589669,-3.9793762708510485,MIFKYIQEPVLGSLFRSRDSLIYLNRSIDQMGWRLPPRTKPYWWLYYIWTLVVIVLVFIFIPYGLIMTGIKEFKNFTTTDLFTYVQVPVNTNASIMKGIIVLFMRRRFSRAQKMMDAMDIRCTKMEEKVQVHRAAALCNRVVVIYHCIYFGYLSMALTGALVIGKTPFCLYNPLVNPDDHFYLATAIESVTMAGIILANLILDVYPIIYVVVLRIHMELLSERIKTLRTDVEKGDDQHYAELVECVKDHKLIVEYGNTLRPMISATMFIQLLSVGLLLGLAAVSMQFYNTVMERVVSGVYTIAILSQTFPFCYVCEQLSSDCESLTNTLFHSKWIGAERRYRTTMLYFIHNVQQSILFTAGGIFPICLNTNIKMAKFAFSVVTIVNEMDLAEKLRRE
CATS,0.13702310741250445,-2.063905503871701,0.10998251187591235,-0.022385590310309622,0.17624353814410665,0.31403632198397424,0.10723875536883865,-8.722282894802246,-0.062143814817889,-0.49510011632614814,-0.011435562587063908,-1.0285651308251582,MEKLMKYASFFYTAVGIRPYTNGEESKMNKLIFHIVFWSNVINLSFVGLFESIYVYSAFMDNKFLEAVTALSYIGFVTVGMSKMFFIRWKKTAITELINELKEIYPNGLIREERYNLPMYLGTCSRISLIYSLLYSVLIWTFNLFCVMEYWVYDKWLNIRVVGKQLPYLMYIPWKWQDNWSYYPLLFSQNFAGYTSAAGQISTDVLLCAVATQLVMHFDFLSNSMERHELSGDWKKDSRFLVDIVRYHERILRLSDAVNDIFGIPLLLNFMVSSFVICFVGFQMTVGVPPDIVVKLFLFLVSSMSQVYLICHYGQLVADASYGFSVATYNQKWYKADVRYKRALVIIIARSQKVTFLKATIFLDITRSTMTDLLQISYKFFALLRTMYTQ
CATS,0.02362996912887174,-0.47093080169776674,0.03453489146865618,-0.19289795320911707,0.17642118013804287,-0.11879579921652805,0.21888752646330478,-1.7049896778981677,-0.03221225864603694,-0.5883044298164244,-0.005527609952684864,-0.023620032175520445,MEPVQYSYEDFARLPTTVFWIMGYDMLGVPKTRSRRILYWIYRFLCLASHGVCVGVMVFRMVEAKTIDNVSLIMRYATLVTYIINSDTKFATVLQRSAIQSLNSKLAELYPKTTLDRIYHRVNDHYWTKSFVYLVIIYIGSSIMVVIGPIITSIIAYFTHNVFTYMHCYPYFLYDPEKDPVWIYISIYALEWLHSTQMVISNIGADIWLLYFQVQINLHFRGIIRSLADHKPSVKHDQEDRKFIAKIVDKQVHLVSLQNDLNGIFGKSLLLSLLTTAAVICTVAVYTLIQGPTLEGFTYVIFIGTSVMQVYLVCYYGQQVLDLSGEVAHAVYNHDFHDASIAYKRYLLIIIIRAQQPVELNAMGYLSISLDTFKQLMSVSYRVITMLMQMIQ
CATS,-0.13056863143083078,-0.0807333998199383,-0.00965950665516968,-0.3563104357940181,-0.03167354526332855,-0.2817499803978767,0.026550310956239165,0.014379286438598982,-0.009456535133949284,-0.043582280482749924,-0.23366097814261422,-0.13134649177897706,MKPTEIKKPYRMEEFLRPQMFQEVAQMVHFQWRRNPVDNSMVNASMVPFCLSAFLNVLFFGCNGWDIIGHFWLGHPANQNPPVLSITIYFSIRGLMLYLKRKEIVEFVNDLDRECPRDLVSQLDMQMDETYRNFWQRYRFIRIYSHLGGPMFCVVPLALFLLTHEGKDTPVAQHEQLLGGWLPCGVRKDPNFYLLVWSFDLMCTTCGVSFFVTFDNLFNVMQGHLVMHLGHLARQFSAIDPRQSLTDEKRFFVDLRLLVQRQQLLNGLCRKYNDIFKVAFLVSNFVGAGSLCFYLFMLSETSDVLIIAQYILPTLVLVGFTFEICLRGTQLEKASEGLESSLRSQEWYLGSRRYRKFYLLWTQYCQRTQQLGAFGLIQVNMVHFTEIMQLAYRLFTFLKSH
CATS,-0.06968865181504688,-3.8050686491663135,-0.01392977370760895,-0.8677848184672858,0.27961698104906485,0.07171682785228206,0.18193752419831344,-15.897539131704605,-0.01711436874956096,-0.8623681873650115,-0.05807248102562146,-2.1902490769867713,MLFNYLRKPNPTNLLTSPDSFRYFEYGMFCMGWHTPATHKIIYYITSCLIFAWCAVYLPIGIIISFKTDINTFTPNELLTVMQLFFNSVGMPFKVLFFNLYISGFYKAKKLLSEMDKRCTTLKERVEVHQGVVRCNKAYLIYQFIYTAYTISTFLSAALSGKLPWRIYNPFVDFRESRSSFWKAALNETALMLFAVTQTLMSDIYPLLYGLILRVHLKLLRLRVESLCTDSGKSDAENEQDLIKCIKDHNLIIDYAAAIRPAVTRTIFVQFLLIGICLGLSMINLLFFADIWTGLATVAYINGLMVQTFPFCFVCDLLKKDCELLVSAIFHSNWINSSRSYKSSLRYFLKNAQKSIAFTAGSIFPISTGSNIKVAKLAFSVVTFVNQLNIADRLTKN
MordredDescriptors,-2803120523.362605,-164700690567.49115,-0.001753385436900512,-0.0034367490620652585,-0.005217923024102955,-14015602616.783272,-0.01934546194122766,-823503452833.5421,-0.3055208974194257,-1.2804894259394919,-0.009128403294951015,-2.318377615132828,MEKQEDFKLNTHSAVYYHWRVWELTGLMRPPGVSSLLYVVYSITVNLVVTVLFPLSLLARLLFTTNMAGLCENLTITITDIVANLKFANVYMVRKQLHEIRSLLRLMDARARLVGDPEEISALRKEVNIAQGTFRTFASIFVFGTTLSCVRVVVRPDRELLYPAWFGVDWMHSTRNYVLINIYQLFGLIVQAIQNCASDSYPPAFLCLLTGHMRALELRVRRIGCRTEKSNKGQTYEAWREEVYQELIECIRDLARVHRLREIIQRVLSVPCMAQFVCSAAVQCTVAMHFLYVADDHDHTAMIISIVFFSAVTLEVFVICYFGDRMRTQSEALCDAFYDCNWIEQLPKFKRELLFTLARTQRPSLIYAGNYIALSLETFEQVMRFTYSVFTLLLRAK
MordredDescriptors,-2.448703296514353,-46662657191.39768,-0.010564153440314472,-0.0016634295033046698,-0.01990922772761472,-12.19526202355966,-0.016117648340870705,-233313285955.29007,-0.2661279226448612,-0.2445393996890639,-1.0613080082689255,-0.12638382698349893,MAVSTRVATKQEVPESRRAFRNLFNCFYALGMQAPDGSRPTTSSTWQRIYACFSVVMYVWQLLLVPTFFVISYRYMGGMEITQVLTSAQVAIDAVILPAKIVALAWNLPLLRRAEHHLAALDARCREQEEFQLILDAVRFCNYLVWFYQICYAIYSSSTFVCAFLLGQPPYALYLPGLDWQRSQMQFCIQAWIEFLIMNWTCLHQASDDVYAVIYLYVVRIQVQLLARRVEKLGTDDSGQVEIYPDERRQEEHCAELQRCIVDHQTMLQLLDCISPVISRTIFVQFLITAAIMGTTMINIFIFANTNTKIASIIYLLAVTLQTAPCCYQATSLMLDNERLALAIFQCQWLGQSARFRKMLLYYLHRAQQPITLTAMKLFPINLATYFSIAKFSFSLYTLIKGMNLGERFNRTN
MordredDescriptors,-1315794691.8782177,-55111944403.302635,-0.00021318200489228722,-0.0008816013220924734,-0.00016583471126918603,-6578973459.38399,-0.005837265409571968,-275559722014.5977,-0.003149064216391828,-1.1198646353024357,-0.01817490418495571,-0.7742488665658025,MSDKVKGKKQEEKDQSLRVQILVYRCMGIDLWSPTMANDRPWLTFVTMGPLFLFMVPMFLAAHEYITQVSLLSDTLGSTFASMLTLVKFLLFCYHRKEFVGLIYHIRAILAKEIEVWPDAREIIEVENQSDQMLSLTYTRCFGLAGIFAALKPFVGIILSSIRGDEIHLELPHNGVYPYDLQVVMFYVPTYLWNVMASYSAVTMALCVDSLLFFFTYNVCAIFKIAKHRMIHLPAVGGKEELEGLVQVLLLHQKGLQIADHIADKYRPLIFLQFFLSALQICFIGFQVADLFPNPQSLYFIAFVGSLLIALFIYSKCGENIKSASLDFGNGLYETNWTDFSPPTKRALLIAAMRAQRPCQMKGYFFEASMATFSTIVRSAVSYIMMLRSFNA
MordredDescriptors,-16314724.252432207,-2.195032706431163,-0.027524265831016193,-0.011681195874585937,-0.01983345824346361,-81573620.38693026,-0.8161918481235386,-7.258344635497849,-3.5667272277892,-0.0035691023649404574,-0.14611393836580389,-0.00040862813802178266,MSEWLRFLKRDQQLDVYFFAVPRLSLDIMGYWPGKTGDTWPWRSLIHFAILAIGVATELHAGMCFLDRQQITLALETLCPAGTSAVTLLKMFLMLRFRQDLSIMWNRLRGLLFDPNWERPEQRDIRLKHSAMAARINFWPLSAGFFTCTTYNLKPILIAMILYLQNRYEDFVWFTPFNMTMPKVLLNYPFFPLTYIFIAYTGYVTIFMFGGCDGFYFEFCAHLSALFEVLQAEIESMFRPYTDHLELSPVQLYILEQKMRSVIIRHNAIIDLTRFFRDRYTIITLAHFVSAAMVIGFSMVNLLTLGNNGLGAMLYVAYTVAALSQLLVYCYGGTLVAESSTGLCRAMFSCPWQLFKPKQRRLVQLLILRSQRPVSMAVPFFSPSLATFAAILQTSGSIIALVKSFQ
MordredDescriptors,-361766504.6165023,-5624441226.499451,-0.1326510595267656,-2.2256771092799e-07,-0.03388500359315594,-1808832522.8749168,-0.04105827212057478,-28122206130.953934,-0.0023376169821864856,-1.0760862423502044,-0.44738041205261436,-0.01751496336969338,MDISKVDSTRALVNHWRIFRIMGIHPPGKRTFWGRHYTAYSMVWNVTFHICIWVSFSVNLLQSNSLETFCESLCVTMPHTLYMLKLINVRRMRGQMISSHWLLRLLDKRLGCDDERQIIMAGIERAEFIFRTIFRGLACTVVLGIIYISASSEPTLMYPTWIPWNWRDSTSAYLATAMLHTTALMANATLVLNLSSYPGTYLILVSVHTKALALRVSKLGYGAPLPAVRMQAILVGYIHDHQIILRLFKSLERSLSMTCFLQFFSTACAQCTICYFLLFGNVGIMRFMNMLFLLVILTTETLLLCYTAELPCKEGESLLTAVYSCNWLSQSVNFRRLLLLMLARCQIPMILVSGVIVPISMKTFTVMIKGAYTMLTLLNEIRKTSLE
MordredDescriptors,-1429467204.3886561,-8344408440.511332,-0.00011724221267650492,-0.017989117659299447,-0.018436435089436598,-7147336021.846651,-0.06008750541422003,-41722042198.09955,-3.1243288292071014e-06,-0.7075382972714899,-0.25839316811200397,-3.4911784420631724,MLSKFFPHIKEKPLSERVKSRDAFIYLDRVMWSFGWTEPENKRWILPYKLWLAFVNIVMLILLPISISIEYLHRFKTFSAGEFLSSLEIGVNMYGSSFKCAFTLIGFKKRQEAKVLLDQLDKRCLSDKERSTVHRYVAMGNFFDILYHIFYSTFVVMNFPYFLLERRHAWRMYFPYIDSDEQFYISSIAECFLMTEAIYMDLCTDVCPLISMLMARCHISLLKQRLRNLRSKPGRTEDEYLEELTECIRDHRLLLDYVDALRPVFSGTIFVQFLLIGTVLGLSMINLMFFSTFWTGVATCLFMFDVSMETFPFCYLCNMIIDDCQEMSNCLFQSDWTSADRRYKSTLVYFLHNLQQPITLTAGGVFPISMQTNLAMVKLAFSVVTVIKQFNLAERFQ
MordredDescriptors,-153355154.86583248,-190293072175.4986,-0.006197853315036639,-0.0009057136886116979,-0.00557949227584742,-766775774.2978319,-0.018647482696624085,-951465360874.182,-0.06594841016195718,-1.011032937735222,-0.15697672220793946,-2.0771307807692354,MKLSETLKIDYFRVQLNAWRICGALDLSEGRYWSWSMLLCILVYLPTPMLLRGVYSFEDPVENNFSLSLTVTSLSNLMKFCMYVAQLTKMVEVQSLIGQLDARVSGESQSERHRNMTEHLLRMSKLFQITYAVVFIIAAVPFVFETELSLPMPMWFPFDWKNSMVAYIGALVFQEIGYVFQIMQCFAADSFPPLVLYLISEQCQLLILRISEIGYGYKTLEENEQDLVNCIRDQNALYRLLDVTKSLVSYPMMVQFMVIGINIAITLFVLIFYVETLYDRIYYLCFLLGITVQTYPLCYYGTMVQESFAELHYAVFCSNWVDQSASYRGHMLILAERTKRMQLLLAGNLVPIHLSTYVACWKGAYSFFTLMADRDGLGS
MordredDescriptors,-1818614172.109192,-1651628695.5122342,-0.08608814298319767,-5.126029215141159e-05,-0.014022107197517952,-9093070860.40399,-0.041808525213900216,-8258143476.880565,-0.09513333622763542,-0.5773231136927603,-0.0005860134286921337,-0.00756324642225592,MDLKPRVIRSEDIYRTYWLYWHLLGLESNFFLNRLLDLVITIFVTIWYPIHLILGLFMERSLGDVCKGLPITAACFFASFKFICFRFKLSEIKEIEILFKELDQRALSREECEFFNQNTRREANFIWKSFIVAYGLSNISAIASVLFGGGHKLLYPAWFPYDVQATELIFWLSVTYQIAGVSLAILQNLANDSYPPMTFCVVAGHVRLLAMRLSRIGQGPEETIYLTGKQLIESIEDHRKLMKIVELLRSTMNISQLGQFISSGVNISITLVNILFFADNNFAITYYGVYFLSMVLELFPCCYYGTLISVEMNQLTYAIYSSNWMSMNRSYSRILLIFMQLTLAEVQIKAGGMIGIGMNAFFATVRLAYSFFTLAMSLR
MordredDescriptors,-147119446.2410927,-17961733190.813606,-0.19623641166250705,-0.002432954676876653,-0.06382980643758396,-735597230.8290467,-0.11391761813399492,-89808665952.3533,-0.01871285237057685,-1.1511413532362726,-0.15851153952483998,-0.3863733314436373,MVRYVPRFADGQKVKLAWPLAVFRLNHIFWPLDPSTGKWGRYLDKVLAVAMSLVFMQHNDAELRYLRFEASNRNLDAFLTGMPTYLILVEAQFRSLHILLHFEKLQKFLEIFYANIYIDPRKEPEMFRKVDGKMIINRLVSAMYGAVISLYLIAPVFSIINQSKDFLYSMIFPFDSDPLYIFVPLLLTNVWVGIVIDTMMFGETNLLCELIVHLNGSYMLLKRDLQLAIEKILVARDRPHMAKQLKVLITKTLRKNVALNQFGQQLEAQYTVRVFIMFAFAAGLLCALSFKAYTNPMANYIYAIWFGAKTVELLSLGQIGSDLAFTTDSLSTMYYLTHWEQILQYSTNPSENLRLLKLINLAIEMNSKPFYVTGLKYFRVSLQAGLKILQASFSYFTFLTSMQRRQMSN
MordredDescriptors,-2016171418.9144478,-81445736252.74698,-0.018543358445111346,-0.06686791942503767,-0.022268438274646085,-10080857094.461802,-0.0027574741501730227,-407228681262.87775,-0.06047962706875465,-0.6415367731730124,-0.09614129392675519,-0.05894915862140748,MTIEDIGLVGINVRMWRHLAVLYPTPGSSWRKFAFVLPVTAMNLMQFVYLLRMWGDLPAFILNMFFFSAIFNALMRTWLVIIKRRQFEEFLGQLATLFHSILDSTDEWGRGILRRAEREARNLAILNLSASFLDIVGALVSPLFREERAHPFGLALPGVSMTSSPVYEVIYLAQLPTPLLLSMMYMPFVSLFAGLAIFGKAMLQILVHRLGQIGGEEQSEEERFQRLASCIAYHTQVMRYVWQLNKLVANIVAVEAIIFGSIICSLLFCLNIITSPTQVISIVMYILTMLYVLFTYYNRANEICLENNRVAEAVYNVPWYEAGTRFRKTLLIFLMQTQHPMEIRVGNVYPMTLAMFQSLLNASYSYFTMLRGVTGK
MordredDescriptors,-317389238.18213975,-279765187709.2895,-0.042038203881049174,-0.03234279782877647,-0.03916533283381196,-1586946190.783554,-0.013598314270838685,-1398825938533.4614,-0.027232854707490484,-1.0769935771707089,-0.039653497362708734,-11.84216632987887,MFGHFKLVYPAPISEPIQSRDSNAYMMETLRNSGLNLKNDFGIGRKIWRVFSFTYNMVILPVSFPINYVIHLAEFPPELLLQSLQLCLNTWCFALKFFTLIVYTHRLELANKHFDELDKYCVKPAEKRKVRDMVATITRLYLTFVVVYVLYATSTLLDGLLHHRVPYNTYYPFINWRVDRTQMYIQSFLEYFTVGYAIYVATATDSYPVIYVAALRTHILLLKDRIIYLGDPSNEGSSDPSYMFKSLVDCIKAHRTMLNFCDAIQPIISGTIFAQFIICGSILGIIMINMVLFADQSTRFGIVIYVMAVLLQTFPLCFYCNAIVDDCKELAHALFHSAWWVQDKRYQRTVIQFLQKLQQPMTFTAMNIFNINLATNINVAKFAFTVYAIASGMNLDQKLSIKE
MordredDescriptors,-64083742.82076688,-4023620846.6622605,-0.0090935487947168,-0.0029225436756532552,-0.039634086549497294,-320418713.9359443,-0.11623992569317232,-20118104225.10024,-0.018614441379535274,-0.5415196756709193,-0.03878625472630293,-7.612140396412848,MDSFLQVQKSTIALLGFDLFSENREMWKRPYRAMNVFSIAAIFPFILAAVLHNWKNVLLLADAMVALLITILGLFKFSMILYLRRDFKRLIDKFRLLMSNEAEQGEEYAEILNAANKQDQRMCTLFRTCFLLAWALNSVLPLVRMGLSYWLAGHAEPELPFPCLFPWNIHIIRNYVLSFIWSAFASTGVVLPAVSLDTIFCSFTSNLCAFFKIAQYKVVRFKGGSLKESQATLNKVFALYQTSLDMCNDLNQCYQPIICAQFFISSLQLCMLGYLFSITFAQTEGVYYASFIATIIIQAYIYCYCGENLKTESASFEWAIYDSPWHESLGAGGASTSICRSLLISMMRAHRGFRITGYFFEANMEAFSSIVRTAMSYITMLRSFS
MordredDescriptors,-599240549.9922497,-37053554399.354744,-0.02708743245858458,-0.026961713746212812,-0.06668191411294355,-2996202749.839934,-0.0005838596573655153,-185267771993.5948,-0.017969215129939542,-2.0240676674148848,-0.0029116455042237366,-1.1339753332252003,MNDSGYQSNLSLLRVFLDEFRSVLRQESPGLIPRLAFYYVRAFLSLLCQYPNKKLASLPLYRWINLFIMCNVMTIFWTMFVALPESKNVIEMGDDLVWISGMALVFTKIFYMHLRCDEIDELISDFEYYNRELRPHNIDEEVLGWQRLCYVIESGLYINCFCLVNFFSAAIFLQPLLGEGKLPFHSVYPFQWHRLDLHPYTFWFLYIWQSLTSQHNLMSILMVDMVGISTFLQTALNLKLLCIEIRKLGDMEVSDKRFHEEFCRVVRFHQHIIKLVGKANRAFNGAFNAQLMASFSLISISTFETMAAAAVDPKMAAKFVLLMLVAFIQLSLWCVSGTLVYTQSVEVAQAAFDINDWHTKSPGIQRDISFVILRAQKPLMYVAEPFLPFTLGTYMLVLKNCYRLLALMQESM
MordredDescriptors,-182397451.00238156,-81777172198.13603,-0.03773304336288219,-0.18197187587041652,-0.0007490059963191076,-911987254.7855291,-0.0059246799088272795,-408885860989.83826,-0.6427205174925559,-0.12511398404097096,-0.025808699204302066,-0.048296312963711285,MFEDIQLIYMNIKILRFWALLYDKNLRRYVCIGLASFHIFTQIVYMMSTNEGLTGIIRNSYMLVLWINTVLRAYLLLADHDRYLALIQKLTEAYYDLLNLNDSYISEILDQVNKVGKLMARGNLFFGMLTSMGFGLYPLSSSERVLPFGSKIPGLNEYESPYYEMWYIFQMLITPMGCCMYIPYTSLIVGLIMFGIVRCKALQHRLRQVALKHPYGDRDPRELREEIIACIRYQQSIIEYMDHINELTTMMFLFELMAFSALLCALLFMLIIVSGTSQLIIVCMYINMILAQILALYWYANELREQNLAVATAAYETEWFTFDVPLRKNILFMMMRAQRPAAILLGNIRPITLELFQNLLNTTYTFFTVLKRVYG
MordredDescriptors,-845283905.2784114,-62688203542.7348,-0.10231986709436103,-0.21483664963963922,-0.004764428203022364,-4226419525.947832,-0.1223037821056463,-313441017709.4815,-0.03209780524291572,-0.24473841842081812,-0.015965330468813432,-3.8996613886305624,MAVFKLIKPAPLTEKVQSRQGNIYLYRAMWLIGWIPPKEGVLRYVYLFWTCVPFAFGVFYLPVGFIISYVQEFKNFTPGEFLTSLQVCINVYGASVKSTITYLFLWRLRKTEILLDSLDKRLANDSDRERIHNMVARCNYAFLIYSFIYCGYAGSTFLSYALSGRPPWSVYNPFIDWRDGMGSLWIQAIFEYITMSFAVLQDQLSDTYPLMFTIMFRAHMEVLKDHVRSLRMDPERSEADNYQDLVNCVLDHKTILKCCDMIRPMISRTIFVQFALIGSVLGLTLVNVFFFSNFWKGVASLLFVITILLQTFPFCYTCNMLIDDAQDLSNEIFQSNWVDAEPRYKATLVLFMHHVQQPIIFIAGGIFPISMNSNITVAKFAFSIITIVRQMNLAEQFQ
MordredDescriptors,-0.04019675767034743,-0.2536145235659912,-0.003251604020097165,-0.0007466606243187179,-0.002284120450717131,-0.017282522427283897,-0.17741888082932022,-0.7844496337968598,-0.014797207582706973,-0.11173981220500351,-0.016497327089985525,-0.3405886371554001,MTELRSERKNGNWDRLFGPFFESWAVFKAPQAKSRHIIAYWTRDQLKALGFYMNSEQRRLPRIVAWQYFVSIQLATALASLFYGISESIGDIVNLGRDLVFIITIIFICFRLVFFAQYAGELDVIIDALEDIYHWSIKGPATKEVQETKRLHFLLFMALIITWFSFLILFMLIKISTPFWIESQTLPFHVSWPFQLHDPSKHPIAYIIIFVSQSTTMLYFLIWLGVVENMGVSLFFELTSALRVLCIELRNLQELCLGDEDMLYRELCRMTKFHQQIILLTDRCNHIFNGAFIMQMLINFLLVSLSLFEVLAAKKNPQVAVEYMIIMLMTLGHLSFWSKFGDMFSKESEQVALAVYEAYDPNVGSKSIHRQFCFFIQRAQKPLIMKASPFPPFNLENYMFILKQCYSILTILANTLE
MordredDescriptors,-654056390.2754345,-3.8152376287643235,-0.0012053758737791131,-0.006131312266142386,-0.03707518862208592,-3270281951.2566304,-0.0761302571721405,-18.627297116079426,-0.004753923177074126,-0.25093592987239144,-0.1493895742764948,-0.04381160041623455,MDNVAEMPEEKYVEVDDFLRLAVKFYNTLGIDPYETGRKRTIWFQIYFALNMFNMVFSFYAEVATLVDRLRDNENFLESCILLSYVSFVVMGLSKIGAVMKKKPKMTALVRQLETCFPSPSAKVQEEYAVKSWLKRCHIYTKGFGGLFMIMYFAHALIPLFIYFIQRVLLHYPDAKQIMPFYQLEPWEFRDSWLFYPSYFHQSSAGYTATCGSIAGDLMIFAVVLQVIMHYERLAKVLREFKIQAHNAPNGAKEDIRKLQSLVANHIDILRLTDLMNEVFGIPLLLNFIASALLVCLVGVQLTIALSPEYFCKQMLFLISVLLEVYLLCSFSQRLIDASENVGHAAYDMDWLGSDKRFKKILIFISMRSQKPVCLKATVVLDLSMPTMSIFLGMSYKFFCAVRTMYQ
MordredDescriptors,-2896331229.380719,-123482865110.98691,-0.00020423092879662263,-0.06581022078087595,-0.038756915892429245,-14481656146.796616,-0.0022079806222510268,-617414325551.4222,-0.0024728523628239074,-0.7259819132616738,-0.009361813044859169,-2.7745885977606797,METAKDNTARTFMELMRVPVQFYRTIGEDIYAHRSTNPLKSLLFKIYLYAGFINFNLLVIGELVFFYNSIQDFETIRLAIAVAPCIGFSLVADFKQAAMIRGKKTLIMLLDDLENMHPKTLAKQMEYKLPDFEKTMKRVINIFTFLCLAYTTTFSFYPAIKASVKFNFLGYDTFDRNFGFLIWFPFDATRNNLIYWIMYWDIAHGAYLAGIAFLCADLLLVVVITQICMHFNYISMRLEDHPCNSNEDKENIEFLIGIIRYHDKCLKLCEHVNDLYSFSLLLNFLMASMQICFIAFQVTESTVEVIIIYCIFLMTSMVQVFMVCYYGDTLIAASLKVGDAAYNQKWFQCSKSYCTMLKLLIMRSQKPASIRPPTFPPISLVTYMKVISMSYQFFALLRTTYSNN
MordredDescriptors,-0.4316486063558724,-905366159.4606724,-0.0009862140301499789,-0.005746404897499557,-0.1035081312421191,-2.0359107979339,-0.012091483675693349,-4526830793.409135,-0.0007724324881255296,-1.8297962486861858,-0.02859851530073998,-2.0350597860541466,MGRLFQLQEYCLRAMGHKDDMDSTDSTALSLKHISSLIFVISAQYPLISYVAYNRNDMEKVTACLSVVFTNMLTVIKISTFLANRKDFWEMIHRFRKMHEQSASHIPRYREGLDYVAEANKLASFLGRAYCVSCGLTGLYFMLGPIVKIGVCRWHGTTCDKELPMPMKFPFNDLESPGYEVCFLYTVLVTVVVVAYASAVDGLFISFAINLRAHFQTLQRQIENWEFPSSEPDTQIRLKSIVEYHVLLLSLSRKLRSIYTPTVMGQFVITSLQVGVIIYQLVTNMDSVMDLLLYASFFGSIMLQLFIYCYGGEIIKAESLQVDTAVRLSNWHLASPKTRTSLSLIILQSQKEVLIRAGFFVASLANFVGICRTALSLITLIKSIE
MordredDescriptors,-546835099.3117045,-95074942329.79207,-0.030158910978164366,-0.8945905271522099,-0.4387479126301035,-2734175495.1923285,-0.002696810185157439,-475374711644.63153,-1.2692174512718424e-05,-0.187403742749624,-0.05545725466250229,-4.085958728283501,MIFKYIQEPVLGSLFRSRDSLIYLNRSIDQMGWRLPPRTKPYWWLYYIWTLVVIVLVFIFIPYGLIMTGIKEFKNFTTTDLFTYVQVPVNTNASIMKGIIVLFMRRRFSRAQKMMDAMDIRCTKMEEKVQVHRAAALCNRVVVIYHCIYFGYLSMALTGALVIGKTPFCLYNPLVNPDDHFYLATAIESVTMAGIILANLILDVYPIIYVVVLRIHMELLSERIKTLRTDVEKGDDQHYAELVECVKDHKLIVEYGNTLRPMISATMFIQLLSVGLLLGLAAVSMQFYNTVMERVVSGVYTIAILSQTFPFCYVCEQLSSDCESLTNTLFHSKWIGAERRYRTTMLYFIHNVQQSILFTAGGIFPICLNTNIKMAKFAFSVVTIVNEMDLAEKLRRE
MordredDescriptors,-79187425.83555704,-37258594890.78661,-0.02996204442738626,-0.12297876636733873,-6.484923613658822e-05,-395937129.00175995,-0.023019621467373685,-186292974452.29562,-0.058105244585880955,-0.4928975636441779,-0.013682013329623599,-1.072792445543166,MEKLMKYASFFYTAVGIRPYTNGEESKMNKLIFHIVFWSNVINLSFVGLFESIYVYSAFMDNKFLEAVTALSYIGFVTVGMSKMFFIRWKKTAITELINELKEIYPNGLIREERYNLPMYLGTCSRISLIYSLLYSVLIWTFNLFCVMEYWVYDKWLNIRVVGKQLPYLMYIPWKWQDNWSYYPLLFSQNFAGYTSAAGQISTDVLLCAVATQLVMHFDFLSNSMERHELSGDWKKDSRFLVDIVRYHERILRLSDAVNDIFGIPLLLNFMVSSFVICFVGFQMTVGVPPDIVVKLFLFLVSSMSQVYLICHYGQLVADASYGFSVATYNQKWYKADVRYKRALVIIIARSQKVTFLKATIFLDITRSTMTDLLQISYKFFALLRTMYTQ
MordredDescriptors,-1094806446.5905986,-102055230321.24173,-0.020564481115723954,-0.1284115754304085,-0.02151421792909325,-5474032232.782262,-0.00024171555073038142,-510276151605.5747,-0.0005499441236684888,-0.610155825254046,-0.010059865584454819,-0.013213552109813564,MEPVQYSYEDFARLPTTVFWIMGYDMLGVPKTRSRRILYWIYRFLCLASHGVCVGVMVFRMVEAKTIDNVSLIMRYATLVTYIINSDTKFATVLQRSAIQSLNSKLAELYPKTTLDRIYHRVNDHYWTKSFVYLVIIYIGSSIMVVIGPIITSIIAYFTHNVFTYMHCYPYFLYDPEKDPVWIYISIYALEWLHSTQMVISNIGADIWLLYFQVQINLHFRGIIRSLADHKPSVKHDQEDRKFIAKIVDKQVHLVSLQNDLNGIFGKSLLLSLLTTAAVICTVAVYTLIQGPTLEGFTYVIFIGTSVMQVYLVCYYGQQVLDLSGEVAHAVYNHDFHDASIAYKRYLLIIIIRAQQPVELNAMGYLSISLDTFKQLMSVSYRVITMLMQMIQ
MordredDescriptors,-0.4169724462031897,-196710494.33401328,-0.00903121712651589,-0.3619003479770555,-0.0329520344701304,-1.6738829247074625,-0.007095706734784102,-983552471.2816224,-0.0002178854108618733,-0.05246940397887134,-0.23517137745943129,-0.10058537518032695,MKPTEIKKPYRMEEFLRPQMFQEVAQMVHFQWRRNPVDNSMVNASMVPFCLSAFLNVLFFGCNGWDIIGHFWLGHPANQNPPVLSITIYFSIRGLMLYLKRKEIVEFVNDLDRECPRDLVSQLDMQMDETYRNFWQRYRFIRIYSHLGGPMFCVVPLALFLLTHEGKDTPVAQHEQLLGGWLPCGVRKDPNFYLLVWSFDLMCTTCGVSFFVTFDNLFNVMQGHLVMHLGHLARQFSAIDPRQSLTDEKRFFVDLRLLVQRQQLLNGLCRKYNDIFKVAFLVSNFVGAGSLCFYLFMLSETSDVLIIAQYILPTLVLVGFTFEICLRGTQLEKASEGLESSLRSQEWYLGSRRYRKFYLLWTQYCQRTQQLGAFGLIQVNMVHFTEIMQLAYRLFTFLKSH
MordredDescriptors,-133420232.96597925,-7.979056217980597,-0.015218766176215315,-0.08381859442951667,-0.046672283321390395,-667101164.6802335,-0.003953077263376681,-36.93584759754998,-0.01866603701991809,-0.8589004667399853,-0.056462615053005205,-2.0254043735400975,MLFNYLRKPNPTNLLTSPDSFRYFEYGMFCMGWHTPATHKIIYYITSCLIFAWCAVYLPIGIIISFKTDINTFTPNELLTVMQLFFNSVGMPFKVLFFNLYISGFYKAKKLLSEMDKRCTTLKERVEVHQGVVRCNKAYLIYQFIYTAYTISTFLSAALSGKLPWRIYNPFVDFRESRSSFWKAALNETALMLFAVTQTLMSDIYPLLYGLILRVHLKLLRLRVESLCTDSGKSDAENEQDLIKCIKDHNLIIDYAAAIRPAVTRTIFVQFLLIGICLGLSMINLLFFADIWTGLATVAYINGLMVQTFPFCFVCDLLKKDCELLVSAIFHSNWINSSRSYKSSLRYFLKNAQKSIAFTAGSIFPISTGSNIKVAKLAFSVVTFVNQLNIADRLTKN
Pharmacophore2D,0.42638043991058616,-1.6379149502130357,0.4860829132363259,0.3454361181091171,0.34842421421279013,0.4093280968422315,0.5426308571524665,-6.671416443042775,0.0961047515125979,-0.42002345413953024,0.3077065519569293,-1.501946157352402,MEKQEDFKLNTHSAVYYHWRVWELTGLMRPPGVSSLLYVVYSITVNLVVTVLFPLSLLARLLFTTNMAGLCENLTITITDIVANLKFANVYMVRKQLHEIRSLLRLMDARARLVGDPEEISALRKEVNIAQGTFRTFASIFVFGTTLSCVRVVVRPDRELLYPAWFGVDWMHSTRNYVLINIYQLFGLIVQAIQNCASDSYPPAFLCLLTGHMRALELRVRRIGCRTEKSNKGQTYEAWREEVYQELIECIRDLARVHRLREIIQRVLSVPCMAQFVCSAAVQCTVAMHFLYVADDHDHTAMIISIVFFSAVTLEVFVICYFGDRMRTQSEALCDAFYDCNWIEQLPKFKRELLFTLARTQRPSLIYAGNYIALSLETFEQVMRFTYSVFTLLLRAK
Pharmacophore2D,0.11182642723048442,-0.6059098207641478,0.09276153826026123,0.14810337906951188,0.20553111207126407,0.20628805658169014,-0.09355194983030524,-1.0536064994416985,-0.272575749965001,-0.250732533434892,-1.0187319008760718,-0.4339024201030759,MAVSTRVATKQEVPESRRAFRNLFNCFYALGMQAPDGSRPTTSSTWQRIYACFSVVMYVWQLLLVPTFFVISYRYMGGMEITQVLTSAQVAIDAVILPAKIVALAWNLPLLRRAEHHLAALDARCREQEEFQLILDAVRFCNYLVWFYQICYAIYSSSTFVCAFLLGQPPYALYLPGLDWQRSQMQFCIQAWIEFLIMNWTCLHQASDDVYAVIYLYVVRIQVQLLARRVEKLGTDDSGQVEIYPDERRQEEHCAELQRCIVDHQTMLQLLDCISPVISRTIFVQFLITAAIMGTTMINIFIFANTNTKIASIIYLLAVTLQTAPCCYQATSLMLDNERLALAIFQCQWLGQSARFRKMLLYYLHRAQQPITLTAMKLFPINLATYFSIAKFSFSLYTLIKGMNLGERFNRTN
Pharmacophore2D,0.2957600958345695,-0.38756226482745654,0.33692895375420484,0.19846908704988486,0.1776797463723433,0.27299063324045847,0.49273205875595605,-0.853338488731568,0.10114911563855433,-0.7142884308570752,-0.09045629985501003,-0.38087722033218374,MSDKVKGKKQEEKDQSLRVQILVYRCMGIDLWSPTMANDRPWLTFVTMGPLFLFMVPMFLAAHEYITQVSLLSDTLGSTFASMLTLVKFLLFCYHRKEFVGLIYHIRAILAKEIEVWPDAREIIEVENQSDQMLSLTYTRCFGLAGIFAALKPFVGIILSSIRGDEIHLELPHNGVYPYDLQVVMFYVPTYLWNVMASYSAVTMALCVDSLLFFFTYNVCAIFKIAKHRMIHLPAVGGKEELEGLVQVLLLHQKGLQIADHIADKYRPLIFLQFFLSALQICFIGFQVADLFPNPQSLYFIAFVGSLLIALFIYSKCGENIKSASLDFGNGLYETNWTDFSPPTKRALLIAAMRAQRPCQMKGYFFEASMATFSTIVRSAVSYIMMLRSFNA
Pharmacophore2D,0.2548260126155572,-0.9386877811981812,0.06117930327404364,0.6278855265528156,0.3289344780385385,0.3607602321026542,-0.1046294768902658,0.05252336487286102,-4.730970060811288,-0.0040069339575943275,-0.10036734134460668,0.08938206524972281,MSEWLRFLKRDQQLDVYFFAVPRLSLDIMGYWPGKTGDTWPWRSLIHFAILAIGVATELHAGMCFLDRQQITLALETLCPAGTSAVTLLKMFLMLRFRQDLSIMWNRLRGLLFDPNWERPEQRDIRLKHSAMAARINFWPLSAGFFTCTTYNLKPILIAMILYLQNRYEDFVWFTPFNMTMPKVLLNYPFFPLTYIFIAYTGYVTIFMFGGCDGFYFEFCAHLSALFEVLQAEIESMFRPYTDHLELSPVQLYILEQKMRSVIIRHNAIIDLTRFFRDRYTIITLAHFVSAAMVIGFSMVNLLTLGNNGLGAMLYVAYTVAALSQLLVYCYGGTLVAESSTGLCRAMFSCPWQLFKPKQRRLVQLLILRSQRPVSMAVPFFSPSLATFAAILQTSGSIIALVKSFQ
Pharmacophore2D,0.1617019061548553,-0.6901620109670024,0.28560769445244727,0.23390623239521313,0.13136199229263534,0.16412387552670626,-0.006490263892725556,-1.8136244137375082,0.2758846109587565,-0.7757539790643624,-1.039839059678819,-0.09747721331307857,MDISKVDSTRALVNHWRIFRIMGIHPPGKRTFWGRHYTAYSMVWNVTFHICIWVSFSVNLLQSNSLETFCESLCVTMPHTLYMLKLINVRRMRGQMISSHWLLRLLDKRLGCDDERQIIMAGIERAEFIFRTIFRGLACTVVLGIIYISASSEPTLMYPTWIPWNWRDSTSAYLATAMLHTTALMANATLVLNLSSYPGTYLILVSVHTKALALRVSKLGYGAPLPAVRMQAILVGYIHDHQIILRLFKSLERSLSMTCFLQFFSTACAQCTICYFLLFGNVGIMRFMNMLFLLVILTTETLLLCYTAELPCKEGESLLTAVYSCNWLSQSVNFRRLLLLMLARCQIPMILVSGVIVPISMKTFTVMIKGAYTMLTLLNEIRKTSLE
Pharmacophore2D,0.2564942462356469,-0.9552219812800817,0.21873590777447416,0.3203945459465357,0.08838210306104677,0.21395684603593557,0.4410018283602425,-1.7688765205502492,0.26234962185481636,-0.40374743724927065,-0.06869759624928551,-2.79713797420642,MLSKFFPHIKEKPLSERVKSRDAFIYLDRVMWSFGWTEPENKRWILPYKLWLAFVNIVMLILLPISISIEYLHRFKTFSAGEFLSSLEIGVNMYGSSFKCAFTLIGFKKRQEAKVLLDQLDKRCLSDKERSTVHRYVAMGNFFDILYHIFYSTFVVMNFPYFLLERRHAWRMYFPYIDSDEQFYISSIAECFLMTEAIYMDLCTDVCPLISMLMARCHISLLKQRLRNLRSKPGRTEDEYLEELTECIRDHRLLLDYVDALRPVFSGTIFVQFLLIGTVLGLSMINLMFFSTFWTGVATCLFMFDVSMETFPFCYLCNMIIDDCQEMSNCLFQSDWTSADRRYKSTLVYFLHNLQQPITLTAGGVFPISMQTNLAMVKLAFSVVTVIKQFNLAERFQ
Pharmacophore2D,0.30941442587656065,-2.50400763223897,0.3454983980070918,0.0780134037238771,0.22199675798018015,0.6168710077571227,0.2846925619145314,-8.563061602450373,0.02988364255549858,-0.9877413304651017,-0.03425214989049352,-2.9648667209443804,MKLSETLKIDYFRVQLNAWRICGALDLSEGRYWSWSMLLCILVYLPTPMLLRGVYSFEDPVENNFSLSLTVTSLSNLMKFCMYVAQLTKMVEVQSLIGQLDARVSGESQSERHRNMTEHLLRMSKLFQITYAVVFIIAAVPFVFETELSLPMPMWFPFDWKNSMVAYIGALVFQEIGYVFQIMQCFAADSFPPLVLYLISEQCQLLILRISEIGYGYKTLEENEQDLVNCIRDQNALYRLLDVTKSLVSYPMMVQFMVIGINIAITLFVLIFYVETLYDRIYYLCFLLGITVQTYPLCYYGTMVQESFAELHYAVFCSNWVDQSASYRGHMLILAERTKRMQLLLAGNLVPIHLSTYVACWKGAYSFFTLMADRDGLGS
Pharmacophore2D,0.047164462178298575,-1.1144885527798605,-0.2781806805320086,0.09929663393196408,0.10999943686873892,0.20900528086463221,0.09570163975816626,-4.872705419810421,-0.10209319306838127,-0.5925601104241169,-0.00022918137085814472,-0.00485485922552642,MDLKPRVIRSEDIYRTYWLYWHLLGLESNFFLNRLLDLVITIFVTIWYPIHLILGLFMERSLGDVCKGLPITAACFFASFKFICFRFKLSEIKEIEILFKELDQRALSREECEFFNQNTRREANFIWKSFIVAYGLSNISAIASVLFGGGHKLLYPAWFPYDVQATELIFWLSVTYQIAGVSLAILQNLANDSYPPMTFCVVAGHVRLLAMRLSRIGQGPEETIYLTGKQLIESIEDHRKLMKIVELLRSTMNISQLGQFISSGVNISITLVNILFFADNNFAITYYGVYFLSMVLELFPCCYYGTLISVEMNQLTYAIYSSNWMSMNRSYSRILLIFMQLTLAEVQIKAGGMIGIGMNAFFATVRLAYSFFTLAMSLR
Pharmacophore2D,0.292953905236321,-0.7422993529449464,0.1373757799458124,0.22786407413649545,0.4351399212849886,0.5186033444368332,0.14578640637747542,-1.1869314302277387,0.3136624296205923,-1.1594985845455361,-0.6287967814098432,-1.0499323981622068,MVRYVPRFADGQKVKLAWPLAVFRLNHIFWPLDPSTGKWGRYLDKVLAVAMSLVFMQHNDAELRYLRFEASNRNLDAFLTGMPTYLILVEAQFRSLHILLHFEKLQKFLEIFYANIYIDPRKEPEMFRKVDGKMIINRLVSAMYGAVISLYLIAPVFSIINQSKDFLYSMIFPFDSDPLYIFVPLLLTNVWVGIVIDTMMFGETNLLCELIVHLNGSYMLLKRDLQLAIEKILVARDRPHMAKQLKVLITKTLRKNVALNQFGQQLEAQYTVRVFIMFAFAAGLLCALSFKAYTNPMANYIYAIWFGAKTVELLSLGQIGSDLAFTTDSLSTMYYLTHWEQILQYSTNPSENLRLLKLINLAIEMNSKPFYVTGLKYFRVSLQAGLKILQASFSYFTFLTSMQRRQMSN
Pharmacophore2D,0.220557007586261,-0.9753506569217819,0.54160714340865,0.014112790582848644,0.1030315415355404,0.2580044345650099,0.18602912783925618,-4.167484594343005,-0.18997543845773057,-0.5039881797214023,0.035096496932614296,-0.050401569019386194,MTIEDIGLVGINVRMWRHLAVLYPTPGSSWRKFAFVLPVTAMNLMQFVYLLRMWGDLPAFILNMFFFSAIFNALMRTWLVIIKRRQFEEFLGQLATLFHSILDSTDEWGRGILRRAEREARNLAILNLSASFLDIVGALVSPLFREERAHPFGLALPGVSMTSSPVYEVIYLAQLPTPLLLSMMYMPFVSLFAGLAIFGKAMLQILVHRLGQIGGEEQSEEERFQRLASCIAYHTQVMRYVWQLNKLVANIVAVEAIIFGSIICSLLFCLNIITSPTQVISIVMYILTMLYVLFTYYNRANEICLENNRVAEAVYNVPWYEAGTRFRKTLLIFLMQTQHPMEIRVGNVYPMTLAMFQSLLNASYSYFTMLRGVTGK
Pharmacophore2D,0.40493330793652776,-3.633621051012804,0.4624704064164822,0.3875948862066486,0.24682712002345375,0.2817786065573581,0.6459955204786962,-4.731739757300637,0.28693822979783234,-0.9010439208669432,0.012502025039224818,-12.834761831733498,MFGHFKLVYPAPISEPIQSRDSNAYMMETLRNSGLNLKNDFGIGRKIWRVFSFTYNMVILPVSFPINYVIHLAEFPPELLLQSLQLCLNTWCFALKFFTLIVYTHRLELANKHFDELDKYCVKPAEKRKVRDMVATITRLYLTFVVVYVLYATSTLLDGLLHHRVPYNTYYPFINWRVDRTQMYIQSFLEYFTVGYAIYVATATDSYPVIYVAALRTHILLLKDRIIYLGDPSNEGSSDPSYMFKSLVDCIKAHRTMLNFCDAIQPIISGTIFAQFIICGSILGIIMINMVLFADQSTRFGIVIYVMAVLLQTFPLCFYCNAIVDDCKELAHALFHSAWWVQDKRYQRTVIQFLQKLQQPMTFTAMNIFNINLATNINVAKFAFTVYAIASGMNLDQKLSIKE
Pharmacophore2D,0.336181716375957,-2.01953506472673,0.4961433948259002,0.39463412831954536,0.3997203788092515,0.157089784351236,0.23332089557385216,-0.33037277583529456,0.20593281891235782,-0.5169078524797717,0.053878454364670314,-9.510205968595612,MDSFLQVQKSTIALLGFDLFSENREMWKRPYRAMNVFSIAAIFPFILAAVLHNWKNVLLLADAMVALLITILGLFKFSMILYLRRDFKRLIDKFRLLMSNEAEQGEEYAEILNAANKQDQRMCTLFRTCFLLAWALNSVLPLVRMGLSYWLAGHAEPELPFPCLFPWNIHIIRNYVLSFIWSAFASTGVVLPAVSLDTIFCSFTSNLCAFFKIAQYKVVRFKGGSLKESQATLNKVFALYQTSLDMCNDLNQCYQPIICAQFFISSLQLCMLGYLFSITFAQTEGVYYASFIATIIIQAYIYCYCGENLKTESASFEWAIYDSPWHESLGAGGASTSICRSLLISMMRAHRGFRITGYFFEANMEAFSSIVRTAMSYITMLRSFS
Pharmacophore2D,0.19757338179824552,-0.6694129616991411,0.38010562684152915,0.29175205627257217,-0.11207293736714674,0.2690468404231705,0.15903532282110244,0.29519289316661446,-0.04805818866788947,-2.3582064996519425,-0.12938945875818542,-1.1066035545843027,MNDSGYQSNLSLLRVFLDEFRSVLRQESPGLIPRLAFYYVRAFLSLLCQYPNKKLASLPLYRWINLFIMCNVMTIFWTMFVALPESKNVIEMGDDLVWISGMALVFTKIFYMHLRCDEIDELISDFEYYNRELRPHNIDEEVLGWQRLCYVIESGLYINCFCLVNFFSAAIFLQPLLGEGKLPFHSVYPFQWHRLDLHPYTFWFLYIWQSLTSQHNLMSILMVDMVGISTFLQTALNLKLLCIEIRKLGDMEVSDKRFHEEFCRVVRFHQHIIKLVGKANRAFNGAFNAQLMASFSLISISTFETMAAAAVDPKMAAKFVLLMLVAFIQLSLWCVSGTLVYTQSVEVAQAAFDINDWHTKSPGIQRDISFVILRAQKPLMYVAEPFLPFTLGTYMLVLKNCYRLLALMQESM
Pharmacophore2D,-0.07749247663995429,-1.6294611214119148,0.04556735963849079,-0.5880960139559364,0.048132490494175784,0.008190587931531046,0.0987431926919673,-7.314300543620245,-0.6291894263341369,-0.12844544189112383,-0.026677920319760906,-0.04869227489430705,MFEDIQLIYMNIKILRFWALLYDKNLRRYVCIGLASFHIFTQIVYMMSTNEGLTGIIRNSYMLVLWINTVLRAYLLLADHDRYLALIQKLTEAYYDLLNLNDSYISEILDQVNKVGKLMARGNLFFGMLTSMGFGLYPLSSSERVLPFGSKIPGLNEYESPYYEMWYIFQMLITPMGCCMYIPYTSLIVGLIMFGIVRCKALQHRLRQVALKHPYGDRDPRELREEIIACIRYQQSIIEYMDHINELTTMMFLFELMAFSALLCALLFMLIIVSGTSQLIIVCMYINMILAQILALYWYANELREQNLAVATAAYETEWFTFDVPLRKNILFMMMRAQRPAAILLGNIRPITLELFQNLLNTTYTFFTVLKRVYG
Pharmacophore2D,-0.03712289791577976,-0.9357698042109954,-0.12863718198203933,-0.18111091035939708,-0.11647033469122992,0.04573458782036888,0.19486934963339864,-0.18715803689786692,0.046178514343018784,-0.19100151614933614,-0.5397398180521653,-3.8071281642986277,MAVFKLIKPAPLTEKVQSRQGNIYLYRAMWLIGWIPPKEGVLRYVYLFWTCVPFAFGVFYLPVGFIISYVQEFKNFTPGEFLTSLQVCINVYGASVKSTITYLFLWRLRKTEILLDSLDKRLANDSDRERIHNMVARCNYAFLIYSFIYCGYAGSTFLSYALSGRPPWSVYNPFIDWRDGMGSLWIQAIFEYITMSFAVLQDQLSDTYPLMFTIMFRAHMEVLKDHVRSLRMDPERSEADNYQDLVNCVLDHKTILKCCDMIRPMISRTIFVQFALIGSVLGLTLVNVFFFSNFWKGVASLLFVITILLQTFPFCYTCNMLIDDAQDLSNEIFQSNWVDAEPRYKATLVLFMHHVQQPIIFIAGGIFPISMNSNITVAKFAFSIITIVRQMNLAEQFQ
Pharmacophore2D,0.1399033852207801,-0.25086890774002135,0.19786131196751244,0.19157499105522557,-0.18334902314166812,0.5371160807892447,-0.04368643456641408,-0.9694350966741527,0.09551434055026486,-0.11172716039444852,0.005365681223129526,-0.2740623034048999,MTELRSERKNGNWDRLFGPFFESWAVFKAPQAKSRHIIAYWTRDQLKALGFYMNSEQRRLPRIVAWQYFVSIQLATALASLFYGISESIGDIVNLGRDLVFIITIIFICFRLVFFAQYAGELDVIIDALEDIYHWSIKGPATKEVQETKRLHFLLFMALIITWFSFLILFMLIKISTPFWIESQTLPFHVSWPFQLHDPSKHPIAYIIIFVSQSTTMLYFLIWLGVVENMGVSLFFELTSALRVLCIELRNLQELCLGDEDMLYRELCRMTKFHQQIILLTDRCNHIFNGAFIMQMLINFLLVSLSLFEVLAAKKNPQVAVEYMIIMLMTLGHLSFWSKFGDMFSKESEQVALAVYEAYDPNVGSKSIHRQFCFFIQRAQKPLIMKASPFPPFNLENYMFILKQCYSILTILANTLE
Pharmacophore2D,0.2108429250713148,-0.2020237894329692,0.16262484068287486,0.1300600851602911,0.1795165335565374,0.26154719226914014,0.32046597368773055,-0.9119575675468734,0.04266523101238595,-0.10352241614034252,0.038926220859505256,-0.07623041534952124,MDNVAEMPEEKYVEVDDFLRLAVKFYNTLGIDPYETGRKRTIWFQIYFALNMFNMVFSFYAEVATLVDRLRDNENFLESCILLSYVSFVVMGLSKIGAVMKKKPKMTALVRQLETCFPSPSAKVQEEYAVKSWLKRCHIYTKGFGGLFMIMYFAHALIPLFIYFIQRVLLHYPDAKQIMPFYQLEPWEFRDSWLFYPSYFHQSSAGYTATCGSIAGDLMIFAVVLQVIMHYERLAKVLREFKIQAHNAPNGAKEDIRKLQSLVANHIDILRLTDLMNEVFGIPLLLNFIASALLVCLVGVQLTIALSPEYFCKQMLFLISVLLEVYLLCSFSQRLIDASENVGHAAYDMDWLGSDKRFKKILIFISMRSQKPVCLKATVVLDLSMPTMSIFLGMSYKFFCAVRTMYQ
Pharmacophore2D,0.4052806476407448,-2.2668355608449593,0.31797337952577276,0.13086226959983716,0.39843727141328167,0.552798337474768,0.6263319801900645,-4.357604790580432,0.2126597274687282,-0.59569022132238,0.2059730316594055,-6.799515551450119,METAKDNTARTFMELMRVPVQFYRTIGEDIYAHRSTNPLKSLLFKIYLYAGFINFNLLVIGELVFFYNSIQDFETIRLAIAVAPCIGFSLVADFKQAAMIRGKKTLIMLLDDLENMHPKTLAKQMEYKLPDFEKTMKRVINIFTFLCLAYTTTFSFYPAIKASVKFNFLGYDTFDRNFGFLIWFPFDATRNNLIYWIMYWDIAHGAYLAGIAFLCADLLLVVVITQICMHFNYISMRLEDHPCNSNEDKENIEFLIGIIRYHDKCLKLCEHVNDLYSFSLLLNFLMASMQICFIAFQVTESTVEVIIIYCIFLMTSMVQVFMVCYYGDTLIAASLKVGDAAYNQKWFQCSKSYCTMLKLLIMRSQKPASIRPPTFPPISLVTYMKVISMSYQFFALLRTTYSNN
Pharmacophore2D,-0.0018225041816454235,-0.828032032797679,0.0176212942980849,0.058558939205282434,-0.06591622009652931,-0.013888443938417705,-0.0054880903766474365,-0.034744443353348364,0.008981909676004873,-1.8479380789332085,-0.2681459372913946,-1.9983136140864488,MGRLFQLQEYCLRAMGHKDDMDSTDSTALSLKHISSLIFVISAQYPLISYVAYNRNDMEKVTACLSVVFTNMLTVIKISTFLANRKDFWEMIHRFRKMHEQSASHIPRYREGLDYVAEANKLASFLGRAYCVSCGLTGLYFMLGPIVKIGVCRWHGTTCDKELPMPMKFPFNDLESPGYEVCFLYTVLVTVVVVAYASAVDGLFISFAINLRAHFQTLQRQIENWEFPSSEPDTQIRLKSIVEYHVLLLSLSRKLRSIYTPTVMGQFVITSLQVGVIIYQLVTNMDSVMDLLLYASFFGSIMLQLFIYCYGGEIIKAESLQVDTAVRLSNWHLASPKTRTSLSLIILQSQKEVLIRAGFFVASLANFVGICRTALSLITLIKSIE
Pharmacophore2D,-0.13080309415712105,-2.6690445766420217,0.1375584690247167,-0.7838314634762384,-0.42925170995276396,0.12804702936671697,0.29346220425196357,-4.291916687327214,-0.12746807484792733,-0.16104213984867055,-0.05579887711310616,-8.708997104073191,MIFKYIQEPVLGSLFRSRDSLIYLNRSIDQMGWRLPPRTKPYWWLYYIWTLVVIVLVFIFIPYGLIMTGIKEFKNFTTTDLFTYVQVPVNTNASIMKGIIVLFMRRRFSRAQKMMDAMDIRCTKMEEKVQVHRAAALCNRVVVIYHCIYFGYLSMALTGALVIGKTPFCLYNPLVNPDDHFYLATAIESVTMAGIILANLILDVYPIIYVVVLRIHMELLSERIKTLRTDVEKGDDQHYAELVECVKDHKLIVEYGNTLRPMISATMFIQLLSVGLLLGLAAVSMQFYNTVMERVVSGVYTIAILSQTFPFCYVCEQLSSDCESLTNTLFHSKWIGAERRYRTTMLYFIHNVQQSILFTAGGIFPICLNTNIKMAKFAFSVVTIVNEMDLAEKLRRE
Pharmacophore2D,0.39807220731432424,-1.005263055915583,0.4623605237528704,0.22796772825044676,0.4009883887777308,0.5399078947792854,0.3591365010112879,-2.5041486082438182,0.10443099916339693,-0.28586032216744495,0.2568041319618639,-2.5975414802919126,MEKLMKYASFFYTAVGIRPYTNGEESKMNKLIFHIVFWSNVINLSFVGLFESIYVYSAFMDNKFLEAVTALSYIGFVTVGMSKMFFIRWKKTAITELINELKEIYPNGLIREERYNLPMYLGTCSRISLIYSLLYSVLIWTFNLFCVMEYWVYDKWLNIRVVGKQLPYLMYIPWKWQDNWSYYPLLFSQNFAGYTSAAGQISTDVLLCAVATQLVMHFDFLSNSMERHELSGDWKKDSRFLVDIVRYHERILRLSDAVNDIFGIPLLLNFMVSSFVICFVGFQMTVGVPPDIVVKLFLFLVSSMSQVYLICHYGQLVADASYGFSVATYNQKWYKADVRYKRALVIIIARSQKVTFLKATIFLDITRSTMTDLLQISYKFFALLRTMYTQ
Pharmacophore2D,0.21029330917415567,0.048958384758360785,0.33382572680212774,-0.36262188257854566,0.43405416881255343,0.44469579225002576,0.201512740584617,-0.2157866304745284,0.3396405195619896,0.3319868435058998,-0.42689596338476776,0.2158471545832107,MEPVQYSYEDFARLPTTVFWIMGYDMLGVPKTRSRRILYWIYRFLCLASHGVCVGVMVFRMVEAKTIDNVSLIMRYATLVTYIINSDTKFATVLQRSAIQSLNSKLAELYPKTTLDRIYHRVNDHYWTKSFVYLVIIYIGSSIMVVIGPIITSIIAYFTHNVFTYMHCYPYFLYDPEKDPVWIYISIYALEWLHSTQMVISNIGADIWLLYFQVQINLHFRGIIRSLADHKPSVKHDQEDRKFIAKIVDKQVHLVSLQNDLNGIFGKSLLLSLLTTAAVICTVAVYTLIQGPTLEGFTYVIFIGTSVMQVYLVCYYGQQVLDLSGEVAHAVYNHDFHDASIAYKRYLLIIIIRAQQPVELNAMGYLSISLDTFKQLMSVSYRVITMLMQMIQ
Pharmacophore2D,-0.13668454095764854,-0.09423925213783982,-0.009659525607375041,-0.3750448450913766,-0.004256973638145478,-0.2869115639159783,-0.007549796535367248,-0.05797448098866975,-0.00513466291276754,-0.07044458269467313,-0.2372376981542692,-0.10040483593881944,MKPTEIKKPYRMEEFLRPQMFQEVAQMVHFQWRRNPVDNSMVNASMVPFCLSAFLNVLFFGCNGWDIIGHFWLGHPANQNPPVLSITIYFSIRGLMLYLKRKEIVEFVNDLDRECPRDLVSQLDMQMDETYRNFWQRYRFIRIYSHLGGPMFCVVPLALFLLTHEGKDTPVAQHEQLLGGWLPCGVRKDPNFYLLVWSFDLMCTTCGVSFFVTFDNLFNVMQGHLVMHLGHLARQFSAIDPRQSLTDEKRFFVDLRLLVQRQQLLNGLCRKYNDIFKVAFLVSNFVGAGSLCFYLFMLSETSDVLIIAQYILPTLVLVGFTFEICLRGTQLEKASEGLESSLRSQEWYLGSRRYRKFYLLWTQYCQRTQQLGAFGLIQVNMVHFTEIMQLAYRLFTFLKSH
Pharmacophore2D,0.31591733079586853,-2.832014460716274,0.4462557897000903,0.21556919479542858,0.19100604923749553,0.34785644941900984,0.3788991708273185,-5.745962520195024,0.1976097530427301,-0.5361100126339791,-0.6460918465509975,-7.429517677244098,MLFNYLRKPNPTNLLTSPDSFRYFEYGMFCMGWHTPATHKIIYYITSCLIFAWCAVYLPIGIIISFKTDINTFTPNELLTVMQLFFNSVGMPFKVLFFNLYISGFYKAKKLLSEMDKRCTTLKERVEVHQGVVRCNKAYLIYQFIYTAYTISTFLSAALSGKLPWRIYNPFVDFRESRSSFWKAALNETALMLFAVTQTLMSDIYPLLYGLILRVHLKLLRLRVESLCTDSGKSDAENEQDLIKCIKDHNLIIDYAAAIRPAVTRTIFVQFLLIGICLGLSMINLLFFADIWTGLATVAYINGLMVQTFPFCFVCDLLKKDCELLVSAIFHSNWINSSRSYKSSLRYFLKNAQKSIAFTAGSIFPISTGSNIKVAKLAFSVVTFVNQLNIADRLTKN
RDKitDescriptors2D,0.11030996441669302,-4.7474965870581665,0.2615437129532959,-0.12421141361646137,0.2270929667294237,0.030930615938771333,0.15619394007843557,-19.86159284111927,-0.31289297260821236,-1.2904696105479556,-0.007632293956296277,-2.2648952170591015,MEKQEDFKLNTHSAVYYHWRVWELTGLMRPPGVSSLLYVVYSITVNLVVTVLFPLSLLARLLFTTNMAGLCENLTITITDIVANLKFANVYMVRKQLHEIRSLLRLMDARARLVGDPEEISALRKEVNIAQGTFRTFASIFVFGTTLSCVRVVVRPDRELLYPAWFGVDWMHSTRNYVLINIYQLFGLIVQAIQNCASDSYPPAFLCLLTGHMRALELRVRRIGCRTEKSNKGQTYEAWREEVYQELIECIRDLARVHRLREIIQRVLSVPCMAQFVCSAAVQCTVAMHFLYVADDHDHTAMIISIVFFSAVTLEVFVICYFGDRMRTQSEALCDAFYDCNWIEQLPKFKRELLFTLARTQRPSLIYAGNYIALSLETFEQVMRFTYSVFTLLLRAK
RDKitDescriptors2D,0.06603590212573474,-0.9853945475239572,0.09055793754750707,0.12044610883821638,0.18511603338877392,-0.0489175858196329,-0.017022983326190788,-3.2666257130158396,-0.27255939546697117,-0.25071898088095446,-1.0186431079424443,-0.1184255403135761,MAVSTRVATKQEVPESRRAFRNLFNCFYALGMQAPDGSRPTTSSTWQRIYACFSVVMYVWQLLLVPTFFVISYRYMGGMEITQVLTSAQVAIDAVILPAKIVALAWNLPLLRRAEHHLAALDARCREQEEFQLILDAVRFCNYLVWFYQICYAIYSSSTFVCAFLLGQPPYALYLPGLDWQRSQMQFCIQAWIEFLIMNWTCLHQASDDVYAVIYLYVVRIQVQLLARRVEKLGTDDSGQVEIYPDERRQEEHCAELQRCIVDHQTMLQLLDCISPVISRTIFVQFLITAAIMGTTMINIFIFANTNTKIASIIYLLAVTLQTAPCCYQATSLMLDNERLALAIFQCQWLGQSARFRKMLLYYLHRAQQPITLTAMKLFPINLATYFSIAKFSFSLYTLIKGMNLGERFNRTN
RDKitDescriptors2D,0.0963492327982467,-0.5476706988266005,0.009307628704983917,0.15041206179263955,0.20764507033778523,-0.11176870787973714,0.22615011103556193,-2.1554671037022035,-0.008375154812353847,-0.9723660309551876,0.12889417037930495,0.26896062495743756,MSDKVKGKKQEEKDQSLRVQILVYRCMGIDLWSPTMANDRPWLTFVTMGPLFLFMVPMFLAAHEYITQVSLLSDTLGSTFASMLTLVKFLLFCYHRKEFVGLIYHIRAILAKEIEVWPDAREIIEVENQSDQMLSLTYTRCFGLAGIFAALKPFVGIILSSIRGDEIHLELPHNGVYPYDLQVVMFYVPTYLWNVMASYSAVTMALCVDSLLFFFTYNVCAIFKIAKHRMIHLPAVGGKEELEGLVQVLLLHQKGLQIADHIADKYRPLIFLQFFLSALQICFIGFQVADLFPNPQSLYFIAFVGSLLIALFIYSKCGENIKSASLDFGNGLYETNWTDFSPPTKRALLIAAMRAQRPCQMKGYFFEASMATFSTIVRSAVSYIMMLRSFNA
RDKitDescriptors2D,-0.00591544467904932,-0.4542400831945931,0.29025836764851076,0.09717605817009922,-0.029855258953704666,0.08624745411999213,-0.47340384438014405,-0.07559222197335891,-2.0801079710304835,-0.0024223407572077083,0.07096905263208775,-0.18404693484400303,MSEWLRFLKRDQQLDVYFFAVPRLSLDIMGYWPGKTGDTWPWRSLIHFAILAIGVATELHAGMCFLDRQQITLALETLCPAGTSAVTLLKMFLMLRFRQDLSIMWNRLRGLLFDPNWERPEQRDIRLKHSAMAARINFWPLSAGFFTCTTYNLKPILIAMILYLQNRYEDFVWFTPFNMTMPKVLLNYPFFPLTYIFIAYTGYVTIFMFGGCDGFYFEFCAHLSALFEVLQAEIESMFRPYTDHLELSPVQLYILEQKMRSVIIRHNAIIDLTRFFRDRYTIITLAHFVSAAMVIGFSMVNLLTLGNNGLGAMLYVAYTVAALSQLLVYCYGGTLVAESSTGLCRAMFSCPWQLFKPKQRRLVQLLILRSQRPVSMAVPFFSPSLATFAAILQTSGSIIALVKSFQ
RDKitDescriptors2D,-0.08724414965787404,-1.0816385342995782,-0.06245994551968015,0.051197897514790314,0.10411596533095269,0.10226025811999295,-0.631334923735426,-3.7900674981253477,-0.09842265756507862,-1.0707557263459488,-0.43279141764738926,-0.01615537181412674,MDISKVDSTRALVNHWRIFRIMGIHPPGKRTFWGRHYTAYSMVWNVTFHICIWVSFSVNLLQSNSLETFCESLCVTMPHTLYMLKLINVRRMRGQMISSHWLLRLLDKRLGCDDERQIIMAGIERAEFIFRTIFRGLACTVVLGIIYISASSEPTLMYPTWIPWNWRDSTSAYLATAMLHTTALMANATLVLNLSSYPGTYLILVSVHTKALALRVSKLGYGAPLPAVRMQAILVGYIHDHQIILRLFKSLERSLSMTCFLQFFSTACAQCTICYFLLFGNVGIMRFMNMLFLLVILTTETLLLCYTAELPCKEGESLLTAVYSCNWLSQSVNFRRLLLLMLARCQIPMILVSGVIVPISMKTFTVMIKGAYTMLTLLNEIRKTSLE
RDKitDescriptors2D,0.28852966283075554,-1.4449621991805472,0.14981029284726555,0.4077912706130358,0.2774436832897892,0.17246905108107846,0.43513401632260873,-3.162439213804827,0.10799638437492598,-0.6406323477063749,-0.14083300019738187,-3.388902818569078,MLSKFFPHIKEKPLSERVKSRDAFIYLDRVMWSFGWTEPENKRWILPYKLWLAFVNIVMLILLPISISIEYLHRFKTFSAGEFLSSLEIGVNMYGSSFKCAFTLIGFKKRQEAKVLLDQLDKRCLSDKERSTVHRYVAMGNFFDILYHIFYSTFVVMNFPYFLLERRHAWRMYFPYIDSDEQFYISSIAECFLMTEAIYMDLCTDVCPLISMLMARCHISLLKQRLRNLRSKPGRTEDEYLEELTECIRDHRLLLDYVDALRPVFSGTIFVQFLLIGTVLGLSMINLMFFSTFWTGVATCLFMFDVSMETFPFCYLCNMIIDDCQEMSNCLFQSDWTSADRRYKSTLVYFLHNLQQPITLTAGGVFPISMQTNLAMVKLAFSVVTVIKQFNLAERFQ
RDKitDescriptors2D,0.10184757572265901,-4.926938626283957,0.16841243253582505,0.1275229123951812,0.11938225893587195,0.017106283073448192,0.07681399167296865,-21.376169418645627,-0.06810823215557349,-1.0171620431798871,-0.1492195099076763,-2.0240339275310197,MKLSETLKIDYFRVQLNAWRICGALDLSEGRYWSWSMLLCILVYLPTPMLLRGVYSFEDPVENNFSLSLTVTSLSNLMKFCMYVAQLTKMVEVQSLIGQLDARVSGESQSERHRNMTEHLLRMSKLFQITYAVVFIIAAVPFVFETELSLPMPMWFPFDWKNSMVAYIGALVFQEIGYVFQIMQCFAADSFPPLVLYLISEQCQLLILRISEIGYGYKTLEENEQDLVNCIRDQNALYRLLDVTKSLVSYPMMVQFMVIGINIAITLFVLIFYVETLYDRIYYLCFLLGITVQTYPLCYYGTMVQESFAELHYAVFCSNWVDQSASYRGHMLILAERTKRMQLLLAGNLVPIHLSTYVACWKGAYSFFTLMADRDGLGS
RDKitDescriptors2D,-0.03346220305760576,-1.2620236942956424,0.03057469665625767,0.10720640359786948,-0.003907607513529809,-0.2548436220011858,-0.04634088602744035,-5.610426930826711,-0.10207867543015237,-0.5925441126602469,-0.0002213421736996235,-0.004847410387401663,MDLKPRVIRSEDIYRTYWLYWHLLGLESNFFLNRLLDLVITIFVTIWYPIHLILGLFMERSLGDVCKGLPITAACFFASFKFICFRFKLSEIKEIEILFKELDQRALSREECEFFNQNTRREANFIWKSFIVAYGLSNISAIASVLFGGGHKLLYPAWFPYDVQATELIFWLSVTYQIAGVSLAILQNLANDSYPPMTFCVVAGHVRLLAMRLSRIGQGPEETIYLTGKQLIESIEDHRKLMKIVELLRSTMNISQLGQFISSGVNISITLVNILFFADNNFAITYYGVYFLSMVLELFPCCYYGTLISVEMNQLTYAIYSSNWMSMNRSYSRILLIFMQLTLAEVQIKAGGMIGIGMNAFFATVRLAYSFFTLAMSLR
RDKitDescriptors2D,0.11470200886688205,-0.8486365162490088,-0.04156994560938121,0.1357211621968495,0.21903647637301682,0.28197935216021974,-0.021657000786294622,-2.540626081340835,-0.02078290778245262,-1.159480427276844,-0.15086542845594364,-0.3714277363889691,MVRYVPRFADGQKVKLAWPLAVFRLNHIFWPLDPSTGKWGRYLDKVLAVAMSLVFMQHNDAELRYLRFEASNRNLDAFLTGMPTYLILVEAQFRSLHILLHFEKLQKFLEIFYANIYIDPRKEPEMFRKVDGKMIINRLVSAMYGAVISLYLIAPVFSIINQSKDFLYSMIFPFDSDPLYIFVPLLLTNVWVGIVIDTMMFGETNLLCELIVHLNGSYMLLKRDLQLAIEKILVARDRPHMAKQLKVLITKTLRKNVALNQFGQQLEAQYTVRVFIMFAFAAGLLCALSFKAYTNPMANYIYAIWFGAKTVELLSLGQIGSDLAFTTDSLSTMYYLTHWEQILQYSTNPSENLRLLKLINLAIEMNSKPFYVTGLKYFRVSLQAGLKILQASFSYFTFLTSMQRRQMSN
RDKitDescriptors2D,0.02325798402415482,-2.038664313837831,0.11461496786706571,-0.25317544461767416,0.0486393928783142,-0.026158482321140042,0.2323694863142084,-9.34322696478772,-0.05847340133086543,-0.6417234841318837,-0.0929897273322946,-0.05690799160639237,MTIEDIGLVGINVRMWRHLAVLYPTPGSSWRKFAFVLPVTAMNLMQFVYLLRMWGDLPAFILNMFFFSAIFNALMRTWLVIIKRRQFEEFLGQLATLFHSILDSTDEWGRGILRRAEREARNLAILNLSASFLDIVGALVSPLFREERAHPFGLALPGVSMTSSPVYEVIYLAQLPTPLLLSMMYMPFVSLFAGLAIFGKAMLQILVHRLGQIGGEEQSEEERFQRLASCIAYHTQVMRYVWQLNKLVANIVAVEAIIFGSIICSLLFCLNIITSPTQVISIVMYILTMLYVLFTYYNRANEICLENNRVAEAVYNVPWYEAGTRFRKTLLIFLMQTQHPMEIRVGNVYPMTLAMFQSLLNASYSYFTMLRGVTGK
RDKitDescriptors2D,0.06913929726263282,-6.330137597549593,0.08957856446028989,0.1030976249931227,0.005453595371301745,0.013600388690848675,0.13396631279760107,-18.993321116237365,-0.02284153963053215,-1.087844972226217,-0.041830882965569804,-11.504849476688277,MFGHFKLVYPAPISEPIQSRDSNAYMMETLRNSGLNLKNDFGIGRKIWRVFSFTYNMVILPVSFPINYVIHLAEFPPELLLQSLQLCLNTWCFALKFFTLIVYTHRLELANKHFDELDKYCVKPAEKRKVRDMVATITRLYLTFVVVYVLYATSTLLDGLLHHRVPYNTYYPFINWRVDRTQMYIQSFLEYFTVGYAIYVATATDSYPVIYVAALRTHILLLKDRIIYLGDPSNEGSSDPSYMFKSLVDCIKAHRTMLNFCDAIQPIISGTIFAQFIICGSILGIIMINMVLFADQSTRFGIVIYVMAVLLQTFPLCFYCNAIVDDCKELAHALFHSAWWVQDKRYQRTVIQFLQKLQQPMTFTAMNIFNINLATNINVAKFAFTVYAIASGMNLDQKLSIKE
RDKitDescriptors2D,0.09066580165766554,-1.7359802068668362,0.14088502047522,0.1274177874480369,0.12023408862956952,0.15563030811042777,-0.09083819637492652,-0.6092022436092281,-0.017044936050365278,-0.5437634421560309,-0.040383544547598405,-7.469506867970958,MDSFLQVQKSTIALLGFDLFSENREMWKRPYRAMNVFSIAAIFPFILAAVLHNWKNVLLLADAMVALLITILGLFKFSMILYLRRDFKRLIDKFRLLMSNEAEQGEEYAEILNAANKQDQRMCTLFRTCFLLAWALNSVLPLVRMGLSYWLAGHAEPELPFPCLFPWNIHIIRNYVLSFIWSAFASTGVVLPAVSLDTIFCSFTSNLCAFFKIAQYKVVRFKGGSLKESQATLNKVFALYQTSLDMCNDLNQCYQPIICAQFFISSLQLCMLGYLFSITFAQTEGVYYASFIATIIIQAYIYCYCGENLKTESASFEWAIYDSPWHESLGAGGASTSICRSLLISMMRAHRGFRITGYFFEANMEAFSSIVRTAMSYITMLRSFS
RDKitDescriptors2D,0.20694469149798805,-0.3940709992000548,0.17593484086335887,0.45339505926738966,0.20358167279387207,0.07972893455114238,0.12208295001417713,-0.2972361095353746,0.04039456051487922,-1.4252124121073293,0.251963786630341,-0.5402648215027903,MNDSGYQSNLSLLRVFLDEFRSVLRQESPGLIPRLAFYYVRAFLSLLCQYPNKKLASLPLYRWINLFIMCNVMTIFWTMFVALPESKNVIEMGDDLVWISGMALVFTKIFYMHLRCDEIDELISDFEYYNRELRPHNIDEEVLGWQRLCYVIESGLYINCFCLVNFFSAAIFLQPLLGEGKLPFHSVYPFQWHRLDLHPYTFWFLYIWQSLTSQHNLMSILMVDMVGISTFLQTALNLKLLCIEIRKLGDMEVSDKRFHEEFCRVVRFHQHIIKLVGKANRAFNGAFNAQLMASFSLISISTFETMAAAAVDPKMAAKFVLLMLVAFIQLSLWCVSGTLVYTQSVEVAQAAFDINDWHTKSPGIQRDISFVILRAQKPLMYVAEPFLPFTLGTYMLVLKNCYRLLALMQESM
RDKitDescriptors2D,-0.029392308866427585,-1.6294532916658864,0.020480904708250036,-0.5331661139062673,0.1864611085810849,0.184665868043292,-0.005403311758497509,-7.314247000695293,-0.6292083294013233,-0.12844895664800915,-0.026671428508261652,-0.048690743076545306,MFEDIQLIYMNIKILRFWALLYDKNLRRYVCIGLASFHIFTQIVYMMSTNEGLTGIIRNSYMLVLWINTVLRAYLLLADHDRYLALIQKLTEAYYDLLNLNDSYISEILDQVNKVGKLMARGNLFFGMLTSMGFGLYPLSSSERVLPFGSKIPGLNEYESPYYEMWYIFQMLITPMGCCMYIPYTSLIVGLIMFGIVRCKALQHRLRQVALKHPYGDRDPRELREEIIACIRYQQSIIEYMDHINELTTMMFLFELMAFSALLCALLFMLIIVSGTSQLIIVCMYINMILAQILALYWYANELREQNLAVATAAYETEWFTFDVPLRKNILFMMMRAQRPAAILLGNIRPITLELFQNLLNTTYTFFTVLKRVYG
RDKitDescriptors2D,0.03963869291248665,-1.1537724336272295,-0.210284857965801,-0.370000727382491,0.3369641364222331,0.17033472743148603,0.2711801860570061,-2.2960388539306376,-0.006489301917620205,-0.16873141238266798,0.10905947462695076,-3.4066620745321723,MAVFKLIKPAPLTEKVQSRQGNIYLYRAMWLIGWIPPKEGVLRYVYLFWTCVPFAFGVFYLPVGFIISYVQEFKNFTPGEFLTSLQVCINVYGASVKSTITYLFLWRLRKTEILLDSLDKRLANDSDRERIHNMVARCNYAFLIYSFIYCGYAGSTFLSYALSGRPPWSVYNPFIDWRDGMGSLWIQAIFEYITMSFAVLQDQLSDTYPLMFTIMFRAHMEVLKDHVRSLRMDPERSEADNYQDLVNCVLDHKTILKCCDMIRPMISRTIFVQFALIGSVLGLTLVNVFFFSNFWKGVASLLFVITILLQTFPFCYTCNMLIDDAQDLSNEIFQSNWVDAEPRYKATLVLFMHHVQQPIIFIAGGIFPISMNSNITVAKFAFSIITIVRQMNLAEQFQ
RDKitDescriptors2D,-0.003446166242274162,-0.17877803892550417,0.02152709349469828,0.05261521950527159,-0.09497554364451721,0.11893556256575055,-0.11533316313257402,-0.41299062760242355,-0.014921966562675637,-0.11172671008990154,-0.016625007934201408,-0.3376258824383187,MTELRSERKNGNWDRLFGPFFESWAVFKAPQAKSRHIIAYWTRDQLKALGFYMNSEQRRLPRIVAWQYFVSIQLATALASLFYGISESIGDIVNLGRDLVFIITIIFICFRLVFFAQYAGELDVIIDALEDIYHWSIKGPATKEVQETKRLHFLLFMALIITWFSFLILFMLIKISTPFWIESQTLPFHVSWPFQLHDPSKHPIAYIIIFVSQSTTMLYFLIWLGVVENMGVSLFFELTSALRVLCIELRNLQELCLGDEDMLYRELCRMTKFHQQIILLTDRCNHIFNGAFIMQMLINFLLVSLSLFEVLAAKKNPQVAVEYMIIMLMTLGHLSFWSKFGDMFSKESEQVALAVYEAYDPNVGSKSIHRQFCFFIQRAQKPLIMKASPFPPFNLENYMFILKQCYSILTILANTLE
RDKitDescriptors2D,0.2745484664756844,-0.19056918603577225,0.3098762957800265,0.3100004267746669,0.26057622790009716,0.3575610566654317,0.1347283252581999,-0.506001942906378,0.019062344598778758,-0.25796185278809536,-0.15399845769190557,-0.053946021391261034,MDNVAEMPEEKYVEVDDFLRLAVKFYNTLGIDPYETGRKRTIWFQIYFALNMFNMVFSFYAEVATLVDRLRDNENFLESCILLSYVSFVVMGLSKIGAVMKKKPKMTALVRQLETCFPSPSAKVQEEYAVKSWLKRCHIYTKGFGGLFMIMYFAHALIPLFIYFIQRVLLHYPDAKQIMPFYQLEPWEFRDSWLFYPSYFHQSSAGYTATCGSIAGDLMIFAVVLQVIMHYERLAKVLREFKIQAHNAPNGAKEDIRKLQSLVANHIDILRLTDLMNEVFGIPLLLNFIASALLVCLVGVQLTIALSPEYFCKQMLFLISVLLEVYLLCSFSQRLIDASENVGHAAYDMDWLGSDKRFKKILIFISMRSQKPVCLKATVVLDLSMPTMSIFLGMSYKFFCAVRTMYQ
RDKitDescriptors2D,0.06783483692531544,-2.1767816586924433,0.05646164923533625,-0.1251912229850225,0.13581239700552394,-0.04209935181470481,0.31419071318544434,-7.448166356230297,-0.0033464060410661745,-0.7318769811886789,-0.0022927704599433607,-2.6982257795422315,METAKDNTARTFMELMRVPVQFYRTIGEDIYAHRSTNPLKSLLFKIYLYAGFINFNLLVIGELVFFYNSIQDFETIRLAIAVAPCIGFSLVADFKQAAMIRGKKTLIMLLDDLENMHPKTLAKQMEYKLPDFEKTMKRVINIFTFLCLAYTTTFSFYPAIKASVKFNFLGYDTFDRNFGFLIWFPFDATRNNLIYWIMYWDIAHGAYLAGIAFLCADLLLVVVITQICMHFNYISMRLEDHPCNSNEDKENIEFLIGIIRYHDKCLKLCEHVNDLYSFSLLLNFLMASMQICFIAFQVTESTVEVIIIYCIFLMTSMVQVFMVCYYGDTLIAASLKVGDAAYNQKWFQCSKSYCTMLKLLIMRSQKPASIRPPTFPPISLVTYMKVISMSYQFFALLRTTYSNN
RDKitDescriptors2D,-0.06420882651019455,-0.7969307596425759,-0.0005600668285528076,-0.0046525117765736645,-0.09782129392163075,-0.2074981361908843,-0.010512123833331222,-0.11763448456817072,-0.001275844572224294,-1.847948858523929,-0.024995653587186917,-1.9927989569613689,MGRLFQLQEYCLRAMGHKDDMDSTDSTALSLKHISSLIFVISAQYPLISYVAYNRNDMEKVTACLSVVFTNMLTVIKISTFLANRKDFWEMIHRFRKMHEQSASHIPRYREGLDYVAEANKLASFLGRAYCVSCGLTGLYFMLGPIVKIGVCRWHGTTCDKELPMPMKFPFNDLESPGYEVCFLYTVLVTVVVVAYASAVDGLFISFAINLRAHFQTLQRQIENWEFPSSEPDTQIRLKSIVEYHVLLLSLSRKLRSIYTPTVMGQFVITSLQVGVIIYQLVTNMDSVMDLLLYASFFGSIMLQLFIYCYGGEIIKAESLQVDTAVRLSNWHLASPKTRTSLSLIILQSQKEVLIRAGFFVASLANFVGICRTALSLITLIKSIE
RDKitDescriptors2D,-0.27440355447271514,-2.689536695255806,-0.013104046281851023,-0.6947171523145759,-0.33306275979682565,-0.3331281187840289,0.0019943048137056607,-9.22179063983264,-3.426478129298083e-05,-0.18992713495122904,-0.056793395258423196,-3.979138041455446,MIFKYIQEPVLGSLFRSRDSLIYLNRSIDQMGWRLPPRTKPYWWLYYIWTLVVIVLVFIFIPYGLIMTGIKEFKNFTTTDLFTYVQVPVNTNASIMKGIIVLFMRRRFSRAQKMMDAMDIRCTKMEEKVQVHRAAALCNRVVVIYHCIYFGYLSMALTGALVIGKTPFCLYNPLVNPDDHFYLATAIESVTMAGIILANLILDVYPIIYVVVLRIHMELLSERIKTLRTDVEKGDDQHYAELVECVKDHKLIVEYGNTLRPMISATMFIQLLSVGLLLGLAAVSMQFYNTVMERVVSGVYTIAILSQTFPFCYVCEQLSSDCESLTNTLFHSKWIGAERRYRTTMLYFIHNVQQSILFTAGGIFPICLNTNIKMAKFAFSVVTIVNEMDLAEKLRRE
RDKitDescriptors2D,0.11004530372330797,-1.4994917366128964,0.1478350071177741,-0.009766435729983591,0.14095725726250052,0.2684467364047648,0.0027539535614840016,-5.895178360984098,-0.06214141964892472,-0.5001828530744867,-0.011425244188797867,-1.0285308051681734,MEKLMKYASFFYTAVGIRPYTNGEESKMNKLIFHIVFWSNVINLSFVGLFESIYVYSAFMDNKFLEAVTALSYIGFVTVGMSKMFFIRWKKTAITELINELKEIYPNGLIREERYNLPMYLGTCSRISLIYSLLYSVLIWTFNLFCVMEYWVYDKWLNIRVVGKQLPYLMYIPWKWQDNWSYYPLLFSQNFAGYTSAAGQISTDVLLCAVATQLVMHFDFLSNSMERHELSGDWKKDSRFLVDIVRYHERILRLSDAVNDIFGIPLLLNFMVSSFVICFVGFQMTVGVPPDIVVKLFLFLVSSMSQVYLICHYGQLVADASYGFSVATYNQKWYKADVRYKRALVIIIARSQKVTFLKATIFLDITRSTMTDLLQISYKFFALLRTMYTQ
RDKitDescriptors2D,0.06427684356924554,-0.5137444305434721,-0.10389635322178781,0.01618040604496296,0.054693648834929776,0.10638126258797553,0.24802525360014727,-1.953182865170282,-0.0003989375675708118,-0.611398075766606,-0.009477245644574417,0.005734971431672786,MEPVQYSYEDFARLPTTVFWIMGYDMLGVPKTRSRRILYWIYRFLCLASHGVCVGVMVFRMVEAKTIDNVSLIMRYATLVTYIINSDTKFATVLQRSAIQSLNSKLAELYPKTTLDRIYHRVNDHYWTKSFVYLVIIYIGSSIMVVIGPIITSIIAYFTHNVFTYMHCYPYFLYDPEKDPVWIYISIYALEWLHSTQMVISNIGADIWLLYFQVQINLHFRGIIRSLADHKPSVKHDQEDRKFIAKIVDKQVHLVSLQNDLNGIFGKSLLLSLLTTAAVICTVAVYTLIQGPTLEGFTYVIFIGTSVMQVYLVCYYGQQVLDLSGEVAHAVYNHDFHDASIAYKRYLLIIIIRAQQPVELNAMGYLSISLDTFKQLMSVSYRVITMLMQMIQ
RDKitDescriptors2D,-0.14202246201758975,-0.07068810739155174,-0.009657237402128871,-0.3558740896099213,-0.11921550433231598,-0.27476903457149393,0.04940355582791134,0.0005240465273954609,0.03205286819340225,-0.051085531338944,-0.23724198335904978,-0.09768993698056261,MKPTEIKKPYRMEEFLRPQMFQEVAQMVHFQWRRNPVDNSMVNASMVPFCLSAFLNVLFFGCNGWDIIGHFWLGHPANQNPPVLSITIYFSIRGLMLYLKRKEIVEFVNDLDRECPRDLVSQLDMQMDETYRNFWQRYRFIRIYSHLGGPMFCVVPLALFLLTHEGKDTPVAQHEQLLGGWLPCGVRKDPNFYLLVWSFDLMCTTCGVSFFVTFDNLFNVMQGHLVMHLGHLARQFSAIDPRQSLTDEKRFFVDLRLLVQRQQLLNGLCRKYNDIFKVAFLVSNFVGAGSLCFYLFMLSETSDVLIIAQYILPTLVLVGFTFEICLRGTQLEKASEGLESSLRSQEWYLGSRRYRKFYLLWTQYCQRTQQLGAFGLIQVNMVHFTEIMQLAYRLFTFLKSH
RDKitDescriptors2D,-0.0381716205020151,-2.5118177979477947,-0.013928970747387748,-0.3441748887358136,0.06831963935240182,0.1265676633614795,-0.027641545740755502,-8.493794990568748,-0.01712783591788347,-1.0147348494429078,-0.058073421903683586,-2.9753578919057504,MLFNYLRKPNPTNLLTSPDSFRYFEYGMFCMGWHTPATHKIIYYITSCLIFAWCAVYLPIGIIISFKTDINTFTPNELLTVMQLFFNSVGMPFKVLFFNLYISGFYKAKKLLSEMDKRCTTLKERVEVHQGVVRCNKAYLIYQFIYTAYTISTFLSAALSGKLPWRIYNPFVDFRESRSSFWKAALNETALMLFAVTQTLMSDIYPLLYGLILRVHLKLLRLRVESLCTDSGKSDAENEQDLIKCIKDHNLIIDYAAAIRPAVTRTIFVQFLLIGICLGLSMINLLFFADIWTGLATVAYINGLMVQTFPFCFVCDLLKKDCELLVSAIFHSNWINSSRSYKSSLRYFLKNAQKSIAFTAGSIFPISTGSNIKVAKLAFSVVTFVNQLNIADRLTKN
ScaffoldKeyCalculator,0.10705621239956191,-5.397116997447396,0.09719692082903364,0.16231834738621786,0.15739839982590365,-0.037340913630079076,0.15570830758673349,-23.109451530540767,-0.31292855352089344,-1.2905016771398432,-0.007657168632417166,-2.265046057403062,MEKQEDFKLNTHSAVYYHWRVWELTGLMRPPGVSSLLYVVYSITVNLVVTVLFPLSLLARLLFTTNMAGLCENLTITITDIVANLKFANVYMVRKQLHEIRSLLRLMDARARLVGDPEEISALRKEVNIAQGTFRTFASIFVFGTTLSCVRVVVRPDRELLYPAWFGVDWMHSTRNYVLINIYQLFGLIVQAIQNCASDSYPPAFLCLLTGHMRALELRVRRIGCRTEKSNKGQTYEAWREEVYQELIECIRDLARVHRLREIIQRVLSVPCMAQFVCSAAVQCTVAMHFLYVADDHDHTAMIISIVFFSAVTLEVFVICYFGDRMRTQSEALCDAFYDCNWIEQLPKFKRELLFTLARTQRPSLIYAGNYIALSLETFEQVMRFTYSVFTLLLRAK
ScaffoldKeyCalculator,0.0005292369927289098,-0.9989615408825779,0.03839937847099861,-0.0075294431927295236,0.10101120001233066,-0.11622810141305773,-0.013006848913897473,-3.3343124131721593,-0.27257571427036753,-0.2507325020220674,-1.0187317986020226,-0.11845527634627295,MAVSTRVATKQEVPESRRAFRNLFNCFYALGMQAPDGSRPTTSSTWQRIYACFSVVMYVWQLLLVPTFFVISYRYMGGMEITQVLTSAQVAIDAVILPAKIVALAWNLPLLRRAEHHLAALDARCREQEEFQLILDAVRFCNYLVWFYQICYAIYSSSTFVCAFLLGQPPYALYLPGLDWQRSQMQFCIQAWIEFLIMNWTCLHQASDDVYAVIYLYVVRIQVQLLARRVEKLGTDDSGQVEIYPDERRQEEHCAELQRCIVDHQTMLQLLDCISPVISRTIFVQFLITAAIMGTTMINIFIFANTNTKIASIIYLLAVTLQTAPCCYQATSLMLDNERLALAIFQCQWLGQSARFRKMLLYYLHRAQQPITLTAMKLFPINLATYFSIAKFSFSLYTLIKGMNLGERFNRTN
ScaffoldKeyCalculator,0.04808189223484769,-0.7174130920107937,-0.05989828170666933,0.1508148520817456,0.14883036705436925,-0.15262474085110633,0.15328726459589925,-2.595839425298239,-0.00411779704759474,-0.9523600296675936,-0.017060714764027374,-0.017687493276513866,MSDKVKGKKQEEKDQSLRVQILVYRCMGIDLWSPTMANDRPWLTFVTMGPLFLFMVPMFLAAHEYITQVSLLSDTLGSTFASMLTLVKFLLFCYHRKEFVGLIYHIRAILAKEIEVWPDAREIIEVENQSDQMLSLTYTRCFGLAGIFAALKPFVGIILSSIRGDEIHLELPHNGVYPYDLQVVMFYVPTYLWNVMASYSAVTMALCVDSLLFFFTYNVCAIFKIAKHRMIHLPAVGGKEELEGLVQVLLLHQKGLQIADHIADKYRPLIFLQFFLSALQICFIGFQVADLFPNPQSLYFIAFVGSLLIALFIYSKCGENIKSASLDFGNGLYETNWTDFSPPTKRALLIAAMRAQRPCQMKGYFFEASMATFSTIVRSAVSYIMMLRSFNA
ScaffoldKeyCalculator,-0.0995538932420074,-0.37160696218467915,0.15216603611449608,0.042869802810708624,0.05307934153492744,0.03433566870302296,-0.7802203153731921,-0.7601442747675735,0.084232160021533,-0.003811436305759308,-0.14661609345954685,-1.031695166412049,MSEWLRFLKRDQQLDVYFFAVPRLSLDIMGYWPGKTGDTWPWRSLIHFAILAIGVATELHAGMCFLDRQQITLALETLCPAGTSAVTLLKMFLMLRFRQDLSIMWNRLRGLLFDPNWERPEQRDIRLKHSAMAARINFWPLSAGFFTCTTYNLKPILIAMILYLQNRYEDFVWFTPFNMTMPKVLLNYPFFPLTYIFIAYTGYVTIFMFGGCDGFYFEFCAHLSALFEVLQAEIESMFRPYTDHLELSPVQLYILEQKMRSVIIRHNAIIDLTRFFRDRYTIITLAHFVSAAMVIGFSMVNLLTLGNNGLGAMLYVAYTVAALSQLLVYCYGGTLVAESSTGLCRAMFSCPWQLFKPKQRRLVQLLILRSQRPVSMAVPFFSPSLATFAAILQTSGSIIALVKSFQ
ScaffoldKeyCalculator,-0.11672151604299626,-1.2400837271723053,0.009270970051679428,-1.56599306235794e-05,0.0059463509930438585,0.12633645486482192,-0.7251456961939029,-4.546062880549419,-0.1248306171371365,-1.0805817348898104,-0.43278558526050515,-0.016157818024655546,MDISKVDSTRALVNHWRIFRIMGIHPPGKRTFWGRHYTAYSMVWNVTFHICIWVSFSVNLLQSNSLETFCESLCVTMPHTLYMLKLINVRRMRGQMISSHWLLRLLDKRLGCDDERQIIMAGIERAEFIFRTIFRGLACTVVLGIIYISASSEPTLMYPTWIPWNWRDSTSAYLATAMLHTTALMANATLVLNLSSYPGTYLILVSVHTKALALRVSKLGYGAPLPAVRMQAILVGYIHDHQIILRLFKSLERSLSMTCFLQFFSTACAQCTICYFLLFGNVGIMRFMNMLFLLVILTTETLLLCYTAELPCKEGESLLTAVYSCNWLSQSVNFRRLLLLMLARCQIPMILVSGVIVPISMKTFTVMIKGAYTMLTLLNEIRKTSLE
ScaffoldKeyCalculator,0.04303282887608022,-2.2423117109268276,0.11739468629001659,0.0836844915681556,0.24049408625820767,-0.355119128843959,0.12871000910798025,-6.971762465841809,-0.0003165500140518418,-0.7211603196351013,-0.1293471379192972,-3.388972081223878,MLSKFFPHIKEKPLSERVKSRDAFIYLDRVMWSFGWTEPENKRWILPYKLWLAFVNIVMLILLPISISIEYLHRFKTFSAGEFLSSLEIGVNMYGSSFKCAFTLIGFKKRQEAKVLLDQLDKRCLSDKERSTVHRYVAMGNFFDILYHIFYSTFVVMNFPYFLLERRHAWRMYFPYIDSDEQFYISSIAECFLMTEAIYMDLCTDVCPLISMLMARCHISLLKQRLRNLRSKPGRTEDEYLEELTECIRDHRLLLDYVDALRPVFSGTIFVQFLLIGTVLGLSMINLMFFSTFWTGVATCLFMFDVSMETFPFCYLCNMIIDDCQEMSNCLFQSDWTSADRRYKSTLVYFLHNLQQPITLTAGGVFPISMQTNLAMVKLAFSVVTVIKQFNLAERFQ
ScaffoldKeyCalculator,0.08621899742733072,-4.529434638885098,0.051354052548571505,0.0701075323684407,0.1091368473390204,0.10170381155036323,0.09879274333025778,-19.38844989627835,-0.06811782303443747,-1.0171803566732995,-0.14924851410426254,-2.024176604335141,MKLSETLKIDYFRVQLNAWRICGALDLSEGRYWSWSMLLCILVYLPTPMLLRGVYSFEDPVENNFSLSLTVTSLSNLMKFCMYVAQLTKMVEVQSLIGQLDARVSGESQSERHRNMTEHLLRMSKLFQITYAVVFIIAAVPFVFETELSLPMPMWFPFDWKNSMVAYIGALVFQEIGYVFQIMQCFAADSFPPLVLYLISEQCQLLILRISEIGYGYKTLEENEQDLVNCIRDQNALYRLLDVTKSLVSYPMMVQFMVIGINIAITLFVLIFYVETLYDRIYYLCFLLGITVQTYPLCYYGTMVQESFAELHYAVFCSNWVDQSASYRGHMLILAERTKRMQLLLAGNLVPIHLSTYVACWKGAYSFFTLMADRDGLGS
ScaffoldKeyCalculator,-0.1303538912167407,-1.1513217391231538,-0.02817985774414211,0.017852750677267992,0.0056602692168202795,-0.5351658909060633,-0.11193672732758642,-5.056871370799246,-0.10209317605136237,-0.5925601140263137,-0.0002291693798075478,-0.004854865359039229,MDLKPRVIRSEDIYRTYWLYWHLLGLESNFFLNRLLDLVITIFVTIWYPIHLILGLFMERSLGDVCKGLPITAACFFASFKFICFRFKLSEIKEIEILFKELDQRALSREECEFFNQNTRREANFIWKSFIVAYGLSNISAIASVLFGGGHKLLYPAWFPYDVQATELIFWLSVTYQIAGVSLAILQNLANDSYPPMTFCVVAGHVRLLAMRLSRIGQGPEETIYLTGKQLIESIEDHRKLMKIVELLRSTMNISQLGQFISSGVNISITLVNILFFADNNFAITYYGVYFLSMVLELFPCCYYGTLISVEMNQLTYAIYSSNWMSMNRSYSRILLIFMQLTLAEVQIKAGGMIGIGMNAFFATVRLAYSFFTLAMSLR
ScaffoldKeyCalculator,-0.023365677460979395,-0.8337807357711606,-0.14508804607989823,0.07550825255455873,-0.0375218262900614,0.0763616183671143,-0.08608838585661038,-2.5376244405394637,-0.020795521857586152,-1.1594985483313813,-0.1508839664540207,-0.3001012016733513,MVRYVPRFADGQKVKLAWPLAVFRLNHIFWPLDPSTGKWGRYLDKVLAVAMSLVFMQHNDAELRYLRFEASNRNLDAFLTGMPTYLILVEAQFRSLHILLHFEKLQKFLEIFYANIYIDPRKEPEMFRKVDGKMIINRLVSAMYGAVISLYLIAPVFSIINQSKDFLYSMIFPFDSDPLYIFVPLLLTNVWVGIVIDTMMFGETNLLCELIVHLNGSYMLLKRDLQLAIEKILVARDRPHMAKQLKVLITKTLRKNVALNQFGQQLEAQYTVRVFIMFAFAAGLLCALSFKAYTNPMANYIYAIWFGAKTVELLSLGQIGSDLAFTTDSLSTMYYLTHWEQILQYSTNPSENLRLLKLINLAIEMNSKPFYVTGLKYFRVSLQAGLKILQASFSYFTFLTSMQRRQMSN
ScaffoldKeyCalculator,-0.020696926284033346,-1.257221983450997,-0.011510866306206902,-0.06483726224711384,-0.0004138188929732056,-0.023600398841343795,-0.00312228513252899,-5.450243353322254,-0.05845872082714343,-0.641727811953942,-0.09300845801428936,-0.04267157313735637,MTIEDIGLVGINVRMWRHLAVLYPTPGSSWRKFAFVLPVTAMNLMQFVYLLRMWGDLPAFILNMFFFSAIFNALMRTWLVIIKRRQFEEFLGQLATLFHSILDSTDEWGRGILRRAEREARNLAILNLSASFLDIVGALVSPLFREERAHPFGLALPGVSMTSSPVYEVIYLAQLPTPLLLSMMYMPFVSLFAGLAIFGKAMLQILVHRLGQIGGEEQSEEERFQRLASCIAYHTQVMRYVWQLNKLVANIVAVEAIIFGSIICSLLFCLNIITSPTQVISIVMYILTMLYVLFTYYNRANEICLENNRVAEAVYNVPWYEAGTRFRKTLLIFLMQTQHPMEIRVGNVYPMTLAMFQSLLNASYSYFTMLRGVTGK
ScaffoldKeyCalculator,0.06550223900834788,-7.161718761849377,0.013195846192723293,0.11360179095846679,0.0536591848660527,0.024230609328034336,0.12282376369646231,-23.150467022055654,-0.02283940657815786,-1.0878697092878618,-0.04184112725473854,-11.505576544070474,MFGHFKLVYPAPISEPIQSRDSNAYMMETLRNSGLNLKNDFGIGRKIWRVFSFTYNMVILPVSFPINYVIHLAEFPPELLLQSLQLCLNTWCFALKFFTLIVYTHRLELANKHFDELDKYCVKPAEKRKVRDMVATITRLYLTFVVVYVLYATSTLLDGLLHHRVPYNTYYPFINWRVDRTQMYIQSFLEYFTVGYAIYVATATDSYPVIYVAALRTHILLLKDRIIYLGDPSNEGSSDPSYMFKSLVDCIKAHRTMLNFCDAIQPIISGTIFAQFIICGSILGIIMINMVLFADQSTRFGIVIYVMAVLLQTFPLCFYCNAIVDDCKELAHALFHSAWWVQDKRYQRTVIQFLQKLQQPMTFTAMNIFNINLATNINVAKFAFTVYAIASGMNLDQKLSIKE
ScaffoldKeyCalculator,-0.011469741121900157,-1.8391136658188376,0.03181136449358246,-0.04738742455527345,0.01780070242479681,0.03363403949442034,-0.09320738746702695,-1.1247714952836145,-0.017041715904770882,-0.5437690430111821,-0.040390074042808255,-7.469596000851812,MDSFLQVQKSTIALLGFDLFSENREMWKRPYRAMNVFSIAAIFPFILAAVLHNWKNVLLLADAMVALLITILGLFKFSMILYLRRDFKRLIDKFRLLMSNEAEQGEEYAEILNAANKQDQRMCTLFRTCFLLAWALNSVLPLVRMGLSYWLAGHAEPELPFPCLFPWNIHIIRNYVLSFIWSAFASTGVVLPAVSLDTIFCSFTSNLCAFFKIAQYKVVRFKGGSLKESQATLNKVFALYQTSLDMCNDLNQCYQPIICAQFFISSLQLCMLGYLFSITFAQTEGVYYASFIATIIIQAYIYCYCGENLKTESASFEWAIYDSPWHESLGAGGASTSICRSLLISMMRAHRGFRITGYFFEANMEAFSSIVRTAMSYITMLRSFS
ScaffoldKeyCalculator,0.15784812195529369,-0.5609923345651653,0.16456869569145016,0.3944765283253989,0.2383954902650285,-0.10411333388231503,0.09591322937690594,-0.4497200187299939,-0.08659756772043026,-1.5724783925733545,0.2439757679626091,-0.9401414617646571,MNDSGYQSNLSLLRVFLDEFRSVLRQESPGLIPRLAFYYVRAFLSLLCQYPNKKLASLPLYRWINLFIMCNVMTIFWTMFVALPESKNVIEMGDDLVWISGMALVFTKIFYMHLRCDEIDELISDFEYYNRELRPHNIDEEVLGWQRLCYVIESGLYINCFCLVNFFSAAIFLQPLLGEGKLPFHSVYPFQWHRLDLHPYTFWFLYIWQSLTSQHNLMSILMVDMVGISTFLQTALNLKLLCIEIRKLGDMEVSDKRFHEEFCRVVRFHQHIIKLVGKANRAFNGAFNAQLMASFSLISISTFETMAAAAVDPKMAAKFVLLMLVAFIQLSLWCVSGTLVYTQSVEVAQAAFDINDWHTKSPGIQRDISFVILRAQKPLMYVAEPFLPFTLGTYMLVLKNCYRLLALMQESM
ScaffoldKeyCalculator,0.028163870780160825,-1.6132387961885954,0.01131792970259371,-0.316733106510767,0.21951223212653936,0.23212958565709918,-0.0054072870746610935,-7.314299219508069,-0.6291893521800167,-0.12844549286046636,-0.026677839046492346,0.03241792265206778,MFEDIQLIYMNIKILRFWALLYDKNLRRYVCIGLASFHIFTQIVYMMSTNEGLTGIIRNSYMLVLWINTVLRAYLLLADHDRYLALIQKLTEAYYDLLNLNDSYISEILDQVNKVGKLMARGNLFFGMLTSMGFGLYPLSSSERVLPFGSKIPGLNEYESPYYEMWYIFQMLITPMGCCMYIPYTSLIVGLIMFGIVRCKALQHRLRQVALKHPYGDRDPRELREEIIACIRYQQSIIEYMDHINELTTMMFLFELMAFSALLCALLFMLIIVSGTSQLIIVCMYINMILAQILALYWYANELREQNLAVATAAYETEWFTFDVPLRKNILFMMMRAQRPAAILLGNIRPITLELFQNLLNTTYTFFTVLKRVYG
ScaffoldKeyCalculator,-0.19218824563042303,-1.0302013344919279,-0.2739737548156662,-1.2265485608323274,0.2077553186438964,0.08188916493873388,0.24993660391324835,-1.239869995790691,0.005954846632619137,-0.21274028903021502,0.030600511274484155,-3.7349517455458363,MAVFKLIKPAPLTEKVQSRQGNIYLYRAMWLIGWIPPKEGVLRYVYLFWTCVPFAFGVFYLPVGFIISYVQEFKNFTPGEFLTSLQVCINVYGASVKSTITYLFLWRLRKTEILLDSLDKRLANDSDRERIHNMVARCNYAFLIYSFIYCGYAGSTFLSYALSGRPPWSVYNPFIDWRDGMGSLWIQAIFEYITMSFAVLQDQLSDTYPLMFTIMFRAHMEVLKDHVRSLRMDPERSEADNYQDLVNCVLDHKTILKCCDMIRPMISRTIFVQFALIGSVLGLTLVNVFFFSNFWKGVASLLFVITILLQTFPFCYTCNMLIDDAQDLSNEIFQSNWVDAEPRYKATLVLFMHHVQQPIIFIAGGIFPISMNSNITVAKFAFSIITIVRQMNLAEQFQ
ScaffoldKeyCalculator,0.030991179559050043,-0.37376817175916194,0.030415782695305427,0.042835385126336445,0.03399932771439973,0.13750449532363695,-0.08979909306442835,-1.391224050741731,-0.014920999545525504,-0.10845433397087745,-0.016627929997368618,-0.337613544540307,MTELRSERKNGNWDRLFGPFFESWAVFKAPQAKSRHIIAYWTRDQLKALGFYMNSEQRRLPRIVAWQYFVSIQLATALASLFYGISESIGDIVNLGRDLVFIITIIFICFRLVFFAQYAGELDVIIDALEDIYHWSIKGPATKEVQETKRLHFLLFMALIITWFSFLILFMLIKISTPFWIESQTLPFHVSWPFQLHDPSKHPIAYIIIFVSQSTTMLYFLIWLGVVENMGVSLFFELTSALRVLCIELRNLQELCLGDEDMLYRELCRMTKFHQQIILLTDRCNHIFNGAFIMQMLINFLLVSLSLFEVLAAKKNPQVAVEYMIIMLMTLGHLSFWSKFGDMFSKESEQVALAVYEAYDPNVGSKSIHRQFCFFIQRAQKPLIMKASPFPPFNLENYMFILKQCYSILTILANTLE
ScaffoldKeyCalculator,0.06267529847734776,-0.39206666877720253,0.13264658809547036,0.12932339103369428,0.06553656798344498,0.21177527608373314,-0.22590533080960395,-0.8890272491245643,-0.11087534935640653,-0.38303535650050513,-0.1539957388075075,-0.4233996500970292,MDNVAEMPEEKYVEVDDFLRLAVKFYNTLGIDPYETGRKRTIWFQIYFALNMFNMVFSFYAEVATLVDRLRDNENFLESCILLSYVSFVVMGLSKIGAVMKKKPKMTALVRQLETCFPSPSAKVQEEYAVKSWLKRCHIYTKGFGGLFMIMYFAHALIPLFIYFIQRVLLHYPDAKQIMPFYQLEPWEFRDSWLFYPSYFHQSSAGYTATCGSIAGDLMIFAVVLQVIMHYERLAKVLREFKIQAHNAPNGAKEDIRKLQSLVANHIDILRLTDLMNEVFGIPLLLNFIASALLVCLVGVQLTIALSPEYFCKQMLFLISVLLEVYLLCSFSQRLIDASENVGHAAYDMDWLGSDKRFKKILIFISMRSQKPVCLKATVVLDLSMPTMSIFLGMSYKFFCAVRTMYQ
ScaffoldKeyCalculator,0.07204285721453363,-2.635932099986287,0.03945908028266132,0.07867458790268689,0.08008798065599587,-0.018572440075709018,0.18056507730703308,-9.735772571475142,-0.0033676090987089236,-0.7319054712720416,-0.010030722868135333,-2.69858412521741,METAKDNTARTFMELMRVPVQFYRTIGEDIYAHRSTNPLKSLLFKIYLYAGFINFNLLVIGELVFFYNSIQDFETIRLAIAVAPCIGFSLVADFKQAAMIRGKKTLIMLLDDLENMHPKTLAKQMEYKLPDFEKTMKRVINIFTFLCLAYTTTFSFYPAIKASVKFNFLGYDTFDRNFGFLIWFPFDATRNNLIYWIMYWDIAHGAYLAGIAFLCADLLLVVVITQICMHFNYISMRLEDHPCNSNEDKENIEFLIGIIRYHDKCLKLCEHVNDLYSFSLLLNFLMASMQICFIAFQVTESTVEVIIIYCIFLMTSMVQVFMVCYYGDTLIAASLKVGDAAYNQKWFQCSKSYCTMLKLLIMRSQKPASIRPPTFPPISLVTYMKVISMSYQFFALLRTTYSNN
ScaffoldKeyCalculator,-0.07393379966610084,-0.7767182166476603,0.04117934591008965,0.1057743749548673,-0.19724896906100509,-0.06495630407339292,-0.2544174460610631,-0.016681393995665816,-0.0012744776348334597,-1.8479378920126321,-0.024994795385828716,-1.9927025242093417,MGRLFQLQEYCLRAMGHKDDMDSTDSTALSLKHISSLIFVISAQYPLISYVAYNRNDMEKVTACLSVVFTNMLTVIKISTFLANRKDFWEMIHRFRKMHEQSASHIPRYREGLDYVAEANKLASFLGRAYCVSCGLTGLYFMLGPIVKIGVCRWHGTTCDKELPMPMKFPFNDLESPGYEVCFLYTVLVTVVVVAYASAVDGLFISFAINLRAHFQTLQRQIENWEFPSSEPDTQIRLKSIVEYHVLLLSLSRKLRSIYTPTVMGQFVITSLQVGVIIYQLVTNMDSVMDLLLYASFFGSIMLQLFIYCYGGEIIKAESLQVDTAVRLSNWHLASPKTRTSLSLIILQSQKEVLIRAGFFVASLANFVGICRTALSLITLIKSIE
ScaffoldKeyCalculator,-0.2968624848143035,-2.51490791645876,-0.013630654174372925,-0.817954313398249,-0.40609781460234284,-0.25405849390410196,0.00742885200754928,-8.348376030599386,-5.760472818439055e-05,-0.18993387308885157,-0.05679598085139359,-3.9793760930259854,MIFKYIQEPVLGSLFRSRDSLIYLNRSIDQMGWRLPPRTKPYWWLYYIWTLVVIVLVFIFIPYGLIMTGIKEFKNFTTTDLFTYVQVPVNTNASIMKGIIVLFMRRRFSRAQKMMDAMDIRCTKMEEKVQVHRAAALCNRVVVIYHCIYFGYLSMALTGALVIGKTPFCLYNPLVNPDDHFYLATAIESVTMAGIILANLILDVYPIIYVVVLRIHMELLSERIKTLRTDVEKGDDQHYAELVECVKDHKLIVEYGNTLRPMISATMFIQLLSVGLLLGLAAVSMQFYNTVMERVVSGVYTIAILSQTFPFCYVCEQLSSDCESLTNTLFHSKWIGAERRYRTTMLYFIHNVQQSILFTAGGIFPICLNTNIKMAKFAFSVVTIVNEMDLAEKLRRE
ScaffoldKeyCalculator,0.07403517950970764,-1.9377284264710972,0.07553978863684907,0.009912883653215854,0.08184288378931137,0.13872095110240823,0.06415939036675367,-8.086307716752676,-0.06214382995899226,-0.5001897090495995,-0.011435604489651086,-1.0285652721045655,MEKLMKYASFFYTAVGIRPYTNGEESKMNKLIFHIVFWSNVINLSFVGLFESIYVYSAFMDNKFLEAVTALSYIGFVTVGMSKMFFIRWKKTAITELINELKEIYPNGLIREERYNLPMYLGTCSRISLIYSLLYSVLIWTFNLFCVMEYWVYDKWLNIRVVGKQLPYLMYIPWKWQDNWSYYPLLFSQNFAGYTSAAGQISTDVLLCAVATQLVMHFDFLSNSMERHELSGDWKKDSRFLVDIVRYHERILRLSDAVNDIFGIPLLLNFMVSSFVICFVGFQMTVGVPPDIVVKLFLFLVSSMSQVYLICHYGQLVADASYGFSVATYNQKWYKADVRYKRALVIIIARSQKVTFLKATIFLDITRSTMTDLLQISYKFFALLRTMYTQ
ScaffoldKeyCalculator,-0.026170821990000426,-0.5913420763139554,-0.08332568395366646,0.04588803726610258,-0.08691200352020423,-0.16342103083591808,0.15691657109368407,-2.3253709571145973,-0.0004088453795567659,-0.6114227239759,-0.009495782522110474,-0.010012072577612274,MEPVQYSYEDFARLPTTVFWIMGYDMLGVPKTRSRRILYWIYRFLCLASHGVCVGVMVFRMVEAKTIDNVSLIMRYATLVTYIINSDTKFATVLQRSAIQSLNSKLAELYPKTTLDRIYHRVNDHYWTKSFVYLVIIYIGSSIMVVIGPIITSIIAYFTHNVFTYMHCYPYFLYDPEKDPVWIYISIYALEWLHSTQMVISNIGADIWLLYFQVQINLHFRGIIRSLADHKPSVKHDQEDRKFIAKIVDKQVHLVSLQNDLNGIFGKSLLLSLLTTAAVICTVAVYTLIQGPTLEGFTYVIFIGTSVMQVYLVCYYGQQVLDLSGEVAHAVYNHDFHDASIAYKRYLLIIIIRAQQPVELNAMGYLSISLDTFKQLMSVSYRVITMLMQMIQ
ScaffoldKeyCalculator,-0.12510417126232148,-0.10194197728138636,0.002614355082306563,-0.3558757129888155,-0.0241140845594483,-0.24188158297748852,-0.006263830868161735,-0.02170885418668944,-0.08714721691561444,-0.06592865203852227,-0.23723769469886968,-0.09768746856723598,MKPTEIKKPYRMEEFLRPQMFQEVAQMVHFQWRRNPVDNSMVNASMVPFCLSAFLNVLFFGCNGWDIIGHFWLGHPANQNPPVLSITIYFSIRGLMLYLKRKEIVEFVNDLDRECPRDLVSQLDMQMDETYRNFWQRYRFIRIYSHLGGPMFCVVPLALFLLTHEGKDTPVAQHEQLLGGWLPCGVRKDPNFYLLVWSFDLMCTTCGVSFFVTFDNLFNVMQGHLVMHLGHLARQFSAIDPRQSLTDEKRFFVDLRLLVQRQQLLNGLCRKYNDIFKVAFLVSNFVGAGSLCFYLFMLSETSDVLIIAQYILPTLVLVGFTFEICLRGTQLEKASEGLESSLRSQEWYLGSRRYRKFYLLWTQYCQRTQQLGAFGLIQVNMVHFTEIMQLAYRLFTFLKSH
ScaffoldKeyCalculator,4.479492616440428e-05,-3.6274239719636348,0.012297951338555713,-0.04949846531192614,-0.029790827439523992,0.05588221065556265,0.011333105388153797,-15.218406620209912,-0.017114358041967925,-0.8623681512661194,-0.05807246850298564,-1.98115826179719,MLFNYLRKPNPTNLLTSPDSFRYFEYGMFCMGWHTPATHKIIYYITSCLIFAWCAVYLPIGIIISFKTDINTFTPNELLTVMQLFFNSVGMPFKVLFFNLYISGFYKAKKLLSEMDKRCTTLKERVEVHQGVVRCNKAYLIYQFIYTAYTISTFLSAALSGKLPWRIYNPFVDFRESRSSFWKAALNETALMLFAVTQTLMSDIYPLLYGLILRVHLKLLRLRVESLCTDSGKSDAENEQDLIKCIKDHNLIIDYAAAIRPAVTRTIFVQFLLIGICLGLSMINLLFFADIWTGLATVAYINGLMVQTFPFCFVCDLLKKDCELLVSAIFHSNWINSSRSYKSSLRYFLKNAQKSIAFTAGSIFPISTGSNIKVAKLAFSVVTFVNQLNIADRLTKN
ecfp,0.42385310669404336,-3.877067107245754,0.2985622571434018,0.48814960894696624,0.45044444723898003,0.5870312908142983,0.29507792932657084,-15.509201387776859,-0.31292864618806493,-1.2905017968739703,-0.0076572532218879275,-2.265046452167989,MEKQEDFKLNTHSAVYYHWRVWELTGLMRPPGVSSLLYVVYSITVNLVVTVLFPLSLLARLLFTTNMAGLCENLTITITDIVANLKFANVYMVRKQLHEIRSLLRLMDARARLVGDPEEISALRKEVNIAQGTFRTFASIFVFGTTLSCVRVVVRPDRELLYPAWFGVDWMHSTRNYVLINIYQLFGLIVQAIQNCASDSYPPAFLCLLTGHMRALELRVRRIGCRTEKSNKGQTYEAWREEVYQELIECIRDLARVHRLREIIQRVLSVPCMAQFVCSAAVQCTVAMHFLYVADDHDHTAMIISIVFFSAVTLEVFVICYFGDRMRTQSEALCDAFYDCNWIEQLPKFKRELLFTLARTQRPSLIYAGNYIALSLETFEQVMRFTYSVFTLLLRAK
ecfp,0.38253908253845487,-0.05507562178133061,0.41359933776255775,0.2946368182418082,0.20200816444365677,0.5808905525182909,0.42156053972596086,-0.5506307884845336,0.1253214289843485,0.27367656055009537,-0.04339161797438296,-0.08035369198218034,MAVSTRVATKQEVPESRRAFRNLFNCFYALGMQAPDGSRPTTSSTWQRIYACFSVVMYVWQLLLVPTFFVISYRYMGGMEITQVLTSAQVAIDAVILPAKIVALAWNLPLLRRAEHHLAALDARCREQEEFQLILDAVRFCNYLVWFYQICYAIYSSSTFVCAFLLGQPPYALYLPGLDWQRSQMQFCIQAWIEFLIMNWTCLHQASDDVYAVIYLYVVRIQVQLLARRVEKLGTDDSGQVEIYPDERRQEEHCAELQRCIVDHQTMLQLLDCISPVISRTIFVQFLITAAIMGTTMINIFIFANTNTKIASIIYLLAVTLQTAPCCYQATSLMLDNERLALAIFQCQWLGQSARFRKMLLYYLHRAQQPITLTAMKLFPINLATYFSIAKFSFSLYTLIKGMNLGERFNRTN
ecfp,0.1872314074271646,-0.852602082521749,-0.23976357651575597,0.3075114306929344,0.4393417879219871,0.1344863669279237,0.29458102810873377,-2.361985642246467,-0.0026528520924533616,-1.120885651455605,-0.01706077926724414,-0.7604254875469756,MSDKVKGKKQEEKDQSLRVQILVYRCMGIDLWSPTMANDRPWLTFVTMGPLFLFMVPMFLAAHEYITQVSLLSDTLGSTFASMLTLVKFLLFCYHRKEFVGLIYHIRAILAKEIEVWPDAREIIEVENQSDQMLSLTYTRCFGLAGIFAALKPFVGIILSSIRGDEIHLELPHNGVYPYDLQVVMFYVPTYLWNVMASYSAVTMALCVDSLLFFFTYNVCAIFKIAKHRMIHLPAVGGKEELEGLVQVLLLHQKGLQIADHIADKYRPLIFLQFFLSALQICFIGFQVADLFPNPQSLYFIAFVGSLLIALFIYSKCGENIKSASLDFGNGLYETNWTDFSPPTKRALLIAAMRAQRPCQMKGYFFEASMATFSTIVRSAVSYIMMLRSFNA
ecfp,0.1776493973531698,-0.27416309969905794,0.40541090646718114,0.21863431171513015,0.28080012663601694,0.22506446628264487,-0.24166282433512398,-0.11734926124092415,-1.5270284153191733,-0.03564461199727864,0.02597484543011852,0.28323194463196766,MSEWLRFLKRDQQLDVYFFAVPRLSLDIMGYWPGKTGDTWPWRSLIHFAILAIGVATELHAGMCFLDRQQITLALETLCPAGTSAVTLLKMFLMLRFRQDLSIMWNRLRGLLFDPNWERPEQRDIRLKHSAMAARINFWPLSAGFFTCTTYNLKPILIAMILYLQNRYEDFVWFTPFNMTMPKVLLNYPFFPLTYIFIAYTGYVTIFMFGGCDGFYFEFCAHLSALFEVLQAEIESMFRPYTDHLELSPVQLYILEQKMRSVIIRHNAIIDLTRFFRDRYTIITLAHFVSAAMVIGFSMVNLLTLGNNGLGAMLYVAYTVAALSQLLVYCYGGTLVAESSTGLCRAMFSCPWQLFKPKQRRLVQLLILRSQRPVSMAVPFFSPSLATFAAILQTSGSIIALVKSFQ
ecfp,0.3336568639714673,-0.855347938449136,0.431457658240168,0.3923761664274493,0.5468622578499125,0.3782594592723707,-0.08067122193256404,-2.944771091546051,-0.012786495608838155,-0.8864285680724826,-0.43278559107494075,3.205405663220251e-05,MDISKVDSTRALVNHWRIFRIMGIHPPGKRTFWGRHYTAYSMVWNVTFHICIWVSFSVNLLQSNSLETFCESLCVTMPHTLYMLKLINVRRMRGQMISSHWLLRLLDKRLGCDDERQIIMAGIERAEFIFRTIFRGLACTVVLGIIYISASSEPTLMYPTWIPWNWRDSTSAYLATAMLHTTALMANATLVLNLSSYPGTYLILVSVHTKALALRVSKLGYGAPLPAVRMQAILVGYIHDHQIILRLFKSLERSLSMTCFLQFFSTACAQCTICYFLLFGNVGIMRFMNMLFLLVILTTETLLLCYTAELPCKEGESLLTAVYSCNWLSQSVNFRRLLLLMLARCQIPMILVSGVIVPISMKTFTVMIKGAYTMLTLLNEIRKTSLE
ecfp,0.4487594672694626,-0.9520329153684525,0.44622530756303214,0.47290983777912865,0.334741912524683,0.44521931799066916,0.5447009604897998,-3.1598101343317255,0.20520264832489865,-0.7518639418232764,-0.22259513914726448,-0.831098009864895,MLSKFFPHIKEKPLSERVKSRDAFIYLDRVMWSFGWTEPENKRWILPYKLWLAFVNIVMLILLPISISIEYLHRFKTFSAGEFLSSLEIGVNMYGSSFKCAFTLIGFKKRQEAKVLLDQLDKRCLSDKERSTVHRYVAMGNFFDILYHIFYSTFVVMNFPYFLLERRHAWRMYFPYIDSDEQFYISSIAECFLMTEAIYMDLCTDVCPLISMLMARCHISLLKQRLRNLRSKPGRTEDEYLEELTECIRDHRLLLDYVDALRPVFSGTIFVQFLLIGTVLGLSMINLMFFSTFWTGVATCLFMFDVSMETFPFCYLCNMIIDDCQEMSNCLFQSDWTSADRRYKSTLVYFLHNLQQPITLTAGGVFPISMQTNLAMVKLAFSVVTVIKQFNLAERFQ
ecfp,0.2465072719529376,-3.445582428458549,0.3020681080520039,0.25176121843155363,0.40768048885704244,0.258080664720319,0.012945879703768925,-14.285014377699628,-0.06811784729215997,-1.0171804240324396,-0.1492486063262386,-1.7083508869422768,MKLSETLKIDYFRVQLNAWRICGALDLSEGRYWSWSMLLCILVYLPTPMLLRGVYSFEDPVENNFSLSLTVTSLSNLMKFCMYVAQLTKMVEVQSLIGQLDARVSGESQSERHRNMTEHLLRMSKLFQITYAVVFIIAAVPFVFETELSLPMPMWFPFDWKNSMVAYIGALVFQEIGYVFQIMQCFAADSFPPLVLYLISEQCQLLILRISEIGYGYKTLEENEQDLVNCIRDQNALYRLLDVTKSLVSYPMMVQFMVIGINIAITLFVLIFYVETLYDRIYYLCFLLGITVQTYPLCYYGTMVQESFAELHYAVFCSNWVDQSASYRGHMLILAERTKRMQLLLAGNLVPIHLSTYVACWKGAYSFFTLMADRDGLGS
ecfp,0.0878030112012197,-1.1948671193760303,0.03306465388544766,0.1182266892373317,0.16225288395741033,0.11175441465591918,0.013716414269989596,-5.265113938934878,-0.10209319124385763,-0.5925601090359045,-0.00022918027112606154,-0.014339177394385061,MDLKPRVIRSEDIYRTYWLYWHLLGLESNFFLNRLLDLVITIFVTIWYPIHLILGLFMERSLGDVCKGLPITAACFFASFKFICFRFKLSEIKEIEILFKELDQRALSREECEFFNQNTRREANFIWKSFIVAYGLSNISAIASVLFGGGHKLLYPAWFPYDVQATELIFWLSVTYQIAGVSLAILQNLANDSYPPMTFCVVAGHVRLLAMRLSRIGQGPEETIYLTGKQLIESIEDHRKLMKIVELLRSTMNISQLGQFISSGVNISITLVNILFFADNNFAITYYGVYFLSMVLELFPCCYYGTLISVEMNQLTYAIYSSNWMSMNRSYSRILLIFMQLTLAEVQIKAGGMIGIGMNAFFATVRLAYSFFTLAMSLR
ecfp,0.43292874542257065,-0.6114855856820147,0.3560145356911131,0.41301923204107716,0.3764909849310427,0.7358057515932026,0.2833132228564177,-1.321202162618484,-0.0771605146048353,-1.1594985808961793,-0.1508839905807926,-0.34868267970978284,MVRYVPRFADGQKVKLAWPLAVFRLNHIFWPLDPSTGKWGRYLDKVLAVAMSLVFMQHNDAELRYLRFEASNRNLDAFLTGMPTYLILVEAQFRSLHILLHFEKLQKFLEIFYANIYIDPRKEPEMFRKVDGKMIINRLVSAMYGAVISLYLIAPVFSIINQSKDFLYSMIFPFDSDPLYIFVPLLLTNVWVGIVIDTMMFGETNLLCELIVHLNGSYMLLKRDLQLAIEKILVARDRPHMAKQLKVLITKTLRKNVALNQFGQQLEAQYTVRVFIMFAFAAGLLCALSFKAYTNPMANYIYAIWFGAKTVELLSLGQIGSDLAFTTDSLSTMYYLTHWEQILQYSTNPSENLRLLKLINLAIEMNSKPFYVTGLKYFRVSLQAGLKILQASFSYFTFLTSMQRRQMSN
ecfp,0.14523101021667045,-1.2600731307844686,0.1110413491771226,0.2515330405958991,0.20790779063873743,0.024817766784266393,0.13085510388732668,-5.450242826307925,-0.0584586895085748,-0.6417278028261792,-0.09300846601761092,-0.05692786926205473,MTIEDIGLVGINVRMWRHLAVLYPTPGSSWRKFAFVLPVTAMNLMQFVYLLRMWGDLPAFILNMFFFSAIFNALMRTWLVIIKRRQFEEFLGQLATLFHSILDSTDEWGRGILRRAEREARNLAILNLSASFLDIVGALVSPLFREERAHPFGLALPGVSMTSSPVYEVIYLAQLPTPLLLSMMYMPFVSLFAGLAIFGKAMLQILVHRLGQIGGEEQSEEERFQRLASCIAYHTQVMRYVWQLNKLVANIVAVEAIIFGSIICSLLFCLNIITSPTQVISIVMYILTMLYVLFTYYNRANEICLENNRVAEAVYNVPWYEAGTRFRKTLLIFLMQTQHPMEIRVGNVYPMTLAMFQSLLNASYSYFTMLRGVTGK
ecfp,0.18970500874400337,-3.264207292575384,0.04869822240034094,0.2005365883915644,0.15088050477502757,0.30676561289094795,0.24164411526213592,-11.354594432301557,-0.018528207008640107,-0.8625022829014413,0.06415864904717339,-4.149570189712454,MFGHFKLVYPAPISEPIQSRDSNAYMMETLRNSGLNLKNDFGIGRKIWRVFSFTYNMVILPVSFPINYVIHLAEFPPELLLQSLQLCLNTWCFALKFFTLIVYTHRLELANKHFDELDKYCVKPAEKRKVRDMVATITRLYLTFVVVYVLYATSTLLDGLLHHRVPYNTYYPFINWRVDRTQMYIQSFLEYFTVGYAIYVATATDSYPVIYVAALRTHILLLKDRIIYLGDPSNEGSSDPSYMFKSLVDCIKAHRTMLNFCDAIQPIISGTIFAQFIICGSILGIIMINMVLFADQSTRFGIVIYVMAVLLQTFPLCFYCNAIVDDCKELAHALFHSAWWVQDKRYQRTVIQFLQKLQQPMTFTAMNIFNINLATNINVAKFAFTVYAIASGMNLDQKLSIKE
ecfp,0.5060458323757773,-1.7547155215287227,0.6278615382730166,0.5460562901327424,0.5292745307937552,0.49521975299214194,0.3318170496872298,-1.0054799470030602,0.18121638846619015,-0.5437690792221685,-0.040390115082769684,-7.365154854801805,MDSFLQVQKSTIALLGFDLFSENREMWKRPYRAMNVFSIAAIFPFILAAVLHNWKNVLLLADAMVALLITILGLFKFSMILYLRRDFKRLIDKFRLLMSNEAEQGEEYAEILNAANKQDQRMCTLFRTCFLLAWALNSVLPLVRMGLSYWLAGHAEPELPFPCLFPWNIHIIRNYVLSFIWSAFASTGVVLPAVSLDTIFCSFTSNLCAFFKIAQYKVVRFKGGSLKESQATLNKVFALYQTSLDMCNDLNQCYQPIICAQFFISSLQLCMLGYLFSITFAQTEGVYYASFIATIIIQAYIYCYCGENLKTESASFEWAIYDSPWHESLGAGGASTSICRSLLISMMRAHRGFRITGYFFEANMEAFSSIVRTAMSYITMLRSFS
ecfp,0.2303850942220131,-0.520851078524313,0.0988889649999306,0.3823115133357996,0.1324996114997572,0.3661254540379173,0.1720999272366609,0.28873515913963366,-0.023217232611885796,-1.7613431994296995,-0.0018265670910140308,-1.1066035526285996,MNDSGYQSNLSLLRVFLDEFRSVLRQESPGLIPRLAFYYVRAFLSLLCQYPNKKLASLPLYRWINLFIMCNVMTIFWTMFVALPESKNVIEMGDDLVWISGMALVFTKIFYMHLRCDEIDELISDFEYYNRELRPHNIDEEVLGWQRLCYVIESGLYINCFCLVNFFSAAIFLQPLLGEGKLPFHSVYPFQWHRLDLHPYTFWFLYIWQSLTSQHNLMSILMVDMVGISTFLQTALNLKLLCIEIRKLGDMEVSDKRFHEEFCRVVRFHQHIIKLVGKANRAFNGAFNAQLMASFSLISISTFETMAAAAVDPKMAAKFVLLMLVAFIQLSLWCVSGTLVYTQSVEVAQAAFDINDWHTKSPGIQRDISFVILRAQKPLMYVAEPFLPFTLGTYMLVLKNCYRLLALMQESM
ecfp,0.027513652384863342,-1.629461111438554,0.00280439768063534,-0.18622456882911198,0.2816522329374733,0.04474355426517895,-0.005407354129858932,-7.314300498199978,-0.6291894242433591,-0.12844544522471035,-0.026677915511199357,-0.048692274013523607,MFEDIQLIYMNIKILRFWALLYDKNLRRYVCIGLASFHIFTQIVYMMSTNEGLTGIIRNSYMLVLWINTVLRAYLLLADHDRYLALIQKLTEAYYDLLNLNDSYISEILDQVNKVGKLMARGNLFFGMLTSMGFGLYPLSSSERVLPFGSKIPGLNEYESPYYEMWYIFQMLITPMGCCMYIPYTSLIVGLIMFGIVRCKALQHRLRQVALKHPYGDRDPRELREEIIACIRYQQSIIEYMDHINELTTMMFLFELMAFSALLCALLFMLIIVSGTSQLIIVCMYINMILAQILALYWYANELREQNLAVATAAYETEWFTFDVPLRKNILFMMMRAQRPAAILLGNIRPITLELFQNLLNTTYTFFTVLKRVYG
ecfp,0.05406143825206069,-0.8334551867604368,-0.09563968423836311,-0.5398210510740642,0.2837526868728997,0.3287902983361364,0.2932249413636947,-0.32378696897840653,0.09197768001746032,-0.22519596024643773,-0.01449018099214916,-3.695780503602651,MAVFKLIKPAPLTEKVQSRQGNIYLYRAMWLIGWIPPKEGVLRYVYLFWTCVPFAFGVFYLPVGFIISYVQEFKNFTPGEFLTSLQVCINVYGASVKSTITYLFLWRLRKTEILLDSLDKRLANDSDRERIHNMVARCNYAFLIYSFIYCGYAGSTFLSYALSGRPPWSVYNPFIDWRDGMGSLWIQAIFEYITMSFAVLQDQLSDTYPLMFTIMFRAHMEVLKDHVRSLRMDPERSEADNYQDLVNCVLDHKTILKCCDMIRPMISRTIFVQFALIGSVLGLTLVNVFFFSNFWKGVASLLFVITILLQTFPFCYTCNMLIDDAQDLSNEIFQSNWVDAEPRYKATLVLFMHHVQQPIIFIAGGIFPISMNSNITVAKFAFSIITIVRQMNLAEQFQ
ecfp,0.170633928443861,-0.6819476607295991,0.16332198971883116,0.22857644163244895,0.19276691891936326,0.2995428069669629,-0.031038515018301238,-3.0928002539316957,0.01976629690836762,-0.07722171052178872,-0.01273993562740583,-0.24674270047547342,MTELRSERKNGNWDRLFGPFFESWAVFKAPQAKSRHIIAYWTRDQLKALGFYMNSEQRRLPRIVAWQYFVSIQLATALASLFYGISESIGDIVNLGRDLVFIITIIFICFRLVFFAQYAGELDVIIDALEDIYHWSIKGPATKEVQETKRLHFLLFMALIITWFSFLILFMLIKISTPFWIESQTLPFHVSWPFQLHDPSKHPIAYIIIFVSQSTTMLYFLIWLGVVENMGVSLFFELTSALRVLCIELRNLQELCLGDEDMLYRELCRMTKFHQQIILLTDRCNHIFNGAFIMQMLINFLLVSLSLFEVLAAKKNPQVAVEYMIIMLMTLGHLSFWSKFGDMFSKESEQVALAVYEAYDPNVGSKSIHRQFCFFIQRAQKPLIMKASPFPPFNLENYMFILKQCYSILTILANTLE
ecfp,0.2918703294126933,-0.3907741763415199,0.2760282220654702,0.4212517347826944,0.2871497376239823,0.5099303125573553,-0.035008359966035796,-0.911957567891265,-0.589648922768256,-0.25795858422962437,-0.15399574021224316,-0.04031006660621084,MDNVAEMPEEKYVEVDDFLRLAVKFYNTLGIDPYETGRKRTIWFQIYFALNMFNMVFSFYAEVATLVDRLRDNENFLESCILLSYVSFVVMGLSKIGAVMKKKPKMTALVRQLETCFPSPSAKVQEEYAVKSWLKRCHIYTKGFGGLFMIMYFAHALIPLFIYFIQRVLLHYPDAKQIMPFYQLEPWEFRDSWLFYPSYFHQSSAGYTATCGSIAGDLMIFAVVLQVIMHYERLAKVLREFKIQAHNAPNGAKEDIRKLQSLVANHIDILRLTDLMNEVFGIPLLLNFIASALLVCLVGVQLTIALSPEYFCKQMLFLISVLLEVYLLCSFSQRLIDASENVGHAAYDMDWLGSDKRFKKILIFISMRSQKPVCLKATVVLDLSMPTMSIFLGMSYKFFCAVRTMYQ
ecfp,0.1960923039609255,-2.316693866587536,0.0048005827748889285,0.26314767092585245,0.2092639747728411,0.21737235581195113,0.2858769355190939,-9.15680081372203,-0.003367631994214859,-0.7319055272394561,0.161592843897993,-1.8529882038799705,METAKDNTARTFMELMRVPVQFYRTIGEDIYAHRSTNPLKSLLFKIYLYAGFINFNLLVIGELVFFYNSIQDFETIRLAIAVAPCIGFSLVADFKQAAMIRGKKTLIMLLDDLENMHPKTLAKQMEYKLPDFEKTMKRVINIFTFLCLAYTTTFSFYPAIKASVKFNFLGYDTFDRNFGFLIWFPFDATRNNLIYWIMYWDIAHGAYLAGIAFLCADLLLVVVITQICMHFNYISMRLEDHPCNSNEDKENIEFLIGIIRYHDKCLKLCEHVNDLYSFSLLLNFLMASMQICFIAFQVTESTVEVIIIYCIFLMTSMVQVFMVCYYGDTLIAASLKVGDAAYNQKWFQCSKSYCTMLKLLIMRSQKPASIRPPTFPPISLVTYMKVISMSYQFFALLRTTYSNN
ecfp,0.09105102891916568,-0.5902114160232415,0.08772282481896965,0.12976242167980334,0.06794525878378943,0.0637114321280352,0.10611320718523076,0.010307160717838437,-0.08206456265165851,-1.606740375123159,-0.05568435871968602,-1.2168749443395424,MGRLFQLQEYCLRAMGHKDDMDSTDSTALSLKHISSLIFVISAQYPLISYVAYNRNDMEKVTACLSVVFTNMLTVIKISTFLANRKDFWEMIHRFRKMHEQSASHIPRYREGLDYVAEANKLASFLGRAYCVSCGLTGLYFMLGPIVKIGVCRWHGTTCDKELPMPMKFPFNDLESPGYEVCFLYTVLVTVVVVAYASAVDGLFISFAINLRAHFQTLQRQIENWEFPSSEPDTQIRLKSIVEYHVLLLSLSRKLRSIYTPTVMGQFVITSLQVGVIIYQLVTNMDSVMDLLLYASFFGSIMLQLFIYCYGGEIIKAESLQVDTAVRLSNWHLASPKTRTSLSLIILQSQKEVLIRAGFFVASLANFVGICRTALSLITLIKSIE
ecfp,-0.36981233113726386,-1.991556020797573,0.11338539950861282,-1.5143201253032608,-0.24665107792393726,-0.2540585304221361,0.0525826784544019,-5.514258873548833,-1.386863529552259,-0.18993389379129444,-0.056795992722905586,-2.809927814372573,MIFKYIQEPVLGSLFRSRDSLIYLNRSIDQMGWRLPPRTKPYWWLYYIWTLVVIVLVFIFIPYGLIMTGIKEFKNFTTTDLFTYVQVPVNTNASIMKGIIVLFMRRRFSRAQKMMDAMDIRCTKMEEKVQVHRAAALCNRVVVIYHCIYFGYLSMALTGALVIGKTPFCLYNPLVNPDDHFYLATAIESVTMAGIILANLILDVYPIIYVVVLRIHMELLSERIKTLRTDVEKGDDQHYAELVECVKDHKLIVEYGNTLRPMISATMFIQLLSVGLLLGLAAVSMQFYNTVMERVVSGVYTIAILSQTFPFCYVCEQLSSDCESLTNTLFHSKWIGAERRYRTTMLYFIHNVQQSILFTAGGIFPICLNTNIKMAKFAFSVVTIVNEMDLAEKLRRE
ecfp,0.0300348973428032,-1.0779618315945236,0.20216226606692422,0.12341873430091455,0.332194795809973,0.2665689619884847,-0.7741702714522805,-4.783609329640791,-0.06660957704467951,-0.47833583431597937,0.08976787427287447,-0.15102229124404332,MEKLMKYASFFYTAVGIRPYTNGEESKMNKLIFHIVFWSNVINLSFVGLFESIYVYSAFMDNKFLEAVTALSYIGFVTVGMSKMFFIRWKKTAITELINELKEIYPNGLIREERYNLPMYLGTCSRISLIYSLLYSVLIWTFNLFCVMEYWVYDKWLNIRVVGKQLPYLMYIPWKWQDNWSYYPLLFSQNFAGYTSAAGQISTDVLLCAVATQLVMHFDFLSNSMERHELSGDWKKDSRFLVDIVRYHERILRLSDAVNDIFGIPLLLNFMVSSFVICFVGFQMTVGVPPDIVVKLFLFLVSSMSQVYLICHYGQLVADASYGFSVATYNQKWYKADVRYKRALVIIIARSQKVTFLKATIFLDITRSTMTDLLQISYKFFALLRTMYTQ
ecfp,-0.03093061045476775,-0.5848419719494183,-0.10158238890268279,-0.013605454156390584,-0.12974602017944514,0.069250764552655,0.021030046412024772,-1.7049899261867552,-0.0004088576491447782,-0.6114227547027504,-0.5947512914170963,-0.012637029791344956,MEPVQYSYEDFARLPTTVFWIMGYDMLGVPKTRSRRILYWIYRFLCLASHGVCVGVMVFRMVEAKTIDNVSLIMRYATLVTYIINSDTKFATVLQRSAIQSLNSKLAELYPKTTLDRIYHRVNDHYWTKSFVYLVIIYIGSSIMVVIGPIITSIIAYFTHNVFTYMHCYPYFLYDPEKDPVWIYISIYALEWLHSTQMVISNIGADIWLLYFQVQINLHFRGIIRSLADHKPSVKHDQEDRKFIAKIVDKQVHLVSLQNDLNGIFGKSLLLSLLTTAAVICTVAVYTLIQGPTLEGFTYVIFIGTSVMQVYLVCYYGQQVLDLSGEVAHAVYNHDFHDASIAYKRYLLIIIIRAQQPVELNAMGYLSISLDTFKQLMSVSYRVITMLMQMIQ
ecfp,-0.10833223112435095,-0.0844033153794351,-0.007135857809347446,-0.36532036731473294,0.006375666029140525,-0.20396271656888287,0.02838212004206797,0.014769822260236154,0.0020505103056080998,-0.1137970359785061,-0.23723769896512104,-0.08780217451939265,MKPTEIKKPYRMEEFLRPQMFQEVAQMVHFQWRRNPVDNSMVNASMVPFCLSAFLNVLFFGCNGWDIIGHFWLGHPANQNPPVLSITIYFSIRGLMLYLKRKEIVEFVNDLDRECPRDLVSQLDMQMDETYRNFWQRYRFIRIYSHLGGPMFCVVPLALFLLTHEGKDTPVAQHEQLLGGWLPCGVRKDPNFYLLVWSFDLMCTTCGVSFFVTFDNLFNVMQGHLVMHLGHLARQFSAIDPRQSLTDEKRFFVDLRLLVQRQQLLNGLCRKYNDIFKVAFLVSNFVGAGSLCFYLFMLSETSDVLIIAQYILPTLVLVGFTFEICLRGTQLEKASEGLESSLRSQEWYLGSRRYRKFYLLWTQYCQRTQQLGAFGLIQVNMVHFTEIMQLAYRLFTFLKSH
ecfp,0.2243313910098157,-1.9815616725993153,0.346996903877813,0.10545293681125878,0.27473713003300293,0.1861851442000595,0.20828484012694426,-7.770160220106629,-0.09067194351706553,-0.8623681732615596,-0.05807246617336026,-1.1265355599379614,MLFNYLRKPNPTNLLTSPDSFRYFEYGMFCMGWHTPATHKIIYYITSCLIFAWCAVYLPIGIIISFKTDINTFTPNELLTVMQLFFNSVGMPFKVLFFNLYISGFYKAKKLLSEMDKRCTTLKERVEVHQGVVRCNKAYLIYQFIYTAYTISTFLSAALSGKLPWRIYNPFVDFRESRSSFWKAALNETALMLFAVTQTLMSDIYPLLYGLILRVHLKLLRLRVESLCTDSGKSDAENEQDLIKCIKDHNLIIDYAAAIRPAVTRTIFVQFLLIGICLGLSMINLLFFADIWTGLATVAYINGLMVQTFPFCFVCDLLKKDCELLVSAIFHSNWINSSRSYKSSLRYFLKNAQKSIAFTAGSIFPISTGSNIKVAKLAFSVVTFVNQLNIADRLTKN
Roberta-Zinc480M-102M,0.43187530626181675,-4.2762609902943165,0.43423603827948387,0.5910265849880922,0.3582177617296304,0.48604449228908375,0.28985165402279334,-19.761095730025076,-0.10456874599376587,-1.2869010119279252,0.09889223612151843,-0.32763169964633465,MEKQEDFKLNTHSAVYYHWRVWELTGLMRPPGVSSLLYVVYSITVNLVVTVLFPLSLLARLLFTTNMAGLCENLTITITDIVANLKFANVYMVRKQLHEIRSLLRLMDARARLVGDPEEISALRKEVNIAQGTFRTFASIFVFGTTLSCVRVVVRPDRELLYPAWFGVDWMHSTRNYVLINIYQLFGLIVQAIQNCASDSYPPAFLCLLTGHMRALELRVRRIGCRTEKSNKGQTYEAWREEVYQELIECIRDLARVHRLREIIQRVLSVPCMAQFVCSAAVQCTVAMHFLYVADDHDHTAMIISIVFFSAVTLEVFVICYFGDRMRTQSEALCDAFYDCNWIEQLPKFKRELLFTLARTQRPSLIYAGNYIALSLETFEQVMRFTYSVFTLLLRAK
Roberta-Zinc480M-102M,0.34161291587067544,-0.3529477854035335,0.42154035793828737,0.33553976027623356,0.2531272280657908,0.40443865443761373,0.2934185786354514,-1.3462540765747737,-0.061270944292670215,-0.06410578482665907,-0.371235341881051,0.07812722055748644,MAVSTRVATKQEVPESRRAFRNLFNCFYALGMQAPDGSRPTTSSTWQRIYACFSVVMYVWQLLLVPTFFVISYRYMGGMEITQVLTSAQVAIDAVILPAKIVALAWNLPLLRRAEHHLAALDARCREQEEFQLILDAVRFCNYLVWFYQICYAIYSSSTFVCAFLLGQPPYALYLPGLDWQRSQMQFCIQAWIEFLIMNWTCLHQASDDVYAVIYLYVVRIQVQLLARRVEKLGTDDSGQVEIYPDERRQEEHCAELQRCIVDHQTMLQLLDCISPVISRTIFVQFLITAAIMGTTMINIFIFANTNTKIASIIYLLAVTLQTAPCCYQATSLMLDNERLALAIFQCQWLGQSARFRKMLLYYLHRAQQPITLTAMKLFPINLATYFSIAKFSFSLYTLIKGMNLGERFNRTN
Roberta-Zinc480M-102M,0.18672256566469464,-0.5647338654044656,0.07888973285908651,0.2653120879396911,0.17271418688508156,0.13005632037656145,0.28664050026305266,-1.2551557794426063,-0.3528248962165066,-1.0485648028839312,0.006955791868370698,-0.17407964034765455,MSDKVKGKKQEEKDQSLRVQILVYRCMGIDLWSPTMANDRPWLTFVTMGPLFLFMVPMFLAAHEYITQVSLLSDTLGSTFASMLTLVKFLLFCYHRKEFVGLIYHIRAILAKEIEVWPDAREIIEVENQSDQMLSLTYTRCFGLAGIFAALKPFVGIILSSIRGDEIHLELPHNGVYPYDLQVVMFYVPTYLWNVMASYSAVTMALCVDSLLFFFTYNVCAIFKIAKHRMIHLPAVGGKEELEGLVQVLLLHQKGLQIADHIADKYRPLIFLQFFLSALQICFIGFQVADLFPNPQSLYFIAFVGSLLIALFIYSKCGENIKSASLDFGNGLYETNWTDFSPPTKRALLIAAMRAQRPCQMKGYFFEASMATFSTIVRSAVSYIMMLRSFNA
Roberta-Zinc480M-102M,0.1096681821906597,-0.8815932366803668,0.40637042463229045,0.18633129128208892,0.12698730391174518,0.13361636202818172,-0.30496447090100776,-2.967488100434215,-1.5530472321985735,0.0408469251985627,-0.03884779671859495,0.11057002075098643,MSEWLRFLKRDQQLDVYFFAVPRLSLDIMGYWPGKTGDTWPWRSLIHFAILAIGVATELHAGMCFLDRQQITLALETLCPAGTSAVTLLKMFLMLRFRQDLSIMWNRLRGLLFDPNWERPEQRDIRLKHSAMAARINFWPLSAGFFTCTTYNLKPILIAMILYLQNRYEDFVWFTPFNMTMPKVLLNYPFFPLTYIFIAYTGYVTIFMFGGCDGFYFEFCAHLSALFEVLQAEIESMFRPYTDHLELSPVQLYILEQKMRSVIIRHNAIIDLTRFFRDRYTIITLAHFVSAAMVIGFSMVNLLTLGNNGLGAMLYVAYTVAALSQLLVYCYGGTLVAESSTGLCRAMFSCPWQLFKPKQRRLVQLLILRSQRPVSMAVPFFSPSLATFAAILQTSGSIIALVKSFQ
Roberta-Zinc480M-102M,0.16832146523724667,-0.8258443553526498,0.26064274599185455,0.30210972689054516,0.29679680943707343,0.07992480936005897,-0.09786676549329876,-3.2997009539157,-0.09125806458116514,-0.6968373518391633,-0.20594558060377532,0.16452017417655507,MDISKVDSTRALVNHWRIFRIMGIHPPGKRTFWGRHYTAYSMVWNVTFHICIWVSFSVNLLQSNSLETFCESLCVTMPHTLYMLKLINVRRMRGQMISSHWLLRLLDKRLGCDDERQIIMAGIERAEFIFRTIFRGLACTVVLGIIYISASSEPTLMYPTWIPWNWRDSTSAYLATAMLHTTALMANATLVLNLSSYPGTYLILVSVHTKALALRVSKLGYGAPLPAVRMQAILVGYIHDHQIILRLFKSLERSLSMTCFLQFFSTACAQCTICYFLLFGNVGIMRFMNMLFLLVILTTETLLLCYTAELPCKEGESLLTAVYSCNWLSQSVNFRRLLLLMLARCQIPMILVSGVIVPISMKTFTVMIKGAYTMLTLLNEIRKTSLE
Roberta-Zinc480M-102M,0.43498630420594486,-1.9802348505450922,0.4322664655872688,0.5067656642035899,0.38644966974238937,0.41449236399299727,0.4349573575034791,-5.881116594499123,0.13530919917285944,-0.6280572663407651,-0.13833724088875377,-3.38897235016968,MLSKFFPHIKEKPLSERVKSRDAFIYLDRVMWSFGWTEPENKRWILPYKLWLAFVNIVMLILLPISISIEYLHRFKTFSAGEFLSSLEIGVNMYGSSFKCAFTLIGFKKRQEAKVLLDQLDKRCLSDKERSTVHRYVAMGNFFDILYHIFYSTFVVMNFPYFLLERRHAWRMYFPYIDSDEQFYISSIAECFLMTEAIYMDLCTDVCPLISMLMARCHISLLKQRLRNLRSKPGRTEDEYLEELTECIRDHRLLLDYVDALRPVFSGTIFVQFLLIGTVLGLSMINLMFFSTFWTGVATCLFMFDVSMETFPFCYLCNMIIDDCQEMSNCLFQSDWTSADRRYKSTLVYFLHNLQQPITLTAGGVFPISMQTNLAMVKLAFSVVTVIKQFNLAERFQ
Roberta-Zinc480M-102M,0.32677404343331523,-2.772663963455031,0.4697744809579939,0.320840225336141,0.35445243832363216,0.2855144867709348,0.20328858577787445,-12.38125222628951,0.06811620023154696,-1.01718037062306,0.004704038818450829,-0.5377074594125815,MKLSETLKIDYFRVQLNAWRICGALDLSEGRYWSWSMLLCILVYLPTPMLLRGVYSFEDPVENNFSLSLTVTSLSNLMKFCMYVAQLTKMVEVQSLIGQLDARVSGESQSERHRNMTEHLLRMSKLFQITYAVVFIIAAVPFVFETELSLPMPMWFPFDWKNSMVAYIGALVFQEIGYVFQIMQCFAADSFPPLVLYLISEQCQLLILRISEIGYGYKTLEENEQDLVNCIRDQNALYRLLDVTKSLVSYPMMVQFMVIGINIAITLFVLIFYVETLYDRIYYLCFLLGITVQTYPLCYYGTMVQESFAELHYAVFCSNWVDQSASYRGHMLILAERTKRMQLLLAGNLVPIHLSTYVACWKGAYSFFTLMADRDGLGS
Roberta-Zinc480M-102M,0.10075270688456786,-1.1421085937180755,0.07355671492213067,0.07207634298830212,0.33968026746931435,0.03282848585609066,-0.014378276812998525,-4.801605839982784,-0.10209318431760805,-0.5925600953091537,-0.0002291682748791768,-0.21405468070595335,MDLKPRVIRSEDIYRTYWLYWHLLGLESNFFLNRLLDLVITIFVTIWYPIHLILGLFMERSLGDVCKGLPITAACFFASFKFICFRFKLSEIKEIEILFKELDQRALSREECEFFNQNTRREANFIWKSFIVAYGLSNISAIASVLFGGGHKLLYPAWFPYDVQATELIFWLSVTYQIAGVSLAILQNLANDSYPPMTFCVVAGHVRLLAMRLSRIGQGPEETIYLTGKQLIESIEDHRKLMKIVELLRSTMNISQLGQFISSGVNISITLVNILFFADNNFAITYYGVYFLSMVLELFPCCYYGTLISVEMNQLTYAIYSSNWMSMNRSYSRILLIFMQLTLAEVQIKAGGMIGIGMNAFFATVRLAYSFFTLAMSLR
