embedding,shuf_mean,scaf_mean,shuf1,shuf2,shuf3,shuf4,shuf5,scaf1,scaf2,scaf3,scaf4,scaf5,receptor,regressor
CATS,0.11489547592487286,-3.023772038074098,-0.07269191174707412,0.00816250680206776,-0.0019628853568047777,0.268791480738908,0.3721781891872674,-6.8014850482124585,-7.115081681812384,-0.09721775226274443,-0.2024263569112621,-0.9026493511716385,MKLNKLNPRWDAYDRRDSFWLQLLCLKYLGLWPPEDTDQATRNRYIAYGWALRIMFLHLYALTQALYFKDVKDINDIANALFVLMTQVTLIYKLEKFNYNIARIQACLRKLNCTLYHPKQREEFSPVLQSMSGVFWLMIFLMFVAIFTIIMWVMSPAFDNERRLPVPAWFPVDYHHSDIVYGVLFLYQTIGIVMSATYNFSTDTMFSGLMLHINGQIVRLGSMVKKLGHDVPPERQLVATDAEWKEMRKRIDHHSKVYGTMYAKVTECVLFHKDILSFGDEVQDIFQGSIFAQVCASVIIICMTLLQATGDDVTMADLLGCGFYLLVMTSQVFIFCYVGNEISYTTDKFTEFVGFSNYFKFDKRTSQAMIFFLQMTLKDVHIKVGSVLKVTLNLHTFLQIMKLSYSYLAVLQSMESE,r
CATS,0.36400912609498776,-0.19367509207672665,0.3478088008140595,0.3362917466194526,0.32873058847440695,0.20832180459015226,0.5988926899768676,-1.5467801032646844,-0.00046212839983805765,-0.13977301980352386,0.16122300501526554,0.5574167860691477,MLIEECPIIGVNVRVWLFWSYLRRPRLSRFLVGCIPVAVLNVFQFLKLYSSWGDMSELIINGYFTVLYFNLVLRTSFLVINRRKFETFFEGVAAEYALLEKNDDIRPVLERYTRRGRMLSISNLWLGAFISACFVTYPLFVPGRGLPYGVTIPGVDVLATPTYQVVFVLQVYLTFPACCMYIPFTSFYATCTLFALVQIAALKQRLGRLGRHSGTTATTGHSTGTLFAELKECLKYHKQIIQYVHDLNSLVTHLCLLEFLSFGMMLCALLFLLSISNQLAQMIMIGSYIFMILSQMFAFYWHANEVLEQSLGIGDAIYNGAWPDFEEPIRKRLILIIARAQRPMVIKVGNVYPMTLEMFQKLLNVSYSYFTLLRRVYN,r
CATS,0.0838804780643357,-0.779701403482531,-0.06962205460415238,0.19085016728446436,0.03352169391639215,0.24963505204161685,0.01501753168335751,-1.9441167994812676,-0.03959169375018079,-0.5758944150735723,-0.31502108700144915,-1.0238830221061854,MVLPKLKDETAVMPFLLRIQTIAGLWGDRSQRYRFYLIFSYFCAMVVLPKVLFGYPDLEVAVRGTAELMFESNAFFGMLMFSFQRDNYERLVHQLQDLAALVLQDLPTELGEYLISVNRRVDRFSKIYCCCHFSMATFFWFMPVWTTYSAYFAVRNSTEPVEHVLHLEEELYFLNIRTSMAHYTFYVAIMWPTIYTLGFTGGTKLLTIFSNVKYCSAMLKLVALRIHCLARVAQDRAEKELNEIISMHQRVLDCVFLLETTFRWVFFVQFIQCTMIWCSLILYIAVTGFSSTVANVCVQIILVTVETYGYCYFGTDLTTESYSVALAIYDSEWYKFSISMRRKLRLLLQRSQKPLGVTAGKFRFVNVAQFGKMLKMSYSFYVVLKEQF,r
CATS,0.04339827045673552,-3.5681549919641355,0.013104154055520234,0.059972174648899035,0.014724868162623861,-0.007654344356427867,0.13684449977306234,-15.54691796953902,-0.00046336063736740485,-0.7218170789136105,-0.1601399834365531,-1.4114365672941265,MKFELFQKYSSPDTVLSFVLRLLHIVGMNGTGFRSRIRVGGIFLFYLIFLVIPPLTGGYTDGHQRVRASVEFLFNCNIYGGSMFFAYDVATFQAFIQELRNLTVLVCSHSYRLKYKLTRFNRRADIIAKVQTTCMGAVTLFYWIAPIPSICAHYYRSTNSTEPVRFVQHLEVKFYWLENRTSVEDYVVFVLIMLPVVVMCGYVCNLKVMTICCSIGHCTLYTRLTMEMVEHLESMASAERTASAIRNVVQMHSGLLKCIRLLNTSIRSMLMLQWLTCVLNWSISLIYLTNVGISLQSVTVVVMFFLATAETFLYCLLGTQLATQQQLLEHALYATRWYNYPIAFRSSIRMMLRQSQRHSHITVGKFFRVNLEEFNRIVNLSYSAYVVLKDVIKMDVQ,r
CATS,-0.1541974947888876,-0.30440524477276376,-0.010762104054667043,-0.0029778111911724636,0.01228756986363777,-0.756619299523303,-0.01291582903893329,-0.5554102502195806,-0.4359745775155224,-0.2118294860081269,-0.10519129462703769,-0.21362061549355116,MVLPKLSEPYAVMPLLLRLQRFVGLWGERRYRYKFRLAFLSFCLLVVIPKVAFGYPDLETMVRGTAELIFEWNVLFGMLLFSLKLDDYDDLVYRYKDISKIAFRKDVPSQMGDYLVRINHRIDRFSKIYCCSHLCLAIFYWVAPSSSTYLAYLRARNRSVPVEHVLHLEEELYWFHTRVSLVDYSIFTAIMLPTIFMLAYFGGLKLLTIFSNVKYCSAMLRLVAMRIQFMDRLDEREAEKELIKIIVMHQKALKCVELLEIIFRWVFLGQFIQCVMIWCSLVLYVAVTGLSTKAANVGVLFILLTVETYGFCYFGSDLTSESLSVARAAYGSLWYRRSVSIQRKLRMVLQRAQKPVGISAGKFCFVDIEQFGNMAKTSYSFYIVLKDQF,r
CATS,-0.24309408388071896,-3.475867436923636,0.3788155948727123,-2.0748583715581566,0.12127083494427482,0.16179312283845648,0.19750839949911836,-11.046914451746755,-2.05578043369692,-1.387937172878,-2.992686295729449,0.10398116943294644,MVRLSFEETLRNTNLMLLMMGIPPCEEPYPPGVLPSLKRNAGFIASFLLLAYTTIGELIYLKQMFERDVTFLEVTFQAPCIGYCTIGVLKMVILARGRNTIAELIGLFRAKWTAAIVTGEHWAVCEDTMRPAIRVTSVTALANVVMGIAFTILPIAEMIYTHHYTGRWNRQLAFNIWWPFDVLGGVKYYWFVYPLYVVIGFTGIIIHMAFDCLFCILAAHLCMQFRILAHNFGHVVEVANGAGEGDSGSTSRLQDAIRIHQELIGCSVFMQNVFGNALFINFLGSSIIICIQAFMITTVSGYMLVKFVLFMLCFLIELLMLCAYGEDIVESSLAVIDAAYGCEWYREGSVAFHRSVLQIIHRSQQPVILTAWKIWPIQMSTFSQILQASWSYFTLLKTVYGNK,r
CATS,-0.0026432418405721416,-4.008837062472887,-0.08408013736393682,0.06272071533713519,-0.0078819905206573,0.02120790675634887,-0.005182703411750644,-9.559746919677025,-0.04984881353605264,-0.10448323780414537,-2.916908235328311,-7.413198106018898,MQRRLKRELLLQVQTKKMDPPTDELVRFESFIRVPEIFFAMIGVARYGEPKRTLRAYLKHLLFWSSCINTGFCLVIEHIYFVKAAGNFTNFLQLTALAPCMGFTALSFVKIMTIKLNETKLTDMLHRLDALFPSTVALQQRYGVYQYNRESQVVMKSFSILYMILIWMFNLLPLVSMVVGYVSDGTWHKQLPYFMWYWYDWHRPGYFEVTFLHQNWGGFVSAVFYLSTDLMFCAIVLLLCLQFDIVAYRLSHALPDDHQELVGCVRIHQAVIELCNELEHMFSPSLLVNFLSSSVIICLVGFQATAGITPADLFKFVLFLVSSLVQVFLLCYYGNKLIVASSQIPYSAFEGNWIGASGSYQRSLLFVMLRSTTVQKLTALKFSIVSLASYSKILSTSFSYFTLLKAMYEPNEKKMK,r
CATS,0.4239056675034633,-4.083933502876851,0.25808501470176504,0.2830031476108693,0.36919327301509663,0.6991641416616274,0.510082760527958,-19.485748440795515,0.09547886757137747,-0.24050743181035616,-0.2018895149085842,-0.5870009944411803,MFLPSLRMILFIFRMFYAWPDEHLEKSALWWYRAKGVLFRVFFIYLSAATQLAYNFTVTSREELFAGMFVLLTQLVMILKMEFFYKNVSKIQQLIRRLNGKLYQSRNAEEDIPLASARKKSTIFWVLYFMFSDGLVTEWLVISLLLTTLIVPVWPGVDHTTPYWVVLMVILYQYLAIVLNASFNISWDSLVAALLALTNAHLHRLQIQLLKVGHQNRHLQVDANKRMITVSPIDDDTQSVPTKSDADVVYNELLQCIIFHQEVTGFLREVLTLFSGPMLSQLYCSVFILCITEFRLLTDVNTMADTMQAVMYLVCLVIQVVQYCYFGNEIIYMAQKVHQATAFVNYPDMNIKTRKLLIAFQQITARGIKCSAKYIFTIELSMQTFVTVRQNGRHNILGTRY,r
CATS,0.4103764284247598,0.06527413299526552,0.5082439159757779,0.5604960712426281,0.38570630934170835,0.45944783004559187,0.1379880155180926,-0.590810807476055,-0.2847612845852705,-0.005105810791000476,0.266028601509372,0.9410199663192815,MEVLNCPLLSVNVRVWRFWSFVLVHNWRRYISIIPVTALNVFMFADLYRAWGNIEEVIINAYFAVLYFNAVLRTLILVYNRDKYESFLAGAASVYEEIRAINDDVITKLVSTYTKRARFLSISNLALGAFISGCFVVYPLFTGQRGLPYGMFIPGVNNFDSPQYEIFYITQLVLTFPGCCMYIPYTSFFASSTLFGLVQIKTLQHQLKTFRSSEMLNESTVVLDRKLQKLIEDHKRIIRYVQDLNDLVTYICLIEFLSFGLMLCALLFLLNIISVMAQIVIVGAYIFMILTQIFAFYWHSNEVREESMAIAQASYSGPWLNVDDTIKKKLLMMTIRAQRPLEITVGNVYPMTLEMFQSLLNASYSYFTLLRRVYN,r
CATS,0.07135813690402418,-5.437309533495376,0.13019680490015506,-0.07425835304154105,0.12564738054951763,0.17018292148810188,0.0050219306238873385,-24.43232172446307,-2.294099099148441,-0.2294545790947018,0.041946173427486966,-0.27261843819815357,MELKEEWILPDVVYANPLLKRTLLGLRYYGILLGQSQSYKKVHCFRGMVFTLSMVLFNCTQYIDLWQVWGSVSDMTANAATTLLFSTTIFRIIFFYFHRARFNSIIKAAHDGIERILKDGWTDEQSIVGSNVRYLKRLAVVFWSCALVTANMMCVYSLVQYLTYEEGPPDGTGTSAANITRKGQPIPPTPILRSWYPTADGKDKHFLEIYLIQLYIMYVGQLIVPSWHMFMVTLMIYGRTECSVLNHRLCFLERYHTAGKDDPTAPVNNAERRSLMIDCIKRQASLVSFTRELEQLTRAAVFLDFVVFSVLLCALLFEASMTPSGVQVFIDVCYITTMTTILFLYYWHANEIHACADRLSMSAYKSDWYRYDRGTNRMLQIFILYSNRPLKMHAFFISMSLDTFLAILRASYSYFTILKQLTD,r
CATS,0.12559034137480926,-5.531620973829975,0.2639948478411819,-0.11101369494416402,0.27104344753014276,0.050369882282744194,0.15355722416414153,-24.473664143293266,-2.4041333315427913,-0.6877234625195465,0.0856082490178055,-0.17819218081208055,MEKLRPEDPKAVMPYAKRLLQLSGFRQDTEQLGTRIYLNLFIFVAAILIPKVCFPYPDTEAMVRGLSELIFFTNIFVGLFCFIAQHRPYRELLNAIESFVNIVYRTSSQQPESLSERTLIKLNVKINQISVVYCYYVAVAAFTYWIAPCLITYLSIHKEQDIAGNGTMNAIQYYPNLEESFYWLDNRTSVRGYAVLSVVAFITFIFAVYSQTTKLLTILSTIKYCSTLLQLVNIAIEGLSSISPENIDLELKKLIQMHQLAIRCVALLNQTLSYVFALQLVLCMLTWCFTLLYVLVVRLDVTSMMSLLIMINLTPEMFGYCFFCSDLTTTGTTISRQMYEFQWERHRPAIQKTVAMVIARGQARLRITAWGIIPIDLELFAKVVKASYTVLLVLKDFI,r
CATS,0.2782424566005748,-1.0742859419605773,0.23498919343844493,0.3022196500627875,0.1980454753130546,0.3782909858443304,0.27766697834425635,-3.932464117698739,-1.816090808574209,0.11017249956950215,0.22776395121334392,0.03918876568721619,MNFLRQEQPAGMPHISIKLLQLFGVTGPPEERFRILPVMLAYFFFIVVPKCFFGYPDLEITIIGTAELIFQSNTFCGMFWLFLNRHKLAQFITQVRNFSLTVFRESPLAVVQHLTTQHDFIHKITRIYCIVVMFAAHFYVLTPLLSTFYAFYGMVRNDNATMHYTLQMEENFYGLQTRTTTSHYLLFGMIMTPTIYLCAFTGTVKILSICNITMYCTLYFQLVQLKLRTVTEDNTFRQEVKSIVVMHQDALNCASLVESITSLVLLQQLVLCVMIWSSMLLYFTVSGFDLNFINLLVLFAFDTTETIAYCYFGEQLSNESARVAHTVYESGWETQTPDIQKDLQLIIARAQRPVGITAGKFCYMNMEQLGIIVKTTYSIYVILRDQF,r
CATS,0.39619282430286057,-0.9749864429085667,0.5324831415191691,0.28756747817107453,0.219855065630436,0.6024491917974676,0.3386092443961557,-3.1571336554495506,-1.499700010249406,-0.5856277493532427,0.03474748569414332,0.3327817148152231,MNFLRQEQPAGMPHISIKLLRVFGVTNHSEERFRIVPVMLTYFFFIVVPKCFFGYPDLEITIIGTAELIFQTNSFCGMFLLFLNRRKLAEFIQHARSFSQTVIRASPPAVVQHLTTQHDMIHKITRIFCIVVMFAAHFYALAPFLSTLYTFYGTVRNKNATMHYTLQMEENFYGLQTRTSATHYLIFGVVMTPTAYLCAFTGTVKTLTICNITTYCTLYFQLVQLKLQTVTQDNTFRKELKSVIKMHQDALNCASLVESITSLVLLQQLLLCVLIWSSMLLYFTVSGFNVNFMNLFVLFVFDTTETFAYCYLGEKLSYESARVAHTVYESGWETQTTDIQKDLQLILVRAQSPVGITAGKFYYMNMEQFGIIVKTTYSFFVILRDQI,r
CATS,0.0932749794833619,-4.831689012749928,0.10675925952549392,-0.035661678269916175,0.13296397809567728,0.2058462295020117,0.056467108563542756,-23.376467492938502,-0.12860356074591417,-0.5117164642983021,0.021392052938564277,-0.16304959870548918,MRFFLIEKPPGVPHIALKLLRLVGVSQTQSERYRYVPMFVLFLLTIAIPKIAFGYPNFETSIIGLAELFFQTNRFVGVLLLVLYSDSIFELVRQSEFFAKKVLSETSPVAEYLTKMDTQVTKITKLYLTALLVPANFYSYSPIVATLWKYYNTYENDTVPEFTLHMEESFYRLNVREKLDHYLIFGAIMVPISFLCALVGTAKLVSILSLIKYCTIYFQLVKVKLEEVGRSQNYASDIRSAIQMHQSALSCADLLHDITAPIMLLQLVLCIMVWSSMLLYFTVAGFNTQFISLFILFMFDTTETFGYCYLGNQLSDESARVASVVYDCRWEGMPPALRKDLQLIMLRAQRSVGITAGKFCFMNMEQFGEVVKTTYSFFVVLRDQF,r
CATS,0.10773589918351327,-4.738110198110816,0.26386876699835793,-0.5782621058067388,0.38166286857860043,0.23934769327684235,0.2320622728705044,-17.11167390894201,-2.2267146191134195,-1.732916042114339,-2.364976582514723,-0.25426983786958557,MTSFKPSDDTDVMPLVLRLLRVIGVWDVPRYRYRYVAVFLFYVFGILVPKLCFGYPTLEAAIAGYTELILETNVFAGMLLFYQRYDHFVPLVDELRAFAAIVFQDNQPMFLRTNLTDLNLRIHKYTLCYCLYMCFCCTVYCVAPLGSNIAGYTAAMADTASNSSSSTTFAFTLYLEQGFYWLDNRTSLLGYCVCTVFMFPLMYLCAYTATVKVVAVFNMIKYCQTVLRIVVLKLRLLKTLPDVRQRSDGMSEVWVLHQRALRCAELLELVLQPLLLMQFVLCILIWCMMLLYFTVSGINVKFINMFLLFLFVSIETFGYCYLGTQLSQESINIGQALYASGWYEYDVQMRKYISFMIMRSQRRVGLTAAKFCFVDMEQFGAMLNMSYSFFVVLKDAF,r
CATS,0.28932564339739797,-9.689746418234712,0.36291293548934367,0.2094796507835356,0.23613398281154152,0.30104151109319877,0.3370601368093704,-36.82863646702369,-10.802093141895343,-0.32891346063460447,-0.03459893769361844,-0.4544900839263122,MLRLSPEDPKAVMPVVKRLLKLSGLTQETTRFGAINFLNLFIYIAAVLVPKVCFPYPNTEAMIRGLSELIFFTNVYVGFFCFISQHRHYRDLLNAIDSFVDVVYPTATHPSDSPSEQILIKFNVKIQKLSVVFCWYIAVTATFYWLAPCLMTYRSIYKASVSVENGSVQSIQYYPNLEESFYWLDNRSSVYGYAAFSIVALLVFTVASYNNATKLLTILTTIKYCNTLLQLVIIEVDNLNHATSNAIDRELKQVIQLHQRAVRCVALLNQTLSFVMTVQLALCILTWCFTLLYILTVGLDVTGMNGLLIMFNMTLEMFGYCFFCTELATTGTLIARQSYEFRWEEHDPKIQKMISTIVARSQLPLRITACGFITVNVELFAKVIKTTYSVFIVLKDFI,r
CATS,0.1613503907172083,-3.5276420559358237,0.22288322990286102,0.1488476285237611,0.17885815270595518,0.19940397231487417,0.056758970138590104,-15.886822808505414,-0.6952405305655638,-0.4051987158178285,-0.15835348382216652,-0.49259474096814304,MLRLSPEDPKAVMPFAKRLLWLSGFRQETEQLEKKIFFNLFVYVAALLIPKVCSPYPDSETIIRGLSELIFFTNVYVGYYCFVVQHRHYRDLLNEIQSFVNVVYPTSQQPESPSERTLIKLNVKINKFSVLYCWYLATAGLIYWGTPCLMTYHSVLKAKAEYGPNHPIRFYPNLEGSFYGLDNRTSVYGYAAFSIVALLVFAFASYNNATKLLTILSTIKYCSTLLQLVGVEVDNLNHTSSEAISRELKKVIQLHQLALRCVALLNQTLSFVMALQLALCILTWCFTLLYILIVGFNAIATNGLLIMINMTLEMFGYCFFCTELDTTGKIVSRQMYEFRWEQHRPTVQKMVAMIIARSQTPLQITACGFIPINLELFTKVVKHSYTVLAVLKDLI,r
CATS,-0.024293516996247398,-0.2906693713407326,0.003367606610204188,-0.009509755198496173,-0.08935692800677497,0.00510460776592736,-0.031073116152097402,-0.010789771213095323,-0.08002733796481976,-0.027990035005742042,-1.33026257756259,-0.004277134957415996,MKIWEKYLERKRTLYHAKYQTPQQLFDGACDIVIKCFAVCGGERMKPGYTRRNARLIFLVTDLILYLFVNLYSIAIVWGSLMDVVFCFVTLGIAIQGLAKIEAFTCPELNDLHLYNVARFKAPPRFREVDEALFHTATMCMVFIRIFAVAFSIVAIAIYSYAILMPLIEHELSLAFGFYLPFIDYRTPVGFAINWVYQFVQVLEGCIGLMACDSCLLVLIMNATGQMDVIIVYLKQLTLLIDNNHTGQHDDEIADIIKEIVLKHLEHTKYMTDMDKLLKKQFFINFGCMIFELVASLAIVVRVPWYPGMAICLICTNQLFINCALGTFLSSKNEKLVEEIYNVNWYGLTTKHQKTLQQILLTSQHPVVLSDGFSPIDLFNFVEIYKKIYSYLMVLQKVS,r
CATS,0.10532663668100299,-0.3157574712729866,0.052551363191481126,0.1508486222291574,0.04251225442433659,0.13722491981079443,0.14349602374924542,-0.38496106261842367,0.01806900156439739,0.027400509170380283,-0.7368303951282931,-0.5024654093529937,MEQEINQIISFLRRPLKWLGFDVIDPNWKVTPLTMFTIVMFALQHYTSYLYLSTHLDMFDMFTECFSTSAVALEIAIRMGLLVHQRELRNETIEIIRQQHKMFGNSAAIRKVTARFHKLISVTQHALAACYMSTMMFELIPIVSPNPRKSNLPLPMYLPYMPHDVTPYWHLNYTFITVMNLMCILFLVGIDGLLVLSILAAVHQIKLLKITIQELDIGAEQAELHRELVRIIQIHQRIQQFIHQLEQTYYIDLLVDFGLVCLILCMGLNVIADEVINAIWFFLIAVVFQLSLLCFSGNLLLIESDSLSSCVYSIDWHTMPVPEQKLLMVMIAHAQKPQVLRGIFMPLIMSSFLSVIKASYSYFTLLH,r
CATS,0.246193012868028,-5.211254400392196,0.3286094577284052,0.23980700582256642,0.17940828714276635,0.2706861694744974,0.21245414417190456,-24.33063795298666,-0.00013932749162504088,-0.8708491546212878,-0.6079177475245083,-0.24672781933690402,MDSNSKKDTFPLIQISTKMLQIIRLWNESSGQRMSTFGALLIAVFPIMWLIPSWLFIVSSQDNIKRLMKAINEQIVFCIVFLKFSFYAIHFRRWEQLFYDLQRSFSTVVNNPSLEIQTILGHVTKSTHKLTKYYCSIVSFNGAAYGLFPMLFIVVKYAVTGSYDVPLSTPIEGNYFIPGFRTNFWVWLPFNLAQNMVLQCHSFAVITIECFTWNLVYATSCMFRILQIQATELLDRSRDKKEWNIKFKTFIALHDSVLRSARTLEAILSGQILLLYVSTILAVCLGMVVLTLAIEDVYLLLTTFVAFGYCMFQMFSFSYLGTELIEQSEAVADGIFNSKWYEEDVKVQKDLSFVLMRAKKPVRLTAAKLFVVTRDSFTQVMKQAYTIFALMSQFLDDIAN,r
CATS,0.23619015284673148,-2.646948948446609,0.2542139357405401,0.2076312344561383,0.2891692813448772,0.21192201720657677,0.2180142954855252,-12.193388394849466,-0.029707087311656055,-0.3337330422590308,-0.3693765012848038,-0.3085397165280883,MKPSCKEGVFPLINLSIKLLKIVGFWNKTTGQRISVIGLLAVILYLLAWLIPNWLFIVSSQDNITRLIKATNEQILYFIAFFKLYFYVIHYRRWEKLFYDLQIAFSSVMTNPSPEIQGILGHVTKSTHNLTKYYSYVVNFNCAWYGVFRMLFIVVKYAVTGSYDVPLSTPIEAKYFIPGLHTNFWVWLPVTLGLNVLLEWHSLALVFVETFIWNLVYATSCMFRILQILANELSDRKRNEGIWTVEFEKFSTLHDSVLRSAGTLEEILSGHMLLLYVSTIFSLCLSMVVLSLPIDDFILLLTTFVAFGYCIFQTFSFSYLGTELIEQSEAVADAIFHSKWYTQKLNRQKDMCFLMMRANKPVKLTAAKLFVVTRDSFTQVIKQAYTIFTLMSQFLDNPVN,r
CATS,0.09775617991929182,-57.75196328165323,0.23537581755234172,0.2635310121281974,0.01583654668912049,-0.08534278897734082,0.059380312204140306,-287.9570263387335,-0.13857914295195872,-0.3780021435941858,0.03499097854343536,-0.3211997615298845,MKFFQIDDTREMLPIGCRLLKLCGLPCSGRVNRRFWLMCVFFFVFGQIPRFLIKLDEPIALVRVGAEIVYSTYIFLQLIALYARRSDLYRLIDTLQECVENPYPDDVRAFILSTRDTINKSSVMYSKCFLAVCISYIIMPFMATSAVVVRNRRNQTGEQEEYVMPTEMNFYYLDIRFNLLHYSLYFGAVIGLSVIGSLALCTKDVMDFSLIRTASMLFQATAQQIRNLPPGASQAKLKAIIHSHRSTLKCAAQLQNALNPALLIQITFCTAIWCLMLFYILLLGFTSKVMNVCLLLLVLTCETYSYCQLGTQFTSNAEEVLDELQQLAWYDQSIPIQKQIYFMIHRSQTRIELTAGKLFPVNIAQFSEIVKKSYSYYLVLKDIF,r
CATS,0.13385089089066188,-9.163669247068771,0.11604842637511659,0.3231347330696376,0.019969092406713518,0.06484351269372435,0.1452586899081173,-42.66479334438252,-0.34692652276020075,-0.1102684551522446,0.08158627717683753,-2.77794419022574,MLAAETVDFFRVQSICLRAIGIARTDSFRGRVLFAVSFFTVLVMMLGTVMFAFKHIDQIMLLCDCLGPTFTAYLGLVRQYNLLQHRSELWSIVDEFAALKHSLQSSEIRIVQKYNRIDRFLAWAYLITAMSTGVLFVGVALVLVFLSEKSDWKLPLLMDFPFDVKHPVTFTIFFVWCSVAIFWVVLDCVACDSTFGTFSSCLVAHFVIIQERFEGLRFDEGNRELKKLIEHHKYILRISDRVINAYKNVILNQLLISSVLLCMLGFQLVISVGTNIMVVYVAYGMAITIQVTYYCYYGSQLYYESTQVHDAVFKSKWYDASVATQKMLINCMMRAKKPVNAKSGFTQASLPALNAILNSAGSYVALLMSLME,r
CATS,-0.04763866640394605,-0.4002815328789498,-0.13388603690382128,-0.005140282856324063,-0.03534007232295111,-0.030751935181919876,-0.03307500475471392,-1.4196089523422897,-0.005872646644066615,-0.3301453446093998,-0.15987577405389275,-0.08590494674510007,MSQLNEFPAYQFRLIRFCGVVEQPSLKNNVRCLFAFILLCSFGPLHVWYLAKTPVLDLVVTCEEIMLIQLCFVMLLKFNLFITYRSGMYNLVEAFKRILKCIDKAEFARFVKCSELHAKLLRAYVIGTSIVLLLYELNAIVASITLSLQQNKVCFVTPFSFPFDYQHPFVFALTFLHNFDAMLVTVCTSVTVDSCFSEMASNLTIHFDIVRERFEKLDLSAAQPYAEHQLRNVITYHREVLSLAQKMVQLYQQSAFYLLLLVSTILCLLGYEFVMVSNIYKRMQVAILASIMIGQAAIYTYHGSAISAKSVSVADAIYGTNWYDAPLAVKKLVYICLMRAQKPVIMKSGFIEASLPTLKKILSSSASYITMLMSLEADLNEKKT,r
CATS,0.09731512436873749,-0.6087333449488744,-0.057280730358169274,0.2406776912620251,0.06490069971124013,-0.10609006845783653,0.344368029686428,-1.9044659942234228,-0.0013869707567613077,-1.0297687271348432,-0.18628368430747866,0.07823865167813393,MEYIYRWILRDDTFAKEVYIKYNFTKLRTLGIYKAASKTRLARRAGFYALELFFLLQLGTIVWDLATVLGDIGLFGDDMCILAGLLLTLAKKWHCVLYIDELWECVEQMQTYHEHYLLQGEWFVRRMRHQNLQERMLQDASKLLATLLASCLMVNALFSNSETLILRAIYPFSTATTLGYGCVFVCQAFLIVYVLYSMVLIDCIGAQALSQMALLFCMQRKQFELIGADLQLPPEGPLHGDRSIRDQVYSAIASHQQLLSFCNRLKRLYEPNIMAQFVCSMLIICLTAFELMFAKGDPMQMVRFGAYMLAGFYQVFVWSFFGNRVTNMSTGISDATISCNWIVLADGLKKDLRFTTMRSQKPFVIDVYWLFPLTYETFIAILSRSYSIFTLLRTMIE,r
CATS,-0.14782256701712573,-0.3299931910388084,-0.012984001439172,-0.10604761530548301,-0.4781702228846121,-0.1225040136669504,-0.019406981789411137,-0.16321446656045002,-0.004511692132299183,-0.2149202758278177,-0.0948216750616726,-1.1724978456118027,MSCVEDFLDAQMWYLRYCGVFREKSALGGIRLSVCLGVLVVFMVLQSIYIFQHVHHFAMICDAIPTLVVCMVAISKFYIFVFHPAALFALIDSFKALQRRASREDLLLFRRSGAFHAKLTKIYMTSALIVGWFYILSAIVSGISRSLAEGRVHFVAPMAFPHNYQHPVMFALTFLFNCDSIHMSIFISGSVDTCFSELATSVTIHFQLIQRQFQTVDFAARTAEDELEVVVAYHKDVLQLCLAMTNLFQYTVFYLLLLDSVLLCVIGYQFVIFMNTPRVLMLASMAFVMVLQAVIYCYHGSMMYDESLKVADAIYQSNWYEAPPAVQKRLRLCIMRAQKPIVTKGGFIKATLPTLKKILNSTGSYITMLLSLETEQ,r
CATS,0.18180588054186392,-34.55426865593244,0.2054130364218757,0.1538955854956664,0.25518702393684023,0.13709338644264946,0.15744037041228776,-172.88128131813727,0.04540636315261948,-0.21740527324058845,0.16528692578765303,0.11665002277537972,MIITVAPVTDARPQTPEDCGMFKFQRKILLIFGCWPPDRLTRRWYVKVLIAVNLITLAICIVGEFRYCLYAYRNGSLIETIESICPTVARFSGLLRMCWFLRNEHKIESALNSVVYLIKNEHPRETGYTNRITARDQTLTKVLFHSSFITAILYGIIPYFMMAYNWFQGQYPLVKLLPFKVVLPYDSQDPTLFILTTIFLNYASAPTVTAMTSSDTLFSGVCFYLQGQFQAIRLELEALAETVDKNTLKSSAAETLRINLELRRINKRHQTIIDVVSEVRHAFTPTILIVHICAAFMICVISMAMFLAEGINKLTYMPYTFTVLMLLFMYSYSGTIVRDSSEAIQTVAYGFPWYRFDRNTRHLVQMMMVRAKYGCNVDVPFFQTSMATFSVIVRSAMSYITLMKSFL,r
CATS,0.0833755318593851,-2.4952443479466377,0.001518230932440856,0.11731492165373425,0.08087224843786756,0.038207840054385156,0.17896441821849762,-10.396177133610808,0.03836677095365426,-0.6290024666133269,-0.22275226246600788,-1.266656647996701,MVSFGAAASNPRDAETTPQWDIFKLQRKILLIFGVWPADRLVRSWYVKVLIAINLATLAICMVGEFLHGLYAYQEGDLSESIESICPTVARISGFLRMVFYLANEEKIHRVLNNISKTLQDEHPREHTITKQLTTLGQQFTFYLFLMMFFAACLYGVTPFFIMIYNWVQGQRPLVKLLPFKLALPYDSQNLFHFVVTTLFLNYASAPTITSQSGSDALFSGVCLYIYGQFQAIRLEVEALAETVDRNTLKSSAAETHRINLELRRISKRHQAIIDLVSEVRSAFTPNVLLVYTATAIIMCIVCIAMLVVEGIYKLTYLPYAFAELTLLFLYSYSGTIIRDSSEAVQTVAYDFPWYRYDRNTRHLIQMMMIRAQYGSNVDVPFFETSMASFSAIVRTASSYITLMKSFL,r
CATS,0.18383890362058375,-1.2535066352938458,0.2766374207825314,0.2962174129900321,0.15119144680812135,0.11252244442792136,0.0826257930943125,-1.743668002356268,-0.21779553925062567,-1.5225689217684844,-0.23706842191095245,-2.546432291182898,MSEHPIHTFDRLIKRQRLLLKLIGIDSYDPAFRIHSLTFMLVCLALTFFVISLYDLYLFRDDLFNFVYVLITIFFATIGIGHISVFLLCSKLLAELLEQSYRTYRLVVDDQREQRILQWYTRLFQRAVDGYTLVFIGTSVAAGLLPLAIYLLSGDRVLPYGVVLPFVDPDSLVGYELNYIYQVSCIIWTPPGLVASVCMLFGLVLNICIQYDILAVKLQDLDELIRSPHPHRDAMIGCKLRSILRNQQRLISFIANIEAAKNVHSAVEVLSLGLQIVITLFVLQFSLWIPGLVLIPVFTMQLFLFCLLGTIIEDKGVKFSAGVYSLTWNELSKQDKQIFRLLLLSSQQPQTLTCAGMTCISLNLFVNMSQKFYSIFMMLRNM,r
CATS,0.14125623928375516,-0.4731777444040768,0.22471026652514647,0.35164096757271923,0.03419648943638043,0.19049546931999484,-0.09476199643546512,-1.5831324834095586,0.04245857967118505,-0.6053639957796781,-0.18763613239514343,-0.03221469010718869,METHIGKQHSLERFQAMVAWQNRVLALFGCYMYLGKERVSYRIVPICFMACSFVLLSLYSAVQARGNMGQAVLSIVVLFYGIIGVTRLAVAISNPAGCYRSIQIAEEMYQRANGSNPAECNVLAKYTDLFCKSVQLYTVCFVLSVVVLTLMPFALYLLRGERYLPLGIVLPFTAETDDFGFWCTLVVQLAYMYTGPFGLIPSQNIYFAFVFNICLQYELLIERLKQLDERIRSSNNLKLTVRDQLVKIIQLQQESTNYITHIERFYQLQSFVEFLCNSLQVALTLNELHRNFWLPGLFILPIAVMQMLILCSLGTLIELKSDQFKDQLYDIAWPEMDLPEQGMFKYVLKSAQQPKQLTCGRFAVINMNLFLAIHKKIYSFFMMLQNM,r
CATS,0.12952603502027685,-0.3431357234036735,0.11296722955617011,0.07877378659674694,0.13119376192982535,0.035598274843475664,0.28909712217516614,-0.2913262055642878,0.11528512573730887,-0.8663092740139886,-0.23034832120846982,-0.4429799419689302,MTFTLSHDLYVYNLHLIRWFASFVGLDIMAPNYKPNILTFLAFFGLSISLIGEVYTVWYFWPILDKLMESAAIFGVFIQGLAKFYTALRYRKFFEAMYNRLDLFHYEYRNHEKNNATLLLLMNRICLLRKLITSQFSISILTLMVTPVAQYILKGERFLVYTIILPFTDPEITSHYLLNLVVQYYLLIVGLAGFSAAENVLILFVTSVAGYADVLKNKINEMNTLLLDAQNSRDRTSVKLKLREIVLLHQRVLEYEDDLDKRYYLNNWVQVASSIFNLTGALFGCYVSNSFTMYALAITIVIQLFELCLLGTILSIKNEEIEHAFYDSLWYLMDHSEKKDFLIMFHKCQHAKEMTVASMAPLNIVLFIAIMQKIYALAMMMMRFSE,r
CATS,-0.01870652910417676,-0.5382178089039226,-0.10026979609994413,0.09585418749899599,-0.12913443878001507,0.21223747417245487,-0.17222007231237546,-1.715751657374767,-0.016454356836039352,-1.0724310520795934,0.049264389391106445,0.0642836323796806,MTFTLSHDLYVYNLHLIRWFASFVGLDIMAPNYKPNILTFLAFFGLSISLIGEVYTVWYYWPNLVKLMESAAVYGVFIQGLAKFYTALRYRKFFEAMYNRLDLFHYEYRNHEKNNATLLLLMNRICLLRKFITSQIIGCILVLSLNPVIQYIIKRERVLVYAILLPFSDPEITSHYLLNLIVQYYLMIAGIGGFAAAESVLILFVTSVAGYADVLKNKIDEMNIILLDAQNSRDRTPVKLKLREIVLLHQRVLEYEDDLEKRYYLNNWVQVASSIFNLTGALFGCYVSNSFTMYALAIAVVVQLFELCLLGTILSIKNEEIEHAFYDSLWYLMDHSEKKDFLIMFHKCQHAMEMTVASMAPLNIVLFIAIMQKIYAYAMMLMNFFE,r
CATS,0.11891495327757964,-1.227793987928588,0.2444947419804242,0.26295921435368363,-0.15792451632999782,0.022583678262703466,0.2224616481210847,-4.46041400474546,-0.18861283081243307,-0.502351728881246,-0.19898172821482274,-0.7886096469889778,MPRATSNSAANLERLVIRISSHMAVLKLNIIDPAWRPTLRFGIVLFLTALVPVYIWQGIKVYRTRFETLLEVLSVAGCGWQMFFRMYFYLFQQDRCRQIVQEVRDQRTVYGADRNPRMEKLFRAGTKRMLLAYRVIHLMYGTSYFFQLGPLIMPDPHKCNLPLALQLPFLPPDRNMVYYCINYAHHLLLNTIGVFILLPMDGVLIVALLNICTRIAAMQLLLEELDAKLGTVQWQQTAHLDAELNRIIELHIDTKRFARVIYETYQMHFFSMFSVLCFVICMCMNVVARDPRSTLIPFGLASTGQLFVICMLGNVLYIVSDRLKDSVYGIRWYRCTVSQQKRLLFLLANAQPEIVMGAVFIPVTMTSFVTIIRAAYSYFTILY,r
CATS,0.03190814277742708,-0.5989540943867346,0.0833091693852086,-0.056807339935367906,0.08322828390889347,0.11368477880563865,-0.0638741782772374,-1.1421917803476318,-1.1636586177761403,-0.44851612240838734,-0.20971509157158819,-0.030688859829925752,MVVFDPLDDPLKVLPLPLKLLALLGVNKNPSERFRLYAIYIYLWVAMFIPKLCLGYETIPQCFRSIAEGMFSFNTTVTFIMLPLKMDNFEGLLQNLQRFTQIVTVEEDYKQILISLNTTIHKFTKFYFIFTNGVVFSITGSTIAGMLYTYYTKDSKYSAAFPLVMENRFYVLDSHYNLGHCFVHQALMFFALYILLVMFTAKAGTLFGLIRFCSTVLGIIVLKIERLSQIGPVDQYTAELSEIIELHQLVIKCSRQLQNILMEILLAQFTGCVFIWCFMLYYVMISGITAEGIAVGAMLIALSTETFIFCLLGNELTLKGLEISTAMYSTNWYDQPVKLQKMVVPIIQQSQQRIGITAAKFYYIDYNRYGQSLKTAYSFYLLLKDIF,r
CATS,0.1628573084631239,-12.106355080558089,0.2225582453590227,0.2963838524693294,-0.00015927225808631817,0.14536822428336582,0.15013549246198798,-59.503902081825025,-0.15298181772084063,-0.2912708177452612,-0.39744383951791384,-0.18617684598140172,MVNLFARTPADNFRVMPYNLRLFAMLGLWGDRRKLYRLYVLLLLAYVAIIFPKPVRITDRHPFESIVRSVSELIFAALCYLTIIILAIKSEPFRAVIRKLEQALELFRDKQDQCSQLIIEVNANIHRFSLGYAKLNLLYVLLFNIIPPIYNYPRYFLQWRMPEDNRTVEFMLPLMQDLYGLDVHHNIVHYTISWVAITPFCVFFALILWFKGALFMLIRYNTLLYQLVNRLLQQYDRESAGGLLAQKHRRLQQIVQLHYSAIECTKLLDSILSLILLIQCIGCLLMLCLMLFYITRNHSLNVINIAVLLMSIFIEMMCFSYLGNQLTEENANISHSAFNCRWYDEPIVIRKYFLRIILQAHRKATITAGKFYNVNIVTFAQLIKTSYTYYMIMKEMF,r
CATS,0.2583923732197292,-2.087811827211053,0.47033804136381663,0.12661007933924662,0.19051055226216818,0.26420337858785437,0.24029981454556015,-9.249855929123195,-0.27795592459933594,-0.2862738864434007,-0.223570394313227,-0.4014030015761081,MLSLRPEDPKAVMPFAKRLLRLSGFSPGTEQLGRCIYVNLSIYITVILVPKVCFPYPNTEAMIRGLGELIYFTNVYVGFFCFVVQHRHYRDLLDEIQSFVNIVYPTSQQPESLSERTLIKLNVKINILSVLYCRYIVVAAFIYWMVPCVVTYSSIHKAEVSMGNESIQSIQYYPNLEESFYWLDNRSSVSGYAAFSAVALIVFAFASYNHVTKLLTILSTIKYCSTLFHLVSIGIDELNLVSPAHIDRELKKLIQMHQLAIRCDVLLNQTLSYVMALQLALGTLTWCFTLLYILIIGLDVTAMMGLLIMMNMTSEMLGYCLFCTELTNTATTISQQIYVFQWEKHSPAVQKMVAMIIARGQAPLQIKACGFIPINLELFAKVVKTSYSVLIVLRDFV,r
CATS,0.05156799227393081,-1.171009123559116,0.1605820465045502,-0.03259107411479856,0.007205137649217708,0.0630601600609505,0.059583691269734174,-4.7182075968916,-0.00034745636267929925,-0.7395779753273848,-0.36567129688491384,-0.031241292329002857,MKLLELDNPREAIAIGCRLLKLFGLGRDERFKLVYWLQCVAYLAFSIVPRLLVEIEDMVALMRLIAELVFVVYLCLQIMALYCRRRQLYRLVDMLQQCIDIPYSEQIESFLIRSNVKINQSSAAYARFFMCVYVLYCTMSPLASGFVYIRNQRNATGVQEEFIITTEMNLYDLDIRYNPLHYSIYAGLIFVLSAISSLSLCTKDVIDIAAIKTVTLVFGIVTMQIRDLHEQITQERLNRVIKSHSNALSCATQLEQALNLSVLFQFASCSAIWCLMLFYILLMGLDSRVLSVVLLLVIVSIETYAYCMLGSQLTTQGEDLLMALQQLSWYDQPVPIQRQILLMIRRSQTPLILRAGKLFSANVVQFGDIVQKSYSFFLVLKNVF,r
CATS,0.01034062171973682,-1.077276688470933,0.08347571314889257,0.08058506069338678,0.0897093120406055,-0.23752711677476146,0.035460139490560705,-0.3784155805988392,-0.1261800933359407,-1.0793437795952148,-0.09749077135508233,-3.7049532174695887,MYYLEQLRALVRRYLERRSPDPRIQHTFIVQSINRVGGMLGIDIFTPGYSSTNLLLRMVLLNTFTFFWINLYSLTTTYGNLVDFMYSFETLLYVGIACIKMYVFIKNKTLILQMHQYMIDFFDHFHGDREQDELLVRTLNNTTLLSSLFAVCSSSAPGLLFVGSLLWSIAVEYVLPFGFFIPTVGMDTLQGYTLNYGFQMLETTLMVIGIISSESAFFMFQQNACLQVDMLRLQLRRLSELSAANGDGSSTKEIRTRIQTIIQHHVEHLDYSKSMCSLFELHFFIVFGCIFFQLVSNVVVIVSVPDWYPGYFLFIMLTVQLFFSCALGETFNIKSDELTVAIYNVPWYNMEVRDQKAMRLLLMASQNPGRLSYGFGTVNMRAFFEIFRKTYSIAMMMISVNEEE,r
CATS,0.23840988604865646,-21.096367211103583,0.33411454914531835,0.3080980794691077,0.1430050141700343,0.2166133573170821,0.1902184301417399,-103.80827895621515,-0.6836055876407079,-0.6489458934870347,-0.17617041343354556,-0.16483520474147628,MDIVSKQGEFPLVKLSTKLLRIIRFWNDSPGQRIPSFGLLVTAIYPLIWLIPSWLFLVSSQDNITRFMKAANEQIVFSLICCKLCFYAIHFRRWEKLFYDLQRSFSSVLNNPSLEIQTILGHVTKSTHNLTKYYCSTVSFNCAAYGLFPMLFIVVKYAVTGSYDVPLSTPIEANYFIPGLRTNFWVWLPVNITLSAMLELHGFALFFVETFTWNLVYATSCMFRILQIQVNELSHQSRNEKEWNGKLKTFIALHDSVLRSAETLEEILSLQMLLLYISTILALCLGMVVLSLAVNEVYVLLTTMTVFGYCIFQTFSFSYLGTELIEQSEAVADAIFHSKWYTQKLNRQKDMCFLMMRANKPVKLTAAKLFVVTRDSFTQVIKQAYTIFTLMSQFLDNPVN,r
CATS,0.2111196223868117,-10.762262206402905,0.33650103440800927,0.1566252541888148,0.3123657193066032,0.1557962185737498,0.09430988545688146,-52.09561628689944,-0.07262738428328763,-1.211195742321829,-0.366820406878533,-0.0650512116314339,MDIVSKQGEFPLVKLSTKLLRIIRFWNDSPGQRIPSFGLLVTAIYPLIWLIPSWLFLVSSQDNITRFMKAANELMVFSLIFCKLFFYAIHFRRWEKLYYDLQRSFSSVLNNPNLGIQTILGHVTKSTHKLTKYYCSTVSFNCAAYGLFPMLFIVVKYAVTGSYDVPLSTPIEANYFIPGLRTNFWVWLPVNLTLSAMLELHGFALFFVETFTWNLVYATSCMFRILQILANELSHQSRNEKEWNGKLKTFIALHDSVLRSAETLEEILSLQMLLLYISTILALCLGMVVLSLAVNEVYVLLTTMAVFGYCIFQTFSFSYLGTELIEQCEAVADAIFHSKWYTQKLNRQKDMCFLMMRAKRPVKLTAAKLFVVTRDSFTQVIKQAYTIFALMSQVLDDTMG,r
CATS,0.07408144076733972,-0.7644147353924771,0.05785469333104909,-9.607135032707603e-05,0.13908503024483476,0.06234182975259639,0.1112217218585454,-3.315117317503649,-0.05410490105380106,-0.08262163637850839,-0.16031098347382833,-0.2099188385525983,MFSASAEMEWFRQQRHAICHLREASDYLRYLRPFQLIAGYPINPRPALSKLATVVRLLAYLAYLGTLLHKISYVLYRPEDINYVSFVSGGITVLVAVLLLMLIFTVHYDAFQQLGTFLNDRAFARDHPLATGIRDRWYRWSNGLILGPQFCILLILLQTWISRQHLKKHTMLVVRGEPVGTEFDHFLYVSCLYFPTVGFFMGCSIVNAMLVGFLGEMELLATCLGEVFETVERQVKEEGPTGQPDSRAHYWSTLHGELRRCAQRHCAIFTMLPKLQRMASFVFLQHHIFSLGLVVAGSYVTLRGPALRENIVLSEYPISVVLEYFIFCQLVEKLQDMNRSIGDRLYGTEWMLKLQYSRDFQREYRSAALTIRLLIMRSQHRVRFTCGSINPVSMEKFTEFLNLSYSIVMFLLSIN,r
CATS,0.16700679125587972,-0.9786747301198924,0.15985964976300027,0.22193306102742516,0.21524707723246195,0.08164511370004746,0.15634905455646375,-2.483818683008041,-0.0002153758760961022,-0.5682078232663235,-1.7827469976919836,-0.058384770757017534,MWHHQVQLWFRFLLGRFTTFTDSSDYFGLYKTLATISAIHYDASCWFDRAIWIVYRSLPILVNISYFYKAYRLILFPEDNTSAASVIASVWGFTEGTLRICLIELRYGTLASIMSFLNERSYRQQDSLVRQQRATLFGENNRIQLILVATMLMEAIWFMTTQLFSRDAFMLQVNGHVVDSIAVQILYGLLSNVWGLIYVLSFAIFYIIMNTFHLEMSILLDGITSVQFTVMRRLKQRMETLAASGHSSTMEQQVFWSILQPELNSHISRHVDLLDNLKDFSSIVGPFSFVQYYGTLALIADCGFILSIEGLSANGMIYLLFVTVLVFQSFILCRGIEKLNDLNEAIGQALYSGFDWPDMLRYDERFRRQYVTVRHTLMLVIGRSQKGFQCSYGGLGSISMERFAQLMQKSYSLLTILLQFAK,r
CATS,0.018974747531360792,-1.4820305914497287,0.021478042555599486,-0.024062532173217077,0.05555344718902344,0.0028499359414065895,0.03905484414399152,-7.018652869294481,-0.004235463414856699,-0.3860090177264264,0.004008075094953045,-0.00526368190783244,MYLTQLFASMRTQFLHRITHYTKHSDFFIMQRYFEKIYAIHYTPHGWHDRILWYLYRALYGLIYLSYIHKTHWVLHHPQDSFSTANILGVMWFFSVVILRVAILEWYYPLMLRMQTFLNNHTSYQRTDPWAVGRRARFYRRTNRVILTVMGINLAETVCFTATNVMKLDEFMLQFRGAIVGGWPVQIVYGVLTMGFGGMYCMGFMMCYLLLSIFKLEVDILIRSLEEVERSDRLESDFGDSADIFWNNIVDQLRPHMQRLDELFIQLQHLKAVIGPIAFVQYYSTYLIIADCCLILVSHGLSSFSIVYFISMLVFLTESFLLCHGVENLRDLKPRIASTVYDFDWMLQMRCPNPRHRAQYRHVRRTLLLLTAQSDQTIQFSFAGIGEISMNSFAQLLEKSYSMLTFLLQFAK,r
CATS,0.031007778442327095,-1.0535980739640185,0.07733259609295429,0.16116854676611014,0.10637973260821909,0.054410638237514575,-0.24425262149316262,-3.6715116429920425,-0.28391977240812016,-0.10863704801874752,-0.9947023032642737,-0.20921960313690846,MFHPSRWMAKCRVWYAATFKFSADADYFFLVQPLCRSLQLFGNPVRCLLEFGTVRGLFVQLCRFLFLLPYASFALKSYWQLNHPLDTNNSILTYGSFVIYMLWAILIWVLNHYEHEMCELRLFFKNPTYQEQSNWAHRIRAGNYRRWNWMILMFYLFNVINVSIFTLTNAHNRQFHFQTRGEVVGPLYFQIIVEIFTGYLSLGYFVPSCIMLMTLQLFRTEMHILTTTLKQAANEEQQQQQHQHAVDIRCAYRSFCKQFYANIRRHTELLQSIATFCKVFSPISVVLYYGALITITCTCFYVMKHDVSTTTVCYAGFAVYMLFNTLLFCKSIDSVNDLHTEVGYIMYSEYWPATLQYADQGLSTETLRPLRRSILIVLQQTLRPLRFGYGVSGSLSMQRFGEFMQQIYSLIMFLAQLN,r
CATS,0.16582996746027845,-1.2169702232625088,-0.00576244900342493,0.30431446421147823,0.1088374461514019,0.30613947579936707,0.11562090014256998,-3.108622098238243,-0.6857460423117245,-0.3191788474472741,-0.16202390028308367,-1.8092802280322182,MVKFFRCCKARVSPELLSKKNEKPETFLPSLRMILFIFRMFYAWPDEQSMAPNALWWYRAKGVLFRTFFIYLSAAAQLAYNFTVTSREELFAGMFVLLTQLVLILKMEFFYKNVSKIQQLIRRLNGKRYQQSGNAEEDMPLVSARKKSTIFWALYFMFSVGLATEWLVISLSLTTLIVPVWPVVDHTTPYWVYLMVILHQYVAIALNASFNISWDSLVAALLALTNAHLHRLQIQLMKLGHRKHLHRPKNAKKRMIAISSFEDNARSVQTKSDADEVYNELLQCIIFHQEVTGFLRKVLDLFSGPLLAQLYCSVFILCITEFRLLTDVNTMADTVQAVIYLLCLVIQVAQYCYFGNEINYMAQKVHRATAFVNYPDMNIKCRKLLIAFQQITAVGIKCSAKYVFTIQLSMETFVTILKTSYSYLAVLRSMTD,r
CATS,-0.006361452062037176,-0.32188578031200427,0.13646864251368218,0.09690269752989111,0.01073383594582411,-0.24513947713681294,-0.03077295916277034,0.2080595141355197,-0.05507494567411264,-0.572918976700389,-0.36728964765216143,-0.822204845668878,MEASEKFSQFERYIRTLCNIIGFDVMTETWKKSYRTYISIFLCSQYLILMVYSLIIASDTFELFKSLSFLGFFFQCSLKMYYTIQQAPQYAVNFCCLKEAIYERHSKGTLAQKTTVARIIDLLVLVTKAISVLYTSSLFIFSLYPAYMYFVVHVKVPIFPLYIPGINIYSAYGYGITNSFHMLIAVYGLFGALTSDIVFIMFVVHFVTYGGLFKIECEQFDQDLSGVFQHCEWRTAVYKTFCRQRMRAIYQYHQSVIFYLESMQECYRNICVVQVASCSLSTVFNLFLALTTDWYATYGFIVISVFQLFVYCLMGTVMQIMNERMIDYISNLPWYMLPTEEQKQFKFMLARSQLSAEIMIRSVGPMNMETFTDIMQKMYSAFAMMYSFLVDLG,r
CATS,-0.09584586766899587,-0.3792096685337857,0.05510539681000959,0.05512296019242657,-0.35943297220332204,-0.4331587552106928,0.2031340320665993,-0.04076222287165465,-0.24528058010677012,-0.15089364887588785,-0.009674716027448627,-1.449437174787167,MEASEKFCQFERYLRTLCKIIGFDVMTETWKKSYQTYMSILLCSQYFILMVYSLIIASDTFELFKSLSFLGFFFQCSLKIYYTIQQAPQYAVNFSCLKEAIYERHSKGTLAQKTTITRIIDLLVLMTKAISVLYTSSLFIFSLYPAYMYFVVHVKVPIFPLYIPGINIYSAYGYGITNSLHMVIAVYGLLGALTSDIAFIMFVVHFVTYGGLFKIECEQFDQDLSGVLQHCEWRTVVYKTFCRQRMRAIYQYHQSVIFYLESMQECYRNICVVQVASCSLSTVFNLFLALTTDWYATYGFIVISVFQLFVYCLMGTVMQIMNERMIDYISNLPWYMLPTEEQKQFKFMLARSQLSAEIMIRSVGPMNMETFTDIMQKMYSAFAMMYSFLVDLG,r
CATS,0.02723621066361337,-0.3632588569614519,-0.0017478078289265842,0.020435588044448116,0.06558811856110114,-0.017233211017794625,0.0691383655592388,-0.5392444268810963,-0.5038170382311966,-0.45107288371251,-0.2824662789652759,-0.03969365701718064,MANVEEFRKLMKSLIVCSKVAGVEMWTAPGKLKPASYYLSFHITVYFVSTVWTLRKYIDDPIHMMKVLITMGTAVQLYIKFFVAHSKAQEVKLFTVELEQEVLKRYQNGSEEETAVLRRTGRILWIVHRLMSASYIFVAVAFGLYPAFYYFATGKVMPLFLYELPFFNVSSSLGYAVTMGFQINLLAIGVLGAILSDFMFFMYAMYAMARADISIVHLSELENILNDSTKNEEHSANVRHKWIQCMHDHQQSTSFFSTVENIFGLMCLAQVSTATLSICDAMLLVLLTDWYPTYSYLYVVFVQLSGFFVIGHLVELKIDALYNKIISMPWYRLPVKEQKEFRFLLSRQQCPMILTAYGFHPMNFEAYMSVLKGLYQFFVMILQYIGRN,r
CATS,-0.0016496328009036442,-1.576956931078847,0.013883475573554183,-0.030995721183481928,0.06104481585289334,0.015721928825561005,-0.06790266307304482,-7.509949179563284,-0.06098608513549264,0.018880378398649866,-0.140032454742673,-0.19269731435143478,MTVVHRIVSFGYNLLQRHFNVGHPTEQFFLLRCLDVVSPAMLLQRPRSNLEVALKTLCLSVMVAHTIALAYDFSQQTDVRLAMDMLCMLSLFVSIILRGTCMRQYLAHIDALDRLERRPTFRVGTPYADESRRNVALQNNRYLGVALVFHSLTVTVYVIQNMVRENSFVKIITSFPIDLSERAPVLERVADLCYSLVGYIWGWYHGATQLTIIVLLRYAITEFRVFLHSLDSLDDQLRQRREQSQGAPDEERILRKLLYEHARHHSQLIVVVTHLRTLLHNYSLVHFSFYMIIVATFMTRVLIIPGRSSFGLAIPLLVTTIYFLETFGMCMLVEMLVQLNRKVSTSLYGFSWPQYLRYGRTIKRPMMLMIMQANMTKDFSAGGLTTVSAELFAKTCRMIYTMMMFMANMAT,r
CATS,0.05944716840217925,-0.6243805861498439,-0.021011740336550178,0.07494648375727198,-0.0026512351832426173,0.0687820163408005,0.17717031743261658,-2.634703266359111,-0.0497445156561116,-0.639456306178668,0.12755491609282577,0.07444624135184508,MTVVHRIVSFGYNLLQRHFNVGHPTEQFFLLRCLDVVSPAMLLQRPRSNLEVALKTLCLSVMVAHTIALAYDFSQQMDVRLALDMLCMLSLFVSIILRSTCMRQYLSHIDALDRLERRPTLRVGTPYADESRRNVALQNSRYLGVALVMHSLTVTMYVIQNMVRENSFVKIITSFPIDLSERAPVLERVADLCYSLVGYVWGWYHGATQLTIIVLLRYAITEFRVFLHSLDSLDDQLRQRREQAQGAPDEERILRELLYEHARHHSQLIVVVTHLRTLLRNYSLVHFFFYMIIVATFMTRVLIIPGRSSFGLAIPLLTTTIYFFETFGMCMLVEMLVQLNRKVSTSLYGFSWPQYLRYGRTIKRPMMLMIMQANMTKDFSAGGLTTVSAELFAKTCRMIYTMMMFMANMAT,r
MordredDescriptors,0.09792814520574789,-14.153066806030719,-0.07275880549779279,0.06707316027111132,-0.001962878151493319,0.12262578431031035,0.37466346509660386,-62.01652298420584,-8.538257719978729,-0.008113216292207959,-0.20262585979989622,0.00018575012306720762,MKLNKLNPRWDAYDRRDSFWLQLLCLKYLGLWPPEDTDQATRNRYIAYGWALRIMFLHLYALTQALYFKDVKDINDIANALFVLMTQVTLIYKLEKFNYNIARIQACLRKLNCTLYHPKQREEFSPVLQSMSGVFWLMIFLMFVAIFTIIMWVMSPAFDNERRLPVPAWFPVDYHHSDIVYGVLFLYQTIGIVMSATYNFSTDTMFSGLMLHINGQIVRLGSMVKKLGHDVPPERQLVATDAEWKEMRKRIDHHSKVYGTMYAKVTECVLFHKDILSFGDEVQDIFQGSIFAQVCASVIIICMTLLQATGDDVTMADLLGCGFYLLVMTSQVFIFCYVGNEISYTTDKFTEFVGFSNYFKFDKRTSQAMIFFLQMTLKDVHIKVGSVLKVTLNLHTFLQIMKLSYSYLAVLQSMESE,r
MordredDescriptors,0.23249284821920085,-3.678236168162931,0.42957053061065553,0.26717678577743065,0.15309422305806275,0.16070135203823088,0.1519213496116245,-13.689350020092428,-1.7142694045805804,-3.143743265815224,0.017058097133061723,0.13912375254051457,MLIEECPIIGVNVRVWLFWSYLRRPRLSRFLVGCIPVAVLNVFQFLKLYSSWGDMSELIINGYFTVLYFNLVLRTSFLVINRRKFETFFEGVAAEYALLEKNDDIRPVLERYTRRGRMLSISNLWLGAFISACFVTYPLFVPGRGLPYGVTIPGVDVLATPTYQVVFVLQVYLTFPACCMYIPFTSFYATCTLFALVQIAALKQRLGRLGRHSGTTATTGHSTGTLFAELKECLKYHKQIIQYVHDLNSLVTHLCLLEFLSFGMMLCALLFLLSISNQLAQMIMIGSYIFMILSQMFAFYWHANEVLEQSLGIGDAIYNGAWPDFEEPIRKRLILIIARAQRPMVIKVGNVYPMTLEMFQKLLNVSYSYFTLLRRVYN,r
MordredDescriptors,0.08590729959035433,-0.7738734955131377,0.10678740283910249,0.08842147961590507,0.1044566750763456,0.10098342853472142,0.028887511885697048,-1.9179569189823158,0.007176326722720616,-0.5257943736852593,-0.12309877982129591,-1.309693731799538,MVLPKLKDETAVMPFLLRIQTIAGLWGDRSQRYRFYLIFSYFCAMVVLPKVLFGYPDLEVAVRGTAELMFESNAFFGMLMFSFQRDNYERLVHQLQDLAALVLQDLPTELGEYLISVNRRVDRFSKIYCCCHFSMATFFWFMPVWTTYSAYFAVRNSTEPVEHVLHLEEELYFLNIRTSMAHYTFYVAIMWPTIYTLGFTGGTKLLTIFSNVKYCSAMLKLVALRIHCLARVAQDRAEKELNEIISMHQRVLDCVFLLETTFRWVFFVQFIQCTMIWCSLILYIAVTGFSSTVANVCVQIILVTVETYGYCYFGTDLTTESYSVALAIYDSEWYKFSISMRRKLRLLLQRSQKPLGVTAGKFRFVNVAQFGKMLKMSYSFYVVLKEQF,r
MordredDescriptors,0.15236821815848073,-4.184694913122701,0.23912791636858488,0.23596404200835563,0.062043135909790936,0.07316676282374557,0.15153923368192668,-17.59028666653047,-0.00046323901903244646,-0.5229757095211378,-0.12711587498103483,-2.682633075561831,MKFELFQKYSSPDTVLSFVLRLLHIVGMNGTGFRSRIRVGGIFLFYLIFLVIPPLTGGYTDGHQRVRASVEFLFNCNIYGGSMFFAYDVATFQAFIQELRNLTVLVCSHSYRLKYKLTRFNRRADIIAKVQTTCMGAVTLFYWIAPIPSICAHYYRSTNSTEPVRFVQHLEVKFYWLENRTSVEDYVVFVLIMLPVVVMCGYVCNLKVMTICCSIGHCTLYTRLTMEMVEHLESMASAERTASAIRNVVQMHSGLLKCIRLLNTSIRSMLMLQWLTCVLNWSISLIYLTNVGISLQSVTVVVMFFLATAETFLYCLLGTQLATQQQLLEHALYATRWYNYPIAFRSSIRMMLRQSQRHSHITVGKFFRVNLEEFNRIVNLSYSAYVVLKDVIKMDVQ,r
MordredDescriptors,-0.1548714212986413,-0.30440539526978105,-0.010762021708739411,-0.012073054917213666,-0.00011328520408349085,-0.7389472003608029,-0.012461544302367011,-0.5554109679428971,-0.4359746291449047,-0.21182950700376657,-0.10519118736667954,-0.21362068489065744,MVLPKLSEPYAVMPLLLRLQRFVGLWGERRYRYKFRLAFLSFCLLVVIPKVAFGYPDLETMVRGTAELIFEWNVLFGMLLFSLKLDDYDDLVYRYKDISKIAFRKDVPSQMGDYLVRINHRIDRFSKIYCCSHLCLAIFYWVAPSSSTYLAYLRARNRSVPVEHVLHLEEELYWFHTRVSLVDYSIFTAIMLPTIFMLAYFGGLKLLTIFSNVKYCSAMLRLVAMRIQFMDRLDEREAEKELIKIIVMHQKALKCVELLEIIFRWVFLGQFIQCVMIWCSLVLYVAVTGLSTKAANVGVLFILLTVETYGFCYFGSDLTSESLSVARAAYGSLWYRRSVSIQRKLRMVLQRAQKPVGISAGKFCFVDIEQFGNMAKTSYSFYIVLKDQF,r
MordredDescriptors,-0.15713712774594585,-6.96039806518007,0.10762682051407757,-1.2988905693340844,0.05617582407004651,0.1450789004931048,0.20432338552712626,-29.74429629532944,-5.279672183086169,0.07409626844501072,0.08304048490407023,0.06484139916618525,MVRLSFEETLRNTNLMLLMMGIPPCEEPYPPGVLPSLKRNAGFIASFLLLAYTTIGELIYLKQMFERDVTFLEVTFQAPCIGYCTIGVLKMVILARGRNTIAELIGLFRAKWTAAIVTGEHWAVCEDTMRPAIRVTSVTALANVVMGIAFTILPIAEMIYTHHYTGRWNRQLAFNIWWPFDVLGGVKYYWFVYPLYVVIGFTGIIIHMAFDCLFCILAAHLCMQFRILAHNFGHVVEVANGAGEGDSGSTSRLQDAIRIHQELIGCSVFMQNVFGNALFINFLGSSIIICIQAFMITTVSGYMLVKFVLFMLCFLIELLMLCAYGEDIVESSLAVIDAAYGCEWYREGSVAFHRSVLQIIHRSQQPVILTAWKIWPIQMSTFSQILQASWSYFTLLKTVYGNK,r
MordredDescriptors,0.009162351557211656,-3.378555736013523,-0.08180340994508883,0.08774664156872014,-6.534251697654092e-05,0.044340059470250104,-0.004406190790846587,-6.428664747321565,-0.030796904419102766,-0.10320977393169417,-2.9169093077474066,-7.413197946647843,MQRRLKRELLLQVQTKKMDPPTDELVRFESFIRVPEIFFAMIGVARYGEPKRTLRAYLKHLLFWSSCINTGFCLVIEHIYFVKAAGNFTNFLQLTALAPCMGFTALSFVKIMTIKLNETKLTDMLHRLDALFPSTVALQQRYGVYQYNRESQVVMKSFSILYMILIWMFNLLPLVSMVVGYVSDGTWHKQLPYFMWYWYDWHRPGYFEVTFLHQNWGGFVSAVFYLSTDLMFCAIVLLLCLQFDIVAYRLSHALPDDHQELVGCVRIHQAVIELCNELEHMFSPSLLVNFLSSSVIICLVGFQATAGITPADLFKFVLFLVSSLVQVFLLCYYGNKLIVASSQIPYSAFEGNWIGASGSYQRSLLFVMLRSTTVQKLTALKFSIVSLASYSKILSTSFSYFTLLKAMYEPNEKKMK,r
MordredDescriptors,0.4775073005540297,-15.718814958951873,0.3857836482477134,0.31819170066803626,0.36601180661430477,0.7662604631778511,0.551288884062243,-78.1510647950396,-0.18439689876814414,0.35202164367970123,-0.33822515492473326,-0.2724095897065937,MFLPSLRMILFIFRMFYAWPDEHLEKSALWWYRAKGVLFRVFFIYLSAATQLAYNFTVTSREELFAGMFVLLTQLVMILKMEFFYKNVSKIQQLIRRLNGKLYQSRNAEEDIPLASARKKSTIFWVLYFMFSDGLVTEWLVISLLLTTLIVPVWPGVDHTTPYWVVLMVILYQYLAIVLNASFNISWDSLVAALLALTNAHLHRLQIQLLKVGHQNRHLQVDANKRMITVSPIDDDTQSVPTKSDADVVYNELLQCIIFHQEVTGFLREVLTLFSGPMLSQLYCSVFILCITEFRLLTDVNTMADTMQAVMYLVCLVIQVVQYCYFGNEIIYMAQKVHQATAFVNYPDMNIKTRKLLIAFQQITARGIKCSAKYIFTIELSMQTFVTVRQNGRHNILGTRY,r
MordredDescriptors,0.29502443010726626,-2.9414683498524417,0.41595102882449664,0.2664712546570409,0.369460941522877,0.632769187811941,-0.20953026228002436,-12.188791553742798,-1.878535610198738,-1.093164625835271,0.08671125895979181,0.36643878155480725,MEVLNCPLLSVNVRVWRFWSFVLVHNWRRYISIIPVTALNVFMFADLYRAWGNIEEVIINAYFAVLYFNAVLRTLILVYNRDKYESFLAGAASVYEEIRAINDDVITKLVSTYTKRARFLSISNLALGAFISGCFVVYPLFTGQRGLPYGMFIPGVNNFDSPQYEIFYITQLVLTFPGCCMYIPYTSFFASSTLFGLVQIKTLQHQLKTFRSSEMLNESTVVLDRKLQKLIEDHKRIIRYVQDLNDLVTYICLIEFLSFGLMLCALLFLLNIISVMAQIVIVGAYIFMILTQIFAFYWHSNEVREESMAIAQASYSGPWLNVDDTIKKKLLMMTIRAQRPLEITVGNVYPMTLEMFQSLLNASYSYFTLLRRVYN,r
MordredDescriptors,0.2432536198387411,-4.0951665527666465,0.33471113170475564,0.26154152172460987,0.24638460475687052,0.17125401047587785,0.20237683053159172,-17.823977259492786,-2.739025221927031,-0.19552124993448516,0.25001607145267,0.03267489606840002,MELKEEWILPDVVYANPLLKRTLLGLRYYGILLGQSQSYKKVHCFRGMVFTLSMVLFNCTQYIDLWQVWGSVSDMTANAATTLLFSTTIFRIIFFYFHRARFNSIIKAAHDGIERILKDGWTDEQSIVGSNVRYLKRLAVVFWSCALVTANMMCVYSLVQYLTYEEGPPDGTGTSAANITRKGQPIPPTPILRSWYPTADGKDKHFLEIYLIQLYIMYVGQLIVPSWHMFMVTLMIYGRTECSVLNHRLCFLERYHTAGKDDPTAPVNNAERRSLMIDCIKRQASLVSFTRELEQLTRAAVFLDFVVFSVLLCALLFEASMTPSGVQVFIDVCYITTMTTILFLYYWHANEIHACADRLSMSAYKSDWYRYDRGTNRMLQIFILYSNRPLKMHAFFISMSLDTFLAILRASYSYFTILKQLTD,r
MordredDescriptors,0.2321197165105629,-10.024871169970272,0.32032994178644114,0.06875965425099861,0.29462189362810054,0.13887123387987343,0.3380158590074007,-47.28107605256312,-2.5976936866538236,-0.43702855456333745,0.0676410749298989,0.12380136899903116,MEKLRPEDPKAVMPYAKRLLQLSGFRQDTEQLGTRIYLNLFIFVAAILIPKVCFPYPDTEAMVRGLSELIFFTNIFVGLFCFIAQHRPYRELLNAIESFVNIVYRTSSQQPESLSERTLIKLNVKINQISVVYCYYVAVAAFTYWIAPCLITYLSIHKEQDIAGNGTMNAIQYYPNLEESFYWLDNRTSVRGYAVLSVVAFITFIFAVYSQTTKLLTILSTIKYCSTLLQLVNIAIEGLSSISPENIDLELKKLIQMHQLAIRCVALLNQTLSYVFALQLVLCMLTWCFTLLYVLVVRLDVTSMMSLLIMINLTPEMFGYCFFCSDLTTTGTTISRQMYEFQWERHRPAIQKTVAMVIARGQARLRITAWGIIPIDLELFAKVVKASYTVLLVLKDFI,r
MordredDescriptors,0.4789971184474176,-7.409464240085503,0.46762514265499955,0.19015294176801212,0.48720087511869414,0.7075800693297558,0.5424265633656266,-33.35262465369374,-3.5734546458772867,0.0645797856244138,-0.231429141147377,0.04560745466646976,MNFLRQEQPAGMPHISIKLLQLFGVTGPPEERFRILPVMLAYFFFIVVPKCFFGYPDLEITIIGTAELIFQSNTFCGMFWLFLNRHKLAQFITQVRNFSLTVFRESPLAVVQHLTTQHDFIHKITRIYCIVVMFAAHFYVLTPLLSTFYAFYGMVRNDNATMHYTLQMEENFYGLQTRTTTSHYLLFGMIMTPTIYLCAFTGTVKILSICNITMYCTLYFQLVQLKLRTVTEDNTFRQEVKSIVVMHQDALNCASLVESITSLVLLQQLVLCVMIWSSMLLYFTVSGFDLNFINLLVLFAFDTTETIAYCYFGEQLSNESARVAHTVYESGWETQTPDIQKDLQLIIARAQRPVGITAGKFCYMNMEQLGIIVKTTYSIYVILRDQF,r
MordredDescriptors,0.22043975306327743,-5.354453596409625,0.4073969981225475,-0.16847749346868723,0.3867296610735632,0.45355109093641566,0.022998508652548044,-20.497545395903177,-6.192382897535611,-0.3768476090646451,0.08216966955680771,0.21233825089850034,MNFLRQEQPAGMPHISIKLLRVFGVTNHSEERFRIVPVMLTYFFFIVVPKCFFGYPDLEITIIGTAELIFQTNSFCGMFLLFLNRRKLAEFIQHARSFSQTVIRASPPAVVQHLTTQHDMIHKITRIFCIVVMFAAHFYALAPFLSTLYTFYGTVRNKNATMHYTLQMEENFYGLQTRTSATHYLIFGVVMTPTAYLCAFTGTVKTLTICNITTYCTLYFQLVQLKLQTVTQDNTFRKELKSVIKMHQDALNCASLVESITSLVLLQQLLLCVLIWSSMLLYFTVSGFNVNFMNLFVLFVFDTTETFAYCYLGEKLSYESARVAHTVYESGWETQTTDIQKDLQLILVRAQSPVGITAGKFYYMNMEQFGIIVKTTYSFFVILRDQI,r
MordredDescriptors,0.16016899233604434,-6.944678993958915,0.23418921037894014,0.03053703758411619,0.2813837900858355,0.3203991786098126,-0.06566425497848272,-33.99278439645879,-0.23796063118537547,-0.485877779597099,0.013266271955007625,-0.020038434508326874,MRFFLIEKPPGVPHIALKLLRLVGVSQTQSERYRYVPMFVLFLLTIAIPKIAFGYPNFETSIIGLAELFFQTNRFVGVLLLVLYSDSIFELVRQSEFFAKKVLSETSPVAEYLTKMDTQVTKITKLYLTALLVPANFYSYSPIVATLWKYYNTYENDTVPEFTLHMEESFYRLNVREKLDHYLIFGAIMVPISFLCALVGTAKLVSILSLIKYCTIYFQLVKVKLEEVGRSQNYASDIRSAIQMHQSALSCADLLHDITAPIMLLQLVLCIMVWSSMLLYFTVAGFNTQFISLFILFMFDTTETFGYCYLGNQLSDESARVASVVYDCRWEGMPPALRKDLQLIMLRAQRSVGITAGKFCFMNMEQFGEVVKTTYSFFVVLRDQF,r
MordredDescriptors,0.27452511696136367,-3.9555802999899847,0.33629656566116717,-0.47597989346893455,0.6203049597675117,0.34172122520891357,0.5502827276381603,-14.466876671483819,-2.571664504826416,-1.4859410934333224,-1.3176947937727608,0.06427556356639319,MTSFKPSDDTDVMPLVLRLLRVIGVWDVPRYRYRYVAVFLFYVFGILVPKLCFGYPTLEAAIAGYTELILETNVFAGMLLFYQRYDHFVPLVDELRAFAAIVFQDNQPMFLRTNLTDLNLRIHKYTLCYCLYMCFCCTVYCVAPLGSNIAGYTAAMADTASNSSSSTTFAFTLYLEQGFYWLDNRTSLLGYCVCTVFMFPLMYLCAYTATVKVVAVFNMIKYCQTVLRIVVLKLRLLKTLPDVRQRSDGMSEVWVLHQRALRCAELLELVLQPLLLMQFVLCILIWCMMLLYFTVSGINVKFINMFLLFLFVSIETFGYCYLGTQLSQESINIGQALYASGWYEYDVQMRKYISFMIMRSQRRVGLTAAKFCFVDMEQFGAMLNMSYSFFVVLKDAF,r
MordredDescriptors,0.4770375995240105,-8.221203467365637,0.6994004566304486,0.43062221971079595,0.35955361731108626,0.4397449120518434,0.45586679191587787,-32.09104165978318,-8.916150595265114,-0.22845542161903887,0.15207567264771493,-0.02244533280855987,MLRLSPEDPKAVMPVVKRLLKLSGLTQETTRFGAINFLNLFIYIAAVLVPKVCFPYPNTEAMIRGLSELIFFTNVYVGFFCFISQHRHYRDLLNAIDSFVDVVYPTATHPSDSPSEQILIKFNVKIQKLSVVFCWYIAVTATFYWLAPCLMTYRSIYKASVSVENGSVQSIQYYPNLEESFYWLDNRSSVYGYAAFSIVALLVFTVASYNNATKLLTILTTIKYCNTLLQLVIIEVDNLNHATSNAIDRELKQVIQLHQRAVRCVALLNQTLSFVMTVQLALCILTWCFTLLYILTVGLDVTGMNGLLIMFNMTLEMFGYCFFCTELATTGTLIARQSYEFRWEEHDPKIQKMISTIVARSQLPLRITACGFITVNVELFAKVIKTTYSVFIVLKDFI,r
MordredDescriptors,0.2506653560790072,-2.962823592564143,0.37580774725560195,0.25128523326763463,0.30239932871503516,0.1318538538060069,0.19198061735075733,-13.537357270631093,-0.7538590052457768,-0.38930042554829924,-0.07700192581347576,-0.056599335582069754,MLRLSPEDPKAVMPFAKRLLWLSGFRQETEQLEKKIFFNLFVYVAALLIPKVCSPYPDSETIIRGLSELIFFTNVYVGYYCFVVQHRHYRDLLNEIQSFVNVVYPTSQQPESPSERTLIKLNVKINKFSVLYCWYLATAGLIYWGTPCLMTYHSVLKAKAEYGPNHPIRFYPNLEGSFYGLDNRTSVYGYAAFSIVALLVFAFASYNNATKLLTILSTIKYCSTLLQLVGVEVDNLNHTSSEAISRELKKVIQLHQLALRCVALLNQTLSFVMALQLALCILTWCFTLLYILIVGFNAIATNGLLIMINMTLEMFGYCFFCTELDTTGKIVSRQMYEFRWEQHRPTVQKMVAMIIARSQTPLQITACGFIPINLELFTKVVKHSYTVLAVLKDLI,r
MordredDescriptors,-0.03843375905774127,-0.31644549493168234,-0.042022422205174825,-0.015183050066694959,-0.09722474046736163,-0.0003699607701175278,-0.0373686217793574,-0.04158003428123358,-0.1560558878360312,-0.052011373476022804,-1.3302626807814009,-0.002317498283723296,MKIWEKYLERKRTLYHAKYQTPQQLFDGACDIVIKCFAVCGGERMKPGYTRRNARLIFLVTDLILYLFVNLYSIAIVWGSLMDVVFCFVTLGIAIQGLAKIEAFTCPELNDLHLYNVARFKAPPRFREVDEALFHTATMCMVFIRIFAVAFSIVAIAIYSYAILMPLIEHELSLAFGFYLPFIDYRTPVGFAINWVYQFVQVLEGCIGLMACDSCLLVLIMNATGQMDVIIVYLKQLTLLIDNNHTGQHDDEIADIIKEIVLKHLEHTKYMTDMDKLLKKQFFINFGCMIFELVASLAIVVRVPWYPGMAICLICTNQLFINCALGTFLSSKNEKLVEEIYNVNWYGLTTKHQKTLQQILLTSQHPVVLSDGFSPIDLFNFVEIYKKIYSYLMVLQKVS,r
MordredDescriptors,0.15625570678839598,-0.5540777271156989,0.058299869592957076,0.09697168003340983,0.18407530000088712,0.27055831802858543,0.17137336628614042,-0.9834741296437624,-0.025157169370984223,0.1932294119894129,-0.5516177808048921,-1.4033689677482686,MEQEINQIISFLRRPLKWLGFDVIDPNWKVTPLTMFTIVMFALQHYTSYLYLSTHLDMFDMFTECFSTSAVALEIAIRMGLLVHQRELRNETIEIIRQQHKMFGNSAAIRKVTARFHKLISVTQHALAACYMSTMMFELIPIVSPNPRKSNLPLPMYLPYMPHDVTPYWHLNYTFITVMNLMCILFLVGIDGLLVLSILAAVHQIKLLKITIQELDIGAEQAELHRELVRIIQIHQRIQQFIHQLEQTYYIDLLVDFGLVCLILCMGLNVIADEVINAIWFFLIAVVFQLSLLCFSGNLLLIESDSLSSCVYSIDWHTMPVPEQKLLMVMIAHAQKPQVLRGIFMPLIMSSFLSVIKASYSYFTLLH,r
MordredDescriptors,0.37081252866403436,-2.923399830884364,0.4639941394393531,0.4145341922313739,0.3053554920145315,0.48318809549181785,0.18699072414309548,-13.309957259012869,0.2809494250419611,-0.29350470991956246,-1.1539260653415067,-0.1405605451898424,MDSNSKKDTFPLIQISTKMLQIIRLWNESSGQRMSTFGALLIAVFPIMWLIPSWLFIVSSQDNIKRLMKAINEQIVFCIVFLKFSFYAIHFRRWEQLFYDLQRSFSTVVNNPSLEIQTILGHVTKSTHKLTKYYCSIVSFNGAAYGLFPMLFIVVKYAVTGSYDVPLSTPIEGNYFIPGFRTNFWVWLPFNLAQNMVLQCHSFAVITIECFTWNLVYATSCMFRILQIQATELLDRSRDKKEWNIKFKTFIALHDSVLRSARTLEAILSGQILLLYVSTILAVCLGMVVLTLAIEDVYLLLTTFVAFGYCMFQMFSFSYLGTELIEQSEAVADGIFNSKWYEEDVKVQKDLSFVLMRAKKPVRLTAAKLFVVTRDSFTQVMKQAYTIFALMSQFLDDIAN,r
MordredDescriptors,0.49851946000435665,-1.1184160112467791,0.5833910232363626,0.23686851935441178,0.28022777012323663,0.7407729618582317,0.6513370254495406,-4.504512736761679,0.1750730406679305,-0.09675619046217876,-0.9399436501120337,-0.22594051956593475,MKPSCKEGVFPLINLSIKLLKIVGFWNKTTGQRISVIGLLAVILYLLAWLIPNWLFIVSSQDNITRLIKATNEQILYFIAFFKLYFYVIHYRRWEKLFYDLQIAFSSVMTNPSPEIQGILGHVTKSTHNLTKYYSYVVNFNCAWYGVFRMLFIVVKYAVTGSYDVPLSTPIEAKYFIPGLHTNFWVWLPVTLGLNVLLEWHSLALVFVETFIWNLVYATSCMFRILQILANELSDRKRNEGIWTVEFEKFSTLHDSVLRSAGTLEEILSGHMLLLYVSTIFSLCLSMVVLSLPIDDFILLLTTFVAFGYCIFQTFSFSYLGTELIEQSEAVADAIFHSKWYTQKLNRQKDMCFLMMRANKPVKLTAAKLFVVTRDSFTQVIKQAYTIFTLMSQFLDNPVN,r
MordredDescriptors,0.18999080589975334,-53.966765234324214,0.24266954624044934,0.27971441625525506,0.07543543743328285,0.29297518212573503,0.059159447444044444,-268.3257761923041,-0.13857910645743243,0.003913081482006087,0.04087364192566634,-1.4142575962672042,MKFFQIDDTREMLPIGCRLLKLCGLPCSGRVNRRFWLMCVFFFVFGQIPRFLIKLDEPIALVRVGAEIVYSTYIFLQLIALYARRSDLYRLIDTLQECVENPYPDDVRAFILSTRDTINKSSVMYSKCFLAVCISYIIMPFMATSAVVVRNRRNQTGEQEEYVMPTEMNFYYLDIRFNLLHYSLYFGAVIGLSVIGSLALCTKDVMDFSLIRTASMLFQATAQQIRNLPPGASQAKLKAIIHSHRSTLKCAAQLQNALNPALLIQITFCTAIWCLMLFYILLLGFTSKVMNVCLLLLVLTCETYSYCQLGTQFTSNAEEVLDELQQLAWYDQSIPIQKQIYFMIHRSQTRIELTAGKLFPVNIAQFSEIVKKSYSYYLVLKDIF,r
MordredDescriptors,0.276534104747407,-5.731121989887358,0.023709590002178094,0.45149823244609144,0.40064744006264397,0.34908931189360093,0.1577259493325205,-13.129345584110354,-0.3469264208938134,-0.1102683432675684,-8.448246889591893e-05,-15.068985118696158,MLAAETVDFFRVQSICLRAIGIARTDSFRGRVLFAVSFFTVLVMMLGTVMFAFKHIDQIMLLCDCLGPTFTAYLGLVRQYNLLQHRSELWSIVDEFAALKHSLQSSEIRIVQKYNRIDRFLAWAYLITAMSTGVLFVGVALVLVFLSEKSDWKLPLLMDFPFDVKHPVTFTIFFVWCSVAIFWVVLDCVACDSTFGTFSSCLVAHFVIIQERFEGLRFDEGNRELKKLIEHHKYILRISDRVINAYKNVILNQLLISSVLLCMLGFQLVISVGTNIMVVYVAYGMAITIQVTYYCYYGSQLYYESTQVHDAVFKSKWYDASVATQKMLINCMMRAKKPVNAKSGFTQASLPALNAILNSAGSYVALLMSLME,r
MordredDescriptors,0.10182948266650907,-0.5618135523625581,0.016713179809191736,0.2558395088125869,0.1224232734611036,0.17438388619649314,-0.06021243494683004,-1.4196089232783748,-0.005872574426351473,-0.23779328971670166,-0.10213998639872157,-1.0436529879926413,MSQLNEFPAYQFRLIRFCGVVEQPSLKNNVRCLFAFILLCSFGPLHVWYLAKTPVLDLVVTCEEIMLIQLCFVMLLKFNLFITYRSGMYNLVEAFKRILKCIDKAEFARFVKCSELHAKLLRAYVIGTSIVLLLYELNAIVASITLSLQQNKVCFVTPFSFPFDYQHPFVFALTFLHNFDAMLVTVCTSVTVDSCFSEMASNLTIHFDIVRERFEKLDLSAAQPYAEHQLRNVITYHREVLSLAQKMVQLYQQSAFYLLLLVSTILCLLGYEFVMVSNIYKRMQVAILASIMIGQAAIYTYHGSAISAKSVSVADAIYGTNWYDAPLAVKKLVYICLMRAQKPVIMKSGFIEASLPTLKKILSSSASYITMLMSLEADLNEKKT,r
MordredDescriptors,0.14331419666104234,-0.8751288925775118,0.17871329112475487,0.22053573386179937,0.201254522373143,-0.21116143565235723,0.3272288715978716,-2.311834229407276,0.1961218285465064,-0.7700564544533375,-0.9182652547550301,-0.5716103528184215,MEYIYRWILRDDTFAKEVYIKYNFTKLRTLGIYKAASKTRLARRAGFYALELFFLLQLGTIVWDLATVLGDIGLFGDDMCILAGLLLTLAKKWHCVLYIDELWECVEQMQTYHEHYLLQGEWFVRRMRHQNLQERMLQDASKLLATLLASCLMVNALFSNSETLILRAIYPFSTATTLGYGCVFVCQAFLIVYVLYSMVLIDCIGAQALSQMALLFCMQRKQFELIGADLQLPPEGPLHGDRSIRDQVYSAIASHQQLLSFCNRLKRLYEPNIMAQFVCSMLIICLTAFELMFAKGDPMQMVRFGAYMLAGFYQVFVWSFFGNRVTNMSTGISDATISCNWIVLADGLKKDLRFTTMRSQKPFVIDVYWLFPLTYETFIAILSRSYSIFTLLRTMIE,r
MordredDescriptors,-0.5099892358016238,-1.6693731556889795,0.0840738503281303,-0.19057334010665916,-1.121246763525905,-1.373775958098682,0.05157603239499697,-0.10634530120320584,0.040580834228537976,-0.20476532340597142,-0.11534129610122612,-7.960994691963032,MSCVEDFLDAQMWYLRYCGVFREKSALGGIRLSVCLGVLVVFMVLQSIYIFQHVHHFAMICDAIPTLVVCMVAISKFYIFVFHPAALFALIDSFKALQRRASREDLLLFRRSGAFHAKLTKIYMTSALIVGWFYILSAIVSGISRSLAEGRVHFVAPMAFPHNYQHPVMFALTFLFNCDSIHMSIFISGSVDTCFSELATSVTIHFQLIQRQFQTVDFAARTAEDELEVVVAYHKDVLQLCLAMTNLFQYTVFYLLLLDSVLLCVIGYQFVIFMNTPRVLMLASMAFVMVLQAVIYCYHGSMMYDESLKVADAIYQSNWYEAPPAVQKRLRLCIMRAQKPIVTKGGFIKATLPTLKKILNSTGSYITMLLSLETEQ,r
MordredDescriptors,0.31760753614585013,-33.79157531942444,0.36472912130482327,0.36595041241285076,0.3617368816726807,0.21409870768100614,0.28152255765789,-169.42523267216774,0.05257905795213447,-0.08194538731338308,0.21497468052560975,0.2817477238811792,MIITVAPVTDARPQTPEDCGMFKFQRKILLIFGCWPPDRLTRRWYVKVLIAVNLITLAICIVGEFRYCLYAYRNGSLIETIESICPTVARFSGLLRMCWFLRNEHKIESALNSVVYLIKNEHPRETGYTNRITARDQTLTKVLFHSSFITAILYGIIPYFMMAYNWFQGQYPLVKLLPFKVVLPYDSQDPTLFILTTIFLNYASAPTVTAMTSSDTLFSGVCFYLQGQFQAIRLELEALAETVDKNTLKSSAAETLRINLELRRINKRHQTIIDVVSEVRHAFTPTILIVHICAAFMICVISMAMFLAEGINKLTYMPYTFTVLMLLFMYSYSGTIVRDSSEAIQTVAYGFPWYRFDRNTRHLVQMMMVRAKYGCNVDVPFFQTSMATFSVIVRSAMSYITLMKSFL,r
MordredDescriptors,0.14908910825158145,-3.2628492324218272,0.1582341208285043,0.1791254365212892,0.06730608101324032,0.19457728553953602,0.14620261735533735,-13.275986044307718,-0.0002898251183804934,-0.4901963337607853,-0.33528426828049485,-2.212489690641755,MVSFGAAASNPRDAETTPQWDIFKLQRKILLIFGVWPADRLVRSWYVKVLIAINLATLAICMVGEFLHGLYAYQEGDLSESIESICPTVARISGFLRMVFYLANEEKIHRVLNNISKTLQDEHPREHTITKQLTTLGQQFTFYLFLMMFFAACLYGVTPFFIMIYNWVQGQRPLVKLLPFKLALPYDSQNLFHFVVTTLFLNYASAPTITSQSGSDALFSGVCLYIYGQFQAIRLEVEALAETVDRNTLKSSAAETHRINLELRRISKRHQAIIDLVSEVRSAFTPNVLLVYTATAIIMCIVCIAMLVVEGIYKLTYLPYAFAELTLLFLYSYSGTIIRDSSEAVQTVAYDFPWYRYDRNTRHLIQMMMIRAQYGSNVDVPFFETSMASFSAIVRTASSYITLMKSFL,r
MordredDescriptors,0.19895856329206402,-0.8571801257448245,0.273336934132799,0.3155006264303686,0.2135075035629994,-0.04040870876573832,0.23285646109989133,-2.183859075094455,-0.022192394950508287,-0.7575615846112731,-0.16914946807564402,-1.1531381059922419,MSEHPIHTFDRLIKRQRLLLKLIGIDSYDPAFRIHSLTFMLVCLALTFFVISLYDLYLFRDDLFNFVYVLITIFFATIGIGHISVFLLCSKLLAELLEQSYRTYRLVVDDQREQRILQWYTRLFQRAVDGYTLVFIGTSVAAGLLPLAIYLLSGDRVLPYGVVLPFVDPDSLVGYELNYIYQVSCIIWTPPGLVASVCMLFGLVLNICIQYDILAVKLQDLDELIRSPHPHRDAMIGCKLRSILRNQQRLISFIANIEAAKNVHSAVEVLSLGLQIVITLFVLQFSLWIPGLVLIPVFTMQLFLFCLLGTIIEDKGVKFSAGVYSLTWNELSKQDKQIFRLLLLSSQQPQTLTCAGMTCISLNLFVNMSQKFYSIFMMLRNM,r
MordredDescriptors,0.1475949508903135,-0.5960784652628133,0.2066673056477477,0.2941536498608057,0.07504561346816707,0.13831962555604915,0.023788559918797803,-2.447833252685527,0.17404248606499562,-0.4846336570039389,-0.24078579477654616,0.018817892086950505,METHIGKQHSLERFQAMVAWQNRVLALFGCYMYLGKERVSYRIVPICFMACSFVLLSLYSAVQARGNMGQAVLSIVVLFYGIIGVTRLAVAISNPAGCYRSIQIAEEMYQRANGSNPAECNVLAKYTDLFCKSVQLYTVCFVLSVVVLTLMPFALYLLRGERYLPLGIVLPFTAETDDFGFWCTLVVQLAYMYTGPFGLIPSQNIYFAFVFNICLQYELLIERLKQLDERIRSSNNLKLTVRDQLVKIIQLQQESTNYITHIERFYQLQSFVEFLCNSLQVALTLNELHRNFWLPGLFILPIAVMQMLILCSLGTLIELKSDQFKDQLYDIAWPEMDLPEQGMFKYVLKSAQQPKQLTCGRFAVINMNLFLAIHKKIYSFFMMLQNM,r
MordredDescriptors,0.14545392152311906,-0.31299356113682525,0.149950225203356,0.144444589255605,0.17221484450061775,0.006292302399901861,0.25436764625611474,-0.524864046033932,0.11810203756937454,-0.937301553349327,-0.0917280276970609,-0.12917621617318087,MTFTLSHDLYVYNLHLIRWFASFVGLDIMAPNYKPNILTFLAFFGLSISLIGEVYTVWYFWPILDKLMESAAIFGVFIQGLAKFYTALRYRKFFEAMYNRLDLFHYEYRNHEKNNATLLLLMNRICLLRKLITSQFSISILTLMVTPVAQYILKGERFLVYTIILPFTDPEITSHYLLNLVVQYYLLIVGLAGFSAAENVLILFVTSVAGYADVLKNKINEMNTLLLDAQNSRDRTSVKLKLREIVLLHQRVLEYEDDLDKRYYLNNWVQVASSIFNLTGALFGCYVSNSFTMYALAITIVIQLFELCLLGTILSIKNEEIEHAFYDSLWYLMDHSEKKDFLIMFHKCQHAKEMTVASMAPLNIVLFIAIMQKIYALAMMMMRFSE,r
MordredDescriptors,0.14723426547991253,-0.5166456869075169,0.13546989237240592,0.15076754970344053,0.10014086767136876,0.19900882560917388,0.1507841920431735,-2.1166827227940685,0.023581443591829343,-0.8101505250023233,0.21219618380528027,0.10782718586169804,MTFTLSHDLYVYNLHLIRWFASFVGLDIMAPNYKPNILTFLAFFGLSISLIGEVYTVWYYWPNLVKLMESAAVYGVFIQGLAKFYTALRYRKFFEAMYNRLDLFHYEYRNHEKNNATLLLLMNRICLLRKFITSQIIGCILVLSLNPVIQYIIKRERVLVYAILLPFSDPEITSHYLLNLIVQYYLMIAGIGGFAAAESVLILFVTSVAGYADVLKNKIDEMNIILLDAQNSRDRTPVKLKLREIVLLHQRVLEYEDDLEKRYYLNNWVQVASSIFNLTGALFGCYVSNSFTMYALAIAVVVQLFELCLLGTILSIKNEEIEHAFYDSLWYLMDHSEKKDFLIMFHKCQHAMEMTVASMAPLNIVLFIAIMQKIYAYAMMLMNFFE,r
MordredDescriptors,0.20726887946101152,-1.4614580179756378,0.2259747530504307,0.32023839066433457,0.12739172963521694,0.05810679783587558,0.3046327261191999,-4.550518096473569,0.03351981265602577,-0.20295634430781329,-0.49416650142833896,-2.093168960324494,MPRATSNSAANLERLVIRISSHMAVLKLNIIDPAWRPTLRFGIVLFLTALVPVYIWQGIKVYRTRFETLLEVLSVAGCGWQMFFRMYFYLFQQDRCRQIVQEVRDQRTVYGADRNPRMEKLFRAGTKRMLLAYRVIHLMYGTSYFFQLGPLIMPDPHKCNLPLALQLPFLPPDRNMVYYCINYAHHLLLNTIGVFILLPMDGVLIVALLNICTRIAAMQLLLEELDAKLGTVQWQQTAHLDAELNRIIELHIDTKRFARVIYETYQMHFFSMFSVLCFVICMCMNVVARDPRSTLIPFGLASTGQLFVICMLGNVLYIVSDRLKDSVYGIRWYRCTVSQQKRLLFLLANAQPEIVMGAVFIPVTMTSFVTIIRAAYSYFTILY,r
MordredDescriptors,0.23329418617131212,-0.5598743850543705,0.3821102717137346,0.2044300997077484,0.2918783336431785,0.1972582006492054,0.09079402514269364,-0.9676351909233929,-1.1002469933568335,-0.45471124234146987,-0.27861903358357853,0.0018405349334229548,MVVFDPLDDPLKVLPLPLKLLALLGVNKNPSERFRLYAIYIYLWVAMFIPKLCLGYETIPQCFRSIAEGMFSFNTTVTFIMLPLKMDNFEGLLQNLQRFTQIVTVEEDYKQILISLNTTIHKFTKFYFIFTNGVVFSITGSTIAGMLYTYYTKDSKYSAAFPLVMENRFYVLDSHYNLGHCFVHQALMFFALYILLVMFTAKAGTLFGLIRFCSTVLGIIVLKIERLSQIGPVDQYTAELSEIIELHQLVIKCSRQLQNILMEILLAQFTGCVFIWCFMLYYVMISGITAEGIAVGAMLIALSTETFIFCLLGNELTLKGLEISTAMYSTNWYDQPVKLQKMVVPIIQQSQQRIGITAAKFYYIDYNRYGQSLKTAYSFYLLLKDIF,r
MordredDescriptors,0.19923459564898774,-8.446017266890156,0.364109403523447,0.2861713670979573,-0.0001591464482575411,0.08962589698454393,0.25642545708724795,-41.202212809813254,-0.1529817420659647,-0.29127073823983385,-0.3974440760207554,-0.18617696831096908,MVNLFARTPADNFRVMPYNLRLFAMLGLWGDRRKLYRLYVLLLLAYVAIIFPKPVRITDRHPFESIVRSVSELIFAALCYLTIIILAIKSEPFRAVIRKLEQALELFRDKQDQCSQLIIEVNANIHRFSLGYAKLNLLYVLLFNIIPPIYNYPRYFLQWRMPEDNRTVEFMLPLMQDLYGLDVHHNIVHYTISWVAITPFCVFFALILWFKGALFMLIRYNTLLYQLVNRLLQQYDRESAGGLLAQKHRRLQQIVQLHYSAIECTKLLDSILSLILLIQCIGCLLMLCLMLFYITRNHSLNVINIAVLLMSIFIEMMCFSYLGNQLTEENANISHSAFNCRWYDEPIVIRKYFLRIILQAHRKATITAGKFYNVNIVTFAQLIKTSYTYYMIMKEMF,r
MordredDescriptors,0.44473464056473155,-0.5598728102285276,0.6372243318225914,0.40411678581020827,0.3303313867172595,0.504707015803767,0.3472936826698316,-2.3661844979137574,0.011629549335523182,-0.2731671336007975,-0.09772838234211956,-0.07391358662148773,MLSLRPEDPKAVMPFAKRLLRLSGFSPGTEQLGRCIYVNLSIYITVILVPKVCFPYPNTEAMIRGLGELIYFTNVYVGFFCFVVQHRHYRDLLDEIQSFVNIVYPTSQQPESLSERTLIKLNVKINILSVLYCRYIVVAAFIYWMVPCVVTYSSIHKAEVSMGNESIQSIQYYPNLEESFYWLDNRSSVSGYAAFSAVALIVFAFASYNHVTKLLTILSTIKYCSTLFHLVSIGIDELNLVSPAHIDRELKKLIQMHQLAIRCDVLLNQTLSYVMALQLALGTLTWCFTLLYILIIGLDVTAMMGLLIMMNMTSEMLGYCLFCTELTNTATTISQQIYVFQWEKHSPAVQKMVAMIIARGQAPLQIKACGFIPINLELFAKVVKTSYSVLIVLRDFV,r
MordredDescriptors,0.07554664564968443,-0.9457835775100651,0.1097605565571278,0.007639458686339307,0.18825435985672467,0.04811158052780007,0.023967272620430302,-3.6443771100732354,-0.0003472149920624723,-0.6676735955156003,-0.4211174438383267,0.004597476868899331,MKLLELDNPREAIAIGCRLLKLFGLGRDERFKLVYWLQCVAYLAFSIVPRLLVEIEDMVALMRLIAELVFVVYLCLQIMALYCRRRQLYRLVDMLQQCIDIPYSEQIESFLIRSNVKINQSSAAYARFFMCVYVLYCTMSPLASGFVYIRNQRNATGVQEEFIITTEMNLYDLDIRYNPLHYSIYAGLIFVLSAISSLSLCTKDVIDIAAIKTVTLVFGIVTMQIRDLHEQITQERLNRVIKSHSNALSCATQLEQALNLSVLFQFASCSAIWCLMLFYILLMGLDSRVLSVVLLLVIVSIETYAYCMLGSQLTTQGEDLLMALQQLSWYDQPVPIQRQILLMIRRSQTPLILRAGKLFSANVVQFGDIVQKSYSFFLVLKNVF,r
MordredDescriptors,0.10014361758676041,-0.8279051960448356,0.2215346051148881,0.19600148749363544,0.1371292262451973,-0.13274297973727456,0.07879574881735574,-0.6422000291753125,-0.00895626453985443,-0.8285241251103717,-0.02768475902524936,-2.63216080237339,MYYLEQLRALVRRYLERRSPDPRIQHTFIVQSINRVGGMLGIDIFTPGYSSTNLLLRMVLLNTFTFFWINLYSLTTTYGNLVDFMYSFETLLYVGIACIKMYVFIKNKTLILQMHQYMIDFFDHFHGDREQDELLVRTLNNTTLLSSLFAVCSSSAPGLLFVGSLLWSIAVEYVLPFGFFIPTVGMDTLQGYTLNYGFQMLETTLMVIGIISSESAFFMFQQNACLQVDMLRLQLRRLSELSAANGDGSSTKEIRTRIQTIIQHHVEHLDYSKSMCSLFELHFFIVFGCIFFQLVSNVVVIVSVPDWYPGYFLFIMLTVQLFFSCALGETFNIKSDELTVAIYNVPWYNMEVRDQKAMRLLLMASQNPGRLSYGFGTVNMRAFFEIFRKTYSIAMMMISVNEEE,r
MordredDescriptors,0.3376126440715981,-12.073533008495314,0.38038915024031206,0.38263576409140154,0.3549994667353077,0.28429872939537404,0.2857401098955952,-58.94502142859785,-0.6355455244668413,-0.6759302047315132,-0.24767111165480005,0.13650322697443573,MDIVSKQGEFPLVKLSTKLLRIIRFWNDSPGQRIPSFGLLVTAIYPLIWLIPSWLFLVSSQDNITRFMKAANEQIVFSLICCKLCFYAIHFRRWEKLFYDLQRSFSSVLNNPSLEIQTILGHVTKSTHNLTKYYCSTVSFNCAAYGLFPMLFIVVKYAVTGSYDVPLSTPIEANYFIPGLRTNFWVWLPVNITLSAMLELHGFALFFVETFTWNLVYATSCMFRILQIQVNELSHQSRNEKEWNGKLKTFIALHDSVLRSAETLEEILSLQMLLLYISTILALCLGMVVLSLAVNEVYVLLTTMTVFGYCIFQTFSFSYLGTELIEQSEAVADAIFHSKWYTQKLNRQKDMCFLMMRANKPVKLTAAKLFVVTRDSFTQVIKQAYTIFTLMSQFLDNPVN,r
MordredDescriptors,0.3290674690279807,-10.998240199783982,0.4411531782427204,0.36988740974752476,0.38296089627442387,0.1814409510504975,0.26989490982473696,-54.04998198455644,0.13212805650320192,-1.0528213081463158,-0.3285679653855229,0.3080422026651547,MDIVSKQGEFPLVKLSTKLLRIIRFWNDSPGQRIPSFGLLVTAIYPLIWLIPSWLFLVSSQDNITRFMKAANELMVFSLIFCKLFFYAIHFRRWEKLYYDLQRSFSSVLNNPNLGIQTILGHVTKSTHKLTKYYCSTVSFNCAAYGLFPMLFIVVKYAVTGSYDVPLSTPIEANYFIPGLRTNFWVWLPVNLTLSAMLELHGFALFFVETFTWNLVYATSCMFRILQILANELSHQSRNEKEWNGKLKTFIALHDSVLRSAETLEEILSLQMLLLYISTILALCLGMVVLSLAVNEVYVLLTTMAVFGYCIFQTFSFSYLGTELIEQCEAVADAIFHSKWYTQKLNRQKDMCFLMMRAKRPVKLTAAKLFVVTRDSFTQVIKQAYTIFALMSQVLDDTMG,r
MordredDescriptors,0.24277926219487705,-0.17178819647772786,0.1966152649954096,0.1266724689229255,0.19849215664019637,0.221149427258165,0.47096699315768875,-0.18041808837106998,-0.05310966091947522,-0.11852027827277811,-0.3141002510665951,-0.19279270375872093,MFSASAEMEWFRQQRHAICHLREASDYLRYLRPFQLIAGYPINPRPALSKLATVVRLLAYLAYLGTLLHKISYVLYRPEDINYVSFVSGGITVLVAVLLLMLIFTVHYDAFQQLGTFLNDRAFARDHPLATGIRDRWYRWSNGLILGPQFCILLILLQTWISRQHLKKHTMLVVRGEPVGTEFDHFLYVSCLYFPTVGFFMGCSIVNAMLVGFLGEMELLATCLGEVFETVERQVKEEGPTGQPDSRAHYWSTLHGELRRCAQRHCAIFTMLPKLQRMASFVFLQHHIFSLGLVVAGSYVTLRGPALRENIVLSEYPISVVLEYFIFCQLVEKLQDMNRSIGDRLYGTEWMLKLQYSRDFQREYRSAALTIRLLIMRSQHRVRFTCGSINPVSMEKFTEFLNLSYSIVMFLLSIN,r
MordredDescriptors,0.12282387281789844,-1.139313030229242,-0.03660520090457964,0.06572437133084086,0.1996526348369153,0.21911345140977967,0.166234107416536,-1.89342279383773,-0.00021527639684526534,-0.7961352151023313,-2.9484071742961686,-0.058384691513134745,MWHHQVQLWFRFLLGRFTTFTDSSDYFGLYKTLATISAIHYDASCWFDRAIWIVYRSLPILVNISYFYKAYRLILFPEDNTSAASVIASVWGFTEGTLRICLIELRYGTLASIMSFLNERSYRQQDSLVRQQRATLFGENNRIQLILVATMLMEAIWFMTTQLFSRDAFMLQVNGHVVDSIAVQILYGLLSNVWGLIYVLSFAIFYIIMNTFHLEMSILLDGITSVQFTVMRRLKQRMETLAASGHSSTMEQQVFWSILQPELNSHISRHVDLLDNLKDFSSIVGPFSFVQYYGTLALIADCGFILSIEGLSANGMIYLLFVTVLVFQSFILCRGIEKLNDLNEAIGQALYSGFDWPDMLRYDERFRRQYVTVRHTLMLVIGRSQKGFQCSYGGLGSISMERFAQLMQKSYSLLTILLQFAK,r
MordredDescriptors,0.22052535185579805,-0.6584083746102003,0.27256779303360146,0.31263626011675505,0.17372354272646773,0.29633728945773574,0.047361873944430255,-3.0595249629694603,-0.004235393514500085,-0.20063940741085884,-0.022378365699185165,-0.005263743456996872,MYLTQLFASMRTQFLHRITHYTKHSDFFIMQRYFEKIYAIHYTPHGWHDRILWYLYRALYGLIYLSYIHKTHWVLHHPQDSFSTANILGVMWFFSVVILRVAILEWYYPLMLRMQTFLNNHTSYQRTDPWAVGRRARFYRRTNRVILTVMGINLAETVCFTATNVMKLDEFMLQFRGAIVGGWPVQIVYGVLTMGFGGMYCMGFMMCYLLLSIFKLEVDILIRSLEEVERSDRLESDFGDSADIFWNNIVDQLRPHMQRLDELFIQLQHLKAVIGPIAFVQYYSTYLIIADCCLILVSHGLSSFSIVYFISMLVFLTESFLLCHGVENLRDLKPRIASTVYDFDWMLQMRCPNPRHRAQYRHVRRTLLLLTAQSDQTIQFSFAGIGEISMNSFAQLLEKSYSMLTFLLQFAK,r
MordredDescriptors,0.07445339345857963,-0.49879929520555333,0.38045231689795944,0.22170979731487162,0.08562602300107236,0.23049502964373392,-0.5460161995647392,-0.434374193332296,-0.4902451507768697,-0.2146447255044195,-1.1455127751568255,-0.20921963125735576,MFHPSRWMAKCRVWYAATFKFSADADYFFLVQPLCRSLQLFGNPVRCLLEFGTVRGLFVQLCRFLFLLPYASFALKSYWQLNHPLDTNNSILTYGSFVIYMLWAILIWVLNHYEHEMCELRLFFKNPTYQEQSNWAHRIRAGNYRRWNWMILMFYLFNVINVSIFTLTNAHNRQFHFQTRGEVVGPLYFQIIVEIFTGYLSLGYFVPSCIMLMTLQLFRTEMHILTTTLKQAANEEQQQQQHQHAVDIRCAYRSFCKQFYANIRRHTELLQSIATFCKVFSPISVVLYYGALITITCTCFYVMKHDVSTTTVCYAGFAVYMLFNTLLFCKSIDSVNDLHTEVGYIMYSEYWPATLQYADQGLSTETLRPLRRSILIVLQQTLRPLRFGYGVSGSLSMQRFGEFMQQIYSLIMFLAQLN,r
MordredDescriptors,0.1889768098491307,-2.0135627820323414,-0.005762514274875397,0.3695163921709348,0.109612741921285,0.3749050208122676,0.09661240861604148,-6.847787941226528,-1.5858001340915826,-0.10886088656299586,-0.16847516347036162,-1.3568897848102397,MVKFFRCCKARVSPELLSKKNEKPETFLPSLRMILFIFRMFYAWPDEQSMAPNALWWYRAKGVLFRTFFIYLSAAAQLAYNFTVTSREELFAGMFVLLTQLVLILKMEFFYKNVSKIQQLIRRLNGKRYQQSGNAEEDMPLVSARKKSTIFWALYFMFSVGLATEWLVISLSLTTLIVPVWPVVDHTTPYWVYLMVILHQYVAIALNASFNISWDSLVAALLALTNAHLHRLQIQLMKLGHRKHLHRPKNAKKRMIAISSFEDNARSVQTKSDADEVYNELLQCIIFHQEVTGFLRKVLDLFSGPLLAQLYCSVFILCITEFRLLTDVNTMADTVQAVIYLLCLVIQVAQYCYFGNEINYMAQKVHRATAFVNYPDMNIKCRKLLIAFQQITAVGIKCSAKYVFTIQLSMETFVTILKTSYSYLAVLRSMTD,r
MordredDescriptors,0.0228997508004126,-0.3613419415635139,0.18306303561652748,0.05434800402361806,0.02137364050261581,-0.14095367212776422,-0.0033322540129341327,0.08422280653116265,-0.017954586708944786,-0.43169996868912475,-0.661234726369474,-0.7800432325811886,MEASEKFSQFERYIRTLCNIIGFDVMTETWKKSYRTYISIFLCSQYLILMVYSLIIASDTFELFKSLSFLGFFFQCSLKMYYTIQQAPQYAVNFCCLKEAIYERHSKGTLAQKTTVARIIDLLVLVTKAISVLYTSSLFIFSLYPAYMYFVVHVKVPIFPLYIPGINIYSAYGYGITNSFHMLIAVYGLFGALTSDIVFIMFVVHFVTYGGLFKIECEQFDQDLSGVFQHCEWRTAVYKTFCRQRMRAIYQYHQSVIFYLESMQECYRNICVVQVASCSLSTVFNLFLALTTDWYATYGFIVISVFQLFVYCLMGTVMQIMNERMIDYISNLPWYMLPTEEQKQFKFMLARSQLSAEIMIRSVGPMNMETFTDIMQKMYSAFAMMYSFLVDLG,r
MordredDescriptors,-0.05206480208316524,-0.24461784597774158,0.33710889901245333,0.26481300160339705,-0.5177481228207299,-0.5453583842585135,0.2008605960475668,0.09572034539087326,-0.011114171946595475,-0.067434845529458,0.10677021753384486,-1.3470307753373727,MEASEKFCQFERYLRTLCKIIGFDVMTETWKKSYQTYMSILLCSQYFILMVYSLIIASDTFELFKSLSFLGFFFQCSLKIYYTIQQAPQYAVNFSCLKEAIYERHSKGTLAQKTTITRIIDLLVLMTKAISVLYTSSLFIFSLYPAYMYFVVHVKVPIFPLYIPGINIYSAYGYGITNSLHMVIAVYGLLGALTSDIAFIMFVVHFVTYGGLFKIECEQFDQDLSGVLQHCEWRTVVYKTFCRQRMRAIYQYHQSVIFYLESMQECYRNICVVQVASCSLSTVFNLFLALTTDWYATYGFIVISVFQLFVYCLMGTVMQIMNERMIDYISNLPWYMLPTEEQKQFKFMLARSQLSAEIMIRSVGPMNMETFTDIMQKMYSAFAMMYSFLVDLG,r
MordredDescriptors,0.13173498681027618,-0.19226774124618737,0.13549807617237863,0.14610070218022053,0.08291191190578207,0.215240494525347,0.07892374926765267,-0.4821250172805682,-0.2837072256937736,-0.2775703163717751,-0.02472614162266229,0.10678999473784234,MANVEEFRKLMKSLIVCSKVAGVEMWTAPGKLKPASYYLSFHITVYFVSTVWTLRKYIDDPIHMMKVLITMGTAVQLYIKFFVAHSKAQEVKLFTVELEQEVLKRYQNGSEEETAVLRRTGRILWIVHRLMSASYIFVAVAFGLYPAFYYFATGKVMPLFLYELPFFNVSSSLGYAVTMGFQINLLAIGVLGAILSDFMFFMYAMYAMARADISIVHLSELENILNDSTKNEEHSANVRHKWIQCMHDHQQSTSFFSTVENIFGLMCLAQVSTATLSICDAMLLVLLTDWYPTYSYLYVVFVQLSGFFVIGHLVELKIDALYNKIISMPWYRLPVKEQKEFRFLLSRQQCPMILTAYGFHPMNFEAYMSVLKGLYQFFVMILQYIGRN,r
MordredDescriptors,0.3149005595037967,-1.4260755473272322,0.36953750021090104,0.3688625302256845,0.41975714835289735,0.13656270909026502,0.2797829096392358,-5.7296894492795705,-0.06098601285922034,0.22250001215054338,0.2958886453793349,-1.8580909320272476,MTVVHRIVSFGYNLLQRHFNVGHPTEQFFLLRCLDVVSPAMLLQRPRSNLEVALKTLCLSVMVAHTIALAYDFSQQTDVRLAMDMLCMLSLFVSIILRGTCMRQYLAHIDALDRLERRPTFRVGTPYADESRRNVALQNNRYLGVALVFHSLTVTVYVIQNMVRENSFVKIITSFPIDLSERAPVLERVADLCYSLVGYIWGWYHGATQLTIIVLLRYAITEFRVFLHSLDSLDDQLRQRREQSQGAPDEERILRKLLYEHARHHSQLIVVVTHLRTLLHNYSLVHFSFYMIIVATFMTRVLIIPGRSSFGLAIPLLVTTIYFLETFGMCMLVEMLVQLNRKVSTSLYGFSWPQYLRYGRTIKRPMMLMIMQANMTKDFSAGGLTTVSAELFAKTCRMIYTMMMFMANMAT,r
MordredDescriptors,0.05666335344739293,-1.1471990052590033,0.1044587162339663,0.017184940566472462,0.08437952488011713,-0.11793859220542657,0.19523217776183532,-3.990929225033458,0.06779155074184173,-0.5842816352553142,0.19343112876909074,-1.4220068455171773,MTVVHRIVSFGYNLLQRHFNVGHPTEQFFLLRCLDVVSPAMLLQRPRSNLEVALKTLCLSVMVAHTIALAYDFSQQMDVRLALDMLCMLSLFVSIILRSTCMRQYLSHIDALDRLERRPTLRVGTPYADESRRNVALQNSRYLGVALVMHSLTVTMYVIQNMVRENSFVKIITSFPIDLSERAPVLERVADLCYSLVGYVWGWYHGATQLTIIVLLRYAITEFRVFLHSLDSLDDQLRQRREQAQGAPDEERILRELLYEHARHHSQLIVVVTHLRTLLRNYSLVHFFFYMIIVATFMTRVLIIPGRSSFGLAIPLLTTTIYFFETFGMCMLVEMLVQLNRKVSTSLYGFSWPQYLRYGRTIKRPMMLMIMQANMTKDFSAGGLTTVSAELFAKTCRMIYTMMMFMANMAT,r
Pharmacophore2D,0.10340570535548985,-3.9794361490435386,0.20869121090259246,0.010560613443097333,-0.001963013209936193,0.09676925044689022,0.20297046519480544,-11.862760105017584,-7.810113643826332,-0.038383399757525805,-0.18577355715769173,-0.00015003945856073564,MKLNKLNPRWDAYDRRDSFWLQLLCLKYLGLWPPEDTDQATRNRYIAYGWALRIMFLHLYALTQALYFKDVKDINDIANALFVLMTQVTLIYKLEKFNYNIARIQACLRKLNCTLYHPKQREEFSPVLQSMSGVFWLMIFLMFVAIFTIIMWVMSPAFDNERRLPVPAWFPVDYHHSDIVYGVLFLYQTIGIVMSATYNFSTDTMFSGLMLHINGQIVRLGSMVKKLGHDVPPERQLVATDAEWKEMRKRIDHHSKVYGTMYAKVTECVLFHKDILSFGDEVQDIFQGSIFAQVCASVIIICMTLLQATGDDVTMADLLGCGFYLLVMTSQVFIFCYVGNEISYTTDKFTEFVGFSNYFKFDKRTSQAMIFFLQMTLKDVHIKVGSVLKVTLNLHTFLQIMKLSYSYLAVLQSMESE,r
Pharmacophore2D,0.04843764711453182,-6.363609919552223,0.13474012267558166,-0.001967846705090981,0.0763056406653243,-0.018749848590371654,0.051860167527215784,-19.3438155196365,-6.692087465389249,-5.506630594195717,-0.26371099500336026,-0.011805023536291648,MLIEECPIIGVNVRVWLFWSYLRRPRLSRFLVGCIPVAVLNVFQFLKLYSSWGDMSELIINGYFTVLYFNLVLRTSFLVINRRKFETFFEGVAAEYALLEKNDDIRPVLERYTRRGRMLSISNLWLGAFISACFVTYPLFVPGRGLPYGVTIPGVDVLATPTYQVVFVLQVYLTFPACCMYIPFTSFYATCTLFALVQIAALKQRLGRLGRHSGTTATTGHSTGTLFAELKECLKYHKQIIQYVHDLNSLVTHLCLLEFLSFGMMLCALLFLLSISNQLAQMIMIGSYIFMILSQMFAFYWHANEVLEQSLGIGDAIYNGAWPDFEEPIRKRLILIIARAQRPMVIKVGNVYPMTLEMFQKLLNVSYSYFTLLRRVYN,r
Pharmacophore2D,0.1078500162047881,-0.6074176851425779,0.049274669396265236,0.11287106718847062,0.23915858525925848,0.12515216704320498,0.012793592136741139,-1.9441179468508385,0.12667547264563905,-0.17927320252795576,-0.42425531721748255,-0.6161174317622515,MVLPKLKDETAVMPFLLRIQTIAGLWGDRSQRYRFYLIFSYFCAMVVLPKVLFGYPDLEVAVRGTAELMFESNAFFGMLMFSFQRDNYERLVHQLQDLAALVLQDLPTELGEYLISVNRRVDRFSKIYCCCHFSMATFFWFMPVWTTYSAYFAVRNSTEPVEHVLHLEEELYFLNIRTSMAHYTFYVAIMWPTIYTLGFTGGTKLLTIFSNVKYCSAMLKLVALRIHCLARVAQDRAEKELNEIISMHQRVLDCVFLLETTFRWVFFVQFIQCTMIWCSLILYIAVTGFSSTVANVCVQIILVTVETYGYCYFGTDLTTESYSVALAIYDSEWYKFSISMRRKLRLLLQRSQKPLGVTAGKFRFVNVAQFGKMLKMSYSFYVVLKEQF,r
Pharmacophore2D,0.47453336289220216,-1.267437540653145,0.6270711157811424,0.23126092718272373,0.6033338245675477,0.4922722542574798,0.4187286926721171,-3.2948290198429966,0.4705691271809469,-0.03779663567359859,0.11603966055638759,-3.591170835486465,MKFELFQKYSSPDTVLSFVLRLLHIVGMNGTGFRSRIRVGGIFLFYLIFLVIPPLTGGYTDGHQRVRASVEFLFNCNIYGGSMFFAYDVATFQAFIQELRNLTVLVCSHSYRLKYKLTRFNRRADIIAKVQTTCMGAVTLFYWIAPIPSICAHYYRSTNSTEPVRFVQHLEVKFYWLENRTSVEDYVVFVLIMLPVVVMCGYVCNLKVMTICCSIGHCTLYTRLTMEMVEHLESMASAERTASAIRNVVQMHSGLLKCIRLLNTSIRSMLMLQWLTCVLNWSISLIYLTNVGISLQSVTVVVMFFLATAETFLYCLLGTQLATQQQLLEHALYATRWYNYPIAFRSSIRMMLRQSQRHSHITVGKFFRVNLEEFNRIVNLSYSAYVVLKDVIKMDVQ,r
Pharmacophore2D,-0.16709912142696592,-0.36818053785010524,-0.010762126826709073,-0.002977793550394958,-0.00011333595339069191,-0.8114618338973403,-0.010180516906994619,-0.5554100281664469,-0.43597436958051916,-0.2118294694334959,-0.10519129478633027,-0.532497527283734,MVLPKLSEPYAVMPLLLRLQRFVGLWGERRYRYKFRLAFLSFCLLVVIPKVAFGYPDLETMVRGTAELIFEWNVLFGMLLFSLKLDDYDDLVYRYKDISKIAFRKDVPSQMGDYLVRINHRIDRFSKIYCCSHLCLAIFYWVAPSSSTYLAYLRARNRSVPVEHVLHLEEELYWFHTRVSLVDYSIFTAIMLPTIFMLAYFGGLKLLTIFSNVKYCSAMLRLVAMRIQFMDRLDEREAEKELIKIIVMHQKALKCVELLEIIFRWVFLGQFIQCVMIWCSLVLYVAVTGLSTKAANVGVLFILLTVETYGFCYFGSDLTSESLSVARAAYGSLWYRRSVSIQRKLRMVLQRAQKPVGISAGKFCFVDIEQFGNMAKTSYSFYIVLKDQF,r
Pharmacophore2D,-0.04157525327609481,-9.627729512195579,0.8775444969938222,-0.9880051654746127,-1.016893745514321,0.7427565415461574,0.17672160606847997,-31.71648035117395,-17.07668599276561,-0.355222220151137,0.5997461840854255,0.40999481902737667,MVRLSFEETLRNTNLMLLMMGIPPCEEPYPPGVLPSLKRNAGFIASFLLLAYTTIGELIYLKQMFERDVTFLEVTFQAPCIGYCTIGVLKMVILARGRNTIAELIGLFRAKWTAAIVTGEHWAVCEDTMRPAIRVTSVTALANVVMGIAFTILPIAEMIYTHHYTGRWNRQLAFNIWWPFDVLGGVKYYWFVYPLYVVIGFTGIIIHMAFDCLFCILAAHLCMQFRILAHNFGHVVEVANGAGEGDSGSTSRLQDAIRIHQELIGCSVFMQNVFGNALFINFLGSSIIICIQAFMITTVSGYMLVKFVLFMLCFLIELLMLCAYGEDIVESSLAVIDAAYGCEWYREGSVAFHRSVLQIIHRSQQPVILTAWKIWPIQMSTFSQILQASWSYFTLLKTVYGNK,r
Pharmacophore2D,0.11213095779903767,-2.081026837451555,-0.05483928339470889,0.27950628041708125,0.054138953716344695,0.060113715924026256,0.22173512233244508,-1.9018598755890683,0.12993744331992818,-0.07305956470133701,-1.9645382497832058,-6.595613940504091,MQRRLKRELLLQVQTKKMDPPTDELVRFESFIRVPEIFFAMIGVARYGEPKRTLRAYLKHLLFWSSCINTGFCLVIEHIYFVKAAGNFTNFLQLTALAPCMGFTALSFVKIMTIKLNETKLTDMLHRLDALFPSTVALQQRYGVYQYNRESQVVMKSFSILYMILIWMFNLLPLVSMVVGYVSDGTWHKQLPYFMWYWYDWHRPGYFEVTFLHQNWGGFVSAVFYLSTDLMFCAIVLLLCLQFDIVAYRLSHALPDDHQELVGCVRIHQAVIELCNELEHMFSPSLLVNFLSSSVIICLVGFQATAGITPADLFKFVLFLVSSLVQVFLLCYYGNKLIVASSQIPYSAFEGNWIGASGSYQRSLLFVMLRSTTVQKLTALKFSIVSLASYSKILSTSFSYFTLLKAMYEPNEKKMK,r
Pharmacophore2D,0.11423003480526572,-20.291890941021663,0.20725312433645637,0.07060620589712197,0.04408186675470149,0.173800331545106,0.0754086454929428,-92.91047300013413,-1.59688567175731,-6.610739994479995,-0.32661464481644154,-0.014741393920432833,MFLPSLRMILFIFRMFYAWPDEHLEKSALWWYRAKGVLFRVFFIYLSAATQLAYNFTVTSREELFAGMFVLLTQLVMILKMEFFYKNVSKIQQLIRRLNGKLYQSRNAEEDIPLASARKKSTIFWVLYFMFSDGLVTEWLVISLLLTTLIVPVWPGVDHTTPYWVVLMVILYQYLAIVLNASFNISWDSLVAALLALTNAHLHRLQIQLLKVGHQNRHLQVDANKRMITVSPIDDDTQSVPTKSDADVVYNELLQCIIFHQEVTGFLREVLTLFSGPMLSQLYCSVFILCITEFRLLTDVNTMADTMQAVMYLVCLVIQVVQYCYFGNEIIYMAQKVHQATAFVNYPDMNIKTRKLLIAFQQITARGIKCSAKYIFTIELSMQTFVTVRQNGRHNILGTRY,r
Pharmacophore2D,-0.22199017404643667,-10.890795509947887,0.13025320115761985,-0.00348145654197074,0.13167871193898284,0.027439367316797636,-1.395840694103613,-34.576632941771315,-9.087775816366861,-10.28054657120367,-0.4324899939671589,-0.07653222643042534,MEVLNCPLLSVNVRVWRFWSFVLVHNWRRYISIIPVTALNVFMFADLYRAWGNIEEVIINAYFAVLYFNAVLRTLILVYNRDKYESFLAGAASVYEEIRAINDDVITKLVSTYTKRARFLSISNLALGAFISGCFVVYPLFTGQRGLPYGMFIPGVNNFDSPQYEIFYITQLVLTFPGCCMYIPYTSFFASSTLFGLVQIKTLQHQLKTFRSSEMLNESTVVLDRKLQKLIEDHKRIIRYVQDLNDLVTYICLIEFLSFGLMLCALLFLLNIISVMAQIVIVGAYIFMILTQIFAFYWHSNEVREESMAIAQASYSGPWLNVDDTIKKKLLMMTIRAQRPLEITVGNVYPMTLEMFQSLLNASYSYFTLLRRVYN,r
Pharmacophore2D,0.19092336352431702,-8.458935900541487,0.24892690268796724,0.17960121052452027,0.11410368483008593,0.27397466293722983,0.13801035664178185,-40.09952890083797,-1.892436621888761,-0.3747298419199345,0.12625662645299007,-0.05424076451376458,MELKEEWILPDVVYANPLLKRTLLGLRYYGILLGQSQSYKKVHCFRGMVFTLSMVLFNCTQYIDLWQVWGSVSDMTANAATTLLFSTTIFRIIFFYFHRARFNSIIKAAHDGIERILKDGWTDEQSIVGSNVRYLKRLAVVFWSCALVTANMMCVYSLVQYLTYEEGPPDGTGTSAANITRKGQPIPPTPILRSWYPTADGKDKHFLEIYLIQLYIMYVGQLIVPSWHMFMVTLMIYGRTECSVLNHRLCFLERYHTAGKDDPTAPVNNAERRSLMIDCIKRQASLVSFTRELEQLTRAAVFLDFVVFSVLLCALLFEASMTPSGVQVFIDVCYITTMTTILFLYYWHANEIHACADRLSMSAYKSDWYRYDRGTNRMLQIFILYSNRPLKMHAFFISMSLDTFLAILRASYSYFTILKQLTD,r
Pharmacophore2D,0.14475392182285132,-6.8154571930104435,0.2638919135627129,0.145623496369094,0.20327345552819098,-0.1850066616632735,0.2959874053175322,-31.14629518368602,-2.4117351297546,-0.2891955322858555,-0.1602482938288199,-0.06981182549692,MEKLRPEDPKAVMPYAKRLLQLSGFRQDTEQLGTRIYLNLFIFVAAILIPKVCFPYPDTEAMVRGLSELIFFTNIFVGLFCFIAQHRPYRELLNAIESFVNIVYRTSSQQPESLSERTLIKLNVKINQISVVYCYYVAVAAFTYWIAPCLITYLSIHKEQDIAGNGTMNAIQYYPNLEESFYWLDNRTSVRGYAVLSVVAFITFIFAVYSQTTKLLTILSTIKYCSTLLQLVNIAIEGLSSISPENIDLELKKLIQMHQLAIRCVALLNQTLSYVFALQLVLCMLTWCFTLLYVLVVRLDVTSMMSLLIMINLTPEMFGYCFFCSDLTTTGTTISRQMYEFQWERHRPAIQKTVAMVIARGQARLRITAWGIIPIDLELFAKVVKASYTVLLVLKDFI,r
Pharmacophore2D,0.16786619086546978,-20.12508015829568,0.4230844407720723,0.06908673679019994,0.1464319678645537,0.1670177484268578,0.03371006047366509,-94.27084559031529,-5.180198078684654,-0.8455584124967441,-0.28933212698235145,-0.039466582999378774,MNFLRQEQPAGMPHISIKLLQLFGVTGPPEERFRILPVMLAYFFFIVVPKCFFGYPDLEITIIGTAELIFQSNTFCGMFWLFLNRHKLAQFITQVRNFSLTVFRESPLAVVQHLTTQHDFIHKITRIYCIVVMFAAHFYVLTPLLSTFYAFYGMVRNDNATMHYTLQMEENFYGLQTRTTTSHYLLFGMIMTPTIYLCAFTGTVKILSICNITMYCTLYFQLVQLKLRTVTEDNTFRQEVKSIVVMHQDALNCASLVESITSLVLLQQLVLCVMIWSSMLLYFTVSGFDLNFINLLVLFAFDTTETIAYCYFGEQLSNESARVAHTVYESGWETQTPDIQKDLQLIIARAQRPVGITAGKFCYMNMEQLGIIVKTTYSIYVILRDQF,r
Pharmacophore2D,0.2961894688169511,-9.054624621219071,0.5871175894878771,0.13556622190804768,0.10319379472024248,0.4067192215618619,0.248350516406726,-31.796862951337303,-13.464568084332907,-0.48370094435793276,0.1269216997703102,0.3450871741624866,MNFLRQEQPAGMPHISIKLLRVFGVTNHSEERFRIVPVMLTYFFFIVVPKCFFGYPDLEITIIGTAELIFQTNSFCGMFLLFLNRRKLAEFIQHARSFSQTVIRASPPAVVQHLTTQHDMIHKITRIFCIVVMFAAHFYALAPFLSTLYTFYGTVRNKNATMHYTLQMEENFYGLQTRTSATHYLIFGVVMTPTAYLCAFTGTVKTLTICNITTYCTLYFQLVQLKLQTVTQDNTFRKELKSVIKMHQDALNCASLVESITSLVLLQQLLLCVLIWSSMLLYFTVSGFNVNFMNLFVLFVFDTTETFAYCYLGEKLSYESARVAHTVYESGWETQTTDIQKDLQLILVRAQSPVGITAGKFYYMNMEQFGIIVKTTYSFFVILRDQI,r
Pharmacophore2D,0.20318826803046983,-8.40102159866496,0.5715327232254244,-0.009288837274890493,0.20795239987015934,0.2156120278982162,0.030133026433439847,-41.1236082405752,-0.04496785577410245,0.18709596992581035,0.06636835275342057,-1.0899962196547266,MRFFLIEKPPGVPHIALKLLRLVGVSQTQSERYRYVPMFVLFLLTIAIPKIAFGYPNFETSIIGLAELFFQTNRFVGVLLLVLYSDSIFELVRQSEFFAKKVLSETSPVAEYLTKMDTQVTKITKLYLTALLVPANFYSYSPIVATLWKYYNTYENDTVPEFTLHMEESFYRLNVREKLDHYLIFGAIMVPISFLCALVGTAKLVSILSLIKYCTIYFQLVKVKLEEVGRSQNYASDIRSAIQMHQSALSCADLLHDITAPIMLLQLVLCIMVWSSMLLYFTVAGFNTQFISLFILFMFDTTETFGYCYLGNQLSDESARVASVVYDCRWEGMPPALRKDLQLIMLRAQRSVGITAGKFCFMNMEQFGEVVKTTYSFFVVLRDQF,r
Pharmacophore2D,0.11788040033009446,-5.187448024531088,0.36299930775246847,-0.3734711560555821,0.17602523243361945,0.21077685460085382,0.21307176291911267,-19.011094446689988,-5.931817726212711,-0.8222885555574635,-0.0706436879593777,-0.10139570623589722,MTSFKPSDDTDVMPLVLRLLRVIGVWDVPRYRYRYVAVFLFYVFGILVPKLCFGYPTLEAAIAGYTELILETNVFAGMLLFYQRYDHFVPLVDELRAFAAIVFQDNQPMFLRTNLTDLNLRIHKYTLCYCLYMCFCCTVYCVAPLGSNIAGYTAAMADTASNSSSSTTFAFTLYLEQGFYWLDNRTSLLGYCVCTVFMFPLMYLCAYTATVKVVAVFNMIKYCQTVLRIVVLKLRLLKTLPDVRQRSDGMSEVWVLHQRALRCAELLELVLQPLLLMQFVLCILIWCMMLLYFTVSGINVKFINMFLLFLFVSIETFGYCYLGTQLSQESINIGQALYASGWYEYDVQMRKYISFMIMRSQRRVGLTAAKFCFVDMEQFGAMLNMSYSFFVVLKDAF,r
Pharmacophore2D,0.35496355100364596,-7.1861844871217055,0.38179808634583745,0.35924718962077773,0.31670841280156925,0.3770752584818243,0.33998880776822127,-25.894118441798398,-7.088540039762828,-0.0642889623002052,-2.3636525887418784,-0.5203224030052267,MLRLSPEDPKAVMPVVKRLLKLSGLTQETTRFGAINFLNLFIYIAAVLVPKVCFPYPNTEAMIRGLSELIFFTNVYVGFFCFISQHRHYRDLLNAIDSFVDVVYPTATHPSDSPSEQILIKFNVKIQKLSVVFCWYIAVTATFYWLAPCLMTYRSIYKASVSVENGSVQSIQYYPNLEESFYWLDNRSSVYGYAAFSIVALLVFTVASYNNATKLLTILTTIKYCNTLLQLVIIEVDNLNHATSNAIDRELKQVIQLHQRAVRCVALLNQTLSFVMTVQLALCILTWCFTLLYILTVGLDVTGMNGLLIMFNMTLEMFGYCFFCTELATTGTLIARQSYEFRWEEHDPKIQKMISTIVARSQLPLRITACGFITVNVELFAKVIKTTYSVFIVLKDFI,r
Pharmacophore2D,0.15919782923279774,-2.5662314953746015,0.13828702094216738,0.1736616975046863,0.25474078958385116,0.12461487537181182,0.1046847627614721,-11.793202636657973,-0.13683199417295078,-0.16085359042516845,-0.44018569234380633,-0.3000835632731089,MLRLSPEDPKAVMPFAKRLLWLSGFRQETEQLEKKIFFNLFVYVAALLIPKVCSPYPDSETIIRGLSELIFFTNVYVGYYCFVVQHRHYRDLLNEIQSFVNVVYPTSQQPESPSERTLIKLNVKINKFSVLYCWYLATAGLIYWGTPCLMTYHSVLKAKAEYGPNHPIRFYPNLEGSFYGLDNRTSVYGYAAFSIVALLVFAFASYNNATKLLTILSTIKYCSTLLQLVGVEVDNLNHTSSEAISRELKKVIQLHQLALRCVALLNQTLSFVMALQLALCILTWCFTLLYILIVGFNAIATNGLLIMINMTLEMFGYCFFCTELDTTGKIVSRQMYEFRWEQHRPTVQKMVAMIIARSQTPLQITACGFIPINLELFTKVVKHSYTVLAVLKDLI,r
Pharmacophore2D,0.02776425644264304,-0.21268018024576313,0.05883896622392715,0.09371208925108121,-0.0745311569934306,0.03271396965285389,0.028087414078783568,-0.10835129059965154,-0.023160800511642154,-0.078156231158522,-0.9430493951615304,0.0893168162025304,MKIWEKYLERKRTLYHAKYQTPQQLFDGACDIVIKCFAVCGGERMKPGYTRRNARLIFLVTDLILYLFVNLYSIAIVWGSLMDVVFCFVTLGIAIQGLAKIEAFTCPELNDLHLYNVARFKAPPRFREVDEALFHTATMCMVFIRIFAVAFSIVAIAIYSYAILMPLIEHELSLAFGFYLPFIDYRTPVGFAINWVYQFVQVLEGCIGLMACDSCLLVLIMNATGQMDVIIVYLKQLTLLIDNNHTGQHDDEIADIIKEIVLKHLEHTKYMTDMDKLLKKQFFINFGCMIFELVASLAIVVRVPWYPGMAICLICTNQLFINCALGTFLSSKNEKLVEEIYNVNWYGLTTKHQKTLQQILLTSQHPVVLSDGFSPIDLFNFVEIYKKIYSYLMVLQKVS,r
Pharmacophore2D,0.2834257733100569,-0.1840144640916083,0.21335230893436474,0.15402528422571005,0.27745937421584643,0.35885174377996043,0.41344015539440293,-0.20931963499955475,0.19239338303903486,0.10999439511620979,-0.7054811431511294,-0.3076593204626019,MEQEINQIISFLRRPLKWLGFDVIDPNWKVTPLTMFTIVMFALQHYTSYLYLSTHLDMFDMFTECFSTSAVALEIAIRMGLLVHQRELRNETIEIIRQQHKMFGNSAAIRKVTARFHKLISVTQHALAACYMSTMMFELIPIVSPNPRKSNLPLPMYLPYMPHDVTPYWHLNYTFITVMNLMCILFLVGIDGLLVLSILAAVHQIKLLKITIQELDIGAEQAELHRELVRIIQIHQRIQQFIHQLEQTYYIDLLVDFGLVCLILCMGLNVIADEVINAIWFFLIAVVFQLSLLCFSGNLLLIESDSLSSCVYSIDWHTMPVPEQKLLMVMIAHAQKPQVLRGIFMPLIMSSFLSVIKASYSYFTLLH,r
Pharmacophore2D,0.18292516681952625,-1.9549443333568608,0.13177586855145373,0.2681195638822367,0.11491447444555047,0.2691817266516603,0.13063420056673014,-7.361012519639301,0.4775219987334095,-0.16528293359387058,-2.5139221644782412,-0.21202604780629852,MDSNSKKDTFPLIQISTKMLQIIRLWNESSGQRMSTFGALLIAVFPIMWLIPSWLFIVSSQDNIKRLMKAINEQIVFCIVFLKFSFYAIHFRRWEQLFYDLQRSFSTVVNNPSLEIQTILGHVTKSTHKLTKYYCSIVSFNGAAYGLFPMLFIVVKYAVTGSYDVPLSTPIEGNYFIPGFRTNFWVWLPFNLAQNMVLQCHSFAVITIECFTWNLVYATSCMFRILQIQATELLDRSRDKKEWNIKFKTFIALHDSVLRSARTLEAILSGQILLLYVSTILAVCLGMVVLTLAIEDVYLLLTTFVAFGYCMFQMFSFSYLGTELIEQSEAVADGIFNSKWYEEDVKVQKDLSFVLMRAKKPVRLTAAKLFVVTRDSFTQVMKQAYTIFALMSQFLDDIAN,r
Pharmacophore2D,0.045289489758531774,-2.150585744143669,0.027023317036161232,0.026174044803837893,0.038715565115789885,0.07818359798704866,0.05635092384982121,-8.700540041965636,0.16636867402044375,-0.14658969842585634,-1.786506152977093,-0.28566150137020174,MKPSCKEGVFPLINLSIKLLKIVGFWNKTTGQRISVIGLLAVILYLLAWLIPNWLFIVSSQDNITRLIKATNEQILYFIAFFKLYFYVIHYRRWEKLFYDLQIAFSSVMTNPSPEIQGILGHVTKSTHNLTKYYSYVVNFNCAWYGVFRMLFIVVKYAVTGSYDVPLSTPIEAKYFIPGLHTNFWVWLPVTLGLNVLLEWHSLALVFVETFIWNLVYATSCMFRILQILANELSDRKRNEGIWTVEFEKFSTLHDSVLRSAGTLEEILSGHMLLLYVSTIFSLCLSMVVLSLPIDDFILLLTTFVAFGYCIFQTFSFSYLGTELIEQSEAVADAIFHSKWYTQKLNRQKDMCFLMMRANKPVKLTAAKLFVVTRDSFTQVIKQAYTIFTLMSQFLDNPVN,r
Pharmacophore2D,0.33772414056081346,-9.670252864615247,0.4997975017334023,0.4650070359684054,0.1788235389673064,0.16120025737334953,0.3837923687616036,-47.79800251381829,0.0053566900284977015,-0.010754974099534298,0.26015371778924223,-0.8080172429761578,MKFFQIDDTREMLPIGCRLLKLCGLPCSGRVNRRFWLMCVFFFVFGQIPRFLIKLDEPIALVRVGAEIVYSTYIFLQLIALYARRSDLYRLIDTLQECVENPYPDDVRAFILSTRDTINKSSVMYSKCFLAVCISYIIMPFMATSAVVVRNRRNQTGEQEEYVMPTEMNFYYLDIRFNLLHYSLYFGAVIGLSVIGSLALCTKDVMDFSLIRTASMLFQATAQQIRNLPPGASQAKLKAIIHSHRSTLKCAAQLQNALNPALLIQITFCTAIWCLMLFYILLLGFTSKVMNVCLLLLVLTCETYSYCQLGTQFTSNAEEVLDELQQLAWYDQSIPIQKQIYFMIHRSQTRIELTAGKLFPVNIAQFSEIVKKSYSYYLVLKDIF,r
Pharmacophore2D,0.3303605749366535,-3.3730352110707025,0.2937901644830988,0.3988153224085076,0.29083448819086344,0.2536518890328606,0.41471101056793724,-14.298222969715495,-0.34434331889310466,-0.11026860326160115,0.34919972657870035,-2.4615408900620124,MLAAETVDFFRVQSICLRAIGIARTDSFRGRVLFAVSFFTVLVMMLGTVMFAFKHIDQIMLLCDCLGPTFTAYLGLVRQYNLLQHRSELWSIVDEFAALKHSLQSSEIRIVQKYNRIDRFLAWAYLITAMSTGVLFVGVALVLVFLSEKSDWKLPLLMDFPFDVKHPVTFTIFFVWCSVAIFWVVLDCVACDSTFGTFSSCLVAHFVIIQERFEGLRFDEGNRELKKLIEHHKYILRISDRVINAYKNVILNQLLISSVLLCMLGFQLVISVGTNIMVVYVAYGMAITIQVTYYCYYGSQLYYESTQVHDAVFKSKWYDASVATQKMLINCMMRAKKPVNAKSGFTQASLPALNAILNSAGSYVALLMSLME,r
Pharmacophore2D,0.17949524279430767,-0.0357198077519598,-0.09326435875217798,0.33194349749947005,0.19200835568432884,0.1592257344444058,0.3075629850955117,-0.6249008552767406,0.09341885020524576,0.07856261793129315,0.1697780607808992,0.10454228759950346,MSQLNEFPAYQFRLIRFCGVVEQPSLKNNVRCLFAFILLCSFGPLHVWYLAKTPVLDLVVTCEEIMLIQLCFVMLLKFNLFITYRSGMYNLVEAFKRILKCIDKAEFARFVKCSELHAKLLRAYVIGTSIVLLLYELNAIVASITLSLQQNKVCFVTPFSFPFDYQHPFVFALTFLHNFDAMLVTVCTSVTVDSCFSEMASNLTIHFDIVRERFEKLDLSAAQPYAEHQLRNVITYHREVLSLAQKMVQLYQQSAFYLLLLVSTILCLLGYEFVMVSNIYKRMQVAILASIMIGQAAIYTYHGSAISAKSVSVADAIYGTNWYDAPLAVKKLVYICLMRAQKPVIMKSGFIEASLPTLKKILSSSASYITMLMSLEADLNEKKT,r
Pharmacophore2D,0.3530270915941941,-0.3109779064164517,0.4203919330763779,0.27007615844915145,0.3912727697191216,0.2578617556102486,0.4255328411160706,-0.9758638058685614,0.42274748269791296,-0.3690366821389295,-0.684039127290234,0.05130260051755331,MEYIYRWILRDDTFAKEVYIKYNFTKLRTLGIYKAASKTRLARRAGFYALELFFLLQLGTIVWDLATVLGDIGLFGDDMCILAGLLLTLAKKWHCVLYIDELWECVEQMQTYHEHYLLQGEWFVRRMRHQNLQERMLQDASKLLATLLASCLMVNALFSNSETLILRAIYPFSTATTLGYGCVFVCQAFLIVYVLYSMVLIDCIGAQALSQMALLFCMQRKQFELIGADLQLPPEGPLHGDRSIRDQVYSAIASHQQLLSFCNRLKRLYEPNIMAQFVCSMLIICLTAFELMFAKGDPMQMVRFGAYMLAGFYQVFVWSFFGNRVTNMSTGISDATISCNWIVLADGLKKDLRFTTMRSQKPFVIDVYWLFPLTYETFIAILSRSYSIFTLLRTMIE,r
Pharmacophore2D,-0.37586700076542334,-0.4043222855076817,-0.23801613106023423,-0.1296379778961867,-0.3007397871237607,-1.2584239427315036,0.04748283498456851,-0.17975544435997604,-0.0002777839927876613,-0.18304487807538306,-0.14510659863083997,-1.5134267224794216,MSCVEDFLDAQMWYLRYCGVFREKSALGGIRLSVCLGVLVVFMVLQSIYIFQHVHHFAMICDAIPTLVVCMVAISKFYIFVFHPAALFALIDSFKALQRRASREDLLLFRRSGAFHAKLTKIYMTSALIVGWFYILSAIVSGISRSLAEGRVHFVAPMAFPHNYQHPVMFALTFLFNCDSIHMSIFISGSVDTCFSELATSVTIHFQLIQRQFQTVDFAARTAEDELEVVVAYHKDVLQLCLAMTNLFQYTVFYLLLLDSVLLCVIGYQFVIFMNTPRVLMLASMAFVMVLQAVIYCYHGSMMYDESLKVADAIYQSNWYEAPPAVQKRLRLCIMRAQKPIVTKGGFIKATLPTLKKILNSTGSYITMLLSLETEQ,r
Pharmacophore2D,0.2115949649662395,-66.40746978112097,0.45159432633939534,0.18624365070399862,0.0712536223544763,0.08899971401627182,0.25988351141705546,-332.1655067089264,0.20240837422062885,0.05090087903398399,-0.19605505951409818,0.0709036095811083,MIITVAPVTDARPQTPEDCGMFKFQRKILLIFGCWPPDRLTRRWYVKVLIAVNLITLAICIVGEFRYCLYAYRNGSLIETIESICPTVARFSGLLRMCWFLRNEHKIESALNSVVYLIKNEHPRETGYTNRITARDQTLTKVLFHSSFITAILYGIIPYFMMAYNWFQGQYPLVKLLPFKVVLPYDSQDPTLFILTTIFLNYASAPTVTAMTSSDTLFSGVCFYLQGQFQAIRLELEALAETVDKNTLKSSAAETLRINLELRRINKRHQTIIDVVSEVRHAFTPTILIVHICAAFMICVISMAMFLAEGINKLTYMPYTFTVLMLLFMYSYSGTIVRDSSEAIQTVAYGFPWYRFDRNTRHLVQMMMVRAKYGCNVDVPFFQTSMATFSVIVRSAMSYITLMKSFL,r
Pharmacophore2D,0.2870077943608163,-1.2235357023106166,0.4073128500676727,0.440576139982927,0.28490534583709204,0.27689097449532885,0.02535366142106077,-5.239686791046052,0.39824444225413314,0.15436773250647284,0.006484459917315832,-1.4370883551849536,MVSFGAAASNPRDAETTPQWDIFKLQRKILLIFGVWPADRLVRSWYVKVLIAINLATLAICMVGEFLHGLYAYQEGDLSESIESICPTVARISGFLRMVFYLANEEKIHRVLNNISKTLQDEHPREHTITKQLTTLGQQFTFYLFLMMFFAACLYGVTPFFIMIYNWVQGQRPLVKLLPFKLALPYDSQNLFHFVVTTLFLNYASAPTITSQSGSDALFSGVCLYIYGQFQAIRLEVEALAETVDRNTLKSSAAETHRINLELRRISKRHQAIIDLVSEVRSAFTPNVLLVYTATAIIMCIVCIAMLVVEGIYKLTYLPYAFAELTLLFLYSYSGTIIRDSSEAVQTVAYDFPWYRYDRNTRHLIQMMMIRAQYGSNVDVPFFETSMASFSAIVRTASSYITLMKSFL,r
Pharmacophore2D,0.20415833868864955,-0.9802453303538343,0.4106912847297812,0.1183435810284843,0.0653728933875698,0.23418046260781522,0.19220347168959717,-0.4100976984286617,-0.21779574282237713,-1.5225693043799744,-0.2370681931187486,-2.5136957130194095,MSEHPIHTFDRLIKRQRLLLKLIGIDSYDPAFRIHSLTFMLVCLALTFFVISLYDLYLFRDDLFNFVYVLITIFFATIGIGHISVFLLCSKLLAELLEQSYRTYRLVVDDQREQRILQWYTRLFQRAVDGYTLVFIGTSVAAGLLPLAIYLLSGDRVLPYGVVLPFVDPDSLVGYELNYIYQVSCIIWTPPGLVASVCMLFGLVLNICIQYDILAVKLQDLDELIRSPHPHRDAMIGCKLRSILRNQQRLISFIANIEAAKNVHSAVEVLSLGLQIVITLFVLQFSLWIPGLVLIPVFTMQLFLFCLLGTIIEDKGVKFSAGVYSLTWNELSKQDKQIFRLLLLSSQQPQTLTCAGMTCISLNLFVNMSQKFYSIFMMLRNM,r
Pharmacophore2D,0.3590055832110929,-0.10515629450958175,0.5414200363362631,0.4136659459355527,0.328946393436629,0.36592713510743713,0.14506840523958253,-0.37118339810685086,0.3862408708405961,-0.05690585877289567,-0.31326036240102884,-0.1706727241077295,METHIGKQHSLERFQAMVAWQNRVLALFGCYMYLGKERVSYRIVPICFMACSFVLLSLYSAVQARGNMGQAVLSIVVLFYGIIGVTRLAVAISNPAGCYRSIQIAEEMYQRANGSNPAECNVLAKYTDLFCKSVQLYTVCFVLSVVVLTLMPFALYLLRGERYLPLGIVLPFTAETDDFGFWCTLVVQLAYMYTGPFGLIPSQNIYFAFVFNICLQYELLIERLKQLDERIRSSNNLKLTVRDQLVKIIQLQQESTNYITHIERFYQLQSFVEFLCNSLQVALTLNELHRNFWLPGLFILPIAVMQMLILCSLGTLIELKSDQFKDQLYDIAWPEMDLPEQGMFKYVLKSAQQPKQLTCGRFAVINMNLFLAIHKKIYSFFMMLQNM,r
Pharmacophore2D,0.3369792855197386,-0.5179832757336638,0.4123382458898527,0.2148711467735911,0.3633564845148658,0.33184442655145185,0.36248612386893164,-0.9002408129159469,0.3534399598621216,-0.9089824325943812,-0.6640374066567667,-0.47009568636334587,MTFTLSHDLYVYNLHLIRWFASFVGLDIMAPNYKPNILTFLAFFGLSISLIGEVYTVWYFWPILDKLMESAAIFGVFIQGLAKFYTALRYRKFFEAMYNRLDLFHYEYRNHEKNNATLLLLMNRICLLRKLITSQFSISILTLMVTPVAQYILKGERFLVYTIILPFTDPEITSHYLLNLVVQYYLLIVGLAGFSAAENVLILFVTSVAGYADVLKNKINEMNTLLLDAQNSRDRTSVKLKLREIVLLHQRVLEYEDDLDKRYYLNNWVQVASSIFNLTGALFGCYVSNSFTMYALAITIVIQLFELCLLGTILSIKNEEIEHAFYDSLWYLMDHSEKKDFLIMFHKCQHAKEMTVASMAPLNIVLFIAIMQKIYALAMMMMRFSE,r
Pharmacophore2D,0.16428997913835452,-0.24218018915072906,0.3249862110555942,0.04380056668089405,0.1735274160569622,0.21198033397412686,0.0671553679241953,-0.8846192579001317,0.20492896256030202,-0.2819464898153816,-0.23895733506231598,-0.010306825536118058,MTFTLSHDLYVYNLHLIRWFASFVGLDIMAPNYKPNILTFLAFFGLSISLIGEVYTVWYYWPNLVKLMESAAVYGVFIQGLAKFYTALRYRKFFEAMYNRLDLFHYEYRNHEKNNATLLLLMNRICLLRKFITSQIIGCILVLSLNPVIQYIIKRERVLVYAILLPFSDPEITSHYLLNLIVQYYLMIAGIGGFAAAESVLILFVTSVAGYADVLKNKIDEMNIILLDAQNSRDRTPVKLKLREIVLLHQRVLEYEDDLEKRYYLNNWVQVASSIFNLTGALFGCYVSNSFTMYALAIAVVVQLFELCLLGTILSIKNEEIEHAFYDSLWYLMDHSEKKDFLIMFHKCQHAMEMTVASMAPLNIVLFIAIMQKIYAYAMMLMNFFE,r
Pharmacophore2D,0.41119725180415145,-0.210063741178653,0.38857676784171213,0.3925465159355256,0.39172932151220297,0.34679289849916317,0.5363407552321532,-1.1957813193386206,0.1579415514561876,0.2885775610097717,0.09597469696937022,-0.3970311959899737,MPRATSNSAANLERLVIRISSHMAVLKLNIIDPAWRPTLRFGIVLFLTALVPVYIWQGIKVYRTRFETLLEVLSVAGCGWQMFFRMYFYLFQQDRCRQIVQEVRDQRTVYGADRNPRMEKLFRAGTKRMLLAYRVIHLMYGTSYFFQLGPLIMPDPHKCNLPLALQLPFLPPDRNMVYYCINYAHHLLLNTIGVFILLPMDGVLIVALLNICTRIAAMQLLLEELDAKLGTVQWQQTAHLDAELNRIIELHIDTKRFARVIYETYQMHFFSMFSVLCFVICMCMNVVARDPRSTLIPFGLASTGQLFVICMLGNVLYIVSDRLKDSVYGIRWYRCTVSQQKRLLFLLANAQPEIVMGAVFIPVTMTSFVTIIRAAYSYFTILY,r
Pharmacophore2D,0.062109625216097794,-0.4200583816729214,0.34578654134116227,0.0560522781185494,-0.06225915647193059,0.05468226543343346,-0.08371380234072556,-0.46697169353316736,-0.5983448146426955,-0.35660397995941584,-0.6815798442580194,0.003208424028691037,MVVFDPLDDPLKVLPLPLKLLALLGVNKNPSERFRLYAIYIYLWVAMFIPKLCLGYETIPQCFRSIAEGMFSFNTTVTFIMLPLKMDNFEGLLQNLQRFTQIVTVEEDYKQILISLNTTIHKFTKFYFIFTNGVVFSITGSTIAGMLYTYYTKDSKYSAAFPLVMENRFYVLDSHYNLGHCFVHQALMFFALYILLVMFTAKAGTLFGLIRFCSTVLGIIVLKIERLSQIGPVDQYTAELSEIIELHQLVIKCSRQLQNILMEILLAQFTGCVFIWCFMLYYVMISGITAEGIAVGAMLIALSTETFIFCLLGNELTLKGLEISTAMYSTNWYDQPVKLQKMVVPIIQQSQQRIGITAAKFYYIDYNRYGQSLKTAYSFYLLLKDIF,r
Pharmacophore2D,0.43842470821148594,-1.761230286392322,0.6178907576601083,0.08140909814073638,0.4118799235136217,0.6250030658749258,0.45594069586803754,-8.492553122335892,0.08008468087198017,0.17351098237145635,0.05501248191471464,-0.6222064547838684,MVNLFARTPADNFRVMPYNLRLFAMLGLWGDRRKLYRLYVLLLLAYVAIIFPKPVRITDRHPFESIVRSVSELIFAALCYLTIIILAIKSEPFRAVIRKLEQALELFRDKQDQCSQLIIEVNANIHRFSLGYAKLNLLYVLLFNIIPPIYNYPRYFLQWRMPEDNRTVEFMLPLMQDLYGLDVHHNIVHYTISWVAITPFCVFFALILWFKGALFMLIRYNTLLYQLVNRLLQQYDRESAGGLLAQKHRRLQQIVQLHYSAIECTKLLDSILSLILLIQCIGCLLMLCLMLFYITRNHSLNVINIAVLLMSIFIEMMCFSYLGNQLTEENANISHSAFNCRWYDEPIVIRKYFLRIILQAHRKATITAGKFYNVNIVTFAQLIKTSYTYYMIMKEMF,r
Pharmacophore2D,0.26528364817669214,-0.6907957345982222,0.2582486498280474,0.336060100534348,0.22751793999502168,0.2850869510458446,0.21950459948019896,-2.4678512732977667,0.27264169879327593,-0.25760181036286256,-0.7067478649561196,-0.2944194231676376,MLSLRPEDPKAVMPFAKRLLRLSGFSPGTEQLGRCIYVNLSIYITVILVPKVCFPYPNTEAMIRGLGELIYFTNVYVGFFCFVVQHRHYRDLLDEIQSFVNIVYPTSQQPESLSERTLIKLNVKINILSVLYCRYIVVAAFIYWMVPCVVTYSSIHKAEVSMGNESIQSIQYYPNLEESFYWLDNRSSVSGYAAFSAVALIVFAFASYNHVTKLLTILSTIKYCSTLFHLVSIGIDELNLVSPAHIDRELKKLIQMHQLAIRCDVLLNQTLSYVMALQLALGTLTWCFTLLYILIIGLDVTAMMGLLIMMNMTSEMLGYCLFCTELTNTATTISQQIYVFQWEKHSPAVQKMVAMIIARGQAPLQIKACGFIPINLELFAKVVKTSYSVLIVLRDFV,r
Pharmacophore2D,0.10012897113834143,-1.0358979997753326,0.1285998492346636,0.01383776261628733,0.23128317696380352,0.09882038727216469,0.02810367960478799,-3.579428948750265,0.119755050036089,-0.6586774593154225,-1.055093343438271,-0.006045297408794337,MKLLELDNPREAIAIGCRLLKLFGLGRDERFKLVYWLQCVAYLAFSIVPRLLVEIEDMVALMRLIAELVFVVYLCLQIMALYCRRRQLYRLVDMLQQCIDIPYSEQIESFLIRSNVKINQSSAAYARFFMCVYVLYCTMSPLASGFVYIRNQRNATGVQEEFIITTEMNLYDLDIRYNPLHYSIYAGLIFVLSAISSLSLCTKDVIDIAAIKTVTLVFGIVTMQIRDLHEQITQERLNRVIKSHSNALSCATQLEQALNLSVLFQFASCSAIWCLMLFYILLMGLDSRVLSVVLLLVIVSIETYAYCMLGSQLTTQGEDLLMALQQLSWYDQPVPIQRQILLMIRRSQTPLILRAGKLFSANVVQFGDIVQKSYSFFLVLKNVF,r
Pharmacophore2D,0.3370457066725995,-0.8698551818281677,0.5187686245136776,0.32092135705928027,0.3078797497888678,0.3768479343237602,0.1608108676774116,-0.34800252620524397,0.20969815886742937,-1.0793441469077134,-0.0004590211308792558,-3.1311683737644316,MYYLEQLRALVRRYLERRSPDPRIQHTFIVQSINRVGGMLGIDIFTPGYSSTNLLLRMVLLNTFTFFWINLYSLTTTYGNLVDFMYSFETLLYVGIACIKMYVFIKNKTLILQMHQYMIDFFDHFHGDREQDELLVRTLNNTTLLSSLFAVCSSSAPGLLFVGSLLWSIAVEYVLPFGFFIPTVGMDTLQGYTLNYGFQMLETTLMVIGIISSESAFFMFQQNACLQVDMLRLQLRRLSELSAANGDGSSTKEIRTRIQTIIQHHVEHLDYSKSMCSLFELHFFIVFGCIFFQLVSNVVVIVSVPDWYPGYFLFIMLTVQLFFSCALGETFNIKSDELTVAIYNVPWYNMEVRDQKAMRLLLMASQNPGRLSYGFGTVNMRAFFEIFRKTYSIAMMMISVNEEE,r
Pharmacophore2D,0.29164120343376354,-8.982858975711363,0.47101580130226794,0.14906059656753867,0.21253343476979059,0.339734156008178,0.2858620285210425,-43.25368018440459,0.3688318021880411,-0.5431024859558911,-1.205290553875714,-0.2810534565086562,MDIVSKQGEFPLVKLSTKLLRIIRFWNDSPGQRIPSFGLLVTAIYPLIWLIPSWLFLVSSQDNITRFMKAANEQIVFSLICCKLCFYAIHFRRWEKLFYDLQRSFSSVLNNPSLEIQTILGHVTKSTHNLTKYYCSTVSFNCAAYGLFPMLFIVVKYAVTGSYDVPLSTPIEANYFIPGLRTNFWVWLPVNITLSAMLELHGFALFFVETFTWNLVYATSCMFRILQIQVNELSHQSRNEKEWNGKLKTFIALHDSVLRSAETLEEILSLQMLLLYISTILALCLGMVVLSLAVNEVYVLLTTMTVFGYCIFQTFSFSYLGTELIEQSEAVADAIFHSKWYTQKLNRQKDMCFLMMRANKPVKLTAAKLFVVTRDSFTQVIKQAYTIFTLMSQFLDNPVN,r
Pharmacophore2D,0.3016060761911742,-8.258017593559057,0.40712140528858887,0.15205069555043804,0.33442075067441424,0.21229524201036587,0.4021422874320639,-39.83327353699696,0.2652322732495195,-0.736419728458332,-0.8796418112948765,-0.10598516429462967,MDIVSKQGEFPLVKLSTKLLRIIRFWNDSPGQRIPSFGLLVTAIYPLIWLIPSWLFLVSSQDNITRFMKAANELMVFSLIFCKLFFYAIHFRRWEKLYYDLQRSFSSVLNNPNLGIQTILGHVTKSTHKLTKYYCSTVSFNCAAYGLFPMLFIVVKYAVTGSYDVPLSTPIEANYFIPGLRTNFWVWLPVNLTLSAMLELHGFALFFVETFTWNLVYATSCMFRILQILANELSHQSRNEKEWNGKLKTFIALHDSVLRSAETLEEILSLQMLLLYISTILALCLGMVVLSLAVNEVYVLLTTMAVFGYCIFQTFSFSYLGTELIEQCEAVADAIFHSKWYTQKLNRQKDMCFLMMRAKRPVKLTAAKLFVVTRDSFTQVIKQAYTIFALMSQVLDDTMG,r
Pharmacophore2D,0.2208703404784706,-0.144776975355474,0.3812534704552587,0.2005980908396131,0.1580267953225547,0.14758661987922006,0.21688672589570646,-0.029040827207626796,-0.3807748202481325,-0.13245819910609646,-0.3169483384344096,0.13533730821889534,MFSASAEMEWFRQQRHAICHLREASDYLRYLRPFQLIAGYPINPRPALSKLATVVRLLAYLAYLGTLLHKISYVLYRPEDINYVSFVSGGITVLVAVLLLMLIFTVHYDAFQQLGTFLNDRAFARDHPLATGIRDRWYRWSNGLILGPQFCILLILLQTWISRQHLKKHTMLVVRGEPVGTEFDHFLYVSCLYFPTVGFFMGCSIVNAMLVGFLGEMELLATCLGEVFETVERQVKEEGPTGQPDSRAHYWSTLHGELRRCAQRHCAIFTMLPKLQRMASFVFLQHHIFSLGLVVAGSYVTLRGPALRENIVLSEYPISVVLEYFIFCQLVEKLQDMNRSIGDRLYGTEWMLKLQYSRDFQREYRSAALTIRLLIMRSQHRVRFTCGSINPVSMEKFTEFLNLSYSIVMFLLSIN,r
Pharmacophore2D,0.25783615194824083,-1.0456411269314594,0.25203384308013665,0.129627718469276,0.38726537656058435,0.34510028720401364,0.1751535344271934,-1.1663033311690434,0.024185570527790134,-0.7243177495093831,-3.237673016412737,-0.12409710809392416,MWHHQVQLWFRFLLGRFTTFTDSSDYFGLYKTLATISAIHYDASCWFDRAIWIVYRSLPILVNISYFYKAYRLILFPEDNTSAASVIASVWGFTEGTLRICLIELRYGTLASIMSFLNERSYRQQDSLVRQQRATLFGENNRIQLILVATMLMEAIWFMTTQLFSRDAFMLQVNGHVVDSIAVQILYGLLSNVWGLIYVLSFAIFYIIMNTFHLEMSILLDGITSVQFTVMRRLKQRMETLAASGHSSTMEQQVFWSILQPELNSHISRHVDLLDNLKDFSSIVGPFSFVQYYGTLALIADCGFILSIEGLSANGMIYLLFVTVLVFQSFILCRGIEKLNDLNEAIGQALYSGFDWPDMLRYDERFRRQYVTVRHTLMLVIGRSQKGFQCSYGGLGSISMERFAQLMQKSYSLLTILLQFAK,r
Pharmacophore2D,0.373408468705967,0.020534932553696362,0.38988778347899455,0.39723882166685165,0.46359363421130206,0.37839707753422047,0.23792502663846626,-0.5285524610029886,0.46810575285513234,0.07122077770522028,0.05846570796634676,0.03343488524477101,MYLTQLFASMRTQFLHRITHYTKHSDFFIMQRYFEKIYAIHYTPHGWHDRILWYLYRALYGLIYLSYIHKTHWVLHHPQDSFSTANILGVMWFFSVVILRVAILEWYYPLMLRMQTFLNNHTSYQRTDPWAVGRRARFYRRTNRVILTVMGINLAETVCFTATNVMKLDEFMLQFRGAIVGGWPVQIVYGVLTMGFGGMYCMGFMMCYLLLSIFKLEVDILIRSLEEVERSDRLESDFGDSADIFWNNIVDQLRPHMQRLDELFIQLQHLKAVIGPIAFVQYYSTYLIIADCCLILVSHGLSSFSIVYFISMLVFLTESFLLCHGVENLRDLKPRIASTVYDFDWMLQMRCPNPRHRAQYRHVRRTLLLLTAQSDQTIQFSFAGIGEISMNSFAQLLEKSYSMLTFLLQFAK,r
Pharmacophore2D,0.07646156778651121,-0.47533713408974554,0.03848280210848787,0.047927574470399414,0.01937862580712091,-0.008888534353596711,0.28540737090014456,-0.4687668333349526,-0.36837105253441993,-0.10863711556217104,-1.2208531615264224,-0.21005750749076157,MFHPSRWMAKCRVWYAATFKFSADADYFFLVQPLCRSLQLFGNPVRCLLEFGTVRGLFVQLCRFLFLLPYASFALKSYWQLNHPLDTNNSILTYGSFVIYMLWAILIWVLNHYEHEMCELRLFFKNPTYQEQSNWAHRIRAGNYRRWNWMILMFYLFNVINVSIFTLTNAHNRQFHFQTRGEVVGPLYFQIIVEIFTGYLSLGYFVPSCIMLMTLQLFRTEMHILTTTLKQAANEEQQQQQHQHAVDIRCAYRSFCKQFYANIRRHTELLQSIATFCKVFSPISVVLYYGALITITCTCFYVMKHDVSTTTVCYAGFAVYMLFNTLLFCKSIDSVNDLHTEVGYIMYSEYWPATLQYADQGLSTETLRPLRRSILIVLQQTLRPLRFGYGVSGSLSMQRFGEFMQQIYSLIMFLAQLN,r
Pharmacophore2D,0.10798669604778806,-1.4475101945586661,0.006650059953897003,0.11679101974899819,0.24682319394792818,0.07299269100508676,0.09667651558303014,-5.018431419643587,-2.2099520907850416,0.22461737780995517,-0.10615878924792899,-0.12762605092672907,MVKFFRCCKARVSPELLSKKNEKPETFLPSLRMILFIFRMFYAWPDEQSMAPNALWWYRAKGVLFRTFFIYLSAAAQLAYNFTVTSREELFAGMFVLLTQLVLILKMEFFYKNVSKIQQLIRRLNGKRYQQSGNAEEDMPLVSARKKSTIFWALYFMFSVGLATEWLVISLSLTTLIVPVWPVVDHTTPYWVYLMVILHQYVAIALNASFNISWDSLVAALLALTNAHLHRLQIQLMKLGHRKHLHRPKNAKKRMIAISSFEDNARSVQTKSDADEVYNELLQCIIFHQEVTGFLRKVLDLFSGPLLAQLYCSVFILCITEFRLLTDVNTMADTVQAVIYLLCLVIQVAQYCYFGNEINYMAQKVHRATAFVNYPDMNIKCRKLLIAFQQITAVGIKCSAKYVFTIQLSMETFVTILKTSYSYLAVLRSMTD,r
Pharmacophore2D,0.18688365679738292,-0.46217275311852546,0.32256792393965816,0.08964008389363065,0.31162060205318654,0.14902868300638428,0.061560991094054995,-0.06434540569803415,-0.09440729201708709,-0.5729191577838126,-0.6810851187482805,-0.898106791345413,MEASEKFSQFERYIRTLCNIIGFDVMTETWKKSYRTYISIFLCSQYLILMVYSLIIASDTFELFKSLSFLGFFFQCSLKMYYTIQQAPQYAVNFCCLKEAIYERHSKGTLAQKTTVARIIDLLVLVTKAISVLYTSSLFIFSLYPAYMYFVVHVKVPIFPLYIPGINIYSAYGYGITNSFHMLIAVYGLFGALTSDIVFIMFVVHFVTYGGLFKIECEQFDQDLSGVFQHCEWRTAVYKTFCRQRMRAIYQYHQSVIFYLESMQECYRNICVVQVASCSLSTVFNLFLALTTDWYATYGFIVISVFQLFVYCLMGTVMQIMNERMIDYISNLPWYMLPTEEQKQFKFMLARSQLSAEIMIRSVGPMNMETFTDIMQKMYSAFAMMYSFLVDLG,r
Pharmacophore2D,0.016056553152854192,-0.7240084697324277,0.36174949375879784,-0.0009755142090253077,-0.22921522662203464,-0.33955861459368997,0.28828262743022304,-0.11561217153562464,-0.3062019705152499,-0.35437561916931104,-0.4230865276406681,-2.420766059801285,MEASEKFCQFERYLRTLCKIIGFDVMTETWKKSYQTYMSILLCSQYFILMVYSLIIASDTFELFKSLSFLGFFFQCSLKIYYTIQQAPQYAVNFSCLKEAIYERHSKGTLAQKTTITRIIDLLVLMTKAISVLYTSSLFIFSLYPAYMYFVVHVKVPIFPLYIPGINIYSAYGYGITNSLHMVIAVYGLLGALTSDIAFIMFVVHFVTYGGLFKIECEQFDQDLSGVLQHCEWRTVVYKTFCRQRMRAIYQYHQSVIFYLESMQECYRNICVVQVASCSLSTVFNLFLALTTDWYATYGFIVISVFQLFVYCLMGTVMQIMNERMIDYISNLPWYMLPTEEQKQFKFMLARSQLSAEIMIRSVGPMNMETFTDIMQKMYSAFAMMYSFLVDLG,r
Pharmacophore2D,0.05393425678083867,-0.2722504992029022,0.07098145526463828,-0.016885952135785365,0.03587751601299094,0.11008455970746311,0.0696137050548864,-0.5392450527482315,-0.11708438252395581,-0.5900333628956738,-0.022010997300134116,-0.0928787005465157,MANVEEFRKLMKSLIVCSKVAGVEMWTAPGKLKPASYYLSFHITVYFVSTVWTLRKYIDDPIHMMKVLITMGTAVQLYIKFFVAHSKAQEVKLFTVELEQEVLKRYQNGSEEETAVLRRTGRILWIVHRLMSASYIFVAVAFGLYPAFYYFATGKVMPLFLYELPFFNVSSSLGYAVTMGFQINLLAIGVLGAILSDFMFFMYAMYAMARADISIVHLSELENILNDSTKNEEHSANVRHKWIQCMHDHQQSTSFFSTVENIFGLMCLAQVSTATLSICDAMLLVLLTDWYPTYSYLYVVFVQLSGFFVIGHLVELKIDALYNKIISMPWYRLPVKEQKEFRFLLSRQQCPMILTAYGFHPMNFEAYMSVLKGLYQFFVMILQYIGRN,r
Pharmacophore2D,0.1597375624673684,-0.07181867669789894,0.04018510174498802,0.2551863016845133,0.41836432737342266,0.3477587964741178,-0.2628067149401998,-0.8771321695559151,0.2518978255714295,0.27278265080291764,0.19666618230391486,-0.20330787261184158,MTVVHRIVSFGYNLLQRHFNVGHPTEQFFLLRCLDVVSPAMLLQRPRSNLEVALKTLCLSVMVAHTIALAYDFSQQTDVRLAMDMLCMLSLFVSIILRGTCMRQYLAHIDALDRLERRPTFRVGTPYADESRRNVALQNNRYLGVALVFHSLTVTVYVIQNMVRENSFVKIITSFPIDLSERAPVLERVADLCYSLVGYIWGWYHGATQLTIIVLLRYAITEFRVFLHSLDSLDDQLRQRREQSQGAPDEERILRKLLYEHARHHSQLIVVVTHLRTLLHNYSLVHFSFYMIIVATFMTRVLIIPGRSSFGLAIPLLVTTIYFLETFGMCMLVEMLVQLNRKVSTSLYGFSWPQYLRYGRTIKRPMMLMIMQANMTKDFSAGGLTTVSAELFAKTCRMIYTMMMFMANMAT,r
Pharmacophore2D,-0.00434284292267757,-0.8713196652191897,0.08865726288711373,-0.10001071676050444,-0.15272153271477662,-0.033261434042060944,0.17562220601684042,-3.654660648696277,0.145049472813489,-0.29522237466770096,-0.5064850019302023,-0.04527977361525726,MTVVHRIVSFGYNLLQRHFNVGHPTEQFFLLRCLDVVSPAMLLQRPRSNLEVALKTLCLSVMVAHTIALAYDFSQQMDVRLALDMLCMLSLFVSIILRSTCMRQYLSHIDALDRLERRPTLRVGTPYADESRRNVALQNSRYLGVALVMHSLTVTMYVIQNMVRENSFVKIITSFPIDLSERAPVLERVADLCYSLVGYVWGWYHGATQLTIIVLLRYAITEFRVFLHSLDSLDDQLRQRREQAQGAPDEERILRELLYEHARHHSQLIVVVTHLRTLLRNYSLVHFFFYMIIVATFMTRVLIIPGRSSFGLAIPLLTTTIYFFETFGMCMLVEMLVQLNRKVSTSLYGFSWPQYLRYGRTIKRPMMLMIMQANMTKDFSAGGLTTVSAELFAKTCRMIYTMMMFMANMAT,r
RDKitDescriptors2D,0.048696827033252135,-4.15335173906537,-0.014634479723058869,-0.038863790156707045,-0.001962144336372207,0.04937685010799264,0.24956769927440614,-11.934006062782052,-8.538298116798682,-0.058277386592801905,-0.202626205734578,-0.03355092341873478,MKLNKLNPRWDAYDRRDSFWLQLLCLKYLGLWPPEDTDQATRNRYIAYGWALRIMFLHLYALTQALYFKDVKDINDIANALFVLMTQVTLIYKLEKFNYNIARIQACLRKLNCTLYHPKQREEFSPVLQSMSGVFWLMIFLMFVAIFTIIMWVMSPAFDNERRLPVPAWFPVDYHHSDIVYGVLFLYQTIGIVMSATYNFSTDTMFSGLMLHINGQIVRLGSMVKKLGHDVPPERQLVATDAEWKEMRKRIDHHSKVYGTMYAKVTECVLFHKDILSFGDEVQDIFQGSIFAQVCASVIIICMTLLQATGDDVTMADLLGCGFYLLVMTSQVFIFCYVGNEISYTTDKFTEFVGFSNYFKFDKRTSQAMIFFLQMTLKDVHIKVGSVLKVTLNLHTFLQIMKLSYSYLAVLQSMESE,r
RDKitDescriptors2D,0.11530889848341744,-5.614634183197246,0.2730396381022486,0.2338709043604149,0.04151654527284965,0.057057197975350915,-0.02893979329377694,-19.66394349530549,-5.323115220575659,-3.116742480419388,-0.2144981457529349,0.2451284260672396,MLIEECPIIGVNVRVWLFWSYLRRPRLSRFLVGCIPVAVLNVFQFLKLYSSWGDMSELIINGYFTVLYFNLVLRTSFLVINRRKFETFFEGVAAEYALLEKNDDIRPVLERYTRRGRMLSISNLWLGAFISACFVTYPLFVPGRGLPYGVTIPGVDVLATPTYQVVFVLQVYLTFPACCMYIPFTSFYATCTLFALVQIAALKQRLGRLGRHSGTTATTGHSTGTLFAELKECLKYHKQIIQYVHDLNSLVTHLCLLEFLSFGMMLCALLFLLSISNQLAQMIMIGSYIFMILSQMFAFYWHANEVLEQSLGIGDAIYNGAWPDFEEPIRKRLILIIARAQRPMVIKVGNVYPMTLEMFQKLLNVSYSYFTLLRRVYN,r
