embedding,shuf_mean,scaf_mean,shuf1,shuf2,shuf3,shuf4,shuf5,scaf1,scaf2,scaf3,scaf4,scaf5,receptor,regressor
CATS,0.114895475924873,-3.0237720380741004,-0.07269191174707368,0.00816250680206776,-0.0019628853568045557,0.2687914807389079,0.3721781891872675,-6.801485048212471,-7.115081681812386,-0.0972177522627442,-0.20242635691126187,-0.9026493511716391,MKLNKLNPRWDAYDRRDSFWLQLLCLKYLGLWPPEDTDQATRNRYIAYGWALRIMFLHLYALTQALYFKDVKDINDIANALFVLMTQVTLIYKLEKFNYNIARIQACLRKLNCTLYHPKQREEFSPVLQSMSGVFWLMIFLMFVAIFTIIMWVMSPAFDNERRLPVPAWFPVDYHHSDIVYGVLFLYQTIGIVMSATYNFSTDTMFSGLMLHINGQIVRLGSMVKKLGHDVPPERQLVATDAEWKEMRKRIDHHSKVYGTMYAKVTECVLFHKDILSFGDEVQDIFQGSIFAQVCASVIIICMTLLQATGDDVTMADLLGCGFYLLVMTSQVFIFCYVGNEISYTTDKFTEFVGFSNYFKFDKRTSQAMIFFLQMTLKDVHIKVGSVLKVTLNLHTFLQIMKLSYSYLAVLQSMESE,r
CATS,0.3640091260949876,-0.1936750920767277,0.3478088008140595,0.33629174661945227,0.32873058847440684,0.20832180459015204,0.5988926899768675,-1.546780103264691,-0.0004621283998369474,-0.13977301980352363,0.16122300501526554,0.5574167860691477,MLIEECPIIGVNVRVWLFWSYLRRPRLSRFLVGCIPVAVLNVFQFLKLYSSWGDMSELIINGYFTVLYFNLVLRTSFLVINRRKFETFFEGVAAEYALLEKNDDIRPVLERYTRRGRMLSISNLWLGAFISACFVTYPLFVPGRGLPYGVTIPGVDVLATPTYQVVFVLQVYLTFPACCMYIPFTSFYATCTLFALVQIAALKQRLGRLGRHSGTMASTGHSAGTLFAELKECLKYHKQIIQYVHDLNSLVTHLCLLEFLSFGMMLCALLFLLSISNQLAQMIMIGSYIFMILSQMFAFYWHANEVLEQSLGIGDAIYNGAWPDFEEPIRKRLILIIARAQRPMVIKVGNVYPMTLEMFQKLLNVSYSYFTLLRRVYN,r
CATS,0.08388047806433588,-0.7797014034825313,-0.06962205460415172,0.19085016728446447,0.03352169391639226,0.24963505204161662,0.015017531683357732,-1.944116799481269,-0.039591693750180346,-0.5758944150735721,-0.31502108700144826,-1.0238830221061863,MVLPKLKDETAVMPFLLRIQTIAGLWGDRSQRYRFYLIFSYFCAMVVLPKVLFGYPDLEIAVRGTAELMFESNAFFGMLMFSFQRDNYERLVHQLQDLAALVLQDLPAELGEYLISVNRRVDRFSKIYCCCHFSMATFFWFMPVWTTYSAYFAVRNSTEPVEHVLHLEEELYFLHIRTSMAHYTFYVAIMWPTIYTLGFTGGTKLLTIFSNVKYCSAMLKLVALRIHCLAEVRQDRAEKELNEIISMHQRVLDCVFLLETTFRWVFFVQFIQCTMIWCSLILYIAVTGFSSTVANVCVQIILVTVETYGYCYFGTDLTTESYSVALAIYDSEWYKFSISMRRKLRLLLQRSQKPLGVTAGKFRFVNVAQFGKMLKMSYSFYVVLKEQF,r
CATS,0.04339827045673548,-3.5681549919641347,0.013104154055520234,0.059972174648899035,0.014724868162623972,-0.007654344356428089,0.13684449977306223,-15.546917969539017,-0.00046336063736696076,-0.7218170789136098,-0.16013998343655333,-1.411436567294126,MKFELFQKYSSPDTVLSFVLRLLHIVGMNGAGFWSRIRVGGIFLFYLIFLVIPPLTGGYTDGHQRVRASVEFLFNCNIYGGSMFFAYDVATFQAFIQELKSLSILVCSHSYRLKYKLTRFNRRADIISKVQTTCMGAVTLFYWIAPIPSICAHYYRSTNSTEPVRFVQHLEVKFYRLENRTSVEDYITFVLIMLPVVVMCGYVCNLKVMTICCSIGHCTLYTRLTMEMVEQLESMASAERTASAIRNVVQMHTGLLKCIRLLNTSIRSMLMLQWLTCVLNWSISLIYLTNVGISLQSVTVVVMFFLATAETFLYCLLGTQLATQQQLLEHALYATRWYNYPIAFRSSIRMMLRQSQRHAHITVGKFFRVNLEEFSRIVNLSYSAYVVLKDVIKMDVQ,r
CATS,-0.15419749478888756,-0.30440524477276354,-0.010762104054666821,-0.0029778111911722416,0.012287569863637993,-0.7566192995233034,-0.01291582903893329,-0.5554102502195803,-0.43597457751552215,-0.2118294860081269,-0.10519129462703769,-0.21362061549355071,MVLPKLSEPYAVMPLLLRLQRFVGLWGERRYRYKFRLAFLSFCLLVVIPKVAFGYPDLETMVRGTAELIFEWNVLFGMLLFSLKLDDYDDLVYRYKDISKIAFRKDVPSQMGDYLVRINHRIDRFSKIYCCSHLCLAIFYWVAPSSSTYLAYLGARNRSVPVEHVLHLEEELYWFHTRVSLVDYSIFTAIMLPTIFMLAYFGGLKLLTIFSNVKYCSAMLRLVAMRIQFMDRLDEREAEKELIEIIVMHQKALKCVELLEIIFRWVFLGQFIQCVMIWCSLVLYVAVTGLSTKAANVGVLFILLTVETYGFCYFGSDLTSESLSVARAAYGSLWYRRSVSIQRKLRMVLQRAQKPVGISAGKFCFVDIEQFGNMAKTSYSFYIVLKDQF,r
CATS,-0.2430940838807186,-3.4758674369236338,0.37881559487271244,-2.0748583715581552,0.12127083494427471,0.16179312283845682,0.19750839949911847,-11.046914451746748,-2.0557804336969183,-1.3879371728780003,-2.9926862957294476,0.103981169432946,MVRLSFEETLRNTNLMLLMMGIPPCEEPYPPGVLPSLKRNAGFIASFLLLAYTTIGELIYLKQMFERDVTFLEVTFQAPCIGYCTIGVLKMVILARGRNTIAELVGLFRAKWTSAIVTGAHWAVCEDTMRPAIRVTSVTALANVVMGIAFTILPIAEMIYTHHYTGRWNRQLAFNIWWPFDVLGGVKYYWFVYPLYVVIGFTGIIIHMAFDCLFCILAAHLCMQFRILAHNFGHVVEVANGAREGDSGSTSRLRDAIRIHQELIGCSVFMQNVFGNALFINFLGSSIIICIQAFMITTVSGYMLVKFVLFMLCFLIELLMLCAYGEDIVESSLGVIDAAYGCEWYREGSVAFHRSVLQIIHRSQQSVILTAWKIWPIQMSTFSQILQASWSYFTLLKTVYGNK,r
CATS,-0.002643241840572097,-4.008837062472884,-0.08408013736393638,0.06272071533713519,-0.0078819905206573,0.021207906756348427,-0.005182703411750422,-9.559746919677016,-0.049848813536052416,-0.10448323780414537,-2.9169082353283087,-7.413198106018902,MDPPTDELVRFESFIRVPEIFFAMIGVARYGEPKRTLRAYLKHLLFWSSCINTGYCLVIEHIYFVKAAGNFTNFLQLTALAPCMGFTALSFVKIMTIKLNETKLTDMLHRLDALFPSTVALQQRYGVYQYNRESQVVMKSFSILYMILIWMFNLLPLVSMVVGYVSDGTWHKQLPYFMWYWYDWHRPGYFEVTFLHQNWGGFVSAVFYLSTDLMFCAIVLLLCLQFDIVAYRLSHALPDDHQELVGCVRIHQAVIELCNELEHMFSPSLLVNFLSSSVIICLVGFQATAGITPADLFKFVLFLVSSLVQVFLLCYYGNKLIVASSQIPYSAFEGNWIGASGSYQRSLLFVMLRSTTVQKLTALKFSIVSLASYSKILSTSFSYFTLLKAMYEPNEKKMK,r
CATS,0.42390566750346326,-4.083933502876854,0.25808501470176504,0.283003147610869,0.36919327301509663,0.6991641416616274,0.5100827605279582,-19.485748440795525,0.0954788675713778,-0.24050743181035683,-0.20188951490858376,-0.5870009944411796,MVRLFFSKTRVTKLFTRKDERPEMFLPSLRMILFIFRMFYAWPDEHLEKSALWWYRAKGVLFRVFFIYLSAATQLAYNFTVTSREELFAGMFVLLTQLVMILKMEFFYKNVFKIQQLIRRLNGKLYQSRNAEEDIPLASARKKSTIFWVLYFMFSDGLVTEWLVISLLLTTLIVPVWPRVDHTTPYWVVLMVILYQYMAIVLNASFNISWDSLVAALLALTNAHLHRLQIQLLKVGHQNRNLQVDANKRMITVSPIDDDARSVPPKSDADVVYNELLQCIIFHQEVTGFLREVLTLFSGPMLSQLYCSVFILCITEFRLLTDVNTMADTMQAVMYLVCLVIQVVQYCYFGNEINYMAQKVHQATAFVNYPDMNIKTRKLLIAFQQITARGIKCSAKYIFTIELSMQTFVTIIKTSYSYLAVLRSMTD,r
CATS,0.4103764284247597,0.06527413299526448,0.5082439159757774,0.5604960712426283,0.38570630934170846,0.4594478300455921,0.13798801551809203,-0.5908108074760576,-0.28476128458527294,-0.005105810791000254,0.2660286015093718,0.9410199663192814,MEVLNCPLLSVNVRVWRFWSFVLVHNWRRYISIIPVTALNVFMFADLYRAWGNIEEVIINAYFAVLYFNAVLRTLILVYNRDKYESFLAGAASVYEEIRAINDDVITKLVSTYTKRARFLSISNLALGAFISGCFVVYPLFTGQRGLPYGMFIPGVNNFDSPQYEIFYITQLVLTFPGCCMYIPYTSFFASSTLFGLVQIKTLQHQLKTFRSSEMLNESTVVLNRKLQKLIEDHKRIIRYVQDLNDLVTYICLIEFLSFGLMLCALLFLLNIISVMAQIVIVGAYIFMILTQIFAFYWHSNEVREESMAIAQASYSGPWLNVDDTIKKKLLMMTIRAQRPLEITVGNVYPMTLEMFQSLLNASYSYFTLLRRVYN,r
CATS,0.07135813690402397,-5.4373095334953785,0.13019680490015506,-0.07425835304154105,0.12564738054951752,0.17018292148810177,0.005021930623886561,-24.43232172446308,-2.294099099148442,-0.22945457909470224,0.04194617342748719,-0.272618438198154,MELKEEWILPDVVYANPLLKRTLLGLRYYGILLGQSQSYKKVHCFRGMVFTLSMVLFNCTQYIDLWQVWGSVSDMTANAATTLLFSTTIFRIIFFYFHRARFNSIIKAAHDGIERILKDGWTDEQSIVGSNVRYLKRLAVVFWSCALVTANMMCVYSLVQYLTYEEGPPDGTGTSAANITRKGQPIPPTPILRSWYPTADGKDKHFLEIYLIQLYIMYVGQLIVPSWHMFMVTLMIYGRTECSVLNHRLCFLERYHTAGKDDPTAPVNNAERRSLMIDCIKRQASLVSFTRELEQLTRAAVFLDFVVFSVLLCALLFEASMTPSGVQVFIDVCYITTMTTILFLYYWHANEIHACADRLSMSAYKSDWYRYDRGTNRMLQIFILYSNRPLKMHAFFISMSLDTFLAILRASYSYFTILKQLTD,r
CATS,0.1255903413748094,-5.531620973829977,0.2639948478411819,-0.1110136949441638,0.27104344753014264,0.050369882282744416,0.15355722416414186,-24.473664143293274,-2.404133331542792,-0.6877234625195461,0.08560824901780517,-0.17819218081208055,AgOr12,r
CATS,0.2782424566005747,-1.074285941960578,0.23498919343844515,0.3022196500627867,0.19804547531305472,0.3782909858443305,0.27766697834425613,-3.932464117698741,-1.8160908085742116,0.11017249956950192,0.22776395121334403,0.039188765687216964,MNFLRQEQPAGMPHISIKLLQLFGVTGSPEERFRILPVMLTYFFFIVVPKCFFGYPDLEITIIGTAELIFQSNTFCGMFWLFLNRHKLAQFITQVRTFSLTVFRESPPAVVQHLTTQHDFIHKITRIYCIVVMFAAHFYVLTPLLSTFYAFYGTVRNDNVTVHYTLQMEENFYGLQTRTTTSHYLIFGMFMTPTIYLCAFTGTVKILSICNITMYCTLYFQLVQLKLRTATEDNTFNRQEVKSIVVMHQDALNCASLVESITSLVLLQQLVLCVMIWSSMLLYFTVSGFDLNFINLLVLFAFDTTETIAYCYFGEQLSNESARVAHTVYESGWETQTPDIQKDLQLIIARAQRPVGITAGKFCYMNMEQLGIIVKTTYSIYIILRDQF,r
CATS,0.3961928243028606,-0.9749864429085668,0.5324831415191691,0.28756747817107475,0.2198550656304359,0.6024491917974676,0.3386092443961558,-3.157133655449555,-1.4997000102494056,-0.5856277493532414,0.034747485694143654,0.33278171481522323,MNFLRQEQPAGMPHISIKLLRVFGVTNHSEERFRIVPVMLAYFFFIVVPKCFFGYPDLEIMIIGTAELIFQTNSFCGMFLLFLNRRKLAEFIQHARSFSQTVICASPPAVVRHLTTQHDMIHKITRIFCIVVMFAAHFYALAPFLSTLYTFYGTVRNKNATMHYTLQMEENFYGLQTRTSGTHYLIFGVVMTPTAYLCAFTGTVKTLTICNITTYCTLYFQLVQLKLRTVTQDNTFRQELKSVIKMHQDALNCASLVESITSLALLQQLLLCVLIWSSMLLYFTVSGFNVNFMNLFVLFVFDTTETFAYCYLGEKLSYESARVAHTIYESGWETQTTDIQKDLQLILVRAQSPVGITAGKFYYMNMEQFGIIVKTTYSFFVILRDQI,r
CATS,0.09327497948336161,-4.831689012749932,0.10675925952549359,-0.03566167826991684,0.13296397809567717,0.2058462295020118,0.05646710856354231,-23.376467492938517,-0.1286035607459144,-0.5117164642983019,0.021392052938564166,-0.16304959870548896,MRFFLIEKPPGVPHIALKLLRLVGVSQTQSERYRYVPMFVLFLLTIAIPKIAFGYPNFETSIIGLAELFFQTNRFVGVLLLVLYSDSIFELVRQSEFFAKKVLSETSPVAEYLTKMDTQVTKITKLYLTALLVPANFYSYSPIVATLWKYYNTYENDTVPEFTLHMEESFYRLNVREKLDHYLIFGAIMVPISFLCALVGTAKLVSILSLIKYCTIYFQLVKVKLEEVGRSQNYASDIRSAIQMHQSALSCADVLHDITAPIMLLQLVLCIMVWSSMLLYFTVAGFNTQFISLFILFMFDTTETFGYCYLGNQLSDESARVASVVYDCRWEGMPPALRKDLQLIMLRAQRSVGITAGKFCFMNMEQFGEVVKTTYSFFVVLRDQF,r
CATS,0.10773589918351296,-4.738110198110816,0.2638687669983577,-0.5782621058067399,0.38166286857860054,0.23934769327684202,0.2320622728705044,-17.11167390894201,-2.2267146191134186,-1.7329160421143386,-2.364976582514724,-0.25426983786958535,MTSFKPTDDTDVMPLVLRLLRVIGVWDVPQYRYRYAAVFLSYCFGILIPKLCFGYPTLEASIRGYTELILETNVFAGMLQLYLCYNHFVPLVDELRAFAAIVFQDNQPMLLRTNLTDLNLRIHKYTLCYCLYMCCVCTVYCVAPLGSNIAGYTAAMADTASNSSTTFAFTLYLEQGFYWLDNRTSLLGYCVCTVFMLPLMYLCAYTATVKVVAVFNMIKYCQTVLRIVVLKLRLLKTLPDVRQRSDGMSEVWVLHQRALRCAELLELVLQPLLLMQFVLCILIWCMMLLYFTVSGLNVKFINMFLLFLFVSIETFGYCYLGTQLSQESINVGQALYASGWYEYDVQMRKHISFMIMRSQRRVGLTAAKFCFVDMEQFGAMLNMSYSFFVVLKDAF,r
CATS,0.289325643397398,-9.689746418234712,0.3629129354893439,0.20947965078353548,0.23613398281154163,0.30104151109319854,0.33706013680937064,-36.82863646702369,-10.802093141895341,-0.32891346063460425,-0.034598937693618215,-0.4544900839263122,MLRLSPEDPKAVMPVVKRLLKLSGLTQETTRFGAINFLNLFIYIAAVLVPKVCFPYPNTEAMIRGLSELIFFTNVYVGFFCFISQHRQRDLLNAIDSFVDVVYPTAAHPSDSPSEQILIKFNVKIQKLSVVFCWYIAVTATFYWLAPCLMTYRSIYMASVSVENGSVQSIQYYPNLEESFYWLDNRSSVYGYATFSIVALLVFTVASYNNATKLLTILTTIKYCNTLLQLVIIEVDNLNHATSNAIDRELKQVIQLHQRAVRCVALLNQTLSFVMTVQLALCILTWCFTLLYILTVGLDVTGMNGLLIMFNMTLEMFGYCFFCTELATTGTLIACQSYEFRWEEHDPKIQKMISTIVARSQLPLRITACGFITVNVELFAKVVKTTYSVFIVLKDFI,r
CATS,0.1613503907172083,-3.527642055935826,0.2228832299028609,0.1488476285237611,0.1788581527059553,0.19940397231487417,0.056758970138590104,-15.886822808505425,-0.6952405305655636,-0.4051987158178272,-0.1583534838221663,-0.49259474096814326,MLRLSPEDPKAVMPFAKRLLRLSGFRQETEQLEKQIFFNLFVYVAALLIPKVCSPYPDSEAIIRGLSELIFFTNVYVGYYCFVVQHRHYRDLLDEIQSFVNVVYPTSQQPESPSERTLIKLNVKINKISVLYCWYLAAAGLIYWSTPCLMTYHSVLKAKAEYGPNHPIRFYPNLEGSFYGLDNRTSVYGYAAFSIVALLVFAFASYNNATKLLTILSTIKYCSTLLQLVGVEVDNLNHTSSEAIGRELKKVIQLHQLALRCVALLNQTLSFVMALQLALCILTWCFTLLYILIVGFNAIATNGLLIMINMTLEMFGYCFFCTELDTTGKIVSRQMYEFRWEQHRPTVQKMVAMIIARSQTPLQITACGFIPINLELFTKVVKHSYTVLAVLKDLI,r
CATS,-0.024293516996247332,-0.29066937134073284,0.003367606610204299,-0.009509755198496173,-0.08935692800677408,0.005104607765926916,-0.031073116152097624,-0.010789771213095323,-0.08002733796481953,-0.02799003500574271,-1.3302625775625905,-0.004277134957416218,MKIWEKYLERKRTLYHAKYQTPHQLFDAACDIVIKCFAVCGGERMKPGYTRRNARLIFLVTDLILYLFVNLYSIAIVWGSLMDVVFCFVTLGIAIQGLAKIEAFTCPELNDLHLYNVARFKAPPRFPEVDEALFHTATMCMVFIRIFAVAFSIVAIAIYSYAILMPLIEHELSLAFGFYLPFVDYRTPVGFAINWVYQFVQVLEGCIGLMACDSCLLVLIMNATGQMDVIIVYLKQLTLLIDNNHTGQHDEEIADIIKEIVLKHLEHTKYMTDMDKLLKKQFFINFGCMIFELVASLAIVVRVPWYPGMAICLICTNQLFINCALGTFLSSKNEKLVEEIYNVNWYGLTTKHQKTLQQILLTSQHPVVLSDGFSPIDLFNFVEIYKKIYSYLMVLQKVS,r
CATS,0.10532663668100288,-0.3157574712729868,0.05255136319148079,0.15084862222915707,0.042512254424336704,0.13722491981079454,0.1434960237492453,-0.38496106261842566,0.018069001564397058,0.02740050917038006,-0.7368303951282902,-0.5024654093529952,MEQEINQIISFLRRPLKWLGFDVIDPNWKVTPLTMFTIVMFALQHYTSYLYLSTHLDMFDMFTECFSTSAVALEIAIRMGLLVHQRELRNETIEIIRQQHKTFGNSAAIRKVTARFHKLISVTLHALAACYMSTMMFELIPIVSPNPRKSNLPLPMYLPYMPHDVTPYWHLNYTFITVMNLMCILFLVGIDGLLVLSILAAVHQIKLLKITIQELDIGAEQAELHRELVRIIQIHQRIQQFIHQLEQTYYIDLLVDFGLVCLILCMGLNVIADEVINAIWFFLIAVVFQLSLLCFSGNLLLIESDSLSSCVYSIDWHAMPVPEQKLLMVMIAHAQKPQVLRGIFMPLIMSSFLSVIKASYSYFTLLH,r
CATS,0.24619301286802808,-5.2112544003922014,0.3286094577284052,0.23980700582256664,0.1794082871427667,0.27068616947449753,0.21245414417190434,-24.330637952986685,-0.00013932749162504088,-0.870849154621288,-0.6079177475245081,-0.2467278193369038,MDSNSKKDTFPLIQISTKMLQIIRLWNESSGQRMSTFGVLLIAVFPIMWLIPSWLFIVSSQDNIKRLMKAINEQIVFCIVFLKFSFYAIHFRRWEQLFYDLQRSFSTVVNNPSLEIQTILGHVTKSTHKLTKYYCSIVSFNCAAYGLFPMLFIVVKYAVTGSYDVPLSTPIEGNYFIPGFRTNFWVWLPFNLAQNVVLQCHSFAVITIECFTWNLVYATSCMFRILQIQATELLDRSRDKKEWNIKFKTFIALHDSVLRSARTLEAILSGQILLLYVSTILAVCLGMVVLTLAIEDVYLLLTTFVAFGYCMFQMFSFSYLGTELIEQSEAVADGIFNSKWYEEDVKVQKDLSFVLMRAKKPVRLTAAKLFVVTRDSFTQVMKQAYTIFALMSQFLDDIAN,r
CATS,0.23619015284673162,-2.6469489484466093,0.25421393574054063,0.2076312344561383,0.2891692813448775,0.21192201720657633,0.2180142954855253,-12.193388394849467,-0.0297070873116565,-0.33373304225903033,-0.36937650128480404,-0.3085397165280881,MKPSCKEGVFPLINLSIKLLKIVGFWSKTTGQRISVIGLLAVILYLLAWLIPNWLFIVSSQDNITRLIKATNEQILYFIAFFKLYFYVIHYRRWEKLFYDLQIAFSSVMTNPSPEIQGILGHVTKSTHNLTKYYSYVVNFNCAWYGVFRMLFIVVKYAVTGSYDVPLSTPIEAKYFIPGLHTNFWVWLPVTLGLNVLLEWHSLALVFVETFIWNLVYATSCMFRILQILANELSDRKRNEGIWTVEFEKFSTLHDSVLRSAGTLEEILSGHMLLLYVSTIFSLCLSMVVLSLPIDDFILLLTTFVAFGYCIFQTFSFSYLGTELIEQSEAVADAIFHSKWYTQKLNRQKDMCFLMMRANKPVKLTAAKLFVVTRDSFTQVIKQAYTIFTLMSQFLDNPVN,r
CATS,0.09775617991929182,-57.751963281653275,0.23537581755234183,0.2635310121281972,0.015836546689120712,-0.08534278897734038,0.05938031220413975,-287.9570263387337,-0.13857914295195872,-0.37800214359418516,0.03499097854343558,-0.3211997615298847,MKFFQIDDTREILPIGCRLLMLCGLPRSGRVNRRFWLLCVFFFVFGQIPRFLIKIDEPIALVRVGAEIVYSTYMFLQLIALYARRSDLYRLIDTLQKCVENPYPDDVRAFILITRDTINKSSVMYSKCFFAVCISYIIMPFMATSAVVVRNRRNQTGEREDFYYLDIRFNLLHYSLYFGAVSGLSVIGSLALCTKDVMDFSLIRTASMLFQATAQQIRNLPPGASQAKLEAIIHSHRSTLKCAAQLQNALNPALLIQITFCTAIWCLMLFYILLLGFTSKVMNVCLLLLVLTCETYSYCQLGTQFTSNAEEVLDELQQLARYDQSIPIQKQIYFMIHRSQTRIELTAGKLFPVNIAQFSEIVKKSYSYYLVLKDIF,r
CATS,0.13385089089066204,-9.163669247068752,0.11604842637511703,0.32313473306963747,0.019969092406713518,0.06484351269372479,0.1452586899081174,-42.66479334438242,-0.346926522760201,-0.11026845515224437,0.08158627717683808,-2.7779441902257394,MLAAETVDFFRVQSICLRAIGIARTDSFRGRVLFAVSFFTVLVMMLGTVMFAFKHIDQIMLLCDCLGPTFTAYLGLVRQYNLLLHRSELWSIVDEFAALKHSLQSSEIRIVQKYNRIDRFLAWAYLITAMSTGVLFVGVALVLVFLSEKSDWKLPLLMDFPFDVKHPVTFTIFFVWCSVAIFWVVLDCVACDSTFGTFSSCLVAHFVIIQERFEGLRFDDGNRELKKLIEHHKYILRISDRVINAYKNVILNQLLISSVLLCMLGFQLVISVGTNIMVVYVAYGMAITIQVTYYCYYGSQLYYESTQVHDAVFKSKWYDASVATQKMLINCMMRAKKPVNAKSGFTQASLPTLNAILNSAGSYVALLMSLME,r
CATS,-0.04763866640394605,-0.4002815328789497,-0.13388603690382128,-0.005140282856323841,-0.03534007232295089,-0.030751935181919876,-0.033075004754714366,-1.4196089523422897,-0.005872646644066837,-0.33014534460939937,-0.15987577405389253,-0.08590494674510007,MSQLNEFPAYQFRLIRFCGVVEQPSLRNNVRCLFAFILLCSFGPLHVWYLAKTPVLDLVVTCEEIMLIQLCFVMLLKFNLFITYRSGMYNLVEAFKRILKCIDKAEFARFVKCSELHAKLLRAYVIGTSIVLLLYELNAIVASITLSLQQNKVCFVTPFSFPFDYQHPIVFALTFLHNFDAMLVTVCTSVTVDSCFSEMASNLTIHFDIVRERFEKLDLSAAQPYAEHQLRNVITYHREVLSLAQKMVQLYQQSAFYLLLLVSTILCLLGYEFVMVSNIYKRMQVAILASIMIGQAAIYTYHGSAISAKSVSVADAIYGTNWYDAPLAVKKLVYICLMRAQKPVIMKSGFIEASLPTLKKILSSSASYITMLMSLEADLNEKKT,r
CATS,0.09731512436873746,-0.6087333449488745,-0.057280730358169496,0.24067769126202532,0.06490069971124057,-0.10609006845783675,0.34436802968642766,-1.9044659942234228,-0.0013869707567615297,-1.0297687271348437,-0.18628368430747844,0.07823865167813382,MMGLSRTIPSWPVLHNISFARASQVRRANMEYIYRWILRDDTFAKEVYIKYNFTKLRTLGIYKDASRTRLARRAGFYALELFFLLQLGTIVWDLATVLGNIGLFGDDMCILAGLLLTLAKKWHCVLYIDELWECVEQMQTYHEHYLLQGEWFVRRMRRQNLQERMLQDASKLLATLLASCLMVNALFSNGETLILRAIYPFSTATTLGYGCVFVCQAFLIVYVLYSMVLIDCIGAQALSQMALLFCMQRKQFELIGADLQLPPEGPLHGDRSIRDQVYSAIASHQQLLSFCNRLKRLYEPNIMAQFVCSMLIICLTAFELMFAKGDPMQMVRFGAYMLAGFYQVFVWSFFGNRVTNMSTGISDATISCNWIVLADGLKKDLRFTTMRSQKPFVIDVYWLFPLTYETFIAILSRSYSIFTLLRTMIE,r
CATS,-0.14782256701712587,-0.3299931910388088,-0.012984001439172,-0.10604761530548301,-0.4781702228846123,-0.12250401366695085,-0.019406981789411137,-0.16321446656045002,-0.004511692132299183,-0.21492027582781748,-0.09482167506167238,-1.172497845611805,MSCVEDFLDAQMWYLRYCGVFREKSALGGIRLSVCLGVLVVFMVLQSIYIFQHVHHFAMICDAIPTLVVCMVAISKFYIFVFHPAALFALIDSFKALQRRASREDLLLFRRSGAFHAKLTKIYMTSALIVGWFYILSAIVSGISRSLAEGRVHFVAPMAFPHNYQHPLMFALTFLFNCDSIHMSIFISGSVDTCFSELATSVTIHFQLIQRQFQAVDFAARTAEDELEVVVAYHKDVLQLCLAMTNLFQYTVFYLLLLDSVLLCVIGYQFVIFMNTPRVLMLASMAFVMVLQAVIYCYHGSMMYDESLKVADAIYQSNWYEAPPAVQKRLRLCIMRAQKPIVTKGGFIKATLPTLKKILNSTGSYITMLLSLETEQ,r
CATS,0.18180588054186372,-34.554268655932475,0.20541303642187547,0.1538955854956664,0.25518702393684,0.13709338644264935,0.15744037041228742,-172.88128131813744,0.04540636315261948,-0.21740527324058867,0.16528692578765303,0.11665002277537984,MIITVAPVTDARPQTPEDCGMFKFQRKILLIFGCWPPDRLTRRWYVKVLIAVNLITLAICIVGEFRYCLYAYRNGSLIETIESICPTVARFSGLLRMCWFLRNEHKIKSALNSVVHLIKNEHPRETGYTNRITARDQTITKVLFHSSFITAILYGIIPYFMMAYNWFQGQYPLVKLLPFKVVLPFDSQDPTLFVLTTIFLNYASVPTITAMTSTDALFSGVCLYMDGQFQAIRLELEALAETVDKYTLKSSAAETLRINLELRRINKRHQTIIDVVSEVRHAFTPTILIVHICAAFMICVISMAMFLAEGINKLTYMPYTFTVLMLLFMYSYGGTVVRESSEAIQTVAYGFPWYQFDRNTRHLVQMMMVRAKYGCNVDVPFFQTSMATFSVIVRSAMSYITLMKSFL,r
CATS,0.08337553185938533,-2.495244347946635,0.001518230932440634,0.11731492165373414,0.08087224843786722,0.038207840054387265,0.1789644182184974,-10.396177133610793,0.03836677095365437,-0.6290024666133269,-0.22275226246600743,-1.266656647996701,MVSFGAAASNPRDAETTPHWDIFKLQRKILLIFGVWPADRLVRPWYVKVLIAINLATLAICMVGEFLHGLYAYQEGDLSESIESICPTVARISGFLRMVFYLANEEKIHRVLNNISKTLQDEHPREHTITKQLTTLGQQFTFYLFLMMFFAACLYGVTPFFIMIYNWVQGQRPLVKLLPFKLALPFDSQNLFPFVVTTLFLNYASAPTITSQSGSDALFSGVCLYIYGQFQAIRLEVEALAETVDRNTLKSSAAETHRINLELRRISKRHQAIIDLVSEVRSAFTPNVLLVYTATAIIMCIVCIAMLVVEGIYKLTYLPYAFAELTLLFLYSYSGTIIRDSSEAVQTVAYDFPWYRYDRNTRHLIQMMMIRAQYGSNVDVPFFETSMASFSAIVRTASSYITLMKSFL,r
CATS,0.18383890362058375,-1.2535066352938462,0.2766374207825314,0.29621741299003224,0.1511914468081208,0.1125224444279217,0.08262579309431262,-1.7436680023562685,-0.2177955392506259,-1.5225689217684844,-0.23706842191095268,-2.546432291182899,MSEHPIHTFDRLIKRQRLLLKLIGIDSYDPAFRIHSLTFMLVCLALTFFVISLYDLYLFRDDLFNFVYVLITIFFATIGIGHISVFLLCSKLLAELLEQSYRTYRLVVDDQREQRILQWYTRLFQRAVDGYTLVFIGTSVAAGLLPLAIYLLSGDRVLPYGVVLPFVDPDSLVGYELNYIYQVSCIIWTPPGLVASVCMLFGLVLNICIQYDILAVKLQDLDELIRSPHPHRDAMIGCKLRSILRNQQRLISFIANIEAAKNVHSAVEVLSLGLQIVITLFVLQFSLWIPGLVLIPVFTMQLFLFCLLGTIIEDKGVKFSAGVYSLTWNELSKQDKQIFRLLLLSSQQPQTLTCAGMTCISLNLFVNMSQKFYSIFMMLRNM,r
CATS,0.1412562392837553,-0.4731777444040768,0.2247102665251467,0.35164096757271923,0.03419648943638076,0.19049546931999473,-0.0947619964354649,-1.58313248340956,0.04245857967118549,-0.6053639957796786,-0.18763613239514298,-0.032214690107188027,METHIGKQHSLERFQAMVAWQNRVLALFGCYMYLGKERVSYRIVPICFMACSFVLLSLYSAIQARGNMGLAVLSIVVLFYGIIGVTRLAVAISNPAGCYRSIQIAEEMYQRANGSNPAECNVLAKYTDLFCKSVQLYTVCFVLSVVVLTLMPFALYLLRGERYLPLGIVLPFTAETDDFGFWCTLVVQLAYMYTGPFGLIPSQNIYFAFVFNICLQYELLIERLKQLDERIRSSNNLKLTVRDQLVKIIQLQQESTNYITHIERFYQLQSFVEFLCNSLQVALTLNELHRNFWLPGLFILPIAVMQMLILCSLGTLIELKSDQFKDQLYDIAWPEMDLPEQGMFKYVLKSAQQPKQLTCGRFAVINMNLFLAIHKKIYSFFMMLQNM,r
CATS,0.12952603502027682,-0.34313572340367354,0.11296722955617,0.07877378659674683,0.13119376192982524,0.035598274843475775,0.28909712217516625,-0.29132620556428845,0.11528512573730887,-0.8663092740139879,-0.23034832120847004,-0.4429799419689302,MTFTLSHDLYVYNLHLIRWFASFVGLDIMAPNYKPNILTFLAFFGLSISLIGEVYTVWYFWPILDKLMESAAIFGVFIQGLAKFYIALRYRKFFEAMYNRLDLFHYEYRNHEKNNATLLLLMNRICLLRKLITSQFSISILTLMVTPVAQYILKGERFLVYTIILPFTDPEITSHYLLNLVVQYYLLIVGLAGFSAAESVLILFVTSVAGYADVLKNKINEMNTLLLDAQNSRDRTSVKLKLREIVLLHQRVLEYEDDLDKRYYLNNWVQVASSIFNLTGALFGCYVSNSFTMYALAITIVIQLFELCLLGTILSIKNEEIEHAFYDSLWYLMDHSEKKDFLIMFHKCQHAKEMTVASMAPLNIVLFIAIMQKIYALAMMMMRFSE,r
CATS,-0.01870652910417676,-0.538217808903922,-0.10026979609994413,0.09585418749899599,-0.12913443878001507,0.2122374741724551,-0.17222007231237568,-1.7157516573747658,-0.016454356836039574,-1.0724310520795912,0.049264389391106556,0.06428363237968049,MTFTLSHDLYVYNLHLIRWFASFVGLDIMAPNYKPNILTFLAFFGLSISLIGEVYTVWYYWPNLVKLMESAAVYGVFIQGLAKFYTALRYRKFFEAMYNRLDLFHYEYRNHEKNNATLLLLMNRICLLRKFITLQIIGCILVLSLNPVIQYIIKRERVLVYAILLPFSDPEITSHYLLNLIVQYYLMIAGIGGFAAAESVLILFVTSVAGYADVLKNKIDEMNIILLDAQNSRDRTPVKLKLREIVLLHQRVLEYEDDLEKRYYLNNWVQVASSIFNLTGALFGCYVSNSFTMYALAIAVVVQLFELCLLGTILSIKNEEIEHAFYDSLWYLMDHSEKKDFLIMFHKSQHAMEMTVASMAPLNIVLFIAIMQKIYAYAMMLMNFFE,r
CATS,0.11891495327757959,-1.2277939879285888,0.24449474198042387,0.26295921435368363,-0.15792451632999804,0.02258367826270402,0.2224616481210845,-4.460414004745464,-0.18861283081243263,-0.5023517288812456,-0.19898172821482363,-0.788609646988979,MPRATSNSAANLERLVIRISSHMAVLKLNIIDPAWRPTLRFGIVLFLTALVPVYIWQGIKVYRTRFETLLEVLSVAGCGWQMFFRMYFYLFQQDRCRQIVQEVRDQRTVYGADRNPRMEKLFRAGTKRMLLAYRVIHLMYGTSYFFQLGPLIMPDPHKCNLPLALQLPFLPPDRNMVYYCINYAHHLLLNTIGVFILLPMDGVLIVALLNICTRIAALQLLLEELDAKLGTVQWQQTAHLDAELNRIIELHIDTKRFARVIYETYQMHFFSMFSVLCFVICMCMNVVARDPRSTLIPFGLASTGQLFVICMLGNVLYIVSDRLKDSVYGIRWYRCTVSQQKRLMFLLANAQPEIVMGAVFIPVTMTSFVTIIRAAYSYFTILY,r
CATS,0.03190814277742733,-0.5989540943867346,0.08330916938520849,-0.056807339935367684,0.08322828390889381,0.11368477880563899,-0.06387417827723696,-1.1421917803476314,-1.1636586177761399,-0.4485161224083878,-0.2097150915715884,-0.03068885982992553,MVVFEPLDDPLKVLPLPLKLLALLGVNKNPSERFRLYAIYIYLWVAMFIPKLCLGYETIPQCFRSIAEGMFSFNTTVTFIMLPLKMDNFEGLLQNLQRFTQIVTVEEDYKQILISLNTTIHKFTKFYFIFTNGVVFSITGSTIAGMLYTYYTKDSEYSAAFPLVMENRFYVLDSHYNLGHCFVHQALMFFALYILLVMFTAKAGTLFGLIRFCSTVLGIIVLKIERLSQIGPVDQYTAELSEIIELHQLVIKCSRQLQNILMEILLAQFTGCVFIWCFMLYYVMISGITAEGIAVGAMLIALSTETFIFCLLGNELTLKGLEISTAMYSTNWYDQPVKLQKMVVPIIQQSQQRIGITAAKFYYIDYNRYGQSLKTAYSFYLLLKDIF,r
CATS,0.16285730846312413,-12.10635508055809,0.2225582453590227,0.29638385246932997,-0.00015927225808587409,0.14536822428336582,0.1501354924619881,-59.50390208182503,-0.15298181772084063,-0.2912708177452612,-0.39744383951791407,-0.18617684598140194,MVNLFARTPADNFRVMPYNLRLFAMLGLWGDRRKLYRLYALLLLAYVAIIFPKPVRITDRHPFESIVRSVSELIFAALCYLTIIILAIKSEPFRAVIRKMEQALELFRDKQDQCSQLIIEVNANIHRFSLGYAKLNLLYVLLFNVIPPIYNYPRYFLQWRMPEDNRTVEFMLPLMQDLYGLDVHHNIVHYTISWVAITPFCVFCALILWFKGALFMLIRYNTLLYQLVNRLLQQYDRESAGGLLAQKHRRLQQIVQLHYRAIECTKLLDSILSLILLIQCVGCLLMLCLMLFYITRNHSLNVINIAVLLMSIFIEMMCFSYLGNQLTEENANISHSAFNCRWYDEPIVIRKYFLRIILQAHRKATITAGKFYNVNIVTFAQLIKTSYTYYMIMKEMF,r
CATS,0.258392373219729,-2.0878118272110546,0.47033804136381663,0.12661007933924606,0.19051055226216795,0.26420337858785425,0.24029981454556038,-9.249855929123202,-0.2779559245993364,-0.28627388644340046,-0.223570394313227,-0.4014030015761081,MLSLRPEDPKAVMPFAKRLLRLSGFSPGTEQLGRCIYVNLSIYITVILVPKVCFPYPNTEAMIRGLGELIYFTNVYVGFFCFVVQHRHYRDLLDEIQSFVNIVYPTSQQPESLSERTLIKLNVKINILSVLYCRYIVVAAFIYWMVPCVVTYSSIHKAEVSMGNESIQSIQYYPNLEESFYWLDNRSSVSGYAAFSAVALIVFAFASYNHVTKLLTILSTIKYCSTLFHLVSIGIDELNLVSPAHIDRELKKLIQMHQLAIRCDVLLNQTLSYVMALQLALGTLTWCFTLLYILIIGLDVTAMMGLLIMMNMTSEMFGYCLFCTELTNTATTISQQIYVFQWEKHSPAVQKMVAMIIARGQAPLQIKACGFIPINLELFAKVVKTSYSVLIVLRDFV,r
CATS,0.0515679922739309,-1.171009123559116,0.16058204650455044,-0.03259107411479922,0.007205137649218041,0.06306016006095083,0.059583691269734396,-4.718207596891601,-0.00034745636267929925,-0.7395779753273839,-0.36567129688491384,-0.031241292329002635,MKLLELDNPREAIAIGCRLLKLFGLGRDERFKLVYWLQCVAYLAFSIVPRLLVEIEDMVALMRLIAELVFVVYLCLQIMALYCRRRQLYRLVDMLQQCIDIPYSEQIESFLIRSNVKINQSSAAYARFFMCVYVLYCTMSPLASGFVYIRNQRNATGVQEEFIITTEMNLYDLDIRYNPLHYSIYAGLIFVLSAISSLSLCTKDVIDIAAIKTVTLVFGIVTMQIRDLHEQITQERLNRVIKSHSNALSCATQLEQALNLSVLFQFASCSAIWCLMLFYILLMGLDSRVLSVVLLLVIVSIETYAYCMLGSQLTTQGEDLLMALQQLSWYDQPVPIQRQILLMIRRSQTPLILRAGKLFSANVVQFGDIVQKSYSFFLVLKNVF,r
CATS,0.010340621719736886,-1.0772766884709333,0.08347571314889246,0.08058506069338667,0.0897093120406055,-0.23752711677476124,0.03546013949056104,-0.3784155805988392,-0.1261800933359405,-1.0793437795952157,-0.09749077135508233,-3.7049532174695887,MYYLEQLRALVRRYLERRSPDPRIQHTFIVQSINRVGGMLGIDIFTPGYSSTNLLLRMVLLNTFTFFWINLYSLTTTYGNLVDFMYSFETLLYVGIACIKMYVFIKNKTLILQMHQYMIDFFDHFHGDREQDELLVRTLNNTTLLSSLFAVCSSSAPGLLFVGSLLWSIAVEYVLPFGFFIPTVGMDTLQGYTLNYGFQMLETTLMVIGIISSESAFFMFQQNACLQVDMLRYSKSMCSLFELHFFIVFGCIFFQLVSNVVVIVSVPDWYPGYFLFIMLTVQLFFSCALGETFNIKSDELTVAIYNVPWYNMEVRDQKAMRLLLMASQNPGRLSYGFGTVNMRAFFEIFRKTYSIAMMMISVNEEE,r
CATS,0.23840988604865648,-21.096367211103576,0.33411454914531846,0.30809807946910783,0.14300501417003442,0.21661335731708153,0.19021843014174022,-103.80827895621512,-0.683605587640707,-0.6489458934870347,-0.17617041343354556,-0.16483520474147673,MDIVSKQGEFPLVKLSTKLLRIIRFWNDSPGQRIPSLGLLVTAIYPLIWLIPSWLFLVSSQDNITRFMKAANEQIVFSLICCKLCFYAIHFRRWEKLYYDLQRSFSTVLNNPNLEIQTILGHVTKSTHKLTKYYCSTVSFNCAAYGLFPMLFIVVKYAVTGSYDVPLSTPIEAKYFIPGLRTNFWVWLPVDLTLNAILELHGFALVFVETFTWNLVYATSCMFRILQIQVNELSHQSRNEKEWNGKLKTFIALHDSVLRSAETLEEILSLQMLLLYISTILALCLGMVVLSLAVNEVYVLLTTMAVFGYCIFQTFSFSYLGTELIEQSEAVADAIFHSKWYTQKLNRQKDMCFLMMRANKPVKLTAAKLFVVTRDSFTQVIKQAYTIFTLMSQFLDNPVN,r
CATS,0.21111962238681165,-10.762262206402905,0.3365010344080094,0.15662525418881446,0.31236571930660295,0.15579621857374992,0.09430988545688157,-52.09561628689944,-0.07262738428328763,-1.2111957423218285,-0.36682040687853323,-0.06505121163143435,MDIVSKQGEFPLVKLSTKLLRIIRFWNDSPGQRIPSFGLLVTAIYPLIWLIPSWLFLVSSQDNITRFMKAANELIVFSLIFCKLCFYAIHFRRWEKLFYDLQRSFSSVLNNPSLEIQTILGHVTKSTHNLTKYYCSTVSFNCAAYGLFPMLFIVVKYAVTGSYDVPLSTPIEANYFIPGLRTNFWVWLPVNITLSAMLELHGFALFFVETFTWNLVYATSCLFRILQIQANELSHQCRNEKEWNGKLKTFIALHDSVLRSAETLEEILSLQMLLLYLSTILALCLGMVVLSLAVNEVYVLLTTMAVFGYCIFQTFSFSYLGTELIEQSEAVADAIFHSKWYTQKLNRQKDMCFLMMRAKRPVKLTAAKLFVVTRDSFTQVIKQAYTIFALMSQVLDDTMG,r
CATS,0.07408144076733995,-0.7644147353924763,0.057854693331049645,-9.607135032685399e-05,0.13908503024483498,0.062341829752596944,0.11122172185854506,-3.3151173175036455,-0.054104901053800836,-0.08262163637850795,-0.16031098347382877,-0.20991883855259852,MFSASAEMEWFRQQRHAICHLREGSDYLRYLRPFQLIAGYPINPRPALSKLATVVRLLAYLTYLGTLLHKISYVLYRPEDINYVSFVSGGITVLVAVLLLMLIFTVHYDAFQQLGTFLNDRAFARDHPLATGIRDRWYRWSNGLILGPQCCIVLILLQTWISRQHLKKHTMLVVRGEPVGTEFDHFLYMSCLYFPTVGFFMGCSIVNAMLVGFLGEMELLATCLGELFETVERQVKEEGPTGRPDSRALYWSTLHGELRRCAQRHCAIFTMLPKLQRMASFVFLQHHIFSLGLVVAGSYVTLRGPALRENIVLSEYPISVVLEYFIFCQLVEKLQDMNRSIGDRLYGTEWMLKLQYSRDFQREYRSAALTIRLLIMRSQHRVRFTCGSINPVSMEKFTEFLNLSYSIVMFLLSIN,r
CATS,0.16700679125587967,-0.9786747301198926,0.15985964976300004,0.22193306102742494,0.21524707723246173,0.0816451137000479,0.15634905455646375,-2.4838186830080424,-0.0002153758760961022,-0.568207823266323,-1.782746997691984,-0.058384770757017534,MWHHQVQLWFRFLLGRFTTFTDSSDYFGLYKTLATISAIHYDASCWFDRAIWIVYRSLPILVNISYFYKAYRLILFPEDNTSAASVIASVWGFTEGTLRICLIELRYGTLASIMSFLNERSYRQQDSLVRQQRATLFGENNRIQLILVATMLMEAIWFMTTQLFSRDAFMLQVNGHVVDSIAVQILYGLLSNVWGLIYVLSFAIFYIIMNTLHLEMSILLDGITSVQFTVMRRLKQRMETLAASGHSSTQVFWSILQPELNSHISRHVDLLDNLKEFSSIVGPFSFVQYYGTLALIADCGFILSIEGLSANGMIYLLFVTVLVFQSFILCRGIEKLNDLNEAIGQALYSGFDWPDMLQYDQRFRRQYVTVRHTLMLVIGRSQKGFQCSYGGLGSISMERFAQLMQKSYSLLTILLQFAK,r
CATS,0.018974747531360726,-1.4820305914497296,0.021478042555599264,-0.024062532173217077,0.055553447189023664,0.0028499359414064784,0.039054844143991296,-7.018652869294485,-0.0042354634148569215,-0.3860090177264268,0.004008075094953378,-0.005263681907832218,MYLTQLFASMRTQFLHRITHYTKHSDFFIMQRYFEKIYAIHYTPHGWHDRILWYLYRALYGLIYLSYIHKTHWVLHHPQDSFSTANILGVMWFFSVVILRVAILEWYYPLMLRMQTFLNNHTSYQRTDPWAVGRRARFYRRTNRVILTVMGINLAETVCFTATNVMKLDEFMLQFRGAIVGGWPVQIVYGVLTMGFGGMYCMGFMMCYLLLSIFKLEVDILIRSLEEVERSDRLESDFGDSADIFWNNIVDQLRPHMQRLDELFIQLQHLKAVIGPIAFVQYYSTYLIIADCCLILVSHGLSSFSIVYFISMLVFLTESFLLCHGVENLRDLKPRIASTVYDFDWMLQMRCPNPRHRAQYRHVRRTLLLLTAQSDQTIQFSFAGIGEISMNSFAQLLEKSYSMLTFLLQFAK,r
CATS,0.031007778442327206,-1.0535980739640192,0.0773325960929544,0.16116854676611003,0.10637973260821942,0.054410638237514575,-0.2442526214931624,-3.671511642992045,-0.2839197724081204,-0.1086370480187473,-0.9947023032642739,-0.20921960313690868,MFHPSRWMAKCRVWYAATFKFSADADYFFLVQPLCRSLQLFGNPVRCLQEFGTVRGLFVQLCRFLFLLPYASFALKSYWQLNHPLDTNNSILTYGSFVIYMLWAILIWVLNHYEHEMCELRLFFKNPTYQEQSDWAHRIRAGNYRRWNWMILMFYLFNVINVSIFTLTNAHNRQFHFQTRGEVVGPLYFQIIVEIFTGYLSLGYFVPSCITLMTLQLFRTEMHILTTTLKQAANEEQQQQQHQHAVDIRCAYRSFCKQFYANIRRHTELLQSIATFCKVFSPISVVLYYGALITITCTCFYVMKHDVSTTTVCYAGFAVYMLFNTLLFCKSIDSVNDLHTEVGYIMYSEYWPATLQYADQGLSTETLRPLRRSILIVLQQTLRPLRFGYGVSGSLSMQRFGEFMQQIYSLIMFLAQLN,r
CATS,0.16582996746027853,-1.2169702232625088,-0.005762449003424486,0.30431446421147845,0.108837446151402,0.30613947579936696,0.11562090014256976,-3.1086220982382455,-0.6857460423117245,-0.3191788474472741,-0.1620239002830839,-1.809280228032216,MVKFFRCCKARVSPELLSKKNEKPEAFLPSLRMILFIFRMFYAWPDEQSLAPNALWWYRAKGVLFRTFFIYLSAAAQLAYNFTVTSREELFAGMFVLLTQLVLILKMEFFYKNVSKIQQLIRRLNGKRYQQSGNAEEDMPLVSARKKSTIFWTLYFMFSVGLATEWLVISLSLTTLIVPVWPVVDHTTPYWVYLMVIFHQYVAIALNASFNISWDSLVAALFALTNAHLHRLQIQLMKLGHRKHLHPPKDAKRRMIAVSSFDDNARSVPTKSDADEVYNELLQCIIFHQEVTGFLREVLDLFSGPLLAQLYCSVFILCITEFRLLTDVNTMADTVQAVIYLLCLVIQVAQYCYFGNEINYMAQKVHRATAFVNYPDMNIKCRKLLIAFQQITAVGIKCSAKYVFTIQLSMETFVTILKTSYSYLAVLRSMTD,r
CATS,-0.006361452062037176,-0.3218857803120045,0.1364686425136824,0.09690269752989078,0.010733835945824,-0.24513947713681317,-0.030772959162769897,0.20805951413551937,-0.055074945674113085,-0.5729189767003897,-0.36728964765216054,-0.8222048456688786,MEASEKFSQFERYIRTLCNIIGFDVMTETWKKSYRTYMSIFLCSQYLILMVYSLIIASDTFELFKSLSFLGFFFQCSLKMYYTIQQAPQYAVNFCCLKEAIYERHSKGTLAQKTTVARIIDLLVLVTKAISVLYTSSLFIFSLYPAYMYFVVHVKVPIFPLYIPGINIYSAYGYGITNSFHMLIAVYGLFGALTSDIVFIMFVVHFVTYGGLFKIECEQFDQDLSGVFQHCEWRTAVYKTFCRQRMRAIYQYHQSVIFYLESMQECYRNICVVQVASCSLSTVFNLFLALTTDWYATYGFIVISVFQLFVYCLMGTVMQIMNERMIDYISNLPWYMLPTEEQKQFKFMLARSQLSAEIMIRSVGPMNMETFTDIMQKMYSAFAMMYSFLVDLG,r
CATS,-0.09584586766899579,-0.3792096685337859,0.055105396810009366,0.05512296019242646,-0.3594329722033218,-0.4331587552106928,0.20313403206659986,-0.04076222287165421,-0.24528058010677034,-0.15089364887588763,-0.009674716027449293,-1.449437174787168,AgOr67,r
CATS,0.027236210663613415,-0.363258856961452,-0.0017478078289265842,0.020435588044448005,0.06558811856110158,-0.017233211017794625,0.06913836555923869,-0.539244426881097,-0.5038170382311975,-0.45107288371251,-0.2824662789652759,-0.03969365701717975,MANVEEFRKLMKSLIVCSKVAGVEMWTAPGKLKPASYYVSFHITVYFVSTVWTLRKYIDDPIHMMKVLITMGTAVQLYIKFFVAHSKAQEVKLFTVELEQEVLKRYQNGSEEETAVLRRTGRILWIVHRLMSASYIFVAVAFGLYPAFYYFATGKVMPLFLYELPFFNVSSSLGYAVTMGFQINLLAIGVLGAILSDFMFFMYAMYAMARADISIVHLSELENILNDSTKNEEHSANVRHKWIQCMHDHQQSTSFFSTVENIFGLMCLAQVSTATLSICDAMLLVLLTDWYPTYSYLYVVFVQLSGFFVIGHLVELKIDALYNKIISMPWYRLPVKEQKEFRFLLSRQQCPMILTAYGFHPMNFEAYMSVLKGLYQFFVMILQYIGRN,r
CATS,-0.0016496328009036887,-1.5769569310788465,0.013883475573553627,-0.030995721183481928,0.06104481585289301,0.01572192882556167,-0.06790266307304482,-7.5099491795632805,-0.06098608513549264,0.018880378398649533,-0.14003245474267412,-0.19269731435143456,MTVVHRIVSFGYNLLQRHFNVGHPTEQFFLLRCLDVVSPAMLLQRPRSNLEVALKTLCLSVMVAHTIALAYDFSQQTDVRLAMDMLCMLSLFVSIILRGTCMRQYLAHINALDRLERRPTFRIGTPYADESRRNVALQNSRYLGVALVFHSLTVTVYVIQNMVRENSFVKIITSFPIDLSERAPVLERVADLCYSLVGYVWGWYHGATQLTIIVLLRYAITEFRVFLHSLDSLDDQLQQRREQSQGAPDEERILRELLYEHARHHSQLIVVVTHLRTLLRNYSLVHFSFYMIIVATFMTRVLIIPGRSSFGLAIPLLVTTIYFLETFGMCMLVEMLVQLNRKVSTSLYGFSWPQYLRYGRTIKRPMMLMIMQANMTKDFSAGGLTTVSAELFAKTCRMIYTMMMFMANMAT,r
CATS,0.05944716840217923,-0.6243805861498443,-0.021011740336550844,0.07494648375727175,-0.002651235183241729,0.06878201634080028,0.1771703174326167,-2.6347032663591126,-0.04974451565611204,-0.6394563061786673,0.12755491609282565,0.07444624135184508,MTVVHRIVSFGYNLLQRHFNVGHPTEQFFLLRCLDVVSPAMLLQRPRSNLEVALKTLCLSVMVAHTIALAYDFSQQMDVRLALDMLCMLSLFVSIILRSTCMRQYLSHIDALDRLERRPTFRVGTPYADESRRNVALQNSRYLGVALVMHSLTVTMYVIQNMVRENSFVKIITSFPIDLSERAPVLERVADLCYSLVGYVWGWYHGATQLTIIVLLRYAITEFRVFLHSLDSLDDQLRQRREQAQGAPDEERILRELLYEHARHHSQLIVVVTHLRTLLRNYSLVHFFFYMIIVATFMTRVLIIPGRSSFGLAIPLLTTTIYFFETFGMCMLVEMLVQLNRKVSTSLYGFSWPQYLRYGRTIKRPMMLMIMQANMTKDFSAGGLTTVSAELFAKTCRMIYTMMMFMANMAT,r
MordredDescriptors,-15671325292.379704,-30058223316.62575,-0.04692381403075796,-0.0427404605977606,-5666.24758058538,-78356620795.56119,-8.375960497297719e-05,-12.115613914416869,-150291116570.73596,-0.05780397743503407,-0.20239020421905418,-0.017003073136180546,MKLNKLNPRWDAYDRRDSFWLQLLCLKYLGLWPPEDTDQATRNRYIAYGWALRIMFLHLYALTQALYFKDVKDINDIANALFVLMTQVTLIYKLEKFNYNIARIQACLRKLNCTLYHPKQREEFSPVLQSMSGVFWLMIFLMFVAIFTIIMWVMSPAFDNERRLPVPAWFPVDYHHSDIVYGVLFLYQTIGIVMSATYNFSTDTMFSGLMLHINGQIVRLGSMVKKLGHDVPPERQLVATDAEWKEMRKRIDHHSKVYGTMYAKVTECVLFHKDILSFGDEVQDIFQGSIFAQVCASVIIICMTLLQATGDDVTMADLLGCGFYLLVMTSQVFIFCYVGNEISYTTDKFTEFVGFSNYFKFDKRTSQAMIFFLQMTLKDVHIKVGSVLKVTLNLHTFLQIMKLSYSYLAVLQSMESE,r
MordredDescriptors,-17518222.625163365,-460552338448.696,-0.021440626862892387,-0.013723073746224168,-87586199.62723409,-4913.425348973918,-0.03807006936553159,-19.758688428564287,-2302761692219.524,-3.898439653724216,-0.273132032196721,-0.025767639122539432,MLIEECPIIGVNVRVWLFWSYLRRPRLSRFLVGCIPVAVLNVFQFLKLYSSWGDMSELIINGYFTVLYFNLVLRTSFLVINRRKFETFFEGVAAEYALLEKNDDIRPVLERYTRRGRMLSISNLWLGAFISACFVTYPLFVPGRGLPYGVTIPGVDVLATPTYQVVFVLQVYLTFPACCMYIPFTSFYATCTLFALVQIAALKQRLGRLGRHSGTMASTGHSAGTLFAELKECLKYHKQIIQYVHDLNSLVTHLCLLEFLSFGMMLCALLFLLSISNQLAQMIMIGSYIFMILSQMFAFYWHANEVLEQSLGIGDAIYNGAWPDFEEPIRKRLILIIARAQRPMVIKVGNVYPMTLEMFQKLLNVSYSYFTLLRRVYN,r
MordredDescriptors,-148812866723.10123,-101177109106.39162,-0.10816014001044216,-0.004175470516889934,-204046461624.10318,-540017871991.1878,-0.10272343013211582,-1.958492148923531,-505885545528.862,-0.5725803189960987,-0.15847006422311982,-0.4065277476691427,MVLPKLKDETAVMPFLLRIQTIAGLWGDRSQRYRFYLIFSYFCAMVVLPKVLFGYPDLEIAVRGTAELMFESNAFFGMLMFSFQRDNYERLVHQLQDLAALVLQDLPAELGEYLISVNRRVDRFSKIYCCCHFSMATFFWFMPVWTTYSAYFAVRNSTEPVEHVLHLEEELYFLHIRTSMAHYTFYVAIMWPTIYTLGFTGGTKLLTIFSNVKYCSAMLKLVALRIHCLAEVRQDRAEKELNEIISMHQRVLDCVFLLETTFRWVFFVQFIQCTMIWCSLILYIAVTGFSSTVANVCVQIILVTVETYGYCYFGTDLTTESYSVALAIYDSEWYKFSISMRRKLRLLLQRSQKPLGVTAGKFRFVNVAQFGKMLKMSYSFYVVLKEQF,r
MordredDescriptors,-106858956122.36229,-31776653412.47578,-0.0312993943280504,-0.03203792447520559,-148811915949.36618,-385482864662.3432,-0.03876351426065394,-16.43730936381893,-158883267044.03018,-0.7444862206788925,-0.02243513936021846,-1.1444939597065673,MKFELFQKYSSPDTVLSFVLRLLHIVGMNGAGFWSRIRVGGIFLFYLIFLVIPPLTGGYTDGHQRVRASVEFLFNCNIYGGSMFFAYDVATFQAFIQELKSLSILVCSHSYRLKYKLTRFNRRADIISKVQTTCMGAVTLFYWIAPIPSICAHYYRSTNSTEPVRFVQHLEVKFYRLENRTSVEDYITFVLIMLPVVVMCGYVCNLKVMTICCSIGHCTLYTRLTMEMVEQLESMASAERTASAIRNVVQMHTGLLKCIRLLNTSIRSMLMLQWLTCVLNWSISLIYLTNVGISLQSVTVVVMFFLATAETFLYCLLGTQLATQQQLLEHALYATRWYNYPIAFRSSIRMMLRQSQRHAHITVGKFFRVNLEEFSRIVNLSYSAYVVLKDVIKMDVQ,r
MordredDescriptors,-10262.293042220499,-3087.103902616808,-0.011427508373162532,-0.0027277761421427016,-872.8475955648763,-50438.5911625557,-0.01229769741056308,-0.5685563666350515,-15434.412136501865,-0.21177418096854028,-0.10774236829112116,-0.21930366628130638,MVLPKLSEPYAVMPLLLRLQRFVGLWGERRYRYKFRLAFLSFCLLVVIPKVAFGYPDLETMVRGTAELIFEWNVLFGMLLFSLKLDDYDDLVYRYKDISKIAFRKDVPSQMGDYLVRINHRIDRFSKIYCCSHLCLAIFYWVAPSSSTYLAYLGARNRSVPVEHVLHLEEELYWFHTRVSLVDYSIFTAIMLPTIFMLAYFGGLKLLTIFSNVKYCSAMLRLVAMRIQFMDRLDEREAEKELIEIIVMHQKALKCVELLEIIFRWVFLGQFIQCVMIWCSLVLYVAVTGLSTKAANVGVLFILLTVETYGFCYFGSDLTSESLSVARAAYGSLWYRRSVSIQRKLRMVLQRAQKPVGISAGKFCFVDIEQFGNMAKTSYSFYIVLKDQF,r
MordredDescriptors,-21764478876.580025,-467961069019.7775,-0.05751411165650322,-0.8120261372920488,-32637100469.30704,-76185293912.6944,-0.02914588485337366,-43.81884019315493,-2339805345054.7803,-0.015892795363880552,-0.06514052093800982,-0.20729800419308386,MVRLSFEETLRNTNLMLLMMGIPPCEEPYPPGVLPSLKRNAGFIASFLLLAYTTIGELIYLKQMFERDVTFLEVTFQAPCIGYCTIGVLKMVILARGRNTIAELVGLFRAKWTSAIVTGAHWAVCEDTMRPAIRVTSVTALANVVMGIAFTILPIAEMIYTHHYTGRWNRQLAFNIWWPFDVLGGVKYYWFVYPLYVVIGFTGIIIHMAFDCLFCILAAHLCMQFRILAHNFGHVVEVANGAREGDSGSTSRLRDAIRIHQELIGCSVFMQNVFGNALFINFLGSSIIICIQAFMITTVSGYMLVKFVLFMLCFLIELLMLCAYGEDIVESSLGVIDAAYGCEWYREGSVAFHRSVLQIIHRSQQSVILTAWKIWPIQMSTFSQILQASWSYFTLLKTVYGNK,r
MordredDescriptors,-15.86274077958841,-3.3111933047153017,-0.08816003482299717,-0.010478534222695624,-61.55412856725111,-17.655545462399626,-0.0053912992456182085,-3.964363130078449,-2.196313862747217,-0.10876571754099418,-2.9029885829611466,-7.3835352302487,MDPPTDELVRFESFIRVPEIFFAMIGVARYGEPKRTLRAYLKHLLFWSSCINTGYCLVIEHIYFVKAAGNFTNFLQLTALAPCMGFTALSFVKIMTIKLNETKLTDMLHRLDALFPSTVALQQRYGVYQYNRESQVVMKSFSILYMILIWMFNLLPLVSMVVGYVSDGTWHKQLPYFMWYWYDWHRPGYFEVTFLHQNWGGFVSAVFYLSTDLMFCAIVLLLCLQFDIVAYRLSHALPDDHQELVGCVRIHQAVIELCNELEHMFSPSLLVNFLSSSVIICLVGFQATAGITPADLFKFVLFLVSSLVQVFLLCYYGNKLIVASSQIPYSAFEGNWIGASGSYQRSLLFVMLRSTTVQKLTALKFSIVSLASYSKILSTSFSYFTLLKAMYEPNEKKMK,r
MordredDescriptors,-76466688415.2656,-299696469417.4587,-0.007052026133584022,-0.013448624615134408,-59365333236.23673,-322968108840.0595,-0.011218494873084905,-109.50255680445899,-1498482346976.494,-0.6578546840974637,-0.5719289285484013,-0.06711743169455175,MVRLFFSKTRVTKLFTRKDERPEMFLPSLRMILFIFRMFYAWPDEHLEKSALWWYRAKGVLFRVFFIYLSAATQLAYNFTVTSREELFAGMFVLLTQLVMILKMEFFYKNVFKIQQLIRRLNGKLYQSRNAEEDIPLASARKKSTIFWVLYFMFSDGLVTEWLVISLLLTTLIVPVWPRVDHTTPYWVVLMVILYQYMAIVLNASFNISWDSLVAALLALTNAHLHRLQIQLLKVGHQNRNLQVDANKRMITVSPIDDDARSVPPKSDADVVYNELLQCIIFHQEVTGFLREVLTLFSGPMLSQLYCSVFILCITEFRLLTDVNTMADTMQAVMYLVCLVIQVVQYCYFGNEINYMAQKVHQATAFVNYPDMNIKTRKLLIAFQQITARGIKCSAKYIFTIELSMQTFVTIIKTSYSYLAVLRSMTD,r
MordredDescriptors,-1511397045.87507,-362563297376.4043,-0.004329696142102435,-0.06246148102373161,-7556979346.334804,-5881.72724842499,-1.246507742555524,-32.320397662192704,-1812816486840.8765,-8.281495850683424,-0.4480752411319231,-0.09512533891704322,MEVLNCPLLSVNVRVWRFWSFVLVHNWRRYISIIPVTALNVFMFADLYRAWGNIEEVIINAYFAVLYFNAVLRTLILVYNRDKYESFLAGAASVYEEIRAINDDVITKLVSTYTKRARFLSISNLALGAFISGCFVVYPLFTGQRGLPYGMFIPGVNNFDSPQYEIFYITQLVLTFPGCCMYIPYTSFFASSTLFGLVQIKTLQHQLKTFRSSEMLNESTVVLNRKLQKLIEDHKRIIRYVQDLNDLVTYICLIEFLSFGLMLCALLFLLNIISVMAQIVIVGAYIFMILTQIFAFYWHSNEVREESMAIAQASYSGPWLNVDDTIKKKLLMMTIRAQRPLEITVGNVYPMTLEMFQSLLNASYSYFTLLRRVYN,r
MordredDescriptors,-117800950934.61496,-361295000676.06537,-0.15487538504291543,-0.019211939523026578,-110808133776.386,-478196620896.4883,-0.02646438710380794,-44.89767359336933,-1806475003334.766,-0.08415881213545462,-0.07193627935746805,-0.5067437040734761,MELKEEWILPDVVYANPLLKRTLLGLRYYGILLGQSQSYKKVHCFRGMVFTLSMVLFNCTQYIDLWQVWGSVSDMTANAATTLLFSTTIFRIIFFYFHRARFNSIIKAAHDGIERILKDGWTDEQSIVGSNVRYLKRLAVVFWSCALVTANMMCVYSLVQYLTYEEGPPDGTGTSAANITRKGQPIPPTPILRSWYPTADGKDKHFLEIYLIQLYIMYVGQLIVPSWHMFMVTLMIYGRTECSVLNHRLCFLERYHTAGKDDPTAPVNNAERRSLMIDCIKRQASLVSFTRELEQLTRAAVFLDFVVFSVLLCALLFEASMTPSGVQVFIDVCYITTMTTILFLYYWHANEIHACADRLSMSAYKSDWYRYDRGTNRMLQIFILYSNRPLKMHAFFISMSLDTFLAILRASYSYFTILKQLTD,r
MordredDescriptors,-108811538524.94046,-255134672267.43292,-0.08908461106858767,-0.1008148630094039,-112532213712.70059,-431525478911.8049,-0.006898158846770919,-32.26907044515272,-1275673361304.1313,-0.3682001879362249,-0.054366882536184935,-0.3416191772680208,AgOr12,r
MordredDescriptors,-8481899053.924189,-318375253174.75256,-0.02729840364375624,-0.02031728620013884,-34339841552.958324,-8069653716.614932,-7.150178616899261e-05,-57.28574686069335,-1591876265815.0774,-0.7803376394845771,-0.4336131389619098,-0.18579935847655293,MNFLRQEQPAGMPHISIKLLQLFGVTGSPEERFRILPVMLTYFFFIVVPKCFFGYPDLEITIIGTAELIFQSNTFCGMFWLFLNRHKLAQFITQVRTFSLTVFRESPPAVVQHLTTQHDFIHKITRIYCIVVMFAAHFYVLTPLLSTFYAFYGTVRNDNVTVHYTLQMEENFYGLQTRTTTSHYLIFGMFMTPTIYLCAFTGTVKILSICNITMYCTLYFQLVQLKLRTATEDNTFNRQEVKSIVVMHQDALNCASLVESITSLVLLQQLVLCVMIWSSMLLYFTVSGFDLNFINLLVLFAFDTTETIAYCYFGEQLSNESARVAHTVYESGWETQTPDIQKDLQLIIARAQRPVGITAGKFCYMNMEQLGIIVKTTYSIYIILRDQF,r
MordredDescriptors,-52298443443.011925,-871220064153.012,-0.009323550930986357,-0.09458163962802835,-57498638474.993835,-203993578739.96042,-0.0014527045247907378,-32.40015119440721,-4356100320732.096,-0.07829309867277234,-0.34448164328234876,-0.14091579013772604,MNFLRQEQPAGMPHISIKLLRVFGVTNHSEERFRIVPVMLAYFFFIVVPKCFFGYPDLEIMIIGTAELIFQTNSFCGMFLLFLNRRKLAEFIQHARSFSQTVICASPPAVVRHLTTQHDMIHKITRIFCIVVMFAAHFYALAPFLSTLYTFYGTVRNKNATMHYTLQMEENFYGLQTRTSGTHYLIFGVVMTPTAYLCAFTGTVKTLTICNITTYCTLYFQLVQLKLRTVTQDNTFRQELKSVIKMHQDALNCASLVESITSLALLQQLLLCVLIWSSMLLYFTVSGFNVNFMNLFVLFVFDTTETFAYCYLGEKLSYESARVAHTIYESGWETQTTDIQKDLQLILVRAQSPVGITAGKFYYMNMEQFGIIVKTTYSFFVILRDQI,r
MordredDescriptors,-42567323343.82005,-80447577403.10728,-0.016704606711852588,-0.035748802274798486,-78649059085.52838,-134187557633.51945,-2.473519272516711e-06,-57.66803698294016,-402237886957.5402,-0.13992916243546394,-0.15950449305039505,-0.028734114267167765,MRFFLIEKPPGVPHIALKLLRLVGVSQTQSERYRYVPMFVLFLLTIAIPKIAFGYPNFETSIIGLAELFFQTNRFVGVLLLVLYSDSIFELVRQSEFFAKKVLSETSPVAEYLTKMDTQVTKITKLYLTALLVPANFYSYSPIVATLWKYYNTYENDTVPEFTLHMEESFYRLNVREKLDHYLIFGAIMVPISFLCALVGTAKLVSILSLIKYCTIYFQLVKVKLEEVGRSQNYASDIRSAIQMHQSALSCADVLHDITAPIMLLQLVLCIMVWSSMLLYFTVAGFNTQFISLFILFMFDTTETFGYCYLGNQLSDESARVASVVYDCRWEGMPPALRKDLQLIMLRAQRSVGITAGKFCFMNMEQFGEVVKTTYSFFVVLRDQF,r
MordredDescriptors,-210966197792.0336,-246968128268.60352,-0.051388943489018235,-0.16201077878289127,-138439535736.26562,-916391453223.6075,-0.08145177646113311,-25.444455097493147,-1234840641316.333,-0.8901912907688807,-0.0006492565271853934,-0.349466363975657,MTSFKPTDDTDVMPLVLRLLRVIGVWDVPQYRYRYAAVFLSYCFGILIPKLCFGYPTLEASIRGYTELILETNVFAGMLQLYLCYNHFVPLVDELRAFAAIVFQDNQPMLLRTNLTDLNLRIHKYTLCYCLYMCCVCTVYCVAPLGSNIAGYTAAMADTASNSSTTFAFTLYLEQGFYWLDNRTSLLGYCVCTVFMLPLMYLCAYTATVKVVAVFNMIKYCQTVLRIVVLKLRLLKTLPDVRQRSDGMSEVWVLHQRALRCAELLELVLQPLLLMQFVLCILIWCMMLLYFTVSGLNVKFINMFLLFLFVSIETFGYCYLGTQLSQESINVGQALYASGWYEYDVQMRKHISFMIMRSQRRVGLTAAKFCFVDMEQFGAMLNMSYSFFVVLKDAF,r
MordredDescriptors,-42931604956.36458,-589833435499.1946,-0.11061634455319957,-0.0021275875192554583,-71161632644.83109,-143496392136.86636,-0.012691924320282766,-41.18802701957872,-2949167177453.929,-0.28800759594888214,-0.0031786190012963456,-0.5643142311187301,MLRLSPEDPKAVMPVVKRLLKLSGLTQETTRFGAINFLNLFIYIAAVLVPKVCFPYPNTEAMIRGLSELIFFTNVYVGFFCFISQHRQRDLLNAIDSFVDVVYPTAAHPSDSPSEQILIKFNVKIQKLSVVFCWYIAVTATFYWLAPCLMTYRSIYMASVSVENGSVQSIQYYPNLEESFYWLDNRSSVYGYATFSIVALLVFTVASYNNATKLLTILTTIKYCNTLLQLVIIEVDNLNHATSNAIDRELKQVIQLHQRAVRCVALLNQTLSFVMTVQLALCILTWCFTLLYILTVGLDVTGMNGLLIMFNMTLEMFGYCFFCTELATTGTLIACQSYEFRWEEHDPKIQKMISTIVARSQLPLRITACGFITVNVELFAKVVKTTYSVFIVLKDFI,r
MordredDescriptors,-59335270010.86334,-80074793451.04878,-0.04937675907313821,-0.00023477655828374466,-149387502426.962,-147288847627.1868,-0.11827422792004838,-15.078997635834682,-400373967239.15466,-0.41490710950124,-0.0035518743059064217,-0.5918230143470018,MLRLSPEDPKAVMPFAKRLLRLSGFRQETEQLEKQIFFNLFVYVAALLIPKVCSPYPDSEAIIRGLSELIFFTNVYVGYYCFVVQHRHYRDLLDEIQSFVNVVYPTSQQPESPSERTLIKLNVKINKISVLYCWYLAAAGLIYWSTPCLMTYHSVLKAKAEYGPNHPIRFYPNLEGSFYGLDNRTSVYGYAAFSIVALLVFAFASYNNATKLLTILSTIKYCSTLLQLVGVEVDNLNHTSSEAIGRELKKVIQLHQLALRCVALLNQTLSFVMALQLALCILTWCFTLLYILIVGFNAIATNGLLIMINMTLEMFGYCFFCTELDTTGKIVSRQMYEFRWEQHRPTVQKMVAMIIARSQTPLQITACGFIPINLELFTKVVKHSYTVLAVLKDLI,r
MordredDescriptors,-706.8532233807229,-4640026552.037125,-0.00014655591377299437,-0.01545444258587092,-3317.9163199854092,-216.29845648536892,-0.035739434335938514,-0.037571467066738196,-23200132758.745117,-0.03354474745520486,-1.366375021795681,-0.003013033161749945,MKIWEKYLERKRTLYHAKYQTPHQLFDAACDIVIKCFAVCGGERMKPGYTRRNARLIFLVTDLILYLFVNLYSIAIVWGSLMDVVFCFVTLGIAIQGLAKIEAFTCPELNDLHLYNVARFKAPPRFPEVDEALFHTATMCMVFIRIFAVAFSIVAIAIYSYAILMPLIEHELSLAFGFYLPFVDYRTPVGFAINWVYQFVQVLEGCIGLMACDSCLLVLIMNATGQMDVIIVYLKQLTLLIDNNHTGQHDEEIADIIKEIVLKHLEHTKYMTDMDKLLKKQFFINFGCMIFELVASLAIVVRVPWYPGMAICLICTNQLFINCALGTFLSSKNEKLVEEIYNVNWYGLTTKHQKTLQQILLTSQHPVVLSDGFSPIDLFNFVEIYKKIYSYLMVLQKVS,r
MordredDescriptors,-125455088882.50764,-42186986273.16045,-0.028212773537988234,-9.943061699368982e-05,-193518918562.02362,-433756525850.17163,-0.31462306839163157,-1.315570719646908,-210934931363.43927,-0.0415191302452258,-0.7874008168417836,-0.2185203951531558,MEQEINQIISFLRRPLKWLGFDVIDPNWKVTPLTMFTIVMFALQHYTSYLYLSTHLDMFDMFTECFSTSAVALEIAIRMGLLVHQRELRNETIEIIRQQHKTFGNSAAIRKVTARFHKLISVTLHALAACYMSTMMFELIPIVSPNPRKSNLPLPMYLPYMPHDVTPYWHLNYTFITVMNLMCILFLVGIDGLLVLSILAAVHQIKLLKITIQELDIGAEQAELHRELVRIIQIHQRIQQFIHQLEQTYYIDLLVDFGLVCLILCMGLNVIADEVINAIWFFLIAVVFQLSLLCFSGNLLLIESDSLSSCVYSIDWHAMPVPEQKLLMVMIAHAQKPQVLRGIFMPLIMSSFLSVIKASYSYFTLLH,r
MordredDescriptors,-45410545356.46248,-16303518062.3904,-0.13335944565069124,-0.03316539660254403,-14449783218.975725,-212602943563.16336,-0.006768406394025428,-12.15861481657645,-81517590297.82916,-0.8540119748762098,-0.8684660707749201,-0.24172801040790381,MDSNSKKDTFPLIQISTKMLQIIRLWNESSGQRMSTFGVLLIAVFPIMWLIPSWLFIVSSQDNIKRLMKAINEQIVFCIVFLKFSFYAIHFRRWEQLFYDLQRSFSTVVNNPSLEIQTILGHVTKSTHKLTKYYCSIVSFNCAAYGLFPMLFIVVKYAVTGSYDVPLSTPIEGNYFIPGFRTNFWVWLPFNLAQNVVLQCHSFAVITIECFTWNLVYATSCMFRILQIQATELLDRSRDKKEWNIKFKTFIALHDSVLRSARTLEAILSGQILLLYVSTILAVCLGMVVLTLAIEDVYLLLTTFVAFGYCMFQMFSFSYLGTELIEQSEAVADGIFNSKWYEEDVKVQKDLSFVLMRAKKPVRLTAAKLFVVTRDSFTQVMKQAYTIFALMSQFLDDIAN,r
MordredDescriptors,-29266785280.22933,-20885286361.638718,-0.05182851752743689,-0.0868031691996356,-13388521474.158768,-132945404926.77225,-0.07700058483440952,-9.540335391557456,-104426431797.42487,-0.3201488097933398,-0.6036271457124935,-0.30463191186517347,MKPSCKEGVFPLINLSIKLLKIVGFWSKTTGQRISVIGLLAVILYLLAWLIPNWLFIVSSQDNITRLIKATNEQILYFIAFFKLYFYVIHYRRWEKLFYDLQIAFSSVMTNPSPEIQGILGHVTKSTHNLTKYYSYVVNFNCAWYGVFRMLFIVVKYAVTGSYDVPLSTPIEAKYFIPGLHTNFWVWLPVTLGLNVLLEWHSLALVFVETFIWNLVYATSCMFRILQILANELSDRKRNEGIWTVEFEKFSTLHDSVLRSAGTLEEILSGHMLLLYVSTIFSLCLSMVVLSLPIDDFILLLTTFVAFGYCIFQTFSFSYLGTELIEQSEAVADAIFHSKWYTQKLNRQKDMCFLMMRANKPVKLTAAKLFVVTRDSFTQVIKQAYTIFTLMSQFLDNPVN,r
MordredDescriptors,-13361626507.757462,-3795658465.088558,-0.006021329469767078,-0.002518069843236548,-66808129650.70449,-2888.0266697130264,-0.04760707725985158,-249.96451742494273,-18978292074.770725,-0.37273327293009717,-0.002471985485676065,-0.33234337112858814,MKFFQIDDTREILPIGCRLLMLCGLPRSGRVNRRFWLLCVFFFVFGQIPRFLIKIDEPIALVRVGAEIVYSTYMFLQLIALYARRSDLYRLIDTLQKCVENPYPDDVRAFILITRDTINKSSVMYSKCFFAVCISYIIMPFMATSAVVVRNRRNQTGEREDFYYLDIRFNLLHYSLYFGAVSGLSVIGSLALCTKDVMDFSLIRTASMLFQATAQQIRNLPPGASQAKLEAIIHSHRSTLKCAAQLQNALNPALLIQITFCTAIWCLMLFYILLLGFTSKVMNVCLLLLVLTCETYSYCQLGTQFTSNAEEVLDELQQLARYDQSIPIQKQIYFMIHRSQTRIELTAGKLFPVNIAQFSEIVKKSYSYYLVLKDIF,r
MordredDescriptors,-41632523080.91247,-6.7481844834072735,-0.044561923599012676,-0.018827632379629256,-688.8397710201843,-208162614715.62473,-0.03444534711042224,-13.459554075890924,-17.312578171608557,-0.1047379107812112,-0.00020684715677377064,-2.8638454115988967,MLAAETVDFFRVQSICLRAIGIARTDSFRGRVLFAVSFFTVLVMMLGTVMFAFKHIDQIMLLCDCLGPTFTAYLGLVRQYNLLLHRSELWSIVDEFAALKHSLQSSEIRIVQKYNRIDRFLAWAYLITAMSTGVLFVGVALVLVFLSEKSDWKLPLLMDFPFDVKHPVTFTIFFVWCSVAIFWVVLDCVACDSTFGTFSSCLVAHFVIIQERFEGLRFDDGNRELKKLIEHHKYILRISDRVINAYKNVILNQLLISSVLLCMLGFQLVISVGTNIMVVYVAYGMAITIQVTYYCYYGSQLYYESTQVHDAVFKSKWYDASVATQKMLINCMMRAKKPVNAKSGFTQASLPTLNAILNSAGSYVALLMSLME,r
MordredDescriptors,-12498528400.003895,-9.720122308362422,-0.1395245816965507,-0.0059061113756933015,-9220673.00560265,-62483421326.837776,-0.030673615809267307,-1.4489760074532256,-46.65166118906357,-0.2888210123361741,-0.15509165251064472,-0.056061680448500795,MSQLNEFPAYQFRLIRFCGVVEQPSLRNNVRCLFAFILLCSFGPLHVWYLAKTPVLDLVVTCEEIMLIQLCFVMLLKFNLFITYRSGMYNLVEAFKRILKCIDKAEFARFVKCSELHAKLLRAYVIGTSIVLLLYELNAIVASITLSLQQNKVCFVTPFSFPFDYQHPIVFALTFLHNFDAMLVTVCTSVTVDSCFSEMASNLTIHFDIVRERFEKLDLSAAQPYAEHQLRNVITYHREVLSLAQKMVQLYQQSAFYLLLLVSTILCLLGYEFVMVSNIYKRMQVAILASIMIGQAAIYTYHGSAISAKSVSVADAIYGTNWYDAPLAVKKLVYICLMRAQKPVIMKSGFIEASLPTLKKILSSSASYITMLMSLEADLNEKKT,r
MordredDescriptors,-326759192906.14716,-65187884474.4788,-0.13768502763229873,-0.0353481430578404,-314987644756.2103,-1318808319774.2551,-0.09736274142445867,-2.6286508092240424,-325939422368.2807,-1.3492902655609007,-0.09897765420090998,-0.03629777510041743,MMGLSRTIPSWPVLHNISFARASQVRRANMEYIYRWILRDDTFAKEVYIKYNFTKLRTLGIYKDASRTRLARRAGFYALELFFLLQLGTIVWDLATVLGNIGLFGDDMCILAGLLLTLAKKWHCVLYIDELWECVEQMQTYHEHYLLQGEWFVRRMRRQNLQERMLQDASKLLATLLASCLMVNALFSNGETLILRAIYPFSTATTLGYGCVFVCQAFLIVYVLYSMVLIDCIGAQALSQMALLFCMQRKQFELIGADLQLPPEGPLHGDRSIRDQVYSAIASHQQLLSFCNRLKRLYEPNIMAQFVCSMLIICLTAFELMFAKGDPMQMVRFGAYMLAGFYQVFVWSFFGNRVTNMSTGISDATISCNWIVLADGLKKDLRFTTMRSQKPFVIDVYWLFPLTYETFIAILSRSYSIFTLLRTMIE,r
MordredDescriptors,-283696075507.1864,-90797546.5195007,-0.30148850640638836,-0.13299171125165477,-462503585054.58765,-955976792480.8517,-0.05841843651892664,-0.2058797277833404,-453987730.83254564,-0.22750451587498355,-0.13883831417216763,-1.1927353725627157,MSCVEDFLDAQMWYLRYCGVFREKSALGGIRLSVCLGVLVVFMVLQSIYIFQHVHHFAMICDAIPTLVVCMVAISKFYIFVFHPAALFALIDSFKALQRRASREDLLLFRRSGAFHAKLTKIYMTSALIVGWFYILSAIVSGISRSLAEGRVHFVAPMAFPHNYQHPLMFALTFLFNCDSIHMSIFISGSVDTCFSELATSVTIHFQLIQRQFQAVDFAARTAEDELEVVVAYHKDVLQLCLAMTNLFQYTVFYLLLLDSVLLCVIGYQFVIFMNTPRVLMLASMAFVMVLQAVIYCYHGSMMYDESLKVADAIYQSNWYEAPPAVQKRLRLCIMRAQKPIVTKGGFIKATLPTLKKILNSTGSYITMLLSLETEQ,r
MordredDescriptors,-184061211538.01422,-56399011891.2593,-0.0136854853858841,-0.006085139079424984,-192270306196.68658,-728035751493.3578,-0.006813466207248764,-344.0545812833674,-281995059111.85754,-0.1393916314112964,-0.18559479078593077,-0.05936608736045823,MIITVAPVTDARPQTPEDCGMFKFQRKILLIFGCWPPDRLTRRWYVKVLIAVNLITLAICIVGEFRYCLYAYRNGSLIETIESICPTVARFSGLLRMCWFLRNEHKIKSALNSVVHLIKNEHPRETGYTNRITARDQTITKVLFHSSFITAILYGIIPYFMMAYNWFQGQYPLVKLLPFKVVLPFDSQDPTLFVLTTIFLNYASVPTITAMTSTDALFSGVCLYMDGQFQAIRLELEALAETVDKYTLKSSAAETLRINLELRRINKRHQTIIDVVSEVRHAFTPTILIVHICAAFMICVISMAMFLAEGINKLTYMPYTFTVLMLLFMYSYGGTVVRESSEAIQTVAYGFPWYQFDRNTRHLVQMMMVRAKYGCNVDVPFFQTSMATFSVIVRSAMSYITLMKSFL,r
MordredDescriptors,-76105031477.30812,-30000167172.55324,-0.025786151057236584,-2.048941663468362e-05,-110884686841.61621,-269640470544.8714,-0.027185128131389735,-13.621076955026965,-150000835847.54688,-0.5838127490184466,-0.23782391533947966,-0.7766415530841431,MVSFGAAASNPRDAETTPHWDIFKLQRKILLIFGVWPADRLVRPWYVKVLIAINLATLAICMVGEFLHGLYAYQEGDLSESIESICPTVARISGFLRMVFYLANEEKIHRVLNNISKTLQDEHPREHTITKQLTTLGQQFTFYLFLMMFFAACLYGVTPFFIMIYNWVQGQRPLVKLLPFKLALPFDSQNLFPFVVTTLFLNYASAPTITSQSGSDALFSGVCLYIYGQFQAIRLEVEALAETVDRNTLKSSAAETHRINLELRRISKRHQAIIDLVSEVRSAFTPNVLLVYTATAIIMCIVCIAMLVVEGIYKLTYLPYAFAELTLLFLYSYSGTIIRDSSEAVQTVAYDFPWYRYDRNTRHLIQMMMIRAQYGSNVDVPFFETSMASFSAIVRTASSYITLMKSFL,r
MordredDescriptors,-242922555527.99408,-62647135928.05292,-0.08149483846605521,-0.007695145122146085,-331928984105.7052,-882683793534.0309,-0.145200886596345,-1.8384136583032498,-313235679635.12714,-1.5252917738627296,-0.24035586881500892,-1.5333583856186581,MSEHPIHTFDRLIKRQRLLLKLIGIDSYDPAFRIHSLTFMLVCLALTFFVISLYDLYLFRDDLFNFVYVLITIFFATIGIGHISVFLLCSKLLAELLEQSYRTYRLVVDDQREQRILQWYTRLFQRAVDGYTLVFIGTSVAAGLLPLAIYLLSGDRVLPYGVVLPFVDPDSLVGYELNYIYQVSCIIWTPPGLVASVCMLFGLVLNICIQYDILAVKLQDLDELIRSPHPHRDAMIGCKLRSILRNQQRLISFIANIEAAKNVHSAVEVLSLGLQIVITLFVLQFSLWIPGLVLIPVFTMQLFLFCLLGTIIEDKGVKFSAGVYSLTWNELSKQDKQIFRLLLLSSQQPQTLTCAGMTCISLNLFVNMSQKFYSIFMMLRNM,r
MordredDescriptors,-350419777065.5412,-59111138678.04146,-0.1361130338469343,-0.006986609849508385,-424954864481.4812,-1327144020845.7854,-0.2963058685320996,-2.8104909382415144,-295555693386.62555,-0.7024828577359605,-0.027353764270647618,-0.041453418749088256,METHIGKQHSLERFQAMVAWQNRVLALFGCYMYLGKERVSYRIVPICFMACSFVLLSLYSAIQARGNMGLAVLSIVVLFYGIIGVTRLAVAISNPAGCYRSIQIAEEMYQRANGSNPAECNVLAKYTDLFCKSVQLYTVCFVLSVVVLTLMPFALYLLRGERYLPLGIVLPFTAETDDFGFWCTLVVQLAYMYTGPFGLIPSQNIYFAFVFNICLQYELLIERLKQLDERIRSSNNLKLTVRDQLVKIIQLQQESTNYITHIERFYQLQSFVEFLCNSLQVALTLNELHRNFWLPGLFILPIAVMQMLILCSLGTLIELKSDQFKDQLYDIAWPEMDLPEQGMFKYVLKSAQQPKQLTCGRFAVINMNLFLAIHKKIYSFFMMLQNM,r
MordredDescriptors,-240527141867.65045,-61227799309.872215,-0.003644120939704676,-0.0629395519431668,-324973161739.5989,-877662547598.5714,-0.01547527197259746,-0.79786309327709,-306138996546.8459,-1.0812029445859919,-0.20915943499116785,-0.42698201611075914,MTFTLSHDLYVYNLHLIRWFASFVGLDIMAPNYKPNILTFLAFFGLSISLIGEVYTVWYFWPILDKLMESAAIFGVFIQGLAKFYIALRYRKFFEAMYNRLDLFHYEYRNHEKNNATLLLLMNRICLLRKLITSQFSISILTLMVTPVAQYILKGERFLVYTIILPFTDPEITSHYLLNLVVQYYLLIVGLAGFSAAESVLILFVTSVAGYADVLKNKINEMNTLLLDAQNSRDRTSVKLKLREIVLLHQRVLEYEDDLDKRYYLNNWVQVASSIFNLTGALFGCYVSNSFTMYALAITIVIQLFELCLLGTILSIKNEEIEHAFYDSLWYLMDHSEKKDFLIMFHKCQHAKEMTVASMAPLNIVLFIAIMQKIYALAMMMMRFSE,r
MordredDescriptors,-293191396780.4758,-70768028858.86049,-0.20840311823489,-0.006126798382938947,-306062507089.9862,-1159894476812.0205,-0.15786479769846617,-2.2033446027156276,-353840144291.1084,-0.9140213150826859,-0.07565893635947152,-0.0009896094018424506,MTFTLSHDLYVYNLHLIRWFASFVGLDIMAPNYKPNILTFLAFFGLSISLIGEVYTVWYYWPNLVKLMESAAVYGVFIQGLAKFYTALRYRKFFEAMYNRLDLFHYEYRNHEKNNATLLLLMNRICLLRKFITLQIIGCILVLSLNPVIQYIIKRERVLVYAILLPFSDPEITSHYLLNLIVQYYLMIAGIGGFAAAESVLILFVTSVAGYADVLKNKIDEMNIILLDAQNSRDRTPVKLKLREIVLLHQRVLEYEDDLEKRYYLNNWVQVASSIFNLTGALFGCYVSNSFTMYALAIAVVVQLFELCLLGTILSIKNEEIEHAFYDSLWYLMDHSEKKDFLIMFHKSQHAMEMTVASMAPLNIVLFIAIMQKIYAYAMMLMNFFE,r
MordredDescriptors,-261321497689.47675,-104754416096.66934,-0.1605644160670543,-9.07127777294292e-06,-275969051376.43463,-1030638437070.681,-0.10733738057283149,-4.610962401137725,-523772080477.751,-0.5464449502888256,-0.19679980906889516,-0.24148818813038253,MPRATSNSAANLERLVIRISSHMAVLKLNIIDPAWRPTLRFGIVLFLTALVPVYIWQGIKVYRTRFETLLEVLSVAGCGWQMFFRMYFYLFQQDRCRQIVQEVRDQRTVYGADRNPRMEKLFRAGTKRMLLAYRVIHLMYGTSYFFQLGPLIMPDPHKCNLPLALQLPFLPPDRNMVYYCINYAHHLLLNTIGVFILLPMDGVLIVALLNICTRIAALQLLLEELDAKLGTVQWQQTAHLDAELNRIIELHIDTKRFARVIYETYQMHFFSMFSVLCFVICMCMNVVARDPRSTLIPFGLASTGQLFVICMLGNVLYIVSDRLKDSVYGIRWYRCTVSQQKRLMFLLANAQPEIVMGAVFIPVTMTSFVTIIRAAYSYFTILY,r
MordredDescriptors,-103039142831.33434,-171770960696.0392,-0.022246886834183854,-0.0037213397998283604,-303354303539.76154,-211841410616.7154,-0.16881651006578702,-1.1764855684449813,-858854803478.2502,-0.5082512615485686,-0.1386499984980214,-0.12234811066857598,MVVFEPLDDPLKVLPLPLKLLALLGVNKNPSERFRLYAIYIYLWVAMFIPKLCLGYETIPQCFRSIAEGMFSFNTTVTFIMLPLKMDNFEGLLQNLQRFTQIVTVEEDYKQILISLNTTIHKFTKFYFIFTNGVVFSITGSTIAGMLYTYYTKDSEYSAAFPLVMENRFYVLDSHYNLGHCFVHQALMFFALYILLVMFTAKAGTLFGLIRFCSTVLGIIVLKIERLSQIGPVDQYTAELSEIIELHQLVIKCSRQLQNILMEILLAQFTGCVFIWCFMLYYVMISGITAEGIAVGAMLIALSTETFIFCLLGNELTLKGLEISTAMYSTNWYDQPVKLQKMVVPIIQQSQQRIGITAAKFYYIDYNRYGQSLKTAYSFYLLLKDIF,r
MordredDescriptors,-6234183693.370979,-41.93806964145182,-0.03218171249966373,-0.004819639413773391,-31170918267.17548,-199.61493078187922,-0.027486393263348008,-36.20003220171165,-172.5914097894069,-0.28717956291698465,-0.413772448692449,-0.1979542045311402,MVNLFARTPADNFRVMPYNLRLFAMLGLWGDRRKLYRLYALLLLAYVAIIFPKPVRITDRHPFESIVRSVSELIFAALCYLTIIILAIKSEPFRAVIRKMEQALELFRDKQDQCSQLIIEVNANIHRFSLGYAKLNLLYVLLFNVIPPIYNYPRYFLQWRMPEDNRTVEFMLPLMQDLYGLDVHHNIVHYTISWVAITPFCVFCALILWFKGALFMLIRYNTLLYQLVNRLLQQYDRESAGGLLAQKHRRLQQIVQLHYRAIECTKLLDSILSLILLIQCVGCLLMLCLMLFYITRNHSLNVINIAVLLMSIFIEMMCFSYLGNQLTEENANISHSAFNCRWYDEPIVIRKYFLRIILQAHRKATITAGKFYNVNIVTFAQLIKTSYTYYMIMKEMF,r
MordredDescriptors,-126232462319.8116,-80274365337.65106,-0.056693200865594484,-0.013483940788485915,-218228157821.19308,-412934153777.7077,-0.08700155657301578,-5.905509528305721,-401371826681.3921,-0.3618069342933332,-0.11335149400935274,-0.48253579687529835,MLSLRPEDPKAVMPFAKRLLRLSGFSPGTEQLGRCIYVNLSIYITVILVPKVCFPYPNTEAMIRGLGELIYFTNVYVGFFCFVVQHRHYRDLLDEIQSFVNIVYPTSQQPESLSERTLIKLNVKINILSVLYCRYIVVAAFIYWMVPCVVTYSSIHKAEVSMGNESIQSIQYYPNLEESFYWLDNRSSVSGYAAFSAVALIVFAFASYNHVTKLLTILSTIKYCSTLFHLVSIGIDELNLVSPAHIDRELKKLIQMHQLAIRCDVLLNQTLSYVMALQLALGTLTWCFTLLYILIIGLDVTAMMGLLIMMNMTSEMFGYCLFCTELTNTATTISQQIYVFQWEKHSPAVQKMVAMIIARGQAPLQIKACGFIPINLELFAKVVKTSYSVLIVLRDFV,r
MordredDescriptors,-905378510.3585169,-693.334403932631,-0.006357975344422506,-0.11506625464652864,-3032311018.221037,-1494581533.4327602,-0.017363808130044234,-2.8490854160300456,-3462.636982192035,-0.7284564799300193,-0.4285358167617248,-0.02895975839850684,MKLLELDNPREAIAIGCRLLKLFGLGRDERFKLVYWLQCVAYLAFSIVPRLLVEIEDMVALMRLIAELVFVVYLCLQIMALYCRRRQLYRLVDMLQQCIDIPYSEQIESFLIRSNVKINQSSAAYARFFMCVYVLYCTMSPLASGFVYIRNQRNATGVQEEFIITTEMNLYDLDIRYNPLHYSIYAGLIFVLSAISSLSLCTKDVIDIAAIKTVTLVFGIVTMQIRDLHEQITQERLNRVIKSHSNALSCATQLEQALNLSVLFQFASCSAIWCLMLFYILLMGLDSRVLSVVLLLVIVSIETYAYCMLGSQLTTQGEDLLMALQQLSWYDQPVPIQRQILLMIRRSQTPLILRAGKLFSANVVQFGDIVQKSYSFFLVLKNVF,r
MordredDescriptors,-101685086884.69815,-27055758367.242184,-0.011366159018269206,-0.05995038891595006,-197044040213.1118,-311381394210.09485,-0.21281679997449388,-0.5752630238369443,-135278791831.23012,-1.0687934724967598,-0.10512334468260498,-3.231647590067384,MYYLEQLRALVRRYLERRSPDPRIQHTFIVQSINRVGGMLGIDIFTPGYSSTNLLLRMVLLNTFTFFWINLYSLTTTYGNLVDFMYSFETLLYVGIACIKMYVFIKNKTLILQMHQYMIDFFDHFHGDREQDELLVRTLNNTTLLSSLFAVCSSSAPGLLFVGSLLWSIAVEYVLPFGFFIPTVGMDTLQGYTLNYGFQMLETTLMVIGIISSESAFFMFQQNACLQVDMLRYSKSMCSLFELHFFIVFGCIFFQLVSNVVVIVSVPDWYPGYFLFIMLTVQLFFSCALGETFNIKSDELTVAIYNVPWYNMEVRDQKAMRLLLMASQNPGRLSYGFGTVNMRAFFEIFRKTYSIAMMMISVNEEE,r
MordredDescriptors,-74783757494.32419,-151188941922.51974,-0.03944499371069243,-0.016704385927222676,-113844726314.96329,-260074061156.60095,-0.0006269033829950921,-64.74034868914914,-755944709546.8418,-0.6865534914292346,-0.0832034696318813,-0.24677728922021203,MDIVSKQGEFPLVKLSTKLLRIIRFWNDSPGQRIPSLGLLVTAIYPLIWLIPSWLFLVSSQDNITRFMKAANEQIVFSLICCKLCFYAIHFRRWEKLYYDLQRSFSTVLNNPNLEIQTILGHVTKSTHKLTKYYCSTVSFNCAAYGLFPMLFIVVKYAVTGSYDVPLSTPIEAKYFIPGLRTNFWVWLPVDLTLNAILELHGFALVFVETFTWNLVYATSCMFRILQIQVNELSHQSRNEKEWNGKLKTFIALHDSVLRSAETLEEILSLQMLLLYISTILALCLGMVVLSLAVNEVYVLLTTMAVFGYCIFQTFSFSYLGTELIEQSEAVADAIFHSKWYTQKLNRQKDMCFLMMRANKPVKLTAAKLFVVTRDSFTQVIKQAYTIFTLMSQFLDNPVN,r
MordredDescriptors,-132577716181.34207,-73816509670.98392,-0.05800021351709672,-0.0012105773912973739,-265232082890.21683,-397656498016.3819,-0.052346495574475016,-51.74073948092869,-369082548301.83356,-1.1610971516390118,-0.0111595856520319,-0.17305444644245815,MDIVSKQGEFPLVKLSTKLLRIIRFWNDSPGQRIPSFGLLVTAIYPLIWLIPSWLFLVSSQDNITRFMKAANELIVFSLIFCKLCFYAIHFRRWEKLFYDLQRSFSSVLNNPSLEIQTILGHVTKSTHNLTKYYCSTVSFNCAAYGLFPMLFIVVKYAVTGSYDVPLSTPIEANYFIPGLRTNFWVWLPVNITLSAMLELHGFALFFVETFTWNLVYATSCLFRILQIQANELSHQCRNEKEWNGKLKTFIALHDSVLRSAETLEEILSLQMLLLYLSTILALCLGMVVLSLAVNEVYVLLTTMAVFGYCIFQTFSFSYLGTELIEQSEAVADAIFHSKWYTQKLNRQKDMCFLMMRAKRPVKLTAAKLFVVTRDSFTQVIKQAYTIFALMSQVLDDTMG,r
MordredDescriptors,-10420781417.828453,-13762766082.381897,-0.0010955897078446242,-0.00010890921797535036,-19569814527.64354,-32534092561.47819,-0.019322163563449735,-0.03691691356311999,-68813830410.94618,-0.13804696031637054,-0.5357341927986752,-0.2526095217142399,MFSASAEMEWFRQQRHAICHLREGSDYLRYLRPFQLIAGYPINPRPALSKLATVVRLLAYLTYLGTLLHKISYVLYRPEDINYVSFVSGGITVLVAVLLLMLIFTVHYDAFQQLGTFLNDRAFARDHPLATGIRDRWYRWSNGLILGPQCCIVLILLQTWISRQHLKKHTMLVVRGEPVGTEFDHFLYMSCLYFPTVGFFMGCSIVNAMLVGFLGEMELLATCLGELFETVERQVKEEGPTGRPDSRALYWSTLHGELRRCAQRHCAIFTMLPKLQRMASFVFLQHHIFSLGLVVAGSYVTLRGPALRENIVLSEYPISVVLEYFIFCQLVEKLQDMNRSIGDRLYGTEWMLKLQYSRDFQREYRSAALTIRLLIMRSQHRVRFTCGSINPVSMEKFTEFLNLSYSIVMFLLSIN,r
MordredDescriptors,-12841603237.605564,-248.38697566109195,-0.12205720534452458,-0.010575759043845778,-28166637.23556565,-64179849550.56877,-0.09084190901047307,-1.374513037256452,-1237.8817644773073,-0.803666139873362,-1.8195274635920695,-0.05540718743056949,MWHHQVQLWFRFLLGRFTTFTDSSDYFGLYKTLATISAIHYDASCWFDRAIWIVYRSLPILVNISYFYKAYRLILFPEDNTSAASVIASVWGFTEGTLRICLIELRYGTLASIMSFLNERSYRQQDSLVRQQRATLFGENNRIQLILVATMLMEAIWFMTTQLFSRDAFMLQVNGHVVDSIAVQILYGLLSNVWGLIYVLSFAIFYIIMNTLHLEMSILLDGITSVQFTVMRRLKQRMETLAASGHSSTQVFWSILQPELNSHISRHVDLLDNLKEFSSIVGPFSFVQYYGTLALIADCGFILSIEGLSANGMIYLLFVTVLVFQSFILCRGIEKLNDLNEAIGQALYSGFDWPDMLQYDQRFRRQYVTVRHTLMLVIGRSQKGFQCSYGGLGSISMERFAQLMQKSYSLLTILLQFAK,r
MordredDescriptors,-427832946.9899452,-55.70706101187013,-0.033441560053772745,-0.0019507590856728818,-2139164346.7427518,-388.1635312967751,-0.008050482839967898,-3.4476288430083004,-274.56539746575515,-0.3835131138131376,-0.1326791952071944,-0.006086441566892642,MYLTQLFASMRTQFLHRITHYTKHSDFFIMQRYFEKIYAIHYTPHGWHDRILWYLYRALYGLIYLSYIHKTHWVLHHPQDSFSTANILGVMWFFSVVILRVAILEWYYPLMLRMQTFLNNHTSYQRTDPWAVGRRARFYRRTNRVILTVMGINLAETVCFTATNVMKLDEFMLQFRGAIVGGWPVQIVYGVLTMGFGGMYCMGFMMCYLLLSIFKLEVDILIRSLEEVERSDRLESDFGDSADIFWNNIVDQLRPHMQRLDELFIQLQHLKAVIGPIAFVQYYSTYLIIADCCLILVSHGLSSFSIVYFISMLVFLTESFLLCHGVENLRDLKPRIASTVYDFDWMLQMRCPNPRHRAQYRHVRRTLLLLTAQSDQTIQFSFAGIGEISMNSFAQLLEKSYSMLTFLLQFAK,r
MordredDescriptors,-7158961247.190325,-554.32518956425,-0.0022973355020556863,-3.4468902326389994e-05,-15243170761.56126,-20551635474.37459,-0.013437239247053867,-0.477569956856835,-2769.8374624435623,-0.11059287171995824,-0.9886412295150624,-0.2116813195958147,MFHPSRWMAKCRVWYAATFKFSADADYFFLVQPLCRSLQLFGNPVRCLQEFGTVRGLFVQLCRFLFLLPYASFALKSYWQLNHPLDTNNSILTYGSFVIYMLWAILIWVLNHYEHEMCELRLFFKNPTYQEQSDWAHRIRAGNYRRWNWMILMFYLFNVINVSIFTLTNAHNRQFHFQTRGEVVGPLYFQIIVEIFTGYLSLGYFVPSCITLMTLQLFRTEMHILTTTLKQAANEEQQQQQHQHAVDIRCAYRSFCKQFYANIRRHTELLQSIATFCKVFSPISVVLYYGALITITCTCFYVMKHDVSTTTVCYAGFAVYMLFNTLLFCKSIDSVNDLHTEVGYIMYSEYWPATLQYADQGLSTETLRPLRRSILIVLQQTLRPLRFGYGVSGSLSMQRFGEFMQQIYSLIMFLAQLN,r
MordredDescriptors,-18093792504.377834,-146178761311.76108,-0.005455594502885575,-0.01058695750416172,-4364511690.477175,-86104450831.39502,-0.0009295143620897672,-7.563579417032679,-730893806550.9586,-0.037991845725558804,-0.23527777633546298,-0.009974743157910915,MVKFFRCCKARVSPELLSKKNEKPEAFLPSLRMILFIFRMFYAWPDEQSLAPNALWWYRAKGVLFRTFFIYLSAAAQLAYNFTVTSREELFAGMFVLLTQLVLILKMEFFYKNVSKIQQLIRRLNGKRYQQSGNAEEDMPLVSARKKSTIFWTLYFMFSVGLATEWLVISLSLTTLIVPVWPVVDHTTPYWVYLMVIFHQYVAIALNASFNISWDSLVAALFALTNAHLHRLQIQLMKLGHRKHLHPPKDAKRRMIAVSSFDDNARSVPTKSDADEVYNELLQCIIFHQEVTGFLREVLDLFSGPLLAQLYCSVFILCITEFRLLTDVNTMADTVQAVIYLLCLVIQVAQYCYFGNEINYMAQKVHRATAFVNYPDMNIKCRKLLIAFQQITAVGIKCSAKYVFTIQLSMETFVTILKTSYSYLAVLRSMTD,r
MordredDescriptors,-182359650725.7786,-19904453634.631817,-0.008867343264275851,-0.050825894533759186,-217771253782.9566,-694026999845.6908,-0.18587818861147776,-0.035033808472014316,-99522268171.01218,-0.5702637354306912,-0.7070201048989926,-0.8345892758841302,MEASEKFSQFERYIRTLCNIIGFDVMTETWKKSYRTYMSIFLCSQYLILMVYSLIIASDTFELFKSLSFLGFFFQCSLKMYYTIQQAPQYAVNFCCLKEAIYERHSKGTLAQKTTVARIIDLLVLVTKAISVLYTSSLFIFSLYPAYMYFVVHVKVPIFPLYIPGINIYSAYGYGITNSFHMLIAVYGLFGALTSDIVFIMFVVHFVTYGGLFKIECEQFDQDLSGVFQHCEWRTAVYKTFCRQRMRAIYQYHQSVIFYLESMQECYRNICVVQVASCSLSTVFNLFLALTTDWYATYGFIVISVFQLFVYCLMGTVMQIMNERMIDYISNLPWYMLPTEEQKQFKFMLARSQLSAEIMIRSVGPMNMETFTDIMQKMYSAFAMMYSFLVDLG,r
MordredDescriptors,-163354947879.47327,-12308009875.62154,-0.028907316883066247,-0.07680211552895289,-323890696953.6343,-492884042443.54095,-0.08535518386846164,-0.07869653626126594,-61540049375.74648,-0.3457427041663823,-0.44263682611414246,-1.494138167596196,AgOr67,r
MordredDescriptors,-332263953498.07227,-183512858220.32745,-0.023153161050919913,-0.02462526919600516,-597153985011.6321,-1064165782478.681,-0.000603622092295808,-0.553804381865844,-917564291100.6385,-0.39676719174370345,-0.007569402130360281,-0.04063595441222523,MANVEEFRKLMKSLIVCSKVAGVEMWTAPGKLKPASYYVSFHITVYFVSTVWTLRKYIDDPIHMMKVLITMGTAVQLYIKFFVAHSKAQEVKLFTVELEQEVLKRYQNGSEEETAVLRRTGRILWIVHRLMSASYIFVAVAFGLYPAFYYFATGKVMPLFLYELPFFNVSSSLGYAVTMGFQINLLAIGVLGAILSDFMFFMYAMYAMARADISIVHLSELENILNDSTKNEEHSANVRHKWIQCMHDHQQSTSFFSTVENIFGLMCLAQVSTATLSICDAMLLVLLTDWYPTYSYLYVVFVQLSGFFVIGHLVELKIDALYNKIISMPWYRLPVKEQKEFRFLLSRQQCPMILTAYGFHPMNFEAYMSVLKGLYQFFVMILQYIGRN,r
MordredDescriptors,-151.7123739208301,-16.549474862966683,-0.00025359953798553825,-0.0109945184549598,-713.1031941911516,-45.382186967354905,-0.06524032765107468,-6.410148751268761,-76.31264095787995,-0.02155353414234673,-0.0014832070198320668,-0.0015478645225373011,MTVVHRIVSFGYNLLQRHFNVGHPTEQFFLLRCLDVVSPAMLLQRPRSNLEVALKTLCLSVMVAHTIALAYDFSQQTDVRLAMDMLCMLSLFVSIILRGTCMRQYLAHINALDRLERRPTFRIGTPYADESRRNVALQNSRYLGVALVFHSLTVTVYVIQNMVRENSFVKIITSFPIDLSERAPVLERVADLCYSLVGYVWGWYHGATQLTIIVLLRYAITEFRVFLHSLDSLDDQLQQRREQSQGAPDEERILRELLYEHARHHSQLIVVVTHLRTLLRNYSLVHFSFYMIIVATFMTRVLIIPGRSSFGLAIPLLVTTIYFLETFGMCMLVEMLVQLNRKVSTSLYGFSWPQYLRYGRTIKRPMMLMIMQANMTKDFSAGGLTTVSAELFAKTCRMIYTMMMFMANMAT,r
MordredDescriptors,-92576257779.8537,-44632822833.2824,-0.10728920989520141,-0.00021152409191516064,-145190159500.21164,-317691129398.93146,-0.017898477472650942,-4.329237677724808,-223164114161.58557,-0.37010261442206827,-0.09836072975310595,-0.02875100136943254,MTVVHRIVSFGYNLLQRHFNVGHPTEQFFLLRCLDVVSPAMLLQRPRSNLEVALKTLCLSVMVAHTIALAYDFSQQMDVRLALDMLCMLSLFVSIILRSTCMRQYLSHIDALDRLERRPTFRVGTPYADESRRNVALQNSRYLGVALVMHSLTVTMYVIQNMVRENSFVKIITSFPIDLSERAPVLERVADLCYSLVGYVWGWYHGATQLTIIVLLRYAITEFRVFLHSLDSLDDQLRQRREQAQGAPDEERILRELLYEHARHHSQLIVVVTHLRTLLRNYSLVHFFFYMIIVATFMTRVLIIPGRSSFGLAIPLLTTTIYFFETFGMCMLVEMLVQLNRKVSTSLYGFSWPQYLRYGRTIKRPMMLMIMQANMTKDFSAGGLTTVSAELFAKTCRMIYTMMMFMANMAT,r
Pharmacophore2D,0.10340570535549003,-3.979436149043539,0.20869121090259257,0.010560613443097444,-0.001963013209936415,0.09676925044689066,0.20297046519480588,-11.862760105017589,-7.810113643826332,-0.038383399757525805,-0.18577355715769106,-0.00015003945856095768,MKLNKLNPRWDAYDRRDSFWLQLLCLKYLGLWPPEDTDQATRNRYIAYGWALRIMFLHLYALTQALYFKDVKDINDIANALFVLMTQVTLIYKLEKFNYNIARIQACLRKLNCTLYHPKQREEFSPVLQSMSGVFWLMIFLMFVAIFTIIMWVMSPAFDNERRLPVPAWFPVDYHHSDIVYGVLFLYQTIGIVMSATYNFSTDTMFSGLMLHINGQIVRLGSMVKKLGHDVPPERQLVATDAEWKEMRKRIDHHSKVYGTMYAKVTECVLFHKDILSFGDEVQDIFQGSIFAQVCASVIIICMTLLQATGDDVTMADLLGCGFYLLVMTSQVFIFCYVGNEISYTTDKFTEFVGFSNYFKFDKRTSQAMIFFLQMTLKDVHIKVGSVLKVTLNLHTFLQIMKLSYSYLAVLQSMESE,r
Pharmacophore2D,0.04843764711453187,-6.363609919552228,0.13474012267558189,-0.001967846705091203,0.07630564066532419,-0.018749848590371432,0.051860167527215895,-19.343815519636518,-6.6920874653892515,-5.506630594195719,-0.26371099500336004,-0.011805023536291204,MLIEECPIIGVNVRVWLFWSYLRRPRLSRFLVGCIPVAVLNVFQFLKLYSSWGDMSELIINGYFTVLYFNLVLRTSFLVINRRKFETFFEGVAAEYALLEKNDDIRPVLERYTRRGRMLSISNLWLGAFISACFVTYPLFVPGRGLPYGVTIPGVDVLATPTYQVVFVLQVYLTFPACCMYIPFTSFYATCTLFALVQIAALKQRLGRLGRHSGTMASTGHSAGTLFAELKECLKYHKQIIQYVHDLNSLVTHLCLLEFLSFGMMLCALLFLLSISNQLAQMIMIGSYIFMILSQMFAFYWHANEVLEQSLGIGDAIYNGAWPDFEEPIRKRLILIIARAQRPMVIKVGNVYPMTLEMFQKLLNVSYSYFTLLRRVYN,r
Pharmacophore2D,0.1078500162047881,-0.6074176851425781,0.04927466939626568,0.11287106718847073,0.23915858525925804,0.1251521670432051,0.012793592136740917,-1.9441179468508403,0.12667547264563928,-0.1792732025279562,-0.42425531721748233,-0.6161174317622511,MVLPKLKDETAVMPFLLRIQTIAGLWGDRSQRYRFYLIFSYFCAMVVLPKVLFGYPDLEIAVRGTAELMFESNAFFGMLMFSFQRDNYERLVHQLQDLAALVLQDLPAELGEYLISVNRRVDRFSKIYCCCHFSMATFFWFMPVWTTYSAYFAVRNSTEPVEHVLHLEEELYFLHIRTSMAHYTFYVAIMWPTIYTLGFTGGTKLLTIFSNVKYCSAMLKLVALRIHCLAEVRQDRAEKELNEIISMHQRVLDCVFLLETTFRWVFFVQFIQCTMIWCSLILYIAVTGFSSTVANVCVQIILVTVETYGYCYFGTDLTTESYSVALAIYDSEWYKFSISMRRKLRLLLQRSQKPLGVTAGKFRFVNVAQFGKMLKMSYSFYVVLKEQF,r
Pharmacophore2D,0.4745333628922019,-1.2674375406531386,0.6270711157811419,0.2312609271827235,0.6033338245675476,0.49227225425747956,0.418728692672117,-3.2948290198429895,0.47056912718094634,-0.03779663567359792,0.11603966055638715,-3.591170835486439,MKFELFQKYSSPDTVLSFVLRLLHIVGMNGAGFWSRIRVGGIFLFYLIFLVIPPLTGGYTDGHQRVRASVEFLFNCNIYGGSMFFAYDVATFQAFIQELKSLSILVCSHSYRLKYKLTRFNRRADIISKVQTTCMGAVTLFYWIAPIPSICAHYYRSTNSTEPVRFVQHLEVKFYRLENRTSVEDYITFVLIMLPVVVMCGYVCNLKVMTICCSIGHCTLYTRLTMEMVEQLESMASAERTASAIRNVVQMHTGLLKCIRLLNTSIRSMLMLQWLTCVLNWSISLIYLTNVGISLQSVTVVVMFFLATAETFLYCLLGTQLATQQQLLEHALYATRWYNYPIAFRSSIRMMLRQSQRHAHITVGKFFRVNLEEFSRIVNLSYSAYVVLKDVIKMDVQ,r
Pharmacophore2D,-0.167099121426966,-0.3681805378501053,-0.010762126826709073,-0.0029777935503954023,-0.00011333595339091396,-0.8114618338973403,-0.010180516906994397,-0.5554100281664467,-0.43597436958051916,-0.21182946943349634,-0.10519129478633027,-0.532497527283734,MVLPKLSEPYAVMPLLLRLQRFVGLWGERRYRYKFRLAFLSFCLLVVIPKVAFGYPDLETMVRGTAELIFEWNVLFGMLLFSLKLDDYDDLVYRYKDISKIAFRKDVPSQMGDYLVRINHRIDRFSKIYCCSHLCLAIFYWVAPSSSTYLAYLGARNRSVPVEHVLHLEEELYWFHTRVSLVDYSIFTAIMLPTIFMLAYFGGLKLLTIFSNVKYCSAMLRLVAMRIQFMDRLDEREAEKELIEIIVMHQKALKCVELLEIIFRWVFLGQFIQCVMIWCSLVLYVAVTGLSTKAANVGVLFILLTVETYGFCYFGSDLTSESLSVARAAYGSLWYRRSVSIQRKLRMVLQRAQKPVGISAGKFCFVDIEQFGNMAKTSYSFYIVLKDQF,r
Pharmacophore2D,-0.04157525327609583,-9.627729512195538,0.8775444969938221,-0.9880051654746138,-1.0168937455143245,0.7427565415461563,0.17672160606848086,-31.716480351173836,-17.076685992765515,-0.3552222201511379,0.5997461840854255,0.40999481902737633,MVRLSFEETLRNTNLMLLMMGIPPCEEPYPPGVLPSLKRNAGFIASFLLLAYTTIGELIYLKQMFERDVTFLEVTFQAPCIGYCTIGVLKMVILARGRNTIAELVGLFRAKWTSAIVTGAHWAVCEDTMRPAIRVTSVTALANVVMGIAFTILPIAEMIYTHHYTGRWNRQLAFNIWWPFDVLGGVKYYWFVYPLYVVIGFTGIIIHMAFDCLFCILAAHLCMQFRILAHNFGHVVEVANGAREGDSGSTSRLRDAIRIHQELIGCSVFMQNVFGNALFINFLGSSIIICIQAFMITTVSGYMLVKFVLFMLCFLIELLMLCAYGEDIVESSLGVIDAAYGCEWYREGSVAFHRSVLQIIHRSQQSVILTAWKIWPIQMSTFSQILQASWSYFTLLKTVYGNK,r
Pharmacophore2D,0.11213095779903767,-2.0810268374515544,-0.05483928339470845,0.27950628041708103,0.05413895371634503,0.060113715924026034,0.22173512233244475,-1.90185987558907,0.12993744331992862,-0.07305956470133701,-1.9645382497832045,-6.59561394050409,MDPPTDELVRFESFIRVPEIFFAMIGVARYGEPKRTLRAYLKHLLFWSSCINTGYCLVIEHIYFVKAAGNFTNFLQLTALAPCMGFTALSFVKIMTIKLNETKLTDMLHRLDALFPSTVALQQRYGVYQYNRESQVVMKSFSILYMILIWMFNLLPLVSMVVGYVSDGTWHKQLPYFMWYWYDWHRPGYFEVTFLHQNWGGFVSAVFYLSTDLMFCAIVLLLCLQFDIVAYRLSHALPDDHQELVGCVRIHQAVIELCNELEHMFSPSLLVNFLSSSVIICLVGFQATAGITPADLFKFVLFLVSSLVQVFLLCYYGNKLIVASSQIPYSAFEGNWIGASGSYQRSLLFVMLRSTTVQKLTALKFSIVSLASYSKILSTSFSYFTLLKAMYEPNEKKMK,r
Pharmacophore2D,0.1142300348052658,-20.291890941021688,0.20725312433645648,0.0706062058971223,0.04408186675470205,0.17380033154510555,0.07540864549294268,-92.91047300013426,-1.59688567175731,-6.610739994479994,-0.32661464481644087,-0.014741393920433499,MVRLFFSKTRVTKLFTRKDERPEMFLPSLRMILFIFRMFYAWPDEHLEKSALWWYRAKGVLFRVFFIYLSAATQLAYNFTVTSREELFAGMFVLLTQLVMILKMEFFYKNVFKIQQLIRRLNGKLYQSRNAEEDIPLASARKKSTIFWVLYFMFSDGLVTEWLVISLLLTTLIVPVWPRVDHTTPYWVVLMVILYQYMAIVLNASFNISWDSLVAALLALTNAHLHRLQIQLLKVGHQNRNLQVDANKRMITVSPIDDDARSVPPKSDADVVYNELLQCIIFHQEVTGFLREVLTLFSGPMLSQLYCSVFILCITEFRLLTDVNTMADTMQAVMYLVCLVIQVVQYCYFGNEINYMAQKVHQATAFVNYPDMNIKTRKLLIAFQQITARGIKCSAKYIFTIELSMQTFVTIIKTSYSYLAVLRSMTD,r
Pharmacophore2D,-0.22199017404643673,-10.890795509947885,0.1302532011576194,-0.003481456541970962,0.13167871193898273,0.027439367316797747,-1.3958406941036126,-34.576632941771315,-9.087775816366861,-10.280546571203665,-0.4324899939671596,-0.07653222643042512,MEVLNCPLLSVNVRVWRFWSFVLVHNWRRYISIIPVTALNVFMFADLYRAWGNIEEVIINAYFAVLYFNAVLRTLILVYNRDKYESFLAGAASVYEEIRAINDDVITKLVSTYTKRARFLSISNLALGAFISGCFVVYPLFTGQRGLPYGMFIPGVNNFDSPQYEIFYITQLVLTFPGCCMYIPYTSFFASSTLFGLVQIKTLQHQLKTFRSSEMLNESTVVLNRKLQKLIEDHKRIIRYVQDLNDLVTYICLIEFLSFGLMLCALLFLLNIISVMAQIVIVGAYIFMILTQIFAFYWHSNEVREESMAIAQASYSGPWLNVDDTIKKKLLMMTIRAQRPLEITVGNVYPMTLEMFQSLLNASYSYFTLLRRVYN,r
Pharmacophore2D,0.19092336352431688,-8.458935900541489,0.24892690268796747,0.17960121052452016,0.1141036848300857,0.2739746629372296,0.13801035664178152,-40.099528900837974,-1.8924366218887605,-0.37472984191993497,0.12625662645299007,-0.054240764513764805,MELKEEWILPDVVYANPLLKRTLLGLRYYGILLGQSQSYKKVHCFRGMVFTLSMVLFNCTQYIDLWQVWGSVSDMTANAATTLLFSTTIFRIIFFYFHRARFNSIIKAAHDGIERILKDGWTDEQSIVGSNVRYLKRLAVVFWSCALVTANMMCVYSLVQYLTYEEGPPDGTGTSAANITRKGQPIPPTPILRSWYPTADGKDKHFLEIYLIQLYIMYVGQLIVPSWHMFMVTLMIYGRTECSVLNHRLCFLERYHTAGKDDPTAPVNNAERRSLMIDCIKRQASLVSFTRELEQLTRAAVFLDFVVFSVLLCALLFEASMTPSGVQVFIDVCYITTMTTILFLYYWHANEIHACADRLSMSAYKSDWYRYDRGTNRMLQIFILYSNRPLKMHAFFISMSLDTFLAILRASYSYFTILKQLTD,r
Pharmacophore2D,0.14475392182285166,-6.815457193010443,0.263891913562713,0.14562349636909477,0.2032734555281911,-0.1850066616632733,0.29598740531753265,-31.14629518368602,-2.4117351297545997,-0.2891955322858557,-0.1602482938288199,-0.06981182549691978,AgOr12,r
Pharmacophore2D,0.16786619086546958,-20.125080158295695,0.4230844407720724,0.06908673679019972,0.1464319678645536,0.16701774842685746,0.03371006047366476,-94.27084559031535,-5.180198078684656,-0.8455584124967441,-0.28933212698235145,-0.03946658299937855,MNFLRQEQPAGMPHISIKLLQLFGVTGSPEERFRILPVMLTYFFFIVVPKCFFGYPDLEITIIGTAELIFQSNTFCGMFWLFLNRHKLAQFITQVRTFSLTVFRESPPAVVQHLTTQHDFIHKITRIYCIVVMFAAHFYVLTPLLSTFYAFYGTVRNDNVTVHYTLQMEENFYGLQTRTTTSHYLIFGMFMTPTIYLCAFTGTVKILSICNITMYCTLYFQLVQLKLRTATEDNTFNRQEVKSIVVMHQDALNCASLVESITSLVLLQQLVLCVMIWSSMLLYFTVSGFDLNFINLLVLFAFDTTETIAYCYFGEQLSNESARVAHTVYESGWETQTPDIQKDLQLIIARAQRPVGITAGKFCYMNMEQLGIIVKTTYSIYIILRDQF,r
Pharmacophore2D,0.29618946881695124,-9.054624621219066,0.5871175894878773,0.13556622190804768,0.1031937947202427,0.4067192215618619,0.24835051640672656,-31.796862951337282,-13.464568084332912,-0.48370094435793276,0.12692169977031043,0.34508717416248624,MNFLRQEQPAGMPHISIKLLRVFGVTNHSEERFRIVPVMLAYFFFIVVPKCFFGYPDLEIMIIGTAELIFQTNSFCGMFLLFLNRRKLAEFIQHARSFSQTVICASPPAVVRHLTTQHDMIHKITRIFCIVVMFAAHFYALAPFLSTLYTFYGTVRNKNATMHYTLQMEENFYGLQTRTSGTHYLIFGVVMTPTAYLCAFTGTVKTLTICNITTYCTLYFQLVQLKLRTVTQDNTFRQELKSVIKMHQDALNCASLVESITSLALLQQLLLCVLIWSSMLLYFTVSGFNVNFMNLFVLFVFDTTETFAYCYLGEKLSYESARVAHTIYESGWETQTTDIQKDLQLILVRAQSPVGITAGKFYYMNMEQFGIIVKTTYSFFVILRDQI,r
Pharmacophore2D,0.20318826803046983,-8.401021598664961,0.5715327232254245,-0.009288837274890493,0.20795239987015934,0.2156120278982161,0.030133026433439625,-41.123608240575216,-0.044967855774102894,0.18709596992581012,0.06636835275342046,-1.089996219654724,MRFFLIEKPPGVPHIALKLLRLVGVSQTQSERYRYVPMFVLFLLTIAIPKIAFGYPNFETSIIGLAELFFQTNRFVGVLLLVLYSDSIFELVRQSEFFAKKVLSETSPVAEYLTKMDTQVTKITKLYLTALLVPANFYSYSPIVATLWKYYNTYENDTVPEFTLHMEESFYRLNVREKLDHYLIFGAIMVPISFLCALVGTAKLVSILSLIKYCTIYFQLVKVKLEEVGRSQNYASDIRSAIQMHQSALSCADVLHDITAPIMLLQLVLCIMVWSSMLLYFTVAGFNTQFISLFILFMFDTTETFGYCYLGNQLSDESARVASVVYDCRWEGMPPALRKDLQLIMLRAQRSVGITAGKFCFMNMEQFGEVVKTTYSFFVVLRDQF,r
Pharmacophore2D,0.11788040033009459,-5.187448024531085,0.36299930775246847,-0.3734711560555817,0.17602523243361956,0.2107768546008537,0.2130717629191129,-19.011094446689984,-5.931817726212696,-0.8222885555574635,-0.0706436879593777,-0.10139570623589678,MTSFKPTDDTDVMPLVLRLLRVIGVWDVPQYRYRYAAVFLSYCFGILIPKLCFGYPTLEASIRGYTELILETNVFAGMLQLYLCYNHFVPLVDELRAFAAIVFQDNQPMLLRTNLTDLNLRIHKYTLCYCLYMCCVCTVYCVAPLGSNIAGYTAAMADTASNSSTTFAFTLYLEQGFYWLDNRTSLLGYCVCTVFMLPLMYLCAYTATVKVVAVFNMIKYCQTVLRIVVLKLRLLKTLPDVRQRSDGMSEVWVLHQRALRCAELLELVLQPLLLMQFVLCILIWCMMLLYFTVSGLNVKFINMFLLFLFVSIETFGYCYLGTQLSQESINVGQALYASGWYEYDVQMRKHISFMIMRSQRRVGLTAAKFCFVDMEQFGAMLNMSYSFFVVLKDAF,r
Pharmacophore2D,0.35496355100364596,-7.186184487121714,0.3817980863458377,0.3592471896207773,0.3167084128015696,0.3770752584818241,0.33998880776822105,-25.894118441798426,-7.08854003976284,-0.06428896230020564,-2.3636525887418753,-0.5203224030052263,MLRLSPEDPKAVMPVVKRLLKLSGLTQETTRFGAINFLNLFIYIAAVLVPKVCFPYPNTEAMIRGLSELIFFTNVYVGFFCFISQHRQRDLLNAIDSFVDVVYPTAAHPSDSPSEQILIKFNVKIQKLSVVFCWYIAVTATFYWLAPCLMTYRSIYMASVSVENGSVQSIQYYPNLEESFYWLDNRSSVYGYATFSIVALLVFTVASYNNATKLLTILTTIKYCNTLLQLVIIEVDNLNHATSNAIDRELKQVIQLHQRAVRCVALLNQTLSFVMTVQLALCILTWCFTLLYILTVGLDVTGMNGLLIMFNMTLEMFGYCFFCTELATTGTLIACQSYEFRWEEHDPKIQKMISTIVARSQLPLRITACGFITVNVELFAKVVKTTYSVFIVLKDFI,r
Pharmacophore2D,0.15919782923279766,-2.5662314953745997,0.13828702094216716,0.1736616975046864,0.25474078958385116,0.12461487537181148,0.1046847627614721,-11.793202636657965,-0.13683199417295056,-0.16085359042516778,-0.4401856923438059,-0.3000835632731089,MLRLSPEDPKAVMPFAKRLLRLSGFRQETEQLEKQIFFNLFVYVAALLIPKVCSPYPDSEAIIRGLSELIFFTNVYVGYYCFVVQHRHYRDLLDEIQSFVNVVYPTSQQPESPSERTLIKLNVKINKISVLYCWYLAAAGLIYWSTPCLMTYHSVLKAKAEYGPNHPIRFYPNLEGSFYGLDNRTSVYGYAAFSIVALLVFAFASYNNATKLLTILSTIKYCSTLLQLVGVEVDNLNHTSSEAIGRELKKVIQLHQLALRCVALLNQTLSFVMALQLALCILTWCFTLLYILIVGFNAIATNGLLIMINMTLEMFGYCFFCTELDTTGKIVSRQMYEFRWEQHRPTVQKMVAMIIARSQTPLQITACGFIPINLELFTKVVKHSYTVLAVLKDLI,r
Pharmacophore2D,0.027764256442643086,-0.21268018024576332,0.05883896622392726,0.09371208925108154,-0.07453115699343016,0.03271396965285389,0.028087414078782902,-0.10835129059965154,-0.0231608005116426,-0.07815623115852177,-0.9430493951615309,0.08931681620253029,MKIWEKYLERKRTLYHAKYQTPHQLFDAACDIVIKCFAVCGGERMKPGYTRRNARLIFLVTDLILYLFVNLYSIAIVWGSLMDVVFCFVTLGIAIQGLAKIEAFTCPELNDLHLYNVARFKAPPRFPEVDEALFHTATMCMVFIRIFAVAFSIVAIAIYSYAILMPLIEHELSLAFGFYLPFVDYRTPVGFAINWVYQFVQVLEGCIGLMACDSCLLVLIMNATGQMDVIIVYLKQLTLLIDNNHTGQHDEEIADIIKEIVLKHLEHTKYMTDMDKLLKKQFFINFGCMIFELVASLAIVVRVPWYPGMAICLICTNQLFINCALGTFLSSKNEKLVEEIYNVNWYGLTTKHQKTLQQILLTSQHPVVLSDGFSPIDLFNFVEIYKKIYSYLMVLQKVS,r
Pharmacophore2D,0.28342577331005686,-0.1840144640916089,0.2133523089343644,0.15402528422570982,0.2774593742158463,0.35885174377996065,0.41344015539440315,-0.2093196349995572,0.19239338303903442,0.10999439511620934,-0.7054811431511288,-0.30765932046260236,MEQEINQIISFLRRPLKWLGFDVIDPNWKVTPLTMFTIVMFALQHYTSYLYLSTHLDMFDMFTECFSTSAVALEIAIRMGLLVHQRELRNETIEIIRQQHKTFGNSAAIRKVTARFHKLISVTLHALAACYMSTMMFELIPIVSPNPRKSNLPLPMYLPYMPHDVTPYWHLNYTFITVMNLMCILFLVGIDGLLVLSILAAVHQIKLLKITIQELDIGAEQAELHRELVRIIQIHQRIQQFIHQLEQTYYIDLLVDFGLVCLILCMGLNVIADEVINAIWFFLIAVVFQLSLLCFSGNLLLIESDSLSSCVYSIDWHAMPVPEQKLLMVMIAHAQKPQVLRGIFMPLIMSSFLSVIKASYSYFTLLH,r
Pharmacophore2D,0.1829251668195264,-1.954944333356862,0.1317758685514535,0.2681195638822368,0.11491447444555114,0.26918172665166074,0.1306342005667298,-7.361012519639308,0.47752199873340984,-0.16528293359387014,-2.5139221644782426,-0.2120260478062983,MDSNSKKDTFPLIQISTKMLQIIRLWNESSGQRMSTFGVLLIAVFPIMWLIPSWLFIVSSQDNIKRLMKAINEQIVFCIVFLKFSFYAIHFRRWEQLFYDLQRSFSTVVNNPSLEIQTILGHVTKSTHKLTKYYCSIVSFNCAAYGLFPMLFIVVKYAVTGSYDVPLSTPIEGNYFIPGFRTNFWVWLPFNLAQNVVLQCHSFAVITIECFTWNLVYATSCMFRILQIQATELLDRSRDKKEWNIKFKTFIALHDSVLRSARTLEAILSGQILLLYVSTILAVCLGMVVLTLAIEDVYLLLTTFVAFGYCMFQMFSFSYLGTELIEQSEAVADGIFNSKWYEEDVKVQKDLSFVLMRAKKPVRLTAAKLFVVTRDSFTQVMKQAYTIFALMSQFLDDIAN,r
Pharmacophore2D,0.045289489758531996,-2.1505857441436693,0.027023317036161343,0.02617404480383778,0.03871556511579011,0.0781835979870491,0.056350923849821655,-8.700540041965638,0.16636867402044353,-0.14658969842585634,-1.7865061529770938,-0.28566150137020174,MKPSCKEGVFPLINLSIKLLKIVGFWSKTTGQRISVIGLLAVILYLLAWLIPNWLFIVSSQDNITRLIKATNEQILYFIAFFKLYFYVIHYRRWEKLFYDLQIAFSSVMTNPSPEIQGILGHVTKSTHNLTKYYSYVVNFNCAWYGVFRMLFIVVKYAVTGSYDVPLSTPIEAKYFIPGLHTNFWVWLPVTLGLNVLLEWHSLALVFVETFIWNLVYATSCMFRILQILANELSDRKRNEGIWTVEFEKFSTLHDSVLRSAGTLEEILSGHMLLLYVSTIFSLCLSMVVLSLPIDDFILLLTTFVAFGYCIFQTFSFSYLGTELIEQSEAVADAIFHSKWYTQKLNRQKDMCFLMMRANKPVKLTAAKLFVVTRDSFTQVIKQAYTIFTLMSQFLDNPVN,r
Pharmacophore2D,0.33772414056081324,-9.670252864615216,0.4997975017334023,0.46500703596840554,0.17882353896730607,0.16120025737334942,0.38379236876160305,-47.79800251381813,0.0053566900284978125,-0.010754974099533632,0.26015371778924246,-0.8080172429761594,MKFFQIDDTREILPIGCRLLMLCGLPRSGRVNRRFWLLCVFFFVFGQIPRFLIKIDEPIALVRVGAEIVYSTYMFLQLIALYARRSDLYRLIDTLQKCVENPYPDDVRAFILITRDTINKSSVMYSKCFFAVCISYIIMPFMATSAVVVRNRRNQTGEREDFYYLDIRFNLLHYSLYFGAVSGLSVIGSLALCTKDVMDFSLIRTASMLFQATAQQIRNLPPGASQAKLEAIIHSHRSTLKCAAQLQNALNPALLIQITFCTAIWCLMLFYILLLGFTSKVMNVCLLLLVLTCETYSYCQLGTQFTSNAEEVLDELQQLARYDQSIPIQKQIYFMIHRSQTRIELTAGKLFPVNIAQFSEIVKKSYSYYLVLKDIF,r
Pharmacophore2D,0.33036057493665333,-3.373035211070666,0.29379016448309836,0.39881532240850726,0.2908344881908631,0.2536518890328606,0.41471101056793735,-14.298222969715315,-0.3443433188931042,-0.11026860326160093,0.3491997265787006,-2.461540890062012,MLAAETVDFFRVQSICLRAIGIARTDSFRGRVLFAVSFFTVLVMMLGTVMFAFKHIDQIMLLCDCLGPTFTAYLGLVRQYNLLLHRSELWSIVDEFAALKHSLQSSEIRIVQKYNRIDRFLAWAYLITAMSTGVLFVGVALVLVFLSEKSDWKLPLLMDFPFDVKHPVTFTIFFVWCSVAIFWVVLDCVACDSTFGTFSSCLVAHFVIIQERFEGLRFDDGNRELKKLIEHHKYILRISDRVINAYKNVILNQLLISSVLLCMLGFQLVISVGTNIMVVYVAYGMAITIQVTYYCYYGSQLYYESTQVHDAVFKSKWYDASVATQKMLINCMMRAKKPVNAKSGFTQASLPTLNAILNSAGSYVALLMSLME,r
Pharmacophore2D,0.17949524279430779,-0.03571980775195978,-0.09326435875217798,0.3319434974994706,0.19200835568432884,0.1592257344444058,0.3075629850955117,-0.6249008552767399,0.09341885020524554,0.07856261793129315,0.16977806078089908,0.10454228759950324,MSQLNEFPAYQFRLIRFCGVVEQPSLRNNVRCLFAFILLCSFGPLHVWYLAKTPVLDLVVTCEEIMLIQLCFVMLLKFNLFITYRSGMYNLVEAFKRILKCIDKAEFARFVKCSELHAKLLRAYVIGTSIVLLLYELNAIVASITLSLQQNKVCFVTPFSFPFDYQHPIVFALTFLHNFDAMLVTVCTSVTVDSCFSEMASNLTIHFDIVRERFEKLDLSAAQPYAEHQLRNVITYHREVLSLAQKMVQLYQQSAFYLLLLVSTILCLLGYEFVMVSNIYKRMQVAILASIMIGQAAIYTYHGSAISAKSVSVADAIYGTNWYDAPLAVKKLVYICLMRAQKPVIMKSGFIEASLPTLKKILSSSASYITMLMSLEADLNEKKT,r
Pharmacophore2D,0.353027091594194,-0.3109779064164531,0.420391933076378,0.27007615844915145,0.39127276971912195,0.25786175561024804,0.4255328411160705,-0.9758638058685678,0.4227474826979133,-0.36903668213892904,-0.6840391272902349,0.051302600517552754,MMGLSRTIPSWPVLHNISFARASQVRRANMEYIYRWILRDDTFAKEVYIKYNFTKLRTLGIYKDASRTRLARRAGFYALELFFLLQLGTIVWDLATVLGNIGLFGDDMCILAGLLLTLAKKWHCVLYIDELWECVEQMQTYHEHYLLQGEWFVRRMRRQNLQERMLQDASKLLATLLASCLMVNALFSNGETLILRAIYPFSTATTLGYGCVFVCQAFLIVYVLYSMVLIDCIGAQALSQMALLFCMQRKQFELIGADLQLPPEGPLHGDRSIRDQVYSAIASHQQLLSFCNRLKRLYEPNIMAQFVCSMLIICLTAFELMFAKGDPMQMVRFGAYMLAGFYQVFVWSFFGNRVTNMSTGISDATISCNWIVLADGLKKDLRFTTMRSQKPFVIDVYWLFPLTYETFIAILSRSYSIFTLLRTMIE,r
Pharmacophore2D,-0.37586700076542384,-0.4043222855076822,-0.23801613106023334,-0.12963797789618692,-0.3007397871237607,-1.2584239427315072,0.047482834984568734,-0.17975544435997537,-0.00027778399278788335,-0.18304487807538328,-0.1451065986308404,-1.5134267224794242,MSCVEDFLDAQMWYLRYCGVFREKSALGGIRLSVCLGVLVVFMVLQSIYIFQHVHHFAMICDAIPTLVVCMVAISKFYIFVFHPAALFALIDSFKALQRRASREDLLLFRRSGAFHAKLTKIYMTSALIVGWFYILSAIVSGISRSLAEGRVHFVAPMAFPHNYQHPLMFALTFLFNCDSIHMSIFISGSVDTCFSELATSVTIHFQLIQRQFQAVDFAARTAEDELEVVVAYHKDVLQLCLAMTNLFQYTVFYLLLLDSVLLCVIGYQFVIFMNTPRVLMLASMAFVMVLQAVIYCYHGSMMYDESLKVADAIYQSNWYEAPPAVQKRLRLCIMRAQKPIVTKGGFIKATLPTLKKILNSTGSYITMLLSLETEQ,r
Pharmacophore2D,0.2115949649662392,-66.40746978112107,0.45159432633939534,0.1862436507039983,0.07125362235447597,0.08899971401627138,0.2598835114170551,-332.1655067089269,0.20240837422062874,0.05090087903398399,-0.19605505951409752,0.07090360958110808,MIITVAPVTDARPQTPEDCGMFKFQRKILLIFGCWPPDRLTRRWYVKVLIAVNLITLAICIVGEFRYCLYAYRNGSLIETIESICPTVARFSGLLRMCWFLRNEHKIKSALNSVVHLIKNEHPRETGYTNRITARDQTITKVLFHSSFITAILYGIIPYFMMAYNWFQGQYPLVKLLPFKVVLPFDSQDPTLFVLTTIFLNYASVPTITAMTSTDALFSGVCLYMDGQFQAIRLELEALAETVDKYTLKSSAAETLRINLELRRINKRHQTIIDVVSEVRHAFTPTILIVHICAAFMICVISMAMFLAEGINKLTYMPYTFTVLMLLFMYSYGGTVVRESSEAIQTVAYGFPWYQFDRNTRHLVQMMMVRAKYGCNVDVPFFQTSMATFSVIVRSAMSYITLMKSFL,r
Pharmacophore2D,0.28700779436081625,-1.223535702310618,0.4073128500676729,0.4405761399829271,0.28490534583709193,0.2768909744953293,0.025353661421060103,-5.239686791046057,0.3982444422541337,0.15436773250647295,0.006484459917316054,-1.437088355184955,MVSFGAAASNPRDAETTPHWDIFKLQRKILLIFGVWPADRLVRPWYVKVLIAINLATLAICMVGEFLHGLYAYQEGDLSESIESICPTVARISGFLRMVFYLANEEKIHRVLNNISKTLQDEHPREHTITKQLTTLGQQFTFYLFLMMFFAACLYGVTPFFIMIYNWVQGQRPLVKLLPFKLALPFDSQNLFPFVVTTLFLNYASAPTITSQSGSDALFSGVCLYIYGQFQAIRLEVEALAETVDRNTLKSSAAETHRINLELRRISKRHQAIIDLVSEVRSAFTPNVLLVYTATAIIMCIVCIAMLVVEGIYKLTYLPYAFAELTLLFLYSYSGTIIRDSSEAVQTVAYDFPWYRYDRNTRHLIQMMMIRAQYGSNVDVPFFETSMASFSAIVRTASSYITLMKSFL,r
Pharmacophore2D,0.20415833868864955,-0.9802453303538347,0.41069128472978145,0.11834358102848397,0.06537289338756958,0.23418046260781555,0.19220347168959706,-0.41009769842866284,-0.21779574282237735,-1.522569304379974,-0.23706819311874971,-2.51369571301941,MSEHPIHTFDRLIKRQRLLLKLIGIDSYDPAFRIHSLTFMLVCLALTFFVISLYDLYLFRDDLFNFVYVLITIFFATIGIGHISVFLLCSKLLAELLEQSYRTYRLVVDDQREQRILQWYTRLFQRAVDGYTLVFIGTSVAAGLLPLAIYLLSGDRVLPYGVVLPFVDPDSLVGYELNYIYQVSCIIWTPPGLVASVCMLFGLVLNICIQYDILAVKLQDLDELIRSPHPHRDAMIGCKLRSILRNQQRLISFIANIEAAKNVHSAVEVLSLGLQIVITLFVLQFSLWIPGLVLIPVFTMQLFLFCLLGTIIEDKGVKFSAGVYSLTWNELSKQDKQIFRLLLLSSQQPQTLTCAGMTCISLNLFVNMSQKFYSIFMMLRNM,r
Pharmacophore2D,0.35900558321109316,-0.10515629450958093,0.5414200363362635,0.41366594593555306,0.3289463934366297,0.3659271351074369,0.14506840523958286,-0.37118339810684886,0.38624087084059644,-0.056905858772895446,-0.3132603624010284,-0.17067272410772838,METHIGKQHSLERFQAMVAWQNRVLALFGCYMYLGKERVSYRIVPICFMACSFVLLSLYSAIQARGNMGLAVLSIVVLFYGIIGVTRLAVAISNPAGCYRSIQIAEEMYQRANGSNPAECNVLAKYTDLFCKSVQLYTVCFVLSVVVLTLMPFALYLLRGERYLPLGIVLPFTAETDDFGFWCTLVVQLAYMYTGPFGLIPSQNIYFAFVFNICLQYELLIERLKQLDERIRSSNNLKLTVRDQLVKIIQLQQESTNYITHIERFYQLQSFVEFLCNSLQVALTLNELHRNFWLPGLFILPIAVMQMLILCSLGTLIELKSDQFKDQLYDIAWPEMDLPEQGMFKYVLKSAQQPKQLTCGRFAVINMNLFLAIHKKIYSFFMMLQNM,r
Pharmacophore2D,0.3369792855197384,-0.5179832757336644,0.41233824588985246,0.21487114677359087,0.3633564845148658,0.33184442655145185,0.362486123868931,-0.9002408129159509,0.3534399598621214,-0.9089824325943805,-0.6640374066567669,-0.47009568636334564,MTFTLSHDLYVYNLHLIRWFASFVGLDIMAPNYKPNILTFLAFFGLSISLIGEVYTVWYFWPILDKLMESAAIFGVFIQGLAKFYIALRYRKFFEAMYNRLDLFHYEYRNHEKNNATLLLLMNRICLLRKLITSQFSISILTLMVTPVAQYILKGERFLVYTIILPFTDPEITSHYLLNLVVQYYLLIVGLAGFSAAESVLILFVTSVAGYADVLKNKINEMNTLLLDAQNSRDRTSVKLKLREIVLLHQRVLEYEDDLDKRYYLNNWVQVASSIFNLTGALFGCYVSNSFTMYALAITIVIQLFELCLLGTILSIKNEEIEHAFYDSLWYLMDHSEKKDFLIMFHKCQHAKEMTVASMAPLNIVLFIAIMQKIYALAMMMMRFSE,r
Pharmacophore2D,0.16428997913835444,-0.24218018915072928,0.32498621105559444,0.04380056668089427,0.17352741605696176,0.21198033397412674,0.06715536792419496,-0.884619257900132,0.2049289625603019,-0.28194648981538184,-0.23895733506231598,-0.010306825536118502,MTFTLSHDLYVYNLHLIRWFASFVGLDIMAPNYKPNILTFLAFFGLSISLIGEVYTVWYYWPNLVKLMESAAVYGVFIQGLAKFYTALRYRKFFEAMYNRLDLFHYEYRNHEKNNATLLLLMNRICLLRKFITLQIIGCILVLSLNPVIQYIIKRERVLVYAILLPFSDPEITSHYLLNLIVQYYLMIAGIGGFAAAESVLILFVTSVAGYADVLKNKIDEMNIILLDAQNSRDRTPVKLKLREIVLLHQRVLEYEDDLEKRYYLNNWVQVASSIFNLTGALFGCYVSNSFTMYALAIAVVVQLFELCLLGTILSIKNEEIEHAFYDSLWYLMDHSEKKDFLIMFHKSQHAMEMTVASMAPLNIVLFIAIMQKIYAYAMMLMNFFE,r
Pharmacophore2D,0.41119725180415134,-0.21006374117865362,0.388576767841712,0.39254651593552536,0.39172932151220285,0.34679289849916317,0.5363407552321531,-1.1957813193386233,0.15794155145618805,0.28857756100977094,0.09597469696937044,-0.39703119598997416,MPRATSNSAANLERLVIRISSHMAVLKLNIIDPAWRPTLRFGIVLFLTALVPVYIWQGIKVYRTRFETLLEVLSVAGCGWQMFFRMYFYLFQQDRCRQIVQEVRDQRTVYGADRNPRMEKLFRAGTKRMLLAYRVIHLMYGTSYFFQLGPLIMPDPHKCNLPLALQLPFLPPDRNMVYYCINYAHHLLLNTIGVFILLPMDGVLIVALLNICTRIAALQLLLEELDAKLGTVQWQQTAHLDAELNRIIELHIDTKRFARVIYETYQMHFFSMFSVLCFVICMCMNVVARDPRSTLIPFGLASTGQLFVICMLGNVLYIVSDRLKDSVYGIRWYRCTVSQQKRLMFLLANAQPEIVMGAVFIPVTMTSFVTIIRAAYSYFTILY,r
Pharmacophore2D,0.062109625216097995,-0.4200583816729212,0.34578654134116227,0.05605227811854985,-0.06225915647193059,0.0546822654334338,-0.08371380234072534,-0.4669716935331669,-0.5983448146426955,-0.3566039799594163,-0.681579844258019,0.003208424028691481,MVVFEPLDDPLKVLPLPLKLLALLGVNKNPSERFRLYAIYIYLWVAMFIPKLCLGYETIPQCFRSIAEGMFSFNTTVTFIMLPLKMDNFEGLLQNLQRFTQIVTVEEDYKQILISLNTTIHKFTKFYFIFTNGVVFSITGSTIAGMLYTYYTKDSEYSAAFPLVMENRFYVLDSHYNLGHCFVHQALMFFALYILLVMFTAKAGTLFGLIRFCSTVLGIIVLKIERLSQIGPVDQYTAELSEIIELHQLVIKCSRQLQNILMEILLAQFTGCVFIWCFMLYYVMISGITAEGIAVGAMLIALSTETFIFCLLGNELTLKGLEISTAMYSTNWYDQPVKLQKMVVPIIQQSQQRIGITAAKFYYIDYNRYGQSLKTAYSFYLLLKDIF,r
Pharmacophore2D,0.43842470821148616,-1.7612302863923321,0.6178907576601085,0.08140909814073749,0.411879923513622,0.6250030658749256,0.45594069586803754,-8.492553122335943,0.08008468087198051,0.17351098237145623,0.05501248191471453,-0.622206454783867,MVNLFARTPADNFRVMPYNLRLFAMLGLWGDRRKLYRLYALLLLAYVAIIFPKPVRITDRHPFESIVRSVSELIFAALCYLTIIILAIKSEPFRAVIRKMEQALELFRDKQDQCSQLIIEVNANIHRFSLGYAKLNLLYVLLFNVIPPIYNYPRYFLQWRMPEDNRTVEFMLPLMQDLYGLDVHHNIVHYTISWVAITPFCVFCALILWFKGALFMLIRYNTLLYQLVNRLLQQYDRESAGGLLAQKHRRLQQIVQLHYRAIECTKLLDSILSLILLIQCVGCLLMLCLMLFYITRNHSLNVINIAVLLMSIFIEMMCFSYLGNQLTEENANISHSAFNCRWYDEPIVIRKYFLRIILQAHRKATITAGKFYNVNIVTFAQLIKTSYTYYMIMKEMF,r
Pharmacophore2D,0.26528364817669214,-0.690795734598223,0.2582486498280476,0.3360601005343481,0.22751793999502168,0.2850869510458447,0.21950459948019863,-2.4678512732977707,0.2726416987932758,-0.257601810362863,-0.7067478649561194,-0.2944194231676376,MLSLRPEDPKAVMPFAKRLLRLSGFSPGTEQLGRCIYVNLSIYITVILVPKVCFPYPNTEAMIRGLGELIYFTNVYVGFFCFVVQHRHYRDLLDEIQSFVNIVYPTSQQPESLSERTLIKLNVKINILSVLYCRYIVVAAFIYWMVPCVVTYSSIHKAEVSMGNESIQSIQYYPNLEESFYWLDNRSSVSGYAAFSAVALIVFAFASYNHVTKLLTILSTIKYCSTLFHLVSIGIDELNLVSPAHIDRELKKLIQMHQLAIRCDVLLNQTLSYVMALQLALGTLTWCFTLLYILIIGLDVTAMMGLLIMMNMTSEMFGYCLFCTELTNTATTISQQIYVFQWEKHSPAVQKMVAMIIARGQAPLQIKACGFIPINLELFAKVVKTSYSVLIVLRDFV,r
Pharmacophore2D,0.1001289711383414,-1.0358979997753326,0.12859984923466317,0.01383776261628733,0.23128317696380352,0.09882038727216491,0.0281036796047881,-3.579428948750265,0.1197550500360891,-0.6586774593154228,-1.0550933434382705,-0.006045297408794115,MKLLELDNPREAIAIGCRLLKLFGLGRDERFKLVYWLQCVAYLAFSIVPRLLVEIEDMVALMRLIAELVFVVYLCLQIMALYCRRRQLYRLVDMLQQCIDIPYSEQIESFLIRSNVKINQSSAAYARFFMCVYVLYCTMSPLASGFVYIRNQRNATGVQEEFIITTEMNLYDLDIRYNPLHYSIYAGLIFVLSAISSLSLCTKDVIDIAAIKTVTLVFGIVTMQIRDLHEQITQERLNRVIKSHSNALSCATQLEQALNLSVLFQFASCSAIWCLMLFYILLMGLDSRVLSVVLLLVIVSIETYAYCMLGSQLTTQGEDLLMALQQLSWYDQPVPIQRQILLMIRRSQTPLILRAGKLFSANVVQFGDIVQKSYSFFLVLKNVF,r
Pharmacophore2D,0.3370457066725995,-0.8698551818281679,0.5187686245136776,0.32092135705928027,0.3078797497888677,0.37684793432375974,0.1608108676774117,-0.3480025262052462,0.20969815886742948,-1.0793441469077147,-0.00045902113087903373,-3.131168373764429,MYYLEQLRALVRRYLERRSPDPRIQHTFIVQSINRVGGMLGIDIFTPGYSSTNLLLRMVLLNTFTFFWINLYSLTTTYGNLVDFMYSFETLLYVGIACIKMYVFIKNKTLILQMHQYMIDFFDHFHGDREQDELLVRTLNNTTLLSSLFAVCSSSAPGLLFVGSLLWSIAVEYVLPFGFFIPTVGMDTLQGYTLNYGFQMLETTLMVIGIISSESAFFMFQQNACLQVDMLRYSKSMCSLFELHFFIVFGCIFFQLVSNVVVIVSVPDWYPGYFLFIMLTVQLFFSCALGETFNIKSDELTVAIYNVPWYNMEVRDQKAMRLLLMASQNPGRLSYGFGTVNMRAFFEIFRKTYSIAMMMISVNEEE,r
Pharmacophore2D,0.2916412034337636,-8.982858975711354,0.47101580130226794,0.14906059656753867,0.2125334347697907,0.3397341560081779,0.2858620285210427,-43.253680184404544,0.36883180218804124,-0.5431024859558913,-1.2052905538757144,-0.28105345650865576,MDIVSKQGEFPLVKLSTKLLRIIRFWNDSPGQRIPSLGLLVTAIYPLIWLIPSWLFLVSSQDNITRFMKAANEQIVFSLICCKLCFYAIHFRRWEKLYYDLQRSFSTVLNNPNLEIQTILGHVTKSTHKLTKYYCSTVSFNCAAYGLFPMLFIVVKYAVTGSYDVPLSTPIEAKYFIPGLRTNFWVWLPVDLTLNAILELHGFALVFVETFTWNLVYATSCMFRILQIQVNELSHQSRNEKEWNGKLKTFIALHDSVLRSAETLEEILSLQMLLLYISTILALCLGMVVLSLAVNEVYVLLTTMAVFGYCIFQTFSFSYLGTELIEQSEAVADAIFHSKWYTQKLNRQKDMCFLMMRANKPVKLTAAKLFVVTRDSFTQVIKQAYTIFTLMSQFLDNPVN,r
Pharmacophore2D,0.30160607619117413,-8.258017593559053,0.4071214052885891,0.1520506955504377,0.334420750674414,0.21229524201036598,0.40214228743206404,-39.83327353699695,0.2652322732495197,-0.7364197284583325,-0.8796418112948767,-0.1059851642946299,MDIVSKQGEFPLVKLSTKLLRIIRFWNDSPGQRIPSFGLLVTAIYPLIWLIPSWLFLVSSQDNITRFMKAANELIVFSLIFCKLCFYAIHFRRWEKLFYDLQRSFSSVLNNPSLEIQTILGHVTKSTHNLTKYYCSTVSFNCAAYGLFPMLFIVVKYAVTGSYDVPLSTPIEANYFIPGLRTNFWVWLPVNITLSAMLELHGFALFFVETFTWNLVYATSCLFRILQIQANELSHQCRNEKEWNGKLKTFIALHDSVLRSAETLEEILSLQMLLLYLSTILALCLGMVVLSLAVNEVYVLLTTMAVFGYCIFQTFSFSYLGTELIEQSEAVADAIFHSKWYTQKLNRQKDMCFLMMRAKRPVKLTAAKLFVVTRDSFTQVIKQAYTIFALMSQVLDDTMG,r
Pharmacophore2D,0.22087034047847057,-0.1447769753554739,0.3812534704552586,0.2005980908396131,0.1580267953225546,0.14758661987922006,0.21688672589570646,-0.029040827207626574,-0.3807748202481316,-0.1324581991060969,-0.31694833843440984,0.13533730821889545,MFSASAEMEWFRQQRHAICHLREGSDYLRYLRPFQLIAGYPINPRPALSKLATVVRLLAYLTYLGTLLHKISYVLYRPEDINYVSFVSGGITVLVAVLLLMLIFTVHYDAFQQLGTFLNDRAFARDHPLATGIRDRWYRWSNGLILGPQCCIVLILLQTWISRQHLKKHTMLVVRGEPVGTEFDHFLYMSCLYFPTVGFFMGCSIVNAMLVGFLGEMELLATCLGELFETVERQVKEEGPTGRPDSRALYWSTLHGELRRCAQRHCAIFTMLPKLQRMASFVFLQHHIFSLGLVVAGSYVTLRGPALRENIVLSEYPISVVLEYFIFCQLVEKLQDMNRSIGDRLYGTEWMLKLQYSRDFQREYRSAALTIRLLIMRSQHRVRFTCGSINPVSMEKFTEFLNLSYSIVMFLLSIN,r
Pharmacophore2D,0.2578361519482407,-1.04564112693146,0.25203384308013654,0.12962771846927568,0.38726537656058424,0.345100287204014,0.17515353442719328,-1.1663033311690452,0.024185570527790134,-0.7243177495093829,-3.237673016412737,-0.12409710809392438,MWHHQVQLWFRFLLGRFTTFTDSSDYFGLYKTLATISAIHYDASCWFDRAIWIVYRSLPILVNISYFYKAYRLILFPEDNTSAASVIASVWGFTEGTLRICLIELRYGTLASIMSFLNERSYRQQDSLVRQQRATLFGENNRIQLILVATMLMEAIWFMTTQLFSRDAFMLQVNGHVVDSIAVQILYGLLSNVWGLIYVLSFAIFYIIMNTLHLEMSILLDGITSVQFTVMRRLKQRMETLAASGHSSTQVFWSILQPELNSHISRHVDLLDNLKEFSSIVGPFSFVQYYGTLALIADCGFILSIEGLSANGMIYLLFVTVLVFQSFILCRGIEKLNDLNEAIGQALYSGFDWPDMLQYDQRFRRQYVTVRHTLMLVIGRSQKGFQCSYGGLGSISMERFAQLMQKSYSLLTILLQFAK,r
Pharmacophore2D,0.3734084687059669,0.02053493255369656,0.38988778347899444,0.39723882166685154,0.4635936342113025,0.3783970775342198,0.23792502663846615,-0.5285524610029884,0.46810575285513234,0.07122077770522028,0.05846570796634709,0.03343488524477145,MYLTQLFASMRTQFLHRITHYTKHSDFFIMQRYFEKIYAIHYTPHGWHDRILWYLYRALYGLIYLSYIHKTHWVLHHPQDSFSTANILGVMWFFSVVILRVAILEWYYPLMLRMQTFLNNHTSYQRTDPWAVGRRARFYRRTNRVILTVMGINLAETVCFTATNVMKLDEFMLQFRGAIVGGWPVQIVYGVLTMGFGGMYCMGFMMCYLLLSIFKLEVDILIRSLEEVERSDRLESDFGDSADIFWNNIVDQLRPHMQRLDELFIQLQHLKAVIGPIAFVQYYSTYLIIADCCLILVSHGLSSFSIVYFISMLVFLTESFLLCHGVENLRDLKPRIASTVYDFDWMLQMRCPNPRHRAQYRHVRRTLLLLTAQSDQTIQFSFAGIGEISMNSFAQLLEKSYSMLTFLLQFAK,r
Pharmacophore2D,0.07646156778651128,-0.4753371340897454,0.03848280210848798,0.0479275744703993,0.01937862580712091,-0.008888534353596711,0.2854073709001449,-0.46876683333495217,-0.36837105253441993,-0.10863711556217104,-1.220853161526422,-0.21005750749076157,MFHPSRWMAKCRVWYAATFKFSADADYFFLVQPLCRSLQLFGNPVRCLQEFGTVRGLFVQLCRFLFLLPYASFALKSYWQLNHPLDTNNSILTYGSFVIYMLWAILIWVLNHYEHEMCELRLFFKNPTYQEQSDWAHRIRAGNYRRWNWMILMFYLFNVINVSIFTLTNAHNRQFHFQTRGEVVGPLYFQIIVEIFTGYLSLGYFVPSCITLMTLQLFRTEMHILTTTLKQAANEEQQQQQHQHAVDIRCAYRSFCKQFYANIRRHTELLQSIATFCKVFSPISVVLYYGALITITCTCFYVMKHDVSTTTVCYAGFAVYMLFNTLLFCKSIDSVNDLHTEVGYIMYSEYWPATLQYADQGLSTETLRPLRRSILIVLQQTLRPLRFGYGVSGSLSMQRFGEFMQQIYSLIMFLAQLN,r
Pharmacophore2D,0.1079866960477881,-1.4475101945586664,0.006650059953897558,0.1167910197489983,0.2468231939479284,0.07299269100508632,0.09667651558302992,-5.018431419643589,-2.2099520907850416,0.22461737780995572,-0.10615878924792899,-0.12762605092672885,MVKFFRCCKARVSPELLSKKNEKPEAFLPSLRMILFIFRMFYAWPDEQSLAPNALWWYRAKGVLFRTFFIYLSAAAQLAYNFTVTSREELFAGMFVLLTQLVLILKMEFFYKNVSKIQQLIRRLNGKRYQQSGNAEEDMPLVSARKKSTIFWTLYFMFSVGLATEWLVISLSLTTLIVPVWPVVDHTTPYWVYLMVIFHQYVAIALNASFNISWDSLVAALFALTNAHLHRLQIQLMKLGHRKHLHPPKDAKRRMIAVSSFDDNARSVPTKSDADEVYNELLQCIIFHQEVTGFLREVLDLFSGPLLAQLYCSVFILCITEFRLLTDVNTMADTVQAVIYLLCLVIQVAQYCYFGNEINYMAQKVHRATAFVNYPDMNIKCRKLLIAFQQITAVGIKCSAKYVFTIQLSMETFVTILKTSYSYLAVLRSMTD,r
Pharmacophore2D,0.18688365679738295,-0.46217275311852557,0.3225679239396584,0.08964008389363032,0.3116206020531864,0.14902868300638394,0.06156099109405566,-0.06434540569803482,-0.09440729201708775,-0.5729191577838133,-0.681085118748278,-0.8981067913454139,MEASEKFSQFERYIRTLCNIIGFDVMTETWKKSYRTYMSIFLCSQYLILMVYSLIIASDTFELFKSLSFLGFFFQCSLKMYYTIQQAPQYAVNFCCLKEAIYERHSKGTLAQKTTVARIIDLLVLVTKAISVLYTSSLFIFSLYPAYMYFVVHVKVPIFPLYIPGINIYSAYGYGITNSFHMLIAVYGLFGALTSDIVFIMFVVHFVTYGGLFKIECEQFDQDLSGVFQHCEWRTAVYKTFCRQRMRAIYQYHQSVIFYLESMQECYRNICVVQVASCSLSTVFNLFLALTTDWYATYGFIVISVFQLFVYCLMGTVMQIMNERMIDYISNLPWYMLPTEEQKQFKFMLARSQLSAEIMIRSVGPMNMETFTDIMQKMYSAFAMMYSFLVDLG,r
Pharmacophore2D,0.016056553152853835,-0.7240084697324284,0.36174949375879784,-0.0009755142090255298,-0.22921522662203575,-0.3395586145936904,0.28828262743022304,-0.11561217153562553,-0.3062019705152501,-0.3543756191693108,-0.4230865276406681,-2.4207660598012875,AgOr67,r
Pharmacophore2D,0.05393425678083856,-0.272250499202902,0.0709814552646384,-0.016885952135785587,0.03587751601299127,0.11008455970746278,0.06961370505488595,-0.5392450527482313,-0.11708438252395625,-0.590033362895674,-0.022010997300133672,-0.09287870054651481,MANVEEFRKLMKSLIVCSKVAGVEMWTAPGKLKPASYYVSFHITVYFVSTVWTLRKYIDDPIHMMKVLITMGTAVQLYIKFFVAHSKAQEVKLFTVELEQEVLKRYQNGSEEETAVLRRTGRILWIVHRLMSASYIFVAVAFGLYPAFYYFATGKVMPLFLYELPFFNVSSSLGYAVTMGFQINLLAIGVLGAILSDFMFFMYAMYAMARADISIVHLSELENILNDSTKNEEHSANVRHKWIQCMHDHQQSTSFFSTVENIFGLMCLAQVSTATLSICDAMLLVLLTDWYPTYSYLYVVFVQLSGFFVIGHLVELKIDALYNKIISMPWYRLPVKEQKEFRFLLSRQQCPMILTAYGFHPMNFEAYMSVLKGLYQFFVMILQYIGRN,r
Pharmacophore2D,0.1597375624673683,-0.07181867669789932,0.040185101744987684,0.2551863016845134,0.41836432737342233,0.34775879647411756,-0.26280671494019936,-0.8771321695559164,0.2518978255714295,0.2727826508029175,0.19666618230391464,-0.2033078726118418,MTVVHRIVSFGYNLLQRHFNVGHPTEQFFLLRCLDVVSPAMLLQRPRSNLEVALKTLCLSVMVAHTIALAYDFSQQTDVRLAMDMLCMLSLFVSIILRGTCMRQYLAHINALDRLERRPTFRIGTPYADESRRNVALQNSRYLGVALVFHSLTVTVYVIQNMVRENSFVKIITSFPIDLSERAPVLERVADLCYSLVGYVWGWYHGATQLTIIVLLRYAITEFRVFLHSLDSLDDQLQQRREQSQGAPDEERILRELLYEHARHHSQLIVVVTHLRTLLRNYSLVHFSFYMIIVATFMTRVLIIPGRSSFGLAIPLLVTTIYFLETFGMCMLVEMLVQLNRKVSTSLYGFSWPQYLRYGRTIKRPMMLMIMQANMTKDFSAGGLTTVSAELFAKTCRMIYTMMMFMANMAT,r
Pharmacophore2D,-0.004342842922677748,-0.8713196652191895,0.08865726288711329,-0.1000107167605051,-0.15272153271477595,-0.03326143404206139,0.17562220601684042,-3.654660648696277,0.14504947281348857,-0.29522237466770074,-0.5064850019302016,-0.04527977361525726,MTVVHRIVSFGYNLLQRHFNVGHPTEQFFLLRCLDVVSPAMLLQRPRSNLEVALKTLCLSVMVAHTIALAYDFSQQMDVRLALDMLCMLSLFVSIILRSTCMRQYLSHIDALDRLERRPTFRVGTPYADESRRNVALQNSRYLGVALVMHSLTVTMYVIQNMVRENSFVKIITSFPIDLSERAPVLERVADLCYSLVGYVWGWYHGATQLTIIVLLRYAITEFRVFLHSLDSLDDQLRQRREQAQGAPDEERILRELLYEHARHHSQLIVVVTHLRTLLRNYSLVHFFFYMIIVATFMTRVLIIPGRSSFGLAIPLLTTTIYFFETFGMCMLVEMLVQLNRKVSTSLYGFSWPQYLRYGRTIKRPMMLMIMQANMTKDFSAGGLTTVSAELFAKTCRMIYTMMMFMANMAT,r
RDKitDescriptors2D,0.04869682703325238,-4.15335173906537,-0.014634479723058424,-0.03886379015670638,-0.001962144336371985,0.049376850107991976,0.2495676992744067,-11.934006062782055,-8.538298116798678,-0.05827738659280235,-0.20262620573457735,-0.03355092341873478,MKLNKLNPRWDAYDRRDSFWLQLLCLKYLGLWPPEDTDQATRNRYIAYGWALRIMFLHLYALTQALYFKDVKDINDIANALFVLMTQVTLIYKLEKFNYNIARIQACLRKLNCTLYHPKQREEFSPVLQSMSGVFWLMIFLMFVAIFTIIMWVMSPAFDNERRLPVPAWFPVDYHHSDIVYGVLFLYQTIGIVMSATYNFSTDTMFSGLMLHINGQIVRLGSMVKKLGHDVPPERQLVATDAEWKEMRKRIDHHSKVYGTMYAKVTECVLFHKDILSFGDEVQDIFQGSIFAQVCASVIIICMTLLQATGDDVTMADLLGCGFYLLVMTSQVFIFCYVGNEISYTTDKFTEFVGFSNYFKFDKRTSQAMIFFLQMTLKDVHIKVGSVLKVTLNLHTFLQIMKLSYSYLAVLQSMESE,r
RDKitDescriptors2D,0.11530889848341737,-5.614634183197248,0.27303963810224874,0.2338709043604148,0.04151654527284965,0.05705719797535058,-0.02893979329377694,-19.663943495305503,-5.323115220575659,-3.1167424804193855,-0.21449814575293424,0.24512842606723995,MLIEECPIIGVNVRVWLFWSYLRRPRLSRFLVGCIPVAVLNVFQFLKLYSSWGDMSELIINGYFTVLYFNLVLRTSFLVINRRKFETFFEGVAAEYALLEKNDDIRPVLERYTRRGRMLSISNLWLGAFISACFVTYPLFVPGRGLPYGVTIPGVDVLATPTYQVVFVLQVYLTFPACCMYIPFTSFYATCTLFALVQIAALKQRLGRLGRHSGTMASTGHSAGTLFAELKECLKYHKQIIQYVHDLNSLVTHLCLLEFLSFGMMLCALLFLLSISNQLAQMIMIGSYIFMILSQMFAFYWHANEVLEQSLGIGDAIYNGAWPDFEEPIRKRLILIIARAQRPMVIKVGNVYPMTLEMFQKLLNVSYSYFTLLRRVYN,r
RDKitDescriptors2D,0.036748656056910536,-0.6066452300361161,0.016477459812759276,0.06870372065771302,-0.021609138908653458,0.0727176036415933,0.04745363508114053,-1.7640382086474076,-0.12010530714835044,-0.5082383119109566,-0.17913296911977583,-0.4617113533540902,MVLPKLKDETAVMPFLLRIQTIAGLWGDRSQRYRFYLIFSYFCAMVVLPKVLFGYPDLEIAVRGTAELMFESNAFFGMLMFSFQRDNYERLVHQLQDLAALVLQDLPAELGEYLISVNRRVDRFSKIYCCCHFSMATFFWFMPVWTTYSAYFAVRNSTEPVEHVLHLEEELYFLHIRTSMAHYTFYVAIMWPTIYTLGFTGGTKLLTIFSNVKYCSAMLKLVALRIHCLAEVRQDRAEKELNEIISMHQRVLDCVFLLETTFRWVFFVQFIQCTMIWCSLILYIAVTGFSSTVANVCVQIILVTVETYGYCYFGTDLTTESYSVALAIYDSEWYKFSISMRRKLRLLLQRSQKPLGVTAGKFRFVNVAQFGKMLKMSYSFYVVLKEQF,r
RDKitDescriptors2D,0.0456924713448964,-5.554435288434361,0.1549236953637445,-0.00141817678350864,-0.06462686005116036,-0.042555000071178295,0.1821386982665848,-21.69914358320879,-0.0004443303084640249,-0.8679934744488911,-0.7393864037283788,-4.465208650477278,MKFELFQKYSSPDTVLSFVLRLLHIVGMNGAGFWSRIRVGGIFLFYLIFLVIPPLTGGYTDGHQRVRASVEFLFNCNIYGGSMFFAYDVATFQAFIQELKSLSILVCSHSYRLKYKLTRFNRRADIISKVQTTCMGAVTLFYWIAPIPSICAHYYRSTNSTEPVRFVQHLEVKFYRLENRTSVEDYITFVLIMLPVVVMCGYVCNLKVMTICCSIGHCTLYTRLTMEMVEQLESMASAERTASAIRNVVQMHTGLLKCIRLLNTSIRSMLMLQWLTCVLNWSISLIYLTNVGISLQSVTVVVMFFLATAETFLYCLLGTQLATQQQLLEHALYATRWYNYPIAFRSSIRMMLRQSQRHAHITVGKFFRVNLEEFSRIVNLSYSAYVVLKDVIKMDVQ,r
RDKitDescriptors2D,-0.15252362393815386,-0.3061098818615383,-0.010753805833994878,-0.005455038688431335,-0.00010687391767971732,-0.739251375708877,-0.007051025541786382,-0.563929412736839,-0.43599729154305167,-0.21183167080665433,-0.10517882083762276,-0.21361221338352365,MVLPKLSEPYAVMPLLLRLQRFVGLWGERRYRYKFRLAFLSFCLLVVIPKVAFGYPDLETMVRGTAELIFEWNVLFGMLLFSLKLDDYDDLVYRYKDISKIAFRKDVPSQMGDYLVRINHRIDRFSKIYCCSHLCLAIFYWVAPSSSTYLAYLGARNRSVPVEHVLHLEEELYWFHTRVSLVDYSIFTAIMLPTIFMLAYFGGLKLLTIFSNVKYCSAMLRLVAMRIQFMDRLDEREAEKELIEIIVMHQKALKCVELLEIIFRWVFLGQFIQCVMIWCSLVLYVAVTGLSTKAANVGVLFILLTVETYGFCYFGSDLTSESLSVARAAYGSLWYRRSVSIQRKLRMVLQRAQKPVGISAGKFCFVDIEQFGNMAKTSYSFYIVLKDQF,r
RDKitDescriptors2D,-0.5258755158322004,-7.241017213510547,0.19729372513531018,-3.3079090012603505,0.1841762372709328,0.15893835408079737,0.13812310561230834,-29.82505815770572,-5.746412510189385,-0.7165195470861747,0.11323356535506712,-0.030329417926522773,MVRLSFEETLRNTNLMLLMMGIPPCEEPYPPGVLPSLKRNAGFIASFLLLAYTTIGELIYLKQMFERDVTFLEVTFQAPCIGYCTIGVLKMVILARGRNTIAELVGLFRAKWTSAIVTGAHWAVCEDTMRPAIRVTSVTALANVVMGIAFTILPIAEMIYTHHYTGRWNRQLAFNIWWPFDVLGGVKYYWFVYPLYVVIGFTGIIIHMAFDCLFCILAAHLCMQFRILAHNFGHVVEVANGAREGDSGSTSRLRDAIRIHQELIGCSVFMQNVFGNALFINFLGSSIIICIQAFMITTVSGYMLVKFVLFMLCFLIELLMLCAYGEDIVESSLGVIDAAYGCEWYREGSVAFHRSVLQIIHRSQQSVILTAWKIWPIQMSTFSQILQASWSYFTLLKTVYGNK,r
