embedding,shuf_mean,scaf_mean,shuf1,shuf2,shuf3,shuf4,shuf5,scaf1,scaf2,scaf3,scaf4,scaf5,receptor,regressor
CATS,0.11489547592487284,-3.0237720380741,-0.07269191174707434,0.008162506802067648,-0.0019628853568047777,0.26879148073890813,0.3721781891872675,-6.8014850482124665,-7.115081681812386,-0.09721775226274487,-0.20242635691126165,-0.9026493511716389,MKLNKLNPRWDAYDRRDSFWLQLLCLKYLGLWPPEDTDQATRNRYIAYGWALRIMFLHLYALTQALYFKDVKDINDIANALFVLMTQVTLIYKLEKFNYNIARIQACLRKLNCTLYHPKQREEFSPVLQSMSGVFWLMIFLMFVAIFTIIMWVMSPAFDNERRLPVPAWFPVDYHHSDIVYGVLFLYQTIGIVMSATYNFSTDTMFSGLMLHINGQIVRLGSMVKKLGHDVPPERQLVATDAEWKEMRKRIDHHSKVYGTMYAKVTECVLFHKDILSFGDEVQDIFQGSIFAQVCASVIIICMTLLQATGDDVTMADLLGCGFYLLVMTSQVFIFCYVGNEISYTTDKFTEFVGFSNYFKFDKRTSQAMIFFLQMTLKDVHIKVGSVLKVTLNLHTFLQIMKLSYSYLAVLQSMESE,r
CATS,0.36400912609498776,-0.1936750920767277,0.34780880081406007,0.3362917466194524,0.3287305884744067,0.20832180459015237,0.5988926899768675,-1.5467801032646897,-0.00046212839983805765,-0.13977301980352363,0.1612230050152652,0.5574167860691477,MLIEECPIIGVNVRVWLFWSYLRRPRLSRFLVGCIPVAVLNVFQFLKLYSSWGDMSELIINGYFTVLYFNLVLRTSFLVINRRKFETFFEGVAAEYALLEKNDDIRPVLERYTRRGRMLSISNLWLGAFISACFVTYPLFVPGRGLPYGVTIPGVDVLATPTYQVVFVLQVYLTFPACCMYIPFTSFYATCTLFALVQIAALKQRLGRLGRHSGTMASTGHSAGTLFAELKECLKYHKQIIQYVHDLNSLVTHLCLLEFLSFGMMLCALLFLLSISNQLAQMIMIGSYIFMILSQMFAFYWHANEVLEQSLGIGDAIYNGAWPDFEEPIRKRLILIIARAQRPMVIKVGNVYPMTLEMFQKLLNVSYSYFTLLRRVYN,r
CATS,0.08388047806433585,-0.7797014034825314,-0.06962205460415194,0.19085016728446436,0.03352169391639215,0.24963505204161707,0.015017531683357621,-1.9441167994812694,-0.03959169375018079,-0.5758944150735728,-0.3150210870014478,-1.0238830221061863,MVLPKLKDETAVMPFLLRIQTIAGLWGDRSQRYRFYLIFSYFCAMVVLPKVLFGYPDLEIAVRGTAELMFESNAFFGMLMFSFQRDNYERLVHQLQDLAALVLQDLPAELGEYLISVNRRVDRFSKIYCCCHFSMATFFWFMPVWTTYSAYFAVRNSTEPVEHVLHLEEELYFLHIRTSMAHYTFYVAIMWPTIYTLGFTGGTKLLTIFSNVKYCSAMLKLVALRIHCLAEVRQDRAEKELNEIISMHQRVLDCVFLLETTFRWVFFVQFIQCTMIWCSLILYIAVTGFSSTVANVCVQIILVTVETYGYCYFGTDLTTESYSVALAIYDSEWYKFSISMRRKLRLLLQRSQKPLGVTAGKFRFVNVAQFGKMLKMSYSFYVVLKEQF,r
CATS,0.04339827045673565,-3.5681549919641355,0.013104154055520456,0.05997217464889937,0.014724868162623972,-0.007654344356428089,0.13684449977306257,-15.54691796953902,-0.0004633606373671828,-0.7218170789136105,-0.1601399834365531,-1.411436567294126,MKFELFQKYSSPDTVLSFVLRLLHIVGMNGAGFWSRIRVGGIFLFYLIFLVIPPLTGGYTDGHQRVRASVEFLFNCNIYGGSMFFAYDVATFQAFIQELKSLSILVCSHSYRLKYKLTRFNRRADIISKVQTTCMGAVTLFYWIAPIPSICAHYYRSTNSTEPVRFVQHLEVKFYRLENRTSVEDYITFVLIMLPVVVMCGYVCNLKVMTICCSIGHCTLYTRLTMEMVEQLESMASAERTASAIRNVVQMHTGLLKCIRLLNTSIRSMLMLQWLTCVLNWSISLIYLTNVGISLQSVTVVVMFFLATAETFLYCLLGTQLATQQQLLEHALYATRWYNYPIAFRSSIRMMLRQSQRHAHITVGKFFRVNLEEFSRIVNLSYSAYVVLKDVIKMDVQ,r
CATS,-0.15419749478888747,-0.30440524477276354,-0.0107621040546666,-0.0029778111911724636,0.01228756986363777,-0.7566192995233028,-0.01291582903893329,-0.5554102502195803,-0.43597457751552193,-0.2118294860081269,-0.10519129462703747,-0.21362061549355116,MVLPKLSEPYAVMPLLLRLQRFVGLWGERRYRYKFRLAFLSFCLLVVIPKVAFGYPDLETMVRGTAELIFEWNVLFGMLLFSLKLDDYDDLVYRYKDISKIAFRKDVPSQMGDYLVRINHRIDRFSKIYCCSHLCLAIFYWVAPSSSTYLAYLGARNRSVPVEHVLHLEEELYWFHTRVSLVDYSIFTAIMLPTIFMLAYFGGLKLLTIFSNVKYCSAMLRLVAMRIQFMDRLDEREAEKELIEIIVMHQKALKCVELLEIIFRWVFLGQFIQCVMIWCSLVLYVAVTGLSTKAANVGVLFILLTVETYGFCYFGSDLTSESLSVARAAYGSLWYRRSVSIQRKLRMVLQRAQKPVGISAGKFCFVDIEQFGNMAKTSYSFYIVLKDQF,r
CATS,-0.24309408388071815,-3.475867436923643,0.37881559487271266,-2.0748583715581534,0.12127083494427482,0.16179312283845648,0.1975083994991187,-11.04691445174679,-2.055780433696922,-1.3879371728780003,-2.9926862957294484,0.10398116943294577,MVRLSFEETLRNTNLMLLMMGIPPCEEPYPPGVLPSLKRNAGFIASFLLLAYTTIGELIYLKQMFERDVTFLEVTFQAPCIGYCTIGVLKMVILARGRNTIAELVGLFRAKWTSAIVTGAHWAVCEDTMRPAIRVTSVTALANVVMGIAFTILPIAEMIYTHHYTGRWNRQLAFNIWWPFDVLGGVKYYWFVYPLYVVIGFTGIIIHMAFDCLFCILAAHLCMQFRILAHNFGHVVEVANGAREGDSGSTSRLRDAIRIHQELIGCSVFMQNVFGNALFINFLGSSIIICIQAFMITTVSGYMLVKFVLFMLCFLIELLMLCAYGEDIVESSLGVIDAAYGCEWYREGSVAFHRSVLQIIHRSQQSVILTAWKIWPIQMSTFSQILQASWSYFTLLKTVYGNK,r
CATS,-0.002643241840572186,-4.008837062472887,-0.08408013736393638,0.06272071533713497,-0.0078819905206573,0.02120790675634865,-0.005182703411750866,-9.559746919677023,-0.049848813536052416,-0.10448323780414559,-2.916908235328309,-7.413198106018903,MDPPTDELVRFESFIRVPEIFFAMIGVARYGEPKRTLRAYLKHLLFWSSCINTGYCLVIEHIYFVKAAGNFTNFLQLTALAPCMGFTALSFVKIMTIKLNETKLTDMLHRLDALFPSTVALQQRYGVYQYNRESQVVMKSFSILYMILIWMFNLLPLVSMVVGYVSDGTWHKQLPYFMWYWYDWHRPGYFEVTFLHQNWGGFVSAVFYLSTDLMFCAIVLLLCLQFDIVAYRLSHALPDDHQELVGCVRIHQAVIELCNELEHMFSPSLLVNFLSSSVIICLVGFQATAGITPADLFKFVLFLVSSLVQVFLLCYYGNKLIVASSQIPYSAFEGNWIGASGSYQRSLLFVMLRSTTVQKLTALKFSIVSLASYSKILSTSFSYFTLLKAMYEPNEKKMK,r
CATS,0.42390566750346326,-4.083933502876855,0.25808501470176504,0.2830031476108691,0.36919327301509663,0.6991641416616275,0.5100827605279581,-19.48574844079553,0.09547886757137802,-0.24050743181035616,-0.20188951490858442,-0.5870009944411791,MVRLFFSKTRVTKLFTRKDERPEMFLPSLRMILFIFRMFYAWPDEHLEKSALWWYRAKGVLFRVFFIYLSAATQLAYNFTVTSREELFAGMFVLLTQLVMILKMEFFYKNVFKIQQLIRRLNGKLYQSRNAEEDIPLASARKKSTIFWVLYFMFSDGLVTEWLVISLLLTTLIVPVWPRVDHTTPYWVVLMVILYQYMAIVLNASFNISWDSLVAALLALTNAHLHRLQIQLLKVGHQNRNLQVDANKRMITVSPIDDDARSVPPKSDADVVYNELLQCIIFHQEVTGFLREVLTLFSGPMLSQLYCSVFILCITEFRLLTDVNTMADTMQAVMYLVCLVIQVVQYCYFGNEINYMAQKVHQATAFVNYPDMNIKTRKLLIAFQQITARGIKCSAKYIFTIELSMQTFVTIIKTSYSYLAVLRSMTD,r
CATS,0.41037642842475996,0.065274132995265,0.5082439159757777,0.5604960712426283,0.3857063093417086,0.4594478300455921,0.13798801551809292,-0.5908108074760565,-0.2847612845852714,-0.005105810791000254,0.2660286015093716,0.9410199663192815,MEVLNCPLLSVNVRVWRFWSFVLVHNWRRYISIIPVTALNVFMFADLYRAWGNIEEVIINAYFAVLYFNAVLRTLILVYNRDKYESFLAGAASVYEEIRAINDDVITKLVSTYTKRARFLSISNLALGAFISGCFVVYPLFTGQRGLPYGMFIPGVNNFDSPQYEIFYITQLVLTFPGCCMYIPYTSFFASSTLFGLVQIKTLQHQLKTFRSSEMLNESTVVLNRKLQKLIEDHKRIIRYVQDLNDLVTYICLIEFLSFGLMLCALLFLLNIISVMAQIVIVGAYIFMILTQIFAFYWHSNEVREESMAIAQASYSGPWLNVDDTIKKKLLMMTIRAQRPLEITVGNVYPMTLEMFQSLLNASYSYFTLLRRVYN,r
CATS,0.07135813690402404,-5.437309533495376,0.13019680490015495,-0.07425835304154083,0.1256473805495173,0.17018292148810177,0.005021930623887005,-24.432321724463065,-2.294099099148442,-0.22945457909470224,0.041946173427486744,-0.2726184381981538,MELKEEWILPDVVYANPLLKRTLLGLRYYGILLGQSQSYKKVHCFRGMVFTLSMVLFNCTQYIDLWQVWGSVSDMTANAATTLLFSTTIFRIIFFYFHRARFNSIIKAAHDGIERILKDGWTDEQSIVGSNVRYLKRLAVVFWSCALVTANMMCVYSLVQYLTYEEGPPDGTGTSAANITRKGQPIPPTPILRSWYPTADGKDKHFLEIYLIQLYIMYVGQLIVPSWHMFMVTLMIYGRTECSVLNHRLCFLERYHTAGKDDPTAPVNNAERRSLMIDCIKRQASLVSFTRELEQLTRAAVFLDFVVFSVLLCALLFEASMTPSGVQVFIDVCYITTMTTILFLYYWHANEIHACADRLSMSAYKSDWYRYDRGTNRMLQIFILYSNRPLKMHAFFISMSLDTFLAILRASYSYFTILKQLTD,r
CATS,0.1255903413748093,-5.5316209738299795,0.263994847841182,-0.11101369494416402,0.27104344753014264,0.050369882282744194,0.15355722416414164,-24.473664143293284,-2.4041333315427913,-0.6877234625195454,0.08560824901780517,-0.1781921808120812,AgOr12,r
CATS,0.2782424566005748,-1.0742859419605755,0.23498919343844527,0.30221965006278717,0.1980454753130545,0.3782909858443305,0.2776669783442566,-3.9324641176987303,-1.8160908085742102,0.11017249956950237,0.2277639512133437,0.03918876568721663,MNFLRQEQPAGMPHISIKLLQLFGVTGSPEERFRILPVMLTYFFFIVVPKCFFGYPDLEITIIGTAELIFQSNTFCGMFWLFLNRHKLAQFITQVRTFSLTVFRESPPAVVQHLTTQHDFIHKITRIYCIVVMFAAHFYVLTPLLSTFYAFYGTVRNDNVTVHYTLQMEENFYGLQTRTTTSHYLIFGMFMTPTIYLCAFTGTVKILSICNITMYCTLYFQLVQLKLRTATEDNTFNRQEVKSIVVMHQDALNCASLVESITSLVLLQQLVLCVMIWSSMLLYFTVSGFDLNFINLLVLFAFDTTETIAYCYFGEQLSNESARVAHTVYESGWETQTPDIQKDLQLIIARAQRPVGITAGKFCYMNMEQLGIIVKTTYSIYIILRDQF,r
CATS,0.3961928243028607,-0.9749864429085712,0.5324831415191691,0.28756747817107475,0.2198550656304359,0.6024491917974677,0.3386092443961559,-3.1571336554495737,-1.4997000102494056,-0.5856277493532429,0.03474748569414343,0.3327817148152231,MNFLRQEQPAGMPHISIKLLRVFGVTNHSEERFRIVPVMLAYFFFIVVPKCFFGYPDLEIMIIGTAELIFQTNSFCGMFLLFLNRRKLAEFIQHARSFSQTVICASPPAVVRHLTTQHDMIHKITRIFCIVVMFAAHFYALAPFLSTLYTFYGTVRNKNATMHYTLQMEENFYGLQTRTSGTHYLIFGVVMTPTAYLCAFTGTVKTLTICNITTYCTLYFQLVQLKLRTVTQDNTFRQELKSVIKMHQDALNCASLVESITSLALLQQLLLCVLIWSSMLLYFTVSGFNVNFMNLFVLFVFDTTETFAYCYLGEKLSYESARVAHTIYESGWETQTTDIQKDLQLILVRAQSPVGITAGKFYYMNMEQFGIIVKTTYSFFVILRDQI,r
CATS,0.09327497948336186,-4.831689012749934,0.10675925952549392,-0.035661678269916175,0.13296397809567695,0.20584622950201215,0.05646710856354242,-23.376467492938527,-0.12860356074591395,-0.5117164642983021,0.021392052938564166,-0.1630495987054894,MRFFLIEKPPGVPHIALKLLRLVGVSQTQSERYRYVPMFVLFLLTIAIPKIAFGYPNFETSIIGLAELFFQTNRFVGVLLLVLYSDSIFELVRQSEFFAKKVLSETSPVAEYLTKMDTQVTKITKLYLTALLVPANFYSYSPIVATLWKYYNTYENDTVPEFTLHMEESFYRLNVREKLDHYLIFGAIMVPISFLCALVGTAKLVSILSLIKYCTIYFQLVKVKLEEVGRSQNYASDIRSAIQMHQSALSCADVLHDITAPIMLLQLVLCIMVWSSMLLYFTVAGFNTQFISLFILFMFDTTETFGYCYLGNQLSDESARVASVVYDCRWEGMPPALRKDLQLIMLRAQRSVGITAGKFCFMNMEQFGEVVKTTYSFFVVLRDQF,r
CATS,0.10773589918351308,-4.738110198110814,0.26386876699835793,-0.5782621058067394,0.38166286857860043,0.23934769327684213,0.2320622728705043,-17.111673908942002,-2.2267146191134186,-1.7329160421143377,-2.3649765825147258,-0.25426983786958535,MTSFKPTDDTDVMPLVLRLLRVIGVWDVPQYRYRYAAVFLSYCFGILIPKLCFGYPTLEASIRGYTELILETNVFAGMLQLYLCYNHFVPLVDELRAFAAIVFQDNQPMLLRTNLTDLNLRIHKYTLCYCLYMCCVCTVYCVAPLGSNIAGYTAAMADTASNSSTTFAFTLYLEQGFYWLDNRTSLLGYCVCTVFMLPLMYLCAYTATVKVVAVFNMIKYCQTVLRIVVLKLRLLKTLPDVRQRSDGMSEVWVLHQRALRCAELLELVLQPLLLMQFVLCILIWCMMLLYFTVSGLNVKFINMFLLFLFVSIETFGYCYLGTQLSQESINVGQALYASGWYEYDVQMRKHISFMIMRSQRRVGLTAAKFCFVDMEQFGAMLNMSYSFFVVLKDAF,r
CATS,0.28932564339739797,-9.689746418234716,0.36291293548934367,0.20947965078353548,0.2361339828115414,0.3010415110931989,0.3370601368093704,-36.82863646702371,-10.802093141895343,-0.3289134606346047,-0.03459893769361799,-0.4544900839263126,MLRLSPEDPKAVMPVVKRLLKLSGLTQETTRFGAINFLNLFIYIAAVLVPKVCFPYPNTEAMIRGLSELIFFTNVYVGFFCFISQHRQRDLLNAIDSFVDVVYPTAAHPSDSPSEQILIKFNVKIQKLSVVFCWYIAVTATFYWLAPCLMTYRSIYMASVSVENGSVQSIQYYPNLEESFYWLDNRSSVYGYATFSIVALLVFTVASYNNATKLLTILTTIKYCNTLLQLVIIEVDNLNHATSNAIDRELKQVIQLHQRAVRCVALLNQTLSFVMTVQLALCILTWCFTLLYILTVGLDVTGMNGLLIMFNMTLEMFGYCFFCTELATTGTLIACQSYEFRWEEHDPKIQKMISTIVARSQLPLRITACGFITVNVELFAKVVKTTYSVFIVLKDFI,r
CATS,0.16135039071720828,-3.5276420559358237,0.2228832299028608,0.1488476285237611,0.1788581527059554,0.19940397231487406,0.05675897013858999,-15.886822808505418,-0.6952405305655636,-0.40519871581782807,-0.15835348382216607,-0.4925947409681435,MLRLSPEDPKAVMPFAKRLLRLSGFRQETEQLEKQIFFNLFVYVAALLIPKVCSPYPDSEAIIRGLSELIFFTNVYVGYYCFVVQHRHYRDLLDEIQSFVNVVYPTSQQPESPSERTLIKLNVKINKISVLYCWYLAAAGLIYWSTPCLMTYHSVLKAKAEYGPNHPIRFYPNLEGSFYGLDNRTSVYGYAAFSIVALLVFAFASYNNATKLLTILSTIKYCSTLLQLVGVEVDNLNHTSSEAIGRELKKVIQLHQLALRCVALLNQTLSFVMALQLALCILTWCFTLLYILIVGFNAIATNGLLIMINMTLEMFGYCFFCTELDTTGKIVSRQMYEFRWEQHRPTVQKMVAMIIARSQTPLQITACGFIPINLELFTKVVKHSYTVLAVLKDLI,r
CATS,-0.024293516996247422,-0.29066937134073273,0.003367606610204188,-0.009509755198496173,-0.08935692800677475,0.005104607765926805,-0.03107311615209718,-0.010789771213095545,-0.08002733796481976,-0.027990035005742264,-1.33026257756259,-0.004277134957415996,MKIWEKYLERKRTLYHAKYQTPHQLFDAACDIVIKCFAVCGGERMKPGYTRRNARLIFLVTDLILYLFVNLYSIAIVWGSLMDVVFCFVTLGIAIQGLAKIEAFTCPELNDLHLYNVARFKAPPRFPEVDEALFHTATMCMVFIRIFAVAFSIVAIAIYSYAILMPLIEHELSLAFGFYLPFVDYRTPVGFAINWVYQFVQVLEGCIGLMACDSCLLVLIMNATGQMDVIIVYLKQLTLLIDNNHTGQHDEEIADIIKEIVLKHLEHTKYMTDMDKLLKKQFFINFGCMIFELVASLAIVVRVPWYPGMAICLICTNQLFINCALGTFLSSKNEKLVEEIYNVNWYGLTTKHQKTLQQILLTSQHPVVLSDGFSPIDLFNFVEIYKKIYSYLMVLQKVS,r
CATS,0.1053266366810028,-0.3157574712729866,0.05255136319148079,0.15084862222915718,0.04251225442433659,0.1372249198107942,0.1434960237492452,-0.38496106261842544,0.01806900156439717,0.027400509170380616,-0.7368303951282908,-0.5024654093529943,MEQEINQIISFLRRPLKWLGFDVIDPNWKVTPLTMFTIVMFALQHYTSYLYLSTHLDMFDMFTECFSTSAVALEIAIRMGLLVHQRELRNETIEIIRQQHKTFGNSAAIRKVTARFHKLISVTLHALAACYMSTMMFELIPIVSPNPRKSNLPLPMYLPYMPHDVTPYWHLNYTFITVMNLMCILFLVGIDGLLVLSILAAVHQIKLLKITIQELDIGAEQAELHRELVRIIQIHQRIQQFIHQLEQTYYIDLLVDFGLVCLILCMGLNVIADEVINAIWFFLIAVVFQLSLLCFSGNLLLIESDSLSSCVYSIDWHAMPVPEQKLLMVMIAHAQKPQVLRGIFMPLIMSSFLSVIKASYSYFTLLH,r
CATS,0.24619301286802794,-5.211254400392205,0.3286094577284052,0.23980700582256653,0.17940828714276613,0.27068616947449775,0.21245414417190422,-24.330637952986702,-0.00013932749162504088,-0.870849154621288,-0.6079177475245074,-0.24672781933690469,MDSNSKKDTFPLIQISTKMLQIIRLWNESSGQRMSTFGVLLIAVFPIMWLIPSWLFIVSSQDNIKRLMKAINEQIVFCIVFLKFSFYAIHFRRWEQLFYDLQRSFSTVVNNPSLEIQTILGHVTKSTHKLTKYYCSIVSFNCAAYGLFPMLFIVVKYAVTGSYDVPLSTPIEGNYFIPGFRTNFWVWLPFNLAQNVVLQCHSFAVITIECFTWNLVYATSCMFRILQIQATELLDRSRDKKEWNIKFKTFIALHDSVLRSARTLEAILSGQILLLYVSTILAVCLGMVVLTLAIEDVYLLLTTFVAFGYCMFQMFSFSYLGTELIEQSEAVADGIFNSKWYEEDVKVQKDLSFVLMRAKKPVRLTAAKLFVVTRDSFTQVMKQAYTIFALMSQFLDDIAN,r
CATS,0.23619015284673156,-2.6469489484466093,0.2542139357405401,0.2076312344561384,0.2891692813448774,0.21192201720657655,0.21801429548552553,-12.193388394849467,-0.029707087311655833,-0.33373304225903033,-0.3693765012848036,-0.3085397165280883,MKPSCKEGVFPLINLSIKLLKIVGFWSKTTGQRISVIGLLAVILYLLAWLIPNWLFIVSSQDNITRLIKATNEQILYFIAFFKLYFYVIHYRRWEKLFYDLQIAFSSVMTNPSPEIQGILGHVTKSTHNLTKYYSYVVNFNCAWYGVFRMLFIVVKYAVTGSYDVPLSTPIEAKYFIPGLHTNFWVWLPVTLGLNVLLEWHSLALVFVETFIWNLVYATSCMFRILQILANELSDRKRNEGIWTVEFEKFSTLHDSVLRSAGTLEEILSGHMLLLYVSTIFSLCLSMVVLSLPIDDFILLLTTFVAFGYCIFQTFSFSYLGTELIEQSEAVADAIFHSKWYTQKLNRQKDMCFLMMRANKPVKLTAAKLFVVTRDSFTQVIKQAYTIFTLMSQFLDNPVN,r
CATS,0.09775617991929161,-57.75196328165324,0.2353758175523416,0.2635310121281971,0.01583654668912038,-0.08534278897734082,0.05938031220413986,-287.95702633873356,-0.13857914295195872,-0.37800214359418516,0.034990978543436024,-0.3211997615298847,MKFFQIDDTREILPIGCRLLMLCGLPRSGRVNRRFWLLCVFFFVFGQIPRFLIKIDEPIALVRVGAEIVYSTYMFLQLIALYARRSDLYRLIDTLQKCVENPYPDDVRAFILITRDTINKSSVMYSKCFFAVCISYIIMPFMATSAVVVRNRRNQTGEREDFYYLDIRFNLLHYSLYFGAVSGLSVIGSLALCTKDVMDFSLIRTASMLFQATAQQIRNLPPGASQAKLEAIIHSHRSTLKCAAQLQNALNPALLIQITFCTAIWCLMLFYILLLGFTSKVMNVCLLLLVLTCETYSYCQLGTQFTSNAEEVLDELQQLARYDQSIPIQKQIYFMIHRSQTRIELTAGKLFPVNIAQFSEIVKKSYSYYLVLKDIF,r
CATS,0.1338508908906618,-9.163669247068773,0.11604842637511659,0.3231347330696376,0.019969092406713518,0.06484351269372424,0.14525868990811708,-42.664793344382524,-0.34692652276020053,-0.1102684551522446,0.08158627717683797,-2.7779441902257376,MLAAETVDFFRVQSICLRAIGIARTDSFRGRVLFAVSFFTVLVMMLGTVMFAFKHIDQIMLLCDCLGPTFTAYLGLVRQYNLLLHRSELWSIVDEFAALKHSLQSSEIRIVQKYNRIDRFLAWAYLITAMSTGVLFVGVALVLVFLSEKSDWKLPLLMDFPFDVKHPVTFTIFFVWCSVAIFWVVLDCVACDSTFGTFSSCLVAHFVIIQERFEGLRFDDGNRELKKLIEHHKYILRISDRVINAYKNVILNQLLISSVLLCMLGFQLVISVGTNIMVVYVAYGMAITIQVTYYCYYGSQLYYESTQVHDAVFKSKWYDASVATQKMLINCMMRAKKPVNAKSGFTQASLPTLNAILNSAGSYVALLMSLME,r
CATS,-0.04763866640394614,-0.4002815328789497,-0.1338860369038215,-0.005140282856324063,-0.03534007232295089,-0.030751935181920098,-0.033075004754714143,-1.4196089523422892,-0.005872646644067059,-0.3301453446093998,-0.1598757740538923,-0.08590494674509985,MSQLNEFPAYQFRLIRFCGVVEQPSLRNNVRCLFAFILLCSFGPLHVWYLAKTPVLDLVVTCEEIMLIQLCFVMLLKFNLFITYRSGMYNLVEAFKRILKCIDKAEFARFVKCSELHAKLLRAYVIGTSIVLLLYELNAIVASITLSLQQNKVCFVTPFSFPFDYQHPIVFALTFLHNFDAMLVTVCTSVTVDSCFSEMASNLTIHFDIVRERFEKLDLSAAQPYAEHQLRNVITYHREVLSLAQKMVQLYQQSAFYLLLLVSTILCLLGYEFVMVSNIYKRMQVAILASIMIGQAAIYTYHGSAISAKSVSVADAIYGTNWYDAPLAVKKLVYICLMRAQKPVIMKSGFIEASLPTLKKILSSSASYITMLMSLEADLNEKKT,r
CATS,0.09731512436873732,-0.6087333449488748,-0.05728073035816994,0.24067769126202532,0.06490069971124024,-0.10609006845783675,0.34436802968642777,-1.9044659942234237,-0.0013869707567617517,-1.0297687271348441,-0.18628368430747821,0.07823865167813371,MMGLSRTIPSWPVLHNISFARASQVRRANMEYIYRWILRDDTFAKEVYIKYNFTKLRTLGIYKDASRTRLARRAGFYALELFFLLQLGTIVWDLATVLGNIGLFGDDMCILAGLLLTLAKKWHCVLYIDELWECVEQMQTYHEHYLLQGEWFVRRMRRQNLQERMLQDASKLLATLLASCLMVNALFSNGETLILRAIYPFSTATTLGYGCVFVCQAFLIVYVLYSMVLIDCIGAQALSQMALLFCMQRKQFELIGADLQLPPEGPLHGDRSIRDQVYSAIASHQQLLSFCNRLKRLYEPNIMAQFVCSMLIICLTAFELMFAKGDPMQMVRFGAYMLAGFYQVFVWSFFGNRVTNMSTGISDATISCNWIVLADGLKKDLRFTTMRSQKPFVIDVYWLFPLTYETFIAILSRSYSIFTLLRTMIE,r
CATS,-0.14782256701712582,-0.3299931910388088,-0.012984001439172,-0.10604761530548279,-0.4781702228846123,-0.12250401366695085,-0.019406981789411137,-0.16321446656045024,-0.004511692132299183,-0.21492027582781748,-0.0948216750616726,-1.1724978456118045,MSCVEDFLDAQMWYLRYCGVFREKSALGGIRLSVCLGVLVVFMVLQSIYIFQHVHHFAMICDAIPTLVVCMVAISKFYIFVFHPAALFALIDSFKALQRRASREDLLLFRRSGAFHAKLTKIYMTSALIVGWFYILSAIVSGISRSLAEGRVHFVAPMAFPHNYQHPLMFALTFLFNCDSIHMSIFISGSVDTCFSELATSVTIHFQLIQRQFQAVDFAARTAEDELEVVVAYHKDVLQLCLAMTNLFQYTVFYLLLLDSVLLCVIGYQFVIFMNTPRVLMLASMAFVMVLQAVIYCYHGSMMYDESLKVADAIYQSNWYEAPPAVQKRLRLCIMRAQKPIVTKGGFIKATLPTLKKILNSTGSYITMLLSLETEQ,r
CATS,0.1818058805418639,-34.55426865593246,0.2054130364218757,0.1538955854956663,0.25518702393684034,0.13709338644264946,0.15744037041228764,-172.88128131813738,0.04540636315261937,-0.21740527324058867,0.16528692578765314,0.11665002277538017,MIITVAPVTDARPQTPEDCGMFKFQRKILLIFGCWPPDRLTRRWYVKVLIAVNLITLAICIVGEFRYCLYAYRNGSLIETIESICPTVARFSGLLRMCWFLRNEHKIKSALNSVVHLIKNEHPRETGYTNRITARDQTITKVLFHSSFITAILYGIIPYFMMAYNWFQGQYPLVKLLPFKVVLPFDSQDPTLFVLTTIFLNYASVPTITAMTSTDALFSGVCLYMDGQFQAIRLELEALAETVDKYTLKSSAAETLRINLELRRINKRHQTIIDVVSEVRHAFTPTILIVHICAAFMICVISMAMFLAEGINKLTYMPYTFTVLMLLFMYSYGGTVVRESSEAIQTVAYGFPWYQFDRNTRHLVQMMMVRAKYGCNVDVPFFQTSMATFSVIVRSAMSYITLMKSFL,r
CATS,0.08337553185938522,-2.4952443479466355,0.001518230932440745,0.11731492165373403,0.08087224843786722,0.03820784005438638,0.17896441821849773,-10.396177133610797,0.038366770953654594,-0.6290024666133269,-0.2227522624660072,-1.2666566479967005,MVSFGAAASNPRDAETTPHWDIFKLQRKILLIFGVWPADRLVRPWYVKVLIAINLATLAICMVGEFLHGLYAYQEGDLSESIESICPTVARISGFLRMVFYLANEEKIHRVLNNISKTLQDEHPREHTITKQLTTLGQQFTFYLFLMMFFAACLYGVTPFFIMIYNWVQGQRPLVKLLPFKLALPFDSQNLFPFVVTTLFLNYASAPTITSQSGSDALFSGVCLYIYGQFQAIRLEVEALAETVDRNTLKSSAAETHRINLELRRISKRHQAIIDLVSEVRSAFTPNVLLVYTATAIIMCIVCIAMLVVEGIYKLTYLPYAFAELTLLFLYSYSGTIIRDSSEAVQTVAYDFPWYRYDRNTRHLIQMMMIRAQYGSNVDVPFFETSMASFSAIVRTASSYITLMKSFL,r
CATS,0.18383890362058378,-1.253506635293845,0.2766374207825314,0.29621741299003224,0.15119144680812124,0.11252244442792148,0.0826257930943125,-1.7436680023562663,-0.21779553925062567,-1.522568921768484,-0.23706842191095268,-2.546432291182897,MSEHPIHTFDRLIKRQRLLLKLIGIDSYDPAFRIHSLTFMLVCLALTFFVISLYDLYLFRDDLFNFVYVLITIFFATIGIGHISVFLLCSKLLAELLEQSYRTYRLVVDDQREQRILQWYTRLFQRAVDGYTLVFIGTSVAAGLLPLAIYLLSGDRVLPYGVVLPFVDPDSLVGYELNYIYQVSCIIWTPPGLVASVCMLFGLVLNICIQYDILAVKLQDLDELIRSPHPHRDAMIGCKLRSILRNQQRLISFIANIEAAKNVHSAVEVLSLGLQIVITLFVLQFSLWIPGLVLIPVFTMQLFLFCLLGTIIEDKGVKFSAGVYSLTWNELSKQDKQIFRLLLLSSQQPQTLTCAGMTCISLNLFVNMSQKFYSIFMMLRNM,r
CATS,0.14125623928375536,-0.47317774440407645,0.22471026652514703,0.3516409675727191,0.03419648943638032,0.19049546931999461,-0.09476199643546424,-1.5831324834095568,0.04245857967118505,-0.605363995779679,-0.18763613239514343,-0.032214690107187804,METHIGKQHSLERFQAMVAWQNRVLALFGCYMYLGKERVSYRIVPICFMACSFVLLSLYSAIQARGNMGLAVLSIVVLFYGIIGVTRLAVAISNPAGCYRSIQIAEEMYQRANGSNPAECNVLAKYTDLFCKSVQLYTVCFVLSVVVLTLMPFALYLLRGERYLPLGIVLPFTAETDDFGFWCTLVVQLAYMYTGPFGLIPSQNIYFAFVFNICLQYELLIERLKQLDERIRSSNNLKLTVRDQLVKIIQLQQESTNYITHIERFYQLQSFVEFLCNSLQVALTLNELHRNFWLPGLFILPIAVMQMLILCSLGTLIELKSDQFKDQLYDIAWPEMDLPEQGMFKYVLKSAQQPKQLTCGRFAVINMNLFLAIHKKIYSFFMMLQNM,r
CATS,0.12952603502027688,-0.34313572340367376,0.11296722955617011,0.07877378659674683,0.13119376192982557,0.035598274843475775,0.28909712217516614,-0.2913262055642891,0.11528512573730898,-0.8663092740139882,-0.23034832120847004,-0.4429799419689304,MTFTLSHDLYVYNLHLIRWFASFVGLDIMAPNYKPNILTFLAFFGLSISLIGEVYTVWYFWPILDKLMESAAIFGVFIQGLAKFYIALRYRKFFEAMYNRLDLFHYEYRNHEKNNATLLLLMNRICLLRKLITSQFSISILTLMVTPVAQYILKGERFLVYTIILPFTDPEITSHYLLNLVVQYYLLIVGLAGFSAAESVLILFVTSVAGYADVLKNKINEMNTLLLDAQNSRDRTSVKLKLREIVLLHQRVLEYEDDLDKRYYLNNWVQVASSIFNLTGALFGCYVSNSFTMYALAITIVIQLFELCLLGTILSIKNEEIEHAFYDSLWYLMDHSEKKDFLIMFHKCQHAKEMTVASMAPLNIVLFIAIMQKIYALAMMMMRFSE,r
CATS,-0.018706529104176785,-0.5382178089039222,-0.10026979609994413,0.09585418749899588,-0.1291344387800153,0.2122374741724551,-0.17222007231237546,-1.715751657374767,-0.016454356836039796,-1.0724310520795917,0.04926438939110667,0.0642836323796806,MTFTLSHDLYVYNLHLIRWFASFVGLDIMAPNYKPNILTFLAFFGLSISLIGEVYTVWYYWPNLVKLMESAAVYGVFIQGLAKFYTALRYRKFFEAMYNRLDLFHYEYRNHEKNNATLLLLMNRICLLRKFITLQIIGCILVLSLNPVIQYIIKRERVLVYAILLPFSDPEITSHYLLNLIVQYYLMIAGIGGFAAAESVLILFVTSVAGYADVLKNKIDEMNIILLDAQNSRDRTPVKLKLREIVLLHQRVLEYEDDLEKRYYLNNWVQVASSIFNLTGALFGCYVSNSFTMYALAIAVVVQLFELCLLGTILSIKNEEIEHAFYDSLWYLMDHSEKKDFLIMFHKSQHAMEMTVASMAPLNIVLFIAIMQKIYAYAMMLMNFFE,r
CATS,0.11891495327757953,-1.2277939879285888,0.24449474198042398,0.2629592143536834,-0.15792451632999804,0.0225836782627038,0.2224616481210845,-4.460414004745465,-0.18861283081243263,-0.5023517288812451,-0.1989817282148223,-0.7886096469889794,MPRATSNSAANLERLVIRISSHMAVLKLNIIDPAWRPTLRFGIVLFLTALVPVYIWQGIKVYRTRFETLLEVLSVAGCGWQMFFRMYFYLFQQDRCRQIVQEVRDQRTVYGADRNPRMEKLFRAGTKRMLLAYRVIHLMYGTSYFFQLGPLIMPDPHKCNLPLALQLPFLPPDRNMVYYCINYAHHLLLNTIGVFILLPMDGVLIVALLNICTRIAALQLLLEELDAKLGTVQWQQTAHLDAELNRIIELHIDTKRFARVIYETYQMHFFSMFSVLCFVICMCMNVVARDPRSTLIPFGLASTGQLFVICMLGNVLYIVSDRLKDSVYGIRWYRCTVSQQKRLMFLLANAQPEIVMGAVFIPVTMTSFVTIIRAAYSYFTILY,r
CATS,0.03190814277742719,-0.5989540943867344,0.08330916938520838,-0.056807339935367684,0.0832282839088937,0.11368477880563899,-0.0638741782772374,-1.1421917803476314,-1.1636586177761399,-0.4485161224083878,-0.20971509157158774,-0.03068885982992553,MVVFEPLDDPLKVLPLPLKLLALLGVNKNPSERFRLYAIYIYLWVAMFIPKLCLGYETIPQCFRSIAEGMFSFNTTVTFIMLPLKMDNFEGLLQNLQRFTQIVTVEEDYKQILISLNTTIHKFTKFYFIFTNGVVFSITGSTIAGMLYTYYTKDSEYSAAFPLVMENRFYVLDSHYNLGHCFVHQALMFFALYILLVMFTAKAGTLFGLIRFCSTVLGIIVLKIERLSQIGPVDQYTAELSEIIELHQLVIKCSRQLQNILMEILLAQFTGCVFIWCFMLYYVMISGITAEGIAVGAMLIALSTETFIFCLLGNELTLKGLEISTAMYSTNWYDQPVKLQKMVVPIIQQSQQRIGITAAKFYYIDYNRYGQSLKTAYSFYLLLKDIF,r
CATS,0.162857308463124,-12.106355080558094,0.2225582453590228,0.29638385246932963,-0.00015927225808609613,0.1453682242833656,0.15013549246198798,-59.50390208182505,-0.15298181772084063,-0.2912708177452612,-0.39744383951791407,-0.18617684598140238,MVNLFARTPADNFRVMPYNLRLFAMLGLWGDRRKLYRLYALLLLAYVAIIFPKPVRITDRHPFESIVRSVSELIFAALCYLTIIILAIKSEPFRAVIRKMEQALELFRDKQDQCSQLIIEVNANIHRFSLGYAKLNLLYVLLFNVIPPIYNYPRYFLQWRMPEDNRTVEFMLPLMQDLYGLDVHHNIVHYTISWVAITPFCVFCALILWFKGALFMLIRYNTLLYQLVNRLLQQYDRESAGGLLAQKHRRLQQIVQLHYRAIECTKLLDSILSLILLIQCVGCLLMLCLMLFYITRNHSLNVINIAVLLMSIFIEMMCFSYLGNQLTEENANISHSAFNCRWYDEPIVIRKYFLRIILQAHRKATITAGKFYNVNIVTFAQLIKTSYTYYMIMKEMF,r
CATS,0.25839237321972913,-2.0878118272110546,0.4703380413638165,0.12661007933924662,0.19051055226216795,0.26420337858785437,0.24029981454556015,-9.2498559291232,-0.2779559245993364,-0.2862738864434009,-0.223570394313227,-0.40140300157610787,MLSLRPEDPKAVMPFAKRLLRLSGFSPGTEQLGRCIYVNLSIYITVILVPKVCFPYPNTEAMIRGLGELIYFTNVYVGFFCFVVQHRHYRDLLDEIQSFVNIVYPTSQQPESLSERTLIKLNVKINILSVLYCRYIVVAAFIYWMVPCVVTYSSIHKAEVSMGNESIQSIQYYPNLEESFYWLDNRSSVSGYAAFSAVALIVFAFASYNHVTKLLTILSTIKYCSTLFHLVSIGIDELNLVSPAHIDRELKKLIQMHQLAIRCDVLLNQTLSYVMALQLALGTLTWCFTLLYILIIGLDVTAMMGLLIMMNMTSEMFGYCLFCTELTNTATTISQQIYVFQWEKHSPAVQKMVAMIIARGQAPLQIKACGFIPINLELFAKVVKTSYSVLIVLRDFV,r
CATS,0.05156799227393072,-1.171009123559116,0.16058204650455032,-0.03259107411479922,0.007205137649217486,0.06306016006095105,0.05958369126973395,-4.7182075968916,-0.0003474563626795213,-0.7395779753273839,-0.36567129688491384,-0.031241292329002857,MKLLELDNPREAIAIGCRLLKLFGLGRDERFKLVYWLQCVAYLAFSIVPRLLVEIEDMVALMRLIAELVFVVYLCLQIMALYCRRRQLYRLVDMLQQCIDIPYSEQIESFLIRSNVKINQSSAAYARFFMCVYVLYCTMSPLASGFVYIRNQRNATGVQEEFIITTEMNLYDLDIRYNPLHYSIYAGLIFVLSAISSLSLCTKDVIDIAAIKTVTLVFGIVTMQIRDLHEQITQERLNRVIKSHSNALSCATQLEQALNLSVLFQFASCSAIWCLMLFYILLMGLDSRVLSVVLLLVIVSIETYAYCMLGSQLTTQGEDLLMALQQLSWYDQPVPIQRQILLMIRRSQTPLILRAGKLFSANVVQFGDIVQKSYSFFLVLKNVF,r
CATS,0.010340621719736865,-1.077276688470933,0.08347571314889213,0.08058506069338667,0.08970931204060528,-0.23752711677476124,0.03546013949056148,-0.3784155805988396,-0.12618009333594093,-1.0793437795952157,-0.0974907713550821,-3.704953217469587,MYYLEQLRALVRRYLERRSPDPRIQHTFIVQSINRVGGMLGIDIFTPGYSSTNLLLRMVLLNTFTFFWINLYSLTTTYGNLVDFMYSFETLLYVGIACIKMYVFIKNKTLILQMHQYMIDFFDHFHGDREQDELLVRTLNNTTLLSSLFAVCSSSAPGLLFVGSLLWSIAVEYVLPFGFFIPTVGMDTLQGYTLNYGFQMLETTLMVIGIISSESAFFMFQQNACLQVDMLRYSKSMCSLFELHFFIVFGCIFFQLVSNVVVIVSVPDWYPGYFLFIMLTVQLFFSCALGETFNIKSDELTVAIYNVPWYNMEVRDQKAMRLLLMASQNPGRLSYGFGTVNMRAFFEIFRKTYSIAMMMISVNEEE,r
CATS,0.23840988604865654,-21.096367211103576,0.33411454914531835,0.30809807946910794,0.14300501417003453,0.21661335731708187,0.19021843014174,-103.80827895621512,-0.6836055876407081,-0.6489458934870345,-0.17617041343354556,-0.16483520474147695,MDIVSKQGEFPLVKLSTKLLRIIRFWNDSPGQRIPSLGLLVTAIYPLIWLIPSWLFLVSSQDNITRFMKAANEQIVFSLICCKLCFYAIHFRRWEKLYYDLQRSFSTVLNNPNLEIQTILGHVTKSTHKLTKYYCSTVSFNCAAYGLFPMLFIVVKYAVTGSYDVPLSTPIEAKYFIPGLRTNFWVWLPVDLTLNAILELHGFALVFVETFTWNLVYATSCMFRILQIQVNELSHQSRNEKEWNGKLKTFIALHDSVLRSAETLEEILSLQMLLLYISTILALCLGMVVLSLAVNEVYVLLTTMAVFGYCIFQTFSFSYLGTELIEQSEAVADAIFHSKWYTQKLNRQKDMCFLMMRANKPVKLTAAKLFVVTRDSFTQVIKQAYTIFTLMSQFLDNPVN,r
CATS,0.21111962238681165,-10.762262206402905,0.33650103440800927,0.15662525418881434,0.31236571930660306,0.1557962185737497,0.09430988545688179,-52.09561628689945,-0.0726273842832883,-1.211195742321828,-0.3668204068785328,-0.06505121163143412,MDIVSKQGEFPLVKLSTKLLRIIRFWNDSPGQRIPSFGLLVTAIYPLIWLIPSWLFLVSSQDNITRFMKAANELIVFSLIFCKLCFYAIHFRRWEKLFYDLQRSFSSVLNNPSLEIQTILGHVTKSTHNLTKYYCSTVSFNCAAYGLFPMLFIVVKYAVTGSYDVPLSTPIEANYFIPGLRTNFWVWLPVNITLSAMLELHGFALFFVETFTWNLVYATSCLFRILQIQANELSHQCRNEKEWNGKLKTFIALHDSVLRSAETLEEILSLQMLLLYLSTILALCLGMVVLSLAVNEVYVLLTTMAVFGYCIFQTFSFSYLGTELIEQSEAVADAIFHSKWYTQKLNRQKDMCFLMMRAKRPVKLTAAKLFVVTRDSFTQVIKQAYTIFALMSQVLDDTMG,r
CATS,0.07408144076733976,-0.7644147353924765,0.057854693331049645,-9.607135032752012e-05,0.13908503024483476,0.06234182975259672,0.11122172185854518,-3.3151173175036472,-0.054104901053800614,-0.08262163637850839,-0.16031098347382877,-0.2099188385525983,MFSASAEMEWFRQQRHAICHLREGSDYLRYLRPFQLIAGYPINPRPALSKLATVVRLLAYLTYLGTLLHKISYVLYRPEDINYVSFVSGGITVLVAVLLLMLIFTVHYDAFQQLGTFLNDRAFARDHPLATGIRDRWYRWSNGLILGPQCCIVLILLQTWISRQHLKKHTMLVVRGEPVGTEFDHFLYMSCLYFPTVGFFMGCSIVNAMLVGFLGEMELLATCLGELFETVERQVKEEGPTGRPDSRALYWSTLHGELRRCAQRHCAIFTMLPKLQRMASFVFLQHHIFSLGLVVAGSYVTLRGPALRENIVLSEYPISVVLEYFIFCQLVEKLQDMNRSIGDRLYGTEWMLKLQYSRDFQREYRSAALTIRLLIMRSQHRVRFTCGSINPVSMEKFTEFLNLSYSIVMFLLSIN,r
CATS,0.16700679125587967,-0.9786747301198921,0.15985964976300016,0.22193306102742483,0.21524707723246173,0.0816451137000479,0.15634905455646375,-2.4838186830080398,-0.00021537587609588016,-0.5682078232663232,-1.782746997691984,-0.05838477075701709,MWHHQVQLWFRFLLGRFTTFTDSSDYFGLYKTLATISAIHYDASCWFDRAIWIVYRSLPILVNISYFYKAYRLILFPEDNTSAASVIASVWGFTEGTLRICLIELRYGTLASIMSFLNERSYRQQDSLVRQQRATLFGENNRIQLILVATMLMEAIWFMTTQLFSRDAFMLQVNGHVVDSIAVQILYGLLSNVWGLIYVLSFAIFYIIMNTLHLEMSILLDGITSVQFTVMRRLKQRMETLAASGHSSTQVFWSILQPELNSHISRHVDLLDNLKEFSSIVGPFSFVQYYGTLALIADCGFILSIEGLSANGMIYLLFVTVLVFQSFILCRGIEKLNDLNEAIGQALYSGFDWPDMLQYDQRFRRQYVTVRHTLMLVIGRSQKGFQCSYGGLGSISMERFAQLMQKSYSLLTILLQFAK,r
CATS,0.018974747531360747,-1.4820305914497278,0.021478042555599153,-0.024062532173217077,0.05555344718902344,0.0028499359414065895,0.03905484414399163,-7.018652869294478,-0.0042354634148569215,-0.38600901772642615,0.004008075094953711,-0.005263681907832662,MYLTQLFASMRTQFLHRITHYTKHSDFFIMQRYFEKIYAIHYTPHGWHDRILWYLYRALYGLIYLSYIHKTHWVLHHPQDSFSTANILGVMWFFSVVILRVAILEWYYPLMLRMQTFLNNHTSYQRTDPWAVGRRARFYRRTNRVILTVMGINLAETVCFTATNVMKLDEFMLQFRGAIVGGWPVQIVYGVLTMGFGGMYCMGFMMCYLLLSIFKLEVDILIRSLEEVERSDRLESDFGDSADIFWNNIVDQLRPHMQRLDELFIQLQHLKAVIGPIAFVQYYSTYLIIADCCLILVSHGLSSFSIVYFISMLVFLTESFLLCHGVENLRDLKPRIASTVYDFDWMLQMRCPNPRHRAQYRHVRRTLLLLTAQSDQTIQFSFAGIGEISMNSFAQLLEKSYSMLTFLLQFAK,r
CATS,0.03100777844232705,-1.0535980739640187,0.07733259609295418,0.16116854676611014,0.10637973260821854,0.05441063823751502,-0.24425262149316262,-3.6715116429920442,-0.28391977240812016,-0.10863704801874752,-0.9947023032642737,-0.20921960313690802,MFHPSRWMAKCRVWYAATFKFSADADYFFLVQPLCRSLQLFGNPVRCLQEFGTVRGLFVQLCRFLFLLPYASFALKSYWQLNHPLDTNNSILTYGSFVIYMLWAILIWVLNHYEHEMCELRLFFKNPTYQEQSDWAHRIRAGNYRRWNWMILMFYLFNVINVSIFTLTNAHNRQFHFQTRGEVVGPLYFQIIVEIFTGYLSLGYFVPSCITLMTLQLFRTEMHILTTTLKQAANEEQQQQQHQHAVDIRCAYRSFCKQFYANIRRHTELLQSIATFCKVFSPISVVLYYGALITITCTCFYVMKHDVSTTTVCYAGFAVYMLFNTLLFCKSIDSVNDLHTEVGYIMYSEYWPATLQYADQGLSTETLRPLRRSILIVLQQTLRPLRFGYGVSGSLSMQRFGEFMQQIYSLIMFLAQLN,r
CATS,0.16582996746027853,-1.2169702232625088,-0.005762449003424708,0.3043144642114787,0.108837446151402,0.30613947579936696,0.11562090014256976,-3.1086220982382438,-0.6857460423117236,-0.3191788474472741,-0.16202390028308367,-1.8092802280322178,MVKFFRCCKARVSPELLSKKNEKPEAFLPSLRMILFIFRMFYAWPDEQSLAPNALWWYRAKGVLFRTFFIYLSAAAQLAYNFTVTSREELFAGMFVLLTQLVLILKMEFFYKNVSKIQQLIRRLNGKRYQQSGNAEEDMPLVSARKKSTIFWTLYFMFSVGLATEWLVISLSLTTLIVPVWPVVDHTTPYWVYLMVIFHQYVAIALNASFNISWDSLVAALFALTNAHLHRLQIQLMKLGHRKHLHPPKDAKRRMIAVSSFDDNARSVPTKSDADEVYNELLQCIIFHQEVTGFLREVLDLFSGPLLAQLYCSVFILCITEFRLLTDVNTMADTVQAVIYLLCLVIQVAQYCYFGNEINYMAQKVHRATAFVNYPDMNIKCRKLLIAFQQITAVGIKCSAKYVFTIQLSMETFVTILKTSYSYLAVLRSMTD,r
CATS,-0.006361452062037132,-0.3218857803120044,0.1364686425136823,0.09690269752989089,0.010733835945824,-0.24513947713681317,-0.030772959162769675,0.2080595141355197,-0.05507494567411286,-0.572918976700389,-0.36728964765216054,-0.8222048456688791,MEASEKFSQFERYIRTLCNIIGFDVMTETWKKSYRTYMSIFLCSQYLILMVYSLIIASDTFELFKSLSFLGFFFQCSLKMYYTIQQAPQYAVNFCCLKEAIYERHSKGTLAQKTTVARIIDLLVLVTKAISVLYTSSLFIFSLYPAYMYFVVHVKVPIFPLYIPGINIYSAYGYGITNSFHMLIAVYGLFGALTSDIVFIMFVVHFVTYGGLFKIECEQFDQDLSGVFQHCEWRTAVYKTFCRQRMRAIYQYHQSVIFYLESMQECYRNICVVQVASCSLSTVFNLFLALTTDWYATYGFIVISVFQLFVYCLMGTVMQIMNERMIDYISNLPWYMLPTEEQKQFKFMLARSQLSAEIMIRSVGPMNMETFTDIMQKMYSAFAMMYSFLVDLG,r
CATS,-0.09584586766899579,-0.3792096685337857,0.0551053968100097,0.055122960192426684,-0.35943297220332204,-0.4331587552106926,0.2031340320665993,-0.04076222287165421,-0.24528058010677034,-0.1508936488758872,-0.00967471602744907,-1.4494371747871675,AgOr67,r
CATS,0.027236210663613526,-0.36325885696145155,-0.0017478078289265842,0.02043558804444845,0.06558811856110147,-0.017233211017794625,0.06913836555923891,-0.5392444268810965,-0.5038170382311964,-0.45107288371250953,-0.282466278965275,-0.03969365701718042,MANVEEFRKLMKSLIVCSKVAGVEMWTAPGKLKPASYYVSFHITVYFVSTVWTLRKYIDDPIHMMKVLITMGTAVQLYIKFFVAHSKAQEVKLFTVELEQEVLKRYQNGSEEETAVLRRTGRILWIVHRLMSASYIFVAVAFGLYPAFYYFATGKVMPLFLYELPFFNVSSSLGYAVTMGFQINLLAIGVLGAILSDFMFFMYAMYAMARADISIVHLSELENILNDSTKNEEHSANVRHKWIQCMHDHQQSTSFFSTVENIFGLMCLAQVSTATLSICDAMLLVLLTDWYPTYSYLYVVFVQLSGFFVIGHLVELKIDALYNKIISMPWYRLPVKEQKEFRFLLSRQQCPMILTAYGFHPMNFEAYMSVLKGLYQFFVMILQYIGRN,r
CATS,-0.0016496328009036887,-1.5769569310788465,0.01388347557355385,-0.03099572118348215,0.06104481585289301,0.015721928825561227,-0.06790266307304438,-7.5099491795632805,-0.06098608513549264,0.018880378398649866,-0.14003245474267345,-0.19269731435143456,MTVVHRIVSFGYNLLQRHFNVGHPTEQFFLLRCLDVVSPAMLLQRPRSNLEVALKTLCLSVMVAHTIALAYDFSQQTDVRLAMDMLCMLSLFVSIILRGTCMRQYLAHINALDRLERRPTFRIGTPYADESRRNVALQNSRYLGVALVFHSLTVTVYVIQNMVRENSFVKIITSFPIDLSERAPVLERVADLCYSLVGYVWGWYHGATQLTIIVLLRYAITEFRVFLHSLDSLDDQLQQRREQSQGAPDEERILRELLYEHARHHSQLIVVVTHLRTLLRNYSLVHFSFYMIIVATFMTRVLIIPGRSSFGLAIPLLVTTIYFLETFGMCMLVEMLVQLNRKVSTSLYGFSWPQYLRYGRTIKRPMMLMIMQANMTKDFSAGGLTTVSAELFAKTCRMIYTMMMFMANMAT,r
CATS,0.05944716840217919,-0.624380586149844,-0.02101174033655062,0.07494648375727175,-0.0026512351832421732,0.06878201634080017,0.1771703174326168,-2.634703266359112,-0.04974451565611182,-0.6394563061786676,0.12755491609282543,0.07444624135184497,MTVVHRIVSFGYNLLQRHFNVGHPTEQFFLLRCLDVVSPAMLLQRPRSNLEVALKTLCLSVMVAHTIALAYDFSQQMDVRLALDMLCMLSLFVSIILRSTCMRQYLSHIDALDRLERRPTFRVGTPYADESRRNVALQNSRYLGVALVMHSLTVTMYVIQNMVRENSFVKIITSFPIDLSERAPVLERVADLCYSLVGYVWGWYHGATQLTIIVLLRYAITEFRVFLHSLDSLDDQLRQRREQAQGAPDEERILRELLYEHARHHSQLIVVVTHLRTLLRNYSLVHFFFYMIIVATFMTRVLIIPGRSSFGLAIPLLTTTIYFFETFGMCMLVEMLVQLNRKVSTSLYGFSWPQYLRYGRTIKRPMMLMIMQANMTKDFSAGGLTTVSAELFAKTCRMIYTMMMFMANMAT,r
MordredDescriptors,-15671325292.379705,-30058223316.625732,-0.04692381403075818,-0.04274046059776082,-5666.247580585384,-78356620795.5612,-8.375960497297719e-05,-12.115613914416866,-150291116570.73587,-0.05780397743503429,-0.20239020421905463,-0.01700307313618077,MKLNKLNPRWDAYDRRDSFWLQLLCLKYLGLWPPEDTDQATRNRYIAYGWALRIMFLHLYALTQALYFKDVKDINDIANALFVLMTQVTLIYKLEKFNYNIARIQACLRKLNCTLYHPKQREEFSPVLQSMSGVFWLMIFLMFVAIFTIIMWVMSPAFDNERRLPVPAWFPVDYHHSDIVYGVLFLYQTIGIVMSATYNFSTDTMFSGLMLHINGQIVRLGSMVKKLGHDVPPERQLVATDAEWKEMRKRIDHHSKVYGTMYAKVTECVLFHKDILSFGDEVQDIFQGSIFAQVCASVIIICMTLLQATGDDVTMADLLGCGFYLLVMTSQVFIFCYVGNEISYTTDKFTEFVGFSNYFKFDKRTSQAMIFFLQMTLKDVHIKVGSVLKVTLNLHTFLQIMKLSYSYLAVLQSMESE,r
MordredDescriptors,-17518222.625163388,-460552338448.6966,-0.021440626862892387,-0.013723073746224168,-87586199.6272342,-4913.425348973914,-0.03807006936553159,-19.758688428564273,-2302761692219.527,-3.898439653724214,-0.2731320321967208,-0.02576763912253921,MLIEECPIIGVNVRVWLFWSYLRRPRLSRFLVGCIPVAVLNVFQFLKLYSSWGDMSELIINGYFTVLYFNLVLRTSFLVINRRKFETFFEGVAAEYALLEKNDDIRPVLERYTRRGRMLSISNLWLGAFISACFVTYPLFVPGRGLPYGVTIPGVDVLATPTYQVVFVLQVYLTFPACCMYIPFTSFYATCTLFALVQIAALKQRLGRLGRHSGTMASTGHSAGTLFAELKECLKYHKQIIQYVHDLNSLVTHLCLLEFLSFGMMLCALLFLLSISNQLAQMIMIGSYIFMILSQMFAFYWHANEVLEQSLGIGDAIYNGAWPDFEEPIRKRLILIIARAQRPMVIKVGNVYPMTLEMFQKLLNVSYSYFTLLRRVYN,r
MordredDescriptors,-148812866722.9851,-101177109106.39172,-0.10816014001044216,-0.004175470516889712,-204046461624.1033,-540017871990.60706,-0.10272343013211582,-1.9584921489235319,-505885545528.86255,-0.5725803189960983,-0.15847006422311938,-0.4065277476691431,MVLPKLKDETAVMPFLLRIQTIAGLWGDRSQRYRFYLIFSYFCAMVVLPKVLFGYPDLEIAVRGTAELMFESNAFFGMLMFSFQRDNYERLVHQLQDLAALVLQDLPAELGEYLISVNRRVDRFSKIYCCCHFSMATFFWFMPVWTTYSAYFAVRNSTEPVEHVLHLEEELYFLHIRTSMAHYTFYVAIMWPTIYTLGFTGGTKLLTIFSNVKYCSAMLKLVALRIHCLAEVRQDRAEKELNEIISMHQRVLDCVFLLETTFRWVFFVQFIQCTMIWCSLILYIAVTGFSSTVANVCVQIILVTVETYGYCYFGTDLTTESYSVALAIYDSEWYKFSISMRRKLRLLLQRSQKPLGVTAGKFRFVNVAQFGKMLKMSYSFYVVLKEQF,r
MordredDescriptors,-106858956122.36234,-31776653412.475758,-0.0312993943280504,-0.032037924475205815,-148811915949.3664,-385482864662.3432,-0.03876351426065372,-16.437309363818937,-158883267044.03006,-0.7444862206788931,-0.02243513936021846,-1.1444939597065673,MKFELFQKYSSPDTVLSFVLRLLHIVGMNGAGFWSRIRVGGIFLFYLIFLVIPPLTGGYTDGHQRVRASVEFLFNCNIYGGSMFFAYDVATFQAFIQELKSLSILVCSHSYRLKYKLTRFNRRADIISKVQTTCMGAVTLFYWIAPIPSICAHYYRSTNSTEPVRFVQHLEVKFYRLENRTSVEDYITFVLIMLPVVVMCGYVCNLKVMTICCSIGHCTLYTRLTMEMVEQLESMASAERTASAIRNVVQMHTGLLKCIRLLNTSIRSMLMLQWLTCVLNWSISLIYLTNVGISLQSVTVVVMFFLATAETFLYCLLGTQLATQQQLLEHALYATRWYNYPIAFRSSIRMMLRQSQRHAHITVGKFFRVNLEEFSRIVNLSYSAYVVLKDVIKMDVQ,r
MordredDescriptors,-10262.29304222051,-3087.1039026168078,-0.011427508373162532,-0.0027277761421429236,-872.8475955648775,-50438.59116255575,-0.01229769741056308,-0.5685563666350513,-15434.412136501862,-0.21177418096854006,-0.10774236829112116,-0.2193036662813066,MVLPKLSEPYAVMPLLLRLQRFVGLWGERRYRYKFRLAFLSFCLLVVIPKVAFGYPDLETMVRGTAELIFEWNVLFGMLLFSLKLDDYDDLVYRYKDISKIAFRKDVPSQMGDYLVRINHRIDRFSKIYCCSHLCLAIFYWVAPSSSTYLAYLGARNRSVPVEHVLHLEEELYWFHTRVSLVDYSIFTAIMLPTIFMLAYFGGLKLLTIFSNVKYCSAMLRLVAMRIQFMDRLDEREAEKELIEIIVMHQKALKCVELLEIIFRWVFLGQFIQCVMIWCSLVLYVAVTGLSTKAANVGVLFILLTVETYGFCYFGSDLTSESLSVARAAYGSLWYRRSVSIQRKLRMVLQRAQKPVGISAGKFCFVDIEQFGNMAKTSYSFYIVLKDQF,r
MordredDescriptors,-21764478876.580025,-467961069019.77734,-0.05751411165650322,-0.8120261372920483,-32637100469.307034,-76185293912.69441,-0.02914588485337366,-43.81884019315494,-2339805345054.7793,-0.015892795363880552,-0.06514052093801026,-0.2072980041930843,MVRLSFEETLRNTNLMLLMMGIPPCEEPYPPGVLPSLKRNAGFIASFLLLAYTTIGELIYLKQMFERDVTFLEVTFQAPCIGYCTIGVLKMVILARGRNTIAELVGLFRAKWTSAIVTGAHWAVCEDTMRPAIRVTSVTALANVVMGIAFTILPIAEMIYTHHYTGRWNRQLAFNIWWPFDVLGGVKYYWFVYPLYVVIGFTGIIIHMAFDCLFCILAAHLCMQFRILAHNFGHVVEVANGAREGDSGSTSRLRDAIRIHQELIGCSVFMQNVFGNALFINFLGSSIIICIQAFMITTVSGYMLVKFVLFMLCFLIELLMLCAYGEDIVESSLGVIDAAYGCEWYREGSVAFHRSVLQIIHRSQQSVILTAWKIWPIQMSTFSQILQASWSYFTLLKTVYGNK,r
MordredDescriptors,-15.862740779588426,-3.3111933047153004,-0.08816003482299761,-0.010478534222695846,-61.55412856725117,-17.65554546239965,-0.0053912992456179865,-3.9643631300784508,-2.1963138627472096,-0.1087657175409944,-2.902988582961147,-7.3835352302487,MDPPTDELVRFESFIRVPEIFFAMIGVARYGEPKRTLRAYLKHLLFWSSCINTGYCLVIEHIYFVKAAGNFTNFLQLTALAPCMGFTALSFVKIMTIKLNETKLTDMLHRLDALFPSTVALQQRYGVYQYNRESQVVMKSFSILYMILIWMFNLLPLVSMVVGYVSDGTWHKQLPYFMWYWYDWHRPGYFEVTFLHQNWGGFVSAVFYLSTDLMFCAIVLLLCLQFDIVAYRLSHALPDDHQELVGCVRIHQAVIELCNELEHMFSPSLLVNFLSSSVIICLVGFQATAGITPADLFKFVLFLVSSLVQVFLLCYYGNKLIVASSQIPYSAFEGNWIGASGSYQRSLLFVMLRSTTVQKLTALKFSIVSLASYSKILSTSFSYFTLLKAMYEPNEKKMK,r
MordredDescriptors,-76466688415.26553,-299696469417.4584,-0.007052026133584244,-0.013448624615134408,-59365333236.23675,-322968108840.0592,-0.01121849487308535,-109.50255680445889,-1498482346976.4924,-0.6578546840974633,-0.5719289285484017,-0.06711743169455153,MVRLFFSKTRVTKLFTRKDERPEMFLPSLRMILFIFRMFYAWPDEHLEKSALWWYRAKGVLFRVFFIYLSAATQLAYNFTVTSREELFAGMFVLLTQLVMILKMEFFYKNVFKIQQLIRRLNGKLYQSRNAEEDIPLASARKKSTIFWVLYFMFSDGLVTEWLVISLLLTTLIVPVWPRVDHTTPYWVVLMVILYQYMAIVLNASFNISWDSLVAALLALTNAHLHRLQIQLLKVGHQNRNLQVDANKRMITVSPIDDDARSVPPKSDADVVYNELLQCIIFHQEVTGFLREVLTLFSGPMLSQLYCSVFILCITEFRLLTDVNTMADTMQAVMYLVCLVIQVVQYCYFGNEINYMAQKVHQATAFVNYPDMNIKTRKLLIAFQQITARGIKCSAKYIFTIELSMQTFVTIIKTSYSYLAVLRSMTD,r
MordredDescriptors,-1511397045.8750691,-362563297376.40436,-0.004329696142101991,-0.06246148102373139,-7556979346.334799,-5881.727248424995,-1.2465077425555227,-32.32039766219268,-1812816486840.8767,-8.281495850683424,-0.44807524113192354,-0.09512533891704322,MEVLNCPLLSVNVRVWRFWSFVLVHNWRRYISIIPVTALNVFMFADLYRAWGNIEEVIINAYFAVLYFNAVLRTLILVYNRDKYESFLAGAASVYEEIRAINDDVITKLVSTYTKRARFLSISNLALGAFISGCFVVYPLFTGQRGLPYGMFIPGVNNFDSPQYEIFYITQLVLTFPGCCMYIPYTSFFASSTLFGLVQIKTLQHQLKTFRSSEMLNESTVVLNRKLQKLIEDHKRIIRYVQDLNDLVTYICLIEFLSFGLMLCALLFLLNIISVMAQIVIVGAYIFMILTQIFAFYWHSNEVREESMAIAQASYSGPWLNVDDTIKKKLLMMTIRAQRPLEITVGNVYPMTLEMFQSLLNASYSYFTLLRRVYN,r
MordredDescriptors,-117800950934.61494,-361295000676.0659,-0.15487538504291565,-0.019211939523026356,-110808133776.3861,-478196620896.48804,-0.026464387103807274,-44.89767359336932,-1806475003334.7688,-0.0841588121354544,-0.07193627935746827,-0.5067437040734755,MELKEEWILPDVVYANPLLKRTLLGLRYYGILLGQSQSYKKVHCFRGMVFTLSMVLFNCTQYIDLWQVWGSVSDMTANAATTLLFSTTIFRIIFFYFHRARFNSIIKAAHDGIERILKDGWTDEQSIVGSNVRYLKRLAVVFWSCALVTANMMCVYSLVQYLTYEEGPPDGTGTSAANITRKGQPIPPTPILRSWYPTADGKDKHFLEIYLIQLYIMYVGQLIVPSWHMFMVTLMIYGRTECSVLNHRLCFLERYHTAGKDDPTAPVNNAERRSLMIDCIKRQASLVSFTRELEQLTRAAVFLDFVVFSVLLCALLFEASMTPSGVQVFIDVCYITTMTTILFLYYWHANEIHACADRLSMSAYKSDWYRYDRGTNRMLQIFILYSNRPLKMHAFFISMSLDTFLAILRASYSYFTILKQLTD,r
MordredDescriptors,-108811538524.94052,-255134672267.4331,-0.08908461106858767,-0.10081486300940434,-112532213712.70056,-431525478911.80524,-0.006898158846770919,-32.26907044515272,-1275673361304.1323,-0.3682001879362251,-0.05436688253618516,-0.34161917726802105,AgOr12,r
MordredDescriptors,-8481899053.924187,-318375253174.7527,-0.02729840364375624,-0.020317286200139062,-34339841552.95833,-8069653716.614925,-7.150178616854852e-05,-57.28574686069334,-1591876265815.0781,-0.7803376394845767,-0.43361313896191045,-0.18579935847655316,MNFLRQEQPAGMPHISIKLLQLFGVTGSPEERFRILPVMLTYFFFIVVPKCFFGYPDLEITIIGTAELIFQSNTFCGMFWLFLNRHKLAQFITQVRTFSLTVFRESPPAVVQHLTTQHDFIHKITRIYCIVVMFAAHFYVLTPLLSTFYAFYGTVRNDNVTVHYTLQMEENFYGLQTRTTTSHYLIFGMFMTPTIYLCAFTGTVKILSICNITMYCTLYFQLVQLKLRTATEDNTFNRQEVKSIVVMHQDALNCASLVESITSLVLLQQLVLCVMIWSSMLLYFTVSGFDLNFINLLVLFAFDTTETIAYCYFGEQLSNESARVAHTVYESGWETQTPDIQKDLQLIIARAQRPVGITAGKFCYMNMEQLGIIVKTTYSIYIILRDQF,r
MordredDescriptors,-52298443443.011955,-871220064153.0117,-0.009323550930986135,-0.0945816396280279,-57498638474.99388,-203993578739.96054,-0.0014527045247909598,-32.40015119440722,-4356100320732.0947,-0.07829309867277257,-0.34448164328234854,-0.14091579013772582,MNFLRQEQPAGMPHISIKLLRVFGVTNHSEERFRIVPVMLAYFFFIVVPKCFFGYPDLEIMIIGTAELIFQTNSFCGMFLLFLNRRKLAEFIQHARSFSQTVICASPPAVVRHLTTQHDMIHKITRIFCIVVMFAAHFYALAPFLSTLYTFYGTVRNKNATMHYTLQMEENFYGLQTRTSGTHYLIFGVVMTPTAYLCAFTGTVKTLTICNITTYCTLYFQLVQLKLRTVTQDNTFRQELKSVIKMHQDALNCASLVESITSLALLQQLLLCVLIWSSMLLYFTVSGFNVNFMNLFVLFVFDTTETFAYCYLGEKLSYESARVAHTIYESGWETQTTDIQKDLQLILVRAQSPVGITAGKFYYMNMEQFGIIVKTTYSFFVILRDQI,r
MordredDescriptors,-42567323343.82002,-80447577403.10736,-0.016704606711852144,-0.035748802274798264,-78649059085.52835,-134187557633.51927,-2.4735192722946664e-06,-57.66803698294018,-402237886957.5406,-0.13992916243546372,-0.15950449305039527,-0.028734114267168653,MRFFLIEKPPGVPHIALKLLRLVGVSQTQSERYRYVPMFVLFLLTIAIPKIAFGYPNFETSIIGLAELFFQTNRFVGVLLLVLYSDSIFELVRQSEFFAKKVLSETSPVAEYLTKMDTQVTKITKLYLTALLVPANFYSYSPIVATLWKYYNTYENDTVPEFTLHMEESFYRLNVREKLDHYLIFGAIMVPISFLCALVGTAKLVSILSLIKYCTIYFQLVKVKLEEVGRSQNYASDIRSAIQMHQSALSCADVLHDITAPIMLLQLVLCIMVWSSMLLYFTVAGFNTQFISLFILFMFDTTETFGYCYLGNQLSDESARVASVVYDCRWEGMPPALRKDLQLIMLRAQRSVGITAGKFCFMNMEQFGEVVKTTYSFFVVLRDQF,r
MordredDescriptors,-210966197792.03342,-246968128268.60352,-0.05138894348901801,-0.16201077878289083,-138439535736.26562,-916391453223.6067,-0.08145177646113289,-25.444455097493147,-1234840641316.333,-0.8901912907688798,-0.0006492565271851714,-0.349466363975657,MTSFKPTDDTDVMPLVLRLLRVIGVWDVPQYRYRYAAVFLSYCFGILIPKLCFGYPTLEASIRGYTELILETNVFAGMLQLYLCYNHFVPLVDELRAFAAIVFQDNQPMLLRTNLTDLNLRIHKYTLCYCLYMCCVCTVYCVAPLGSNIAGYTAAMADTASNSSTTFAFTLYLEQGFYWLDNRTSLLGYCVCTVFMLPLMYLCAYTATVKVVAVFNMIKYCQTVLRIVVLKLRLLKTLPDVRQRSDGMSEVWVLHQRALRCAELLELVLQPLLLMQFVLCILIWCMMLLYFTVSGLNVKFINMFLLFLFVSIETFGYCYLGTQLSQESINVGQALYASGWYEYDVQMRKHISFMIMRSQRRVGLTAAKFCFVDMEQFGAMLNMSYSFFVVLKDAF,r
MordredDescriptors,-42931604956.36456,-589833435499.1951,-0.11061634455319957,-0.0021275875192554583,-71161632644.83112,-143496392136.86627,-0.012691924320282988,-41.188027019578726,-2949167177453.931,-0.2880075959488826,-0.0031786190012965676,-0.5643142311187301,MLRLSPEDPKAVMPVVKRLLKLSGLTQETTRFGAINFLNLFIYIAAVLVPKVCFPYPNTEAMIRGLSELIFFTNVYVGFFCFISQHRQRDLLNAIDSFVDVVYPTAAHPSDSPSEQILIKFNVKIQKLSVVFCWYIAVTATFYWLAPCLMTYRSIYMASVSVENGSVQSIQYYPNLEESFYWLDNRSSVYGYATFSIVALLVFTVASYNNATKLLTILTTIKYCNTLLQLVIIEVDNLNHATSNAIDRELKQVIQLHQRAVRCVALLNQTLSFVMTVQLALCILTWCFTLLYILTVGLDVTGMNGLLIMFNMTLEMFGYCFFCTELATTGTLIACQSYEFRWEEHDPKIQKMISTIVARSQLPLRITACGFITVNVELFAKVVKTTYSVFIVLKDFI,r
MordredDescriptors,-59335270010.86338,-80074793451.0489,-0.04937675907313799,-0.00023477655828374466,-149387502426.96216,-147288847627.1868,-0.11827422792004838,-15.078997635834675,-400373967239.1553,-0.4149071095012402,-0.0035518743059066438,-0.5918230143470014,MLRLSPEDPKAVMPFAKRLLRLSGFRQETEQLEKQIFFNLFVYVAALLIPKVCSPYPDSEAIIRGLSELIFFTNVYVGYYCFVVQHRHYRDLLDEIQSFVNVVYPTSQQPESPSERTLIKLNVKINKISVLYCWYLAAAGLIYWSTPCLMTYHSVLKAKAEYGPNHPIRFYPNLEGSFYGLDNRTSVYGYAAFSIVALLVFAFASYNNATKLLTILSTIKYCSTLLQLVGVEVDNLNHTSSEAIGRELKKVIQLHQLALRCVALLNQTLSFVMALQLALCILTWCFTLLYILIVGFNAIATNGLLIMINMTLEMFGYCFFCTELDTTGKIVSRQMYEFRWEQHRPTVQKMVAMIIARSQTPLQITACGFIPINLELFTKVVKHSYTVLAVLKDLI,r
MordredDescriptors,-706.8532233807234,-4640026552.007411,-0.00014655591377299437,-0.015454442585871142,-3317.916319985412,-216.2984564853692,-0.03573943433593785,-0.037571467066738196,-23200132758.59655,-0.03354474745520486,-1.3663750217956792,-0.003013033161749723,MKIWEKYLERKRTLYHAKYQTPHQLFDAACDIVIKCFAVCGGERMKPGYTRRNARLIFLVTDLILYLFVNLYSIAIVWGSLMDVVFCFVTLGIAIQGLAKIEAFTCPELNDLHLYNVARFKAPPRFPEVDEALFHTATMCMVFIRIFAVAFSIVAIAIYSYAILMPLIEHELSLAFGFYLPFVDYRTPVGFAINWVYQFVQVLEGCIGLMACDSCLLVLIMNATGQMDVIIVYLKQLTLLIDNNHTGQHDEEIADIIKEIVLKHLEHTKYMTDMDKLLKKQFFINFGCMIFELVASLAIVVRVPWYPGMAICLICTNQLFINCALGTFLSSKNEKLVEEIYNVNWYGLTTKHQKTLQQILLTSQHPVVLSDGFSPIDLFNFVEIYKKIYSYLMVLQKVS,r
MordredDescriptors,-125455088882.50851,-42186986273.19042,-0.028212773537988234,-9.943061699368982e-05,-193518918562.02356,-433756525850.1762,-0.31462306839163134,-1.315570719646907,-210934931363.5891,-0.0415191302452258,-0.7874008168417828,-0.21852039515315558,MEQEINQIISFLRRPLKWLGFDVIDPNWKVTPLTMFTIVMFALQHYTSYLYLSTHLDMFDMFTECFSTSAVALEIAIRMGLLVHQRELRNETIEIIRQQHKTFGNSAAIRKVTARFHKLISVTLHALAACYMSTMMFELIPIVSPNPRKSNLPLPMYLPYMPHDVTPYWHLNYTFITVMNLMCILFLVGIDGLLVLSILAAVHQIKLLKITIQELDIGAEQAELHRELVRIIQIHQRIQQFIHQLEQTYYIDLLVDFGLVCLILCMGLNVIADEVINAIWFFLIAVVFQLSLLCFSGNLLLIESDSLSSCVYSIDWHAMPVPEQKLLMVMIAHAQKPQVLRGIFMPLIMSSFLSVIKASYSYFTLLH,r
MordredDescriptors,-45410545356.46243,-16303518062.390396,-0.13335944565069102,-0.03316539660254403,-14449783218.97573,-212602943563.16315,-0.006768406394026094,-12.15861481657645,-81517590297.82915,-0.8540119748762103,-0.8684660707749197,-0.24172801040790404,MDSNSKKDTFPLIQISTKMLQIIRLWNESSGQRMSTFGVLLIAVFPIMWLIPSWLFIVSSQDNIKRLMKAINEQIVFCIVFLKFSFYAIHFRRWEQLFYDLQRSFSTVVNNPSLEIQTILGHVTKSTHKLTKYYCSIVSFNCAAYGLFPMLFIVVKYAVTGSYDVPLSTPIEGNYFIPGFRTNFWVWLPFNLAQNVVLQCHSFAVITIECFTWNLVYATSCMFRILQIQATELLDRSRDKKEWNIKFKTFIALHDSVLRSARTLEAILSGQILLLYVSTILAVCLGMVVLTLAIEDVYLLLTTFVAFGYCMFQMFSFSYLGTELIEQSEAVADGIFNSKWYEEDVKVQKDLSFVLMRAKKPVRLTAAKLFVVTRDSFTQVMKQAYTIFALMSQFLDDIAN,r
MordredDescriptors,-29266785280.229347,-20885286361.63872,-0.05182851752743711,-0.0868031691996356,-13388521474.15878,-132945404926.77231,-0.07700058483440975,-9.540335391557457,-104426431797.42488,-0.3201488097933394,-0.6036271457124933,-0.30463191186517324,MKPSCKEGVFPLINLSIKLLKIVGFWSKTTGQRISVIGLLAVILYLLAWLIPNWLFIVSSQDNITRLIKATNEQILYFIAFFKLYFYVIHYRRWEKLFYDLQIAFSSVMTNPSPEIQGILGHVTKSTHNLTKYYSYVVNFNCAWYGVFRMLFIVVKYAVTGSYDVPLSTPIEAKYFIPGLHTNFWVWLPVTLGLNVLLEWHSLALVFVETFIWNLVYATSCMFRILQILANELSDRKRNEGIWTVEFEKFSTLHDSVLRSAGTLEEILSGHMLLLYVSTIFSLCLSMVVLSLPIDDFILLLTTFVAFGYCIFQTFSFSYLGTELIEQSEAVADAIFHSKWYTQKLNRQKDMCFLMMRANKPVKLTAAKLFVVTRDSFTQVIKQAYTIFTLMSQFLDNPVN,r
MordredDescriptors,-13361626507.75746,-3795658465.0615525,-0.0060213294697673,-0.0025180698432361037,-66808129650.70448,-2888.0266697130282,-0.04760707725985158,-249.9645174249426,-18978292074.635696,-0.3727332729300974,-0.0024719854856758428,-0.3323433711285886,MKFFQIDDTREILPIGCRLLMLCGLPRSGRVNRRFWLLCVFFFVFGQIPRFLIKIDEPIALVRVGAEIVYSTYMFLQLIALYARRSDLYRLIDTLQKCVENPYPDDVRAFILITRDTINKSSVMYSKCFFAVCISYIIMPFMATSAVVVRNRRNQTGEREDFYYLDIRFNLLHYSLYFGAVSGLSVIGSLALCTKDVMDFSLIRTASMLFQATAQQIRNLPPGASQAKLEAIIHSHRSTLKCAAQLQNALNPALLIQITFCTAIWCLMLFYILLLGFTSKVMNVCLLLLVLTCETYSYCQLGTQFTSNAEEVLDELQQLARYDQSIPIQKQIYFMIHRSQTRIELTAGKLFPVNIAQFSEIVKKSYSYYLVLKDIF,r
MordredDescriptors,-41632523080.91247,-6.748184483407274,-0.04456192359901312,-0.01882763237962881,-688.8397710201855,-208162614715.62473,-0.034445347110422464,-13.45955407589093,-17.312578171608564,-0.1047379107812112,-0.00020684715677377064,-2.8638454115988967,MLAAETVDFFRVQSICLRAIGIARTDSFRGRVLFAVSFFTVLVMMLGTVMFAFKHIDQIMLLCDCLGPTFTAYLGLVRQYNLLLHRSELWSIVDEFAALKHSLQSSEIRIVQKYNRIDRFLAWAYLITAMSTGVLFVGVALVLVFLSEKSDWKLPLLMDFPFDVKHPVTFTIFFVWCSVAIFWVVLDCVACDSTFGTFSSCLVAHFVIIQERFEGLRFDDGNRELKKLIEHHKYILRISDRVINAYKNVILNQLLISSVLLCMLGFQLVISVGTNIMVVYVAYGMAITIQVTYYCYYGSQLYYESTQVHDAVFKSKWYDASVATQKMLINCMMRAKKPVNAKSGFTQASLPTLNAILNSAGSYVALLMSLME,r
MordredDescriptors,-12498528399.868032,-9.720122308362454,-0.1395245816965507,-0.0059061113756935235,-9220673.00560265,-62483421326.15846,-0.03067361580926753,-1.4489760074532265,-46.65166118906373,-0.2888210123361743,-0.1550916525106445,-0.05606168044850102,MSQLNEFPAYQFRLIRFCGVVEQPSLRNNVRCLFAFILLCSFGPLHVWYLAKTPVLDLVVTCEEIMLIQLCFVMLLKFNLFITYRSGMYNLVEAFKRILKCIDKAEFARFVKCSELHAKLLRAYVIGTSIVLLLYELNAIVASITLSLQQNKVCFVTPFSFPFDYQHPIVFALTFLHNFDAMLVTVCTSVTVDSCFSEMASNLTIHFDIVRERFEKLDLSAAQPYAEHQLRNVITYHREVLSLAQKMVQLYQQSAFYLLLLVSTILCLLGYEFVMVSNIYKRMQVAILASIMIGQAAIYTYHGSAISAKSVSVADAIYGTNWYDAPLAVKKLVYICLMRAQKPVIMKSGFIEASLPTLKKILSSSASYITMLMSLEADLNEKKT,r
MordredDescriptors,-326759192906.1472,-65187884474.478775,-0.13768502763229895,-0.03534814305784062,-314987644756.2104,-1318808319774.2551,-0.09736274142445844,-2.6286508092240446,-325939422368.2806,-1.3492902655609016,-0.09897765420090954,-0.036297775100416985,MMGLSRTIPSWPVLHNISFARASQVRRANMEYIYRWILRDDTFAKEVYIKYNFTKLRTLGIYKDASRTRLARRAGFYALELFFLLQLGTIVWDLATVLGNIGLFGDDMCILAGLLLTLAKKWHCVLYIDELWECVEQMQTYHEHYLLQGEWFVRRMRRQNLQERMLQDASKLLATLLASCLMVNALFSNGETLILRAIYPFSTATTLGYGCVFVCQAFLIVYVLYSMVLIDCIGAQALSQMALLFCMQRKQFELIGADLQLPPEGPLHGDRSIRDQVYSAIASHQQLLSFCNRLKRLYEPNIMAQFVCSMLIICLTAFELMFAKGDPMQMVRFGAYMLAGFYQVFVWSFFGNRVTNMSTGISDATISCNWIVLADGLKKDLRFTTMRSQKPFVIDVYWLFPLTYETFIAILSRSYSIFTLLRTMIE,r
MordredDescriptors,-283696075507.18634,-90797546.5195007,-0.30148850640638813,-0.13299171125165432,-462503585054.58734,-955976792480.8514,-0.05841843651892731,-0.20587972778334085,-453987730.83254564,-0.22750451587498355,-0.1388383141721672,-1.1927353725627157,MSCVEDFLDAQMWYLRYCGVFREKSALGGIRLSVCLGVLVVFMVLQSIYIFQHVHHFAMICDAIPTLVVCMVAISKFYIFVFHPAALFALIDSFKALQRRASREDLLLFRRSGAFHAKLTKIYMTSALIVGWFYILSAIVSGISRSLAEGRVHFVAPMAFPHNYQHPLMFALTFLFNCDSIHMSIFISGSVDTCFSELATSVTIHFQLIQRQFQAVDFAARTAEDELEVVVAYHKDVLQLCLAMTNLFQYTVFYLLLLDSVLLCVIGYQFVIFMNTPRVLMLASMAFVMVLQAVIYCYHGSMMYDESLKVADAIYQSNWYEAPPAVQKRLRLCIMRAQKPIVTKGGFIKATLPTLKKILNSTGSYITMLLSLETEQ,r
MordredDescriptors,-184061211538.01413,-56399011891.25929,-0.0136854853858841,-0.006085139079424984,-192270306196.6865,-728035751493.3575,-0.006813466207248542,-344.0545812833672,-281995059111.8575,-0.13939163141129596,-0.185594790785931,-0.05936608736045801,MIITVAPVTDARPQTPEDCGMFKFQRKILLIFGCWPPDRLTRRWYVKVLIAVNLITLAICIVGEFRYCLYAYRNGSLIETIESICPTVARFSGLLRMCWFLRNEHKIKSALNSVVHLIKNEHPRETGYTNRITARDQTITKVLFHSSFITAILYGIIPYFMMAYNWFQGQYPLVKLLPFKVVLPFDSQDPTLFVLTTIFLNYASVPTITAMTSTDALFSGVCLYMDGQFQAIRLELEALAETVDKYTLKSSAAETLRINLELRRINKRHQTIIDVVSEVRHAFTPTILIVHICAAFMICVISMAMFLAEGINKLTYMPYTFTVLMLLFMYSYGGTVVRESSEAIQTVAYGFPWYQFDRNTRHLVQMMMVRAKYGCNVDVPFFQTSMATFSVIVRSAMSYITLMKSFL,r
MordredDescriptors,-76105031477.30809,-30000167172.553234,-0.02578615105723614,-2.0489416634905666e-05,-110884686841.61641,-269640470544.8711,-0.027185128131389513,-13.621076955026973,-150000835847.54684,-0.5838127490184475,-0.23782391533947966,-0.7766415530841431,MVSFGAAASNPRDAETTPHWDIFKLQRKILLIFGVWPADRLVRPWYVKVLIAINLATLAICMVGEFLHGLYAYQEGDLSESIESICPTVARISGFLRMVFYLANEEKIHRVLNNISKTLQDEHPREHTITKQLTTLGQQFTFYLFLMMFFAACLYGVTPFFIMIYNWVQGQRPLVKLLPFKLALPFDSQNLFPFVVTTLFLNYASAPTITSQSGSDALFSGVCLYIYGQFQAIRLEVEALAETVDRNTLKSSAAETHRINLELRRISKRHQAIIDLVSEVRSAFTPNVLLVYTATAIIMCIVCIAMLVVEGIYKLTYLPYAFAELTLLFLYSYSGTIIRDSSEAVQTVAYDFPWYRYDRNTRHLIQMMMIRAQYGSNVDVPFFETSMASFSAIVRTASSYITLMKSFL,r
MordredDescriptors,-242922555527.99396,-62647135928.05292,-0.08149483846605521,-0.007695145122145863,-331928984105.7052,-882683793534.0302,-0.14520088659634478,-1.8384136583032475,-313235679635.12714,-1.5252917738627296,-0.24035586881500848,-1.5333583856186572,MSEHPIHTFDRLIKRQRLLLKLIGIDSYDPAFRIHSLTFMLVCLALTFFVISLYDLYLFRDDLFNFVYVLITIFFATIGIGHISVFLLCSKLLAELLEQSYRTYRLVVDDQREQRILQWYTRLFQRAVDGYTLVFIGTSVAAGLLPLAIYLLSGDRVLPYGVVLPFVDPDSLVGYELNYIYQVSCIIWTPPGLVASVCMLFGLVLNICIQYDILAVKLQDLDELIRSPHPHRDAMIGCKLRSILRNQQRLISFIANIEAAKNVHSAVEVLSLGLQIVITLFVLQFSLWIPGLVLIPVFTMQLFLFCLLGTIIEDKGVKFSAGVYSLTWNELSKQDKQIFRLLLLSSQQPQTLTCAGMTCISLNLFVNMSQKFYSIFMMLRNM,r
MordredDescriptors,-350419777065.5409,-59111138678.04148,-0.13611303384693474,-0.006986609849508385,-424954864481.48114,-1327144020845.784,-0.2963058685320996,-2.8104909382415126,-295555693386.6257,-0.7024828577359605,-0.027353764270648062,-0.04145341874908848,METHIGKQHSLERFQAMVAWQNRVLALFGCYMYLGKERVSYRIVPICFMACSFVLLSLYSAIQARGNMGLAVLSIVVLFYGIIGVTRLAVAISNPAGCYRSIQIAEEMYQRANGSNPAECNVLAKYTDLFCKSVQLYTVCFVLSVVVLTLMPFALYLLRGERYLPLGIVLPFTAETDDFGFWCTLVVQLAYMYTGPFGLIPSQNIYFAFVFNICLQYELLIERLKQLDERIRSSNNLKLTVRDQLVKIIQLQQESTNYITHIERFYQLQSFVEFLCNSLQVALTLNELHRNFWLPGLFILPIAVMQMLILCSLGTLIELKSDQFKDQLYDIAWPEMDLPEQGMFKYVLKSAQQPKQLTCGRFAVINMNLFLAIHKKIYSFFMMLQNM,r
MordredDescriptors,-240527141867.6504,-61227799309.8723,-0.003644120939704454,-0.0629395519431668,-324973161739.59906,-877662547598.5709,-0.015475271972597016,-0.79786309327709,-306138996546.8463,-1.0812029445859923,-0.20915943499116807,-0.4269820161107589,MTFTLSHDLYVYNLHLIRWFASFVGLDIMAPNYKPNILTFLAFFGLSISLIGEVYTVWYFWPILDKLMESAAIFGVFIQGLAKFYIALRYRKFFEAMYNRLDLFHYEYRNHEKNNATLLLLMNRICLLRKLITSQFSISILTLMVTPVAQYILKGERFLVYTIILPFTDPEITSHYLLNLVVQYYLLIVGLAGFSAAESVLILFVTSVAGYADVLKNKINEMNTLLLDAQNSRDRTSVKLKLREIVLLHQRVLEYEDDLDKRYYLNNWVQVASSIFNLTGALFGCYVSNSFTMYALAITIVIQLFELCLLGTILSIKNEEIEHAFYDSLWYLMDHSEKKDFLIMFHKCQHAKEMTVASMAPLNIVLFIAIMQKIYALAMMMMRFSE,r
MordredDescriptors,-293191396780.47577,-70768028858.8605,-0.20840311823489,-0.006126798382938947,-306062507089.9867,-1159894476812.0198,-0.15786479769846595,-2.2033446027156276,-353840144291.10846,-0.9140213150826859,-0.0756589363594713,-0.0009896094018424506,MTFTLSHDLYVYNLHLIRWFASFVGLDIMAPNYKPNILTFLAFFGLSISLIGEVYTVWYYWPNLVKLMESAAVYGVFIQGLAKFYTALRYRKFFEAMYNRLDLFHYEYRNHEKNNATLLLLMNRICLLRKFITLQIIGCILVLSLNPVIQYIIKRERVLVYAILLPFSDPEITSHYLLNLIVQYYLMIAGIGGFAAAESVLILFVTSVAGYADVLKNKIDEMNIILLDAQNSRDRTPVKLKLREIVLLHQRVLEYEDDLEKRYYLNNWVQVASSIFNLTGALFGCYVSNSFTMYALAIAVVVQLFELCLLGTILSIKNEEIEHAFYDSLWYLMDHSEKKDFLIMFHKSQHAMEMTVASMAPLNIVLFIAIMQKIYAYAMMLMNFFE,r
MordredDescriptors,-261321497689.4768,-104754416096.6694,-0.16056441606705474,-9.07127777338701e-06,-275969051376.43463,-1030638437070.6814,-0.10733738057283171,-4.6109624011377255,-523772080477.7513,-0.5464449502888253,-0.19679980906889494,-0.2414881881303823,MPRATSNSAANLERLVIRISSHMAVLKLNIIDPAWRPTLRFGIVLFLTALVPVYIWQGIKVYRTRFETLLEVLSVAGCGWQMFFRMYFYLFQQDRCRQIVQEVRDQRTVYGADRNPRMEKLFRAGTKRMLLAYRVIHLMYGTSYFFQLGPLIMPDPHKCNLPLALQLPFLPPDRNMVYYCINYAHHLLLNTIGVFILLPMDGVLIVALLNICTRIAALQLLLEELDAKLGTVQWQQTAHLDAELNRIIELHIDTKRFARVIYETYQMHFFSMFSVLCFVICMCMNVVARDPRSTLIPFGLASTGQLFVICMLGNVLYIVSDRLKDSVYGIRWYRCTVSQQKRLMFLLANAQPEIVMGAVFIPVTMTSFVTIIRAAYSYFTILY,r
MordredDescriptors,-103039142831.33434,-171770960696.0393,-0.022246886834183632,-0.0037213397998279163,-303354303539.76154,-211841410616.7154,-0.16881651006578724,-1.1764855684449813,-858854803478.2507,-0.5082512615485675,-0.13864999849802095,-0.12234811066857576,MVVFEPLDDPLKVLPLPLKLLALLGVNKNPSERFRLYAIYIYLWVAMFIPKLCLGYETIPQCFRSIAEGMFSFNTTVTFIMLPLKMDNFEGLLQNLQRFTQIVTVEEDYKQILISLNTTIHKFTKFYFIFTNGVVFSITGSTIAGMLYTYYTKDSEYSAAFPLVMENRFYVLDSHYNLGHCFVHQALMFFALYILLVMFTAKAGTLFGLIRFCSTVLGIIVLKIERLSQIGPVDQYTAELSEIIELHQLVIKCSRQLQNILMEILLAQFTGCVFIWCFMLYYVMISGITAEGIAVGAMLIALSTETFIFCLLGNELTLKGLEISTAMYSTNWYDQPVKLQKMVVPIIQQSQQRIGITAAKFYYIDYNRYGQSLKTAYSFYLLLKDIF,r
MordredDescriptors,-6234183693.367654,-41.93806964145183,-0.032181712499663506,-0.004819639413773613,-31170918267.15885,-199.61493078187928,-0.027486393263347786,-36.20003220171166,-172.59140978940695,-0.28717956291698443,-0.41377244869244945,-0.19795420453114043,MVNLFARTPADNFRVMPYNLRLFAMLGLWGDRRKLYRLYALLLLAYVAIIFPKPVRITDRHPFESIVRSVSELIFAALCYLTIIILAIKSEPFRAVIRKMEQALELFRDKQDQCSQLIIEVNANIHRFSLGYAKLNLLYVLLFNVIPPIYNYPRYFLQWRMPEDNRTVEFMLPLMQDLYGLDVHHNIVHYTISWVAITPFCVFCALILWFKGALFMLIRYNTLLYQLVNRLLQQYDRESAGGLLAQKHRRLQQIVQLHYRAIECTKLLDSILSLILLIQCVGCLLMLCLMLFYITRNHSLNVINIAVLLMSIFIEMMCFSYLGNQLTEENANISHSAFNCRWYDEPIVIRKYFLRIILQAHRKATITAGKFYNVNIVTFAQLIKTSYTYYMIMKEMF,r
MordredDescriptors,-126232462319.81172,-80274365337.6511,-0.05669320086559493,-0.013483940788485915,-218228157821.19327,-412934153777.70807,-0.08700155657301578,-5.905509528305717,-401371826681.3922,-0.36180693429333366,-0.11335149400935274,-0.4825357968752986,MLSLRPEDPKAVMPFAKRLLRLSGFSPGTEQLGRCIYVNLSIYITVILVPKVCFPYPNTEAMIRGLGELIYFTNVYVGFFCFVVQHRHYRDLLDEIQSFVNIVYPTSQQPESLSERTLIKLNVKINILSVLYCRYIVVAAFIYWMVPCVVTYSSIHKAEVSMGNESIQSIQYYPNLEESFYWLDNRSSVSGYAAFSAVALIVFAFASYNHVTKLLTILSTIKYCSTLFHLVSIGIDELNLVSPAHIDRELKKLIQMHQLAIRCDVLLNQTLSYVMALQLALGTLTWCFTLLYILIIGLDVTAMMGLLIMMNMTSEMFGYCLFCTELTNTATTISQQIYVFQWEKHSPAVQKMVAMIIARGQAPLQIKACGFIPINLELFAKVVKTSYSVLIVLRDFV,r
MordredDescriptors,-905378510.3585176,-693.3344039326311,-0.006357975344422506,-0.11506625464652886,-3032311018.221039,-1494581533.432762,-0.0173638081300449,-2.849085416030044,-3462.6369821920352,-0.7284564799300199,-0.4285358167617248,-0.028959758398507063,MKLLELDNPREAIAIGCRLLKLFGLGRDERFKLVYWLQCVAYLAFSIVPRLLVEIEDMVALMRLIAELVFVVYLCLQIMALYCRRRQLYRLVDMLQQCIDIPYSEQIESFLIRSNVKINQSSAAYARFFMCVYVLYCTMSPLASGFVYIRNQRNATGVQEEFIITTEMNLYDLDIRYNPLHYSIYAGLIFVLSAISSLSLCTKDVIDIAAIKTVTLVFGIVTMQIRDLHEQITQERLNRVIKSHSNALSCATQLEQALNLSVLFQFASCSAIWCLMLFYILLMGLDSRVLSVVLLLVIVSIETYAYCMLGSQLTTQGEDLLMALQQLSWYDQPVPIQRQILLMIRRSQTPLILRAGKLFSANVVQFGDIVQKSYSFFLVLKNVF,r
MordredDescriptors,-101685086884.69803,-27055758367.242195,-0.01136615901826965,-0.05995038891594939,-197044040213.11157,-311381394210.0944,-0.21281679997449365,-0.575263023836944,-135278791831.23018,-1.0687934724967603,-0.10512334468260498,-3.231647590067383,MYYLEQLRALVRRYLERRSPDPRIQHTFIVQSINRVGGMLGIDIFTPGYSSTNLLLRMVLLNTFTFFWINLYSLTTTYGNLVDFMYSFETLLYVGIACIKMYVFIKNKTLILQMHQYMIDFFDHFHGDREQDELLVRTLNNTTLLSSLFAVCSSSAPGLLFVGSLLWSIAVEYVLPFGFFIPTVGMDTLQGYTLNYGFQMLETTLMVIGIISSESAFFMFQQNACLQVDMLRYSKSMCSLFELHFFIVFGCIFFQLVSNVVVIVSVPDWYPGYFLFIMLTVQLFFSCALGETFNIKSDELTVAIYNVPWYNMEVRDQKAMRLLLMASQNPGRLSYGFGTVNMRAFFEIFRKTYSIAMMMISVNEEE,r
MordredDescriptors,-74783757494.32419,-151188941922.5198,-0.03944499371069243,-0.016704385927222676,-113844726314.9633,-260074061156.60086,-0.00062690338299487,-64.74034868914912,-755944709546.842,-0.6865534914292344,-0.0832034696318813,-0.24677728922021247,MDIVSKQGEFPLVKLSTKLLRIIRFWNDSPGQRIPSLGLLVTAIYPLIWLIPSWLFLVSSQDNITRFMKAANEQIVFSLICCKLCFYAIHFRRWEKLYYDLQRSFSTVLNNPNLEIQTILGHVTKSTHKLTKYYCSTVSFNCAAYGLFPMLFIVVKYAVTGSYDVPLSTPIEAKYFIPGLRTNFWVWLPVDLTLNAILELHGFALVFVETFTWNLVYATSCMFRILQIQVNELSHQSRNEKEWNGKLKTFIALHDSVLRSAETLEEILSLQMLLLYISTILALCLGMVVLSLAVNEVYVLLTTMAVFGYCIFQTFSFSYLGTELIEQSEAVADAIFHSKWYTQKLNRQKDMCFLMMRANKPVKLTAAKLFVVTRDSFTQVIKQAYTIFTLMSQFLDNPVN,r
MordredDescriptors,-132577716181.34201,-73816509670.98398,-0.05800021351709628,-0.0012105773912973739,-265232082890.21664,-397656498016.3819,-0.052346495574475016,-51.74073948092868,-369082548301.8339,-1.1610971516390114,-0.011159585652032122,-0.1730544464424577,MDIVSKQGEFPLVKLSTKLLRIIRFWNDSPGQRIPSFGLLVTAIYPLIWLIPSWLFLVSSQDNITRFMKAANELIVFSLIFCKLCFYAIHFRRWEKLFYDLQRSFSSVLNNPSLEIQTILGHVTKSTHNLTKYYCSTVSFNCAAYGLFPMLFIVVKYAVTGSYDVPLSTPIEANYFIPGLRTNFWVWLPVNITLSAMLELHGFALFFVETFTWNLVYATSCLFRILQIQANELSHQCRNEKEWNGKLKTFIALHDSVLRSAETLEEILSLQMLLLYLSTILALCLGMVVLSLAVNEVYVLLTTMAVFGYCIFQTFSFSYLGTELIEQSEAVADAIFHSKWYTQKLNRQKDMCFLMMRAKRPVKLTAAKLFVVTRDSFTQVIKQAYTIFALMSQVLDDTMG,r
MordredDescriptors,-10420781417.821392,-13762766082.381882,-0.0010955897078444021,-0.00010890921797579445,-19569814527.643562,-32534092561.44286,-0.019322163563449735,-0.03691691356311977,-68813830410.9461,-0.13804696031637032,-0.5357341927986754,-0.2526095217142401,MFSASAEMEWFRQQRHAICHLREGSDYLRYLRPFQLIAGYPINPRPALSKLATVVRLLAYLTYLGTLLHKISYVLYRPEDINYVSFVSGGITVLVAVLLLMLIFTVHYDAFQQLGTFLNDRAFARDHPLATGIRDRWYRWSNGLILGPQCCIVLILLQTWISRQHLKKHTMLVVRGEPVGTEFDHFLYMSCLYFPTVGFFMGCSIVNAMLVGFLGEMELLATCLGELFETVERQVKEEGPTGRPDSRALYWSTLHGELRRCAQRHCAIFTMLPKLQRMASFVFLQHHIFSLGLVVAGSYVTLRGPALRENIVLSEYPISVVLEYFIFCQLVEKLQDMNRSIGDRLYGTEWMLKLQYSRDFQREYRSAALTIRLLIMRSQHRVRFTCGSINPVSMEKFTEFLNLSYSIVMFLLSIN,r
MordredDescriptors,-12841603237.605564,-248.38697566109212,-0.12205720534452458,-0.010575759043845778,-28166637.235565655,-64179849550.56878,-0.09084190901047284,-1.3745130372564511,-1237.8817644773083,-0.8036661398733618,-1.8195274635920708,-0.05540718743056883,MWHHQVQLWFRFLLGRFTTFTDSSDYFGLYKTLATISAIHYDASCWFDRAIWIVYRSLPILVNISYFYKAYRLILFPEDNTSAASVIASVWGFTEGTLRICLIELRYGTLASIMSFLNERSYRQQDSLVRQQRATLFGENNRIQLILVATMLMEAIWFMTTQLFSRDAFMLQVNGHVVDSIAVQILYGLLSNVWGLIYVLSFAIFYIIMNTLHLEMSILLDGITSVQFTVMRRLKQRMETLAASGHSSTQVFWSILQPELNSHISRHVDLLDNLKEFSSIVGPFSFVQYYGTLALIADCGFILSIEGLSANGMIYLLFVTVLVFQSFILCRGIEKLNDLNEAIGQALYSGFDWPDMLQYDQRFRRQYVTVRHTLMLVIGRSQKGFQCSYGGLGSISMERFAQLMQKSYSLLTILLQFAK,r
MordredDescriptors,-427832946.98994493,-55.70706101187003,-0.03344156005377252,-0.0019507590856728818,-2139164346.7427506,-388.16353129677464,-0.008050482839967676,-3.4476288430083004,-274.56539746575464,-0.38351311381313735,-0.1326791952071944,-0.006086441566892198,MYLTQLFASMRTQFLHRITHYTKHSDFFIMQRYFEKIYAIHYTPHGWHDRILWYLYRALYGLIYLSYIHKTHWVLHHPQDSFSTANILGVMWFFSVVILRVAILEWYYPLMLRMQTFLNNHTSYQRTDPWAVGRRARFYRRTNRVILTVMGINLAETVCFTATNVMKLDEFMLQFRGAIVGGWPVQIVYGVLTMGFGGMYCMGFMMCYLLLSIFKLEVDILIRSLEEVERSDRLESDFGDSADIFWNNIVDQLRPHMQRLDELFIQLQHLKAVIGPIAFVQYYSTYLIIADCCLILVSHGLSSFSIVYFISMLVFLTESFLLCHGVENLRDLKPRIASTVYDFDWMLQMRCPNPRHRAQYRHVRRTLLLLTAQSDQTIQFSFAGIGEISMNSFAQLLEKSYSMLTFLLQFAK,r
MordredDescriptors,-7158961247.19193,-554.3251895642497,-0.0022973355020556863,-3.446890232661204e-05,-15243170761.569292,-20551635474.37459,-0.013437239247054089,-0.47756995685683545,-2769.8374624435614,-0.11059287171995869,-0.9886412295150626,-0.21168131959581382,MFHPSRWMAKCRVWYAATFKFSADADYFFLVQPLCRSLQLFGNPVRCLQEFGTVRGLFVQLCRFLFLLPYASFALKSYWQLNHPLDTNNSILTYGSFVIYMLWAILIWVLNHYEHEMCELRLFFKNPTYQEQSDWAHRIRAGNYRRWNWMILMFYLFNVINVSIFTLTNAHNRQFHFQTRGEVVGPLYFQIIVEIFTGYLSLGYFVPSCITLMTLQLFRTEMHILTTTLKQAANEEQQQQQHQHAVDIRCAYRSFCKQFYANIRRHTELLQSIATFCKVFSPISVVLYYGALITITCTCFYVMKHDVSTTTVCYAGFAVYMLFNTLLFCKSIDSVNDLHTEVGYIMYSEYWPATLQYADQGLSTETLRPLRRSILIVLQQTLRPLRFGYGVSGSLSMQRFGEFMQQIYSLIMFLAQLN,r
MordredDescriptors,-18093792504.37784,-146178761311.76123,-0.005455594502885797,-0.010586957504161942,-4364511690.4771805,-86104450831.39503,-0.0009295143620897672,-7.5635794170326776,-730893806550.9594,-0.03799184572555947,-0.23527777633546254,-0.009974743157911359,MVKFFRCCKARVSPELLSKKNEKPEAFLPSLRMILFIFRMFYAWPDEQSLAPNALWWYRAKGVLFRTFFIYLSAAAQLAYNFTVTSREELFAGMFVLLTQLVLILKMEFFYKNVSKIQQLIRRLNGKRYQQSGNAEEDMPLVSARKKSTIFWTLYFMFSVGLATEWLVISLSLTTLIVPVWPVVDHTTPYWVYLMVIFHQYVAIALNASFNISWDSLVAALFALTNAHLHRLQIQLMKLGHRKHLHPPKDAKRRMIAVSSFDDNARSVPTKSDADEVYNELLQCIIFHQEVTGFLREVLDLFSGPLLAQLYCSVFILCITEFRLLTDVNTMADTVQAVIYLLCLVIQVAQYCYFGNEINYMAQKVHRATAFVNYPDMNIKCRKLLIAFQQITAVGIKCSAKYVFTIQLSMETFVTILKTSYSYLAVLRSMTD,r
MordredDescriptors,-182359650725.7785,-19904453634.631817,-0.008867343264275407,-0.050825894533759186,-217771253782.95654,-694026999845.6903,-0.18587818861147776,-0.035033808472014316,-99522268171.01218,-0.5702637354306905,-0.707020104898993,-0.83458927588413,MEASEKFSQFERYIRTLCNIIGFDVMTETWKKSYRTYMSIFLCSQYLILMVYSLIIASDTFELFKSLSFLGFFFQCSLKMYYTIQQAPQYAVNFCCLKEAIYERHSKGTLAQKTTVARIIDLLVLVTKAISVLYTSSLFIFSLYPAYMYFVVHVKVPIFPLYIPGINIYSAYGYGITNSFHMLIAVYGLFGALTSDIVFIMFVVHFVTYGGLFKIECEQFDQDLSGVFQHCEWRTAVYKTFCRQRMRAIYQYHQSVIFYLESMQECYRNICVVQVASCSLSTVFNLFLALTTDWYATYGFIVISVFQLFVYCLMGTVMQIMNERMIDYISNLPWYMLPTEEQKQFKFMLARSQLSAEIMIRSVGPMNMETFTDIMQKMYSAFAMMYSFLVDLG,r
MordredDescriptors,-163354947879.47333,-12308009875.621517,-0.028907316883066025,-0.07680211552895289,-323890696953.6343,-492884042443.5413,-0.0853551838684623,-0.07869653626126549,-61540049375.746376,-0.3457427041663823,-0.4426368261141418,-1.4941381675961964,AgOr67,r
MordredDescriptors,-332263953498.07227,-183512858220.3274,-0.02315316105091969,-0.02462526919600516,-597153985011.6326,-1064165782478.6807,-0.0006036220922955859,-0.553804381865844,-917564291100.6382,-0.3967671917437028,-0.007569402130360281,-0.04063595441222545,MANVEEFRKLMKSLIVCSKVAGVEMWTAPGKLKPASYYVSFHITVYFVSTVWTLRKYIDDPIHMMKVLITMGTAVQLYIKFFVAHSKAQEVKLFTVELEQEVLKRYQNGSEEETAVLRRTGRILWIVHRLMSASYIFVAVAFGLYPAFYYFATGKVMPLFLYELPFFNVSSSLGYAVTMGFQINLLAIGVLGAILSDFMFFMYAMYAMARADISIVHLSELENILNDSTKNEEHSANVRHKWIQCMHDHQQSTSFFSTVENIFGLMCLAQVSTATLSICDAMLLVLLTDWYPTYSYLYVVFVQLSGFFVIGHLVELKIDALYNKIISMPWYRLPVKEQKEFRFLLSRQQCPMILTAYGFHPMNFEAYMSVLKGLYQFFVMILQYIGRN,r
MordredDescriptors,-151.71237392083032,-16.549474862966672,-0.0002535995379853162,-0.010994518454960023,-713.1031941911525,-45.38218696735493,-0.06524032765107424,-6.410148751268762,-76.31264095787989,-0.021553534142346953,-0.0014832070198318448,-0.0015478645225375232,MTVVHRIVSFGYNLLQRHFNVGHPTEQFFLLRCLDVVSPAMLLQRPRSNLEVALKTLCLSVMVAHTIALAYDFSQQTDVRLAMDMLCMLSLFVSIILRGTCMRQYLAHINALDRLERRPTFRIGTPYADESRRNVALQNSRYLGVALVFHSLTVTVYVIQNMVRENSFVKIITSFPIDLSERAPVLERVADLCYSLVGYVWGWYHGATQLTIIVLLRYAITEFRVFLHSLDSLDDQLQQRREQSQGAPDEERILRELLYEHARHHSQLIVVVTHLRTLLRNYSLVHFSFYMIIVATFMTRVLIIPGRSSFGLAIPLLVTTIYFLETFGMCMLVEMLVQLNRKVSTSLYGFSWPQYLRYGRTIKRPMMLMIMQANMTKDFSAGGLTTVSAELFAKTCRMIYTMMMFMANMAT,r
MordredDescriptors,-92576257779.85374,-44632822833.28239,-0.10728920989520141,-0.00021152409191538268,-145190159500.21164,-317691129398.9317,-0.01789847747265072,-4.329237677724808,-223164114161.58548,-0.3701026144220687,-0.09836072975310639,-0.028751001369432316,MTVVHRIVSFGYNLLQRHFNVGHPTEQFFLLRCLDVVSPAMLLQRPRSNLEVALKTLCLSVMVAHTIALAYDFSQQMDVRLALDMLCMLSLFVSIILRSTCMRQYLSHIDALDRLERRPTFRVGTPYADESRRNVALQNSRYLGVALVMHSLTVTMYVIQNMVRENSFVKIITSFPIDLSERAPVLERVADLCYSLVGYVWGWYHGATQLTIIVLLRYAITEFRVFLHSLDSLDDQLRQRREQAQGAPDEERILRELLYEHARHHSQLIVVVTHLRTLLRNYSLVHFFFYMIIVATFMTRVLIIPGRSSFGLAIPLLTTTIYFFETFGMCMLVEMLVQLNRKVSTSLYGFSWPQYLRYGRTIKRPMMLMIMQANMTKDFSAGGLTTVSAELFAKTCRMIYTMMMFMANMAT,r
Pharmacophore2D,0.10340570535548987,-3.979436149043539,0.20869121090259257,0.010560613443097111,-0.001963013209936637,0.09676925044689066,0.20297046519480566,-11.862760105017587,-7.81011364382633,-0.03838339975752603,-0.18577355715769106,-0.00015003945856117973,MKLNKLNPRWDAYDRRDSFWLQLLCLKYLGLWPPEDTDQATRNRYIAYGWALRIMFLHLYALTQALYFKDVKDINDIANALFVLMTQVTLIYKLEKFNYNIARIQACLRKLNCTLYHPKQREEFSPVLQSMSGVFWLMIFLMFVAIFTIIMWVMSPAFDNERRLPVPAWFPVDYHHSDIVYGVLFLYQTIGIVMSATYNFSTDTMFSGLMLHINGQIVRLGSMVKKLGHDVPPERQLVATDAEWKEMRKRIDHHSKVYGTMYAKVTECVLFHKDILSFGDEVQDIFQGSIFAQVCASVIIICMTLLQATGDDVTMADLLGCGFYLLVMTSQVFIFCYVGNEISYTTDKFTEFVGFSNYFKFDKRTSQAMIFFLQMTLKDVHIKVGSVLKVTLNLHTFLQIMKLSYSYLAVLQSMESE,r
Pharmacophore2D,0.04843764711453184,-6.363609919552223,0.134740122675582,-0.001967846705091425,0.07630564066532419,-0.018749848590371432,0.051860167527215895,-19.343815519636504,-6.692087465389245,-5.506630594195717,-0.26371099500336026,-0.011805023536291204,MLIEECPIIGVNVRVWLFWSYLRRPRLSRFLVGCIPVAVLNVFQFLKLYSSWGDMSELIINGYFTVLYFNLVLRTSFLVINRRKFETFFEGVAAEYALLEKNDDIRPVLERYTRRGRMLSISNLWLGAFISACFVTYPLFVPGRGLPYGVTIPGVDVLATPTYQVVFVLQVYLTFPACCMYIPFTSFYATCTLFALVQIAALKQRLGRLGRHSGTMASTGHSAGTLFAELKECLKYHKQIIQYVHDLNSLVTHLCLLEFLSFGMMLCALLFLLSISNQLAQMIMIGSYIFMILSQMFAFYWHANEVLEQSLGIGDAIYNGAWPDFEEPIRKRLILIIARAQRPMVIKVGNVYPMTLEMFQKLLNVSYSYFTLLRRVYN,r
Pharmacophore2D,0.1078500162047881,-0.6074176851425784,0.049274669396265236,0.11287106718847051,0.23915858525925793,0.12515216704320542,0.01279359213674136,-1.9441179468508407,0.12667547264563894,-0.1792732025279562,-0.42425531721748144,-0.6161174317622529,MVLPKLKDETAVMPFLLRIQTIAGLWGDRSQRYRFYLIFSYFCAMVVLPKVLFGYPDLEIAVRGTAELMFESNAFFGMLMFSFQRDNYERLVHQLQDLAALVLQDLPAELGEYLISVNRRVDRFSKIYCCCHFSMATFFWFMPVWTTYSAYFAVRNSTEPVEHVLHLEEELYFLHIRTSMAHYTFYVAIMWPTIYTLGFTGGTKLLTIFSNVKYCSAMLKLVALRIHCLAEVRQDRAEKELNEIISMHQRVLDCVFLLETTFRWVFFVQFIQCTMIWCSLILYIAVTGFSSTVANVCVQIILVTVETYGYCYFGTDLTTESYSVALAIYDSEWYKFSISMRRKLRLLLQRSQKPLGVTAGKFRFVNVAQFGKMLKMSYSFYVVLKEQF,r
Pharmacophore2D,0.47453336289220205,-1.2674375406531433,0.6270711157811424,0.23126092718272395,0.6033338245675475,0.49227225425747956,0.41872869267211676,-3.2948290198429913,0.47056912718094723,-0.03779663567359881,0.11603966055638715,-3.5911708354864613,MKFELFQKYSSPDTVLSFVLRLLHIVGMNGAGFWSRIRVGGIFLFYLIFLVIPPLTGGYTDGHQRVRASVEFLFNCNIYGGSMFFAYDVATFQAFIQELKSLSILVCSHSYRLKYKLTRFNRRADIISKVQTTCMGAVTLFYWIAPIPSICAHYYRSTNSTEPVRFVQHLEVKFYRLENRTSVEDYITFVLIMLPVVVMCGYVCNLKVMTICCSIGHCTLYTRLTMEMVEQLESMASAERTASAIRNVVQMHTGLLKCIRLLNTSIRSMLMLQWLTCVLNWSISLIYLTNVGISLQSVTVVVMFFLATAETFLYCLLGTQLATQQQLLEHALYATRWYNYPIAFRSSIRMMLRQSQRHAHITVGKFFRVNLEEFSRIVNLSYSAYVVLKDVIKMDVQ,r
Pharmacophore2D,-0.16709912142696587,-0.3681805378501051,-0.010762126826708629,-0.0029777935503954023,-0.00011333595339069191,-0.8114618338973403,-0.010180516906994397,-0.5554100281664469,-0.4359743695805187,-0.2118294694334959,-0.10519129478633005,-0.532497527283734,MVLPKLSEPYAVMPLLLRLQRFVGLWGERRYRYKFRLAFLSFCLLVVIPKVAFGYPDLETMVRGTAELIFEWNVLFGMLLFSLKLDDYDDLVYRYKDISKIAFRKDVPSQMGDYLVRINHRIDRFSKIYCCSHLCLAIFYWVAPSSSTYLAYLGARNRSVPVEHVLHLEEELYWFHTRVSLVDYSIFTAIMLPTIFMLAYFGGLKLLTIFSNVKYCSAMLRLVAMRIQFMDRLDEREAEKELIEIIVMHQKALKCVELLEIIFRWVFLGQFIQCVMIWCSLVLYVAVTGLSTKAANVGVLFILLTVETYGFCYFGSDLTSESLSVARAAYGSLWYRRSVSIQRKLRMVLQRAQKPVGISAGKFCFVDIEQFGNMAKTSYSFYIVLKDQF,r
Pharmacophore2D,-0.0415752532760945,-9.627729512195504,0.8775444969938223,-0.9880051654746129,-1.0168937455143174,0.7427565415461561,0.1767216060684793,-31.716480351173622,-17.076685992765565,-0.3552222201511368,0.5997461840854255,0.40999481902737644,MVRLSFEETLRNTNLMLLMMGIPPCEEPYPPGVLPSLKRNAGFIASFLLLAYTTIGELIYLKQMFERDVTFLEVTFQAPCIGYCTIGVLKMVILARGRNTIAELVGLFRAKWTSAIVTGAHWAVCEDTMRPAIRVTSVTALANVVMGIAFTILPIAEMIYTHHYTGRWNRQLAFNIWWPFDVLGGVKYYWFVYPLYVVIGFTGIIIHMAFDCLFCILAAHLCMQFRILAHNFGHVVEVANGAREGDSGSTSRLRDAIRIHQELIGCSVFMQNVFGNALFINFLGSSIIICIQAFMITTVSGYMLVKFVLFMLCFLIELLMLCAYGEDIVESSLGVIDAAYGCEWYREGSVAFHRSVLQIIHRSQQSVILTAWKIWPIQMSTFSQILQASWSYFTLLKTVYGNK,r
Pharmacophore2D,0.11213095779903778,-2.081026837451555,-0.05483928339470867,0.27950628041708114,0.05413895371634492,0.06011371592402648,0.22173512233244508,-1.9018598755890723,0.12993744331992851,-0.07305956470133723,-1.9645382497832031,-6.59561394050409,MDPPTDELVRFESFIRVPEIFFAMIGVARYGEPKRTLRAYLKHLLFWSSCINTGYCLVIEHIYFVKAAGNFTNFLQLTALAPCMGFTALSFVKIMTIKLNETKLTDMLHRLDALFPSTVALQQRYGVYQYNRESQVVMKSFSILYMILIWMFNLLPLVSMVVGYVSDGTWHKQLPYFMWYWYDWHRPGYFEVTFLHQNWGGFVSAVFYLSTDLMFCAIVLLLCLQFDIVAYRLSHALPDDHQELVGCVRIHQAVIELCNELEHMFSPSLLVNFLSSSVIICLVGFQATAGITPADLFKFVLFLVSSLVQVFLLCYYGNKLIVASSQIPYSAFEGNWIGASGSYQRSLLFVMLRSTTVQKLTALKFSIVSLASYSKILSTSFSYFTLLKAMYEPNEKKMK,r
Pharmacophore2D,0.11423003480526583,-20.29189094102166,0.20725312433645626,0.07060620589712208,0.04408186675470205,0.173800331545106,0.0754086454929428,-92.91047300013413,-1.5968856717573106,-6.61073999447999,-0.32661464481644154,-0.01474139392043372,MVRLFFSKTRVTKLFTRKDERPEMFLPSLRMILFIFRMFYAWPDEHLEKSALWWYRAKGVLFRVFFIYLSAATQLAYNFTVTSREELFAGMFVLLTQLVMILKMEFFYKNVFKIQQLIRRLNGKLYQSRNAEEDIPLASARKKSTIFWVLYFMFSDGLVTEWLVISLLLTTLIVPVWPRVDHTTPYWVVLMVILYQYMAIVLNASFNISWDSLVAALLALTNAHLHRLQIQLLKVGHQNRNLQVDANKRMITVSPIDDDARSVPPKSDADVVYNELLQCIIFHQEVTGFLREVLTLFSGPMLSQLYCSVFILCITEFRLLTDVNTMADTMQAVMYLVCLVIQVVQYCYFGNEINYMAQKVHQATAFVNYPDMNIKTRKLLIAFQQITARGIKCSAKYIFTIELSMQTFVTIIKTSYSYLAVLRSMTD,r
Pharmacophore2D,-0.22199017404643656,-10.890795509947889,0.13025320115761985,-0.003481456541970518,0.13167871193898273,0.027439367316797858,-1.3958406941036126,-34.57663294177134,-9.087775816366854,-10.28054657120367,-0.4324899939671596,-0.07653222643042512,MEVLNCPLLSVNVRVWRFWSFVLVHNWRRYISIIPVTALNVFMFADLYRAWGNIEEVIINAYFAVLYFNAVLRTLILVYNRDKYESFLAGAASVYEEIRAINDDVITKLVSTYTKRARFLSISNLALGAFISGCFVVYPLFTGQRGLPYGMFIPGVNNFDSPQYEIFYITQLVLTFPGCCMYIPYTSFFASSTLFGLVQIKTLQHQLKTFRSSEMLNESTVVLNRKLQKLIEDHKRIIRYVQDLNDLVTYICLIEFLSFGLMLCALLFLLNIISVMAQIVIVGAYIFMILTQIFAFYWHSNEVREESMAIAQASYSGPWLNVDDTIKKKLLMMTIRAQRPLEITVGNVYPMTLEMFQSLLNASYSYFTLLRRVYN,r
Pharmacophore2D,0.19092336352431696,-8.458935900541487,0.24892690268796713,0.17960121052451994,0.11410368483008593,0.27397466293722983,0.13801035664178196,-40.09952890083797,-1.892436621888761,-0.37472984191993475,0.12625662645298985,-0.05424076451376458,MELKEEWILPDVVYANPLLKRTLLGLRYYGILLGQSQSYKKVHCFRGMVFTLSMVLFNCTQYIDLWQVWGSVSDMTANAATTLLFSTTIFRIIFFYFHRARFNSIIKAAHDGIERILKDGWTDEQSIVGSNVRYLKRLAVVFWSCALVTANMMCVYSLVQYLTYEEGPPDGTGTSAANITRKGQPIPPTPILRSWYPTADGKDKHFLEIYLIQLYIMYVGQLIVPSWHMFMVTLMIYGRTECSVLNHRLCFLERYHTAGKDDPTAPVNNAERRSLMIDCIKRQASLVSFTRELEQLTRAAVFLDFVVFSVLLCALLFEASMTPSGVQVFIDVCYITTMTTILFLYYWHANEIHACADRLSMSAYKSDWYRYDRGTNRMLQIFILYSNRPLKMHAFFISMSLDTFLAILRASYSYFTILKQLTD,r
Pharmacophore2D,0.14475392182285157,-6.815457193010451,0.26389191356271313,0.14562349636909455,0.20327345552819132,-0.1850066616632735,0.2959874053175323,-31.14629518368605,-2.4117351297546006,-0.2891955322858559,-0.1602482938288199,-0.06981182549692,AgOr12,r
Pharmacophore2D,0.16786619086546997,-20.125080158295685,0.4230844407720724,0.06908673679020005,0.14643196786455404,0.1670177484268578,0.03371006047366554,-94.27084559031529,-5.180198078684657,-0.8455584124967435,-0.2893321269823519,-0.039466582999378996,MNFLRQEQPAGMPHISIKLLQLFGVTGSPEERFRILPVMLTYFFFIVVPKCFFGYPDLEITIIGTAELIFQSNTFCGMFWLFLNRHKLAQFITQVRTFSLTVFRESPPAVVQHLTTQHDFIHKITRIYCIVVMFAAHFYVLTPLLSTFYAFYGTVRNDNVTVHYTLQMEENFYGLQTRTTTSHYLIFGMFMTPTIYLCAFTGTVKILSICNITMYCTLYFQLVQLKLRTATEDNTFNRQEVKSIVVMHQDALNCASLVESITSLVLLQQLVLCVMIWSSMLLYFTVSGFDLNFINLLVLFAFDTTETIAYCYFGEQLSNESARVAHTVYESGWETQTPDIQKDLQLIIARAQRPVGITAGKFCYMNMEQLGIIVKTTYSIYIILRDQF,r
Pharmacophore2D,0.29618946881695124,-9.054624621219062,0.5871175894878776,0.135566221908048,0.10319379472024226,0.4067192215618619,0.24835051640672645,-31.796862951337275,-13.464568084332903,-0.483700944357933,0.12692169977031054,0.3450871741624866,MNFLRQEQPAGMPHISIKLLRVFGVTNHSEERFRIVPVMLAYFFFIVVPKCFFGYPDLEIMIIGTAELIFQTNSFCGMFLLFLNRRKLAEFIQHARSFSQTVICASPPAVVRHLTTQHDMIHKITRIFCIVVMFAAHFYALAPFLSTLYTFYGTVRNKNATMHYTLQMEENFYGLQTRTSGTHYLIFGVVMTPTAYLCAFTGTVKTLTICNITTYCTLYFQLVQLKLRTVTQDNTFRQELKSVIKMHQDALNCASLVESITSLALLQQLLLCVLIWSSMLLYFTVSGFNVNFMNLFVLFVFDTTETFAYCYLGEKLSYESARVAHTIYESGWETQTTDIQKDLQLILVRAQSPVGITAGKFYYMNMEQFGIIVKTTYSFFVILRDQI,r
Pharmacophore2D,0.20318826803046988,-8.401021598664963,0.5715327232254244,-0.009288837274890493,0.20795239987015934,0.21561202789821643,0.030133026433439736,-41.123608240575216,-0.04496785577410267,0.18709596992581046,0.06636835275342046,-1.0899962196547262,MRFFLIEKPPGVPHIALKLLRLVGVSQTQSERYRYVPMFVLFLLTIAIPKIAFGYPNFETSIIGLAELFFQTNRFVGVLLLVLYSDSIFELVRQSEFFAKKVLSETSPVAEYLTKMDTQVTKITKLYLTALLVPANFYSYSPIVATLWKYYNTYENDTVPEFTLHMEESFYRLNVREKLDHYLIFGAIMVPISFLCALVGTAKLVSILSLIKYCTIYFQLVKVKLEEVGRSQNYASDIRSAIQMHQSALSCADVLHDITAPIMLLQLVLCIMVWSSMLLYFTVAGFNTQFISLFILFMFDTTETFGYCYLGNQLSDESARVASVVYDCRWEGMPPALRKDLQLIMLRAQRSVGITAGKFCFMNMEQFGEVVKTTYSFFVVLRDQF,r
Pharmacophore2D,0.11788040033009459,-5.187448024531085,0.3629993077524686,-0.3734711560555821,0.17602523243361978,0.2107768546008536,0.21307176291911312,-19.01109444668998,-5.931817726212707,-0.8222885555574639,-0.07064368795937748,-0.10139570623589655,MTSFKPTDDTDVMPLVLRLLRVIGVWDVPQYRYRYAAVFLSYCFGILIPKLCFGYPTLEASIRGYTELILETNVFAGMLQLYLCYNHFVPLVDELRAFAAIVFQDNQPMLLRTNLTDLNLRIHKYTLCYCLYMCCVCTVYCVAPLGSNIAGYTAAMADTASNSSTTFAFTLYLEQGFYWLDNRTSLLGYCVCTVFMLPLMYLCAYTATVKVVAVFNMIKYCQTVLRIVVLKLRLLKTLPDVRQRSDGMSEVWVLHQRALRCAELLELVLQPLLLMQFVLCILIWCMMLLYFTVSGLNVKFINMFLLFLFVSIETFGYCYLGTQLSQESINVGQALYASGWYEYDVQMRKHISFMIMRSQRRVGLTAAKFCFVDMEQFGAMLNMSYSFFVVLKDAF,r
Pharmacophore2D,0.35496355100364585,-7.186184487121712,0.38179808634583734,0.3592471896207773,0.31670841280156936,0.3770752584818243,0.33998880776822127,-25.894118441798433,-7.088540039762822,-0.06428896230020564,-2.363652588741873,-0.5203224030052265,MLRLSPEDPKAVMPVVKRLLKLSGLTQETTRFGAINFLNLFIYIAAVLVPKVCFPYPNTEAMIRGLSELIFFTNVYVGFFCFISQHRQRDLLNAIDSFVDVVYPTAAHPSDSPSEQILIKFNVKIQKLSVVFCWYIAVTATFYWLAPCLMTYRSIYMASVSVENGSVQSIQYYPNLEESFYWLDNRSSVYGYATFSIVALLVFTVASYNNATKLLTILTTIKYCNTLLQLVIIEVDNLNHATSNAIDRELKQVIQLHQRAVRCVALLNQTLSFVMTVQLALCILTWCFTLLYILTVGLDVTGMNGLLIMFNMTLEMFGYCFFCTELATTGTLIACQSYEFRWEEHDPKIQKMISTIVARSQLPLRITACGFITVNVELFAKVVKTTYSVFIVLKDFI,r
Pharmacophore2D,0.1591978292327976,-2.5662314953746,0.13828702094216727,0.17366169750468607,0.25474078958385127,0.12461487537181148,0.10468476276147187,-11.793202636657968,-0.13683199417295078,-0.16085359042516778,-0.44018569234380567,-0.3000835632731087,MLRLSPEDPKAVMPFAKRLLRLSGFRQETEQLEKQIFFNLFVYVAALLIPKVCSPYPDSEAIIRGLSELIFFTNVYVGYYCFVVQHRHYRDLLDEIQSFVNVVYPTSQQPESPSERTLIKLNVKINKISVLYCWYLAAAGLIYWSTPCLMTYHSVLKAKAEYGPNHPIRFYPNLEGSFYGLDNRTSVYGYAAFSIVALLVFAFASYNNATKLLTILSTIKYCSTLLQLVGVEVDNLNHTSSEAIGRELKKVIQLHQLALRCVALLNQTLSFVMALQLALCILTWCFTLLYILIVGFNAIATNGLLIMINMTLEMFGYCFFCTELDTTGKIVSRQMYEFRWEQHRPTVQKMVAMIIARSQTPLQITACGFIPINLELFTKVVKHSYTVLAVLKDLI,r
Pharmacophore2D,0.02776425644264304,-0.21268018024576288,0.05883896622392715,0.09371208925108099,-0.0745311569934306,0.032713969652854114,0.028087414078783568,-0.10835129059965132,-0.023160800511642154,-0.078156231158522,-0.9430493951615297,0.08931681620253085,MKIWEKYLERKRTLYHAKYQTPHQLFDAACDIVIKCFAVCGGERMKPGYTRRNARLIFLVTDLILYLFVNLYSIAIVWGSLMDVVFCFVTLGIAIQGLAKIEAFTCPELNDLHLYNVARFKAPPRFPEVDEALFHTATMCMVFIRIFAVAFSIVAIAIYSYAILMPLIEHELSLAFGFYLPFVDYRTPVGFAINWVYQFVQVLEGCIGLMACDSCLLVLIMNATGQMDVIIVYLKQLTLLIDNNHTGQHDEEIADIIKEIVLKHLEHTKYMTDMDKLLKKQFFINFGCMIFELVASLAIVVRVPWYPGMAICLICTNQLFINCALGTFLSSKNEKLVEEIYNVNWYGLTTKHQKTLQQILLTSQHPVVLSDGFSPIDLFNFVEIYKKIYSYLMVLQKVS,r
Pharmacophore2D,0.2834257733100569,-0.1840144640916081,0.21335230893436496,0.15402528422570982,0.2774593742158463,0.35885174377996054,0.41344015539440293,-0.2093196349995543,0.19239338303903464,0.10999439511620945,-0.7054811431511281,-0.30765932046260214,MEQEINQIISFLRRPLKWLGFDVIDPNWKVTPLTMFTIVMFALQHYTSYLYLSTHLDMFDMFTECFSTSAVALEIAIRMGLLVHQRELRNETIEIIRQQHKTFGNSAAIRKVTARFHKLISVTLHALAACYMSTMMFELIPIVSPNPRKSNLPLPMYLPYMPHDVTPYWHLNYTFITVMNLMCILFLVGIDGLLVLSILAAVHQIKLLKITIQELDIGAEQAELHRELVRIIQIHQRIQQFIHQLEQTYYIDLLVDFGLVCLILCMGLNVIADEVINAIWFFLIAVVFQLSLLCFSGNLLLIESDSLSSCVYSIDWHAMPVPEQKLLMVMIAHAQKPQVLRGIFMPLIMSSFLSVIKASYSYFTLLH,r
Pharmacophore2D,0.18292516681952614,-1.9549443333568621,0.1317758685514534,0.26811956388223657,0.11491447444555059,0.2691817266516604,0.1306342005667298,-7.361012519639306,0.47752199873341017,-0.1652829335938708,-2.513922164478244,-0.21202604780629897,MDSNSKKDTFPLIQISTKMLQIIRLWNESSGQRMSTFGVLLIAVFPIMWLIPSWLFIVSSQDNIKRLMKAINEQIVFCIVFLKFSFYAIHFRRWEQLFYDLQRSFSTVVNNPSLEIQTILGHVTKSTHKLTKYYCSIVSFNCAAYGLFPMLFIVVKYAVTGSYDVPLSTPIEGNYFIPGFRTNFWVWLPFNLAQNVVLQCHSFAVITIECFTWNLVYATSCMFRILQIQATELLDRSRDKKEWNIKFKTFIALHDSVLRSARTLEAILSGQILLLYVSTILAVCLGMVVLTLAIEDVYLLLTTFVAFGYCMFQMFSFSYLGTELIEQSEAVADGIFNSKWYEEDVKVQKDLSFVLMRAKKPVRLTAAKLFVVTRDSFTQVMKQAYTIFALMSQFLDDIAN,r
Pharmacophore2D,0.045289489758531844,-2.1505857441436698,0.02702331703616112,0.02617404480383778,0.038715565115789774,0.0781835979870491,0.05635092384982143,-8.700540041965642,0.16636867402044375,-0.14658969842585612,-1.7865061529770916,-0.2856615013702015,MKPSCKEGVFPLINLSIKLLKIVGFWSKTTGQRISVIGLLAVILYLLAWLIPNWLFIVSSQDNITRLIKATNEQILYFIAFFKLYFYVIHYRRWEKLFYDLQIAFSSVMTNPSPEIQGILGHVTKSTHNLTKYYSYVVNFNCAWYGVFRMLFIVVKYAVTGSYDVPLSTPIEAKYFIPGLHTNFWVWLPVTLGLNVLLEWHSLALVFVETFIWNLVYATSCMFRILQILANELSDRKRNEGIWTVEFEKFSTLHDSVLRSAGTLEEILSGHMLLLYVSTIFSLCLSMVVLSLPIDDFILLLTTFVAFGYCIFQTFSFSYLGTELIEQSEAVADAIFHSKWYTQKLNRQKDMCFLMMRANKPVKLTAAKLFVVTRDSFTQVIKQAYTIFTLMSQFLDNPVN,r
Pharmacophore2D,0.33772414056081346,-9.670252864615225,0.4997975017334023,0.46500703596840554,0.1788235389673063,0.16120025737334953,0.3837923687616033,-47.79800251381818,0.0053566900284977015,-0.010754974099533632,0.26015371778924257,-0.8080172429761578,MKFFQIDDTREILPIGCRLLMLCGLPRSGRVNRRFWLLCVFFFVFGQIPRFLIKIDEPIALVRVGAEIVYSTYMFLQLIALYARRSDLYRLIDTLQKCVENPYPDDVRAFILITRDTINKSSVMYSKCFFAVCISYIIMPFMATSAVVVRNRRNQTGEREDFYYLDIRFNLLHYSLYFGAVSGLSVIGSLALCTKDVMDFSLIRTASMLFQATAQQIRNLPPGASQAKLEAIIHSHRSTLKCAAQLQNALNPALLIQITFCTAIWCLMLFYILLLGFTSKVMNVCLLLLVLTCETYSYCQLGTQFTSNAEEVLDELQQLARYDQSIPIQKQIYFMIHRSQTRIELTAGKLFPVNIAQFSEIVKKSYSYYLVLKDIF,r
Pharmacophore2D,0.33036057493665333,-3.3730352110706727,0.29379016448309836,0.3988153224085075,0.2908344881908633,0.2536518890328605,0.41471101056793713,-14.298222969715347,-0.3443433188931042,-0.11026860326160093,0.34919972657870013,-2.4615408900620106,MLAAETVDFFRVQSICLRAIGIARTDSFRGRVLFAVSFFTVLVMMLGTVMFAFKHIDQIMLLCDCLGPTFTAYLGLVRQYNLLLHRSELWSIVDEFAALKHSLQSSEIRIVQKYNRIDRFLAWAYLITAMSTGVLFVGVALVLVFLSEKSDWKLPLLMDFPFDVKHPVTFTIFFVWCSVAIFWVVLDCVACDSTFGTFSSCLVAHFVIIQERFEGLRFDDGNRELKKLIEHHKYILRISDRVINAYKNVILNQLLISSVLLCMLGFQLVISVGTNIMVVYVAYGMAITIQVTYYCYYGSQLYYESTQVHDAVFKSKWYDASVATQKMLINCMMRAKKPVNAKSGFTQASLPTLNAILNSAGSYVALLMSLME,r
Pharmacophore2D,0.17949524279430787,-0.03571980775195993,-0.09326435875217753,0.3319434974994704,0.19200835568432884,0.15922573444440602,0.3075629850955116,-0.6249008552767406,0.09341885020524532,0.07856261793129304,0.1697780607808992,0.10454228759950335,MSQLNEFPAYQFRLIRFCGVVEQPSLRNNVRCLFAFILLCSFGPLHVWYLAKTPVLDLVVTCEEIMLIQLCFVMLLKFNLFITYRSGMYNLVEAFKRILKCIDKAEFARFVKCSELHAKLLRAYVIGTSIVLLLYELNAIVASITLSLQQNKVCFVTPFSFPFDYQHPIVFALTFLHNFDAMLVTVCTSVTVDSCFSEMASNLTIHFDIVRERFEKLDLSAAQPYAEHQLRNVITYHREVLSLAQKMVQLYQQSAFYLLLLVSTILCLLGYEFVMVSNIYKRMQVAILASIMIGQAAIYTYHGSAISAKSVSVADAIYGTNWYDAPLAVKKLVYICLMRAQKPVIMKSGFIEASLPTLKKILSSSASYITMLMSLEADLNEKKT,r
Pharmacophore2D,0.3530270915941939,-0.3109779064164527,0.4203919330763779,0.2700761584491512,0.3912727697191217,0.2578617556102485,0.42553284111607026,-0.9758638058685667,0.4227474826979135,-0.3690366821389295,-0.684039127290234,0.05130260051755309,MMGLSRTIPSWPVLHNISFARASQVRRANMEYIYRWILRDDTFAKEVYIKYNFTKLRTLGIYKDASRTRLARRAGFYALELFFLLQLGTIVWDLATVLGNIGLFGDDMCILAGLLLTLAKKWHCVLYIDELWECVEQMQTYHEHYLLQGEWFVRRMRRQNLQERMLQDASKLLATLLASCLMVNALFSNGETLILRAIYPFSTATTLGYGCVFVCQAFLIVYVLYSMVLIDCIGAQALSQMALLFCMQRKQFELIGADLQLPPEGPLHGDRSIRDQVYSAIASHQQLLSFCNRLKRLYEPNIMAQFVCSMLIICLTAFELMFAKGDPMQMVRFGAYMLAGFYQVFVWSFFGNRVTNMSTGISDATISCNWIVLADGLKKDLRFTTMRSQKPFVIDVYWLFPLTYETFIAILSRSYSIFTLLRTMIE,r
Pharmacophore2D,-0.375867000765425,-0.404322285507682,-0.23801613106023356,-0.12963797789618647,-0.30073978712376115,-1.2584239427315116,0.04748283498456762,-0.1797554443599758,-0.00027778399278788335,-0.18304487807538306,-0.14510659863083997,-1.5134267224794233,MSCVEDFLDAQMWYLRYCGVFREKSALGGIRLSVCLGVLVVFMVLQSIYIFQHVHHFAMICDAIPTLVVCMVAISKFYIFVFHPAALFALIDSFKALQRRASREDLLLFRRSGAFHAKLTKIYMTSALIVGWFYILSAIVSGISRSLAEGRVHFVAPMAFPHNYQHPLMFALTFLFNCDSIHMSIFISGSVDTCFSELATSVTIHFQLIQRQFQAVDFAARTAEDELEVVVAYHKDVLQLCLAMTNLFQYTVFYLLLLDSVLLCVIGYQFVIFMNTPRVLMLASMAFVMVLQAVIYCYHGSMMYDESLKVADAIYQSNWYEAPPAVQKRLRLCIMRAQKPIVTKGGFIKATLPTLKKILNSTGSYITMLLSLETEQ,r
Pharmacophore2D,0.21159496496623947,-66.40746978112098,0.4515943263393952,0.18624365070399862,0.07125362235447619,0.08899971401627194,0.25988351141705535,-332.1655067089265,0.20240837422062907,0.0509008790339841,-0.19605505951409796,0.0709036095811082,MIITVAPVTDARPQTPEDCGMFKFQRKILLIFGCWPPDRLTRRWYVKVLIAVNLITLAICIVGEFRYCLYAYRNGSLIETIESICPTVARFSGLLRMCWFLRNEHKIKSALNSVVHLIKNEHPRETGYTNRITARDQTITKVLFHSSFITAILYGIIPYFMMAYNWFQGQYPLVKLLPFKVVLPFDSQDPTLFVLTTIFLNYASVPTITAMTSTDALFSGVCLYMDGQFQAIRLELEALAETVDKYTLKSSAAETLRINLELRRINKRHQTIIDVVSEVRHAFTPTILIVHICAAFMICVISMAMFLAEGINKLTYMPYTFTVLMLLFMYSYGGTVVRESSEAIQTVAYGFPWYQFDRNTRHLVQMMMVRAKYGCNVDVPFFQTSMATFSVIVRSAMSYITLMKSFL,r
Pharmacophore2D,0.28700779436081625,-1.2235357023106193,0.40731285006767315,0.4405761399829269,0.28490534583709215,0.27689097449532896,0.025353661421060214,-5.239686791046061,0.39824444225413247,0.1543677325064723,0.0064844599173161654,-1.437088355184955,MVSFGAAASNPRDAETTPHWDIFKLQRKILLIFGVWPADRLVRPWYVKVLIAINLATLAICMVGEFLHGLYAYQEGDLSESIESICPTVARISGFLRMVFYLANEEKIHRVLNNISKTLQDEHPREHTITKQLTTLGQQFTFYLFLMMFFAACLYGVTPFFIMIYNWVQGQRPLVKLLPFKLALPFDSQNLFPFVVTTLFLNYASAPTITSQSGSDALFSGVCLYIYGQFQAIRLEVEALAETVDRNTLKSSAAETHRINLELRRISKRHQAIIDLVSEVRSAFTPNVLLVYTATAIIMCIVCIAMLVVEGIYKLTYLPYAFAELTLLFLYSYSGTIIRDSSEAVQTVAYDFPWYRYDRNTRHLIQMMMIRAQYGSNVDVPFFETSMASFSAIVRTASSYITLMKSFL,r
Pharmacophore2D,0.20415833868864955,-0.9802453303538339,0.41069128472978134,0.11834358102848419,0.06537289338756958,0.23418046260781533,0.19220347168959717,-0.4100976984286604,-0.21779574282237757,-1.522569304379974,-0.23706819311874883,-2.513695713019408,MSEHPIHTFDRLIKRQRLLLKLIGIDSYDPAFRIHSLTFMLVCLALTFFVISLYDLYLFRDDLFNFVYVLITIFFATIGIGHISVFLLCSKLLAELLEQSYRTYRLVVDDQREQRILQWYTRLFQRAVDGYTLVFIGTSVAAGLLPLAIYLLSGDRVLPYGVVLPFVDPDSLVGYELNYIYQVSCIIWTPPGLVASVCMLFGLVLNICIQYDILAVKLQDLDELIRSPHPHRDAMIGCKLRSILRNQQRLISFIANIEAAKNVHSAVEVLSLGLQIVITLFVLQFSLWIPGLVLIPVFTMQLFLFCLLGTIIEDKGVKFSAGVYSLTWNELSKQDKQIFRLLLLSSQQPQTLTCAGMTCISLNLFVNMSQKFYSIFMMLRNM,r
Pharmacophore2D,0.35900558321109327,-0.10515629450958101,0.5414200363362636,0.41366594593555317,0.32894639343662946,0.36592713510743713,0.14506840523958298,-0.371183398106848,0.3862408708405962,-0.05690585877289589,-0.3132603624010286,-0.17067272410772882,METHIGKQHSLERFQAMVAWQNRVLALFGCYMYLGKERVSYRIVPICFMACSFVLLSLYSAIQARGNMGLAVLSIVVLFYGIIGVTRLAVAISNPAGCYRSIQIAEEMYQRANGSNPAECNVLAKYTDLFCKSVQLYTVCFVLSVVVLTLMPFALYLLRGERYLPLGIVLPFTAETDDFGFWCTLVVQLAYMYTGPFGLIPSQNIYFAFVFNICLQYELLIERLKQLDERIRSSNNLKLTVRDQLVKIIQLQQESTNYITHIERFYQLQSFVEFLCNSLQVALTLNELHRNFWLPGLFILPIAVMQMLILCSLGTLIELKSDQFKDQLYDIAWPEMDLPEQGMFKYVLKSAQQPKQLTCGRFAVINMNLFLAIHKKIYSFFMMLQNM,r
Pharmacophore2D,0.33697928551973855,-0.5179832757336642,0.4123382458898527,0.2148711467735912,0.3633564845148657,0.33184442655145174,0.3624861238689313,-0.9002408129159472,0.3534399598621212,-0.9089824325943812,-0.6640374066567676,-0.4700956863633461,MTFTLSHDLYVYNLHLIRWFASFVGLDIMAPNYKPNILTFLAFFGLSISLIGEVYTVWYFWPILDKLMESAAIFGVFIQGLAKFYIALRYRKFFEAMYNRLDLFHYEYRNHEKNNATLLLLMNRICLLRKLITSQFSISILTLMVTPVAQYILKGERFLVYTIILPFTDPEITSHYLLNLVVQYYLLIVGLAGFSAAESVLILFVTSVAGYADVLKNKINEMNTLLLDAQNSRDRTSVKLKLREIVLLHQRVLEYEDDLDKRYYLNNWVQVASSIFNLTGALFGCYVSNSFTMYALAITIVIQLFELCLLGTILSIKNEEIEHAFYDSLWYLMDHSEKKDFLIMFHKCQHAKEMTVASMAPLNIVLFIAIMQKIYALAMMMMRFSE,r
Pharmacophore2D,0.16428997913835425,-0.2421801891507292,0.3249862110555941,0.04380056668089416,0.17352741605696154,0.2119803339741264,0.06715536792419508,-0.8846192579001326,0.2049289625603018,-0.28194648981538095,-0.23895733506231598,-0.01030682553611828,MTFTLSHDLYVYNLHLIRWFASFVGLDIMAPNYKPNILTFLAFFGLSISLIGEVYTVWYYWPNLVKLMESAAVYGVFIQGLAKFYTALRYRKFFEAMYNRLDLFHYEYRNHEKNNATLLLLMNRICLLRKFITLQIIGCILVLSLNPVIQYIIKRERVLVYAILLPFSDPEITSHYLLNLIVQYYLMIAGIGGFAAAESVLILFVTSVAGYADVLKNKIDEMNIILLDAQNSRDRTPVKLKLREIVLLHQRVLEYEDDLEKRYYLNNWVQVASSIFNLTGALFGCYVSNSFTMYALAIAVVVQLFELCLLGTILSIKNEEIEHAFYDSLWYLMDHSEKKDFLIMFHKSQHAMEMTVASMAPLNIVLFIAIMQKIYAYAMMLMNFFE,r
Pharmacophore2D,0.41119725180415134,-0.21006374117865384,0.388576767841712,0.3925465159355256,0.39172932151220297,0.3467928984991634,0.5363407552321529,-1.1957813193386246,0.15794155145618827,0.2885775610097716,0.09597469696937044,-0.39703119598997505,MPRATSNSAANLERLVIRISSHMAVLKLNIIDPAWRPTLRFGIVLFLTALVPVYIWQGIKVYRTRFETLLEVLSVAGCGWQMFFRMYFYLFQQDRCRQIVQEVRDQRTVYGADRNPRMEKLFRAGTKRMLLAYRVIHLMYGTSYFFQLGPLIMPDPHKCNLPLALQLPFLPPDRNMVYYCINYAHHLLLNTIGVFILLPMDGVLIVALLNICTRIAALQLLLEELDAKLGTVQWQQTAHLDAELNRIIELHIDTKRFARVIYETYQMHFFSMFSVLCFVICMCMNVVARDPRSTLIPFGLASTGQLFVICMLGNVLYIVSDRLKDSVYGIRWYRCTVSQQKRLMFLLANAQPEIVMGAVFIPVTMTSFVTIIRAAYSYFTILY,r
Pharmacophore2D,0.06210962521609777,-0.42005838167292076,0.34578654134116227,0.056052278118549625,-0.06225915647193059,0.05468226543343313,-0.08371380234072556,-0.4669716935331658,-0.5983448146426951,-0.3566039799594156,-0.681579844258019,0.003208424028691481,MVVFEPLDDPLKVLPLPLKLLALLGVNKNPSERFRLYAIYIYLWVAMFIPKLCLGYETIPQCFRSIAEGMFSFNTTVTFIMLPLKMDNFEGLLQNLQRFTQIVTVEEDYKQILISLNTTIHKFTKFYFIFTNGVVFSITGSTIAGMLYTYYTKDSEYSAAFPLVMENRFYVLDSHYNLGHCFVHQALMFFALYILLVMFTAKAGTLFGLIRFCSTVLGIIVLKIERLSQIGPVDQYTAELSEIIELHQLVIKCSRQLQNILMEILLAQFTGCVFIWCFMLYYVMISGITAEGIAVGAMLIALSTETFIFCLLGNELTLKGLEISTAMYSTNWYDQPVKLQKMVVPIIQQSQQRIGITAAKFYYIDYNRYGQSLKTAYSFYLLLKDIF,r
Pharmacophore2D,0.438424708211486,-1.7612302863923321,0.6178907576601087,0.08140909814073682,0.41187992351362146,0.6250030658749256,0.45594069586803754,-8.492553122335943,0.08008468087198051,0.17351098237145746,0.05501248191471453,-0.6222064547838699,MVNLFARTPADNFRVMPYNLRLFAMLGLWGDRRKLYRLYALLLLAYVAIIFPKPVRITDRHPFESIVRSVSELIFAALCYLTIIILAIKSEPFRAVIRKMEQALELFRDKQDQCSQLIIEVNANIHRFSLGYAKLNLLYVLLFNVIPPIYNYPRYFLQWRMPEDNRTVEFMLPLMQDLYGLDVHHNIVHYTISWVAITPFCVFCALILWFKGALFMLIRYNTLLYQLVNRLLQQYDRESAGGLLAQKHRRLQQIVQLHYRAIECTKLLDSILSLILLIQCVGCLLMLCLMLFYITRNHSLNVINIAVLLMSIFIEMMCFSYLGNQLTEENANISHSAFNCRWYDEPIVIRKYFLRIILQAHRKATITAGKFYNVNIVTFAQLIKTSYTYYMIMKEMF,r
Pharmacophore2D,0.26528364817669214,-0.6907957345982226,0.2582486498280475,0.3360601005343481,0.22751793999502168,0.2850869510458447,0.2195045994801984,-2.4678512732977684,0.2726416987932756,-0.2576018103628632,-0.7067478649561196,-0.29441942316763736,MLSLRPEDPKAVMPFAKRLLRLSGFSPGTEQLGRCIYVNLSIYITVILVPKVCFPYPNTEAMIRGLGELIYFTNVYVGFFCFVVQHRHYRDLLDEIQSFVNIVYPTSQQPESLSERTLIKLNVKINILSVLYCRYIVVAAFIYWMVPCVVTYSSIHKAEVSMGNESIQSIQYYPNLEESFYWLDNRSSVSGYAAFSAVALIVFAFASYNHVTKLLTILSTIKYCSTLFHLVSIGIDELNLVSPAHIDRELKKLIQMHQLAIRCDVLLNQTLSYVMALQLALGTLTWCFTLLYILIIGLDVTAMMGLLIMMNMTSEMFGYCLFCTELTNTATTISQQIYVFQWEKHSPAVQKMVAMIIARGQAPLQIKACGFIPINLELFAKVVKTSYSVLIVLRDFV,r
Pharmacophore2D,0.10012897113834134,-1.0358979997753326,0.1285998492346634,0.01383776261628733,0.2312831769638033,0.0988203872721648,0.02810367960478788,-3.579428948750265,0.1197550500360891,-0.6586774593154223,-1.0550933434382705,-0.006045297408794115,MKLLELDNPREAIAIGCRLLKLFGLGRDERFKLVYWLQCVAYLAFSIVPRLLVEIEDMVALMRLIAELVFVVYLCLQIMALYCRRRQLYRLVDMLQQCIDIPYSEQIESFLIRSNVKINQSSAAYARFFMCVYVLYCTMSPLASGFVYIRNQRNATGVQEEFIITTEMNLYDLDIRYNPLHYSIYAGLIFVLSAISSLSLCTKDVIDIAAIKTVTLVFGIVTMQIRDLHEQITQERLNRVIKSHSNALSCATQLEQALNLSVLFQFASCSAIWCLMLFYILLMGLDSRVLSVVLLLVIVSIETYAYCMLGSQLTTQGEDLLMALQQLSWYDQPVPIQRQILLMIRRSQTPLILRAGKLFSANVVQFGDIVQKSYSFFLVLKNVF,r
Pharmacophore2D,0.3370457066725995,-0.8698551818281667,0.5187686245136773,0.32092135705928027,0.3078797497888678,0.3768479343237603,0.16081086767741182,-0.3480025262052393,0.20969815886742926,-1.0793441469077152,-0.00045902113087969987,-3.131168373764428,MYYLEQLRALVRRYLERRSPDPRIQHTFIVQSINRVGGMLGIDIFTPGYSSTNLLLRMVLLNTFTFFWINLYSLTTTYGNLVDFMYSFETLLYVGIACIKMYVFIKNKTLILQMHQYMIDFFDHFHGDREQDELLVRTLNNTTLLSSLFAVCSSSAPGLLFVGSLLWSIAVEYVLPFGFFIPTVGMDTLQGYTLNYGFQMLETTLMVIGIISSESAFFMFQQNACLQVDMLRYSKSMCSLFELHFFIVFGCIFFQLVSNVVVIVSVPDWYPGYFLFIMLTVQLFFSCALGETFNIKSDELTVAIYNVPWYNMEVRDQKAMRLLLMASQNPGRLSYGFGTVNMRAFFEIFRKTYSIAMMMISVNEEE,r
Pharmacophore2D,0.2916412034337637,-8.982858975711363,0.47101580130226783,0.14906059656753912,0.21253343476979092,0.339734156008178,0.2858620285210428,-43.25368018440459,0.36883180218804135,-0.5431024859558904,-1.2052905538757148,-0.28105345650865643,MDIVSKQGEFPLVKLSTKLLRIIRFWNDSPGQRIPSLGLLVTAIYPLIWLIPSWLFLVSSQDNITRFMKAANEQIVFSLICCKLCFYAIHFRRWEKLYYDLQRSFSTVLNNPNLEIQTILGHVTKSTHKLTKYYCSTVSFNCAAYGLFPMLFIVVKYAVTGSYDVPLSTPIEAKYFIPGLRTNFWVWLPVDLTLNAILELHGFALVFVETFTWNLVYATSCMFRILQIQVNELSHQSRNEKEWNGKLKTFIALHDSVLRSAETLEEILSLQMLLLYISTILALCLGMVVLSLAVNEVYVLLTTMAVFGYCIFQTFSFSYLGTELIEQSEAVADAIFHSKWYTQKLNRQKDMCFLMMRANKPVKLTAAKLFVVTRDSFTQVIKQAYTIFTLMSQFLDNPVN,r
Pharmacophore2D,0.30160607619117413,-8.258017593559057,0.40712140528858887,0.1520506955504377,0.3344207506744141,0.21229524201036576,0.40214228743206404,-39.83327353699697,0.2652322732495198,-0.736419728458332,-0.8796418112948767,-0.10598516429462945,MDIVSKQGEFPLVKLSTKLLRIIRFWNDSPGQRIPSFGLLVTAIYPLIWLIPSWLFLVSSQDNITRFMKAANELIVFSLIFCKLCFYAIHFRRWEKLFYDLQRSFSSVLNNPSLEIQTILGHVTKSTHNLTKYYCSTVSFNCAAYGLFPMLFIVVKYAVTGSYDVPLSTPIEANYFIPGLRTNFWVWLPVNITLSAMLELHGFALFFVETFTWNLVYATSCLFRILQIQANELSHQCRNEKEWNGKLKTFIALHDSVLRSAETLEEILSLQMLLLYLSTILALCLGMVVLSLAVNEVYVLLTTMAVFGYCIFQTFSFSYLGTELIEQSEAVADAIFHSKWYTQKLNRQKDMCFLMMRAKRPVKLTAAKLFVVTRDSFTQVIKQAYTIFALMSQVLDDTMG,r
Pharmacophore2D,0.22087034047847048,-0.14477697535547393,0.3812534704552585,0.20059809083961289,0.1580267953225547,0.14758661987921995,0.21688672589570634,-0.029040827207626574,-0.3807748202481318,-0.13245819910609669,-0.31694833843441006,0.13533730821889545,MFSASAEMEWFRQQRHAICHLREGSDYLRYLRPFQLIAGYPINPRPALSKLATVVRLLAYLTYLGTLLHKISYVLYRPEDINYVSFVSGGITVLVAVLLLMLIFTVHYDAFQQLGTFLNDRAFARDHPLATGIRDRWYRWSNGLILGPQCCIVLILLQTWISRQHLKKHTMLVVRGEPVGTEFDHFLYMSCLYFPTVGFFMGCSIVNAMLVGFLGEMELLATCLGELFETVERQVKEEGPTGRPDSRALYWSTLHGELRRCAQRHCAIFTMLPKLQRMASFVFLQHHIFSLGLVVAGSYVTLRGPALRENIVLSEYPISVVLEYFIFCQLVEKLQDMNRSIGDRLYGTEWMLKLQYSRDFQREYRSAALTIRLLIMRSQHRVRFTCGSINPVSMEKFTEFLNLSYSIVMFLLSIN,r
Pharmacophore2D,0.25783615194824094,-1.04564112693146,0.25203384308013654,0.12962771846927623,0.38726537656058446,0.34510028720401387,0.1751535344271934,-1.166303331169043,0.024185570527790468,-0.7243177495093827,-3.2376730164127405,-0.12409710809392438,MWHHQVQLWFRFLLGRFTTFTDSSDYFGLYKTLATISAIHYDASCWFDRAIWIVYRSLPILVNISYFYKAYRLILFPEDNTSAASVIASVWGFTEGTLRICLIELRYGTLASIMSFLNERSYRQQDSLVRQQRATLFGENNRIQLILVATMLMEAIWFMTTQLFSRDAFMLQVNGHVVDSIAVQILYGLLSNVWGLIYVLSFAIFYIIMNTLHLEMSILLDGITSVQFTVMRRLKQRMETLAASGHSSTQVFWSILQPELNSHISRHVDLLDNLKEFSSIVGPFSFVQYYGTLALIADCGFILSIEGLSANGMIYLLFVTVLVFQSFILCRGIEKLNDLNEAIGQALYSGFDWPDMLQYDQRFRRQYVTVRHTLMLVIGRSQKGFQCSYGGLGSISMERFAQLMQKSYSLLTILLQFAK,r
Pharmacophore2D,0.3734084687059669,0.020534932553696893,0.3898877834789942,0.3972388216668514,0.46359363421130195,0.3783970775342199,0.23792502663846682,-0.5285524610029866,0.4681057528551321,0.07122077770522106,0.05846570796634698,0.033434885244770896,MYLTQLFASMRTQFLHRITHYTKHSDFFIMQRYFEKIYAIHYTPHGWHDRILWYLYRALYGLIYLSYIHKTHWVLHHPQDSFSTANILGVMWFFSVVILRVAILEWYYPLMLRMQTFLNNHTSYQRTDPWAVGRRARFYRRTNRVILTVMGINLAETVCFTATNVMKLDEFMLQFRGAIVGGWPVQIVYGVLTMGFGGMYCMGFMMCYLLLSIFKLEVDILIRSLEEVERSDRLESDFGDSADIFWNNIVDQLRPHMQRLDELFIQLQHLKAVIGPIAFVQYYSTYLIIADCCLILVSHGLSSFSIVYFISMLVFLTESFLLCHGVENLRDLKPRIASTVYDFDWMLQMRCPNPRHRAQYRHVRRTLLLLTAQSDQTIQFSFAGIGEISMNSFAQLLEKSYSMLTFLLQFAK,r
Pharmacophore2D,0.07646156778651111,-0.4753371340897454,0.038482802108487535,0.047927574470399525,0.019378625807120686,-0.008888534353596711,0.28540737090014456,-0.46876683333495217,-0.3683710525344195,-0.10863711556217126,-1.2208531615264224,-0.21005750749076135,MFHPSRWMAKCRVWYAATFKFSADADYFFLVQPLCRSLQLFGNPVRCLQEFGTVRGLFVQLCRFLFLLPYASFALKSYWQLNHPLDTNNSILTYGSFVIYMLWAILIWVLNHYEHEMCELRLFFKNPTYQEQSDWAHRIRAGNYRRWNWMILMFYLFNVINVSIFTLTNAHNRQFHFQTRGEVVGPLYFQIIVEIFTGYLSLGYFVPSCITLMTLQLFRTEMHILTTTLKQAANEEQQQQQHQHAVDIRCAYRSFCKQFYANIRRHTELLQSIATFCKVFSPISVVLYYGALITITCTCFYVMKHDVSTTTVCYAGFAVYMLFNTLLFCKSIDSVNDLHTEVGYIMYSEYWPATLQYADQGLSTETLRPLRRSILIVLQQTLRPLRFGYGVSGSLSMQRFGEFMQQIYSLIMFLAQLN,r
Pharmacophore2D,0.10798669604778799,-1.4475101945586666,0.006650059953897225,0.11679101974899819,0.24682319394792818,0.07299269100508621,0.09667651558303014,-5.018431419643588,-2.2099520907850416,0.2246173778099554,-0.10615878924792854,-0.1276260509267293,MVKFFRCCKARVSPELLSKKNEKPEAFLPSLRMILFIFRMFYAWPDEQSLAPNALWWYRAKGVLFRTFFIYLSAAAQLAYNFTVTSREELFAGMFVLLTQLVLILKMEFFYKNVSKIQQLIRRLNGKRYQQSGNAEEDMPLVSARKKSTIFWTLYFMFSVGLATEWLVISLSLTTLIVPVWPVVDHTTPYWVYLMVIFHQYVAIALNASFNISWDSLVAALFALTNAHLHRLQIQLMKLGHRKHLHPPKDAKRRMIAVSSFDDNARSVPTKSDADEVYNELLQCIIFHQEVTGFLREVLDLFSGPLLAQLYCSVFILCITEFRLLTDVNTMADTVQAVIYLLCLVIQVAQYCYFGNEINYMAQKVHRATAFVNYPDMNIKCRKLLIAFQQITAVGIKCSAKYVFTIQLSMETFVTILKTSYSYLAVLRSMTD,r
Pharmacophore2D,0.18688365679738309,-0.46217275311852524,0.3225679239396584,0.08964008389363065,0.31162060205318676,0.14902868300638394,0.06156099109405566,-0.06434540569803393,-0.09440729201708709,-0.5729191577838124,-0.681085118748278,-0.8981067913454146,MEASEKFSQFERYIRTLCNIIGFDVMTETWKKSYRTYMSIFLCSQYLILMVYSLIIASDTFELFKSLSFLGFFFQCSLKMYYTIQQAPQYAVNFCCLKEAIYERHSKGTLAQKTTVARIIDLLVLVTKAISVLYTSSLFIFSLYPAYMYFVVHVKVPIFPLYIPGINIYSAYGYGITNSFHMLIAVYGLFGALTSDIVFIMFVVHFVTYGGLFKIECEQFDQDLSGVFQHCEWRTAVYKTFCRQRMRAIYQYHQSVIFYLESMQECYRNICVVQVASCSLSTVFNLFLALTTDWYATYGFIVISVFQLFVYCLMGTVMQIMNERMIDYISNLPWYMLPTEEQKQFKFMLARSQLSAEIMIRSVGPMNMETFTDIMQKMYSAFAMMYSFLVDLG,r
Pharmacophore2D,0.01605655315285399,-0.7240084697324278,0.36174949375879817,-0.0009755142090255298,-0.22921522662203508,-0.3395586145936904,0.2882826274302228,-0.11561217153562531,-0.3062019705152499,-0.3543756191693106,-0.4230865276406677,-2.4207660598012857,AgOr67,r
Pharmacophore2D,0.05393425678083865,-0.2722504992029019,0.07098145526463817,-0.016885952135785143,0.03587751601299105,0.11008455970746311,0.06961370505488607,-0.5392450527482311,-0.11708438252395581,-0.5900333628956733,-0.022010997300133894,-0.09287870054651526,MANVEEFRKLMKSLIVCSKVAGVEMWTAPGKLKPASYYVSFHITVYFVSTVWTLRKYIDDPIHMMKVLITMGTAVQLYIKFFVAHSKAQEVKLFTVELEQEVLKRYQNGSEEETAVLRRTGRILWIVHRLMSASYIFVAVAFGLYPAFYYFATGKVMPLFLYELPFFNVSSSLGYAVTMGFQINLLAIGVLGAILSDFMFFMYAMYAMARADISIVHLSELENILNDSTKNEEHSANVRHKWIQCMHDHQQSTSFFSTVENIFGLMCLAQVSTATLSICDAMLLVLLTDWYPTYSYLYVVFVQLSGFFVIGHLVELKIDALYNKIISMPWYRLPVKEQKEFRFLLSRQQCPMILTAYGFHPMNFEAYMSVLKGLYQFFVMILQYIGRN,r
Pharmacophore2D,0.1597375624673684,-0.07181867669789814,0.04018510174498757,0.2551863016845132,0.4183643273734222,0.3477587964741179,-0.2628067149401989,-0.877132169555912,0.2518978255714297,0.27278265080291797,0.19666618230391497,-0.20330787261184136,MTVVHRIVSFGYNLLQRHFNVGHPTEQFFLLRCLDVVSPAMLLQRPRSNLEVALKTLCLSVMVAHTIALAYDFSQQTDVRLAMDMLCMLSLFVSIILRGTCMRQYLAHINALDRLERRPTFRIGTPYADESRRNVALQNSRYLGVALVFHSLTVTVYVIQNMVRENSFVKIITSFPIDLSERAPVLERVADLCYSLVGYVWGWYHGATQLTIIVLLRYAITEFRVFLHSLDSLDDQLQQRREQSQGAPDEERILRELLYEHARHHSQLIVVVTHLRTLLRNYSLVHFSFYMIIVATFMTRVLIIPGRSSFGLAIPLLVTTIYFLETFGMCMLVEMLVQLNRKVSTSLYGFSWPQYLRYGRTIKRPMMLMIMQANMTKDFSAGGLTTVSAELFAKTCRMIYTMMMFMANMAT,r
Pharmacophore2D,-0.004342842922677748,-0.8713196652191904,0.08865726288711362,-0.10001071676050532,-0.15272153271477573,-0.03326143404206183,0.17562220601684053,-3.6546606486962787,0.14504947281348868,-0.29522237466770185,-0.5064850019302021,-0.0452797736152577,MTVVHRIVSFGYNLLQRHFNVGHPTEQFFLLRCLDVVSPAMLLQRPRSNLEVALKTLCLSVMVAHTIALAYDFSQQMDVRLALDMLCMLSLFVSIILRSTCMRQYLSHIDALDRLERRPTFRVGTPYADESRRNVALQNSRYLGVALVMHSLTVTMYVIQNMVRENSFVKIITSFPIDLSERAPVLERVADLCYSLVGYVWGWYHGATQLTIIVLLRYAITEFRVFLHSLDSLDDQLRQRREQAQGAPDEERILRELLYEHARHHSQLIVVVTHLRTLLRNYSLVHFFFYMIIVATFMTRVLIIPGRSSFGLAIPLLTTTIYFFETFGMCMLVEMLVQLNRKVSTSLYGFSWPQYLRYGRTIKRPMMLMIMQANMTKDFSAGGLTTVSAELFAKTCRMIYTMMMFMANMAT,r
RDKitDescriptors2D,0.0486968270332522,-4.15335173906537,-0.014634479723058869,-0.0388637901567066,-0.001962144336372429,0.04937685010799253,0.24956769927440636,-11.934006062782053,-8.538298116798678,-0.05827738659280213,-0.20262620573457713,-0.03355092341873522,MKLNKLNPRWDAYDRRDSFWLQLLCLKYLGLWPPEDTDQATRNRYIAYGWALRIMFLHLYALTQALYFKDVKDINDIANALFVLMTQVTLIYKLEKFNYNIARIQACLRKLNCTLYHPKQREEFSPVLQSMSGVFWLMIFLMFVAIFTIIMWVMSPAFDNERRLPVPAWFPVDYHHSDIVYGVLFLYQTIGIVMSATYNFSTDTMFSGLMLHINGQIVRLGSMVKKLGHDVPPERQLVATDAEWKEMRKRIDHHSKVYGTMYAKVTECVLFHKDILSFGDEVQDIFQGSIFAQVCASVIIICMTLLQATGDDVTMADLLGCGFYLLVMTSQVFIFCYVGNEISYTTDKFTEFVGFSNYFKFDKRTSQAMIFFLQMTLKDVHIKVGSVLKVTLNLHTFLQIMKLSYSYLAVLQSMESE,r
RDKitDescriptors2D,0.11530889848341738,-5.614634183197248,0.27303963810224874,0.2338709043604149,0.04151654527284976,0.05705719797535047,-0.02893979329377694,-19.6639434953055,-5.323115220575658,-3.1167424804193873,-0.21449814575293424,0.24512842606723984,MLIEECPIIGVNVRVWLFWSYLRRPRLSRFLVGCIPVAVLNVFQFLKLYSSWGDMSELIINGYFTVLYFNLVLRTSFLVINRRKFETFFEGVAAEYALLEKNDDIRPVLERYTRRGRMLSISNLWLGAFISACFVTYPLFVPGRGLPYGVTIPGVDVLATPTYQVVFVLQVYLTFPACCMYIPFTSFYATCTLFALVQIAALKQRLGRLGRHSGTMASTGHSAGTLFAELKECLKYHKQIIQYVHDLNSLVTHLCLLEFLSFGMMLCALLFLLSISNQLAQMIMIGSYIFMILSQMFAFYWHANEVLEQSLGIGDAIYNGAWPDFEEPIRKRLILIIARAQRPMVIKVGNVYPMTLEMFQKLLNVSYSYFTLLRRVYN,r
RDKitDescriptors2D,0.03674865605691071,-0.606645230036116,0.016477459812759054,0.06870372065771302,-0.021609138908653458,0.07271760364159374,0.0474536350811412,-1.764038208647408,-0.12010530714835066,-0.5082383119109564,-0.1791329691197754,-0.4617113533540891,MVLPKLKDETAVMPFLLRIQTIAGLWGDRSQRYRFYLIFSYFCAMVVLPKVLFGYPDLEIAVRGTAELMFESNAFFGMLMFSFQRDNYERLVHQLQDLAALVLQDLPAELGEYLISVNRRVDRFSKIYCCCHFSMATFFWFMPVWTTYSAYFAVRNSTEPVEHVLHLEEELYFLHIRTSMAHYTFYVAIMWPTIYTLGFTGGTKLLTIFSNVKYCSAMLKLVALRIHCLAEVRQDRAEKELNEIISMHQRVLDCVFLLETTFRWVFFVQFIQCTMIWCSLILYIAVTGFSSTVANVCVQIILVTVETYGYCYFGTDLTTESYSVALAIYDSEWYKFSISMRRKLRLLLQRSQKPLGVTAGKFRFVNVAQFGKMLKMSYSFYVVLKEQF,r
RDKitDescriptors2D,0.04569247134489638,-5.554435288434361,0.1549236953637445,-0.00141817678350864,-0.06462686005116058,-0.042555000071178295,0.1821386982665849,-21.699143583208794,-0.0004443303084640249,-0.867993474448892,-0.7393864037283795,-4.465208650477274,MKFELFQKYSSPDTVLSFVLRLLHIVGMNGAGFWSRIRVGGIFLFYLIFLVIPPLTGGYTDGHQRVRASVEFLFNCNIYGGSMFFAYDVATFQAFIQELKSLSILVCSHSYRLKYKLTRFNRRADIISKVQTTCMGAVTLFYWIAPIPSICAHYYRSTNSTEPVRFVQHLEVKFYRLENRTSVEDYITFVLIMLPVVVMCGYVCNLKVMTICCSIGHCTLYTRLTMEMVEQLESMASAERTASAIRNVVQMHTGLLKCIRLLNTSIRSMLMLQWLTCVLNWSISLIYLTNVGISLQSVTVVVMFFLATAETFLYCLLGTQLATQQQLLEHALYATRWYNYPIAFRSSIRMMLRQSQRHAHITVGKFFRVNLEEFSRIVNLSYSAYVVLKDVIKMDVQ,r
RDKitDescriptors2D,-0.15252362393815372,-0.30610988186153804,-0.010753805833994434,-0.005455038688431113,-0.00010687391767949528,-0.7392513757088772,-0.007051025541786382,-0.563929412736839,-0.4359972915430512,-0.21183167080665366,-0.10517882083762253,-0.21361221338352365,MVLPKLSEPYAVMPLLLRLQRFVGLWGERRYRYKFRLAFLSFCLLVVIPKVAFGYPDLETMVRGTAELIFEWNVLFGMLLFSLKLDDYDDLVYRYKDISKIAFRKDVPSQMGDYLVRINHRIDRFSKIYCCSHLCLAIFYWVAPSSSTYLAYLGARNRSVPVEHVLHLEEELYWFHTRVSLVDYSIFTAIMLPTIFMLAYFGGLKLLTIFSNVKYCSAMLRLVAMRIQFMDRLDEREAEKELIEIIVMHQKALKCVELLEIIFRWVFLGQFIQCVMIWCSLVLYVAVTGLSTKAANVGVLFILLTVETYGFCYFGSDLTSESLSVARAAYGSLWYRRSVSIQRKLRMVLQRAQKPVGISAGKFCFVDIEQFGNMAKTSYSFYIVLKDQF,r
RDKitDescriptors2D,-0.5258755158322,-7.241017213510547,0.19729372513531007,-3.3079090012603496,0.18417623727093324,0.15893835408079726,0.13812310561230845,-29.82505815770572,-5.746412510189387,-0.7165195470861743,0.1132335653550669,-0.030329417926523217,MVRLSFEETLRNTNLMLLMMGIPPCEEPYPPGVLPSLKRNAGFIASFLLLAYTTIGELIYLKQMFERDVTFLEVTFQAPCIGYCTIGVLKMVILARGRNTIAELVGLFRAKWTSAIVTGAHWAVCEDTMRPAIRVTSVTALANVVMGIAFTILPIAEMIYTHHYTGRWNRQLAFNIWWPFDVLGGVKYYWFVYPLYVVIGFTGIIIHMAFDCLFCILAAHLCMQFRILAHNFGHVVEVANGAREGDSGSTSRLRDAIRIHQELIGCSVFMQNVFGNALFINFLGSSIIICIQAFMITTVSGYMLVKFVLFMLCFLIELLMLCAYGEDIVESSLGVIDAAYGCEWYREGSVAFHRSVLQIIHRSQQSVILTAWKIWPIQMSTFSQILQASWSYFTLLKTVYGNK,r
